nep4_zbl 2 Ga In 
zbl 1.25 2.5 0.7
cutoff 6 5 68 39
n_max 4 4
basis_size 8 8
l_max 4 2 1
ANN 60 0
 -5.7731003e-01
  9.4080001e-01
 -1.0190984e+00
 -1.4682149e-02
 -3.8147099e-02
 -1.2541848e-01
  6.1036374e-02
 -6.7141093e-02
 -1.6097261e-02
 -1.3898100e+00
  7.2139964e-02
 -9.8355338e-02
 -2.7605372e-02
  6.2766536e-03
 -1.8815406e-01
  1.4175514e-02
  5.4468349e-02
  2.1713981e-02
  1.5700106e-03
 -2.1233376e-02
  8.6889872e-03
  5.9392661e-02
 -2.0999590e-02
  7.2230053e-01
  1.5089876e-02
 -4.3008890e-02
 -9.5569074e-02
 -4.3300137e-02
 -1.1080177e-01
  7.9814106e-02
 -1.2286357e-01
  1.5366322e-02
  3.9942879e-02
  1.4394649e-02
 -2.5848351e-02
 -3.6901531e-01
  1.1388977e+00
 -1.4464036e+00
  5.4300014e-02
 -1.5924478e-02
 -8.0158561e-02
  1.0712187e-02
  3.9061480e-03
  5.9220619e-02
  2.3797024e-02
  1.0665189e-02
  3.6095757e-02
 -7.1224600e-02
 -2.3140381e-01
  3.0111794e-03
  2.1425931e-02
  2.7682739e-01
 -5.1180441e-02
  1.5030462e-01
 -1.1323570e-01
 -1.0587149e-02
 -3.6399547e-02
 -2.8989714e-02
 -7.1714744e-02
 -1.7468631e-02
 -3.6002316e-02
 -1.1290022e-02
 -5.5556584e-02
  8.9156441e-03
  1.0018451e-01
 -4.9020387e-02
  1.1894126e-01
  6.9351294e-03
 -1.3499620e+00
 -6.7955405e-02
 -7.7989936e-01
  8.5882753e-01
 -1.4215208e+00
 -2.7536375e-02
 -5.6440770e-03
  3.4310076e-02
  1.5253334e-02
 -5.2413799e-02
  1.0524941e-02
  9.1727391e-02
 -9.0671323e-02
  4.7702990e-03
  4.1121561e-02
  6.2066717e-03
 -1.1323251e-01
  6.1416872e-02
 -7.9653971e-02
 -2.0698953e-02
  8.9711837e-02
  3.0122384e-02
 -5.0732507e-03
 -4.4777140e-02
 -3.4361109e-02
  9.5273182e-02
 -3.5197303e-02
 -2.8552374e-02
  1.4592069e-03
 -1.2194162e-02
  1.0068648e-02
 -4.4492237e-02
  9.9722985e-03
  1.6067669e-02
 -2.9402213e-02
 -2.6298063e-02
 -1.1485905e-03
 -3.7348318e-01
  7.2216290e-01
 -8.7192553e-01
 -9.4657943e-02
 -1.1552387e-01
 -3.5172097e-02
 -6.7532741e-02
  3.2085802e-02
  1.5538515e-02
  7.6861149e-03
 -1.3004414e-02
  1.7791156e-02
  7.1591504e-02
  3.9424026e-01
  2.7794743e-02
  3.3706814e-02
 -9.1972790e-04
 -1.3375904e-01
 -5.1076382e-02
  1.0222487e-01
 -2.8295314e-02
  2.4078652e-02
  9.5587395e-02
  1.2627488e-02
 -2.0191783e-02
  4.3516386e-02
 -8.9250296e-02
 -5.4227789e-03
 -1.3910403e-02
  3.2669739e-03
 -9.2793955e-03
  7.3244893e-03
  3.5875726e-02
  1.6582294e-01
 -8.3546583e-03
  1.0401126e+00
 -1.1583176e+00
  5.8068913e-01
 -1.4713424e-03
  4.5651190e-02
 -6.3422896e-02
  1.0332839e-01
 -5.1349644e-02
 -5.3356765e-03
  6.4996900e-03
 -9.8547209e-03
 -3.1531017e-02
  7.8514889e-03
  5.4376565e-02
  6.6200271e-04
  5.5456854e-04
 -8.8988714e-02
 -1.9497391e-02
  4.8450194e-03
 -2.5012145e-02
  5.8776524e-02
  1.4849740e-01
  4.8400611e-02
 -1.5758783e-02
 -4.7053732e-02
 -2.9840194e-02
  5.9669208e-02
  2.9594176e-03
  2.1436190e-02
  6.8180275e-01
 -1.4230531e-02
 -3.7914354e-02
  1.5831629e-02
  7.4780919e-03
  5.8318850e-02
 -6.3957715e-01
  7.8996742e-01
 -1.1822143e+00
 -1.1295561e-01
  4.1781858e-02
 -2.9674383e-02
 -4.4786211e-02
  1.6515203e-02
  5.6026891e-02
  6.0465164e-02
 -3.2308247e-02
 -2.8279413e-02
 -1.0553586e-01
  6.4758457e-02
  1.1778793e-01
 -1.8550431e-02
 -6.0480288e-03
  9.6440203e-02
 -9.0354390e-02
  4.7778036e-02
  1.5383204e-02
 -1.0647122e-01
 -1.3229093e-01
  1.1047278e-01
  3.5560239e-02
  5.0284717e-02
 -5.7232201e-02
  1.3097480e-01
 -1.7207714e-02
  2.7279364e-02
 -5.0074581e-02
 -1.3416369e-02
 -1.5529407e-02
 -5.0533861e-02
  7.7803805e-03
  8.6757177e-01
 -4.2798010e-01
 -3.8286537e-01
  1.7332349e+00
  9.9129833e-02
  9.4417213e-03
 -5.2421600e-02
 -1.0988933e-01
  9.6520364e-02
  1.6851956e-01
 -1.2589002e-04
 -6.7826215e-04
  4.1640553e-01
  7.8075755e-01
  1.1042330e-01
  5.2990758e-01
  4.4826571e-02
  3.3801962e-02
 -2.2510466e-01
 -4.3203969e-02
 -1.5994426e-03
 -1.2758323e-02
 -3.4634671e-03
 -1.6964972e-01
  3.8544081e-02
  1.3612653e-02
  7.3106484e-03
 -2.9027462e-02
 -7.0697285e-02
 -1.6343014e-01
  6.7107342e-02
  1.6801233e-03
 -1.1820785e-02
  2.3852697e-02
  3.3896253e-02
 -9.8247689e-01
  1.1494598e+00
 -9.0218526e-01
  3.2967817e-02
  1.5674409e-02
 -7.9982527e-02
  4.3833356e-02
 -5.8953650e-03
  4.0405165e-02
  1.3357879e-02
 -8.1154238e-03
  1.8568553e-02
 -2.4885409e-02
  2.4685904e-02
  1.4945608e-02
 -3.0096676e-02
 -3.4357016e-03
 -5.8617205e-03
  4.1648856e-04
  1.3883682e-01
  3.8412185e-03
  1.6228464e-01
 -4.0245637e-01
  3.6875475e-02
  9.6879015e-03
 -1.7495265e+00
 -2.5991617e-02
  7.6586403e-02
  1.7475195e-01
  1.5467125e-01
  1.3980396e-02
 -2.8451363e-02
  8.2740169e-03
  1.5344379e-02
 -1.1172388e-01
  4.1170129e-01
 -1.2269409e+00
  9.3029791e-01
  1.5838705e-01
  4.7205608e-02
  8.2235157e-02
 -9.1125056e-02
  1.8328615e-02
  1.3137559e-02
 -5.2007519e-02
  5.1101737e-02
  1.2328909e-02
 -2.1847773e-02
  1.5668038e-02
 -7.5962260e-02
 -1.3252279e-02
 -3.3564628e-03
  4.4028752e-02
  4.3719519e-02
 -6.5539129e-02
  6.6012829e-03
  3.0114545e-02
 -2.1115694e-02
  6.6188261e-02
  5.0069746e-02
 -7.7847905e-02
  3.7269033e-02
 -1.1162684e+00
  4.5416605e-02
 -1.2176186e-01
 -1.2624417e-02
  9.0479061e-02
 -8.5317463e-02
  1.7102158e-02
  9.4216503e-02
  3.9333382e-01
 -1.0277003e+00
  1.3298833e+00
  4.3003049e-01
  1.1795460e-01
  6.9600187e-02
  1.8547568e-02
 -9.7385682e-02
  6.7938000e-02
  2.8247196e-02
 -2.6054785e-01
 -5.0147850e-02
  8.8743627e-02
  5.9894022e-02
 -1.1285247e-02
  2.0544400e-02
  5.4176901e-03
 -1.1185724e-01
 -9.7917281e-03
 -5.8596984e-02
 -8.2981817e-02
 -5.3230538e-03
 -4.3026444e-02
 -7.4218996e-02
  1.3826410e-01
  1.4428540e-01
 -5.3636776e-03
 -1.4111363e-02
 -1.3214698e-02
 -5.1933173e-02
  2.3495217e-03
 -4.8047723e-03
 -5.2803267e-02
  5.8769900e-02
  3.3079891e-04
 -2.5583777e-01
  1.0388389e+00
  2.7620997e+00
 -8.7986302e-01
 -1.2369896e+00
  4.3777853e-01
 -4.8719037e-02
  1.3738395e-01
 -1.2060396e-01
 -8.7079555e-02
  5.7145257e-02
  1.4164533e-02
 -2.1293177e-01
 -7.5703436e-01
  1.3650982e-01
  7.3300141e-01
  6.2634373e-01
  1.8937804e+00
  5.8181190e-01
 -3.3696700e-02
  4.3232256e-01
  1.2066061e-02
 -6.3689989e-01
  1.8112092e-01
 -3.3673801e-02
 -3.4260664e-02
  1.4232664e-01
  1.5989071e-02
  8.8284262e-02
 -5.3142354e-02
  1.1742226e+00
  1.2428115e-01
 -1.2384481e-01
 -6.3908249e-01
  8.0358177e-02
 -4.0288484e-01
 -1.4678724e+00
 -1.7972579e+00
 -1.6081369e+00
 -9.1519237e-01
  6.1380494e-01
 -7.2132289e-02
  1.1699364e+00
  1.3917382e+00
 -4.8510242e-02
 -2.3235736e-02
  3.4406499e-03
 -8.1522711e-02
  2.4433428e-02
 -4.6072327e-02
 -7.4163753e-01
 -3.8693961e-02
 -3.9462753e-02
  5.5875784e-01
  1.4104070e-01
  1.0537809e-01
  3.8457885e-02
  4.0632669e-02
  2.8132927e-01
  2.1534497e-03
 -2.7069191e-03
  6.8968691e-02
  7.7158123e-02
  1.8128051e-01
  2.8031294e-03
  1.8603019e-01
 -5.5772357e-02
 -6.0443036e-02
  6.2094748e-02
  7.3817886e-02
 -3.3708432e-01
  9.0178514e-01
 -9.6337551e-01
  2.8097326e-02
 -2.0100161e-02
  1.7400393e-02
 -1.9915000e-02
  1.5249382e-01
  5.1701918e-02
  4.7091048e-02
  8.1209559e-03
  1.3449674e-02
 -1.0298280e-01
  8.3286287e-03
  1.5797716e-01
 -6.6487923e-02
  2.5340263e-03
  2.9079089e-02
 -2.0761535e-02
 -2.4010658e-02
 -1.5766319e-02
 -7.9795189e-02
  3.7396878e-02
  1.7988940e-03
  2.0990621e-02
  7.6543972e-02
 -2.0926468e-02
  1.0077398e-02
 -2.8519958e-02
  7.2940193e-02
 -9.9263033e-03
 -5.4550968e-02
  1.5667321e-02
  1.0795525e-02
 -2.8741231e-02
 -6.7066157e-01
  6.4196897e-01
 -6.7335343e-01
 -1.2657644e-01
 -4.1507008e-03
  3.7534636e-02
 -1.2209655e-01
 -5.5097485e-01
 -9.0781718e-02
  5.8495667e-02
 -1.5598943e-02
 -9.9911898e-02
 -5.0719851e-03
 -7.0098348e-02
 -3.4253169e-02
 -3.5139788e-02
 -1.1660978e-02
 -3.6439121e-02
  3.1974532e-02
  3.1017557e-02
 -3.5883542e-02
 -1.7659904e-02
 -2.5991973e-02
  4.7296199e-01
 -8.5138299e-02
  2.4469873e-02
  4.2045444e-02
  2.2574790e-02
  8.6001083e-02
 -1.3830855e-02
  1.0613887e-01
 -1.2306374e-02
  1.7890973e-02
  1.5522646e-02
  6.8668445e-04
 -3.6609295e-01
  9.9673188e-01
 -9.6419317e-01
  6.9793109e-03
  2.1149185e-02
  3.6900807e-03
 -7.0507891e-02
  9.7152747e-02
 -3.6014825e-02
 -1.0177071e-01
 -6.0879089e-02
  4.8909951e-02
 -1.0400853e-01
 -8.0307145e-03
 -1.5567012e-01
 -5.0992701e-02
 -1.6697630e-02
 -7.2732165e-02
 -1.5069770e-02
 -6.7700438e-02
 -2.9318122e-02
 -2.1957761e-02
 -5.2296519e-02
  2.8293215e-02
 -7.5314119e-02
 -9.2155136e-02
  5.2440453e-02
 -1.6746437e-02
  1.5388517e-02
 -8.1449509e-02
  9.1240611e-03
 -8.6969510e-03
 -3.4099815e-03
 -3.8008370e-02
  1.2899836e-02
  5.4991347e-01
 -9.1401643e-01
  5.8133626e-01
 -6.2452774e-02
  1.8667992e-02
 -8.7504506e-01
 -1.2962723e-03
  3.3317149e-02
 -1.3325006e-02
  6.7527019e-03
  2.0421991e-01
  1.9757776e-02
  5.5942990e-02
 -4.4979442e-02
 -1.3021836e-02
 -8.2300484e-02
 -6.4443216e-02
  5.9591580e-02
  7.8744121e-02
  8.5633315e-02
 -3.3535678e-02
 -1.5436794e-02
  3.9374527e-02
  1.8292647e-02
  5.9175193e-02
 -1.1839495e-01
  2.7253468e-02
 -6.0411181e-02
  7.8309281e-03
 -2.4779877e-04
  1.3907122e-02
 -2.2518490e-02
 -4.4357177e-02
 -1.7523041e-01
 -2.3982573e-02
 -6.6456407e-02
  3.0295232e-01
 -2.4616797e+00
  1.7386602e-01
  5.3711802e-02
 -5.7081137e-02
 -2.2912860e-02
 -5.1938944e-02
 -1.2886466e-01
  3.6246378e-02
  1.6807482e-03
  5.7938926e-02
 -1.0306485e-01
  1.5499884e-01
  1.0514423e-02
 -3.0657979e-02
  1.2439740e-04
  2.9021256e-02
  4.6090811e-02
 -7.4432023e-02
 -8.7022051e-02
 -8.0778703e-02
 -1.3571666e-01
  2.0572653e-02
  7.3020004e-02
 -6.7416370e-02
 -1.4238561e-02
  3.3241730e-02
  1.2408093e-01
 -4.2149696e-02
  7.3241822e-02
 -8.4709913e-02
 -2.8310755e-02
  6.7094833e-02
 -3.7713991e-03
 -5.9497591e-02
  1.2008545e+00
 -8.2219267e-01
 -9.6779121e-03
  1.8734226e-03
 -1.4631999e-01
  5.5976652e-02
  6.3845798e-02
 -7.0759663e-03
 -1.1612407e-01
  2.3202071e-02
 -4.2789806e-02
 -2.7870605e-02
  6.1102938e-02
  2.1134967e-02
 -5.6429789e-03
  5.6529082e-03
  8.5749522e-02
  3.7068348e-02
  1.1382879e-01
  1.5443477e-02
  2.4969358e-02
  3.3051960e-02
 -1.0836980e-01
 -1.0721139e-01
 -3.8623329e-02
  2.5445858e-01
 -9.0409711e-02
  6.5506719e-02
  2.9434374e-02
 -4.2497732e-02
 -3.7162825e-02
 -2.5892454e-01
  3.2645371e-02
  3.1516317e-02
 -4.0783846e-01
  1.0966557e+00
 -1.2156816e+00
 -3.9873775e-03
 -2.2514886e-03
 -8.0386721e-02
 -3.8149852e-02
 -4.6069823e-02
  3.7335750e-02
  8.2008168e-02
  3.1264614e-02
 -9.1148652e-03
  3.1325712e-03
 -9.3661509e-02
 -1.6010253e-02
  1.7566251e-02
 -1.1475757e-01
 -1.9985382e-02
 -2.1987032e-02
  3.9734044e-03
 -2.5466818e-04
  8.8654958e-02
  9.1141440e-02
 -1.0107309e-01
  1.6348056e-02
 -5.6504745e-02
  9.9794064e-03
  5.9494089e-02
 -7.7915806e-03
 -8.7327629e-02
 -4.0884946e-02
 -5.9255799e-03
 -4.9457870e-02
  1.6277367e-02
 -9.4757038e-01
  6.0410309e-01
 -1.0536277e+00
  1.1825148e+00
  8.8868598e-03
 -8.5787073e-02
 -1.5602128e-03
 -6.4897865e-02
 -1.6834626e-02
  6.2795676e-02
  3.8888201e-03
 -9.2068195e-02
  3.1349104e-02
 -1.3168057e-02
  3.6504488e-03
  1.3104494e-01
  9.7992420e-03
 -4.8416726e-02
  4.7513712e-02
  5.4719904e-03
  7.1775012e-02
  2.9120686e-02
  5.7073772e-02
 -1.3301615e-02
 -1.2066663e-01
 -6.2080665e-04
 -9.3007363e-02
  1.9488949e-02
 -3.4188308e-02
 -3.1775788e-03
  6.6110366e-03
 -5.0935101e-02
 -6.2596262e-02
 -4.2604106e-03
 -6.0707345e-03
 -5.6997877e-02
  6.6021442e-01
 -7.6002830e-01
  7.2886801e-01
  1.5186694e-02
 -4.1237962e-02
 -2.3573797e-02
  1.9782055e-02
 -3.5595079e-03
  3.7164830e-02
  2.3157103e-02
  2.5673406e-02
 -3.0115666e-02
  2.9021993e-03
  1.8208802e-01
  9.4745951e-03
  1.4091608e-03
  1.9565814e-03
 -1.0226186e-01
 -2.7697070e-02
 -2.5972214e-02
 -1.8622931e-02
  4.4118930e-02
 -6.1195541e-02
  2.7240623e-02
 -1.0252899e-02
  6.0281493e-02
 -4.7944639e-02
 -7.6282017e-02
  4.9321656e-03
  1.4992602e-02
 -1.2266421e-01
  6.0953837e-02
 -3.4825385e-02
  3.8551599e-02
  1.5534934e-02
 -1.3922874e+00
  7.3376828e-01
 -2.5304696e-01
 -4.1279104e-02
 -4.7783054e-02
 -3.1164218e-02
 -3.7728228e-02
 -6.7565655e-03
  8.5059099e-02
 -3.0990759e-02
  2.8987994e-02
  1.4971625e-02
 -1.4861220e-02
  1.7417362e-02
 -4.0787578e-02
 -3.1170468e-03
  1.3322964e-04
  5.5008507e-01
  3.0806524e-04
 -3.4246676e-02
  5.4657318e-02
 -1.6758228e-02
 -4.4075862e-02
 -7.2902896e-02
  3.4323942e-02
  6.6189520e-02
 -1.2176335e-02
 -2.2566548e-02
 -2.3393227e-02
  1.2022283e-01
 -1.1584269e-01
  1.0307648e-01
  2.0781413e-03
 -2.4538269e-02
 -5.6234948e-02
 -1.3646445e-01
  1.2298497e+00
 -1.1131493e+00
  1.0420946e-02
 -4.0347921e-03
  3.1666674e-02
  3.0632179e-02
 -3.0716600e-02
 -2.2804763e-02
  2.0085258e-02
 -2.7704815e-04
 -2.8670587e-02
  1.3482898e-02
 -1.4389854e-02
  1.8582379e-02
 -9.4758637e-02
 -1.2789580e-02
  2.8109187e-02
  1.0841002e-01
 -2.3979628e-02
 -1.0589699e-01
 -1.7609112e-02
  7.5904294e-03
 -2.6012274e-02
  6.8124957e-02
  5.5792965e-02
  6.9005741e-04
  6.6493057e-02
 -3.3330642e-02
  1.5153945e-02
  8.3343022e-02
 -3.5684347e-02
  2.1274998e-03
  7.7650569e-02
 -5.1275171e-02
 -4.7722960e-01
  1.0429883e+00
 -1.1917583e+00
 -1.7987816e-02
 -9.4151497e-02
  5.0785817e-02
 -4.1909151e-02
 -2.2950884e-02
  1.1505536e-02
  9.4016986e-03
  1.8485004e-02
  3.8560357e-02
 -9.2904247e-02
  1.4126513e-02
  4.3017615e-02
  2.2296831e-02
 -7.8304164e-02
  2.9070735e-02
 -1.6489552e-05
 -2.2384231e-01
  4.7981152e-03
  3.1165237e-02
  1.5636601e-01
 -6.7080647e-02
  5.3017344e-02
  1.8766325e-03
 -9.5960647e-02
 -7.7209929e-03
  5.9414070e-02
 -2.9521704e+00
 -6.6509910e-02
  7.1206354e-02
 -8.1632175e-02
 -4.1727781e-02
  1.6653992e-02
 -8.2031989e-01
  1.2036923e+00
 -1.0209460e+00
  4.1442740e-01
 -1.3588272e-01
 -4.3680719e-03
 -2.7001984e-03
  3.4923900e-02
  4.9971007e-02
 -7.3987311e-01
 -1.8915769e-02
 -8.1230402e-02
 -2.2413099e-02
 -3.3264879e-02
 -2.1420814e-02
  9.3042679e-02
  4.1269600e-02
 -2.2377012e-02
 -1.1746872e-02
  4.4827223e-02
  1.8710829e-02
 -5.5160515e-02
 -1.6084765e-01
  2.5487602e-02
 -1.7305666e-03
 -5.0105002e-02
  1.5831869e-02
 -6.3839637e-02
  2.7577795e-02
  8.6970374e-02
 -6.3843303e-03
  4.7864420e-03
  2.4377197e-02
 -9.6364639e-04
 -8.9821599e-02
 -2.3439971e-01
 -3.4099475e-01
 -1.0424341e+00
  5.2468151e-01
  1.5031905e-01
  3.6180023e-02
  2.5785802e-02
  8.0098428e-02
 -4.3142993e-02
  9.7999722e-03
  9.9261738e-02
  7.3399529e-02
  1.0522050e-02
  2.6263010e-02
 -1.3433918e-01
  4.1300010e-02
 -5.8156520e-02
 -3.1839993e-03
  5.5887375e-02
  7.5143543e-03
  1.6621630e-01
  7.6828398e-02
  4.9250074e-02
  5.0912678e-02
  5.8923136e-02
  5.6140985e-02
  1.8996345e-02
  9.6522480e-02
  8.2042553e-02
  4.3584686e-02
 -8.5176546e-03
  3.1768993e-02
  6.1832525e-02
 -1.2562001e-01
  2.3385918e-02
  4.8120871e-01
 -9.5166761e-01
  1.5611470e+00
  4.5989953e-02
 -1.0820769e-02
  6.0874555e-02
 -3.5625946e-02
 -5.3287756e-02
  3.0376025e-02
 -7.2480559e-02
 -9.5365578e-03
 -4.6824175e-03
 -1.4546279e-02
  1.8791737e-01
 -5.8551761e-04
 -1.1343468e-01
  3.2812200e-02
 -2.2792250e-02
  2.1307850e-02
  1.6998928e-02
 -1.5605316e-02
 -3.3210479e-02
 -6.2507756e-02
 -2.9253537e-02
 -8.9229150e-03
 -5.0999448e-02
  1.2856560e-02
 -1.7337384e-02
 -2.7292216e-02
 -1.6252458e-03
  4.4569909e-03
 -7.5659856e-02
  4.3749198e-02
 -1.9506652e-02
 -4.8365273e-02
 -6.6834831e-01
  9.3739086e-01
 -9.9193114e-01
  4.3059154e-03
 -2.8541410e-02
 -3.5193741e-02
  1.4965042e-02
  5.6658696e-02
  1.5621098e-02
  1.0596275e-03
  2.6410494e-03
 -5.7757102e-02
 -3.5162587e-02
  9.9554975e-03
 -3.4817237e-01
  1.4747404e-02
  2.9008005e-02
 -1.5120101e-03
 -2.1463513e-02
  1.4474609e-01
 -9.5490962e-02
 -9.6382193e-02
  6.0417935e-02
  3.1646345e-02
  5.7468500e-02
 -5.4924194e-02
 -6.0933616e-02
 -3.9539736e-02
 -2.1829685e-02
  1.1861730e-01
 -1.9049393e-02
 -5.8605500e-02
  2.2422303e-02
  4.5364328e-02
  2.1884990e-01
 -3.1301549e-01
  1.2457812e+00
 -1.0999008e+00
 -1.9774993e-01
 -1.7789733e-02
 -2.6576307e-02
 -1.1950498e-02
 -5.2767355e-02
  4.9536835e-02
  1.0425400e-02
 -2.6098382e-02
  2.3024725e-02
  8.8712564e-03
 -1.4735502e-01
 -3.1238861e-02
 -6.2647238e-02
  1.5010516e-01
  2.1149566e-02
  2.9984107e-02
  2.3961423e-02
 -7.1917579e-02
  1.8076455e-02
 -2.4023440e-02
 -6.3662499e-02
  1.2544972e-03
 -5.1246462e-03
 -2.0991670e-02
  8.8903964e-02
 -8.3256081e-02
  1.1681418e-03
 -1.4791457e-01
 -1.1638225e-01
 -1.2945546e-01
 -1.8718312e-02
  9.6698776e-02
  3.9760879e-01
 -1.0408564e+00
  1.0827192e+00
  3.9949760e-02
 -5.8236204e-02
  1.5359604e-01
  2.3974190e-02
 -1.0596801e-01
 -4.9120057e-02
 -1.2930219e-02
 -6.1868778e-03
 -3.6128744e-02
 -3.5097443e-02
  2.6220126e-02
 -3.8781025e-02
  1.0185172e-01
 -1.1095801e-01
  5.7355681e-04
  1.0878298e-02
 -1.4124113e-01
  1.4089574e-02
  1.6134618e-02
 -2.7766056e-02
 -6.1352659e-02
 -5.7409931e-02
 -1.3431279e-01
 -1.2742063e-02
  8.9391125e-03
 -5.4121476e-02
  4.8233692e-02
 -2.3201177e-02
  1.6825175e-02
 -9.4729103e-03
 -1.4823422e-02
  3.3460129e-02
 -8.3840050e-02
  1.3468838e+00
 -1.0041881e+00
 -1.2565724e-02
 -2.5778772e-02
 -2.6181620e-02
 -1.9848908e-03
 -2.1147827e-02
  3.8899068e-02
 -3.5780430e-02
  6.0008347e-02
  2.2693152e-02
  5.8073193e-02
 -6.3474461e-02
  1.9281695e-02
  1.7468423e-01
 -3.2564558e-02
 -2.1768504e-01
  3.8592576e-04
  2.5274852e-02
 -3.2707207e-02
 -5.7424873e-02
  6.3559292e-03
 -1.3785657e-01
  2.4096765e-02
 -7.9482339e-02
 -1.6359782e-02
  1.8757284e-02
 -3.2405972e-02
  7.9705352e-03
 -9.2162937e-02
  1.1004782e-01
  3.7569381e-02
 -3.6064178e-02
 -8.8230678e-04
  5.9348488e-01
 -9.1820931e-01
  1.1700327e+00
  1.3596801e-01
  1.9814471e-02
  1.2434415e-01
  1.5498202e-01
 -4.1892935e-02
  8.7315980e-03
  1.5431536e-02
  3.9629135e-02
  4.4761710e-02
 -6.7345366e-02
 -5.1304296e-02
  5.3570628e-02
 -3.5741847e-02
 -1.0174419e-01
  4.7682766e-02
  2.6724864e-02
 -6.9685966e-02
  5.0162703e-02
  2.0534476e-02
 -7.1564086e-02
 -2.8143626e-02
 -6.0131359e-03
  1.7387966e+00
  6.8716452e-02
 -2.5186120e-02
  2.1398636e-02
 -3.6596593e-02
  4.4601448e-03
  6.9917217e-02
 -9.6343849e-03
 -5.8286082e-02
  9.1564754e-04
  6.3988429e-01
 -8.8366993e-02
  4.6168563e-01
 -2.7429450e-02
 -2.6700366e+00
  1.0470227e-02
 -1.1106786e-01
 -9.6526122e-01
 -1.3353866e+00
 -3.5505289e-01
 -1.1586770e-01
 -7.0720768e-01
 -2.4714862e-01
 -4.1483831e-01
 -8.3371997e-01
 -4.1337779e-01
 -1.0833013e+00
  2.1139073e+00
 -3.7333906e-01
 -1.0273610e-01
 -5.5424267e-01
 -6.1348993e-01
  9.3400854e-01
 -6.3227028e-01
 -2.2258123e-02
 -1.2740988e-01
 -2.1099354e-01
 -4.3135755e-02
 -1.0693484e-01
  5.4982435e-02
 -9.7943909e-02
 -7.0822865e-02
 -6.3091129e-02
  1.9967140e-01
  4.8096873e-02
 -5.1252657e-01
  9.6034360e-01
 -1.0998802e+00
 -1.3158843e-01
 -7.1630161e-03
 -1.8514194e-01
  1.2702627e-02
 -5.0785951e-02
 -1.5577153e-02
  1.7455274e-01
  3.3275213e-02
 -3.3344693e-02
 -5.2150574e-02
  7.8687973e-02
 -1.5491541e-02
  5.1870096e-02
  5.3144671e-02
 -3.8962945e-02
  7.8076944e-03
  3.2284572e+00
  9.2076436e-03
  8.9270892e-03
 -2.9148238e-02
 -5.3556629e-02
 -1.6874777e-02
  2.3387836e-03
  5.8955412e-02
  1.0656340e-03
 -1.5677560e-02
  4.5932565e-02
 -1.6357098e-02
 -5.0453573e-02
 -1.2930025e-01
  2.4197473e-04
  3.2002043e-02
 -8.4930652e-01
  6.8473953e-01
 -1.4020478e+00
 -2.4340654e-02
 -9.7918399e-03
  1.1143282e-01
 -7.7694911e-03
 -5.0629791e-02
 -4.5645580e-02
 -6.4312527e-03
  7.7181481e-02
  8.6863920e-02
  7.1692690e-03
  2.5599790e-03
  3.3933777e-02
  3.5704274e-02
 -2.9226596e-02
 -1.0664917e-01
  2.8338449e-03
  3.7022296e-02
  2.9242808e-02
  1.4191070e-01
 -3.4729131e-02
 -2.0343112e-02
 -1.0849180e-01
  7.5939689e-03
  2.8464545e-02
  2.3773842e-02
 -6.6253655e-02
  1.3724391e-01
 -7.4642710e-02
  1.1776256e-03
 -3.2796942e-02
 -1.0546923e-01
 -1.4383581e-03
 -7.0378208e-01
  1.0746467e+00
 -8.3360577e-01
  1.2604115e-02
 -1.2770191e-01
 -6.0439222e-02
  1.0083550e-02
 -7.2070182e-04
 -1.6137235e-02
  1.2276033e-03
 -5.4104608e-02
  5.5208667e-03
 -3.1043302e-02
 -6.0705289e-02
  1.3572829e-02
 -5.1754471e-02
 -1.0454845e-01
 -2.9818399e-02
 -3.0521989e-02
 -9.3827367e-02
  1.3227071e-02
  1.0644590e-01
  2.4029694e-02
  7.6306880e-02
 -5.6673389e-02
 -1.3808903e-01
 -6.7545651e-03
 -1.2277243e-02
 -1.5733410e-01
 -4.8654922e-03
 -1.4388070e-02
 -2.4992216e-02
  9.0646539e-03
  4.9526609e-02
  8.0453530e-02
  2.8544584e-01
 -1.2831992e+00
  9.4826657e-01
  1.1537411e-02
  2.2688264e-02
 -2.5799821e-04
  4.8398101e-03
  4.1630704e-02
 -5.2744016e-02
  1.5079139e-01
  2.1230283e-03
 -3.3500675e-02
 -5.1692065e-02
 -3.6162987e-02
 -5.2888957e-03
  3.3778753e-03
  1.3257676e-01
 -8.7024555e-02
 -8.2525989e-04
 -3.2505639e-02
  2.2270519e-03
  4.1472606e-02
 -8.0652945e-03
  2.3224959e-03
  3.1912502e-02
 -1.4190105e-02
 -6.3696448e-03
 -3.4762167e-03
  4.5274507e-02
 -1.7507838e-02
 -1.2323722e-02
  5.3611267e-02
  1.1823748e-02
  3.8143981e-02
 -4.1511159e-02
 -3.4050590e-01
  7.4675530e-01
 -1.1388558e+00
  2.6319264e-02
  1.2472705e-02
 -3.7414759e-02
 -2.0199906e-02
  3.1850294e-03
 -1.1692915e-02
 -1.5377325e-01
 -1.2006379e-01
 -1.6179398e-02
 -9.6155591e-02
 -1.3684793e-02
  2.4178091e-02
 -5.3376283e-02
 -1.5403725e-02
  2.7605820e-02
  5.3674068e-02
  4.0116183e-02
  1.1128245e-01
  3.0011768e-02
 -1.6688837e-02
  1.1091570e-01
 -1.1045074e-01
 -9.7649798e-02
 -3.4985125e-02
  1.3721874e-01
 -1.2512596e-01
 -1.4965094e-02
  3.1368993e-02
  3.1651571e-02
  1.0203583e-01
  1.0714649e-01
 -2.1815877e-03
  4.7023720e-01
 -8.2402122e-01
  1.1583395e+00
  1.7245767e-01
  3.0699212e-02
  8.0869775e-03
  7.4308008e-02
 -1.4075113e-02
  2.2502102e-02
 -7.4823767e-02
  2.6814789e-02
  2.5532817e-02
 -7.2579890e-02
 -2.9278699e-02
  6.1867755e-02
 -6.9916159e-02
 -7.6501548e-02
  2.5276057e-02
  2.9798595e-03
  6.7285486e-02
  8.3530337e-02
  1.2347011e-02
  8.8571653e-02
 -5.0603360e-02
 -3.9770693e-02
  4.3837735e-03
  4.8238956e-03
  4.4420913e-02
 -1.0061075e-01
  7.8073837e-02
 -2.3941418e-02
 -7.1213610e-02
  1.2813807e-02
  7.2818033e-02
 -7.7496037e-02
 -8.3335775e-01
  1.1821527e+00
 -1.1893821e+00
 -4.0942963e-02
  1.6684206e-02
  7.1987690e-04
  1.2007286e-02
 -5.0223492e-02
 -1.0141508e-01
 -3.5429738e-02
 -7.7433527e-02
 -3.3400938e-02
 -1.3317429e-02
  1.3226751e-02
 -3.7746418e-02
 -8.4780820e-02
  8.8972179e-03
  4.4237811e-02
 -9.7334899e-02
 -1.7489512e-02
 -2.3666343e-02
  9.5475344e-03
  5.6333147e-02
  4.1180056e-02
 -4.7068994e-02
  1.7911162e-02
  9.2732862e-02
 -5.5349797e-02
 -7.5911313e-02
 -1.6447037e-01
  5.3447489e-02
 -2.5102779e-02
 -2.7497640e-02
 -1.3048491e-01
 -2.3674978e-02
 -6.5866631e-01
  1.0539303e+00
 -1.1936457e+00
 -5.3413671e-02
 -8.1898153e-02
 -1.5958156e-02
 -4.9608316e-02
 -8.2175851e-02
  2.5239665e-02
 -1.6482051e-01
 -7.3175110e-02
 -5.3432281e-03
  1.0472666e-01
  1.9052461e-02
  6.7000580e-03
  6.2523424e-03
 -2.7079130e-02
  7.3637478e-02
 -2.4886604e-02
  4.9405187e-02
 -5.9616908e-02
  1.8804318e-03
 -1.4577435e-01
 -7.8097172e-02
 -2.2653868e-02
  3.4757987e-02
 -6.2935241e-02
  4.6330154e-02
  7.2137982e-02
 -6.6253692e-02
 -3.8928650e-02
  3.2892715e-02
 -2.6574558e-02
  7.5741708e-03
 -6.1485940e-01
  6.2259841e-01
 -1.2827123e+00
  1.2515936e+00
  6.7830295e-03
  6.2662452e-02
  1.2184851e-01
  8.6562023e-02
  5.4642890e-02
 -5.4340720e-02
 -5.6416332e-03
 -1.3199142e-01
 -1.7728948e-03
  9.7882345e-02
 -1.5319021e-01
 -5.7572583e-03
 -2.0658048e-02
 -1.1805122e-03
 -1.9697886e-02
  5.7693344e-02
  7.5846486e-02
 -2.9563252e-02
  1.5364467e-02
 -1.6117381e-02
  5.4914895e-02
  4.5878943e-02
 -5.7232868e-02
 -3.4660120e-02
  1.8098786e-02
  2.2728482e-02
  1.2589978e-01
 -2.6633792e-02
 -3.2449756e-02
  3.8241647e-02
 -3.6756851e-02
 -3.4415003e-02
 -5.6567723e-01
  9.5968866e-01
 -1.2931747e+00
  3.3774679e-03
 -9.3647884e-03
 -1.5154848e-03
 -3.7005443e-02
 -1.2955327e-03
 -5.8026858e-02
  4.4219308e-03
  5.5545501e-02
 -4.2839043e-02
  6.8100944e-02
 -7.7357101e-03
  8.5633308e-02
 -1.2840956e-02
 -2.1154746e-02
 -5.2863942e-03
  1.9063115e-01
  4.5135599e-02
 -4.0225379e-02
 -6.8958968e-02
 -8.1794098e-02
 -8.4079783e-03
 -4.5302913e-02
 -5.5606044e-03
  8.0730738e-03
  9.9432224e-04
  6.2385295e-02
 -5.1054615e-03
  6.7486271e-04
 -3.8707279e-02
 -4.5418713e-02
 -1.7189767e-02
  1.0800909e-01
  1.7768552e+00
 -9.2487013e-01
  4.9046469e-01
  5.4845542e-02
  6.7939723e-01
 -9.1714621e-02
  6.3550316e-02
 -5.5050594e-03
 -5.1630717e-02
 -6.2183868e-02
 -9.5928781e-02
  8.4429637e-02
  2.1773126e-02
  1.1347132e-01
  2.4822958e-02
  1.1745903e-02
  1.2178521e-02
  7.9752021e-03
  1.1315585e-01
  5.0873000e-02
 -7.9087183e-02
  3.5078339e-02
  1.0566147e-01
  1.1738932e-01
  4.6358211e-03
 -1.4876550e-02
  1.2311336e-02
 -1.8841580e-02
 -3.9415538e-02
 -6.7872466e-03
 -2.8441316e-03
  3.3702070e-01
 -4.2323131e-02
 -1.5106081e-02
 -6.4692772e-03
  1.8822567e-01
 -1.0346547e+00
  1.4920638e+00
 -1.2395627e-02
  1.4119155e-03
 -8.7766863e-02
 -6.0331292e-02
 -3.3750258e-02
  4.2072269e-03
 -3.5844978e-02
  3.2905922e-03
 -5.3269006e-02
 -8.2209203e-03
 -1.6924948e-01
 -2.8516110e-02
 -5.5530895e-02
  3.6254004e-02
 -3.4214891e-02
  4.3243557e-02
 -4.4057470e-02
  1.1766637e-01
  2.3241043e-02
  8.1967555e-02
  9.9558607e-03
  1.1460059e-02
 -2.2393135e-02
 -6.9293976e-02
  2.0266078e-02
  9.1668136e-02
  1.4211525e-01
 -5.6038839e-03
 -2.1151837e-02
 -2.9846037e-02
 -2.5564147e-02
  5.2632216e-02
 -1.2271975e-01
  9.2054820e-01
 -1.0833396e+00
 -1.2668797e-01
  4.1447699e-02
 -3.3457913e-02
 -8.6252041e-02
 -2.0333603e-02
  4.4029416e-03
  4.8371226e-02
 -2.7718028e-02
 -3.2155311e-03
 -4.2921398e-02
 -1.0805982e-01
  3.3404515e-03
  1.3412635e-02
  1.5814126e-02
 -6.5768766e-03
  1.3025900e-02
  7.2264737e-03
  1.0014580e-01
  6.2536575e-02
  1.8523529e-02
 -7.7626705e-02
 -9.2168622e-02
  3.3460725e-02
 -6.0567972e-03
  5.5280034e-03
 -4.6671708e-03
  3.0764235e-02
 -3.3400074e-02
  2.8072437e-02
 -1.0041380e-02
  3.1198183e-02
 -2.3307402e-02
 -1.9210932e-01
  6.0725141e-01
 -1.5362694e+00
 -5.1666629e-01
 -3.5991337e-02
 -2.0794556e-02
 -6.1887102e-03
  2.1743055e-02
  1.1633753e-01
  4.1225877e-02
  1.2708610e-01
 -6.5101251e-02
 -3.4771513e-02
  3.5404049e-02
 -4.9592188e-01
  9.4458722e-03
 -8.0573253e-02
  6.3384399e-02
 -5.9389856e-02
  9.4408967e-02
  4.9388316e-02
  1.0484313e-01
  3.2908875e-02
  7.9191402e-02
  3.6499668e-02
 -8.7881930e-02
  1.9961295e-01
  3.9949968e-02
 -2.0143701e-02
 -3.7358422e-02
  3.7166041e-03
 -1.4554481e-01
 -4.9123075e-02
  1.3520512e-02
 -4.4623941e-02
 -8.3777480e-02
  1.4166346e+00
 -6.8166167e-01
 -6.0221003e-03
  7.4221887e-02
 -1.0593291e-01
  1.9569078e-02
  2.2333477e-02
  6.4331353e-01
 -3.5624135e-02
 -4.7478918e-02
 -7.2372526e-02
 -9.4551157e-04
 -1.5153375e-02
 -5.9109335e-03
 -1.2723914e-01
 -1.1070567e-01
 -2.7473634e-02
  3.8360577e-02
  6.6216074e-02
 -5.0117191e-02
 -2.1683536e-02
 -4.5616557e-03
  5.9909750e-02
  3.8340777e-02
  3.5121717e-02
 -8.2013957e-02
 -5.5136647e-02
 -8.4324758e-03
 -1.0573421e-01
  1.3766985e-01
  2.2045907e-02
 -1.0650803e+00
 -1.3112439e-03
  1.1083121e-01
  4.6860337e-01
 -1.1841931e+00
  1.3429449e+00
 -8.0128685e-02
  1.1893689e-01
  1.4178290e-02
 -1.2736736e-03
  1.0665445e-04
 -5.9926067e-02
  2.5495857e-02
 -1.9096520e-02
  2.5050435e-02
  8.5452022e-03
 -2.1896206e-02
 -1.2909463e-02
  1.3735455e-01
  7.4434459e-02
  3.4254909e-02
 -1.9290755e-02
  1.4062152e-02
  3.6452875e-02
 -2.6804164e-02
 -6.1116484e-03
  9.1273241e-02
  6.7254916e-02
 -1.1779114e-02
 -6.6570118e-02
 -5.7848864e-03
  2.5336456e-02
 -1.4250087e-02
 -1.8835090e-02
 -1.3426535e-01
  1.1650244e-02
  4.1548934e-02
  8.9215338e-03
  1.4966312e-01
  6.4238244e-01
  2.3017256e-02
 -2.1666074e-01
 -2.5982180e+00
 -3.6751220e-01
  6.5174936e-03
  9.6123600e-01
  6.0865585e-02
 -4.8460573e-02
  1.3628815e-01
 -1.4258013e-02
 -4.0116973e-02
 -1.1329828e-01
 -3.2357833e-01
  4.2946568e-01
 -7.5231618e-01
 -6.9578505e-01
  1.2276992e-01
  8.5788794e-02
  4.9586898e-01
 -3.3086546e-02
  6.2542856e-01
  4.9044404e-02
  1.3409959e-01
 -1.5983948e-02
  7.8358807e-02
 -9.6451212e-03
 -3.4629971e-02
 -6.5659702e-02
  1.3551120e-02
  1.0201619e-01
 -9.3646422e-03
  3.4171063e-02
  3.6619309e-02
 -8.6102229e-01
  1.5098989e+00
 -1.2875444e+00
  1.7898345e-02
 -2.0670323e-02
  7.4562550e-02
  1.9401278e-02
  7.7437968e-03
 -1.9508258e-02
 -5.4737367e-02
 -7.4452143e-03
 -1.6307062e-02
  3.9292559e-02
 -2.3986407e-02
  8.7026976e-02
  3.6844537e-02
 -1.7890668e-02
 -3.5623733e-02
  5.0197911e-02
  6.5687299e-03
 -8.5833287e-03
 -4.7935251e-02
 -4.1224710e-03
 -1.5176335e-01
  2.2905098e-02
  1.7026681e-02
 -2.3177033e-02
  1.4356481e-01
  5.6541093e-02
  8.1310779e-02
 -6.2488206e-02
 -2.4532409e-02
  1.8717603e-01
  2.2356914e-02
 -9.4359145e-02
 -6.0841018e-01
  2.2246399e+00
 -7.1222717e-01
 -1.3408662e-01
 -4.0592685e-02
 -8.6989388e-02
  7.7967444e-03
  6.5468792e-03
  6.7139096e-03
 -4.2435125e-02
  5.1208477e-02
 -4.1084208e-02
 -2.3288684e-02
 -1.5007810e-01
 -5.0715473e-02
  1.1663991e-01
  3.3244327e-02
  1.2193481e-02
 -2.6666753e-02
 -2.0222392e-02
 -2.7978536e-02
  4.5170773e-02
 -1.1011124e-01
 -5.4618409e-03
 -1.4702996e-02
 -3.6777396e-02
  2.2925206e-03
  9.4642572e-02
  4.2696796e-02
 -3.8285911e-02
  6.1408110e-02
  5.9197031e-02
  1.1282953e-02
 -6.4226039e-02
 -4.9494937e-02
 -7.8167713e-01
  1.0569836e+00
 -1.1901283e+00
 -4.0015895e-02
 -1.7933522e-01
 -5.4517716e-02
 -4.8340093e-02
  2.5112148e-02
  2.5973715e-02
 -6.4324073e-02
 -4.6544157e-02
 -1.4932043e-02
 -4.0780954e-02
 -1.4043294e-01
  9.0107163e-03
  4.3333420e-03
 -1.7218070e-02
  2.0933775e-02
  1.7972529e-03
 -7.9511568e-02
 -5.3040741e-04
  4.3871056e-02
  5.0211798e-02
 -3.6609445e-02
 -1.2771985e-04
 -3.3715714e-02
  4.5022879e-02
  2.1742694e-02
 -5.6177229e-03
 -5.7563260e-02
  2.1665744e-02
 -2.9154938e-02
 -2.8111590e-02
 -1.5438808e-03
 -9.6076161e-02
  5.3591031e-01
 -1.4006104e+00
  1.1968956e+00
  1.9484536e-01
  2.1355635e-01
 -1.1339390e+00
 -8.9452798e-03
 -4.7026578e-02
 -4.7345374e-02
 -3.8401663e-02
 -1.1297829e-01
  7.8708559e-02
 -2.9201765e-02
  7.7179432e-02
  8.2800463e-02
  3.6065176e-02
  3.4992758e-03
 -3.7297606e-02
 -1.1527984e-02
 -9.9859521e-02
 -8.7271361e-03
  1.3857748e-02
  1.2222252e-01
 -9.8576665e-02
  8.3879918e-02
 -9.8434120e-02
  6.6654305e-03
  5.7291817e-02
 -2.3590000e-02
  1.1882719e+00
 -3.7676476e-02
 -3.9604273e-02
 -3.5694052e-02
  1.9097898e-02
  5.1403511e-02
  4.6563250e-01
 -5.2368951e-01
  6.7789815e-02
  1.3269019e+00
  4.1690439e-01
  5.5652314e-01
 -7.8559959e-01
  7.3192519e-01
 -7.9442658e-02
 -1.1204426e+00
  4.4538818e-02
 -2.5524125e-01
 -8.9356089e-03
 -8.9567401e-02
 -4.8591930e-01
  4.6605778e-01
 -9.0721107e-01
  2.5576303e+00
  3.7844673e-02
 -1.9155869e-01
  5.7530856e-01
 -9.5410532e-01
 -9.6275657e-02
 -7.3886985e-01
 -6.3896892e-03
  8.0241695e-02
 -2.6249699e-02
  9.1240834e-03
 -8.3406769e-02
  3.7401635e-02
  1.1528150e+00
  1.4617820e-01
  1.9453969e-02
  6.0257554e-01
  6.0657717e-02
  3.6392871e-01
 -1.0833660e+00
  1.3899745e+00
 -4.7622122e-02
 -2.3792503e-02
  6.3338230e-04
 -9.8211914e-02
 -4.0076384e-03
  7.7480949e-02
  1.8079478e-01
  2.3496579e-02
 -1.0715645e-01
 -1.9018013e-02
 -3.8227718e-02
 -8.7968633e-03
  4.5950606e-02
  7.8403968e-03
  1.5708979e-02
 -2.0131771e-02
 -8.9524306e-02
  5.1893238e-02
 -7.1695797e-02
 -1.1692540e-01
  2.2623193e-02
 -1.9326415e-02
 -3.6758400e-02
  4.2609982e-02
  7.5630337e-02
 -1.0991027e-02
  4.6539162e-03
  1.3969213e-02
  2.7099229e-02
  2.8120721e-02
 -1.3194949e-02
  1.1430644e-01
 -1.5657567e+00
 -1.7332106e+00
 -4.6610948e-01
  1.3965523e+00
 -9.3375999e-01
  7.4382648e-02
 -1.1987416e-02
  8.4475291e-01
 -3.2025386e-02
  2.4504639e-02
  2.8053159e-02
 -8.1401533e-03
 -2.2256099e-01
 -1.5802114e+00
  4.6709459e-02
  2.6352458e-02
 -3.8961089e-01
 -1.7321835e+00
 -1.2393329e+00
 -3.3491685e-03
 -4.0966459e-02
  1.0580667e-01
 -4.9487893e-02
 -4.0684730e-01
 -1.1819812e-01
 -3.7891038e-02
  5.2688599e-02
 -1.4085125e-03
  1.2526447e-01
 -1.3468267e-02
 -2.1646252e-01
 -4.6016341e-03
  2.6055949e-02
 -1.2534194e-02
 -4.0800933e-02
 -6.1680752e-01
  1.2713157e+00
 -1.1662102e+00
  6.8626311e-03
 -4.1593954e-02
 -6.0595017e-02
 -1.1945460e-01
  3.5490822e-03
 -1.5119022e-01
  1.7846383e-02
 -2.2681972e-02
 -1.5831473e-01
  4.6534758e-02
 -3.1762771e-02
  2.1671785e-02
 -2.2773828e-02
 -7.2171696e-02
  3.0667488e-02
 -2.3378188e-02
  1.8693907e-03
  2.8055500e-02
  6.8751805e-02
  7.7952921e-02
 -5.7747988e-03
 -1.6056034e-01
  2.9436059e-03
 -2.8728922e-03
  4.8247743e-03
 -3.4062643e-02
 -2.7035374e-02
 -3.0782804e-02
  2.1324079e-02
 -2.4596933e-02
 -1.1227455e-01
  2.6378077e-03
 -6.3199961e-01
  1.3147069e+00
 -1.0052869e+00
 -1.1056466e-01
 -2.8378865e-02
  1.2617947e-01
 -3.9000532e-03
  5.6875050e-02
 -6.6417620e-02
  3.2606453e-02
  1.5999480e-01
  3.1919554e-02
 -5.0749023e-02
 -5.5662367e-02
 -2.6936870e-02
  7.4887164e-03
  1.0921270e-01
 -3.9967239e-02
  1.5926344e-02
  4.4392724e-02
  1.8060324e-01
 -1.6269265e-01
  3.6972921e-02
  6.5941565e-02
  5.9234116e-02
 -5.9122890e-01
 -2.2714844e-02
 -1.0417743e-01
 -9.9806236e-03
 -1.6098702e-01
 -1.1280101e-02
  2.8675063e-02
  1.4720670e-02
  1.5775863e-02
  2.3480373e-02
 -7.2990435e-01
  8.3442020e-01
 -7.3900282e-01
 -2.3018491e-02
 -2.0318657e-02
  5.0486557e-02
  5.4585848e-02
 -4.5131821e-02
  3.4591854e-02
 -1.4269145e-01
 -4.0876072e-02
  3.6463968e-02
  1.0179888e-01
  5.2592964e-03
  4.9392980e-02
 -8.0170833e-02
  7.5868823e-02
 -8.4290512e-02
 -1.3025826e-01
 -2.2078874e-02
 -4.9775846e-02
  4.7617078e-02
 -2.0558493e-02
 -2.7957244e-02
 -1.9366572e-02
  2.5715558e-02
 -4.9108788e-02
 -1.2203600e-03
 -1.7051741e-01
 -1.4090730e+00
 -1.3371625e-03
 -2.7648676e-02
 -6.6335306e-02
  1.8511821e-02
 -4.7888863e-03
  8.9892745e-01
  7.8877479e-01
  1.2244793e+00
  1.1069577e+00
 -1.1864609e+00
  6.6282493e-01
 -1.2643143e+00
  8.9837885e-01
 -1.2988564e+00
 -1.1368872e+00
  2.1757903e+00
 -1.5149715e+00
  1.4965817e+00
  1.5467908e+00
  1.0033770e+00
 -1.1447766e+00
  7.5277758e-01
  1.0617106e+00
  1.2252915e+00
 -1.4301466e+00
 -1.2466977e+00
  1.4922724e+00
  1.4214326e+00
  1.1792425e+00
  1.2318149e+00
 -3.6971445e+00
 -7.8603339e-01
  1.1444362e+00
  9.5272171e-01
 -1.0868882e+00
  1.2028781e+00
 -1.1912304e+00
  2.6144648e-01
  1.1112065e+00
  8.6578220e-01
  1.3726544e+00
 -1.2304718e+00
  9.4348150e-01
 -1.3896688e+00
  1.0887973e+00
  1.0144737e+00
 -1.0246905e+00
  8.1974274e-01
 -6.4848375e-01
 -1.2181638e+00
  1.2610793e+00
  1.0314339e+00
  5.6169838e-01
 -1.0495895e+00
 -3.1421010e+00
  4.0180597e-01
 -2.2478564e-01
  9.9472797e-01
 -1.0491645e+00
  2.0259471e+00
 -1.0208340e+00
 -2.6477339e+00
  8.1745166e-01
  1.0061412e+00
  1.2730355e+00
  8.0104166e-01
  2.4192441e+00
  4.7730236e+00
  6.5024269e-01
 -2.5857472e+00
  8.1861717e-01
 -2.2015936e+00
  1.7652563e+00
 -3.8873594e+00
 -4.2492738e+00
  7.2005039e-01
  2.2688347e-01
  2.1707025e+00
  1.5207191e+00
  1.4084352e+00
 -4.3251303e-01
  1.6404780e+00
  6.4514250e-01
  3.1031730e+00
 -5.2366009e+00
 -6.7372102e-01
  1.9639289e+00
  2.6819708e+00
  1.9447136e+00
  5.4596977e+00
 -7.4993229e-01
 -2.5760820e+00
  3.1092048e+00
  2.2581794e+00
 -1.5287389e+00
  2.3184204e+00
 -2.9562845e+00
 -5.9351784e-01
  1.8814814e+00
  2.2030859e+00
  2.5709469e+00
 -2.4243433e+00
  7.2210872e-01
 -2.6024425e+00
  5.6214256e+00
  3.9341269e+00
 -5.1359634e+00
  1.5795751e+00
 -1.1250386e+00
 -2.9091413e+00
  1.2864518e+00
  1.3659207e+00
  3.3990729e-01
 -4.7754130e+00
 -1.0267678e+00
  3.1770399e+00
  1.3500588e+00
  3.1807897e+00
 -4.3009810e+00
 -7.9055321e-01
 -2.7395844e+00
 -2.2666578e+00
  2.3829572e+00
  2.8788481e+00
  1.0950001e+00
 -4.2170170e-01
  9.7387120e-02
  1.1018782e+00
 -1.0014729e+00
  8.8115178e-02
 -8.2899183e-02
 -6.4881057e-01
 -4.8485409e-02
 -1.4261876e-01
  6.5204233e-02
 -1.8206719e-01
  1.0133486e-01
  1.2801516e-01
 -2.9450405e-02
  1.6680581e-02
 -6.9568804e-03
  4.4457845e-02
 -4.2765379e-02
 -3.6264744e-02
  1.0377153e+00
 -1.1023369e-01
 -2.1195017e-02
  1.4995034e-02
 -6.2713735e-02
 -2.2215214e-02
  3.7228123e-03
 -4.9333774e-02
  9.1024125e-03
  2.5547331e-02
  6.4280452e-03
  2.2871559e-02
  5.6529380e-02
 -8.9909732e-03
 -1.2910432e-01
  1.9016230e-02
 -2.4705268e-01
  2.0654640e-01
  1.2641991e+00
 -1.2254276e+00
  3.3478662e-01
  1.5900068e-01
 -2.0371175e-03
 -1.7451545e-02
  1.7795840e-02
 -3.5751563e-02
  4.0861987e-02
  2.4903208e-02
  1.8711397e-03
 -1.5355588e-02
 -2.1948015e-02
  1.3164166e-02
 -7.1304999e-02
 -1.7850921e-02
 -3.4402996e-02
  1.1066896e-02
 -2.4150435e-02
 -6.0087040e-02
 -2.1798578e-03
  1.7048534e-02
  1.2829165e-01
 -5.5415694e-02
 -5.4745458e-02
 -2.7595453e-03
 -9.0475492e-02
  5.3321000e-02
 -9.3134701e-02
 -3.1858197e-01
 -1.4248115e-01
 -5.1363137e-02
 -8.3622850e-02
 -4.3977150e-01
  3.7351754e-01
  7.1152204e-01
 -1.0673999e+00
 -8.1519611e-02
  6.5760560e-02
  9.3470320e-02
 -1.0654479e-01
 -1.4946123e-02
 -6.9161341e-02
  1.4081879e-02
  7.9327449e-02
  1.1150809e-02
  5.6349777e-02
 -1.1946840e-01
  1.9376162e-02
  1.6666327e-01
  2.8875606e-02
  3.3282913e-02
  5.4795597e-02
 -7.3619016e-02
 -2.8077478e-03
  3.4612402e-02
  9.4547737e-03
  1.9321762e-02
 -7.1054615e-02
 -1.6060363e-01
 -1.3933869e-02
  2.2981143e-02
 -2.2799501e-02
  3.1302035e-02
  4.1960318e-02
 -3.9093103e-02
  3.9205635e-03
  1.0322072e-01
  2.4320529e-01
 -2.0183116e-01
 -7.6523557e-02
  1.2630004e+00
  4.7475159e-02
  7.0920810e-02
  2.8030537e-02
  2.9946394e-02
  1.0911823e-02
  2.3517039e-01
  3.6575206e-02
  6.3110419e-02
  1.0829977e-03
 -4.6383282e-03
  1.7377554e-02
  3.8136866e-02
 -7.6559223e-03
 -1.0275925e-02
  1.0586832e-01
 -2.2556390e-01
  1.5396489e-02
 -9.9173769e-02
  6.8742990e-02
 -2.3365732e-02
  7.5790949e-02
 -2.6712850e-02
  1.0112730e-02
  8.6184561e-02
  1.2681776e-01
 -9.0416886e-02
  1.1347788e-01
  1.7403889e-02
  3.9810620e-02
  9.6709892e-02
  1.6479179e-02
  7.0719677e-01
 -7.8282254e-03
 -1.0770357e+00
  1.9252229e+00
  1.5991634e-01
  5.8024447e-02
  8.2267866e-02
  8.7569669e-02
 -4.0951669e-03
 -1.0446208e-01
  2.4916511e-02
  3.2876629e-02
  5.2389935e-02
  1.3354974e-02
  5.7043418e-02
  7.7466629e-02
 -7.2622591e-01
 -4.4765425e-01
 -5.7426434e-02
  1.2347066e-02
 -2.1800550e-02
 -3.2678038e-02
 -7.9343244e-02
 -3.6408305e-02
  2.0113491e-02
 -2.1668704e+00
  5.9035342e-02
 -1.8918063e-03
  7.4030630e-02
  6.2762618e-02
  1.1254279e-04
  5.1023878e-02
  1.4161855e-02
  1.7172989e-02
 -3.6419254e-02
 -1.4424603e-01
  8.9424431e-02
  5.9622210e-01
 -1.1798481e+00
 -1.4670306e-02
  5.0743587e-02
  4.6217993e-02
 -1.2214311e-02
 -1.4078118e-01
  7.7278741e-02
 -9.8577852e-04
  9.6492976e-02
 -1.0477619e-01
 -1.7135046e-01
  3.0090576e-02
  9.7878575e-03
  5.8312505e-02
 -3.9076079e-02
 -1.8816942e-02
  4.5072749e-02
  6.5711647e-02
  2.2894626e-02
 -1.2132848e-01
  1.0829078e-01
 -1.0277872e-02
  1.5414061e-01
  7.3499732e-02
  9.9683076e-02
 -1.2240854e-01
  1.3334111e-02
  1.0497651e-01
 -1.5564179e-02
  4.3534203e-03
 -4.7742963e-02
 -8.3045900e-02
 -4.8852727e-01
 -8.2982786e-02
  6.9697678e-01
 -1.0924078e+00
 -2.5415076e-02
 -9.5352292e-02
  8.1135452e-02
  1.2325088e-01
 -2.5279677e-02
 -1.4589649e-01
 -1.1279538e-01
  4.3035932e-02
 -4.6338583e-03
 -6.0824152e-02
  1.4497247e-01
 -1.2849835e-01
  5.8740154e-02
 -7.5820186e-03
  7.1210645e-02
  8.8689193e-02
 -1.5592727e-02
 -9.7236954e-02
  3.5698619e-02
 -5.5615578e-02
  4.3944366e-02
  2.0888483e-02
 -4.5884317e-03
 -3.3520201e-01
 -6.8808913e-02
  6.0406674e-02
  2.5185136e-02
  1.0955361e-01
  1.0058030e-01
 -3.2117657e-02
  8.5714258e-02
  3.0458537e-01
 -2.7480081e-01
 -5.7298338e-01
  1.2791592e+00
  2.1272743e-01
  2.2988956e-02
  1.5176539e-01
 -6.3443437e-02
 -1.1656224e+00
 -4.7445286e-02
  4.6935853e-02
  6.5227300e-02
  1.0004376e-02
 -8.4952228e-02
 -1.0043424e-01
  3.1709425e-02
  6.8729803e-02
 -4.4053614e-02
 -4.1230924e-02
 -1.0729626e-01
 -1.5819002e-02
  9.2481904e-02
  6.9121353e-02
 -6.3882336e-02
 -4.5914695e-02
 -3.8783558e-02
 -4.9311992e-02
  8.4548332e-02
 -5.8189355e-02
  4.1844305e-02
 -1.0846755e-01
 -7.4961960e-02
 -2.7121933e-02
  2.9693829e-02
  7.2664365e-02
  3.6011496e-01
 -1.5464397e-01
 -6.2917203e-01
  8.3372879e-01
  5.7266019e-02
 -2.7984610e-02
  5.4552641e-02
 -2.6115308e-02
 -5.2837981e-03
  5.2157611e-02
 -9.4574191e-02
 -1.8295413e-01
  8.3341546e-02
 -3.4580339e-02
  8.0411196e-02
  6.8135321e-02
  5.0765336e-02
  4.6045162e-02
  9.3923375e-04
  7.5978659e-02
  1.9098642e-01
  5.6408506e-02
  1.2794793e-02
  2.7831802e-01
  6.0982749e-02
 -8.0756649e-02
  5.2866917e-02
  5.2548205e-03
 -5.5120215e-02
 -4.3865956e-02
 -2.3201399e-02
 -1.9015905e-02
 -8.8584714e-02
  1.5292348e-01
  3.6383048e-02
 -4.4609237e-01
  2.1433486e-02
  7.6671672e-01
 -9.4849396e-01
  3.8570501e-02
 -6.8174611e-04
  6.4680718e-02
 -8.6403489e-03
 -1.6038151e+00
  5.7717379e-02
 -9.1576166e-02
  1.5074624e-01
  3.2199425e-01
  3.2043728e-01
  3.5744563e-02
 -5.0096091e-02
 -2.1612569e-04
  1.4891091e-02
 -1.3813405e-01
  6.1405060e-04
 -8.6981922e-02
  1.8784016e-02
 -8.9796297e-02
  5.8365330e-02
 -4.6201494e-02
  1.3878172e-02
  1.2367830e-01
  2.6845487e-02
 -2.9158922e-02
 -3.7912544e-02
 -1.9336170e-01
  2.1809354e-02
 -1.6379683e-01
  1.4562049e-02
  7.5348757e-02
  7.1008188e-01
 -1.9145325e-03
 -6.6550112e-01
  1.0049733e+00
  1.9855009e-02
 -3.2894105e-02
 -8.0963254e-02
  1.0410218e-01
 -4.2897230e-03
  2.2818021e-02
  8.2783774e-02
  2.7926378e-02
 -2.7754307e-02
  1.0125603e-01
 -9.6293710e-02
  6.6658400e-02
  1.5634369e-02
 -9.0633975e-03
 -2.3727266e-03
  3.6356259e-02
 -1.2517230e-01
 -8.5172012e-02
 -8.2021438e-02
  2.7629595e-02
  1.5106344e-01
 -3.8141124e-02
 -3.5534473e-03
 -1.5352546e-01
 -3.0906072e-02
  9.7790705e-03
  7.8611352e-02
  3.2755107e-02
 -6.6750785e-03
  1.2333503e-01
 -8.4307818e-03
 -8.7168825e-01
  6.8508762e-01
  1.2418902e+00
 -2.8400967e+00
 -2.7177980e-02
 -2.4167751e-01
  8.0996074e-02
  9.7013816e-02
 -8.1258621e-03
  1.4655715e-02
  9.5995836e-02
  1.0162085e-01
  9.0460397e-02
  6.9678570e-03
 -7.6108165e-02
 -2.5973551e-02
 -5.7518034e-04
 -5.9814386e-02
 -1.7310042e-02
 -4.7876406e-03
  1.8385975e-02
  7.8013636e-02
 -3.5183929e-02
  4.4448063e-02
  3.5979826e-02
  6.8133950e-02
 -2.9399913e-02
  1.4252948e-02
 -3.7891738e-02
  8.9758523e-02
 -1.5867881e-02
  2.6148105e-02
 -4.3610316e-02
 -4.0553913e-02
 -2.0290589e-01
 -1.2460530e+00
 -1.7564341e-02
  1.3688798e+00
  1.8216466e+00
 -4.8578672e-02
 -3.0218911e-01
 -1.3761225e-01
 -1.9636568e-01
 -8.3931130e-01
 -1.8249413e+00
 -4.4969823e-03
 -5.3685540e-01
  2.8810090e-01
 -7.5197697e-01
 -4.4267103e-01
 -3.4222120e-01
 -2.0230970e-01
  5.0560075e-01
 -1.1976010e+00
 -8.9129961e-01
 -1.8579772e-01
 -1.6342720e-02
  2.6154259e-01
 -1.4553994e-01
 -2.6940280e-01
  1.5679231e-02
  6.5546423e-02
  1.0800877e-02
  8.6078010e-03
 -2.5888938e-02
  5.9149033e-01
  2.9833486e-02
  1.8340005e-01
 -7.3206201e-03
  1.3940775e-01
 -4.1110265e-01
  2.3146045e-01
  1.0481064e+00
 -1.1563671e+00
  2.8639169e-02
  1.1765370e-02
 -3.5406888e-02
  6.5748312e-02
  2.7485181e-02
  4.1815046e-02
  5.7139106e-02
  1.1458963e-01
 -9.1263004e-02
 -3.1522655e-01
  5.1966857e-02
  2.2190787e-01
 -7.4751140e-03
 -1.1301162e-02
 -1.1294595e-02
 -2.2582335e-02
  1.1436108e-01
  2.6789173e-02
 -2.6211780e-02
  3.7646264e-02
 -1.2957913e-01
 -1.7340955e+00
  1.5842367e-02
  3.3662107e-02
  7.3053520e-03
 -6.7507938e-02
 -6.6018201e-02
 -8.8960849e-02
  2.2110768e-02
 -6.0569115e-02
 -4.3443654e-02
 -1.3728884e-01
  3.4407720e-02
  8.7916607e-01
 -1.2448325e+00
 -1.1350242e-01
  7.6410994e-02
  5.8347203e-02
  7.1973264e-02
 -1.7900595e-01
  8.6652212e-02
 -2.3894431e-02
  5.3639293e-02
  2.1141479e-02
  1.3930964e+00
  4.1662287e-03
  1.2547434e-03
 -6.0110882e-02
  7.9743065e-02
 -5.7279810e-02
 -3.5703793e-02
 -5.4247256e-02
  8.4490655e-03
  7.7506863e-02
 -4.1111231e-02
  1.1518889e-02
 -3.9530549e-02
  9.8076925e-02
  1.3678011e-01
 -1.1145301e-02
  1.5327287e-01
 -1.5239307e-01
 -3.6967520e-02
  1.5036863e-01
  2.0906087e-02
  2.4517319e-01
  7.4039318e-02
 -1.9770290e-03
 -4.6337271e-01
  1.2625121e+00
  4.4423055e-02
  5.7113439e-02
  5.1794086e-02
 -2.5040092e-02
  7.1641512e-02
  9.1936037e-02
 -1.6717143e-01
  7.2138630e-02
 -1.2326206e-01
 -1.1551083e-01
  1.6420045e-01
  1.2997399e-02
 -1.0956890e-01
  9.9116214e-02
 -2.8551526e-02
 -6.7951210e-04
  3.3698969e-02
 -9.9134762e-03
  1.0623559e-01
  5.1698416e-02
  1.7371681e-02
  3.2551598e-02
 -8.1975728e-02
  1.2567893e-01
 -2.0669825e-02
 -6.4536847e-02
 -7.4869789e-02
  7.7101730e-02
 -1.4405394e-01
 -2.4302509e-03
 -2.2959631e-02
  2.6556113e+00
 -5.6316781e-01
  2.8325698e+00
  5.9554774e-01
 -2.7581847e+00
 -2.8882462e-01
  7.1836084e-01
 -4.2283100e-01
  1.8909911e-02
  2.3355387e-01
 -5.7233013e-02
  4.4226879e-01
 -2.9042326e-02
 -4.4477463e-02
  2.4685723e-01
 -1.8529156e-01
  7.2118467e-01
 -1.8093492e-01
  1.1506638e-01
  4.8590648e-01
 -5.2830536e-02
  1.0694247e-01
 -1.7799944e-01
  5.6880045e-01
  5.3214920e-01
  3.0079218e-02
 -2.7460003e-02
 -4.3998819e-02
 -1.2503482e-01
  1.2435716e-01
 -8.7344415e-02
 -2.0862002e-02
 -1.4526176e-01
 -2.9094848e-01
  1.2417337e-01
 -4.6835238e-01
  1.2613964e-01
  5.4904336e-01
 -1.0804543e+00
 -6.2481887e-03
  2.5787702e-02
  8.6735271e-02
 -3.7548181e-01
 -4.2653602e-02
 -1.3317226e-01
 -5.3309120e-02
  5.1407173e-02
 -2.6806457e-02
 -6.9388092e-02
  5.5707805e-02
 -5.1018812e-02
 -1.0342846e-01
  2.4577934e-02
 -1.1615457e-01
  3.3154525e-02
  3.1842493e-02
  7.6985888e-02
  4.0609051e-02
 -1.9004868e-01
  1.4592424e-01
  2.1029294e-02
  2.2034568e-01
 -3.3455122e-02
 -2.7699336e-01
  1.6332952e-02
  2.1192852e-02
 -6.2174685e-03
  9.3527921e-02
  2.4650104e-02
  1.8082580e-02
  2.4678537e-01
 -3.3377540e-01
 -2.3776723e-01
  1.4512899e+00
 -8.2229421e-02
  4.1244820e-02
  2.2715705e-02
 -5.2765466e-02
 -8.1933737e-02
  4.0612821e-02
  2.5177578e-02
  4.8475799e-01
  9.6493825e-02
  6.5283231e-02
  3.3983022e-02
 -5.3128250e-02
 -2.5694391e-02
  1.2868354e-01
  7.4406587e-02
  1.5333474e-01
 -3.7091684e-02
  2.5781697e-01
 -1.2002676e-01
 -7.6451339e-02
  3.1139160e-02
 -9.6939214e-02
  2.5626373e+00
  5.6327425e-02
  2.3358539e-02
  1.1334752e-01
  4.0087914e-01
  8.8854931e-02
  3.2883670e-02
 -4.6148382e-02
  1.0549726e-01
  2.2351374e-01
 -1.1550934e-01
 -3.1885941e+00
 -4.0125933e-01
  7.0029694e-01
 -1.5042534e-02
  7.6186820e-03
  1.8480429e-01
 -1.3543387e-01
 -1.7793018e+00
  2.1423995e-01
 -5.7584584e-02
  9.8381478e-01
  8.1457339e-02
  9.8931186e-02
 -1.3037560e-02
 -1.0527128e-01
  1.6795088e+00
 -6.1251813e-01
 -7.0278995e-02
  1.9851233e-01
  1.8435881e-02
  7.1133232e-01
 -3.0540749e-01
 -3.0935150e-02
  2.5076559e-02
 -2.7996352e-02
 -5.7563078e-02
 -2.6033025e-02
  2.3002189e-02
 -8.1070207e-02
 -1.4533771e-02
  1.7369354e-01
 -6.8414547e-02
  5.2042153e-02
  2.2313888e-01
 -2.0493942e-01
 -4.8833063e-01
  1.1157566e+00
  6.9883023e-03
 -7.2375648e-02
  4.2688183e-02
  6.3984856e-02
  7.9957560e-02
 -1.7144753e-02
  1.2907355e-01
  1.8984485e-01
  2.6923440e-02
  4.8284069e-02
 -6.3371487e-02
  9.9269807e-02
 -5.1611762e-02
  2.1242373e-02
  4.4736385e-02
  1.2905130e-01
  2.2739615e-02
 -1.7673060e-01
  1.8405065e-01
  4.1106357e-03
  4.4252638e-02
 -2.3155289e-02
  9.4691165e-02
 -2.2940995e-02
 -1.5247414e-01
  1.4939934e-01
  2.7600950e-02
  1.3668580e-01
  6.3682750e-02
  1.3375485e-02
  4.1733280e-02
 -2.7449751e-01
  2.5774533e-01
  4.0618598e-01
 -1.1160537e+00
  1.3755557e-01
 -1.1607838e-01
 -7.4094711e-03
  5.3277541e-02
 -1.2107357e-02
 -1.0134184e-01
 -3.7119962e-02
 -4.7661893e-02
  5.8212951e-02
  2.9516151e-02
  8.3033949e-02
  2.0202943e-03
 -3.0581824e-02
 -9.0013134e-01
  9.0710423e-04
 -5.6689605e-03
 -1.9763952e-01
 -8.5809948e-03
  2.2086348e-02
 -1.5988344e-01
 -9.7917365e-03
 -1.6751701e-02
 -2.1823615e-02
  1.0740234e-01
 -9.8465249e-02
 -9.4011184e-03
 -3.7082922e-02
 -6.4230382e-02
 -2.6617727e-01
 -1.3821349e-01
 -1.2833758e-01
 -3.9026693e-01
  1.7333166e-01
  3.0211887e-01
 -1.3710026e+00
  1.0850530e-01
  8.1018248e-04
 -1.2302917e-01
 -2.3091666e-02
  9.7936861e-02
 -2.0837953e-02
 -1.9070983e-02
 -5.8348492e-02
 -7.9431511e-02
  4.7238685e-02
  1.1401128e-02
 -2.1266975e-02
  9.1435604e-02
 -1.8835217e-01
 -3.7992612e-02
  5.8668550e-02
 -2.3901869e-02
  1.4465227e-03
 -8.5933227e-03
  4.4696704e-02
 -3.6188364e-02
 -6.2688127e-02
 -5.8373045e-02
  7.4868905e-03
  5.5895947e-02
 -2.3699511e-02
 -1.9272188e-02
 -8.4775472e-03
 -2.9522037e-02
 -5.3294208e-02
 -3.9941214e-02
 -1.9066110e-01
  4.4403706e-02
  3.4268656e-01
 -1.7646649e+00
  7.4004464e-02
  2.3364294e-02
 -4.1496605e-02
  8.4101982e-02
 -3.1839088e-02
 -8.4314728e-03
 -2.6077840e-01
  2.2390381e-02
 -5.8585312e-02
  4.4395566e-02
 -5.4011182e-03
 -5.5193547e-02
 -5.5397049e-02
 -8.0883041e-02
  9.5249712e-02
 -2.7205473e-01
  5.6025054e-02
 -1.4720389e-02
  5.7608258e-02
  1.1359690e-01
 -6.8973251e-02
 -7.9708084e-02
  9.3093604e-02
 -8.4607117e-02
  4.1987274e-02
 -1.2135606e-01
 -1.1180786e+00
  4.0728066e-02
  4.1961115e-02
 -2.6044283e-02
 -1.5739519e-02
 -4.6143311e-01
 -3.7910100e-03
  2.0757027e-01
 -1.2402343e+00
 -1.4073245e-01
 -9.9375933e-01
  2.6858969e-02
 -4.9946826e-02
 -4.8946142e-02
 -9.0889990e-02
  5.8043163e-02
  1.6895086e-01
  9.7163185e-02
  1.0798723e-01
  4.1681182e-04
 -1.2723033e-01
  2.4461744e-02
  2.7821112e-02
  1.1480204e-02
 -2.1252868e-01
 -1.4272749e-01
  3.2337710e-02
 -8.5430801e-02
  2.0657760e-01
 -1.5582070e-01
 -3.6846284e-02
  3.8943876e-02
 -1.7269427e-02
 -2.4303192e-02
  6.1872035e-02
 -1.7984476e-02
  1.3721915e-01
 -2.8054256e-02
  1.2944326e-01
  7.9152882e-02
  2.1616085e-03
 -6.1695468e-02
  8.5676587e-01
 -9.6521866e-01
 -8.7490343e-03
  1.5352600e-02
 -6.0606552e-03
 -1.4205413e-01
 -3.5177644e-02
  2.4364125e-02
  2.4642862e-02
  4.4084515e-02
 -8.6787000e-02
  8.3271321e-04
 -6.6770939e-03
  1.0329732e-01
 -2.5286386e-03
 -8.5489601e-02
  6.9406770e-02
 -1.5871795e-01
 -5.8520986e-03
  1.8087114e-01
 -1.7001919e-01
 -2.9608354e-02
 -4.8123319e-02
  1.4369950e-01
  3.0411689e-02
 -1.0633988e-01
  8.8858619e-02
  3.3566472e-03
 -7.5914495e-02
 -2.0560376e-02
  2.9087607e-02
  4.6503261e-02
 -1.0950482e-01
 -3.4049562e-01
  4.9120158e-02
  8.3175111e-01
 -1.1332337e+00
  2.4376278e-01
 -4.1283048e-03
  7.4898742e-02
 -1.0171286e-02
 -3.1823788e-02
  4.6168014e-02
  1.0595164e-01
 -7.7178408e-03
  9.6867280e-03
  3.2218020e-02
 -6.1069150e-02
 -8.6777948e-02
  6.4293534e-02
  8.1252486e-02
 -5.0152745e-02
 -3.0639209e-02
 -4.6912469e-02
  2.3191126e-02
 -2.2320592e-01
 -2.2716397e-01
  6.3955791e-02
 -1.1800365e-01
  2.3665670e-02
 -2.2324583e-02
  1.8564843e-01
 -5.2115425e-02
 -1.2734072e-01
 -9.7540626e-03
  9.0824828e-02
 -5.0821654e-02
 -5.2179550e-03
 -9.3012996e-02
  1.0951795e-01
  5.8519876e-01
 -1.1342590e+00
 -4.0023539e-02
  1.3462912e-02
 -3.5433525e-03
  1.1180967e-02
  2.1905938e-02
  1.0487817e-01
  6.6346012e-02
  7.9450021e-03
  4.2542154e-03
 -5.7409570e-02
  1.7960274e-01
 -5.7170615e-02
 -6.7495376e-02
 -2.4927286e-03
  2.3636244e-02
  1.6647470e-01
 -1.7821494e-02
  8.5886307e-02
  5.7424050e-02
  1.0556368e-01
  2.4759592e-02
  4.8107747e-03
  4.6314206e-02
 -3.5374131e-02
 -1.2805833e-02
  6.0530227e-02
  5.1426534e-03
 -2.8426677e-01
  5.6792580e-02
  1.3413017e-02
  1.2760259e-01
 -1.9842280e-01
  1.2797964e-01
  9.7477943e-01
 -1.6462537e+00
  1.3434580e-01
  4.5203682e-02
  1.4206911e-02
  7.2487473e-02
 -4.2593617e-02
 -6.8636812e-02
 -7.5507812e-02
 -2.1672450e-02
  2.0397326e-02
 -8.9813850e-04
  6.1254300e-02
  4.0379379e-02
  1.1085210e-01
  3.1755254e+00
  2.9319944e-04
 -6.8439558e-02
 -1.9202018e-01
 -6.7132235e-02
  2.5647484e-02
  8.2790935e-03
 -2.5116440e-02
  3.2851119e-03
  1.9764168e-02
  2.1302807e-01
 -6.1376570e-03
 -5.2329808e-02
 -2.2774242e-02
  2.3730421e-02
  4.2529281e-02
 -7.5891954e-03
  7.2685294e-02
  4.0405970e+00
 -2.0608046e+00
  4.0022292e+00
  1.0926289e-01
 -1.2784075e+00
  8.8390100e-01
  1.0967071e-01
  8.6291802e-01
  2.2143047e-01
  3.6783960e+00
 -2.4015276e-02
  2.7724543e-01
  4.7404277e-01
  7.4300957e-01
  7.4540317e-01
  4.5157772e-01
  9.1073632e-02
 -3.8466951e-01
  7.5649846e-01
  4.7732329e-01
  7.8429312e-01
 -8.8521928e-02
 -8.0025993e-02
  6.7872822e-02
  4.5165479e-01
 -1.0564501e-01
 -4.5698419e-02
  5.7234224e-02
 -9.0768151e-02
  3.5962512e-04
 -3.0128315e-01
 -5.9198216e-02
 -1.2633775e-01
  1.0287800e+00
 -1.6455540e-02
  5.8376586e-01
 -1.0561906e-01
 -5.4858655e-01
  8.9125854e-01
 -2.7559571e-02
  6.6588838e-03
 -4.4266604e-02
  2.2309572e-03
 -3.9701287e-02
 -2.7494740e+00
  4.5155644e-02
 -1.3059101e-01
  7.8964122e-03
 -1.0465834e-02
  2.4023991e-02
  2.4344087e-02
 -1.0966434e-01
  1.3868178e+00
  2.5232279e+00
  2.2855667e-02
 -1.2038727e-02
  2.4225449e-02
  2.0673289e-03
  3.7356708e-03
  1.6576417e-02
 -7.1926422e-02
 -1.9396846e-01
 -1.7271837e-02
  1.0451810e-02
  8.9004621e-02
  4.3025319e-03
  1.2026402e-01
 -6.3697331e-02
  8.8006631e-03
  2.9455436e-02
 -1.0373963e-02
  1.4064866e-01
  4.2478251e-01
 -1.1573573e+00
  7.5589359e-02
  2.3011197e-03
 -1.1979931e-02
 -2.3761404e-01
 -4.8103120e-02
  1.3456588e-02
  2.5534518e-02
 -2.9351884e-02
  5.1811520e-02
 -6.2755123e-02
 -6.8076789e-02
  1.6801822e-01
 -5.1790189e-02
 -1.4307532e-01
 -1.2473803e-01
 -4.0537298e-02
  2.6907161e-01
 -2.1547848e-02
 -6.6825844e-02
 -1.4462445e-02
  2.3760028e-02
  4.8864051e-03
 -2.8289963e-02
 -7.3312879e-02
 -4.5284089e-02
 -4.7095507e-02
 -4.6741873e-02
 -1.4866066e-02
  5.3941634e-02
  1.5816208e-03
  4.3946307e-02
  5.0556815e-01
 -3.9167777e-02
 -6.8355161e-01
  1.4916883e+00
  1.0700384e-01
  7.0025519e-02
 -1.1433921e-01
  2.0865628e-01
  2.0865966e-02
 -1.9854468e-01
  7.3361687e-02
 -6.8715900e-02
 -9.1224194e-02
 -6.5851495e-02
  5.3635336e-02
 -1.7978840e-01
 -8.1558138e-02
  1.1124299e-01
 -1.3171646e-01
  4.8271216e-02
  2.4710726e-02
 -8.4394254e-02
 -3.3519581e-02
 -1.8238561e-02
  3.5803270e-02
  1.1656466e-01
 -2.0757508e-02
 -2.1254513e-03
  4.0404689e-02
  5.0482444e-02
  2.3854574e-02
 -2.0501788e-01
 -6.8193622e-02
 -3.2254562e-02
  1.9413434e-02
 -1.3520561e-01
  2.1958879e-01
  1.0840024e+00
 -1.3997887e+00
 -8.2813427e-02
 -2.5459311e-03
  1.7953975e-02
 -1.9074352e-01
  1.6295878e-02
 -9.1687538e-02
 -2.3570886e-02
  1.0407280e-02
 -5.4545205e-02
 -7.6897860e-02
 -2.2666182e-02
  6.1959323e-02
  1.7227826e-01
  1.6219661e-01
 -5.2909855e-02
 -8.4415823e-02
  8.2699582e-03
  1.0875569e-01
  2.2914531e-02
  6.3794538e-02
 -1.4341364e-02
 -7.8919649e-02
 -5.6901569e-03
 -8.3928853e-02
  2.7790232e-02
 -1.0065385e-02
  4.2288162e-02
  9.7765826e-02
  9.2799272e-03
  1.0620908e-01
  1.2050505e-03
  9.8849408e-02
 -1.5415290e-01
 -3.6054438e-01
  1.4502922e+00
  7.8733088e-03
 -7.8992434e-02
 -1.0994550e-01
  1.7017935e-01
  1.2352721e-02
  3.8222491e-03
 -7.2451420e-02
 -6.5167904e-02
 -2.1875110e-02
 -6.5714024e-02
  4.2812817e-02
  1.0712687e-02
  9.6965134e-02
  3.0964045e-02
 -4.8303071e-02
 -6.4239748e-02
 -3.0217247e-02
 -7.2849885e-02
  3.9160661e-02
  1.7656477e-02
  1.5022500e-01
 -6.7713462e-02
  2.1373361e-02
  1.0171632e-01
 -5.9298430e-02
  9.2394188e-02
 -1.7748591e-01
  5.1147319e-02
 -2.4480367e-02
 -4.5843963e-03
 -3.8484264e-02
  2.8217080e-01
 -2.6536989e-01
 -4.4749629e-01
  1.2471606e+00
  1.8313853e-02
 -7.0864521e-02
  7.7957109e-02
  1.1923138e-02
  8.6543806e-02
 -6.8565384e-03
  4.3152839e-02
  3.5522945e-02
  2.6826957e-01
  2.8302791e-03
  4.4858907e-03
 -3.2995723e-02
 -9.5721781e-02
  1.0833888e-01
 -1.1711185e-01
 -4.5895521e-02
 -2.6705238e-01
 -9.3949638e-02
 -1.7664757e-02
  2.2817478e-02
 -1.5148451e-02
 -1.8094367e-01
 -6.2080860e-02
 -9.4837435e-03
 -9.0634637e-02
 -8.2764849e-03
 -2.6323134e-02
  2.1233741e-02
  2.9218921e-02
 -1.6879587e-02
 -3.6349997e-02
 -6.4324236e-01
  3.3796656e-01
  1.1064531e+00
 -1.7231919e+00
  1.5266904e-03
  2.2403574e-02
 -3.7374664e-02
 -2.8169826e-02
 -9.5065869e-03
 -1.3977030e-01
  4.4797687e-03
 -6.4131171e-02
 -7.8305900e-02
 -1.6432288e-03
  1.1779073e-01
 -3.8177453e-02
 -1.6975986e-02
 -5.5167310e-02
 -2.1717079e-02
 -6.8640918e-02
  1.3023138e-01
  2.1512978e-02
 -2.3441608e-01
  3.0480718e-02
  5.4421198e-02
  7.6993130e-02
  7.5405464e-02
 -4.2343885e-02
 -1.6008297e-02
 -9.7146764e-02
  3.0539615e-02
  1.4537564e-02
 -1.1986513e+00
 -2.1288571e-01
  9.8140657e-02
 -3.4350771e-01
  1.6885675e-01
  2.1903710e+00
 -8.3197522e-01
 -7.7005416e-02
 -7.5646244e-02
  1.0083860e-01
 -3.0253189e-02
 -1.7270587e-02
  6.2767696e-01
 -8.1428662e-02
  4.7676995e-02
 -3.7967242e-02
  4.1531205e-02
 -1.1360987e-02
  3.1609189e-02
  9.2943879e-03
  1.7459454e-02
 -6.0271848e-02
  3.3382524e-02
 -9.0584524e-02
 -2.8181324e-02
  1.6464476e-02
  1.4358632e-02
 -9.1762003e-03
  5.8507949e-02
 -1.1069461e-01
 -6.1572429e-02
  4.8496518e-02
 -3.9391145e-02
 -7.1496375e-02
  1.0910359e-01
 -1.4456964e-01
  7.0384957e-02
  5.4601151e-02
  4.4543311e-01
 -4.3740892e-01
 -3.8663745e-01
  9.8179257e-01
 -1.2957986e-02
 -1.6348442e-01
 -1.6124967e-02
 -1.0031646e-01
  6.6200770e-02
  4.1396343e-03
 -8.0017783e-02
 -1.4359917e-02
  2.4680145e-01
  1.4648788e-01
 -1.5868391e-01
  1.5574155e-03
  1.8184427e-02
 -5.7157982e-02
 -7.2552308e-02
  1.1067438e-01
  2.3625606e-01
 -9.2731215e-02
 -2.7402869e-01
  7.4687682e-02
  1.1695059e-02
  1.4825574e-02
 -6.5228921e-01
  1.8843053e-01
  9.4084956e-02
 -2.0868441e-02
 -2.3607045e-02
  5.5633094e-02
  2.5667593e-02
  1.5615018e-02
 -1.0360790e-02
  7.2985786e-01
  2.7455140e-02
 -5.0369662e-01
  8.9840418e-01
  5.1083486e-03
  3.4479093e-02
  3.8497463e-02
  6.6172451e-02
  5.9205294e-02
  1.1053611e-01
  9.4110996e-02
 -7.4608728e-02
  1.1347713e-01
  4.8798602e-02
 -1.1186142e-02
  2.7158920e-02
 -4.9320314e-02
 -5.7432722e-02
 -3.8825370e-02
  5.5042654e-03
 -2.1536575e-01
  5.6463234e-02
 -1.3887906e-01
  3.2982748e-02
 -5.4215901e-02
  3.9180286e-02
 -9.0080328e-02
  1.7319115e-02
  2.1560047e-02
  6.5113112e-02
  1.1943137e-01
 -7.7388994e-02
 -4.5034527e-03
 -1.7556673e-01
  2.9116133e-01
  2.9989231e-01
 -2.8882116e-01
 -8.9185172e-01
  1.5876949e+00
  6.2685668e-02
  3.4145180e-02
  1.0562731e-01
 -2.3000080e-03
 -6.7106344e-02
  2.2289246e-02
  9.5095104e-03
  1.0549793e+00
 -7.4503459e-03
 -4.4117854e-03
  4.3133829e-02
 -3.9255358e-02
 -1.4002880e-01
  2.0018639e-02
 -4.4351503e-02
  9.2328340e-03
 -5.5957615e-02
 -2.4483606e-02
 -1.0293847e-01
  1.0319718e-01
  8.0105685e-02
  2.7447918e-02
 -4.3261543e-02
  1.8640220e-02
 -7.3933348e-02
 -2.2729661e-02
 -7.1938381e-02
 -1.5279897e-02
  1.7914610e-03
  2.8535971e-02
  5.5721819e-02
 -3.9340430e-01
  6.7127593e-02
  3.6381516e-01
 -1.2919707e+00
 -4.1779531e-03
 -9.5372662e-02
  9.3929349e-03
 -4.9405735e-02
 -4.3979533e-02
  4.3710567e-02
 -8.7174043e-02
 -6.4851128e-02
  6.6195920e-02
  1.0217556e-01
 -8.6681031e-02
 -1.6676910e-01
 -5.2225769e-02
 -1.9415280e-02
 -2.7352013e-02
 -6.9116667e-02
  5.1845528e-02
  3.7059066e-01
 -4.7123808e-02
 -1.4182860e-01
  3.0837804e-02
 -4.9512513e-02
  2.7366331e-02
  8.2946513e-03
  1.9454876e-02
  8.1191465e-02
 -9.7362466e-02
 -3.4599110e-02
 -1.9468876e-03
  3.8791168e-03
 -7.4732162e-02
 -2.5082437e-02
  3.8357664e-02
  5.3784615e-01
 -1.2026839e+00
  1.2881117e-01
  9.6616745e-03
 -1.1473185e-02
 -4.3740757e-03
  1.1098738e-01
 -3.3603724e-02
 -5.9716698e-02
  3.8791008e-02
 -6.0716860e-02
  9.8088019e-02
  1.2936929e-02
  5.1748551e-02
  3.5519276e-02
  1.8466827e-02
 -4.1742295e-02
  2.7344713e-01
 -1.7970843e-02
  6.5140533e-03
 -6.4238678e-03
 -3.3436365e-02
 -1.2610578e-02
 -1.2090810e-02
 -4.6411589e-02
 -5.7131480e-02
 -3.5582349e-02
  2.2287401e-03
 -1.6245624e-02
 -3.3636075e-02
 -5.3645797e-02
  6.4714283e-02
 -3.4905121e-02
  3.3939210e-01
 -2.9825270e-01
 -4.7536552e-01
  1.4222710e+00
  8.7458856e-02
 -1.1146683e-01
 -2.1851648e-01
  2.5212944e-03
 -4.5055866e-02
 -1.0121597e-01
 -4.6863671e-02
 -9.1050990e-02
  5.3329788e-02
  6.9112055e-02
 -7.4692376e-02
 -2.8547933e-02
 -1.2070666e-01
 -1.9347279e-01
  4.4729616e-02
 -7.1874328e-02
 -2.5097722e-02
  6.5911427e-02
 -6.9774054e-02
  5.1015306e-02
  1.8861136e+00
  5.1159855e-02
 -1.2174424e-02
  4.7847000e-03
 -1.2445951e-01
 -5.7539601e-02
  9.3108779e-03
  1.0534460e-02
  2.2168057e-02
 -2.1524590e-02
  1.3640145e+00
 -4.4272208e-01
  1.8456623e-01
  5.8395338e-01
 -1.4710866e+00
  2.4105974e-02
  6.0900021e-02
  2.8820250e-02
 -7.2104193e-02
 -7.9804929e-03
 -1.6707715e-02
 -4.0821787e-02
 -4.6114851e-02
  2.9566240e-01
 -1.0650975e-01
 -1.3461842e-01
  1.5094138e-02
 -1.3171713e-04
 -1.4442481e-01
 -1.4698358e-01
  3.8700532e-02
 -6.7714177e-02
  3.0143434e-02
 -2.0722484e-02
 -1.1272291e-02
  6.4918622e-02
 -3.2523748e-02
 -1.3922898e-01
 -2.8444197e-02
 -1.7104036e-01
 -2.4587201e-01
 -6.4418398e-02
 -5.4757674e-03
 -1.8338967e-02
 -5.4268636e-02
  4.0467581e-01
 -5.2538174e-01
  2.0679161e-02
  6.4137250e-01
 -1.0210057e+00
  2.2054141e-02
 -1.5516232e-01
  1.4977778e-01
 -3.6918391e-03
  1.1719497e-02
  3.1734705e-02
 -8.5989274e-02
  1.0257396e+00
 -2.2866595e-01
 -2.0232207e-01
  6.4021004e-03
 -5.2351635e-02
 -1.6467106e-01
  2.0508017e-02
 -8.1493342e-03
 -5.4481540e-02
 -2.5504472e-02
 -1.6616130e-01
 -6.8000346e-02
  5.7272267e-02
  3.6060374e+00
  4.6131160e-02
 -7.5286612e-02
 -1.1428234e-02
  3.8163676e-03
 -6.2861003e-02
 -4.7248625e-03
  1.1988043e-01
 -9.4385371e-03
 -1.7763638e-01
 -1.1480416e-01
 -3.6172402e-01
  8.7716587e-02
  2.4643995e-01
 -1.2740554e+00
  2.1477493e-02
  4.6736766e-03
  3.5008375e-02
  3.9825896e-03
 -4.2852028e-03
 -1.4013712e-01
 -1.0119608e-02
 -2.6935816e-02
 -3.0337438e-01
  4.3572597e-02
  4.6508342e-02
  1.5612230e-01
  7.6839969e-02
 -5.7357710e-02
  9.3000703e-02
 -4.3530911e-02
  1.8455975e-01
  9.1296341e-03
 -1.0743140e-02
 -7.1838602e-02
  6.7438327e-02
  6.1005883e-02
 -4.8586372e-02
 -1.7380834e-02
 -1.1411486e-01
  3.2930315e-02
  3.5592929e-02
 -4.8514366e-02
  3.1669702e-02
 -1.6775699e-01
  8.2531967e-04
 -3.4366068e-01
  2.6783216e-01
  5.0730217e-01
 -1.1593969e+00
 -1.7978312e-01
 -1.2433056e-02
 -7.7950354e-03
  1.4691999e-02
 -7.3590688e-02
  1.5720323e-01
 -8.7192930e-02
  2.9417360e-02
  3.4396231e-02
 -2.2478838e-01
  3.7211712e-02
  2.4297353e-02
  7.3902525e-02
 -6.3380627e-03
 -7.9813071e-02
  2.1299221e-02
  1.2156755e-01
  3.9347360e-01
 -1.0794800e-01
 -1.1435698e-01
 -2.9991211e-02
 -2.3024147e-02
 -4.1108079e-02
 -3.0848462e-02
 -2.8414352e-02
 -6.5723002e-02
  4.8680087e-03
  6.1900247e-02
  5.0024137e-02
 -9.6104555e-02
 -7.2259635e-02
 -3.8443929e-01
  3.0402067e-01
  1.5051761e-01
 -1.3668052e+00
 -7.5428359e-02
 -1.5200295e-01
 -1.8929726e-02
  1.2881415e-02
  2.0869641e-01
 -2.1516673e-02
 -3.5442065e-02
  1.2437718e+00
  4.1250461e-03
  1.3204461e-01
  2.4003752e-02
 -5.8243964e-02
 -2.5835723e-02
 -4.8214972e-02
  1.3327990e-01
 -1.9377923e-02
  4.9746532e-02
  6.1462808e-02
  3.1027630e-02
  1.1948509e-01
  3.6405951e-02
  9.4590224e-03
  1.7557822e-01
  4.4252999e-02
 -1.7576965e-02
  5.3763136e-02
  3.8215384e-02
 -1.5288189e-01
  1.5617589e-02
  1.1661470e-02
 -6.3528805e-03
 -2.6812196e-01
  1.7757994e+00
  9.8180854e-01
 -9.7710156e-01
 -9.3464725e-02
  2.3984039e-01
  3.1344771e-02
  1.8768783e-01
 -3.0088110e-03
  6.2251547e-03
  1.9462811e-03
 -1.1301245e-01
 -5.3268090e-02
 -2.1439136e-03
  6.4902134e-02
 -2.1262370e-01
 -5.2358788e-02
  7.0646733e-02
 -8.8685766e-02
 -8.4518129e-04
  6.3807294e-02
 -1.8176582e-01
  5.6322735e-02
  9.4300486e-02
 -6.2807575e-02
  9.6449606e-02
 -3.1764939e-02
 -4.6194464e-02
 -1.0037151e-02
 -1.8566526e-02
 -8.1089891e-02
  7.9513984e-03
 -1.1790704e-01
  1.9864489e-01
  2.5068289e-02
  2.0692393e-01
 -1.1136530e-01
 -6.8643045e-01
  9.7324157e-01
 -4.8938636e-03
  7.9372413e-02
 -4.8754308e-02
 -9.5605724e-02
 -1.0375590e-02
 -2.5889553e-02
 -1.0544731e-01
  2.9760683e-02
  1.1098526e-01
  1.3614497e-01
  4.5099914e-02
 -7.1300673e-03
  1.9866143e-01
  5.2014217e-02
  6.4890325e-02
  1.9872600e-02
 -7.3469654e-02
 -4.1233342e-02
 -1.0139740e-02
 -6.5223545e-02
  2.6055152e-02
 -3.5042129e-03
  9.9265184e-03
  6.1972018e-02
  1.1118389e-03
 -2.0075331e-02
  8.2059428e-03
  5.4235563e-02
  1.0904479e-01
  5.2717738e-02
  9.9487692e-02
  4.1790524e-01
 -5.3964043e-01
 -1.5449367e-01
  1.3499131e+00
  9.6268199e-02
 -1.8705297e-01
 -2.3479499e-02
  1.3540565e-03
 -5.2157916e-02
  4.3233510e-02
 -4.1842908e-03
 -1.0745967e-02
  1.8090111e+00
 -4.3879837e-02
 -4.5315802e-02
 -2.5293939e-02
  5.6907810e-02
  6.2315639e-02
  4.1176535e-02
 -9.0586357e-03
  7.3556649e-04
 -5.6155555e-02
  1.2829368e-02
  1.8048094e-04
 -9.7671719e-03
  4.8737451e-02
 -1.9281803e-01
 -7.9844952e-02
  2.2520689e-02
 -1.4537759e-02
 -5.1475927e-02
  2.4139712e-04
  1.8535234e-02
  5.0196398e-02
  5.6647372e-02
 -3.7834686e-01
  2.1467622e-02
  6.7888862e-01
 -1.2575861e+00
 -4.8292391e-02
 -6.0863320e-02
 -1.2397540e-01
  4.7908783e-02
 -2.2015035e-02
 -5.2604820e-03
 -8.8926867e-02
 -8.8970102e-02
 -3.1042414e-02
 -4.8963487e-02
  5.2998982e-02
 -7.0656419e-02
 -4.4809241e-02
 -1.1916067e-01
 -7.6995619e-02
 -5.1334467e-02
 -1.2000504e-01
  6.8522771e-03
 -1.0441904e-01
 -2.8005000e-02
  4.4151638e-02
 -2.3756847e-02
 -1.1360234e-01
 -3.4103144e-02
  7.9722726e-01
  3.5402667e-02
  1.1138833e-01
  2.3309322e-02
  8.7145306e-02
  3.6211058e-02
 -5.5382688e-02
 -1.8666881e-01
  2.1990277e-02
  8.7356955e-01
 -1.4253441e+00
  5.6764875e-02
  2.3849897e-02
 -7.7545889e-02
 -1.1069644e-02
 -3.3226360e-02
  1.5991025e-01
  3.3404301e-03
 -9.7296275e-02
 -5.2590361e-03
  3.3107789e-03
 -2.7613549e-02
 -1.4125703e-02
 -4.7824904e-02
 -8.0630325e-02
 -3.6369476e-03
  5.4170962e-02
 -6.1441589e-02
  6.1824899e-02
  6.3504554e-02
 -4.7163464e-02
 -4.4301781e-03
  2.9165821e-02
  1.3030300e-02
 -1.0419978e-01
  6.5421914e-03
  5.1613335e-02
 -6.0570310e-03
 -2.7476609e-02
  3.6342524e-02
  9.7429402e-02
  4.7721121e-02
  4.2146525e-01
 -1.1756722e-03
 -3.7244979e-01
  1.4210709e+00
 -3.3018496e-02
 -1.1624718e-01
 -3.3565308e-03
  6.9564514e-02
  7.9535604e-02
  3.4542546e-02
  7.8170918e-02
  1.8449286e-02
 -2.8386894e-03
  4.1587234e-02
  1.1580984e-01
  1.1580919e-01
 -1.2300139e-01
  2.1485567e-01
  9.5318541e-02
 -3.7133906e-02
  6.3392900e-02
 -8.5608736e-02
  6.1196845e-02
  5.7714101e-02
 -2.7268752e-01
 -6.0791135e-02
  1.3795838e-01
  1.3809323e-02
  9.8694354e-02
 -7.9632826e-02
 -1.5007909e-02
  3.1324577e-01
 -1.1202184e-02
  2.6431855e-02
 -2.4018964e-02
 -4.0385075e-02
 -2.4227470e-02
  5.3814650e-01
 -1.4038696e+00
  6.3846081e-02
  3.4839109e-02
  2.4516473e-02
  1.3540789e-02
 -1.9696662e-02
 -7.4442215e-02
 -3.1673986e-01
  1.7164071e-01
 -2.0577294e-01
  3.2200288e-02
 -4.3490898e-02
 -2.3827197e-02
  1.7061682e-02
  1.4539242e-01
  3.3388410e-02
 -6.1431270e-02
  8.8517278e-02
  1.4637012e-02
 -3.4725681e-02
 -6.4698026e-02
 -7.6146647e-03
 -8.8927792e-03
  5.2901458e-02
  6.7201093e-02
  1.2882575e-01
 -7.4070223e-02
 -5.1785786e-02
 -4.7007408e-02
 -6.6918217e-02
  2.5829827e-02
 -1.7194871e-02
  1.7032017e-03
  1.0035069e-01
  6.5128827e-01
 -9.1826344e-01
 -4.8272874e-02
 -1.2359767e-01
  9.2168570e-02
 -1.2163904e-02
 -1.3136454e-01
 -2.9532839e-02
 -1.8608376e-02
 -8.1789784e-02
 -3.7885129e-03
 -1.3203139e-04
 -2.7216079e+00
 -1.4353423e-01
 -2.5167715e-02
 -1.3297215e-01
 -3.6570363e-02
  1.2737995e-02
 -5.6738198e-02
  3.2756872e-02
 -5.5111058e-02
  1.3690388e-01
 -1.7533949e-02
  1.6405474e-01
 -4.8455089e-02
 -2.0998418e-02
 -1.9466408e-01
 -1.1853101e-03
  3.0818170e-01
  6.6665344e-02
 -3.0389056e-03
 -2.5356529e-02
 -1.7817959e-02
 -2.1212539e-01
  5.2211426e-02
  5.6655461e-01
 -1.0080665e+00
 -5.3081047e-02
  5.1991869e-02
  8.6977184e-03
 -2.4320331e-01
  1.3278897e-02
 -7.5432956e-02
  1.3828179e-01
 -5.9004385e-02
 -1.3567914e-01
  8.4057212e-02
 -3.1793125e-02
  4.1530441e-02
 -2.3274403e-02
 -1.4653085e-02
  4.3627541e-03
 -1.9611695e-01
  2.4361284e-03
 -2.0482756e-01
  2.3619090e-03
  1.1092629e-02
 -8.6159252e-02
  5.1027365e-02
  1.7275681e-03
  6.0517173e-02
 -4.0340410e-03
 -1.1602296e-02
 -1.2829608e-01
 -2.6528770e-02
  9.9187061e-02
  5.6849904e-02
  4.5428555e-02
  3.9808428e-01
 -1.2572031e-02
 -5.6566769e-01
  1.6111274e+00
  1.7914608e-02
  2.3213746e-03
 -9.8288789e-02
 -2.2708891e-02
  6.3514649e-03
 -8.8477755e-01
 -4.6553803e-03
 -1.0264285e-02
 -1.5199063e-03
 -1.9073106e-02
  9.0172082e-02
  4.7640819e-03
  1.6306148e-01
 -2.4325026e-02
  1.4232084e-01
  1.8785303e-02
 -1.5771875e-01
  8.4154524e-02
 -1.4305182e-01
 -2.0217653e-02
 -4.7026566e-04
 -6.9552965e-02
  1.3416856e-02
  2.1414075e-02
  2.8430995e-01
  2.9691291e-01
  1.1197663e-02
 -8.0265053e-02
  1.5400549e-02
  8.7363660e-02
  1.1014376e-02
 -2.8847086e-01
  2.9068276e-02
 -2.6407607e+00
 -2.5134677e-02
  6.1836070e-01
 -1.5872465e-02
 -5.4507453e-02
  2.1978216e-02
  3.3145607e-02
 -3.0843198e-02
  4.7439907e-02
  1.5343767e-02
 -1.1868376e-01
  3.8509651e-03
 -3.0749425e-01
 -8.4378071e-02
  6.3582119e-03
  4.6466422e-01
 -7.0219658e-02
 -3.4889925e-02
 -6.9414355e-02
  5.6054328e-02
 -8.0277342e-03
 -4.1681133e-02
 -1.5406117e-01
 -1.3001184e-01
  6.4988025e-02
  8.1724130e-02
 -2.8364535e-02
 -3.2732554e-02
  1.0988762e-02
  7.6763332e-02
 -8.2626745e-02
  8.9764319e-02
 -3.0123612e-02
  1.6632258e+00
  9.4923228e-01
  1.9677460e+00
 -1.2897885e+00
 -3.7531888e-01
  1.5833484e+00
  1.9542823e+00
 -1.4666057e+00
 -1.7605610e+00
  1.8430407e+00
 -1.8727176e+00
 -3.2033762e-01
 -1.4435802e+00
  1.7838838e+00
  1.7030506e+00
 -1.6468489e+00
  2.0170660e+00
  2.0664289e+00
 -1.4887310e+00
 -2.8945673e-01
 -1.5556694e+00
  1.9131533e+00
  1.6612430e+00
  1.5249678e+00
  1.3567190e+00
  1.0788889e+00
  1.4601572e+00
  1.5737224e+00
  1.5056137e+00
  5.9318352e-01
 -1.8131558e+00
  1.1107130e+00
 -1.6873723e+00
  1.5468780e+00
 -1.8058025e+00
 -1.5627235e+00
  1.3643650e+00
  1.0276273e+00
 -1.5223053e+00
 -1.5728718e+00
 -7.5595701e-01
  1.5035347e+00
  1.7707638e+00
 -1.4102434e+00
  1.1275151e+00
  1.4522949e+00
  1.8746684e+00
  1.8777922e+00
  1.5445071e+00
  1.0423167e+00
 -1.7905881e+00
 -1.4297304e+00
  1.6134874e+00
  8.0017233e-01
 -1.6816635e+00
  1.4665897e+00
  2.0001998e+00
  1.5434457e+00
 -1.4541785e+00
 -2.8230426e+00
  3.6490467e+00
  1.0261275e+00
  4.5441613e+00
 -6.9996792e-01
 -1.5487758e+00
  1.4821032e+00
  3.8477857e+00
 -1.4805413e+00
 -1.0829750e+00
  3.2272062e+00
 -5.1697431e+00
  3.5157056e+00
 -2.6309466e+00
  3.9188833e+00
  3.2582762e+00
 -1.7388947e+00
  5.0098715e+00
  3.0107388e+00
 -2.2130535e+00
 -1.8020315e+00
 -1.8518572e+00
  4.0757799e+00
  2.1820087e+00
  2.1884000e+00
  8.7450719e-01
  3.8903350e-01
  1.4577973e+00
  1.1229401e+00
  1.8406484e+00
  2.0015354e-01
 -3.3819888e+00
  5.5124187e-01
 -3.9293125e+00
  3.6954174e+00
 -3.0504408e+00
 -1.4033723e+00
  5.1942129e+00
  1.7844487e+00
 -1.3092550e+00
 -1.2511811e+00
 -1.0523460e+00
  1.4596258e+00
  1.2491273e+00
 -2.1448100e+00
  1.1775432e+00
  1.5302283e+00
  2.5066264e+00
  2.7442086e+00
  2.1195505e+00
  2.1417170e+00
 -1.9463723e+00
 -2.1458323e+00
  2.6046844e+00
  5.6718361e-01
 -3.0185242e+00
  1.5369599e+00
  1.5281203e+00
  1.2840004e+00
 -2.7427537e+00
 -1.6342745e+00
 -1.3059868e+02
  2.0812457e+00
  2.7742487e-01
  6.3893020e-01
  1.6980630e-01
  2.0458834e+00
  3.1089044e-01
 -6.6698261e-02
  4.1802558e-01
  2.1096015e+00
  2.0074663e-01
 -7.2688556e-01
 -6.3491511e-01
  1.5462533e+00
  1.1777680e+00
  2.1562896e+00
  1.7169368e+00
  1.5986383e-01
  6.0807080e-03
  8.7226343e-01
  5.5376663e+00
 -1.5369246e+00
  9.1354084e-01
 -2.1553111e+00
 -8.7523423e-02
  9.4080204e-01
  3.0531096e+00
  3.2173792e-01
 -1.8464349e-01
  4.6120319e-01
  4.8100814e-01
  1.0639775e+00
  1.1909524e+00
  2.7503771e-01
  2.7538663e-01
  2.0894995e+00
  2.4559827e+00
 -3.8986114e-01
 -5.2502853e-01
 -2.7516060e+00
 -2.0369810e-01
  1.4121442e+00
 -4.3918595e-01
  3.0250166e-02
 -1.2013068e-01
 -6.4124098e+00
 -3.5133684e-01
 -2.2964004e-01
 -2.6068797e-02
 -2.7242188e+00
 -2.2570801e+00
  1.0872369e-01
 -5.0083011e-01
  1.2555807e+00
 -4.3801423e-02
 -2.7901459e-01
 -1.5219943e-01
 -9.3636090e-01
 -1.7830169e+00
 -1.2595437e-01
 -4.7615659e-01
 -1.4045061e+00
 -2.5871925e+00
  2.2600435e-01
 -9.0025914e-01
 -2.6070952e-01
 -3.9461148e-01
 -7.0491910e-02
 -2.5811222e+00
 -3.8903171e-01
 -1.5747205e+00
  6.4689273e-01
 -1.0066537e-01
  2.1374807e+00
  4.1660953e+00
  1.5655726e-01
 -2.0866566e+00
 -3.0456834e-02
  1.6538231e-01
  9.0091296e-02
 -1.7235835e+00
  4.5817446e-02
  3.4271941e-01
 -3.6532362e+00
 -4.0861264e-01
  2.2594278e+00
  2.1133168e+00
 -1.3105043e+00
 -3.1458279e-01
  1.2375134e+00
  5.3217751e-01
  1.2187144e+00
 -9.4963807e-01
  4.9654961e-01
  1.8804653e-01
 -1.2497866e+00
 -1.9203527e+00
  2.1676376e+00
  1.3505154e+00
 -1.3108691e+00
 -5.1692343e-01
  2.1681023e+00
  3.9480692e-01
 -4.3999687e-01
 -5.4729086e-01
  7.4180996e-01
  2.7795529e-01
  6.1722267e-01
 -5.2808756e-01
 -1.3554637e-01
  4.3331605e-01
  3.7110391e-01
  1.5392048e+00
  2.3904165e-02
  4.5779192e-01
  2.8307287e-02
  5.6466043e-01
 -6.5420032e-01
  3.7426181e+00
  1.4078289e+00
  2.9007800e+00
  1.2996576e+00
  1.1727004e-03
  1.7863058e+00
 -1.4335922e+00
  2.1223836e-02
  1.8196988e-01
  2.7359879e-01
  2.2200739e+00
 -6.9025964e-01
 -6.9109285e-01
  1.4284308e+00
  1.8218216e+00
  3.1018946e-01
  5.6086707e-01
  3.0273242e+00
  5.0129032e+00
  1.3375252e+00
  4.5953020e-02
  1.2388523e+00
  1.5372469e+00
  6.3482099e-03
 -4.9460939e-01
  9.0708679e-01
  1.3763047e+00
  9.5335376e-01
 -1.5537783e+00
 -1.0067014e+00
  4.5544711e-01
  7.8764349e-01
  2.9870026e-02
  8.7053919e-01
 -3.9407151e+00
 -4.6808400e+00
  3.7515711e-02
  2.4078763e+00
  4.2865591e+00
  1.4542703e-01
  2.4303231e+00
  1.7849356e+00
  3.7145913e-01
  3.5818193e+00
  9.2902988e-01
 -2.0740290e+00
  1.4903820e+00
 -5.9744531e-01
 -1.6668907e+00
 -9.1532153e-01
 -8.2304782e-01
  5.2840209e-01
  1.1453451e+00
 -3.8299754e-02
 -1.0518742e+00
  1.0144584e+00
  1.5957468e+00
 -5.4562974e-01
 -1.6724585e+00
  1.3526446e+00
  7.6829635e-02
  2.6472051e-02
  1.3300860e-01
  2.8764999e-01
  4.5908758e-01
  5.6129538e-02
  7.1016125e-02
  2.9950798e-02
 -1.1172922e-01
 -1.4096464e-01
 -5.1523101e-01
 -1.9711046e-01
 -6.7070820e-03
 -3.4305643e-02
 -7.3584087e-02
  1.0860770e+00
  1.1519728e+00
 -2.0441921e-01
  5.7942174e-02
 -8.1465000e-01
 -6.2549704e-01
 -1.9931720e-01
 -1.6690314e-02
  5.1245391e-02
  5.4780316e-02
 -2.1653749e-01
  1.0785916e-01
  1.3978435e+00
  1.5202844e-01
 -6.8851215e-01
 -2.3753438e+00
 -1.8057925e+00
 -2.2249451e-02
  1.1463661e-01
  9.6506447e-01
  7.4428380e-01
  4.1647129e-02
  6.1635561e-02
 -6.7567945e-01
 -8.5976815e-01
 -2.1425428e-02
  2.6370472e-01
 -7.0743077e-02
 -1.0217092e+00
 -1.0194265e-01
  1.8986006e-01
 -6.1140992e-02
 -1.1987500e+00
  7.6118767e-01
 -3.5587725e-01
  2.2925900e-01
  2.1787708e+00
 -2.1627593e+00
  1.9307559e+00
 -6.7548439e-02
  5.6521440e-01
 -1.2628380e+00
  9.8072581e-02
 -1.5890118e-01
 -5.3706777e-01
  1.4605387e+00
 -1.3141563e+00
  1.1733125e+00
 -4.7718558e-01
  1.0508733e+00
 -1.3186816e+00
 -3.4601867e-02
  1.4214022e+00
 -7.3991698e-01
  4.6652693e-01
 -4.1652688e-01
  1.0212961e+00
  3.9843670e-01
  1.9606106e-01
  2.3149444e-01
 -1.4758340e+00
 -1.5802735e+00
 -7.7742320e-01
 -1.7255759e-01
  2.0909646e+00
  1.9001935e-02
 -1.2973999e-02
 -3.5592723e-01
  1.8370810e-01
  3.5207921e-01
 -3.7970838e-01
 -8.2622665e-01
  2.3306484e+00
  1.2912941e+00
 -7.6907492e-01
 -2.4746203e+00
  8.3835530e-01
  1.9257952e-02
 -1.5429658e-01
  1.4210407e-01
  1.0238671e-01
  8.9551175e-01
 -1.1428258e-02
 -3.7117777e-03
  4.1765328e-02
  1.1375266e+00
 -1.0289500e+00
  8.8742688e-02
 -2.2784173e-01
  2.0461763e-01
 -1.2593587e-01
  1.2390437e-01
  2.5306594e-01
  2.4380617e-01
 -7.2588831e-01
 -1.0288209e+00
 -1.5016078e+00
 -1.7663844e+00
 -5.1452035e-01
 -8.3551371e-01
  1.2209807e-02
 -3.2905951e-01
 -3.5532247e-02
 -1.5398391e-02
  2.0502365e+00
  3.7672660e-01
  1.5172194e+00
 -5.4728413e-01
  7.4112052e-01
 -1.3090743e+00
 -6.3590151e-01
  2.1181045e+00
 -9.2980516e-01
 -8.6097085e-01
 -5.1815826e-01
 -2.6767826e-02
  1.8884466e+00
  2.4431567e-01
 -6.4492770e-02
 -1.7335122e+00
 -7.5815409e-01
  1.2298081e+00
 -2.2176838e-01
  1.2706648e+00
 -1.5319455e+00
  1.8735653e+00
 -1.5238633e+00
  1.9080021e+00
 -1.1668327e+00
  1.2878835e+00
  2.4377543e-01
 -4.1574687e-02
 -1.3509373e-01
  9.7572245e-02
 -1.0799012e+00
 -1.3202602e+00
  7.4048555e-01
  2.8328503e-02
 -2.2016394e+00
 -1.6420821e+00
 -1.5418395e+00
 -4.5722151e-01
  1.9740052e+00
  2.0334969e+00
  1.3576473e+00
  4.5918170e-02
 -8.5417861e-01
 -5.4023516e-01
 -6.0315073e-01
 -1.3309200e-01
 -1.6918389e+00
 -3.8802129e-01
 -3.2279085e-02
 -3.1533152e-01
  6.8975639e-01
  2.6809618e-01
 -2.3998399e-01
  3.1856892e-01
  8.1596961e-03
 -5.0244737e-01
 -3.5596767e-01
 -1.3127784e-01
  1.2634602e-01
 -1.5844297e-01
 -7.2071135e-01
 -4.7604796e-02
  1.5797673e-01
  2.0512280e-01
  2.9349174e-02
  2.9349174e-02
  2.9349174e-02
  2.9349174e-02
  2.9349174e-02
  2.0425856e-01
  2.0425856e-01
  2.0425856e-01
  2.0425856e-01
  2.0425856e-01
  1.6406114e-01
  1.6406114e-01
  1.6406114e-01
  1.6406114e-01
  1.6406114e-01
  5.0968606e-02
  5.0968606e-02
  5.0968606e-02
  5.0968606e-02
  5.0968606e-02
  2.4741443e-02
  2.4741443e-02
  2.4741443e-02
  2.4741443e-02
  2.4741443e-02
  1.6266836e-01
  1.6266836e-01
  1.6266836e-01
  1.6266836e-01
  1.6266836e-01
  8.9403339e-02
  8.9403339e-02
  8.9403339e-02
  8.9403339e-02
  8.9403339e-02
