nep4_zbl 2 Ga In 
zbl 1.25 2.5 0.7
cutoff 6 5 68 39
n_max 4 4
basis_size 8 8
l_max 4 2 1
ANN 60 0
  1.7607822e+00
 -7.0318535e-02
 -1.4302215e-01
 -2.0907562e+00
 -9.6945025e-02
 -2.4475515e-02
  2.1579218e-01
 -6.3662112e-02
 -2.0349464e-01
  3.6059973e-01
  1.2727106e-01
 -1.1918525e-02
 -9.8522842e-02
 -7.6670185e-02
  3.6449339e-02
  4.0805793e-01
  2.4316634e-01
 -3.8007952e-02
  1.2437953e-01
 -1.1186454e-01
 -7.8031838e-02
 -2.2562519e-02
 -4.1758195e-02
  2.7072912e-01
 -1.9527295e-01
  1.1825351e-01
 -6.3890803e-01
 -2.5316577e-02
  1.8219022e-02
 -7.6389849e-02
 -5.7237530e-03
 -3.0466172e-01
 -2.4835121e-02
 -2.8093591e-02
 -2.9601884e-01
  5.9730709e-02
 -9.8659408e-01
 -1.1483662e-01
  6.7298347e-01
 -1.1394147e-01
  7.1697891e-02
  1.5145721e-02
 -1.0737286e-01
 -6.0237940e-02
 -1.4298177e-01
 -3.6769178e-02
  2.3924579e-01
  1.4191689e-01
 -2.6431184e-02
  1.7275712e-01
 -1.3796870e-01
 -9.2318645e-03
 -1.0159863e-01
  1.9285301e-04
  2.5766143e-01
 -3.1061932e-01
 -4.2268164e-02
 -4.4920716e+00
 -1.5453230e-01
 -7.3820159e-02
 -5.3104812e-01
 -1.6280687e-01
 -3.9781488e-02
  2.9300106e-01
 -7.0748955e-01
 -8.6941592e-02
  7.8708090e-02
 -2.8227419e-02
  1.1387798e-02
  4.5496527e-02
 -1.0986320e+00
  9.9258579e-02
  4.1564813e-01
  7.0398992e-01
 -1.1226890e-01
 -5.7705149e-02
 -1.2801671e-01
  2.8895727e-01
 -2.8395862e-03
 -4.9948487e-02
  3.1585884e-01
 -4.7672588e-01
  5.5861931e-02
  1.7401223e-01
  7.1233548e-02
 -1.2575422e-01
 -4.0250715e-02
 -3.7870321e-02
 -1.4723975e-02
 -3.0386856e-01
  2.6976204e-01
  3.6073154e-01
 -3.2704720e-01
  1.8732864e-01
 -1.2634397e-01
  4.2950818e-03
  2.7624151e-01
 -2.6809192e-01
 -4.0265787e-02
 -7.9311877e-02
  6.7599313e-03
  1.7206242e-02
  3.7676644e-01
 -1.1754099e-01
 -4.2892940e-02
  5.1171416e-01
 -1.8528062e+00
  5.7076503e-02
 -2.6306742e-01
  1.5619116e-01
 -8.0385208e-02
  1.7452550e-01
 -1.2815630e-01
 -1.7374167e-02
 -2.6026660e-01
  1.9001125e-01
  1.2351719e-01
 -1.9939603e-02
  3.8914882e-02
  6.9536403e-02
  3.7520166e-04
  1.3540007e-01
  6.1692562e-02
 -2.0049717e-01
 -3.1025125e-02
  5.7750521e-03
 -8.1816874e-02
  1.0535086e-01
  3.1053374e-02
  1.7063657e-02
 -1.6335696e-01
 -2.1154602e-01
 -2.0440197e-01
 -1.4005147e-01
  4.3249991e-02
  1.5485723e-01
  1.5934955e-02
 -5.2151567e-01
  2.1789537e-01
 -3.1560659e-01
 -1.7581841e+00
  3.0038252e-01
  4.4696204e-02
  6.2612927e-01
  1.4624939e-02
 -1.6077166e-02
 -4.8663240e-02
  1.8969226e-01
 -8.3822586e-02
  3.1810114e-01
  1.6253838e-01
 -3.0794103e-02
 -1.2718134e-01
 -5.7969838e-02
  1.3214114e-01
  1.6684599e-01
  2.6217531e-04
 -5.2512538e-02
  2.0740384e-01
  1.4561491e-01
  3.0849609e-01
 -5.1934129e-01
 -5.1591780e-02
  1.6072446e-01
  1.3195845e-01
  1.4488283e-01
 -1.1054079e-01
 -5.7428196e-02
 -5.0992168e-02
 -3.4761703e-01
  9.3363291e-03
 -2.7253288e-01
 -3.3064654e-01
  2.2267064e-01
  8.0914773e-02
 -4.6523738e-01
  7.3553324e-01
  1.1960174e+00
 -1.5325735e+00
 -2.9065430e+00
  8.7623590e-01
  7.7626204e-01
 -9.7962242e-01
 -3.6129710e-01
  5.7386494e-01
  3.6696386e-01
  1.3242975e-01
  1.7973420e-01
 -5.7994944e-01
  5.0001794e-01
 -6.9509888e-01
  1.4691803e-01
 -1.2228920e+00
 -2.0219484e-01
  5.6185627e-01
 -5.5480283e-03
  1.4080366e-01
 -1.6268969e+00
  3.8309932e-01
  1.9553062e-03
  5.9249237e-02
  2.7572773e-02
 -1.1165565e-01
 -2.4746503e-01
  1.7625248e-01
 -1.2435815e-01
 -5.0370775e-02
 -2.9983965e-01
 -2.5225088e-02
  2.7655922e-02
  3.5633773e-01
 -4.7209144e-01
 -1.3505809e+00
 -7.0510054e-01
  2.0168785e-02
 -2.8229842e-01
 -1.1383891e+00
  1.2872948e-01
  5.0189400e-01
 -2.5378881e-02
  8.7789588e-02
 -1.2471591e-01
 -1.7850604e-02
  5.0608169e-02
  3.2771152e-01
 -1.5103233e-01
 -6.5220721e-02
  8.3233543e-02
 -1.1224947e-01
 -6.4898163e-01
 -1.3695271e-01
  1.2769538e-01
 -1.7054163e-02
  1.7585620e-01
  3.9767888e-03
  1.7199872e-01
 -2.2034070e-01
  4.6224687e-03
  1.5172639e-01
 -4.6389636e-01
  7.5536169e-02
  1.0679132e-01
  7.4403845e-02
  3.2354966e-01
  6.1859988e-02
  1.1075106e+00
 -3.0388869e-02
  1.1277460e-01
 -6.4517581e-01
  2.0286981e-03
  2.5316560e-01
  6.7871004e-01
  1.3096420e-01
  2.3030633e-02
 -2.8274646e-01
 -1.3774315e-01
 -4.3571666e-02
 -1.1724783e-01
  4.6208296e-02
 -4.4002097e-02
  2.3967113e-02
 -1.1698433e-01
  8.0194876e-02
  1.7150544e-02
  2.6819957e-03
  1.7631954e-01
 -3.2630569e-01
  2.8050753e-01
  4.4440541e-01
 -1.9631711e-01
  4.8300430e-02
  1.1069463e-01
  1.1448841e-01
  5.1635429e-02
 -9.0024412e-02
  8.7454700e-01
  4.1574635e-02
 -7.0103489e-02
  2.3511577e-01
 -1.0743052e-01
  7.0385337e-02
 -1.3856718e-01
 -1.0920373e-01
 -1.4491153e+00
  1.7211512e-01
  2.2320268e+00
 -6.8648100e-01
 -5.8141512e-01
 -6.7974053e-02
 -1.9545993e+00
 -1.9538891e-02
 -2.8675482e-01
  1.7739076e-02
  4.9097663e-01
  4.9872854e-01
  1.4397103e+00
 -3.5632238e-01
  4.8153454e-01
 -1.4123535e+00
 -1.4331136e+00
  9.0622735e-01
  3.0004188e-01
  2.1267062e-01
 -7.0774049e-01
 -4.1331297e-01
  1.8472897e-01
 -2.4488593e-02
  3.0154526e-01
  5.0165299e-03
  1.4135052e-01
 -1.9268484e-01
 -9.9611425e-01
 -4.6948250e-03
  1.0676196e-02
 -1.1183335e-01
  6.1688077e-01
 -7.2592109e-01
  1.3428184e+00
 -4.0019770e+00
 -8.9792833e-02
 -4.5786080e+00
  3.0437911e+00
 -2.3077798e+00
 -6.5872811e-02
 -1.2415481e+00
 -2.9793310e-01
  1.0027549e+00
  9.0994245e-01
  8.4814928e-02
 -3.1388620e-01
  7.1169746e-01
 -2.4049670e-01
 -8.6598344e-02
  1.0134581e-01
 -1.3392329e-01
  3.9710701e-01
  1.8988638e-01
  1.0650605e+00
  7.0627972e-02
 -1.4822344e-01
 -1.7883562e-02
 -1.3317680e-01
  2.7057791e-01
 -1.6914898e-01
 -6.2225498e-03
 -1.2873971e-01
  2.0847099e-01
  2.1686406e-01
 -2.9957383e-03
 -3.2897890e-01
 -2.8011119e+00
 -6.4470017e-01
  7.0327252e-01
  3.3500868e-01
 -4.4273248e-01
 -9.2989340e-02
  1.8030818e-01
 -3.0755479e-04
 -1.1935353e-01
  3.6546689e-02
  5.7403002e-02
 -5.7887775e-01
  7.5208000e-03
  2.0001994e-01
 -2.9373896e+00
 -1.9406110e-01
  1.8361467e-01
  1.3110574e+00
  1.2010724e-02
  7.6407953e-03
 -5.4719418e-01
  3.2058030e-02
  1.8134414e-01
 -1.7375689e-02
  9.0025850e-02
 -2.4183337e-02
 -1.0408848e-01
  8.1739686e-02
  1.1444028e-01
  6.2267672e-02
 -3.4745961e-02
  1.3908814e-01
  2.8306457e-01
 -4.6581689e-02
 -7.5611975e-03
 -8.4426796e-01
  3.4176102e-01
  8.2550429e-02
  3.5929632e-01
  1.3948558e-02
 -1.4515276e-01
 -1.6308378e-01
  7.9326816e-02
  1.3663712e-01
  1.7737484e-02
  3.6605996e-01
 -1.1970522e-01
 -1.3627979e-01
 -1.3503581e-02
 -1.0408467e-01
 -1.1429916e-01
  6.8576455e-02
  1.9985017e-01
 -1.2075496e-01
 -1.2171491e-01
 -7.6110967e-02
 -3.6841658e-01
 -2.7991626e-02
 -6.7781257e-03
  4.7882233e-02
  3.7188888e-01
 -3.4139872e-02
  8.6410828e-02
  3.7092325e-01
  3.9645609e-01
  1.4800866e-02
  3.2140959e-02
 -5.8994430e-01
 -2.7624223e-02
  5.2630049e-01
  1.0816467e+00
 -2.8842697e-01
 -3.3142424e-01
 -7.4432755e-01
 -1.5988503e-01
  2.3515220e-01
 -2.9240582e-02
  1.4595352e-01
  2.1328551e-01
 -7.1651071e-02
 -1.2087364e-01
  5.7387024e-02
  8.1972815e-02
  5.0559247e-01
 -1.7672522e-01
  1.6366797e-02
  2.2626092e-01
  8.9051433e-02
  1.4168964e-02
  3.1532305e-01
 -8.6831562e-02
  1.9224007e-02
  1.4792529e-01
 -3.8253982e-02
 -1.1706563e-01
  1.5526950e-02
 -9.2061102e-02
 -2.1947598e-01
  2.5196370e-01
 -7.6765671e-02
  7.0326284e-02
 -7.4002005e-02
  2.9682418e-02
 -3.7374754e-02
  1.6468870e-02
  8.2443076e-01
 -1.9228168e+00
 -2.2511940e+00
 -2.2733977e+00
 -9.5562758e-03
 -2.9095778e-02
  6.2445391e-02
 -2.1288881e-01
  1.0534497e-01
 -4.4095185e-02
  3.8498721e-01
 -2.1520579e-02
  9.8321758e-02
  1.1920881e+00
 -2.3587751e-01
  3.7375224e-01
  1.5035751e-01
  5.5792939e-02
  1.9928098e-01
 -8.7616764e-02
 -7.3888406e-02
  2.6448599e-01
  9.5494919e-02
 -3.5039487e-01
  2.8854603e-01
 -7.0229165e-02
 -1.2540784e-01
 -4.2189457e-02
 -4.6257254e-02
 -1.3136785e-02
  1.3500300e-01
  1.7733274e-01
 -3.2943033e-02
 -1.6349840e-01
 -7.9734512e-02
  4.0050707e+00
 -3.8059431e-01
  3.4853742e-01
 -3.3190534e-01
  9.6111941e-01
 -2.4518965e-02
 -4.6328064e-02
 -1.3462360e-01
  5.7852667e-02
  2.0720229e-02
  1.8063821e-01
  1.7955028e-01
 -4.1533411e-02
  6.4861186e-02
  2.0296013e-01
 -1.4786904e-01
 -2.4596278e-02
 -2.4400507e-01
  2.1112710e-01
 -2.5986090e-01
  6.7509033e-02
 -1.9287512e-01
  3.9232760e-03
  9.3842328e-02
 -3.6035004e-01
 -2.6024806e-01
 -1.0403787e-01
 -5.8183940e-03
  7.5133823e-02
  6.1703190e-02
  1.6044293e-01
  7.0840366e-02
  4.0321521e-02
 -1.2604918e-01
  1.8137960e-01
  2.0525644e+00
 -2.4744043e-01
 -1.1573144e+00
 -9.4585145e-01
  4.1725587e-02
 -1.3453309e-01
 -2.0094533e-01
  1.2562768e-01
  5.7494163e-04
 -4.8160233e-02
  7.8648403e-02
 -2.9059446e-01
  2.4993564e-01
 -2.4019409e-02
  1.5890386e-02
  5.2078586e-02
 -2.1626042e-02
 -1.2467157e-02
 -2.9905921e-01
  4.4209160e-02
  3.7590033e-01
 -1.7486483e-01
 -8.4097996e-02
  1.7174888e-01
 -9.1928661e-02
 -1.9915816e-01
 -1.5327972e-01
  6.3879117e-02
  3.2464802e-01
 -4.4867873e-02
  2.4064843e-02
 -5.7272721e-02
 -3.4406263e-02
 -5.6049186e-03
  3.0314288e-01
  1.1625003e+00
  8.4824717e-01
  2.2020807e+00
 -3.4534618e-01
 -3.8709721e-01
 -3.3389196e-01
  2.9001173e-01
 -1.9558990e-01
 -2.0746261e-01
  6.8826628e-01
  7.0935398e-01
  4.6128795e-02
  1.9951752e+00
  2.3643602e-01
  1.4677566e+00
 -2.2812236e-02
 -2.9205855e-02
  7.4355616e-03
  1.3883762e-01
  2.0015548e-01
 -3.8945427e+00
 -2.6405072e-01
 -4.3146831e-01
  3.2047974e-03
  6.8116882e-03
 -6.7349112e-01
  2.9334959e-01
 -7.9418518e-02
 -2.2353446e-02
 -1.4071643e-01
  5.8381639e-02
  2.4884494e-02
  2.2024687e-01
 -2.7614860e-02
 -1.1786804e-02
  1.8229404e-01
 -4.4589096e-01
 -5.9882390e-01
 -6.5919638e-01
 -7.3471658e-02
 -1.0945336e-01
  9.6391283e-02
 -1.4143044e-01
 -1.2517441e-03
 -7.2172217e-02
  9.0974033e-02
  1.1788737e-01
 -4.4172555e-02
 -7.9821318e-01
  2.8501949e-01
  1.3853587e-01
 -2.2389987e-01
 -2.9183352e-02
  2.7966282e-01
 -1.4813150e-01
  4.7074810e-02
  3.2313515e-02
  2.2288546e-01
  4.0372532e-02
  1.2419986e-01
  1.7839184e-01
  4.6014837e-03
  4.8118876e-03
  1.5656118e-01
  5.4899597e-01
 -4.7456988e-04
  1.3758285e-01
  2.1005112e-01
  2.1209816e-02
 -7.4471191e-02
 -1.0444089e+00
  7.1751845e-01
  6.3955659e-01
  2.8545296e-01
 -1.6433072e-01
 -2.8653182e-02
  6.2477250e-02
  1.3918371e-01
  9.9928595e-02
 -2.0462464e-01
  1.6566284e-01
  1.2756720e-01
 -2.4891604e-02
  5.1934093e-02
  9.0097554e-02
 -4.1588604e-02
  2.6815889e-02
  1.9944219e-02
 -2.5531974e+00
  8.6082749e-02
  1.5988216e-01
  1.0063685e-01
 -1.8119766e-01
  5.9559111e-02
  1.6987677e-01
  8.1021432e-03
 -1.1452851e-01
 -2.8176518e-02
 -2.0461200e-01
  8.3802305e-02
 -5.0153765e-03
  1.8848626e-02
  1.7107883e-01
 -3.2844070e-02
  7.2901450e-02
 -4.5480599e+00
  1.3360600e+00
  9.2799079e-01
  2.2327623e+00
 -2.4248654e-02
  7.4693106e-02
  1.3343948e-01
  4.7555346e-02
  1.8181309e-01
 -1.1246643e-01
  1.4718741e-01
  5.8786049e-02
 -3.8825804e-01
  1.1743138e-02
  3.7826136e-02
 -5.8891322e-02
 -2.3952679e-01
  5.7993136e-02
  9.8607905e-02
  1.1740696e-01
  5.4113563e-02
  2.3986865e-02
  8.7539233e-02
 -3.3982143e-02
  2.6898712e-01
 -8.9421615e-02
 -3.2877561e-02
  1.3858047e-02
 -1.3664080e-01
 -1.5894627e-02
  1.4103292e-01
 -7.0606053e-02
 -1.1138973e-01
  4.5846786e-02
 -1.6014695e-02
 -2.7466223e+00
 -5.1648073e-02
  1.7500926e+00
  6.1668104e-01
  2.9781429e-02
  6.8762019e-02
  1.1407253e-02
  1.1520564e-01
 -4.8789255e-02
 -1.7047310e-02
 -5.0426205e-03
  1.1286403e+00
  1.7546740e-01
 -1.2241428e-01
  1.3315180e-01
  4.5717810e-03
 -4.8993953e-02
  6.4064644e-02
 -8.3584741e-02
  5.9147175e-02
 -1.3530332e-01
 -3.2844308e-01
  2.1045592e-02
  5.6178432e-02
  8.5503014e-04
 -1.1833776e-01
 -9.7036855e-03
 -2.0381218e-01
  4.8764806e-02
  3.8992665e-03
 -9.0097440e-03
 -9.2657078e-03
  1.2715866e-01
  9.4818674e-02
 -7.7592665e-01
  7.5434530e-01
 -2.1483581e-01
  1.6096428e-01
 -2.7965537e-01
 -2.8359053e-01
 -2.2193057e-02
 -1.4257191e-01
 -1.2277101e-01
 -3.8829751e-02
 -1.3219969e-01
 -2.2423470e-01
 -1.6454110e-01
 -3.4958282e-01
  1.3494955e-01
  7.3716454e-02
 -1.4535053e-01
 -2.6009534e-03
  3.5817116e-02
  1.1948919e-01
  1.3896552e-02
 -9.6338458e-02
 -6.8591222e-02
 -3.1754769e-02
 -5.5274433e-03
 -3.9513469e-02
 -1.4054953e-01
 -2.4590611e-01
  2.2024715e-01
 -6.2328711e-02
 -1.9161931e-01
 -1.4523472e-02
 -1.2845799e-01
 -1.0156236e-01
  2.6772046e-02
 -4.9267713e-02
  8.7517864e-01
 -2.2653346e+00
  2.6336744e+00
 -3.2203701e+00
  4.1380054e-01
 -4.5850730e-01
  6.7629531e-02
 -1.5761439e+00
 -1.2063670e-01
 -6.5351075e-01
 -1.2923932e+00
 -5.5845875e-01
  3.6425972e+00
 -4.5214629e-01
  2.2307189e-01
  2.8400394e-01
  1.4603709e+00
 -1.1036984e+00
 -1.0825695e+00
  3.4589210e+00
 -1.1871986e-01
 -3.1769753e-01
 -7.7898431e-01
  9.3467396e-01
  1.2519019e+00
 -4.1958293e-01
 -1.5843648e-01
 -2.1751562e-01
  1.5735517e-01
  7.6848798e-02
 -2.9421172e-01
  3.3460227e-01
  5.5078916e-02
 -7.4861258e-02
  3.3982563e-01
  2.4482973e+00
  1.4287308e+00
 -7.8034192e-01
 -3.7477702e-01
  1.2542430e+00
 -1.6414744e+00
  7.4804306e-01
 -5.6899840e-01
 -1.5839258e+00
 -3.8641448e+00
  2.3871249e-01
 -2.4768496e-01
  2.3854651e+00
 -1.2086316e-01
 -2.0348921e+00
 -1.3359349e+00
  6.4839500e-01
  1.0366888e+00
  3.8416743e-01
 -1.5853225e+00
 -9.9948353e-01
  1.2726279e-01
 -1.0125154e+00
 -1.5600055e-01
 -2.9253548e-02
 -2.1030802e-01
 -1.4929050e-01
  8.1798589e-01
  4.7110182e-01
  2.2095613e-01
  2.2703755e-01
 -3.3120754e-01
  4.4260964e-01
  7.7404314e-01
 -2.1051678e-01
 -2.1356475e+00
  1.6349854e+00
  9.0599835e-01
  1.6570064e+00
  5.2004468e-01
  4.2937759e-01
  9.4044048e-01
  1.0574152e+00
  4.2065728e-01
 -5.0891286e-01
 -1.6069469e+00
  7.4388802e-02
 -4.6942055e-01
  1.3050638e+00
 -5.0490898e-01
  6.4723694e-01
  3.9653406e-01
  1.2646906e+00
 -9.2763953e-02
 -2.9908440e-01
  8.4073800e-01
  2.8466845e-01
  4.4018960e-01
 -3.9294541e-01
 -2.9715663e-01
 -2.2321655e-01
  1.6087173e-01
 -3.2958321e-02
 -1.6010517e-02
  1.7531495e-01
  5.0000750e-02
  1.8548515e-01
 -3.3420410e-02
  2.4974981e-02
  1.6350961e-01
 -1.4765180e+00
 -6.0314482e-01
 -3.5777591e-02
 -1.4328185e+00
 -2.6060557e-01
 -1.0457829e-01
 -1.2388780e+00
  1.1863412e+00
  2.2215118e-01
 -7.2328582e-02
 -7.1936476e-01
  5.4834500e-02
 -1.7269839e+00
  1.0294071e+00
  7.1500517e-02
  2.0735750e-01
  2.8435373e-01
  1.0818397e+00
  1.4297421e-01
 -4.1228266e+00
 -2.5556350e-01
  1.8362718e+00
  1.6648279e-01
 -3.1984087e-02
 -7.9040533e-01
  2.6459822e-01
 -5.5438723e-02
  2.1997188e-01
 -3.8891666e-02
  4.4286437e-02
  1.0508920e-02
 -9.4323009e-02
  3.9514798e-01
 -1.4181975e-02
  2.7667806e-02
 -1.6176199e+00
 -1.3689164e+00
  8.0686145e-02
 -4.4645932e-01
  4.3935694e-02
  5.4594530e-03
  1.3692394e-01
 -3.9513290e-01
  2.0720518e-01
  1.2316500e-02
 -8.2499228e-02
 -2.2919144e-01
 -1.9425901e-02
  6.1844222e-02
  1.0834050e-01
 -3.9234258e-02
  9.5623367e-02
  1.1324521e+00
 -1.3109130e-01
 -2.6620901e-03
  1.3148217e-02
  1.2389319e-01
 -1.8262232e-02
  8.3757579e-02
  8.7360218e-02
 -6.9744959e-03
 -8.8927865e-02
 -8.1427008e-02
  1.7768988e-02
 -2.8062451e-01
 -6.5534197e-02
  9.9415134e-04
 -4.2906329e-01
 -1.1760689e-01
 -1.9988300e-02
 -1.2980479e+00
  7.7066326e-01
  4.9587432e-01
  1.0684026e+00
 -2.1000141e-01
 -1.0422108e-01
 -5.7867181e-02
 -1.5752813e-04
  9.3156956e-02
 -1.5707594e-01
 -5.7099648e-02
 -2.3241563e-01
 -6.7296825e-02
  4.5945230e-01
 -1.1560997e-01
  5.7079330e-02
 -4.2571098e-02
  1.4938527e-01
 -1.6760236e-01
  1.0590455e-02
  2.6545498e-01
 -1.0960712e-01
  1.6043311e-01
  4.6292594e-01
 -8.2358077e-02
 -6.4382173e-02
 -6.6049278e-02
 -5.8297493e-02
 -1.9590663e-02
 -2.0117359e-02
 -6.4416063e-01
  7.6617897e-02
  1.0365524e-01
 -7.7291235e-02
  1.5206994e+00
 -8.8618994e-01
  3.0829710e-01
  2.0344642e-01
  8.7709725e-01
 -1.1670346e-01
  1.3957843e-01
 -7.4785739e-02
 -1.0380163e-01
  1.8773761e-01
 -2.4513694e-02
  9.4839428e-03
  1.8006643e-02
 -1.1707494e-01
 -4.8141804e-02
  5.7522107e-02
 -5.2056082e-02
  1.3995107e-01
 -1.3857986e-02
 -4.4418392e-03
  1.3387415e-01
 -4.4397261e-02
  8.2985707e-02
  9.8091667e-04
  1.4121068e-01
 -1.2114580e-01
  1.9384034e-01
 -4.9001589e-01
 -7.7877723e-02
  1.4236656e-01
 -1.6727699e-02
 -1.1193564e-01
  2.2659862e-01
 -2.9898632e-01
  5.3978484e-02
  2.0271540e-01
 -8.0614221e-01
  4.7877878e-01
 -1.1923665e-01
  7.2813272e-01
  2.1733422e-02
  5.8249105e-03
 -3.4812477e-01
  3.0180717e-01
 -6.8527169e-04
  3.4379292e-02
  1.3434745e-01
 -3.4216788e-01
  7.9580881e-02
 -1.1539156e-01
 -7.3960133e-02
 -1.0662903e-01
  6.0840452e-01
  6.4937972e-02
  3.9416198e-02
 -2.4343807e-02
  6.5702140e-02
  4.8874390e-01
  3.0306676e-02
 -6.4553440e-01
  3.1584762e-02
 -1.9010049e-01
 -1.3563197e-02
  2.7363276e-01
  2.0716360e+00
  3.5829049e-02
 -2.1058880e-01
  1.9660844e-01
  1.5277202e-01
 -2.5498262e-01
  6.3765667e-02
  4.1778779e-01
 -8.0813363e-02
 -2.6202801e-01
 -1.9667800e-01
  8.0440015e-01
 -5.8342982e-02
 -2.4766724e-01
 -4.9364492e-03
 -8.1386968e-02
  4.6362504e-02
 -1.8914276e-01
 -6.7781530e-02
 -8.6494133e-02
 -1.4025792e-01
 -8.4039092e-02
  1.0644016e-01
 -2.2896420e-02
 -1.1269106e-01
  1.5644129e-01
 -1.9286179e-05
 -2.2007586e-01
  1.1892717e-01
 -1.2726484e-01
  2.5693755e-04
 -1.8912487e-01
 -1.6934269e-04
 -1.0908667e-01
  6.7225039e-02
  1.8389305e-01
 -4.1401437e-01
  4.0114369e-02
  1.2084939e-02
  6.9694868e-03
 -1.1304516e-01
 -5.6279016e-01
  2.8093784e+00
  5.1601404e-01
 -1.3584528e+00
 -8.0457732e-02
 -3.5816262e+00
 -1.8731525e+00
  3.7664396e-01
 -1.4795543e+00
 -1.7902285e+00
 -3.2214720e+00
 -1.3058236e+00
  5.3920537e-02
 -1.3161770e+00
  7.9473890e-02
 -1.4428896e+00
 -2.2473011e+00
  3.0049238e-01
  9.0800977e-01
  2.5846079e-01
  3.6591909e+00
  4.7646663e-01
 -9.7772503e-01
 -1.8569197e-01
 -9.6910045e-02
  2.9669562e-01
  2.5281298e-01
  4.0904164e-02
  4.0606070e-01
  8.2775010e-03
 -5.9737782e-03
  4.4984434e-02
 -1.3463825e-01
  5.1108804e-03
  1.9556865e-02
 -1.5411882e-01
 -6.9449741e-01
  3.1110564e-01
  6.9540210e-02
  9.8718427e-02
  6.4908437e-02
 -4.8530851e-02
  2.1509365e-03
  2.5334636e-02
  7.2861277e-02
 -1.8311581e-01
  1.4387949e-01
 -2.5233877e-01
 -1.9214362e-01
  3.0813524e-02
  2.9028970e-01
  7.2314411e-02
  1.3602220e-01
 -2.3999584e-01
 -7.0337757e-02
 -9.2516311e-02
 -7.6035924e-02
 -5.8169752e-02
 -3.6684114e-02
  1.3081330e-01
 -1.9632483e-01
 -1.0320930e-01
 -9.3880527e-02
  7.9151534e-02
  1.5080321e-01
  1.0978261e-01
  4.5667812e-01
 -3.0362517e-02
  3.1070998e-01
  2.8892010e-01
  1.9019613e-02
 -6.7179680e-01
  2.9507846e-01
  7.5757958e-02
 -1.2051299e-01
  6.7065540e-03
  2.0078538e-01
 -1.9485125e-01
  1.7956741e-01
 -3.1601146e-01
 -7.9926886e-03
 -1.0155865e-01
 -1.7399803e-01
  2.3603567e-03
  2.5532725e-01
 -5.9386410e-02
  2.5011301e-01
 -9.0849802e-02
  2.8646620e-02
  1.2782654e-01
  3.2091117e-01
 -1.4284961e-01
 -1.1765667e-01
  3.5293499e-01
  1.3349706e-02
  9.8039329e-02
  1.9228807e-01
 -4.7112189e-02
 -2.4639586e-02
 -3.5820100e-02
  6.1992221e-03
  1.6640648e-02
 -3.8017812e-01
  2.0829579e-02
 -2.3096079e-02
  2.3341089e-01
 -4.3444175e-01
  5.2713728e-01
  4.7707900e-01
  3.1011173e-01
 -3.7994874e-01
 -1.4774776e-01
 -9.3746372e-02
 -2.9807549e-02
  3.3572983e-02
 -1.6875362e-01
 -3.0428135e-01
  1.3357453e-01
 -1.3056441e-01
  1.3866842e-01
  9.0097316e-02
 -6.1414642e-03
  1.3718405e+00
 -2.7993705e-02
  1.3925965e-01
 -3.9313656e-01
  6.0508225e-02
  2.4746969e-01
  8.2629882e-03
  1.9810691e-02
  8.8229112e-02
 -8.9748599e-02
 -1.2079169e-01
 -8.2808755e-02
 -1.9104888e-01
  1.3502139e-01
  3.8993055e-01
 -2.2317672e-01
 -1.2907740e-01
  1.2652613e-01
  8.7089359e-04
 -1.6484184e+00
  2.3326261e-01
  4.7999081e-01
  8.6913817e-02
 -1.2455804e-02
 -6.4897709e-02
 -1.3300136e-01
 -2.6666820e-01
  9.0228871e-02
  3.1861413e-02
  1.0425512e-01
 -4.1727636e-02
  6.8988544e-01
  3.9180478e-01
 -4.0209159e-01
  2.4263988e-01
 -2.1426116e-01
 -3.1692911e-02
  4.9131595e-02
  6.7751676e-01
 -1.8079269e-03
 -2.5218916e-01
 -1.9551361e-02
  2.3033001e-01
 -2.0884316e-01
 -2.9612163e-01
  2.3590732e-01
 -9.6491054e-03
  1.2665961e-03
 -1.0736120e-01
  3.2189041e-01
  2.1103258e-01
  5.4001506e-02
 -4.1067727e-02
  6.3135184e-02
 -8.5917807e-01
  5.5463892e-01
  6.4230442e-01
  6.0741627e-01
 -3.4008659e-03
  9.9996097e-02
 -2.9172583e-02
  4.2273708e-02
 -2.8238603e-01
 -1.5707967e-01
  6.7994200e-02
  3.9687142e-01
  1.0990460e-02
 -1.6183661e-01
 -1.9397210e-01
  1.7090993e-01
 -2.5009918e+00
 -2.2075365e-01
  3.7464637e-02
  1.5864584e-01
 -3.8050603e-05
 -6.7781933e-02
 -2.5350007e-01
  1.4131501e-01
  3.1287968e-01
 -3.0053216e-01
  5.9539616e-02
  1.9316365e-01
 -8.8501066e-02
 -4.2522806e-01
  1.4488685e-01
 -1.5857358e-01
  5.0093931e-01
 -1.0806162e-01
 -3.8938418e-02
  6.7093360e-01
 -3.8455838e-01
 -4.3025541e-01
 -6.9120073e-01
 -3.0673265e-01
 -3.1524327e-01
  3.1295031e-02
  2.3711306e-01
  1.0804763e-01
  4.0721487e-02
 -1.9008627e-02
  2.1491019e-01
  2.0112615e-02
  6.1541449e-02
  4.7827147e-02
  1.9062081e-02
  1.3942003e-01
 -1.2477129e-02
  8.9973740e-02
  4.0340420e-02
 -2.5921065e-01
  7.2188549e-02
 -1.1071713e-01
  2.2912344e-02
  1.2856477e-01
  5.7817709e-01
  2.6074481e-01
 -5.9697068e-01
  8.5514673e-04
  1.1703555e-02
 -3.8264982e-02
 -1.7875347e-01
 -6.5510079e-02
 -3.9417163e-02
 -1.7219336e-01
  5.8651608e-01
 -2.6062677e+00
  1.7785585e+00
 -9.6245462e-01
  1.9677620e+00
 -4.8616034e-01
  8.4061021e-01
 -2.0224421e-01
 -1.6526538e+00
  1.3051416e+00
 -3.3482355e-01
 -6.2213427e-01
  4.2441350e-01
  1.0856835e+00
  1.5680698e+00
  1.3166815e+00
  7.4572045e-01
  3.5500288e-01
 -6.4583516e-01
  1.8139719e+00
  1.0242912e+00
 -2.5908008e-01
 -1.6030414e+00
  1.3700573e+00
  7.3988962e-01
 -1.6335251e+00
 -8.7223202e-01
 -2.1660888e-01
  2.0010148e-01
  3.9720741e-01
 -6.9815718e-02
  2.6350008e-02
 -8.8179208e-02
  4.8840708e-01
 -1.4393219e-01
  9.9674529e-01
  5.8121989e-03
 -3.0489093e-01
 -4.1255069e-01
  1.9117762e-01
  1.8221013e-01
 -1.8890226e-01
 -9.3135613e-01
  2.4854394e-02
 -7.4237004e-02
  1.0791414e-01
  1.1703319e-01
 -1.3538415e-02
  1.4859373e-02
  2.1704535e-01
  4.7612646e-01
  4.5701261e-03
  2.0443313e-01
 -2.2879252e-01
 -9.2803225e-02
 -2.0941204e-01
 -1.7673434e-01
  2.8338736e-02
 -4.9895018e-01
 -3.4987584e-02
  2.4984258e-03
 -2.6933074e+00
 -2.2769369e-01
  1.5143055e-02
  8.6962715e-02
 -1.5692532e-01
  7.4759290e-02
 -1.7264141e-01
  2.5916502e-01
  8.4233433e-02
 -4.0284717e-01
  4.9292815e-01
  4.6581671e-01
  4.0306565e-01
 -5.7694439e-02
 -1.0114994e-01
  3.5618636e-01
  1.7029358e-02
 -4.7465974e-01
  1.9206257e-01
  1.3020025e-01
 -1.6441031e-01
 -1.5985012e-01
  2.2756959e-01
 -1.0311064e-01
 -1.6134921e-01
 -1.2172793e-02
  7.9874303e-03
  2.7471295e-02
  1.4534831e-02
  4.8553672e-01
 -4.9443650e-03
  1.0563877e-01
  1.5467060e-01
  2.2280169e-01
  2.8201357e-01
  1.9196634e-01
 -1.2812851e-01
 -1.0559753e-01
 -1.9856381e-01
 -1.8305661e-01
 -5.0263196e-02
 -2.4409888e-02
 -2.8630873e-02
 -1.6025391e-01
  8.5417348e-01
 -3.3126858e-01
 -2.0708758e-01
 -1.0072844e+00
  3.1735617e-01
 -4.4913910e-02
  2.4959486e-02
  1.9157647e-04
 -3.4919944e-01
  1.8172172e-01
  9.1953285e-02
  4.3080509e-01
 -4.6125956e-02
 -5.5492759e-02
  7.8818649e-02
 -2.8867841e-02
 -7.0049152e-02
  3.8553040e-02
  2.1679714e-01
 -4.0031407e-02
 -1.4365438e-01
  2.7162349e-01
  5.6033510e-01
 -8.2357526e-01
  2.5772464e-01
 -1.7151202e-01
 -6.3298523e-02
 -2.7710740e-02
 -1.2820338e-02
  7.4527407e-01
 -7.3374160e-02
 -8.4725440e-02
 -5.2552819e-03
 -1.8502565e-02
 -1.7258984e-01
  8.8942057e-01
 -5.4299015e-01
 -3.3629033e-01
 -1.4000559e-01
 -2.4557909e-02
  2.7251068e-01
 -1.5524158e-01
 -1.7216548e-01
 -1.4837722e-01
 -8.2822882e-02
  3.2212220e-02
 -8.6968569e-03
 -2.9436764e-01
  2.7844790e-01
 -9.7745501e-02
  1.2289468e-01
 -1.3512887e-01
  1.3063107e-01
  9.3054190e-02
  9.8839156e-02
  4.4174902e-02
 -2.9739198e-01
  1.5961178e-02
 -4.3716449e-03
  6.4770810e-02
 -4.2068201e-01
 -3.3644360e-01
 -1.0659007e-01
 -2.8899819e-02
 -3.8641465e-01
  1.8385746e-01
 -2.2201920e-01
  1.7032002e-01
 -9.1851063e-02
  9.9687733e-02
 -1.0976201e+00
  1.1180887e+00
  1.2096076e+00
  1.2761474e-01
  7.6708451e-02
  3.7563961e-02
 -1.9082144e-01
  2.9094808e-02
 -3.3783066e-01
 -6.4570300e-02
  5.5543643e-01
  3.9821067e-01
 -6.2271751e-02
 -2.2213021e-02
  9.2570983e-02
 -2.6656317e-02
  2.7539614e-01
 -4.3524090e-02
  1.6208023e-02
 -3.9163489e-02
  3.8301408e-02
  4.7407496e-01
 -2.6198830e-02
  5.0498009e-02
  3.1208055e-02
 -8.5325755e-02
  5.2455530e-02
  2.5227185e-02
  5.7389572e-02
  1.0556120e-01
  4.0448982e-01
 -1.0285010e-01
 -3.1825277e-01
  2.5317270e-01
 -7.8899460e-03
  1.1313912e+00
 -6.3074034e-01
 -5.5346340e-01
 -6.3936108e-01
  2.5916141e-01
 -3.8532361e-02
  1.0776784e-01
 -1.1217123e-01
  1.8697565e-02
  2.2923031e-01
 -2.0439031e-02
  3.2656062e-02
  1.0977618e-01
  2.8139424e-01
 -2.6343003e-01
 -2.5136146e-01
  1.4094676e-01
 -2.8811595e-01
  3.3955082e-02
  1.4788480e-02
  1.9625796e-01
  6.8126768e-02
 -1.4983881e-01
 -7.4531041e-02
  7.1199231e-02
  7.7960230e-03
  1.1468830e-01
  1.6518721e-01
 -1.6683134e-01
 -6.1339613e-02
 -1.8732861e-01
 -1.1150210e-01
  1.6897473e-01
  5.7941931e-03
  1.2029555e-01
 -9.2500651e-01
  5.5874646e-01
  2.3140575e-01
  1.1361443e+00
  1.7887370e-03
 -5.0604086e-02
  1.0653306e-01
 -3.7675876e-02
  8.2307741e-02
  1.5541899e-01
  5.9108488e-04
  2.0165646e-01
  1.2078527e-01
 -7.2881065e-02
  5.9722573e-02
  3.5859337e-01
 -2.0469221e-01
 -2.1967894e-01
 -1.6098769e-02
  2.9775092e-02
 -7.4649915e-02
  2.1409551e-02
  1.9177260e-02
  6.6637740e-02
  2.3234859e-01
  1.9436538e-02
 -1.7342126e-01
  1.9469709e-03
 -8.0688678e-02
 -2.7549528e-02
  3.1094966e-02
  1.0331286e-01
 -5.9956249e-02
  4.0864747e-02
  1.5657699e-01
  6.7321169e-01
 -1.2632801e-01
 -1.1103554e+00
 -4.3941897e-01
  8.3131410e-02
 -1.8457595e-02
  1.0440432e-01
 -1.4827161e-01
 -1.7091757e-02
 -9.5393352e-02
 -1.4980510e-01
  4.4002887e-02
 -3.1376805e-02
 -2.2866806e-01
 -1.8354714e-02
  3.5738673e-02
  2.5853989e-01
 -1.3961482e-02
  1.5449426e-01
 -4.4833917e-02
 -2.6308239e-04
  2.0033021e-04
  2.7591815e-02
 -3.2673162e-01
  1.7050689e-01
  5.6279689e-02
 -1.6869739e-02
  1.8281398e-02
 -6.9491185e-02
 -8.9320680e-03
 -3.9639977e-01
  1.5819304e-01
  7.6672770e-02
  1.3047025e-01
  2.4867475e-03
  1.9540154e+00
  1.1760108e+00
  2.3419027e-01
  4.5881480e-01
 -2.6839149e-01
  5.8090981e-02
 -5.8195390e-02
 -3.2579735e-02
 -1.7683379e-01
  2.4649230e-01
  1.1770308e-01
 -5.5450957e-02
  6.3392125e-02
 -2.1571161e-02
  3.9784443e-01
  6.8929076e-02
  2.3699261e-01
 -2.5358829e-01
  1.5567453e-01
 -1.8719511e-02
  7.4201025e-02
  2.1358410e-01
  1.0252034e-01
 -1.2432994e-01
  3.1526831e-01
 -1.7637654e-01
  2.6374856e-01
 -9.9033564e-03
  7.3735856e-02
  1.1109482e-01
  1.0556686e-01
  5.4752149e-02
  2.0328017e-02
 -3.6842731e-01
  3.2992303e-01
 -5.4008263e-01
  4.5665511e-01
  1.1372201e-01
  4.5254049e-01
 -1.1651617e-01
 -1.6893552e-01
  2.8140090e-02
  1.0220128e-01
 -1.7122930e-01
  8.5012004e-02
  4.4115064e-01
  1.9468239e-01
 -6.0966853e-02
  2.3439121e-02
  9.5760681e-02
 -3.0588701e-01
 -1.7070789e-02
  3.8608294e-02
  1.9023547e+00
 -2.0154673e-01
 -2.3877373e-02
  2.7508396e-03
  3.6520454e-01
  2.5605364e-03
 -1.2178669e-01
  1.5808553e-01
  1.3052776e-01
 -4.1473590e-02
  3.0777769e-02
 -1.7469950e-01
  6.8953596e-02
  9.2279110e-03
  1.9251077e-01
 -1.3336679e-01
  4.1818643e-01
 -3.0589682e-01
  4.6730340e-01
  5.8294642e-01
  1.0637406e+00
  6.0063034e-02
  1.1172359e-01
 -8.2184307e-02
 -2.6000353e-02
 -3.7406404e-02
  1.3756083e-01
 -2.5345266e-01
 -6.9129728e-02
 -1.7525458e-01
 -3.9406903e-02
  1.9997557e-01
  8.8794485e-02
  6.7757286e-02
  6.2731397e-03
  1.2073649e-01
 -2.2256939e-02
  1.0125026e-01
 -1.6892249e-02
  1.0870805e-01
 -2.9947764e-01
  3.6494557e-02
 -2.1588424e-02
 -3.2749674e-01
 -9.9499577e-01
  2.3829889e-01
  3.6359301e-01
 -1.0488454e-01
 -4.4164217e-01
  1.9436465e-01
  2.6683697e-01
  2.1982271e-02
  8.3114934e-01
 -8.2877958e-03
 -9.1633713e-01
 -2.2320652e-01
  3.3039763e+00
 -1.6420335e-01
  5.3477383e-01
  2.2854713e-01
 -1.7369467e-01
 -1.5714104e+00
 -2.2572288e-01
 -2.7682528e-01
 -5.6851476e-01
  3.0393646e+00
 -2.8786750e+00
 -7.1875685e-01
 -1.0099834e-01
  6.3098782e-01
 -1.2262553e-01
 -1.2075585e+00
 -1.9073913e-01
 -1.1762127e-01
  9.4178796e-01
 -1.9910811e-01
 -2.3562121e+00
 -7.8833960e-03
 -1.2508029e-02
  1.3349348e-01
 -6.2671371e-02
  3.9126581e-01
  1.1585186e-01
  8.5079342e-02
 -1.8838367e-01
 -1.3792923e-01
 -2.7261214e-02
  1.4120538e-02
  9.0050042e-01
  7.8368568e-01
  2.3529351e+00
  4.0983401e-02
  4.2222729e-03
  9.2811167e-02
 -3.0373785e-01
  1.1897858e-01
  5.1139824e-02
  2.6228082e-01
  4.6130788e-02
 -7.9248101e-02
  2.3506589e-02
 -2.0186073e-01
 -1.9344446e-03
  1.0708996e-01
  1.8034680e-01
  3.3830225e-01
 -3.0358547e-01
 -8.4506743e-02
 -1.6603656e-01
 -1.7197603e-01
  2.9550371e-01
 -1.5795223e-02
 -6.6364251e-02
  2.3817668e-02
 -3.3642292e-02
  1.9936781e-01
  1.1763906e-01
  7.8781500e-02
 -5.2295011e-02
  2.8514925e-01
 -1.4713733e-01
  2.5246939e-01
  1.6148087e+00
 -2.7402723e+00
  3.7249393e+00
 -1.0840709e+00
 -1.1206003e-01
  2.5362343e-01
  1.4503567e-01
  1.7138672e-01
  9.4338268e-01
  2.9015476e-01
  1.9960852e-02
 -8.3815321e-02
  4.0797796e-02
  1.1348340e-01
  2.4622999e-01
 -9.1843724e-01
  1.6100911e-03
 -5.3531501e-02
 -1.2870590e-01
 -5.1742770e-02
  1.9894269e-01
 -3.9389353e-02
  8.4295548e-02
  9.2078961e-02
  4.7534859e-01
 -1.8195828e-02
  1.2781540e-01
 -5.9137262e-02
  3.9829096e-01
  3.3338740e-01
 -1.0718156e-01
 -3.1424743e-01
 -1.4765570e-01
  9.7977400e-02
  4.4279497e-02
  1.6032450e+00
 -2.6528772e-02
 -7.7772814e-01
  3.4099686e-01
  2.0679972e+00
 -1.5713534e+00
  6.5523082e-01
 -6.3219595e-01
 -4.1077584e-02
 -5.3009291e+00
  5.7536650e-01
 -6.1756659e-01
  2.7339647e+00
  1.3674099e+00
 -2.2206793e+00
 -1.1884950e+00
 -7.9883683e-01
 -4.8881614e-01
  4.7424514e-02
 -2.9670677e+00
 -7.1277279e-01
  6.6074468e-02
 -3.5580140e-01
 -6.5049374e-01
 -1.6919067e+00
  1.0364752e-01
  2.1684507e-02
  1.7030162e+00
  2.5835267e-01
 -3.3984997e+00
  1.0950986e-01
  3.8706559e-01
 -4.2913094e-02
  7.9684995e-02
  2.1395086e-01
 -7.9760855e-01
 -1.0110354e-01
  5.3354406e-01
  5.8686143e-01
  1.6770296e-02
  1.7189792e-01
 -4.7918350e-02
 -7.5588204e-02
  3.6305618e-01
 -1.5223320e-01
  5.5033609e-02
  3.8853962e-02
 -2.2950785e-01
 -5.3485833e-02
  1.0246092e-02
  3.5197732e-01
  2.9423323e-01
 -2.2110416e-01
 -4.9377862e-01
  5.2986763e-02
 -2.6079318e-02
 -1.2624499e-01
  3.3089051e-01
 -7.2166845e-02
  1.0561498e-03
  2.2419603e+00
 -6.8002373e-02
 -1.8978569e-01
  1.2319420e-02
  7.9627838e-03
  8.5881040e-02
  2.9579647e-02
 -6.4759928e-01
 -3.4676462e-02
 -6.1594244e-02
 -8.7936014e-01
  2.1708685e-01
 -2.2634607e-02
  7.1934456e-01
  1.0432065e-01
  3.8824505e-01
  2.8310061e-01
 -1.5667005e-01
 -1.3600399e-02
 -7.0775390e-02
  4.6700049e-02
 -1.8003102e-01
 -3.6492966e-02
  1.8698523e-02
 -4.5573130e-02
 -5.8621544e-01
 -6.3589610e-02
  3.1486383e-01
 -1.7950125e-01
  1.3816872e-01
 -2.1691577e-01
 -4.1323110e-02
 -5.6242488e-02
 -4.0707685e-02
 -1.5086171e-02
  6.5482266e-02
 -1.1398672e-02
 -8.8206343e-02
  2.0169902e-01
  1.2357413e-01
  7.6018670e-03
 -3.9294489e-02
  1.1278576e-01
 -8.0962546e-02
  1.6901846e-01
  9.1109413e-01
  2.0351031e+00
  1.7098339e+00
 -5.1370001e+00
 -4.2326590e-01
 -4.3738392e-01
 -1.3847423e+00
 -1.1785544e+00
 -9.3251956e-01
  1.1989193e+00
  2.3574750e+00
 -9.2455223e-02
  1.9070984e+00
 -1.6208493e+00
  1.3211160e+00
 -2.6676493e+00
 -1.3583342e+00
 -2.4474335e+00
  1.0944338e+00
  3.6425421e-01
  2.4688509e-01
  4.1599295e-01
 -1.4820716e+00
  1.0912124e+00
 -1.4089859e-02
  1.0667053e-01
 -1.5304844e-02
 -4.3340083e-02
  2.9845762e-01
  1.5516034e-01
  1.6238452e-01
  6.0578859e-03
  2.2522070e-02
 -8.1958979e-02
 -8.9836441e-02
 -5.0016439e-01
  8.6619818e-01
  4.3556008e-01
  1.4700119e-01
 -2.1863282e-02
 -7.1962878e-02
 -2.2049239e-02
  8.4888063e-02
  3.6450934e-01
  8.0543570e-02
  5.5236451e-02
  1.9064821e-01
 -1.5101536e-01
 -3.1345233e-01
  1.9509798e-01
  1.8859617e-01
  2.9140323e-01
 -1.1047111e-01
  2.0223603e-01
  2.6460660e-01
 -1.0861455e-02
 -2.9145023e-01
 -1.5801933e-01
  2.4195763e-01
 -4.3852061e-01
  1.1578692e-01
 -5.2701360e-01
  1.4617066e-01
 -4.4214339e-03
 -4.0751427e-02
 -3.3495549e-02
 -1.2754697e-01
  3.3813190e-02
 -1.7416032e-01
  1.3803868e-01
  4.9675834e-01
 -3.1793767e-01
 -1.9130868e-01
 -6.8333679e-01
 -4.6471618e-02
 -2.8007763e-02
 -7.7593938e-02
 -1.6459361e-01
 -2.6680955e-01
  8.7993834e-03
  1.0187841e-01
 -8.8457905e-02
 -9.9751510e-02
 -7.0275120e-02
  8.2172323e-03
  1.2443691e-01
 -2.1990746e-01
  2.6856940e-02
  1.6669714e-01
 -2.0718575e-01
 -5.3910431e-02
  6.8673819e-02
  3.5989255e-02
 -1.0534546e-01
  1.3264404e-01
 -3.2258803e-01
  2.0958859e-01
 -4.2114362e-01
 -1.6970365e-01
  1.2749292e-01
  5.8317680e-02
  5.2615325e-03
 -1.8833074e-01
  1.5689762e-01
 -1.9333372e-01
 -9.5533073e-01
  5.6802732e-01
  9.7016537e-01
  7.6811451e-01
  7.6482460e-02
  1.3982546e-01
 -1.5447797e-01
  2.9268807e-01
 -9.6159220e-02
  7.7220730e-02
 -1.2229532e-01
 -8.4627062e-02
  1.0653397e-01
  1.9455273e-01
 -7.9925105e-02
 -3.5271522e-01
  1.3623704e-02
 -9.2486843e-02
  2.5023547e-01
  7.4946567e-02
 -2.5558537e-01
  4.2866793e-02
 -1.0299773e-01
  1.0004238e-01
  4.1841543e-03
  1.0216091e-02
 -9.5103875e-02
  3.3231609e-02
 -9.9121854e-02
 -3.2279842e+00
  2.1867579e-01
 -8.8862732e-02
 -8.3668679e-02
 -2.3871772e-02
  5.4465797e-02
 -2.6792939e+00
 -3.5349331e+00
  3.0595007e+00
 -3.1195979e+00
  3.0705554e+00
 -9.0454620e-01
 -3.5109041e+00
 -3.5074680e+00
 -8.2797199e-01
 -1.3918480e+00
  1.4051625e+00
  3.2812409e+00
 -2.9159982e+00
 -1.0580889e+00
 -2.1309204e+00
 -2.0797625e+00
 -1.3896298e+00
 -3.2896750e+00
  2.8802915e+00
 -2.1644701e-01
  2.6267210e-01
 -3.5049326e+00
  2.8341639e+00
  1.4042410e+00
 -3.2135808e+00
 -1.9654608e+00
  4.1218286e+00
  2.4812548e+00
  3.1266770e+00
  2.7942848e+00
 -3.0708413e+00
  1.7884592e+00
  3.6256897e+00
  3.1827979e+00
  3.2245538e+00
  3.4510279e+00
  3.3760486e+00
 -2.7210820e+00
  3.7856758e+00
 -3.3415213e+00
  3.4128518e+00
 -3.0942433e+00
 -3.1913812e+00
  2.6988475e+00
 -2.9700167e+00
  2.9343815e+00
 -2.8897698e+00
  3.8982110e+00
  3.0362711e+00
  2.5949881e+00
  9.2106682e-01
  2.4188797e+00
  4.3687577e+00
 -7.8164959e-01
  3.5790944e+00
  3.3313894e+00
 -1.3522294e-01
  3.1212785e+00
 -3.1690559e+00
  2.7472210e+00
 -3.7370377e+00
 -1.4423097e+00
  3.1693873e+00
 -2.1102231e+00
  5.1282129e+00
  1.4685029e-01
 -3.8641813e+00
 -5.7216063e+00
 -1.7193233e+00
 -5.3893638e+00
  4.7791499e-01
  2.5441127e+00
 -1.4426436e+00
 -2.4384019e+00
 -2.8496742e+00
 -1.4133228e+00
  4.5219179e-02
 -2.9124739e+00
  1.6412438e+00
  6.7887551e-01
  6.7653969e-02
 -2.4933884e+00
  3.6741304e-01
 -3.9381489e-01
 -9.7736686e-02
 -1.8204480e+00
  2.8116210e+00
  2.1749010e+00
  3.2151613e+00
  1.5622681e+00
 -9.0246320e-01
 -1.4229657e-01
  2.4666448e+00
  1.0068380e+00
  1.9538358e+00
  6.7392726e+00
  4.4035177e+00
 -1.2531481e+00
  1.2381871e+00
 -3.6459322e+00
  2.9149311e+00
 -3.0351846e+00
 -2.1489770e+00
  1.9274467e+00
 -2.8779342e+00
  2.8324592e+00
 -1.0423321e+00
  1.6349219e+00
  1.4544413e+00
  9.5623636e-01
 -2.1429549e-01
  1.2649161e+00
  3.2534697e+00
 -1.0954375e+00
  4.2249265e+00
  2.6295283e+00
  1.3805215e-01
  2.2280517e+00
 -2.2600288e+00
  2.0608497e+00
 -3.7904747e+00
 -1.8331637e+00
  2.5471179e+00
  3.5748154e-01
  3.0666125e-01
  2.7293994e+00
 -4.3050623e-01
  2.8033156e+00
  3.5030656e+00
 -5.8734548e-01
  3.0209417e+00
  2.3955705e+00
 -7.2638780e-01
  1.6922866e-01
  1.9038209e-01
  1.3963521e+00
  3.5299143e-01
  1.2234168e+00
  1.1912147e+00
  5.5737883e-01
  2.9752153e-01
 -4.1498244e-02
  1.2502233e+00
  1.8000193e+00
  7.6172477e-01
  3.1613505e-03
  1.3075472e-01
 -3.3821769e-02
  1.4355297e+00
  5.1968569e-01
  8.6752079e-02
 -4.5962271e-01
 -8.0179983e-01
 -1.5583099e+00
  9.2562057e-02
  4.1545951e-01
  4.1626349e-02
  1.1469978e+00
  4.7663060e-01
 -8.7820530e-01
  6.8776935e-02
  9.4129932e-01
  1.1461505e-01
 -3.8892213e-02
  2.5495008e-01
  8.4906720e-02
  1.9127105e-01
 -1.9225733e-02
 -7.5638206e-03
 -5.4228026e-01
 -3.4901708e-01
 -1.2328482e-01
  8.5529862e-03
 -1.4209051e-01
  2.8677544e-01
 -6.1225519e-03
  1.5240496e-02
 -5.1877689e-02
 -4.9070626e-01
  5.4521108e-04
 -5.1592118e-01
 -7.9052098e-02
  1.4832281e-01
  3.8081533e-01
 -3.4712184e-02
  7.0406541e-02
  1.0150058e-01
  2.1386126e-01
 -3.8423896e-02
  2.6648194e-01
 -5.0794959e-01
  1.9928197e+00
 -7.3831254e-01
  8.0779821e-02
  1.5963212e+00
 -3.8384315e-01
 -2.0161521e-01
  1.6705024e-01
  1.4976522e-01
 -5.1692885e-01
 -1.0324305e-01
  5.1832583e-02
  9.4235472e-02
 -2.5264923e-02
  6.1789297e-02
 -2.1227622e-01
 -4.3952566e-02
 -4.4035923e-01
 -7.0136748e-02
  9.2806935e-01
  2.6346973e-01
 -2.9165399e-01
 -3.2168061e-01
 -1.0194396e-01
 -2.2797665e-01
 -7.3964126e-02
  9.2684850e-02
 -3.8200533e-01
 -1.1482998e-02
 -1.8052861e-01
 -2.9761866e-01
  4.4467074e-01
  4.8409480e-01
  2.9133078e-01
 -6.7453898e-02
  1.1810691e+00
 -1.1649687e+00
  1.3130609e+00
  3.6376595e+00
  1.0372088e-02
 -5.9877466e-02
  7.3253995e-01
  5.5465288e-02
  1.9364204e+00
  4.5821962e-01
  2.3401885e-01
 -2.4251604e+00
  6.7294821e-02
 -2.7671686e-01
  2.8914671e+00
  8.6032373e-01
 -2.7033186e+00
 -3.5332497e-02
  1.7268105e+00
 -1.7745420e+00
  3.7105672e-02
 -1.1774937e+00
 -1.2181351e+00
  2.7671993e+00
  1.1423410e-01
 -5.0729555e-01
 -2.8431752e-01
  2.0322701e-02
  4.0893057e-01
  5.8693875e-02
  9.6919173e-03
 -3.5875687e-01
 -2.0556018e-01
 -1.2671383e-01
 -1.4326014e-01
 -5.1868755e-02
 -1.9735403e-01
  8.3481026e-01
  3.2320136e-01
 -1.1478461e+00
 -2.2827272e-01
  2.2533610e-01
 -1.9745024e-02
  9.0048932e-02
  1.5105535e-01
  3.1940904e-01
 -1.7802538e-01
  3.4998295e-01
  1.9349459e-01
  9.3953229e-02
 -2.8629547e-01
 -2.4210288e-01
 -1.1871728e-01
 -7.8014302e-01
  3.9290391e-02
  9.6657187e-02
 -6.0619086e-02
  2.3471077e-01
 -2.5676158e-01
 -4.1518595e-02
  9.7605415e-02
  1.5678042e-01
  2.7946981e-02
 -1.8849856e-01
  3.4020688e-02
  7.6701106e-03
  3.1245995e-02
  2.5731918e-01
 -1.8040520e-01
 -1.8915005e-01
  6.5219259e-01
 -4.5443460e-01
  1.6766132e+00
 -3.5100963e-02
 -2.3777411e+00
 -8.2567394e-02
  4.4330916e-01
 -7.9065822e-02
  1.2135250e-01
 -1.0627352e-01
  2.0032571e-01
 -2.1371233e-01
 -2.3114870e-01
  6.5732184e-03
  5.6598734e-02
  9.5057495e-02
  5.4082815e-03
  2.4650715e-01
 -7.0865594e-02
  3.6713194e-02
 -1.7160738e-01
  6.3792015e-03
 -6.1251216e-02
 -1.5453045e-01
 -4.6076663e-02
 -3.7371412e-01
 -1.6605558e-03
  1.7202204e-01
 -2.0085143e-01
  1.4469582e-01
 -3.6926648e-01
  5.0890062e-02
 -3.0260410e-02
  8.7908924e-02
 -3.3723524e-01
 -3.0028000e-01
  1.2421368e-01
  1.0547392e+00
  4.2458948e-02
  2.4876306e+00
  9.4347134e-02
 -4.4600040e-02
  3.3529100e-01
  2.5157967e-01
 -1.6654004e-01
 -1.3778314e-01
 -3.9936292e-01
  7.8503035e-02
 -1.2502224e-02
  1.9840730e-02
  7.1037307e-02
  6.7894354e-02
  2.5089407e-01
 -3.9387006e-02
  1.4527011e-01
 -9.5005222e-03
 -1.8806848e-01
 -3.9753684e-01
 -4.0048454e-02
  1.5529358e-01
 -7.0058715e-01
 -3.9118066e-02
  1.1866998e-01
 -1.1109614e-01
 -3.4697354e-01
  2.5574163e-01
  5.8826808e-02
 -1.0352829e-01
  8.7339953e-02
  1.7771071e-02
  3.0817699e+00
 -2.2741747e+00
 -1.4596248e+00
 -3.0520387e+00
 -3.0627830e+00
 -1.0625596e+00
  3.7442055e-01
 -6.6424161e-01
  4.1536433e-01
  1.8555032e-01
 -2.3863462e-01
  9.0741478e-02
 -1.4099813e+00
 -1.5269482e+00
 -1.7299961e+00
 -5.2062750e-01
 -1.1260782e-01
 -2.0446701e+00
 -1.1964363e+00
 -1.1798645e+00
 -1.6228805e-01
 -4.1890021e-02
 -1.1918129e+00
 -1.5275825e+00
 -2.1572505e-01
  3.2456541e-01
 -3.1595480e-02
  6.1861528e-03
 -6.2906128e-01
 -3.7569761e-02
  1.6535480e-01
  1.6126148e-01
 -7.1887463e-02
 -1.2372648e-01
 -1.0743612e-01
  3.3060735e-01
 -1.2814113e-01
  1.1191365e+00
  4.2546162e-01
 -1.4923674e+00
  3.0180615e-01
  1.9267343e-01
  6.2514029e-02
 -3.0200472e-01
  2.7601081e-01
 -9.5044196e-02
  2.4949020e-01
 -3.7671876e-01
 -7.5219400e-02
  1.5482280e-02
 -6.0506649e-02
 -5.5921413e-03
  1.5389337e-01
 -8.0586910e-02
 -4.3159312e-01
 -8.2187206e-02
  1.1241942e-02
 -5.8471169e-02
  2.9888061e-01
 -1.6039030e-01
  6.9348286e-03
  2.0240487e-01
  1.6339187e-02
 -4.1573662e-01
  8.6886585e-02
 -3.4067553e-01
  2.4115302e-01
 -3.6373681e-01
 -2.6823482e-01
  1.3217971e-01
  5.9343487e-01
 -1.3228931e-01
  6.3724887e-01
  1.3923439e-01
 -4.3546699e-02
  5.0553954e-01
  1.1567458e-01
  7.7942556e-01
 -1.2141523e-01
  1.5105857e-01
 -2.0281190e-02
  2.9103452e-01
  2.7095342e-02
 -5.5932298e-02
  1.1387709e+00
  5.2244719e-02
 -1.9023342e-01
  2.1239188e-02
 -9.9068858e-02
  9.3106836e-02
  1.0881773e-01
 -9.2995167e-02
  3.9704165e-01
  1.6545421e-01
  3.6056061e+00
 -2.4306691e-01
 -7.2934389e-02
  8.1594475e-02
  1.4202477e-01
 -1.9300371e-01
  1.8625692e-01
  4.9975637e-02
  6.9537945e-03
  1.9415858e-01
  1.6348420e-01
  3.2662916e-01
 -1.6102581e-01
  7.5424546e-01
  2.6467692e-02
 -8.4509426e-01
  1.3945939e-01
  3.1535363e-01
  2.8992856e-01
  6.3130319e-02
  2.3035800e-01
 -1.0247807e-01
 -6.6449186e-03
  9.6054368e-02
 -1.2032571e-01
  5.4235123e-02
  2.7515572e-01
  7.6338753e-02
  3.6159599e-01
  5.2109987e-01
 -6.8315268e-01
 -4.4576627e-01
 -1.3901256e-01
  2.1013027e-01
  3.6019647e-01
  1.9330223e-01
 -8.8894956e-02
  4.1931570e-01
 -2.7464056e-01
 -2.2567540e-01
 -3.9862778e-02
  1.6736771e-01
  6.2258570e-03
 -2.1396981e-01
  1.1047713e-01
 -2.1124415e-02
  6.3971394e-01
 -1.0116615e-01
  5.9822512e-01
  7.5651586e-01
 -6.0461313e-01
 -1.2415791e-01
 -4.0795800e-01
 -4.6823794e-01
 -1.2941112e-01
 -7.0149605e-03
  1.3198322e-01
  5.9677484e-03
 -2.5967831e-02
 -5.1376303e-03
  8.3115578e-02
  1.0155471e-01
  4.5173192e-01
 -6.1323076e-01
  7.7784071e-03
 -4.4077374e-02
  3.4245884e-01
  8.2911238e-02
 -5.1148921e-01
  2.4411259e-02
  1.6229981e-01
 -2.3766689e-02
  8.1421679e-01
  2.6054162e-01
  6.2174916e-01
 -9.2959933e-02
 -1.6403098e-01
  7.7352419e-02
  1.5015958e-01
  1.9894573e-01
 -9.7204931e-02
 -3.6219022e-01
  3.1326499e-03
 -1.9992693e-01
 -4.0779524e+00
  7.1344417e-01
 -1.1477967e-01
  7.6622784e-02
  3.3537038e-02
 -4.7827244e-01
 -1.1951300e-01
  1.2307359e-01
  4.1282016e-01
 -2.3069042e-01
  2.1065782e-01
 -1.3222231e-01
  4.8010626e-01
  7.4590370e-02
  6.8584591e-02
  2.1700637e-01
 -1.4466232e-01
  1.6809529e-01
 -8.4134981e-02
 -2.0083368e-02
 -6.5837257e-02
  7.2047703e-02
  1.6835512e-01
  2.9321777e-02
  2.0072345e-01
  2.7931830e-01
 -5.1662022e-01
 -3.3061326e-01
  1.8417243e-02
  2.4570434e-01
 -4.7509736e-01
  3.3842131e-02
  8.0402501e-02
 -1.2915918e-01
  2.5569429e+00
 -2.9320729e-01
 -2.7447501e-01
 -2.0443080e-01
  4.3096606e-02
  2.3810524e-01
  1.6537052e-01
  3.3745316e-01
 -8.6591713e-02
 -2.3405973e-04
  6.3035741e-02
  1.7801518e-02
  1.9353721e-02
  6.6264100e-02
 -3.3369923e-01
  9.9196762e-02
 -2.5520310e-01
 -3.1527904e-01
 -6.9657639e-02
 -5.3723358e-02
 -1.3430011e-01
  1.4942434e-01
  1.6558648e-03
 -6.2955078e-03
 -1.3848346e-01
  1.6573647e-01
  4.4947367e-02
  2.1643238e-01
  8.5715868e-02
  1.3891973e-01
  1.9153757e-01
 -8.6401142e-02
  7.2531477e-02
 -7.7944165e-01
 -2.1058866e-01
 -3.5539818e-01
 -5.4097348e-01
  1.1560919e+00
  2.0771738e-02
  2.3093905e-01
  1.0923480e-01
  6.5828182e-02
 -2.8285172e-02
 -1.5587847e-01
  7.5009607e-02
  4.6975255e-02
 -3.4472829e-01
 -4.1272935e-02
 -1.0061096e-01
 -2.4628396e-01
  1.5572563e-01
 -1.2790854e-02
 -2.7816004e-01
 -3.9171234e-01
  7.8830250e-02
 -6.3574165e-02
  1.3015355e-01
 -2.7716306e-01
 -1.4337014e-01
 -1.2268937e-01
 -7.2623350e-02
 -1.2117013e-01
  5.3163309e-02
 -1.7929906e-01
  3.6118540e-01
 -8.8057294e-03
 -5.2690160e-01
  3.0947202e-01
  6.5588623e-02
 -2.7598737e-02
  2.3505773e-01
  7.8838831e-01
 -3.2715711e-01
  4.4149797e-02
 -1.3306201e-01
 -5.2647427e-02
  1.3759466e-01
  1.5653765e-02
 -1.9215998e-01
 -2.9405135e-01
  9.0274595e-02
  3.3388162e-01
  1.8612452e-01
 -2.1917258e-01
 -2.0787984e-02
 -2.6932353e-01
 -1.5057164e-01
  2.2928576e-01
 -5.1724777e-02
 -2.5133085e-01
  3.3290091e-01
 -3.6315888e-02
  5.3213570e-02
  1.6592160e-01
  2.7857152e-01
  1.3366482e-01
  1.0442421e-01
 -1.5267687e-01
  8.7011606e-02
  1.2216651e-03
  1.4857091e-01
  1.1925215e-01
 -5.6760080e-02
  4.7196791e-01
 -3.3544245e-01
  4.0950292e-01
  2.1784806e-03
 -1.1910967e+00
  1.1669050e-01
 -3.2248288e-02
 -3.2392922e-01
 -4.8748426e-02
  5.4468133e-02
 -2.8028736e-01
 -8.0087204e-03
  7.6778993e-02
  2.0522253e-01
 -1.5360786e-01
 -1.5448928e-01
 -1.1691383e+00
  3.8301420e-01
 -5.2963048e-02
  7.3790024e-03
 -6.8889081e-02
  1.2889466e-01
  4.9676295e-02
  1.2255833e-01
 -5.1862180e-02
  2.8986979e-01
  2.1606401e-02
  7.5335667e-02
 -1.7001568e-01
  2.6300558e-01
  4.9409434e-01
 -1.9480950e-01
 -3.3871967e-01
  9.1228890e-01
  2.3374641e-02
 -1.1393087e+00
 -2.4024963e-01
 -6.0285228e-01
 -2.3072515e-01
  1.1669449e+00
  1.0338933e-01
  2.5079721e-01
 -2.7304202e-01
 -6.0503179e-01
 -1.3264658e-01
  3.9187059e-01
 -1.2768577e-01
  2.9339349e-02
 -3.6469025e-03
 -7.0098475e-02
 -4.4083944e-01
  4.3258656e-02
  9.2291802e-02
 -3.2410610e-02
 -8.3050257e-01
  1.3073055e-01
  3.4687385e-01
 -4.5003243e-02
  1.6764340e-01
 -1.9436304e-02
 -1.9555688e-02
 -1.5164860e-01
 -1.2409293e-01
 -3.0527452e-01
 -2.1967822e-01
  8.5524067e-02
  8.6625718e-02
  2.9558983e-01
 -3.1714591e-01
 -8.9820132e-02
  1.1240127e+00
 -1.8230826e+00
 -8.6649632e-01
  4.3341236e+00
 -2.5041397e+00
  3.9229706e-01
  1.2932483e+00
  6.6237416e+00
  4.6417785e+00
  1.6814009e+00
  1.9704331e+00
 -1.0552877e+00
  2.2303510e+00
  1.3997104e+00
  2.7465289e+00
  1.3694506e+00
 -1.3831940e+00
  4.6649775e-01
  1.6091334e+00
 -2.8401047e-01
  2.6881281e-01
 -1.8145540e-01
  4.1158688e-01
  4.2291164e+00
  1.6689722e-01
 -7.6333798e-02
 -2.5639570e-01
  2.0310858e-01
  9.4131148e-01
 -1.8952624e-01
  1.2425219e-01
 -4.1319557e-02
 -5.5066012e-02
 -2.1290794e-01
 -2.3309732e-02
 -1.0778788e+00
 -1.0112624e-01
 -1.1461416e+00
 -1.2775429e-01
  8.6665094e-01
 -2.3935010e-01
 -3.9264834e-01
 -2.3839824e-02
  3.7603434e-02
  1.1708716e-01
  2.2859290e+00
  8.0188140e-02
  2.2419688e-01
 -2.1235400e-01
  6.6858239e-02
 -2.0707276e-01
 -8.5005283e-02
  1.4059182e-01
 -6.3321817e-01
  2.9884351e-02
 -3.5699759e-02
  3.7821814e-02
  2.7124040e-02
  2.1773283e+00
  6.9306356e-01
  2.6323300e-02
 -3.6084467e-01
 -2.0950720e-02
 -1.6494001e-01
 -1.9579798e-01
  6.4926641e-03
 -3.2277885e-01
  3.4543514e-02
 -1.3120076e-01
  1.4249561e-02
 -1.0509579e+00
 -5.7185972e-03
 -1.0991229e+00
 -3.1839433e-01
  9.9048632e-01
  1.4027134e-01
  2.4929477e-01
 -4.8554489e-01
 -1.0685255e-01
  1.7822129e-01
  2.5105301e-01
 -3.3098778e-01
 -2.9094493e-02
  1.8071231e-01
 -2.9647965e-02
 -1.4495596e-02
  2.6839849e-01
  3.3765554e-02
 -4.3580419e-01
 -7.3458725e-01
  2.7580190e-02
  4.2807004e-01
  6.3388303e-02
  7.5570852e-02
 -9.3983337e-02
 -7.1296342e-02
 -6.3728444e-02
 -9.4732158e-02
  2.6555350e-01
  3.1734765e-01
 -1.0012049e-02
  2.5809768e-01
 -2.0509356e-01
 -3.4418143e-02
 -1.1144948e-01
 -5.2440128e+00
  1.2623398e+00
  1.2956419e+00
 -9.8983485e-01
  2.6828747e+00
 -3.4831098e-01
 -5.5223179e-01
 -8.4379143e-01
 -1.7711030e-01
  1.3559715e-01
 -3.2148254e-01
 -2.4225134e-01
 -3.6746833e-02
  8.7554924e-02
  1.0062568e-01
  1.1574083e-01
  9.4641618e-02
 -3.4698959e-02
  5.4203220e-02
  3.7237376e-02
  1.1138276e-01
  2.7262300e-01
  5.5530243e-02
  7.5072207e-02
 -2.3879901e-02
 -2.0236844e-01
 -1.2583660e-01
 -1.1067703e-01
  2.3337181e+00
 -9.3141086e-02
  2.0056783e-01
 -2.8595172e-02
 -2.1858346e-01
 -1.1373426e-01
 -1.7241538e-01
 -6.2682303e-03
 -1.8364370e-01
 -1.3688327e+00
 -5.6791812e-01
  9.6703786e-01
  2.3472042e-01
 -4.1514225e-02
  3.9480638e-02
 -4.9277747e-01
 -1.7204614e-01
  1.3972533e-01
 -3.4346187e-01
  3.1516978e-01
 -2.1516682e-01
 -2.1549251e-02
 -1.1731757e-01
 -3.3208723e-03
 -1.8843059e-01
  2.6030374e-01
  2.4671374e-01
  2.0502953e-01
  2.8066707e-01
  4.6648428e-02
 -1.4028248e-01
  2.6305774e-02
  8.1102043e-02
 -7.2854415e-02
 -2.0418156e-02
 -1.7940257e-01
 -2.0912694e-05
  2.0034586e-01
 -1.4575629e-01
  3.7457639e-01
 -6.6764556e-02
 -2.0598325e-01
 -9.0774262e-01
  1.0032918e-01
 -1.1432319e+00
 -1.5475093e-01
  6.0124785e-01
 -5.8759889e-03
 -5.9954796e-02
 -6.5682185e-01
  1.5885462e-01
  1.1542877e-01
  3.7492788e-01
  4.7348395e-02
  6.0383028e-01
 -1.5736639e-01
 -4.8959956e-02
  3.2157719e-01
 -5.2530748e-01
  3.8289204e-01
 -3.6938407e-02
  1.3884659e-01
  1.6859186e-01
  4.6031183e-01
 -1.0067692e-01
 -1.4263760e-01
 -2.1111028e-01
 -4.2583331e-02
 -1.8212917e-01
 -3.9027747e-02
 -1.8264373e-01
 -2.0679196e-02
  1.0021831e-02
  7.5078897e-02
  5.5326331e-01
 -5.8283335e-01
 -7.7755086e-02
  1.3979868e+00
  1.6526888e-01
  9.2426598e-01
  2.4122847e-02
 -1.5212673e+00
  2.3768688e-02
  2.8569114e-01
  8.8933051e-02
  1.2053353e-01
 -2.1254463e-02
 -2.1776371e-01
 -4.2513934e-01
 -1.0117406e-01
 -4.4356221e-01
  1.6078112e-01
 -6.9080703e-02
  4.4426647e-01
  9.3610071e-02
  1.2163047e-02
 -4.8288532e-02
  1.3520576e-01
 -1.4131433e-01
  1.7579515e-01
  7.3039621e-02
  7.5963452e-02
 -7.9905773e-03
  4.7623593e-01
 -6.5746501e-02
 -7.1989469e-02
  3.1886646e-01
  9.2443421e-02
 -2.2632426e-01
 -1.5933013e-01
 -1.8595035e-01
 -5.9696174e-01
 -8.7859702e-01
 -3.9574540e-01
 -2.4975237e-01
  3.1956995e-01
  1.5191081e+00
  7.2170973e-02
 -1.1094543e-01
  1.3185041e-01
  1.5397125e-01
 -4.8549499e-02
  2.1383370e-01
 -2.4094542e-02
 -2.1091519e-02
 -1.6905624e+00
 -4.9076840e-02
  1.2764233e-01
 -4.3895073e-02
  2.3259528e-02
 -2.1447657e-01
 -1.8280980e-01
  1.0555129e-01
 -9.3206435e-02
  2.7348992e-01
 -3.1355792e-01
  3.0815851e-02
  8.7522328e-02
  1.8738305e-02
 -3.1619042e-01
  1.1344680e-01
 -5.5753940e-01
 -2.7574602e-01
  1.0202051e-01
 -4.0765479e-01
 -1.0954256e-01
 -2.6051976e-02
  1.9099881e-01
  3.5748813e-02
  8.1503236e-01
  6.3438410e-01
 -1.6859698e+00
 -1.2420739e-01
  1.0880528e-01
 -3.1827134e-01
 -1.5929082e-01
 -2.5455210e-01
  9.4988078e-02
  1.1540335e-01
 -8.5676340e-03
 -2.7526465e-01
 -6.0028944e-02
  8.2191527e-02
 -1.1267067e-01
  1.2131663e-01
 -3.8543072e-02
  2.6223210e-01
 -4.2692769e-02
  8.0625609e-02
 -1.2676958e-03
 -6.5987444e-01
  2.7099898e-01
 -2.1464638e-01
  2.5674513e-02
 -7.3265500e-02
  1.4886149e-04
  5.5799969e-02
  5.3817868e-01
 -1.2436116e-04
  4.2268309e-01
  3.3323956e-01
 -1.1357413e-01
 -9.8291129e-01
 -1.2810424e-01
 -7.4067950e-01
  2.4507684e-01
  1.5504463e+00
 -3.3660881e-02
  3.8230777e-02
  1.6122477e-01
  7.2921373e-02
  2.1278125e-01
 -2.6887578e-01
  3.3227954e-02
  1.9964737e-01
 -8.1410408e-02
  6.9950661e-03
 -1.9190736e-01
  4.2123809e-01
  1.3861513e-01
  1.1732358e-01
  4.4830355e-01
  3.8067612e-01
 -1.0121087e-01
 -1.2832291e-01
 -2.7543688e-01
 -7.4690595e-02
  1.0309836e-01
  2.7317345e-02
 -3.6630645e-02
 -1.6068234e-01
 -4.0735815e-02
  1.8164732e-01
  3.6271065e-03
  1.7175208e-01
  3.5618410e-01
  1.3396454e-01
  2.5169021e-01
  1.7222592e+00
 -1.7276080e+00
  3.3494635e+00
 -1.2651779e-01
  3.8198459e-01
 -2.6076066e-01
 -1.4631710e+00
  8.9273155e-01
 -7.2772306e-01
 -6.1071277e-02
 -6.9811851e-01
 -7.3545694e-01
  1.9389507e+00
  1.8467565e+00
  9.9785942e-01
 -1.8238194e-01
 -6.1511219e-02
  9.1329396e-01
  1.2339795e+00
  7.0687050e-01
 -3.9933616e-01
  4.1703999e-01
 -2.3094257e-02
 -3.8824919e-01
  2.6268369e-01
 -3.8958523e-01
 -3.5101411e-01
  2.8349370e-01
  4.0386671e-01
 -7.5724170e-02
 -1.0270311e-01
  7.3251456e-02
 -2.4359188e+00
 -8.2877129e-02
  2.7076187e+00
  2.7762735e-02
  1.2800702e-01
 -1.6275867e+00
  5.9700006e-01
 -6.5089220e-01
  4.1232982e-01
 -1.2255055e-01
 -1.9165090e+00
 -6.5425140e-01
  1.9342534e-02
  2.4854796e+00
  4.8641130e-01
  6.9650501e-01
 -2.8409177e-02
 -7.8767590e-02
  3.5710158e+00
 -4.4223073e-01
 -1.6391438e-01
  1.3249068e+00
 -3.8912258e-01
  1.3075988e+00
  5.9388489e-01
 -1.6599540e-02
 -3.5914522e-02
  1.2600917e-01
 -1.4044195e-02
  5.2743764e+00
  2.2252920e-01
  6.4494538e-01
 -4.1262075e-01
  4.3544609e-02
  2.5981194e-01
 -2.0003223e-01
  3.4639728e-01
 -5.0950301e-01
 -3.9409962e-02
 -1.0976225e+00
 -7.7738446e-01
  6.7518699e-01
 -1.0700034e+00
  1.9572219e-01
 -5.4281775e-02
  1.1783874e-01
  3.0523959e-01
 -1.6105846e-01
  1.7242491e-01
 -5.1563565e-02
  1.3890432e-01
  2.5253039e-02
  1.4264071e-01
  2.1668363e-01
 -2.5993657e-01
 -8.5120536e-02
  1.0948516e-01
  5.4505065e-02
 -6.3009880e-02
 -1.4892480e-01
  2.8111759e-01
 -8.8254698e-02
 -2.8075871e-01
 -3.3966929e-01
 -1.8267702e-01
  6.0658872e-01
  1.5764985e-02
  1.2666632e-01
 -1.0190173e-01
  4.9084374e-01
  1.9210112e-01
 -2.9650977e-01
 -1.1912081e+00
  9.5595203e-02
 -9.9282789e-01
 -8.2856864e-02
  8.1057078e-01
  2.3524842e-01
  5.3771544e-02
 -1.5232404e-02
 -5.8653329e-02
 -1.6000551e-01
 -5.4444922e-03
 -6.6423729e-02
  2.0203358e-03
  5.2069161e-02
  1.2964967e-01
 -2.4657227e-02
  1.1417779e-01
  5.8654785e-02
  7.2504026e-03
  2.2533518e-01
 -3.1291646e-01
 -7.9597585e-02
  5.2367628e-02
 -9.0487778e-02
  3.0342591e-01
  7.2475605e-02
 -2.9374069e-01
 -2.1910146e-01
 -1.6192697e-01
  8.7032095e-02
  1.4322069e-01
 -7.7131085e-02
  2.9212105e-01
  1.1893578e-02
  1.0237798e-01
  1.0380166e+00
 -2.3090236e-01
  2.8655300e-01
  3.6591515e-01
 -3.0905426e-01
 -3.0322485e-02
 -1.1928198e-01
  1.4976355e-01
  2.0589295e-01
 -1.5962277e-02
 -4.4343628e-02
  2.0449778e-01
  3.2759717e-01
  2.5206533e-01
  1.1998548e-01
 -1.5121927e-02
  5.2159116e-02
  4.6697080e-01
  3.8152437e-03
 -1.4647068e-01
  2.5876584e-02
  1.2537853e-01
 -4.2165298e-02
  5.9670627e-02
  2.8896665e-03
 -3.7859625e-01
  1.2743748e+00
 -9.7223423e-02
 -4.0899587e-01
 -2.9684970e-01
  1.2740692e-01
 -3.2374170e-01
 -2.1025332e-02
 -3.7794086e-01
 -2.1687392e-02
  2.4307535e+00
  3.4841362e-01
  1.2667434e+00
  8.3819276e-01
  1.4331340e+00
  2.0571105e-02
 -4.0495336e-01
 -1.7206599e-01
  1.8264076e+00
 -3.8666621e-01
  1.8920924e-01
 -2.6622322e-01
 -2.2776463e+00
  6.0778761e-01
  3.5414666e-01
  4.9841502e-01
 -8.4985211e-02
 -4.4368416e-02
  1.7774464e+00
  3.7684685e-01
  5.1598344e-03
  3.8654143e-01
 -4.7864535e-01
  6.0382527e-01
 -1.5832508e-01
  6.3747597e-01
 -1.8255532e-01
 -1.1853689e-01
  4.3901488e-01
  9.8816350e-02
  3.5554409e-02
  5.1004607e-02
  9.4698124e-02
 -3.0237934e-01
 -8.0271699e-02
  1.4697553e+00
  3.0767763e-01
  1.4653142e-01
 -1.9938312e-01
 -1.0072126e+00
 -1.4307551e-02
  5.9804972e-02
  9.2936486e-02
 -4.7846369e-02
  3.3653295e-01
  1.3299184e-01
  4.5394918e-01
  1.8578535e-01
  1.3921946e-01
  1.9976717e-01
 -1.7726833e-01
 -7.1025826e-02
 -1.4307068e-01
 -1.9499493e-01
  7.1296638e-01
 -2.1239845e-02
 -2.9465675e-01
 -4.8294686e-02
 -3.7069285e-01
  2.9744369e-01
  1.9535922e-01
  2.1084756e-02
  1.2844539e-01
  2.4147937e-01
 -1.9541506e-01
 -2.8641814e-01
 -5.1606309e-02
 -9.6378952e-02
  2.0143161e-02
 -2.1549624e-03
 -3.5279465e-01
  2.1756608e-02
 -1.3102200e+00
 -2.8734440e-01
  9.6921766e-01
 -7.3082991e-02
 -2.8512929e-02
 -2.1717410e-01
 -3.3973184e-01
 -2.5360512e-02
  3.1990013e-01
 -5.6603052e-02
  1.2463789e-01
  4.8673030e-02
 -1.0022975e-01
  7.2703995e-02
 -7.6950341e-01
  1.3001335e-01
  2.1457499e-01
 -1.6255890e-01
 -2.9810619e-01
  2.7377477e-01
 -1.1695708e-01
  3.0675213e+00
  6.2104464e-01
 -1.5645567e-01
 -6.5461740e-02
 -1.2763774e-02
 -5.2057233e-02
 -5.1285867e-02
  7.7090137e-02
 -6.9178075e-02
 -9.3000859e-02
 -6.6600315e-02
  1.4632690e-01
 -6.7516613e-01
 -3.0056742e-01
 -8.9689535e-01
  2.7872461e-01
  1.2821203e+00
 -3.6491428e-02
  1.0877874e-02
 -1.1004434e-01
 -3.6007047e-02
  7.3974848e-02
 -3.6984015e-02
 -2.8901629e-02
  2.9374889e-01
  2.8394479e-01
 -5.8918926e-03
  5.3874004e-01
 -2.7173953e-02
  7.4780948e-02
 -4.5639589e-02
  1.0850744e-01
  2.2009917e-01
 -7.3980518e-02
 -1.2140422e-02
  8.4095374e-02
  2.9171634e-01
  2.4622008e-01
 -1.4049214e-01
  7.4285612e-02
 -1.6259782e-01
  7.5464457e-01
 -1.7831165e-01
 -3.5845801e-02
  1.6559632e-01
 -3.1792126e-03
 -2.3234619e-01
  7.1061373e-01
  3.4593046e-01
  2.0932198e+00
 -4.7358289e-01
 -4.0618533e-01
 -3.6557743e-01
 -2.9137020e+00
  7.1589869e-01
  2.5972552e+00
  4.0924281e-01
 -6.0568023e-01
  1.4296244e-02
  7.3999176e-03
  1.1816672e+00
 -1.2299671e+00
  6.6916548e-02
 -2.4215411e-02
  1.1747249e+00
  2.1245985e+00
  1.7629179e-01
  9.7325230e-01
 -1.6484493e-01
 -1.9593394e-01
  1.7315623e+00
 -1.5808251e+00
 -3.3384886e-01
  2.8552762e-01
 -6.7615673e-02
 -1.5324758e-01
  2.9447207e-01
  8.3636262e-02
  7.8911282e-02
 -2.3086064e-02
 -1.2759571e-01
 -1.2740448e-01
 -1.0040479e+00
  3.0006644e-01
 -3.4292328e-01
 -2.4698621e-01
  8.5771996e-01
 -3.3474013e-01
 -7.9959892e-03
  1.8195714e-01
 -1.1495759e-01
  2.0899253e-02
 -2.0327410e-02
  1.4309175e-02
 -1.6795085e-01
 -2.7451184e-01
 -1.5814930e-01
  1.1747830e-01
 -7.4600893e-01
 -1.9510669e-01
  2.4876821e-01
  2.0921781e+00
 -5.8535433e-01
  1.2408078e-01
  2.8589487e-01
  3.3035386e-01
  1.2615801e-01
  4.7742358e-01
  2.7905354e-01
  3.7093714e-01
 -1.8791765e-01
  2.2003821e-01
  2.6153147e-01
  5.1603235e-02
 -1.0199980e-01
 -3.5276288e-01
  1.0916694e-01
  6.9574201e-01
  4.3265656e-02
  1.1232598e+00
  3.4100643e-01
 -4.0036562e-01
  3.0548933e-01
 -3.6936179e-01
 -1.9224232e-01
  2.0947935e-02
  2.5505292e-01
  5.8390787e-03
 -2.2049698e-01
  2.2287637e-03
  1.3449992e-01
 -1.9979033e-01
 -1.1655273e-01
 -5.5587038e-02
  1.2731692e-01
  2.8343832e-02
  9.9110007e-02
 -8.7504797e-02
  8.5049476e-03
  1.0417143e-01
 -7.7067308e-02
 -2.2044294e-02
  2.6285160e-02
 -8.3404154e-02
  2.9720902e-02
 -2.8137052e-01
 -2.6988531e-02
 -3.7084585e-03
 -1.1938516e-01
  1.6954952e-01
  2.0908026e-02
 -2.2598580e-02
  3.0675647e-01
 -3.2874915e-01
  1.4632705e+00
  5.7130808e-01
 -7.6394194e-01
  2.5782916e-01
  4.7172945e-02
  1.6342372e-01
 -3.3145096e-02
 -1.1962950e-01
  2.9646154e-02
 -4.6164873e-01
 -1.8411042e-01
  4.9427725e-02
  7.3955916e-02
  2.8803611e-01
 -7.5592328e-04
 -6.5854348e-02
 -7.1938075e-03
  5.2395511e-01
  3.4090310e-01
  4.9384549e-02
 -3.5173076e-01
 -1.7753515e-01
 -2.0063799e-02
  1.7084192e-01
 -1.0710296e-01
 -7.2040409e-02
  4.4892931e-01
 -2.7911878e-01
 -1.8886333e-02
  4.6206832e-01
  3.1018894e-02
  2.6668274e-01
  7.7922471e-02
  2.6434895e-01
 -4.3515962e-01
  1.3390754e+00
  1.7881951e-01
 -9.0943760e-01
 -6.3155852e-02
 -2.1928476e-01
  2.3503873e-01
 -1.9610113e-02
 -1.4782055e-01
 -2.4953274e-01
  2.4851937e-02
  3.3443096e-01
 -1.6196728e-01
  1.2738296e-01
 -3.5624173e-02
  1.5390819e-01
 -1.2591183e-01
  1.0569518e-02
  3.4760691e-02
  1.4388064e-01
 -1.3986884e-02
 -1.0311569e-01
  1.3304734e-01
  3.5540515e-01
  3.8256729e-01
 -3.6757371e-01
 -9.4233245e-02
  1.4107355e-01
 -1.4006223e-01
  3.7639192e-01
  1.5066656e-01
  4.6814516e-02
  2.2867058e-01
 -2.5403571e-01
 -1.6394678e-01
 -1.5604966e+00
 -1.3261589e+00
 -2.7184984e-01
  8.6043322e-01
  2.4137890e-01
  8.8856652e-02
  2.1412888e-01
  1.9845119e-01
  2.3722841e-01
  3.4051348e-02
  1.5984257e-01
  7.4267685e-02
 -7.6847315e-02
  1.1163886e-01
 -1.9015662e-01
  1.7824137e-01
 -2.6404878e-01
 -3.7126482e-02
  1.4591777e-01
 -1.3663819e-02
 -3.8901869e-02
 -1.3488181e-01
  4.0243942e-02
 -6.7851156e-02
  4.6404572e-03
  6.4530089e-02
  1.6418633e-01
 -3.6219202e-02
  1.5602186e-01
 -2.0135234e-01
 -2.4050975e-02
 -5.2421849e-02
 -4.5016252e-02
 -3.8972813e-01
  4.2951265e-01
 -1.6447657e-01
  4.2592812e-01
 -8.1132364e-04
 -1.1815563e-01
 -1.8728560e+00
  2.1316104e-01
 -8.8668615e-02
 -4.4109601e-01
  1.9535992e-02
  2.8371841e-01
  3.6088935e-01
  1.3412057e-01
 -9.4939083e-02
 -5.1447198e-02
 -2.5002131e-01
 -4.8016503e-02
 -1.9702844e-01
 -5.7888269e-02
  5.4117341e-02
 -6.5442368e-02
  1.2847982e-01
  1.4976531e-01
 -3.2674856e-02
  4.9151154e-03
 -1.8668763e-01
 -1.0803130e-02
 -7.8982681e-01
  2.3575880e-02
  6.6361502e-02
 -7.6044492e-02
  3.3760491e-01
  2.2482533e+00
 -1.0095346e-03
 -2.9086939e-01
 -6.5092480e-01
 -1.5506755e-01
 -6.8094885e-01
 -5.5742335e-01
  6.8134189e-02
  3.2086912e-01
  3.7375861e-01
 -1.8715921e-01
 -1.3272254e-01
 -2.1094418e-01
 -5.1279105e-02
  7.4901998e-02
 -1.2702863e-02
  9.8034114e-01
 -5.9264994e-01
  3.0091671e-02
  1.1368313e-01
 -9.6377954e-03
 -1.4249998e-01
 -2.2611369e-01
 -2.3176488e-02
 -3.1782839e-02
 -1.8527243e-01
  1.9215411e-01
  9.1333777e-02
  7.3424429e-03
 -5.5956525e-01
  1.1685793e-01
  5.5749975e-03
 -2.3962019e-02
 -3.0793124e-01
  4.5813087e-01
  7.8367896e-02
 -1.2881292e-01
  4.7719371e-02
 -6.8045473e-01
  4.8269901e-01
 -6.0167605e-01
 -1.5655619e-01
  1.8842784e+00
  4.4853594e-02
  2.1056082e-02
 -1.3941234e+00
 -5.4642733e-02
  1.0850821e-01
  8.0577530e-02
  4.0722550e-03
  6.4816728e-02
  1.9448562e-01
 -2.9129425e-01
 -1.8136960e-01
 -4.7460837e+00
 -5.8259126e-02
  3.2829992e-02
  2.7704415e-01
  1.4405826e-01
  2.8478608e-01
 -1.6247064e-02
 -8.7918960e-02
 -1.2081613e-01
 -1.8854322e-01
  2.4536683e-01
  1.6562665e-01
  1.2806419e-01
  9.3191549e-02
  5.9539330e-01
  2.0381100e-02
  1.4220612e-02
  3.5504714e-01
  6.4680204e-02
 -4.0506145e-01
  1.2099120e-01
 -7.5862265e-01
 -6.2504955e-02
  1.1865945e+00
  1.7467800e-01
 -6.8193741e-02
 -8.0297917e-01
 -3.9586287e-02
  1.5300635e-01
 -2.0474839e-01
  8.0346115e-02
 -5.3648484e-01
  3.7136844e-01
  2.5581110e-01
 -1.1017379e-01
 -1.4447749e-01
  2.2027089e-01
 -4.8696250e-01
 -6.0385658e-04
 -2.5365865e-01
 -2.0623459e-01
 -1.7564278e-02
  2.2761866e-01
 -8.6306117e-02
  7.3335014e-02
  4.2687511e-01
 -2.3570141e-01
 -1.0527781e-01
  2.7846368e-02
 -5.7559842e-01
 -1.4700240e-01
  2.0653936e-01
 -2.2282192e-01
 -3.5923328e-02
  1.8449198e-01
 -7.8277580e-02
  1.5449398e+00
  1.7422746e-01
 -4.4425336e-01
 -3.6413544e-01
  2.5633568e-02
  8.2551554e-02
  2.4462768e-01
 -1.1249040e-01
  1.4405392e-02
  1.1395118e-01
  3.3960682e-01
  2.6536772e-02
  1.1754253e-01
 -6.0584821e-02
 -3.3671543e-01
  2.7149679e-02
  1.1216900e-01
  5.1009905e-01
  3.6236734e+00
  3.2164041e-02
  2.9680702e-01
  2.5085047e-01
  9.7267516e-02
  1.8104011e-01
 -1.2254846e-01
  1.6477051e-01
 -1.7887253e-04
 -4.7102699e-01
  2.5356737e-01
  7.8126639e-02
  8.2174361e-02
 -7.9413451e-02
  2.0565276e-03
  5.1865184e-01
  4.7955390e-02
  4.0368104e-01
  4.1358709e-01
 -1.5525806e+00
  6.5929912e-02
 -7.0047989e-02
  2.6579909e-02
 -1.4937532e-01
  1.1727468e-01
 -1.9199196e-01
  1.2279533e-01
 -1.2729560e-01
 -3.0066747e-02
 -1.3033950e-01
 -1.5005437e-01
  6.8737127e-02
  3.7564762e-02
 -9.0860590e-02
 -1.6889237e-01
 -1.6831836e-01
 -5.5020209e-02
 -1.8488266e-01
  3.2559064e-01
  4.5178503e-02
 -4.7011855e-01
 -3.4814236e-01
 -6.2604159e-02
  2.8243449e-01
 -1.7579249e-01
  3.8623162e-02
  9.5845141e-02
  4.3533495e-01
 -9.8838612e-02
 -8.8921092e-02
 -2.4186845e+00
 -3.7541613e-02
 -5.8457341e-02
 -3.3407220e-01
  1.6561902e+00
 -4.2781585e-01
  7.5718991e-02
 -5.2347499e-01
  9.2686035e-02
 -3.3249229e-01
  8.4508643e-02
 -1.8351650e-01
  3.7712343e+00
 -1.7195040e-01
  1.5773980e-01
 -6.3210732e-01
 -1.3855639e-01
  1.4417275e-03
 -2.0783392e-01
 -1.0740347e-03
  1.5831585e-01
  4.8250192e-01
 -3.8655043e-02
  1.8019190e-01
 -1.3182741e-01
 -2.3318659e-01
  1.3831365e-01
  2.3066323e-01
 -1.5188512e-01
 -2.1849029e-02
 -2.3382340e-01
  4.8248041e-02
  2.1978760e-01
 -8.5304581e-02
 -3.6467901e-01
  2.1411884e+00
 -4.2792074e-02
  1.0660688e+00
  5.9325343e-01
 -1.1925025e+00
  3.3384353e-02
  3.5419768e-01
  1.1615393e-01
  3.0432785e-01
  1.3036502e-03
  5.6993169e-01
  1.3034913e-01
  2.1914996e-01
 -5.0518852e-01
  4.0382881e-02
  1.6006154e-01
 -4.5992505e-02
  1.7532516e-02
 -9.3244061e-02
  5.7123091e-02
 -1.3191554e-01
  6.9889173e-02
  2.2783745e-02
  1.9572558e-01
 -4.8216310e-01
  1.1206504e-01
  1.9789131e-01
  2.2664455e-01
 -1.2169856e-01
  3.5543671e-01
  5.2217008e-03
 -2.1810333e-01
  1.6244507e-01
  6.9206163e-02
 -2.3436122e-01
  1.3795601e-01
 -1.9100626e-01
  1.2463939e+00
  6.7789388e-01
 -6.1304414e-01
 -5.5933863e-02
 -7.5565040e-02
 -5.4261021e-02
 -5.3955209e-01
 -9.6339881e-02
  4.5929931e-02
 -1.0410511e-02
 -4.7196001e-02
 -1.2065215e-01
  1.3609326e-01
 -2.8686536e-02
  1.6367127e-01
 -4.0877178e-01
 -1.7049851e-02
  1.0444983e-02
  1.9473584e-02
 -2.8603351e-01
  4.1022012e-03
  9.4552350e-01
  1.9053726e-01
  1.1048413e-01
  1.9061755e-01
  2.6380593e-01
  1.8206670e+00
  4.7488582e-01
 -2.8288311e-01
 -6.8690568e-02
 -3.3449128e-01
  1.4914100e-03
 -2.1802855e-01
  9.1254371e-01
  2.7738675e-01
  8.8640237e-01
  1.1248688e-01
 -3.1886262e-01
  4.4897418e-03
  4.0937122e-02
 -1.2303429e-01
  1.9966762e-01
  3.0934647e-01
  4.4137303e-02
 -2.4124815e-01
 -3.5458662e-02
  2.7331477e-01
  1.3387753e-01
 -2.5861520e-01
  4.1352697e-02
 -7.7310935e-02
 -1.3856821e-01
  3.1455824e-01
  1.4980400e-02
  2.8340977e-03
 -2.3247698e-01
 -8.4866934e-02
  2.9101476e-01
 -1.7789958e-01
 -1.5884340e-01
  3.2615793e-01
 -1.4662839e-01
  1.8300433e-01
  2.2509918e-02
 -3.2721624e-02
 -2.8829700e-01
 -4.0282976e-02
 -3.5035919e-02
  4.8596597e-01
 -1.4130409e-01
  1.8193731e+00
  2.3072959e-01
 -1.2595389e+00
 -3.3067763e-01
 -3.1749651e-01
  7.1527176e-02
 -5.4423925e-03
 -1.6499344e-02
 -2.9890956e-02
 -3.3727404e-02
  2.6135020e-02
  4.3146834e-02
 -4.1706064e-01
 -5.3411182e-02
  2.2993080e-01
 -5.9418377e-02
  3.3416647e-01
  1.1242183e-01
  2.2576775e-01
 -7.9017617e-03
  1.8684547e-01
  5.0940786e-02
 -9.9734322e-04
  3.6670908e-01
 -9.3276417e-03
 -2.3978300e-01
  2.5400836e+00
 -3.7001997e-01
 -2.9796932e-02
  1.0899422e-02
 -2.9583810e-02
 -1.6408615e-02
 -2.8213957e-01
 -3.5461586e+00
  2.0795329e+00
 -1.0018119e+00
 -6.7517576e-03
  8.8428777e-01
  4.4960660e-01
 -3.2218462e-01
 -2.4315669e-01
 -6.4776406e-02
 -9.5522739e-02
 -1.3220797e-01
 -1.2487812e-01
 -5.5399764e-01
  2.0932021e-02
 -1.4104833e-01
  8.6649694e-02
  8.9447117e-01
  5.5278224e-01
  1.4404890e-01
 -3.3506933e-01
  6.0718540e-02
 -2.0560236e-01
  3.2487407e-02
  2.0135330e-01
  2.1546039e-01
  3.1583244e-01
  7.9552487e-02
  5.2339971e-02
 -5.7761180e-01
 -2.1687387e-01
  6.2177870e-02
 -6.0944259e-02
  1.3855042e-01
  1.8352233e-01
 -4.1732460e-02
  1.6916570e-01
 -5.7537399e-02
  1.0724407e+00
 -3.1404611e-02
 -7.4472767e-01
 -1.6456167e-01
 -1.5003279e-01
 -8.3099537e-02
 -6.6642694e-02
 -1.2895554e-01
  1.8991253e-01
 -2.9639637e-03
  2.1620557e-01
  2.5589120e-01
  4.1974224e-02
  1.4485255e-02
  7.0478246e-02
  1.9486497e-01
  3.1422675e-01
 -2.4754454e-01
  2.2258957e-01
 -2.3854512e-01
  1.1164850e-01
  2.2932661e-01
  3.2084808e-01
 -7.6264259e-03
 -5.9035879e-02
 -2.4938744e-01
  1.0955532e-01
 -1.0701674e-01
  9.9062636e-02
  4.5101318e-01
  1.0140175e-01
 -2.5833198e-01
  1.3662133e-01
  8.8361084e-01
 -4.1339681e-01
  4.8157960e-01
  3.7878158e-03
 -8.8735098e-01
 -7.7043004e-02
  1.3575491e-01
  1.5928599e-01
 -1.3796549e-01
 -2.9465640e-02
  7.1418959e-01
 -1.0478759e-02
  1.0915279e-02
  6.0686862e-01
  1.2809844e-01
  1.5237528e-01
 -1.1062389e-01
  3.3930153e-01
 -1.4011563e-01
  1.3327295e-01
 -7.5372502e-02
  5.6019280e-02
  3.2794026e-01
 -4.5936193e-02
 -2.1199195e-02
 -6.4142686e-01
  4.3572026e-01
  7.4277170e-02
  1.5964991e-01
 -2.1924850e-01
 -2.5245783e-01
 -3.3597584e-04
 -6.9243759e-02
  5.6578601e-03
 -4.2284834e-01
 -1.6887091e+00
  6.9238085e-01
  1.2852844e+00
 -2.5923264e-01
 -1.9472833e+00
  1.1919467e-02
 -7.5002243e-03
 -4.9171954e-01
 -7.5080872e-01
  2.7363427e-02
  1.2112317e-02
 -3.5740137e-01
 -5.7046998e-01
  2.8983280e-02
  4.2638499e-02
 -5.8971744e-02
  4.4028338e-02
  2.0070134e-02
  1.8375378e-02
 -7.5811878e-02
  2.5975719e-01
  2.4379072e-01
  1.4818317e-01
 -6.9104289e-03
  8.4369048e-02
 -1.4103150e-01
 -2.6598021e-01
  9.6611634e-02
  2.5979394e-01
 -1.2526177e-01
 -4.5192953e-02
 -1.1199634e+00
  2.6182142e-01
  2.5712133e-03
 -2.5669437e-02
  3.7814537e-01
  2.3648735e-02
  8.2387388e-01
  6.6714823e-01
 -8.2557660e-01
  1.0968302e-01
 -2.5402975e-01
  2.1099794e-01
  7.4838929e-02
  7.2152056e-02
  1.1843895e-01
 -1.8338960e-01
  1.2740983e-01
 -1.8901046e-01
 -3.6646643e-01
  1.5207526e-01
 -5.1916772e-01
  1.4893694e-01
  1.8359053e+00
  1.4568402e-01
  2.4648841e-01
 -2.3825850e-02
 -2.1605579e-02
  1.2423111e-01
 -5.7013862e-02
 -1.5131767e-01
  7.4384757e-04
  4.2531359e-01
  3.3119962e-01
 -7.0004798e-02
 -2.9036027e-01
 -1.5767907e-01
 -9.0788238e-02
  3.8226381e-02
 -5.8010244e-01
 -2.9318788e+00
  3.3563299e+00
  3.1350220e-03
  2.8771040e+00
 -7.0831186e-01
 -5.1627032e-02
 -4.3340035e-02
 -6.5293870e+00
 -2.1233947e+00
 -1.4445034e+00
  2.0498340e-01
  5.8644480e-01
 -1.0641260e+00
  6.7996299e-01
 -9.2179137e-01
 -8.3009541e-01
  4.0775537e-01
 -1.7271842e+00
 -3.9923897e+00
  2.2765297e-01
 -2.0288808e-02
 -9.1042131e-02
 -1.2351528e+00
 -2.0441830e+00
 -3.6308441e-01
 -1.3039330e-01
  2.5300598e-01
 -2.8422549e-01
 -6.6990221e-01
  1.3378164e-01
 -2.8685340e-01
 -4.1703332e-02
  6.6548747e-01
  2.3048015e-01
 -5.3639378e-02
  1.4042885e+00
  2.6170673e+00
 -2.9663534e+00
 -6.2503034e-01
  3.0639670e+00
  1.6071502e+00
 -3.3417130e+00
 -2.8546205e+00
  2.4484627e+00
  3.0784905e+00
  3.2970459e+00
  2.5206535e+00
 -3.1624165e+00
  2.6601393e+00
 -3.3852911e+00
  4.0865383e+00
  2.9717002e+00
 -3.0174112e+00
 -2.5255423e+00
 -2.8164151e+00
 -2.7231524e+00
  7.6492858e-01
 -3.0673263e+00
 -3.0698993e+00
  2.5181496e+00
 -3.1742051e+00
  2.6193974e+00
 -2.5209510e+00
  1.9644685e+00
 -2.8517520e+00
 -1.9892640e+00
 -2.6301792e+00
  2.5840995e+00
  1.5173616e+00
 -4.8957410e+00
 -2.8309503e+00
 -2.4993527e+00
  1.5524719e+00
 -3.0853078e+00
  3.0114884e+00
  2.9203005e+00
  3.1085274e+00
 -3.2782726e+00
  3.4393458e+00
 -2.7246969e+00
 -2.9937029e+00
 -2.1859312e+00
  2.6507349e+00
  3.3360348e+00
 -1.8436840e+00
  2.0452137e+00
  3.0378013e+00
  3.0619473e+00
  2.5436780e+00
 -1.9891680e+00
  2.9903374e+00
  3.0997326e+00
 -3.7710166e+00
  3.1745639e+00
 -1.4739885e+00
  9.5224768e-01
  1.1736625e+00
 -3.8433928e+00
  5.4945284e-01
  1.7745318e+00
  1.8831142e+00
 -1.7421304e+00
 -8.5271046e-02
  1.3082066e+00
  7.1122622e-01
  3.8115213e+00
  7.7647072e-01
 -1.9640439e+00
  1.9764241e+00
 -2.4806406e+00
  2.1593599e+00
  1.5396183e+00
 -3.7486837e+00
  1.5544163e-01
 -2.6980784e+00
 -3.7782300e+00
 -3.6449119e-01
 -2.3260014e+00
 -2.3108914e+00
  2.1396425e+00
 -3.2961922e+00
  1.1314242e+00
 -2.9622884e+00
  2.2685404e+00
 -1.7036581e+00
 -3.0471817e-01
 -1.5396575e+00
  5.4788947e-01
  2.8712702e+00
 -4.6334803e-01
 -3.2359421e+00
 -1.5471591e+00
  2.4582741e+00
 -2.3797038e+00
  3.6505525e+00
  2.2901087e+00
  5.8840146e+00
 -4.1319613e+00
  1.2581753e+00
 -9.2811096e-01
 -3.6613731e+00
 -4.1630220e-01
  1.6636212e+00
  4.6803999e+00
 -1.2690706e+00
  2.9613111e+00
  2.3652403e+00
  1.8087374e+00
  3.3422632e+00
 -2.0640917e+00
  1.2555499e+00
  1.5606521e+00
 -1.6027355e+00
  3.7882540e+00
 -3.2113066e+00
 -1.2286536e+02
 -5.3076159e-02
  1.2596970e+00
 -2.0919433e+00
  1.1100709e+00
 -1.8298590e+00
  9.5024103e-01
 -8.6516976e-01
 -1.2776719e+00
 -2.8586391e-01
 -1.1578625e+00
  5.4596657e-01
  3.8467410e-01
  9.3411595e-01
  1.1774138e+00
  4.2977005e-01
 -4.5452136e-01
  1.8643720e+00
  1.5506181e+00
 -2.0760305e+00
 -1.0868843e+00
 -1.1610241e+00
 -5.2905518e-01
 -1.5414158e-01
 -1.2996297e+00
  1.6675342e+00
  1.0896149e+00
 -9.1986835e-02
 -2.3348122e+00
  7.7468002e-01
 -3.6715388e-01
  8.7506700e-01
 -1.1082624e+00
  1.8676835e+00
  9.1627616e-01
  2.2768036e-02
 -7.2270203e-01
 -1.8253492e+00
 -7.2978938e-01
  4.3393368e-01
  1.6891378e+00
 -2.1997266e+00
 -2.6210428e-03
 -1.3549545e+00
  8.6112344e-01
  1.6526785e+00
 -2.5051934e-01
 -3.6043808e+00
 -2.3298123e+00
 -2.3853055e-01
 -9.9085569e-01
  4.6293020e-01
  1.3826761e+00
 -1.3061094e+00
 -1.0416198e-02
  1.2403353e+00
  4.2648252e-02
  1.7791609e-01
  1.7557367e+00
  1.9888172e+00
 -1.8092340e+00
  3.9418992e-01
 -1.0703057e+00
  9.5389551e-01
 -1.4009514e+00
 -1.0509456e+00
 -2.4514377e+00
  1.4184014e-01
  2.9626313e-01
  1.7094824e-01
 -3.0163273e-01
 -6.8730825e-01
  7.1253312e-01
 -2.2377449e-01
  2.9616407e-01
 -2.6989707e-01
 -1.2801782e+00
  1.7484757e+00
  6.5363503e-01
  7.3398626e-01
 -2.4171460e+00
 -1.3022778e+00
 -5.2428088e+00
 -4.3917602e-01
 -3.2009392e+00
 -1.8716425e+00
 -3.5575639e-02
 -2.3601766e+00
 -7.5349331e-01
  1.2782609e+00
  1.0818522e+00
 -1.3510863e+00
 -4.7654131e-01
  3.5595694e-01
  1.8413218e+00
  8.2927322e-01
  1.5167389e+00
 -1.5220295e-01
 -7.6697385e-01
  5.9057617e-01
 -3.7965953e-01
 -1.4381678e+00
 -1.5201483e+00
 -9.0670097e-01
 -6.0715474e-02
 -5.9734747e-02
 -1.0972880e+00
 -4.7090095e-01
  6.5998316e-02
 -1.1371905e+00
  3.1064337e-01
  1.1391937e-01
 -1.0702006e+00
 -1.1296539e+00
 -4.9014455e-01
  2.7105739e+00
  2.1589019e+00
  4.7470540e-01
 -1.6399430e+00
 -2.0347543e+00
 -2.1827869e+00
 -7.9290241e-01
 -1.6184806e+00
  4.5363548e-01
  8.3465993e-01
 -2.5434926e-01
 -5.5559162e-02
  3.3297224e+00
  8.6092228e-01
  1.6701111e+00
  1.9588690e+00
 -6.8244380e-01
 -9.3673116e-01
 -1.0662985e+00
 -6.1138779e-01
 -1.5612055e+00
 -2.4211344e-01
  1.7048134e-01
 -9.9161112e-01
 -1.2799354e+00
  1.0037071e+00
 -1.2045579e+00
 -1.8533244e+00
  7.1676940e-01
  7.1193671e-01
  1.9081210e-01
 -5.8515525e-01
  6.0332811e-01
  1.5492131e+00
 -2.4461489e+00
  1.0453882e+00
  2.0030439e-01
  3.1551629e-02
  5.3663522e-01
  3.6579628e+00
  1.3005105e+00
 -2.1997433e+00
  4.6874166e-01
  6.9022667e-01
  4.1318876e-01
  1.8828677e+00
  3.4344387e+00
  2.5064034e+00
 -7.5633444e-02
  1.8337859e-01
  4.2795986e-01
 -2.4726455e+00
  3.8290013e-02
  1.8338923e+00
 -5.7627344e-01
 -7.6211697e-01
  7.4402612e-01
 -2.1828827e-01
 -4.6416935e-01
 -5.3625208e-01
  9.2719954e-01
  2.2607815e+00
 -1.0974913e+00
  2.7219808e-01
  9.3132079e-01
  2.5382423e-01
  3.5067528e-01
 -1.6069305e+00
 -1.8808421e+00
  3.5697681e-01
 -2.6313710e+00
 -1.2136797e+00
 -8.3479440e-01
 -4.3431327e-01
  7.6474673e-01
 -6.3597578e-01
 -8.9083940e-01
  5.3846318e-01
 -1.8347181e+00
 -1.9540551e+00
 -2.4687847e-01
 -6.0082066e-01
  1.0086198e+00
  6.6878569e-01
  1.5978632e+00
  2.5710645e-01
 -9.0581822e-01
  5.8827454e-01
 -3.3796068e-02
  1.8749568e+00
 -3.0121291e-02
  1.5686986e+00
  1.2932119e+00
 -7.0260745e-01
  1.9877279e-01
  1.7498589e+00
  1.6908450e+00
 -2.4470613e+00
  8.5259932e-01
  8.6661696e-01
  1.7387747e+00
 -1.0083572e+00
 -1.0991807e+00
 -8.4509766e-01
 -2.4751121e-01
  4.3946546e-01
 -4.2064495e+00
 -6.8969899e-01
  1.1599901e+00
 -7.5723189e-01
  3.0968106e+00
  2.0296879e-01
  2.3571293e+00
  1.2120966e-01
  2.6175657e-01
 -3.9100805e-01
 -1.9337618e+00
  1.4439684e+00
  1.2065979e+00
  3.4678743e+00
 -2.2706983e+00
 -8.0213898e-01
 -1.8329350e+00
 -1.2462001e-01
 -1.1041695e-01
  6.1158519e-02
  1.5449511e-01
  4.5369965e-01
  2.5131805e+00
 -4.5543486e-01
  1.5749617e+00
  9.3180859e-01
  8.2908022e-01
 -5.6497258e-01
  4.9925953e-01
  3.0272827e-01
  5.0645709e-01
  1.8111299e-01
 -2.5579083e-01
  5.1455796e-01
 -2.6833497e-02
  1.4504153e-01
  2.0828916e-01
 -4.3789190e-01
 -1.5902405e+00
  1.0966074e+00
 -1.0354534e+00
 -1.1273811e+00
  1.1022221e+00
  8.8771951e-01
  8.9022815e-01
  7.2213203e-01
  8.2785767e-01
 -7.5684744e-01
 -2.3676884e-01
 -6.7661119e-01
  2.6734945e-01
 -1.9742501e-01
 -1.0681883e-01
 -1.5068862e-01
 -7.0807731e-01
  1.5900190e-01
  7.9563588e-01
  4.3041959e-01
 -1.4432013e+00
 -9.1049176e-01
  7.9056546e-02
 -2.7261862e-01
 -8.1280518e-01
 -9.4071394e-01
  8.5961968e-02
  9.9691741e-02
 -1.3240395e-01
 -5.1126677e-01
  7.4144548e-01
 -3.1698361e-01
 -2.5598678e-01
 -7.6176953e-01
  8.6278099e-01
 -2.5129075e+00
 -1.9830275e+00
 -4.0161607e-01
 -1.3356674e-01
 -3.9445746e-01
  1.7534109e+00
  2.4076462e+00
  7.5327599e-01
 -1.8707396e-01
 -7.8650707e-01
  4.8816884e-01
 -2.1389470e-01
 -1.1986260e+00
 -1.3153894e+00
  2.2595675e-01
  7.0644480e-01
  5.9917909e-01
  9.0219265e-01
 -6.6574568e-01
 -1.9469037e+00
  2.8844193e-01
  3.8143614e-01
 -1.1963160e+00
 -1.4770801e+00
  9.7126168e-01
 -6.5111917e-01
 -4.9214232e-01
 -5.7313806e-01
  3.2350916e-01
 -5.6149465e-01
  1.5840907e-01
 -7.8035772e-01
  7.8810352e-01
  1.1662865e+00
 -2.3689339e-01
  7.7081209e-01
  1.2325829e+00
 -1.4256881e+00
  9.2276925e-01
  2.1322920e+00
  9.1919708e-01
  8.0448359e-01
  6.7868686e-01
 -1.8025890e-01
 -2.7449033e-01
 -2.1768439e-01
 -7.0794207e-01
 -1.3038126e+00
  2.0998201e-01
  7.9080886e-01
  1.2692465e+00
  2.6083341e-01
  2.7479244e-02
 -1.0420514e+00
 -2.9236537e-01
 -9.3562230e-02
 -1.7696524e+00
 -1.4036255e+00
 -6.1893106e-01
 -5.8137149e-01
 -1.6883658e+00
 -8.7195599e-01
 -4.7201082e-01
 -5.1646614e-01
 -4.9705684e-01
 -1.5555276e-02
  1.4394704e-01
  2.9616835e-02
  2.9616835e-02
  2.9616835e-02
  2.9616835e-02
  2.9616835e-02
  2.0425856e-01
  2.0425856e-01
  2.0425856e-01
  2.0425856e-01
  2.0425856e-01
  1.6406114e-01
  1.6406114e-01
  1.6406114e-01
  1.6406114e-01
  1.6406114e-01
  5.0968606e-02
  5.0968606e-02
  5.0968606e-02
  5.0968606e-02
  5.0968606e-02
  2.4840077e-02
  2.4840077e-02
  2.4840077e-02
  2.4840077e-02
  2.4840077e-02
  1.8215278e-01
  1.8215278e-01
  1.8215278e-01
  1.8215278e-01
  1.8215278e-01
  8.9403339e-02
  8.9403339e-02
  8.9403339e-02
  8.9403339e-02
  8.9403339e-02
