nep4_zbl 2 Ga In 
zbl 1.25 2.5 0.7
cutoff 6 5 68 39
n_max 4 4
basis_size 8 8
l_max 4 2 1
ANN 60 0
 -4.8940825e-01
 -1.4123981e-01
  1.1168753e-02
 -2.4383685e-01
  1.7897211e+00
 -4.5055449e-01
  5.8997780e-02
 -4.1503016e-02
 -1.3993090e-02
 -3.8265350e-01
  4.1963723e-02
 -5.2399982e-02
 -2.7631996e-02
 -6.7097978e-03
 -5.4872230e-02
  3.0349853e-02
  4.9165022e-02
  2.6735196e-01
  1.3599655e-01
 -5.0193049e-02
  7.4620150e-02
  1.6854413e-01
 -1.8960384e-03
 -3.5041174e-01
 -7.2713763e-02
  8.9620963e-02
  3.7826598e-01
  3.2855797e-01
 -1.3054730e-01
  1.3730811e-01
 -7.7430286e-02
  1.1402446e-01
 -2.3517740e-01
  1.7651483e-01
 -3.3833306e-02
 -2.4063315e+00
 -1.6436811e-01
 -1.2384083e+00
  1.2948918e+00
 -1.7497681e+00
  4.1307995e-01
 -8.0980081e-03
  1.8058641e-01
 -1.8877251e-01
  1.4903942e-01
  5.9791833e-02
  4.2622936e-01
 -5.9797779e-02
 -1.2451956e-01
 -1.2253764e-01
 -9.0483442e-02
 -8.2223520e-02
 -5.2931745e-02
  2.3386975e-01
  1.1752931e-01
  5.5126902e-02
  5.2856516e-02
  1.4875524e-01
  2.3814757e-01
  6.7056157e-02
  3.5246298e-01
 -8.4058538e-02
 -1.4764782e+00
  5.4199945e-02
 -7.0375562e-02
  8.2254626e-02
 -5.6720871e-02
 -9.4212972e-02
 -9.2193922e-03
  8.1836015e-02
 -3.2221405e-03
  9.6151352e-02
 -6.9982298e-03
 -5.8068037e-01
  1.5629394e+00
 -3.0211863e-01
 -5.6922384e-02
 -9.7600512e-02
 -1.4707273e-01
 -1.7993453e-01
  1.0559564e-01
 -1.4175492e-02
 -4.1504294e-02
 -1.9238053e-01
 -7.9519883e-02
  4.2821858e-02
  7.6964609e-02
  6.9133386e-02
 -6.5668073e-04
 -6.9752671e-02
  7.3324494e-02
 -7.4910298e-03
 -1.2849985e-01
 -1.1219146e-01
 -9.2209160e-02
  1.1634446e-02
  1.9522190e-01
  9.3156554e-02
  1.1803131e-01
  1.1682985e-02
  3.3503059e-02
 -1.3082029e-01
 -2.8510818e-01
  2.8850706e-02
 -2.6082687e-02
 -8.7576546e-03
  2.1752754e-02
  1.4457142e-01
  8.2195699e-01
 -1.5538439e+00
 -2.2358781e-01
  4.1902568e-02
 -2.2198203e+00
 -1.6638476e-01
  2.8403731e-02
 -7.7318691e-02
  6.0279539e-04
  7.3989253e-03
 -1.7217653e-02
  3.8026562e-01
 -2.7036482e-01
  8.7150350e-02
  2.9952529e-01
  3.3282977e-02
 -1.9458072e-01
 -1.0522249e-01
  1.1496197e-01
 -9.5015161e-02
 -1.3362573e-01
  8.7801680e-02
  1.3451755e-01
  2.4535348e-01
 -4.3726522e-02
  9.5662065e-02
 -1.1664183e-01
  1.0415130e-01
  1.1584724e-02
  7.5294666e-02
  5.1826145e-02
 -4.5546822e-02
 -2.2605219e-01
  4.3897312e-02
 -1.4226829e-01
  9.6451646e-01
 -1.3844482e+00
 -3.7490610e-02
  6.2965460e-02
  7.4290864e-02
  1.6234724e-01
  3.7956171e-02
 -2.5809690e-02
  1.0766403e-01
 -9.3810908e-02
 -2.5802130e-02
 -6.6948467e-01
  5.1380927e-03
 -4.4988841e-01
 -4.4523348e-04
  1.2602407e-02
 -4.6081398e-02
  6.2273331e-02
 -2.7060980e-01
  8.5702362e-03
  9.2295818e-02
 -5.7560463e-02
 -1.9278830e-01
  1.7346399e-01
 -3.3537716e-02
 -2.9264262e-02
  5.7591423e-02
 -8.7692738e-02
 -2.3470422e-02
  5.4578036e-01
 -2.0554458e-01
 -4.5421138e-01
 -8.6343259e-01
  7.1016245e-02
 -9.1089152e-02
 -2.0951837e-01
  1.8948729e+00
  3.8000867e-01
 -1.4782591e-02
  8.1019737e-02
 -1.5078944e-01
 -2.3383214e-01
 -1.6426556e-03
  1.8963416e-01
 -1.9744303e-02
 -1.1106290e-01
  4.0579721e-02
 -7.3384643e-02
  4.0952917e-03
  1.3628691e-01
 -6.9384865e-02
  1.8800627e-01
  1.0586386e-02
 -3.2591933e-01
  2.6746670e-02
  3.3436988e-02
 -9.4711490e-02
  4.4330161e-02
  2.2744907e-01
  7.4244872e-02
 -1.6482820e-01
 -1.1888343e-02
 -1.3135995e-01
 -1.1483807e-01
 -8.0974154e-02
 -7.1013935e-02
 -2.5126824e-01
  4.8066705e-02
  6.9618024e-02
  1.2466835e-02
 -7.2759026e-01
  1.4973419e+00
 -1.2758614e-02
 -7.0115410e-02
 -4.2956360e-02
  5.2906297e-02
 -1.3998401e+00
  2.2061467e-01
  6.4694099e-02
  2.3339055e-01
 -7.3424391e-02
 -8.7156310e-04
 -4.0661335e-02
 -1.2313428e-01
  8.5775349e-03
  2.6296753e-02
  8.1689030e-02
  2.4708295e-02
 -4.5821062e-01
  2.3610319e-01
  2.5448605e-02
 -2.8720420e-02
  1.2262345e-01
 -1.8365672e-01
 -1.6672965e-02
 -6.4485267e-02
  5.2382186e-02
  3.0837296e-02
 -7.4285664e-02
 -5.1569246e-02
 -3.9677545e-02
 -2.2849575e-02
  1.6932839e+00
  4.1890547e-02
  7.6236939e-01
 -1.1075212e+00
 -1.4800292e+00
  7.6399672e-01
 -6.7671466e-01
 -1.2916003e+00
  5.1888031e-01
  6.6005401e-02
 -1.1575090e+00
  2.8399730e-01
  4.1103232e-01
 -3.5159922e-01
  1.9283962e+00
  3.2670122e-01
 -1.7261447e+00
 -8.9972001e-01
  5.9658176e-01
  4.3284373e+00
  1.3864906e+00
 -4.8889428e-01
 -2.9212033e-02
  1.6071807e-01
 -1.1604670e+00
  5.4741764e-01
 -1.3903374e-02
  1.3909653e-01
 -8.0066606e-02
  1.5034746e-01
 -7.6122388e-02
 -2.2386095e-02
  9.4014250e-02
  8.4400928e-01
 -1.3611333e-01
  1.9943912e-01
  1.0117698e-01
 -5.5617489e-02
  5.4445577e-01
 -1.6423138e+00
  1.3457739e-02
  3.9808657e-02
 -8.1817180e-02
  2.0165172e-01
  2.1427745e-02
  7.4136458e-02
  1.5009741e-02
  5.5267704e-03
  3.8511191e-02
  2.2544403e-02
 -1.4720169e-01
  1.5436780e-01
 -1.7759388e-02
 -1.3790384e-02
  1.1461292e-01
 -2.8306980e-02
 -5.5289990e-03
 -5.4559138e-02
 -2.4653378e-01
 -3.3061591e-01
  2.1493836e-01
  3.2986589e-02
  3.8642412e-01
 -5.7616748e-02
  2.4236355e-02
 -5.8792964e-02
 -3.4051917e-03
  9.9310316e-02
  3.2875925e-01
  8.1876628e-03
 -2.6178244e-01
  2.5961021e-01
  4.1948146e-01
 -2.5936976e-01
  1.6807420e+00
  2.2385672e-02
  1.5689462e-01
 -2.1319391e-02
 -5.6080703e-02
 -7.1305454e-01
 -5.6808025e-02
  1.7889015e-01
 -1.0366897e-01
  1.0963431e-02
  2.3473307e-01
  7.3718518e-02
  1.9677484e-01
  4.4069785e-01
 -1.6013595e-01
 -3.2366717e-01
 -9.9064996e-03
  3.8860057e-02
 -3.5922158e-01
  8.4213234e-02
 -1.8871000e-01
  3.2038108e-02
 -9.4598621e-02
  4.2199242e-01
 -1.7061922e-01
  6.6032968e-02
 -4.6372768e-02
 -1.3331844e+00
  2.4410132e-01
  7.1213342e-02
 -1.6550298e-01
 -1.1929818e-01
  3.1754577e-01
  6.1955381e-02
 -4.8524889e-01
  1.1324241e+00
 -1.5383536e-01
 -4.0830810e-02
 -1.4760251e-01
  4.0255688e-02
  5.8745433e-02
 -1.7099885e-02
 -5.4715564e-03
 -1.8436831e-01
  4.5343488e-02
 -1.1285844e-01
  1.3445775e-02
 -1.8924153e-01
  2.8011601e-03
 -7.4604884e-02
 -5.9237432e-02
 -6.6767387e-02
 -1.3443108e-01
  2.9412825e-02
  1.3610503e-01
 -1.8739609e-01
  1.1099759e-01
  6.9813423e-02
  6.4376751e-03
 -5.7320248e-02
  1.0610915e-02
 -1.2753017e-01
  3.9345581e-02
  3.8502954e-02
  1.3923876e-01
  5.3115290e-02
 -5.6893270e-02
  3.6945358e-02
 -7.5130969e-02
  3.3898100e-01
 -2.3792243e+00
  2.0985480e-02
  2.4863394e-01
 -5.7827074e-02
  1.3181262e-01
 -7.3349485e-03
  1.2613089e-01
 -1.5731581e-01
 -1.3372116e-01
 -9.2161074e-02
  3.2101861e-01
 -3.3114806e-02
  1.2503922e-03
  2.2249596e-02
 -3.3933908e-02
  5.6290541e-02
 -2.4734558e-01
 -3.6752983e-03
  2.3172592e-01
 -3.5490964e-02
  1.5182683e-01
  2.0501094e-01
 -1.5845054e-01
  2.5910532e-02
 -1.3206816e-01
 -6.8767831e-02
  7.3952809e-02
 -4.0772323e-02
  1.7068338e-01
 -2.0262886e-02
  1.2878817e-01
  2.1132886e+00
 -3.4696665e-01
  1.4399898e+00
  1.2936424e+00
  1.5716307e-01
 -2.5123110e-01
 -1.7521251e+00
 -1.8722006e+00
 -1.2145779e-01
 -1.4469680e+00
  5.3046476e-02
  1.3628615e+00
 -7.4609801e-02
 -1.2623416e-01
  1.4948039e+00
  4.5914810e-02
  5.2538979e-01
  3.4376645e-01
 -1.3400960e-01
  5.4679531e-01
  4.3112706e-04
 -8.5122371e-03
 -8.8244438e-02
 -3.1431282e-01
  4.7670063e-02
  6.0609706e-02
  1.3967468e-01
 -7.3559947e-02
  3.6885813e-02
  8.3125107e-02
 -1.0835498e-03
  1.9113518e-01
  2.6205184e-03
 -1.7163114e-01
  8.7613077e-04
 -1.8868422e-02
  1.2580347e-01
  9.7185016e-02
 -3.3399144e-01
  1.5942924e+00
 -5.5549588e-02
 -1.2629851e-02
 -1.7235199e-02
  1.3695218e-02
 -5.8280434e-02
  2.8859395e-01
 -9.2155538e-02
  7.9481363e-02
  1.6519974e-01
 -1.4776798e-01
  1.6959075e-02
  1.5662339e-01
 -1.4498334e-01
  1.9395499e-01
  2.0308364e-02
  9.1013834e-02
 -9.5556751e-02
  9.0858288e-02
  9.9663630e-02
  5.3874388e-02
 -7.9104498e-02
  5.5690270e-02
 -7.7786436e-03
  7.1565114e-02
  2.0310088e-01
 -1.4790535e-01
  1.5071043e-01
  4.2682186e-02
 -2.2502235e-01
 -4.4681810e-02
 -9.8390229e-02
 -1.2466848e-01
 -6.1730601e-02
  4.2496157e-01
 -1.6173801e+00
 -2.2961341e-01
 -3.5605289e-02
 -2.3056844e-01
  9.5488630e-02
 -1.4789751e-01
 -1.7608145e-01
  2.6375630e-03
 -2.5089161e-02
  4.3287218e-02
  6.4574927e-02
  8.5865945e-02
  3.8669637e-01
  1.0659084e-02
  8.9572027e-02
  2.8152546e-01
 -7.6156169e-02
  9.6865475e-02
  1.1017928e-01
 -5.0249096e-02
  1.8426736e-01
 -4.1289099e-02
 -3.1982991e-01
  2.5199535e-01
 -1.1179981e-01
 -1.1160593e-01
  1.5245895e-01
 -1.6616756e-02
 -1.5852909e-01
 -6.9399029e-02
  1.7880070e-01
  2.8743595e-01
 -1.5463758e-01
 -2.7189774e-02
  7.3169696e-01
 -1.6764497e+00
 -1.6900168e-01
 -4.6413522e-02
 -1.7918001e-01
  1.1466078e-01
 -7.1067698e-02
 -1.0210323e-01
  6.6484198e-02
  2.8877424e-02
  1.3749735e-01
  7.6083891e-02
  2.4521148e-01
  1.4272390e-01
  9.4484337e-02
  2.3143867e-02
  6.9927633e-02
  1.3644356e-01
  9.9642143e-02
 -6.9393218e-02
  2.6232492e-02
 -1.3533272e-01
  5.0854657e-02
 -9.8071486e-02
 -1.1417035e-01
  1.4819108e-01
 -1.4240721e-01
  5.5744909e-02
  4.1063301e-02
  2.7484134e-02
  4.4395689e-02
  2.1341486e-02
  2.0172971e-01
 -1.8681626e-01
  2.6305771e-02
  1.4354798e-01
 -2.1357265e+00
 -1.6601374e-02
  1.8823808e-01
  1.6510797e-01
 -2.7560940e-01
 -1.1975458e-02
 -2.9553115e-02
  6.7503020e-02
 -3.2267675e-02
 -1.5219601e-02
  2.4442063e-01
  3.8928831e-01
 -6.0375467e-02
  3.1138495e-02
 -4.1686377e-04
 -9.2787191e-02
 -1.0743501e-01
  2.4026593e-02
  1.0587946e-01
 -1.1724977e-02
 -1.5660921e-01
 -5.6317955e-02
  1.4545923e-01
 -7.1983971e-04
  8.5923135e-02
 -2.0955153e-01
  6.6319026e-02
 -1.0952368e-01
  8.8103779e-02
 -3.9422857e-03
  6.7841429e-03
 -4.1941449e-01
 -9.1218278e-02
 -2.4791886e-03
 -4.9988579e-02
  1.3935556e+00
  8.2522314e-03
  2.6174948e-01
  3.8524687e-02
 -4.4095490e-02
 -1.4344366e-01
 -1.9395742e-01
 -1.4926916e-01
  1.1096341e-01
  7.3024780e-02
  1.2587751e-01
 -8.1355289e-02
 -1.2002598e-01
 -5.4163657e-02
  3.5374362e-03
  2.6250796e-02
 -2.2401521e-02
 -6.2540166e-02
 -2.1996319e-02
  6.3887879e-02
 -2.9001106e-02
 -4.6167117e-02
 -5.5763923e-02
 -8.9061432e-02
 -1.8190945e-02
  1.3405908e-02
 -1.4553787e-01
  8.2452953e-02
  3.8275667e-03
 -1.6868358e-02
 -1.2369952e-01
  2.0077901e+00
 -1.0776066e+00
  1.7720418e+00
  2.8125925e+00
  1.3141564e+00
  4.6275142e-01
  6.1006969e-01
 -1.2030333e-01
  3.4196222e+00
 -3.0256135e+00
 -7.7588415e-01
  1.3941075e+00
 -2.3904817e-01
  2.5740865e-01
  5.5505520e-01
  3.9822204e+00
  4.5654699e-02
 -1.8410805e+00
 -9.3483254e-02
  1.1095486e+00
 -4.1886133e-01
 -2.9257435e-01
  2.2711375e+00
  1.1488522e+00
 -1.0788237e+00
  4.9159479e-01
  1.2523144e-01
  2.6486689e-01
 -1.2910303e-01
  8.6139575e-02
 -1.8919338e-01
  5.3171949e-03
  3.2983685e-01
  5.4503512e-02
  4.9695328e-02
 -3.3681719e-03
  2.3032267e-01
  4.1648825e-03
 -9.2515951e-01
  1.4920727e+00
  6.1818764e-02
  1.1347183e-01
  5.5895139e-02
  1.2542810e-01
 -1.9091859e-02
 -9.8365324e-04
 -3.4470897e-02
 -4.9792463e-01
  1.0338728e-02
  8.7180082e-03
 -1.6967320e-01
 -2.5923578e-02
  9.7678475e-02
  1.9705400e-01
 -4.0057242e-02
 -1.7950737e-01
  7.7174738e-02
  2.7033713e-02
  2.2313508e-01
  4.7454637e-02
 -3.0664030e-01
 -9.1954291e-02
  6.4088933e-02
  2.0308569e-01
 -3.4312728e-01
  1.0580797e-01
  1.9962591e-01
 -1.3655953e-01
 -8.2166523e-02
  1.4012591e-02
  2.1276912e-01
 -3.4603108e-02
 -1.0881303e-01
  8.5032529e-01
 -2.1219349e+00
 -2.6232862e-01
 -1.6306962e-01
 -5.9804157e-03
  5.8217164e-02
  3.3899918e-01
 -5.5946424e-03
  7.7778116e-02
  9.7197928e-02
  4.0962008e-01
  2.2931737e-01
  8.7202199e-02
  5.7415092e-01
  6.4895413e-04
 -1.0578605e-02
 -2.3833683e-01
  8.9048356e-02
  1.7645497e-02
 -1.1477619e-01
  2.9073974e-02
  2.0195319e-01
  3.5300363e-02
  4.1751593e-02
  4.4273192e-01
  1.3854478e-02
  2.3553107e-02
 -2.1859293e-01
  2.7004451e-01
 -1.6675396e-01
 -3.3565696e-02
 -1.0309394e-01
 -6.6179931e-02
 -1.4049922e-01
 -5.3496521e-02
  2.5262266e-01
 -1.7853987e+00
 -3.6787350e-02
  1.3142265e-01
  1.4030658e-01
  4.1385135e-03
  9.3874007e-02
  4.2670414e-02
 -1.3352546e-01
 -4.0475961e-02
 -9.9316202e-03
  1.6642153e-01
  1.4392623e-01
 -4.8813168e-03
  4.9735769e-03
 -6.4008459e-02
 -2.9695216e-01
  4.8611555e-02
  9.4891675e-02
  1.3363163e-01
 -7.4217848e-02
 -1.9244891e-01
  5.1113602e-02
 -8.9967046e-03
 -8.2271419e-02
  5.8459878e-01
  7.8263462e-02
 -2.2065492e-02
 -5.6934785e-02
  6.0440564e-01
 -5.2816302e-02
 -1.9645488e-02
  1.6150644e-02
  2.2533724e-02
 -1.5276805e-01
  4.6810564e-01
 -2.0085976e+00
 -1.5303645e-01
  7.1793990e-03
 -1.0907009e-01
 -3.6296885e-02
  7.5868040e-02
  1.2698832e-01
  1.4134750e-01
  1.1785447e-01
 -7.0894532e-02
  2.5259228e-02
  1.0509602e-01
 -5.9160864e-01
  7.2678976e-02
 -8.5696198e-02
 -5.7116128e-03
  3.7570176e-01
  4.5907892e-02
 -8.5295960e-02
 -2.4680112e-02
 -6.0766481e-02
 -1.6512081e-01
 -5.3714138e-02
  7.4592747e-02
  6.0886189e-02
  5.2431822e-02
  2.2794898e-01
 -2.0027021e-03
  8.0638254e-01
  4.2932935e-02
  1.9932140e-02
  2.8339459e-02
 -1.5311532e-01
 -1.9540547e-01
  4.9749452e-01
 -1.6422809e+00
  6.0620241e-02
  4.2633373e-02
 -7.1987599e-02
  2.0033172e-01
 -1.5141377e-02
  1.0938766e-01
  2.1880564e-01
  1.2201986e-02
 -1.0991021e-01
 -1.7565829e-01
 -6.8077840e-02
  1.1540981e-01
  1.6859205e-01
 -6.5435939e-02
 -2.3310479e-02
 -1.1292909e-01
  1.9076638e-01
 -1.1127635e-01
  1.0063917e-01
 -6.6753738e-02
 -1.7385307e-01
  1.4272381e-01
  1.0015064e+00
 -7.3689155e-02
  2.2891508e-01
 -3.2899775e-02
 -3.0036786e-01
  7.9156300e-03
 -1.9645995e-02
  6.1079240e-03
  3.0066001e+00
 -1.2687914e+00
  1.5623316e-01
  3.7823510e-01
  2.2847259e+00
 -2.6557866e-01
 -1.3134339e+00
 -1.8339781e-01
 -9.7823137e-01
 -2.3411877e-01
 -6.9615936e-01
 -4.3296799e-02
 -4.2908779e-01
 -2.3092766e-01
 -2.0013508e-01
 -4.3794492e-01
 -1.1556420e-01
 -2.7201286e-01
 -1.4463776e-01
  4.4635296e-02
  7.3226070e-01
 -4.5153651e-01
  4.2876061e-02
  4.4489717e-01
 -1.2026200e-01
  2.0052984e-01
 -1.3256776e-01
 -4.6028920e-02
 -1.4499485e-04
  1.5915760e-01
 -6.8929516e-02
 -1.0520492e-01
  2.1055469e-01
 -4.4007994e-02
  1.9549238e-02
  4.1905865e-02
  2.6242580e-02
  6.0706880e-02
 -3.1200126e-01
  1.5517805e+00
  4.1048881e-02
  1.5092752e-02
 -1.5755773e-01
  6.2762386e-01
  8.8592127e-02
 -5.5924769e-02
  2.5702563e-01
  1.0003612e-02
  1.7758684e-01
 -3.9692873e-01
  7.7132825e-03
  1.5630826e-01
  7.3456474e-02
  6.4391178e-01
 -1.1187812e-01
 -7.0830293e-02
  1.7510789e-02
  1.8076725e-01
 -1.7490834e-01
 -4.4843443e-02
 -4.9603604e-02
 -7.6061673e-02
 -3.2324952e-01
 -1.3695303e-01
 -7.3983692e-02
 -3.2316200e-02
 -3.1430027e-01
 -5.2645575e-02
 -9.9918604e-02
  2.9750317e-02
  1.7196138e+00
 -7.3867512e-01
  1.3400117e+00
 -7.0813704e-01
 -4.7557098e-01
 -1.8546274e-01
  6.8796434e-02
 -2.2034814e+00
 -2.1236303e-01
 -2.3815277e+00
 -1.1174704e+00
  2.0290104e-01
 -4.8162162e-01
 -3.5728788e-01
 -2.1583764e-01
 -7.0360768e-01
 -1.4732656e-01
 -9.3172479e-01
 -3.6523226e-01
 -2.4888780e+00
 -6.8323952e-01
 -1.4696139e-01
  5.0506902e-01
 -4.8647299e-02
 -1.6146711e+00
  1.8781145e-01
  2.2001626e-01
 -3.1109750e-02
 -9.1240242e-02
  2.8977668e-01
 -1.3899943e-01
 -1.4002964e-01
 -3.0540061e-01
  1.3119644e-01
 -5.8239138e-01
  1.8909846e-02
 -2.0987341e-01
 -5.2940160e-01
  1.3256614e+00
 -1.2164160e+00
  1.8969144e-01
  7.2813934e-01
  6.4564213e-02
 -1.6546620e-01
  7.0547931e-02
  3.0425804e-02
 -1.0239961e-01
 -8.1272416e-02
  2.4496333e-01
  1.4617316e-01
 -2.7358644e-02
 -4.0787484e-02
  7.3450252e-02
  6.2078044e-02
 -3.7997563e-03
 -1.4142117e-02
 -4.0492061e-01
  1.8159707e-01
 -1.8557946e-01
 -2.1046680e-01
  5.3743530e-02
 -2.2345370e-01
 -3.1518176e-02
 -1.8264578e-01
  4.1722585e-02
 -6.7157596e-03
  5.8882132e-02
  2.8581783e-01
  2.7861863e-01
  5.2117653e-02
  1.3411731e-02
 -3.9142463e-01
  1.4763753e-01
  3.4307730e-01
 -1.7540516e+00
  3.0493370e-01
  2.0295128e-01
 -7.5544633e-02
 -8.9864098e-02
  1.3160118e-01
 -2.8863302e-02
 -4.5114804e-02
 -1.0372435e-01
 -2.5412965e-01
 -2.5319682e-02
  5.3698026e-02
 -8.7445853e-03
  2.4619853e-02
 -9.7774211e-03
 -1.1526921e-01
  1.2404994e-02
  3.2746881e-02
  2.0163590e-01
  1.4481536e-01
 -5.2082823e-03
 -5.7412997e-02
 -1.4784114e-01
  8.2648680e-02
 -2.7500767e-01
  2.4285281e-01
 -1.2274156e-01
 -1.0042826e-02
  2.4304043e-01
 -2.5529104e-01
  1.4104322e-01
 -4.1716486e-02
  3.0472526e-02
 -3.4213579e-01
 -1.3460919e-01
 -2.0915401e+00
  3.6834586e-02
  8.4895551e-02
  6.2699127e-01
  1.9517101e-01
  1.5039206e-02
 -1.1720215e+00
  1.4762563e-01
  5.4457333e-02
 -5.1359357e-03
 -1.9397860e-02
 -6.7203599e-03
 -8.0891877e-02
 -2.6532570e-02
  2.6277834e-01
  4.9285370e-01
 -9.1933593e-02
  1.0687391e-01
  8.5005932e-02
  6.9087655e-03
 -3.3542443e-02
 -1.4074497e-01
  1.3526610e-01
  3.2594722e-02
  4.1954497e-01
 -3.0565229e-03
 -4.3122508e-02
 -1.1025566e-01
 -8.7258779e-03
 -1.0475588e-01
  1.0213853e-01
 -1.2079907e-02
 -4.2604592e-02
 -2.7254183e-02
  6.3279361e-01
 -2.0960958e+00
  5.1405586e-02
  4.0120050e-02
 -1.4439361e-01
 -2.5036689e-02
  2.6998835e-02
 -2.4513483e-02
 -7.4057758e-02
  1.3888006e-01
  2.5347885e-01
  3.6020651e-02
 -2.6883706e-04
  2.3136778e-01
  1.2467073e-01
  8.7353967e-02
  1.1402508e-01
  3.5149875e-01
 -3.0839745e-02
  2.6307029e-01
  2.8374359e-02
 -1.4351390e-01
  1.0023780e-01
 -8.7318256e-02
 -1.9942225e-05
  1.0370304e-01
 -1.6787123e-02
  9.1250487e-02
 -1.5100509e-01
 -2.7490415e-02
  2.8823817e-01
  1.0822923e-01
 -3.1100056e-01
  8.9378811e-02
 -5.8581792e-03
 -4.3282640e-01
  1.8775460e+00
 -1.6349532e-01
 -8.1202924e-02
  7.9652995e-02
  1.6588563e-02
 -5.6936726e-02
  2.8467684e-03
 -3.6778800e-02
 -2.9825328e-02
  2.5776693e-01
 -3.3930526e-03
  7.3130883e-02
  6.8974882e-02
 -7.7199345e-03
  1.0491200e-01
 -1.1504310e-01
  1.7911609e-02
 -2.2187820e-01
 -1.7558894e-01
  2.3329459e-01
  1.1811209e-01
 -1.9051779e-02
  4.0158141e-01
  3.7204467e-02
 -8.9895420e-02
  1.2691309e-01
 -3.3349991e-02
 -2.8341252e-02
  3.2937530e-01
 -3.3131119e-02
 -3.5606968e-01
  2.3698302e-02
  6.5567613e-02
  1.8491304e-02
 -7.1576995e-01
  1.7377336e+00
 -9.6638827e-03
  1.0937349e-02
 -2.5281814e-01
  4.7981523e-02
 -1.4248806e-01
 -6.3392371e-02
  4.2573482e-02
  1.6579737e-01
  9.0233192e-02
  1.0355980e-02
 -1.0181133e-01
 -3.2507027e-03
  1.1399317e-02
 -1.6443796e-01
 -8.6862391e-01
  2.7132845e-01
  2.5169453e-01
 -2.0550435e-02
 -3.0531984e-02
  1.3741536e-01
  1.9479708e-01
 -2.7149808e-02
 -2.4437723e-01
 -7.2196215e-02
 -5.3029495e-01
 -3.0106282e-02
 -7.7071674e-02
 -4.1984476e-02
  1.5850784e-01
  5.9480681e-03
 -6.0201101e-02
  1.8772542e-01
  1.1320733e-02
 -1.1525481e+00
  1.2111962e+00
 -1.0838003e-01
 -1.7131534e-01
 -8.7329760e-02
  9.4021879e-02
  8.7299310e-02
 -1.2479910e-01
 -1.5676650e-01
  5.9661023e-02
 -1.3729447e-01
  2.0167238e-01
 -1.6822083e-02
  3.4338424e-01
 -3.7169527e-02
  7.4322573e-03
  2.2908014e-01
 -1.0346035e-01
  1.2765713e-01
 -2.2841257e-01
  2.8715175e-02
  2.9835284e-02
  8.3341435e-02
  2.6871318e-01
 -2.3798920e-02
  3.0665506e-02
 -2.0360312e-01
 -4.9968321e-02
 -4.0470894e-02
  6.8185525e-03
  1.7141245e-02
  3.0979237e-01
  4.1861411e-02
  1.6858718e-01
  2.5212020e-01
 -3.1518431e-03
  1.8400422e+00
  4.5864341e-01
  6.2693104e-02
  3.7437666e-02
  1.4813866e-01
  1.1217559e-01
 -6.8680368e-02
  6.5999202e-02
  4.6766642e-02
 -1.0128728e-01
 -5.3461149e-02
 -1.8942069e-01
  1.4922631e-01
 -1.5189937e-01
 -3.5933875e-02
 -3.0177373e-02
  2.4650808e-01
  7.1700141e-02
 -1.5720692e-01
  2.2052088e+00
 -9.5647611e-02
  6.5310434e-02
  1.5463601e-01
  9.7783674e-03
 -1.1672430e-01
 -3.3914588e-02
  6.9343880e-02
 -4.2158565e-01
  8.1370093e-02
  5.6222185e-02
 -8.8047765e-02
  1.9586463e-01
 -2.7173273e-02
 -1.7421493e-01
  1.2528905e-01
 -1.5487256e+00
  4.1286826e-02
  1.1662980e-01
 -4.1186009e-02
 -7.4368389e-03
 -9.1448024e-02
 -6.2917754e-02
 -2.8248455e-02
  8.4370673e-02
 -4.7196489e-02
 -1.2972583e-01
  3.2847837e-02
 -1.0234009e-01
 -5.6941610e-02
  1.8996702e-01
  7.3327042e-02
 -1.0628842e-01
 -3.1346399e-02
 -1.2380202e-01
  9.5582053e-02
  2.8192058e-01
 -3.9932337e-02
 -1.6326530e-01
 -2.5197875e-01
  1.4045438e-01
 -5.4592483e-02
  5.4850462e-03
 -2.2635661e-02
  5.9959214e-02
  2.1086402e-01
 -1.6311593e-01
  4.1809523e-01
 -3.0283424e-01
 -3.0036967e-03
  5.0465143e-01
 -1.9658481e+00
  2.9056850e-01
 -9.8048359e-02
  4.1347053e-02
 -1.0957967e-01
  5.5841301e-02
  1.8747221e-01
 -6.1196131e-03
 -1.4396933e+00
  1.3431114e-01
 -9.4874598e-02
 -9.3291461e-02
 -1.3259239e-03
 -3.0442202e-01
  2.7631614e-02
 -9.0374894e-02
 -9.5090374e-02
 -2.6134644e-02
  5.9112567e-02
 -7.1521513e-02
  1.5552545e-01
  7.9042412e-02
 -1.1943951e-02
 -4.7425818e-02
 -3.6539033e-01
  1.5308239e-01
 -5.9677444e-02
  8.6624958e-02
 -6.4340085e-02
 -2.0695516e-01
  2.3363666e-01
  2.1047492e-01
 -2.4052936e-01
 -8.9512402e-03
  6.5794867e-01
 -1.3769644e+00
 -9.6048914e-02
  3.3244863e-01
 -9.7309947e-02
 -2.5478849e-02
 -4.0770400e-02
 -2.7372487e-02
  3.9978377e-03
  1.5450233e-02
 -1.4592275e-01
  5.1610105e-02
 -3.0753944e-02
 -7.6643392e-02
 -6.1861161e-02
  8.7561846e-02
  8.0421336e-02
 -3.3412378e-02
  1.7561147e-02
 -1.0707247e-01
  2.4162798e-01
  1.3422386e-02
  3.4143671e-02
 -1.5629973e+00
 -2.1895718e-02
  1.9679029e-01
  1.5300146e-01
  5.0652884e-02
  4.4711683e-02
  2.4695056e-02
 -6.8337873e-02
 -2.7208161e-01
  2.7868066e-02
 -2.1067606e-01
 -1.8241119e-01
  8.1339173e-02
 -2.0647516e+00
  7.5233704e-03
  2.4451338e-02
 -1.4903708e-01
  1.6878733e-01
 -5.7456288e-02
 -2.4364227e-03
 -4.5309953e-02
  1.8618366e-01
 -1.6204439e-01
 -5.9194107e-02
  3.0036880e-02
  8.4457797e-04
  7.5204983e-02
  1.3284135e-01
 -3.7342604e-02
 -7.3124573e-02
  8.6863585e-02
 -4.5729045e-02
  5.8501564e-02
 -9.8499022e-02
  1.4363043e-02
 -3.0306414e-01
 -8.0124080e-02
 -1.6144083e-01
 -1.8376091e-01
  9.6527629e-02
  1.3273689e-01
 -1.4924331e-01
  9.2450142e-02
  3.7679286e-04
 -4.5746729e-02
 -5.7040346e-01
 -1.5565599e-02
  1.3688036e+00
 -2.0477538e+00
  2.7185880e-02
  6.6947564e-02
 -7.4882391e-03
  5.3182226e-02
  1.0304279e-01
  1.2912378e-01
 -1.0280233e-02
 -2.5797758e-02
  1.0059118e-02
 -3.2804158e-02
  2.4570972e-02
  2.7404508e-02
  3.8364165e-02
  1.2319167e-01
 -1.3602819e-01
  1.0232411e-01
  1.5926648e-02
 -1.7148905e-01
 -7.9389438e-02
  4.2366289e-02
 -8.4573412e-03
 -1.0819287e-01
  3.6472711e-01
  3.7039999e-02
 -5.0789523e-03
 -1.3499399e-01
 -2.1330077e-02
 -1.1307355e-01
  3.3241224e-02
  4.8460986e-02
  5.2058429e-01
 -6.0226274e-01
  1.6207700e+00
 -2.2805283e+00
 -2.3870537e+00
  2.4022378e-01
 -4.3570694e-01
 -6.0107499e-01
 -9.6729882e-02
 -1.0805593e-01
 -1.8694732e-01
  3.7738135e-01
  4.6233672e-01
 -2.1400982e-01
  4.1114956e-01
 -3.5417506e-01
 -7.7366047e-02
  2.2799429e-02
  1.2595391e-02
 -4.2614505e-02
 -1.0413401e+00
 -5.2841110e-03
 -1.0500101e+00
  8.5680909e-02
  2.0990988e-02
 -2.0094060e-03
 -6.7803763e-02
  1.4502382e-01
  7.6693863e-02
  2.4168365e-01
  3.3356926e-01
 -8.5241655e-03
 -4.1527309e-02
 -4.0114228e-02
  7.5752407e-02
 -6.5670544e-01
  4.1915062e-01
  1.8866508e-03
 -5.8964401e-01
  1.0387233e+00
 -2.5248599e-01
  1.6553697e-01
  4.2971686e-02
 -9.1499120e-02
  1.0672542e+00
 -3.9669379e-04
 -6.7357130e-02
 -3.0879316e-01
  9.1312058e-02
 -1.2325480e-01
  2.2630505e-02
  1.9556057e-02
 -1.1000353e-02
  4.1858744e-02
 -1.7161290e-01
 -3.9172713e-02
  1.5688425e-01
  9.9927709e-02
  1.8240249e-01
 -1.0491189e-01
 -1.9190498e-02
 -1.2957595e-01
 -1.7724613e-02
  1.0154265e-01
  3.7228143e-01
  2.6496032e-02
 -9.5206589e-02
  1.1397155e-01
  2.0387918e-02
 -5.3136945e-02
  6.5407820e-02
  1.3333935e-02
 -1.1120673e-01
  7.9524076e-01
 -1.5184693e+00
 -2.2405992e-01
  1.8521409e-01
 -3.4535734e-03
 -1.4965629e-02
 -8.5789025e-02
 -3.2085508e-02
 -4.6423301e-01
 -1.7570852e-01
  5.0510457e-03
  1.0375828e-01
 -2.9430486e-02
  3.0820015e-01
  5.7035908e-03
 -1.0045562e-04
 -6.4643390e-02
  2.1027315e-01
  1.8714214e-02
  3.5938554e-02
 -3.8829271e-02
 -4.7857121e-01
 -4.6131011e-02
 -4.2085874e-01
 -5.6883018e-02
  3.7985083e-02
 -1.6495368e-01
 -1.5954696e-01
  1.4191316e-01
  4.9183406e-02
  8.2984574e-02
  2.2716923e-02
 -1.6831325e-01
  2.0935301e-02
  7.6931626e-02
 -2.3753202e-01
  2.3831265e+00
  1.3782333e-01
  2.0678692e-01
 -9.0575710e-02
  5.7153571e-02
  5.9888627e-02
 -7.9149656e-02
 -2.1275546e-01
 -1.8142247e-01
  3.4182152e-01
 -1.9784558e-01
  2.0958127e-02
 -1.4713278e-01
 -1.2899637e-01
  4.0122721e-02
 -1.7028557e-01
 -6.4485788e-02
  1.0434658e-01
  7.3880561e-02
  1.4594112e-01
  1.0148170e-01
 -2.3780744e-01
 -1.6431467e-01
  4.7482822e-02
 -3.0624270e-02
 -2.5056908e-01
  4.3789268e-02
  1.1943874e+00
  3.2611626e-01
 -2.8876731e-01
 -9.6251570e-02
 -5.6143247e-02
 -5.5894978e-02
  4.9585441e-01
 -2.7184329e+00
  1.5393500e+00
  9.9794962e-02
  3.4637488e-02
 -4.7677808e-02
 -8.6769136e-03
  6.0725339e-02
  8.9955954e-03
  5.9226137e-02
 -7.3168473e-03
 -2.1425073e-01
  3.0915809e-01
  1.5041102e-02
  6.4517713e-01
 -1.1395003e-01
 -9.6311808e-02
 -1.3046241e-03
 -1.4650719e-01
  9.3298927e-02
 -3.9394492e-01
 -4.5303136e-02
 -3.5083853e-02
 -3.0269596e-01
 -2.5126321e-02
  4.2102136e-02
 -5.7735224e-03
  3.1462528e-02
  1.7616515e-01
 -4.7625381e-02
 -3.2182923e-01
  3.2001909e-02
  1.4032877e-02
 -5.2825008e-02
  4.9277070e-01
  5.6325600e-02
 -3.4619483e-01
  1.9559208e+00
 -9.5309600e-02
  3.9656099e-02
  2.2505524e-02
  3.7538357e-02
  1.9047882e-01
  2.6222864e-01
 -1.0787202e-01
  9.3304776e-02
  9.2309639e-03
  1.0141098e-02
 -7.3042810e-03
  3.5775532e-03
 -2.1273854e-01
  1.0534811e-01
 -6.5355800e-02
 -3.5038091e-02
 -2.3797089e-02
 -2.4516237e-01
 -1.3868338e-01
  3.2138300e-01
  6.7420974e-02
 -1.2897315e-02
  1.9837293e-01
 -1.2053959e-01
  4.0450036e-03
  3.9491980e-04
 -2.2382399e-03
 -3.2612729e-01
  5.9053032e-03
 -1.5766342e-01
  1.8204148e-01
  6.0614848e-01
  2.7001893e-02
  9.8553091e-01
  8.6303107e-02
 -1.1655990e+00
 -2.0002046e+00
 -2.7333322e+00
 -4.0713206e-01
 -2.1024356e+00
 -1.0502549e+00
 -1.3431125e-02
 -7.2187704e-01
  8.6228466e-01
 -8.1533110e-01
 -3.1116874e+00
  1.1863474e+00
 -2.0386715e+00
 -1.5558354e+00
 -1.0876397e+00
 -1.8539006e-01
  9.4607431e-01
 -1.4511083e+00
 -9.0248197e-01
  1.0694134e+00
  3.2945067e-02
  2.9972795e-01
 -2.1122019e-01
  5.6385897e-02
  1.0497186e+00
  7.5683750e-02
  4.7212279e-01
  5.6466968e-03
  4.9889855e-02
  1.2602282e-01
  6.0875688e-02
  2.0837288e-01
  4.0848046e-03
 -4.6257833e-01
  2.2403474e+00
  8.7502897e-03
  6.1084908e-02
 -6.0065337e-03
  1.1214919e+00
 -4.0312283e-02
  1.6062064e-01
 -1.3349420e-01
  3.0601409e-01
 -8.0423631e-02
 -5.5984534e-02
 -1.6281919e-01
  8.0716670e-02
  2.5890714e-02
 -8.0852792e-02
  4.1497532e-02
  1.6181592e-02
 -1.0756419e-01
  1.2037772e-01
  3.9050318e-02
  1.0968582e-01
 -1.4249636e-01
  1.5264791e-01
  1.7345713e-01
 -4.0638309e-02
 -3.4656823e-01
 -2.2861896e-02
 -2.1484326e-01
 -1.7307398e-03
  1.9071539e-01
 -1.4322832e-01
 -5.8295019e-02
  6.6746765e-01
  2.2355726e-02
 -2.9970741e-01
  1.6524380e+00
 -8.0038095e-03
 -3.3235405e-02
  1.9109690e-01
  6.9855517e-01
 -4.6639565e-02
 -1.0947806e-01
 -2.2077873e-02
 -2.6356632e-01
  4.2657830e-02
  1.3840467e-01
  1.8422593e-01
  5.4645833e-02
 -1.0459427e-01
  3.6491621e-02
  5.3707920e-02
 -7.2912976e-02
 -3.2317629e-01
  3.3208475e-02
  1.6416451e-02
  2.1228673e-02
 -3.3658795e-02
 -1.7919096e-01
 -1.1482220e-01
 -1.4825554e-02
  2.7265754e-01
  4.3984748e-02
  1.9178401e-01
  5.8440741e-02
  6.4607501e-02
 -6.0645353e-02
 -3.6794987e-01
  6.7229398e-02
  3.3259851e-01
 -3.1952205e-01
  1.4957159e+00
  1.4656386e-01
  1.1429346e-01
  1.3407414e-01
  1.6608933e-01
 -1.8756278e-02
 -2.1543201e-02
  1.2702007e-02
  1.1468287e-01
 -4.8603863e-03
 -1.9153565e-02
  1.5236501e-01
  1.3803649e-01
 -7.2264172e-02
  5.1408354e-03
  4.2803213e-02
  1.5426216e-01
 -1.2472825e+00
 -1.1539521e-01
 -3.4333311e-02
 -2.0938270e-01
 -1.1740696e-01
  4.0167838e-02
 -7.6647308e-03
 -3.8418442e-02
 -1.1421242e-01
 -4.7831517e-02
  2.5366119e-01
 -2.6825163e-01
 -1.2293243e-01
  2.1530049e-02
  2.6185146e-01
 -3.0235228e-01
 -6.9146961e-02
  6.9853425e-01
 -1.5894128e+00
 -7.8047149e-02
  2.7649479e-02
  4.5690481e-02
  4.8661675e-02
  2.2741565e-01
 -1.2123081e-01
 -9.4292879e-02
 -3.2693782e-01
 -1.7151825e-01
  1.6156115e-01
  1.5516148e-02
 -9.7620590e-03
  8.5553732e-03
  1.0315867e-01
 -4.5046076e-02
 -1.2475755e-01
  7.2974926e-03
 -2.8716020e-02
 -4.6284769e-02
  2.1058488e-01
 -9.2628799e-02
  2.6859630e-02
 -1.2976472e-01
  5.2013928e-03
 -4.4753395e-02
 -8.8756442e-02
  2.0709167e-01
  2.0902863e-02
 -1.9422105e-01
 -1.3059101e-01
  1.2045959e-01
 -4.8958897e-03
 -9.1753863e-02
  1.5858072e-01
 -2.1560702e+00
 -2.9053651e-02
  5.6616017e-03
  2.5682366e-01
  1.0668409e-01
  1.4312105e-02
 -7.8236811e-02
 -8.5962914e-02
 -2.4477884e-01
 -1.4170511e-01
 -7.6275118e-02
  5.1948376e-02
  6.6909748e-03
  1.0242500e-01
 -1.6466045e-01
  1.0016173e-01
 -6.5139554e-02
 -4.3683913e-02
  2.0844908e-01
 -1.7382864e-02
 -1.2299341e-01
  5.0700903e-02
  6.4619964e-01
 -9.9908775e-03
 -1.5892575e-02
 -1.1088254e-01
  2.1185849e-02
  5.1227227e-02
  2.3849902e-01
 -1.0463252e-02
  8.3999746e-03
  2.4386092e-01
  9.4483852e-01
  6.1471528e-01
  7.2229624e-01
  4.1242963e-01
  6.4280194e-01
  1.9486152e-01
  9.0076286e-01
 -2.0264590e+00
 -1.0521919e+00
  1.5632692e-01
  2.4058703e-01
 -1.8946844e+00
  2.5695307e+00
  1.8750479e+00
 -2.3519163e-01
  1.0469655e+00
  2.6674848e+00
  3.0382618e-01
 -6.7548480e+00
 -5.2472150e-01
  2.1239448e+00
  3.7289047e-01
 -6.5885291e-02
 -7.3330802e-01
  1.0292647e+00
  2.6710307e-02
  3.9180279e-01
 -1.0689836e-04
 -3.8144374e-03
  4.0033296e-01
 -6.9431955e-01
 -5.7613093e-02
  7.1755223e-02
 -8.3517864e-02
  1.9080261e-02
  2.6974935e-02
  2.1760046e-01
 -8.6101300e-01
  2.0279248e+00
 -6.0860179e-02
  1.4846008e-01
 -1.1974901e-02
 -3.1622481e-02
  6.1454006e-02
  8.6203478e-02
  7.9556040e-02
  7.3471211e-02
  5.8424253e-02
  1.5922867e-01
 -9.2653610e-02
 -3.9340410e-02
  4.4294786e-02
 -2.3273492e-02
  7.0565574e-02
 -1.1971580e-01
  1.8897532e-01
 -8.7921731e-02
  3.7413087e-02
  1.2080444e-01
  5.4677604e-03
  1.1241253e-01
  6.7391612e-02
 -9.9245254e-03
  5.9225272e-02
 -1.6634019e-01
  3.6574934e-02
  1.6214871e-01
 -2.9255290e-02
 -7.3022462e-02
  1.6599618e+00
 -1.0176255e+00
 -1.8532346e-01
  2.0694046e+00
  1.8828043e+00
  6.2190533e-02
  1.6729441e-02
 -4.7649419e-01
  2.1759938e-01
 -2.6926732e-01
 -3.3972081e-02
  5.1794040e-01
  9.3231416e-01
 -1.1127257e+00
 -6.8581873e-03
  1.4676052e+00
 -8.5754967e-01
 -7.9418726e-02
 -9.2742378e-01
  1.7074047e-01
 -6.7372674e-01
 -5.0659884e-02
  7.3324703e-02
 -4.9436203e-01
  3.1700787e-01
 -2.8310779e-02
  2.3390557e-01
  1.1311900e-01
 -3.2181211e-02
  5.2006865e-01
 -5.8107370e-01
  1.1442689e+00
 -1.2033681e-01
 -3.8704198e-02
 -1.8566091e-01
 -2.2977591e-02
  1.6545472e-01
 -2.3992403e-01
 -9.2415625e-01
  1.6766394e+00
 -4.8820522e-01
 -8.6460158e-02
 -8.6086884e-02
  8.8876478e-02
  5.0330032e-02
 -6.8453416e-02
  1.0144044e-01
 -1.0381318e-01
 -1.4110151e-02
 -1.0971043e-01
  6.8138935e-02
  1.6375063e-01
 -9.3297742e-02
  4.3372490e-02
  6.0307975e-03
  1.5386854e-02
  6.4111494e-02
 -9.2587143e-02
  1.5830965e-01
  1.8840132e-02
  1.1861506e-01
  7.2490104e-02
 -1.9947292e-02
 -1.7933846e-01
  7.6738767e-02
 -2.3955617e+00
  1.6242363e-02
 -7.0387805e-03
  1.1399867e-01
 -6.2870607e-02
 -1.8084034e-01
 -8.0137111e-02
  3.7226644e-01
 -9.4679654e-01
  1.6223392e+00
 -7.1258266e-03
  2.9177237e-02
  1.4751710e+00
 -5.2794290e-01
 -5.8475072e-03
 -1.4643975e-02
 -4.4794191e-02
  7.5692819e-03
 -5.0059225e-02
 -3.5636432e-02
  2.4950770e-01
 -4.9707204e-01
 -2.2922613e-01
  3.1335659e-02
  2.6608431e-01
  8.5492589e-02
 -1.2167761e+00
  2.4669085e-02
 -1.9055372e-02
 -2.1873824e-02
  1.9438751e-01
  1.3720374e-01
 -6.7342229e-02
  1.4370835e-01
 -2.5248496e-02
 -1.7323898e-01
  1.7911139e-01
 -7.6667547e-02
  1.9240540e-02
 -1.2358755e-02
 -5.8791476e-01
 -7.0590541e-02
  5.3860662e-03
 -7.3864543e-01
  1.8805410e+00
 -1.0539379e-01
 -2.2509180e-01
  1.3493876e-01
 -2.9736426e-01
 -7.6224804e-02
 -1.0629129e-01
  1.3759127e-01
 -2.6855057e-02
  6.3048027e-02
  3.6530845e-02
 -4.8980605e-02
 -2.3060275e-02
  2.1521054e-02
 -1.2504703e-01
 -1.3030435e-01
 -5.7946812e-02
 -1.4057517e-01
  5.5887371e-02
 -3.8612273e-01
 -1.9404912e-02
 -3.9189763e-02
  1.0798368e-01
 -4.7041479e-02
 -7.9109356e-02
 -8.8694155e-02
  5.3223085e-02
  4.7925908e-02
  7.3264599e-02
  3.9311618e-02
 -1.5617250e-02
 -1.4773200e+00
 -7.5767964e-02
  1.5752375e-01
 -3.6580210e+00
 -5.9306413e-01
 -1.1169890e-01
  3.1435322e-02
 -1.1346170e-01
 -2.1461754e-01
 -3.6458414e-02
  9.6912645e-03
 -8.0453530e-02
  1.5590659e-01
  1.1889869e-01
 -2.3283616e-01
 -2.7519152e-01
 -4.4162002e-01
  1.2850396e-02
  7.7209771e-02
 -1.2294261e-01
  1.6124862e-01
  3.2880440e-01
  1.0309028e-01
 -6.5863825e-02
 -2.1212785e-01
 -6.6592400e-03
  8.1147783e-02
  1.9655077e-01
  1.0159317e-02
 -3.4785725e-02
  9.8462433e-02
  3.7630212e-02
  2.1895587e-01
  1.6474172e-01
  3.3745021e-01
  1.5128894e-02
 -2.3678321e-02
  8.8442169e-02
 -4.0285173e-01
  1.6403342e+00
  8.6177565e-02
 -1.5321262e-01
 -1.3573292e-01
 -2.4064351e-02
 -6.5864511e-02
  5.6237910e-02
 -9.1614321e-02
 -1.5828520e-01
  1.3133557e-01
  1.7287524e-01
  2.6467154e-03
 -3.1462803e-02
  9.7050071e-03
 -7.0939645e-02
 -1.4754464e-02
  1.4735030e-02
 -1.9848746e-01
  1.2629755e-01
  1.1457083e-01
  1.0035441e-01
 -1.6969477e-01
 -4.3020960e-02
  5.7946764e-02
 -1.4948456e-01
 -9.7781248e-02
 -1.1498721e-02
 -2.3381250e-01
 -4.3375365e-02
 -2.1009150e-01
 -1.6408384e-01
  1.6123765e+00
  6.3895333e-01
  1.7675173e+00
 -1.4507654e+00
 -1.2900094e+00
  1.6116554e+00
  1.5256430e+00
  5.2001810e+00
 -1.6970682e+00
  1.6222080e+00
  1.6411076e+00
 -7.6581895e-01
 -2.6728926e+00
  1.5386651e+00
 -1.6440736e+00
 -8.6996818e-01
 -1.2955717e+00
  1.9919631e+00
  1.4297285e+00
  1.7590717e+00
 -1.5609415e+00
 -1.0386577e+00
 -1.4313657e+00
 -1.3288466e+00
  8.3514303e-01
  1.5539178e+00
 -7.7937621e-01
 -1.4390595e+00
 -1.3657860e+00
 -1.4613911e+00
 -1.3850590e+00
  1.3391041e+00
  1.4649515e+00
  1.7353083e+00
  1.7131872e+00
 -1.8471693e+00
 -1.1062663e+00
 -1.5525817e+00
 -1.1568689e+00
 -9.1530836e-01
  2.3089991e+00
  2.0629666e+00
 -1.4276850e+00
  9.7478360e-01
  3.0193940e-01
  1.3118742e+00
  8.1355400e-02
  9.2989117e-01
  1.2840251e+00
  1.1092385e+00
 -1.7740674e+00
 -1.5899154e+00
 -1.5161015e+00
  1.4496676e+00
 -7.2828013e-01
  9.8075235e-01
  1.4800521e+00
  1.2551126e+00
  1.7733122e+00
  1.6757047e+00
  3.1664677e+00
 -2.4293542e-01
  3.6458066e+00
 -2.0432684e+00
 -1.1067951e+00
  4.3945971e+00
  4.0199914e+00
  7.7587062e-01
 -3.1231346e+00
  2.9881401e+00
  1.6528031e+00
 -1.6161133e+00
 -6.6344352e+00
  2.1931281e+00
 -2.4295492e+00
 -1.0557482e+00
 -4.2904859e+00
  3.0921926e+00
  5.6011397e-01
  3.7121422e+00
 -4.2236905e+00
 -1.4209915e+00
 -4.3086176e+00
 -1.4879590e+00
  5.5009537e+00
  1.9337635e+00
 -1.5552727e+00
 -1.6360899e+00
 -1.9913794e+00
 -1.9333433e+00
 -3.1714165e+00
  2.6571527e+00
  4.3989263e+00
  4.0712996e+00
  3.3755372e+00
 -3.0510409e+00
 -4.0651374e+00
 -2.8399210e+00
 -3.1579714e+00
 -3.4026217e+00
 -1.1956785e-01
  3.7918315e+00
 -2.9062638e+00
  3.2429855e+00
  4.5376101e+00
  4.7659941e+00
 -4.4693106e-01
  3.4329545e+00
  1.5819448e+00
  1.0992293e+00
 -4.0947647e+00
 -5.5747948e+00
  7.2838306e-01
  6.0523195e+00
 -7.6167876e-01
  8.8496047e-01
  2.9602437e+00
  3.3946440e+00
  2.5486109e+00
  4.6773825e+00
 -6.8723971e-01
  1.2762952e-01
 -1.0583925e-01
  1.7260227e+00
  1.6409950e+00
 -2.4080966e-01
  3.5980213e-01
 -6.5717585e-02
  1.1766743e-01
 -1.4102687e-02
 -4.1410238e-02
  5.5592991e-02
  2.0968780e-01
 -3.6727199e-01
 -4.0781695e-01
  6.7900628e-02
 -4.2374074e-02
  1.1032557e-02
 -1.3362651e-01
  1.8489575e-02
  1.6164894e-01
 -1.0702135e-01
 -2.1812974e-02
  8.0561399e-02
  2.5573042e-01
 -1.2946703e-02
 -6.9057792e-02
  1.6031796e-01
  3.5812292e-02
 -7.9471022e-03
  3.4389704e-02
  2.4826804e-02
  1.2536827e-01
 -8.2155494e-03
 -9.8481454e-02
  7.9202354e-01
 -2.3947260e-01
 -1.0577054e+00
 -5.3132379e-01
 -1.0454075e+00
 -6.1886359e-02
  5.4331269e-02
 -5.2535180e-02
 -2.3423621e-02
  2.4394114e-01
  2.5555325e-01
  1.9936910e-01
  1.4952940e-01
 -2.0896627e-02
  2.3821454e-01
  7.0556261e-02
 -8.3274789e-02
  2.2837374e-02
  1.4186272e-01
 -5.6526954e-03
 -3.2345392e-02
 -1.7914509e-02
  1.0518150e-02
  3.4614682e-02
 -1.7599784e-01
 -1.4225790e-01
  1.6731240e-01
 -2.5337473e-01
 -6.3244696e-03
  5.2252617e-02
 -8.9550368e-02
  1.1846775e-01
 -2.0548800e-01
 -4.2244174e-02
 -8.7399238e-01
 -1.0847466e+00
 -6.8550125e-02
  2.0415781e-01
  7.5777167e-01
  1.0949546e+00
  2.0821935e-01
  1.0136084e-01
 -5.8386277e-02
  3.9259441e-02
 -1.8084377e-01
 -1.2580146e-01
  9.5198967e-02
 -4.9455334e-02
 -1.6063201e-01
  1.6686814e-01
 -1.2562568e-01
  1.0987556e-01
 -3.9701457e-03
 -1.1320118e-02
 -8.6516500e-02
  6.3174679e-03
  1.8260300e-02
  1.0415188e-01
 -5.9537720e-02
 -1.7050540e-01
 -1.9814689e-01
  7.1643747e-02
  8.8828780e-02
 -4.8942503e-02
  2.2262333e-02
  3.7971504e-02
 -1.5675093e-01
  1.5323460e-01
 -1.1236843e-01
  6.5107032e-04
 -9.8874640e-01
 -5.4248534e-02
  9.0480663e-02
  2.5899491e-01
  9.7179180e-01
  8.2165472e-02
  6.7292660e-01
  9.1138035e-02
 -1.9529556e-01
 -2.3568714e-01
  4.5581646e-02
  2.6842821e-02
 -1.2664321e-01
  2.2202848e-01
  1.3105744e-01
  1.1003707e-01
 -4.9076796e-02
 -4.2240102e-02
  2.2420114e-02
 -5.1131113e-03
 -8.3990209e-02
 -5.2945381e-01
 -2.7650368e-01
  1.0501043e-01
 -1.2388156e-01
 -1.1430816e-01
 -4.6000991e-02
  4.2827162e-01
  2.9901472e-01
 -7.7922098e-02
 -1.2861462e-01
 -1.6854753e+00
 -9.9911928e-02
  1.9022781e-01
  1.5398812e-02
  1.9312786e+00
 -1.6494811e-01
  9.3766391e-02
 -1.0120534e+00
 -1.9878533e+00
  2.9743621e-01
 -7.1008646e-01
  1.3829233e-01
  3.9051976e-02
 -1.3513598e-01
  1.5449451e-01
  1.8302752e-01
  9.6887730e-02
 -1.8154550e-02
  2.2780327e-01
  1.8384365e-02
 -9.7567461e-02
 -5.9027277e-02
 -4.4991691e-02
  2.4844545e-01
  3.0740667e-02
 -1.6552520e-01
  7.8931615e-02
 -4.3067664e-02
  3.2282946e-01
 -6.3724518e-02
 -1.1764581e-01
  1.6242322e-02
  9.1741495e-03
  7.8844227e-02
 -4.1429259e-02
 -3.0905953e-01
  7.7082060e-02
 -9.7196035e-02
 -1.9699897e-01
  1.3571219e+00
 -4.0453994e-03
 -7.2571829e-02
 -2.1860781e-01
 -1.5379204e+00
  2.4536021e-02
  8.8727362e-02
  1.9618680e-01
  6.1427735e-02
 -2.0449761e-02
  4.2119959e-01
 -2.1143074e-01
 -1.4548738e-01
 -7.0891641e-02
  1.3796034e-01
 -4.4601142e-02
 -9.7754307e-02
  3.8897246e-03
 -1.2992160e-01
  1.4327905e-02
 -6.4153574e-02
  2.6473418e-01
 -8.2318066e-03
  1.3392022e-01
  3.5531414e-03
 -3.4279220e-02
  8.2481407e-02
  1.5670131e-01
 -7.1606119e-03
  1.5387781e-01
 -3.3832765e-01
 -1.2609778e-01
 -1.6717879e-01
 -5.9533129e-03
  1.4051501e-01
  1.3211761e+00
  5.5228993e-02
 -1.1861836e-01
 -3.0758345e-01
 -9.0464824e-01
 -4.0422544e-02
  1.0331798e-01
  4.1991267e-02
 -1.0290093e+00
  2.2511493e-01
 -3.9875381e-02
 -1.6224997e-02
  8.9916922e-02
  4.0751576e-02
 -4.1801348e-02
 -4.0736350e-01
  2.4497981e-01
  3.7190673e-01
  6.7420532e-03
 -7.8237779e-02
  1.9620685e-01
  9.9249475e-02
 -4.0154915e-02
  4.3249082e-02
  2.0669764e-01
  5.0551075e-02
 -8.1793308e-02
  3.8976427e-02
 -5.5429373e-02
 -1.0747687e-01
  1.0909858e-01
  9.5210530e-02
 -1.9215485e-01
 -9.3782740e-03
  9.5029145e-02
 -7.8927481e-01
  2.5743388e-02
  1.3692929e-01
  4.5080483e-01
  1.5201182e+00
  7.4733652e-02
  1.1204202e-01
  2.0003459e-01
  9.4660081e-02
  1.7464224e-01
  1.1231577e-01
 -9.4728218e-04
  9.9908719e-03
  3.4051237e-01
 -6.4692505e-02
 -1.6969587e-01
  9.5459349e-02
  1.9570680e-01
  2.9992852e-02
  1.6097793e-01
  7.5177349e-02
 -1.0848854e-01
  3.2230315e-01
 -3.6287278e-02
  3.2213140e-01
 -2.6472393e-01
 -5.7645392e-01
 -2.3797992e-01
  1.8510889e-01
  1.7444366e-01
  2.2078253e-01
 -1.0774861e-01
  7.5425111e-02
  1.8865032e-01
  8.1666976e-02
 -5.1893516e+00
 -6.2474187e-02
  8.6361490e-02
  9.6995771e-02
 -5.0411515e-02
  1.7315194e-01
 -1.1320633e-02
 -8.9668888e-01
  6.2170949e-02
  2.2402248e-01
 -5.6170031e-02
  3.4845371e-02
 -5.8656272e-02
  4.4737380e-02
 -1.2854798e-01
  6.6075310e-02
 -7.2402671e-02
  2.5985694e-01
 -8.0346584e-02
  3.1567442e-01
 -1.3462150e-02
  3.9242274e-01
  5.0440753e-01
  2.0082591e-01
  2.9102594e-03
 -7.8139238e-02
 -1.6029671e-01
 -1.2026329e-01
  5.6167610e-02
  1.0647719e-02
  1.5966351e-01
 -2.0707457e-01
  1.6854963e-01
 -4.4381842e-01
  7.2957337e-02
  1.6576755e+00
 -3.8894352e-02
 -8.6181395e-02
 -5.8581120e-01
 -6.3949507e-01
 -3.2231516e-01
 -1.9032419e-01
 -1.5551206e-01
  2.9354447e-01
  8.9649923e-02
 -1.6928050e-01
 -7.5257309e-02
  3.3170387e-01
  1.0656086e-01
 -1.0418748e-01
 -1.5868244e-01
  9.0022817e-02
  8.7741541e-04
 -9.4828479e-02
  9.6376628e-02
  1.3121885e-01
 -6.9881834e-02
  5.7495859e-02
 -2.6795123e-02
 -1.3323951e-01
  1.6696997e-01
  1.1966817e-01
 -1.9856414e-01
  9.7999528e-02
 -1.2009873e-02
  2.6094022e-01
 -8.3608262e-02
 -5.7503730e-02
 -4.8882723e-02
 -2.3702477e-01
 -1.9311835e-01
 -2.6917112e-01
  2.4018638e-02
  1.7845407e-01
  8.3951008e-01
 -4.3835819e-02
  2.0151034e-01
  1.0127805e-01
 -1.9356780e-01
  1.1799314e-01
  1.4244718e-02
  6.9043085e-02
  4.4606421e-02
  8.5470676e-02
 -3.3343934e-02
 -1.1646380e-01
 -1.6258696e-01
 -7.4684083e-02
  1.7499281e-02
  5.6877993e-02
 -1.4659490e-01
  2.0797099e-01
  3.1283408e-02
 -2.9960481e-02
 -2.8867754e-01
 -2.9816496e-01
  3.6691017e-02
  1.5140964e-01
  1.3135590e-02
 -7.4521944e-02
  1.0109516e-01
 -2.9058751e-01
 -1.3464698e-02
  1.7851722e-01
 -1.2449865e-01
  1.4715531e+00
 -2.2814732e-02
 -2.8118977e-02
 -3.1090418e-01
 -1.2505046e+00
 -2.8913561e-01
  4.6328465e-03
 -1.7343485e-01
 -2.3454683e-02
 -3.7668666e-01
 -6.4865604e-02
 -1.7728451e-01
  2.9286511e-02
  3.8215689e-02
 -7.5922944e-02
 -2.3827767e-01
  1.2958187e-01
 -3.7619110e-02
 -8.6638760e-03
  5.7366826e-03
  2.7624149e-02
  3.2778040e-02
 -1.4057051e-01
  1.8814768e-01
 -1.9059402e-01
  3.3361813e-01
 -1.0204802e-01
  8.9498162e-03
  3.2268617e-01
 -6.6092849e-02
  3.0705699e-01
 -9.0860248e-02
  2.6903981e-01
 -9.6952282e-02
 -2.4038304e-01
 -1.4061922e+00
 -3.3762034e-03
  1.9256346e-01
  2.9790503e-01
  8.8250899e-01
 -1.6471398e-01
  3.3909347e-02
  2.3684256e-02
  5.8526110e-02
  8.5777659e-03
  1.7805060e-02
 -3.1695664e-02
 -6.8409070e-03
 -4.5042497e-01
 -2.2364837e-01
  1.2558016e-01
  1.2673485e-01
  5.2555837e-02
  7.4802384e-02
  4.4141647e-01
 -4.7890750e-01
 -1.5317886e-01
  8.6122565e-02
  4.2384878e-02
  1.4533812e-01
  2.6455745e-03
  1.6322123e-01
 -4.6307817e-02
 -6.5507673e-02
  1.1028463e-02
  1.8097399e-01
  2.1126637e-01
  5.7232394e-03
 -1.3837592e-01
 -1.0768393e-01
  1.1853094e+00
  6.0349271e-02
 -8.5286550e-02
 -6.0567099e-01
 -9.6422780e-01
  1.2673844e-01
  2.3109049e-02
  2.1832307e-01
  4.1212025e-03
 -2.0226759e-01
 -4.8132490e-02
  6.2425770e-02
  1.5719061e-01
 -6.4636901e-02
  3.9563715e-01
 -4.4029236e-02
  3.0891841e-02
 -1.9750087e-01
  1.5809907e-01
 -2.6149434e-01
 -5.5215612e-02
 -3.4428168e-02
 -6.7722864e-02
 -1.7371867e-02
  4.2397714e-01
 -9.3183100e-02
 -1.2054662e-01
 -1.6002281e-01
  3.6074586e-02
  1.0253447e-01
  1.4087479e-01
 -1.2556393e-01
  3.1859967e-01
  1.4840008e-01
  3.4475747e-01
  1.7175807e+00
 -3.9081057e-03
  1.3097729e-02
 -1.0463744e+00
 -1.2281083e+00
  1.4717443e-01
 -7.5674564e-02
 -8.2296038e-01
  7.3203787e-02
  2.6900763e-02
  4.7213277e-01
  2.3694996e-02
  2.9220787e-01
 -7.9347566e-02
  2.9448253e-01
  2.6125107e-02
 -1.0098337e-01
 -1.2634298e-01
  8.5938320e-02
 -1.8693272e-02
  3.4858566e-02
 -1.5886813e-01
 -9.9046707e-02
  1.0847221e-02
 -9.9064700e-02
 -2.7061119e-03
  2.3652467e-01
  4.9812612e-01
 -1.1309402e-01
  1.2409004e-01
  4.4118606e-02
 -2.1032171e-01
  2.7265829e-01
  2.6233846e-01
  1.1085805e-01
 -5.3537905e-01
  9.7269975e-03
  2.4305084e-01
  2.9470250e-01
  2.0144494e+00
  3.4524286e-01
 -3.5638899e-01
  2.9610932e-01
 -3.9237818e-01
  2.3095094e-02
  2.4397007e-01
  8.0025522e-03
 -5.1273292e-01
  4.8173659e-02
  6.0715243e-02
  4.2808774e-01
 -1.3929633e-02
  2.8892748e-02
  2.7395028e-03
 -1.6289575e-01
 -6.7535624e-02
  1.8750858e-01
  2.0797887e-01
 -1.5464220e-02
 -5.4530639e-02
  6.3150501e-01
 -2.7476159e-01
  1.0750727e-01
 -7.2462723e-02
  9.7404681e-02
 -2.3783971e-01
  1.2634090e-02
  5.1902860e-02
 -8.1333883e-02
  8.4620640e-02
  1.0980597e+00
 -3.8648643e-02
  3.1987406e-02
 -3.4468016e-01
 -1.2219629e+00
 -1.1599382e-01
  1.2086222e-02
 -6.4248808e-02
  4.2060111e-02
  1.9238483e-02
 -4.7282781e-02
  1.7028740e-01
  1.1468845e-01
  2.1890786e-01
 -5.5122115e-02
 -2.3758283e-02
 -2.4680836e-02
 -4.4469353e-02
 -9.4768904e-02
 -3.5912182e-02
  3.5166535e-01
 -1.2631191e-01
 -7.4398577e-02
 -2.4394404e-02
 -1.1305712e-02
 -1.7330621e-01
  2.6480785e-01
  2.2072960e-02
 -1.3976264e-01
 -4.7809344e-02
 -7.3444895e-02
 -2.6900331e-03
  8.4090047e-02
  1.5877934e-01
 -1.0101555e-02
  1.2672775e+00
  5.8015820e-02
 -2.6489404e-01
 -2.1832991e-01
 -5.9301853e-01
  1.9342013e-01
  1.3983890e-01
 -2.0217921e-01
 -8.4295750e-02
  1.8683480e-02
  2.3381536e-01
 -1.0355006e-01
  4.1709176e-01
  1.2710430e-01
  1.3609745e-01
 -1.2018690e-01
 -1.0437213e-01
  1.6855912e-02
 -1.0707176e-01
 -7.4081965e-02
 -3.8614196e-01
 -6.3065067e-02
 -7.6534837e-02
  2.2741884e-01
 -4.8812609e-02
 -1.6583586e-01
  2.5005555e-02
 -9.3899950e-02
 -1.3447922e-02
 -3.0318293e-01
 -1.5548065e-01
 -1.2130740e-01
 -1.2515079e-02
 -3.4075864e-03
 -1.8912561e-01
  8.9743316e-01
  7.9932638e-02
 -2.5906272e-02
 -2.7699926e-01
 -7.7955186e-01
 -2.3180719e-01
 -6.8576708e-02
  1.6820858e-01
 -3.3939548e-02
  1.1896697e-01
 -3.0177832e-02
  1.0546053e-02
 -9.1294467e-02
  8.0172747e-02
 -1.5281197e-01
 -4.5294622e-03
 -1.4904994e-01
 -2.6588729e-01
  2.2991468e-01
 -2.4860056e-01
  3.5650570e-02
 -1.2273858e-01
 -3.6871184e-02
  2.5335919e-02
 -4.5759985e-03
 -2.6133923e-02
  2.2188418e-01
  1.2088878e-01
 -9.9326812e-02
 -2.2699489e-01
  2.0480722e-01
 -2.4910213e-01
 -6.4824209e-02
  4.7279727e-02
  1.5634325e-01
 -1.2823875e+00
  1.5352757e-02
  1.4096199e-01
  1.4457820e-01
  1.4671754e+00
 -1.2094461e-01
 -1.4436193e+00
 -1.7836013e-01
 -5.9658073e-02
  4.5129292e-02
 -1.2973251e-02
 -2.8870654e-01
 -6.4731075e-04
 -3.2645360e-02
  1.0517289e-01
 -1.2761015e-01
  4.0110052e-02
  1.4980438e-01
  5.3047452e-02
  4.2687740e-02
 -1.3154481e-01
 -8.8248640e-02
 -4.9828842e-02
  4.9555067e-02
  1.7464739e-01
 -9.1787033e-02
  4.1695263e-02
 -1.3235341e-02
 -2.7217209e+00
 -1.1510860e-01
  7.8829497e-02
  1.1139251e-01
 -3.3986583e-02
  3.0786118e-01
  8.8961102e-02
 -6.1776549e-01
  2.4297035e-01
  2.2645445e-01
  3.0153949e+00
  1.1589955e+00
  5.7558063e-02
 -9.7818948e-02
 -9.7792476e-02
  1.0542889e-01
 -1.2556282e-02
 -6.8581238e-02
  3.8499583e-02
 -4.1479465e-02
 -2.3249386e-02
 -1.6952942e-01
 -1.3208783e+00
  2.7331769e-01
 -7.9964608e-02
  1.7734805e-01
  2.4550849e-01
 -1.0130572e-01
  1.3123828e-01
 -1.9738099e-02
  8.9187995e-02
  3.2039529e-01
 -3.2584317e-02
  1.6361907e-01
 -4.3145709e-02
  1.7200983e-01
 -8.2457587e-02
  3.1256613e-01
  1.5246198e-02
 -1.1748339e-02
 -7.7997101e-03
  3.6162612e-01
  1.2001945e+00
 -2.7776131e-01
  6.2071818e-01
  2.4129965e+00
  2.0185144e+00
  1.1599888e-01
  3.7662517e-02
 -5.7383105e-02
 -1.8494584e-01
 -1.1519602e-03
  6.4076222e-02
 -4.6583378e-01
  9.4695903e-02
  6.3427970e-02
  1.5139244e-02
 -4.1636071e-01
 -1.0245321e-01
 -1.7070048e-02
  1.4953406e-01
 -3.1076411e-03
  9.8633550e-02
  7.0574149e-02
  1.2524025e-01
 -6.0091406e-02
  5.2700392e-03
 -1.3637336e-01
 -1.3868752e-01
 -1.4009933e-01
 -1.3426544e-01
  6.7863926e-02
 -2.7156512e-03
  6.6552907e-02
 -3.1235619e-02
 -1.1224084e-01
 -8.2666397e-02
 -1.1208010e+00
  4.6732702e+00
 -1.4510961e+00
  1.6149307e+00
 -8.5749201e-02
 -3.1023610e-02
  2.8001931e+00
  1.5431699e-02
  2.5254282e-01
  8.1230633e-02
 -3.7228680e-01
  1.9736190e-01
  3.7046039e-01
 -1.3787600e+00
 -1.3499561e-01
  6.3059501e-02
 -4.6416587e-01
  1.6717283e-02
 -2.3901861e+00
  4.2392205e-02
 -1.4359593e+00
 -8.1511699e-02
  1.6832013e-01
 -1.0409101e+00
 -2.2218551e-01
 -2.6464829e-02
 -5.2636750e-02
 -1.2603661e-01
  1.1575747e-01
 -1.3469027e-02
 -7.5709119e-02
 -3.6299437e-02
 -2.8963760e-02
  4.5069087e-02
 -7.9243943e-02
  5.9615258e-02
 -1.5495704e-01
  5.3824801e-02
  4.1540325e-02
  2.0378022e-02
 -2.6540262e-01
 -3.2300625e-02
  2.1029587e-01
 -2.9071295e-01
  1.7626414e-01
  3.8606472e-02
 -7.2879694e-02
  4.2277630e-02
  1.4007180e-02
 -2.1642859e-01
 -9.2846029e-02
  1.1103089e-01
 -6.5897107e-03
  1.3120723e-02
 -7.1819559e-02
 -6.0213961e-02
 -1.4206751e-01
 -3.8258977e-02
  2.5913051e-01
  1.4238831e-01
  6.4291142e-02
 -7.3978186e-02
 -1.3541768e-01
  1.0267130e-01
 -1.8644351e-01
  1.9364728e-01
  7.0540155e-03
 -9.3899446e-04
 -2.8060627e-01
  3.4029502e-01
  3.0675331e-01
  1.2338880e-01
  3.6382791e-02
 -2.1864940e-01
 -1.4300728e+00
  8.8761941e-02
  1.2639040e-01
  1.6913887e+00
 -2.0756489e-02
  1.8689434e-01
 -3.9837223e-02
  2.6692325e-02
 -7.3000915e-02
  2.2917899e-01
 -6.2819310e-02
  1.3262159e-01
 -8.7799467e-03
  4.5619784e-03
  1.2659663e-01
 -1.8941537e-01
  2.2900514e-01
  1.8912211e-01
  1.3648173e-01
  1.5880840e-01
  2.0446174e-01
  3.1326255e-01
 -1.0959073e-01
 -2.8699666e-01
  4.9642731e-02
  3.0985232e-02
  1.3427288e-02
 -8.3217556e-03
  4.9082581e-02
 -2.3321874e-02
 -1.0331982e-01
  8.1602371e-01
 -2.2681713e-02
 -9.5109865e-02
  3.1973150e-02
 -1.1960374e+00
  4.1803622e-01
 -2.0694993e-02
 -1.4706627e-01
 -7.0171840e-02
 -8.8355169e-02
 -4.1606411e-02
  3.6345202e-01
 -4.7886867e-02
  1.4532027e-01
  2.8181594e-02
  1.8879496e-01
 -4.6247546e-02
 -2.5143322e-01
 -8.2132965e-02
 -1.6030172e-01
 -6.7083150e-01
  1.7401823e-01
  8.8459656e-02
  6.2212683e-02
 -4.8418347e-02
 -1.1313494e-01
 -3.1180969e-01
  2.2611724e-01
 -1.3494857e-01
  8.8873254e-03
 -3.0817248e-02
  1.2821080e-01
  2.3161675e-01
 -3.6101937e-01
  2.9618907e-01
  9.2296046e-01
 -9.7822267e-01
  2.5330932e+00
  3.1835091e+00
 -4.2519394e-01
 -3.2376584e-01
  4.1479673e-02
  4.0439656e-01
 -1.7363799e-01
 -9.1527201e-02
 -2.9685289e-01
 -1.3907211e-01
 -1.3621807e-01
 -1.4238609e+00
  5.0536370e-01
 -6.9800103e-01
 -2.2126008e-02
  3.1457970e-01
  3.6236727e-01
 -1.8194113e-02
  5.3612538e-02
  2.6324895e-01
 -9.6642748e-02
 -2.8541835e-03
  1.5410858e-01
  3.4371529e-02
  3.8144041e-02
 -5.8816083e-02
 -6.2447939e-02
  1.3173885e-02
 -2.6658240e-01
  1.5491554e-01
 -9.6108459e-02
  2.6436052e-01
  8.6998874e-03
 -3.9659515e-01
 -2.9628316e-01
 -1.4737529e-02
  1.3050808e-01
  1.2097385e+00
  2.0558532e-01
 -1.2748070e-01
 -1.9102773e-01
  9.8930284e-02
 -1.5902910e-01
  1.2185313e-02
 -9.3522802e-02
 -6.8597928e-02
  6.3253544e-02
  6.9446817e-02
 -1.9297265e-01
  3.0228484e-01
  2.9605391e-02
  1.8120632e-01
  2.6426467e-01
 -1.3231999e-02
  5.6086304e-03
 -4.8170608e-04
 -3.5479713e-02
  7.5825594e-02
  5.2339189e-02
  1.4349844e-01
  2.3796670e-01
 -2.0654753e-01
  5.1274691e-02
  2.0283423e-01
  1.9503282e-01
  2.4003929e-01
  3.8045892e-01
 -7.9931177e-02
 -1.2589197e+00
 -2.1183296e-01
 -1.2568839e+00
 -3.1246832e-01
 -3.9990303e-01
 -3.3142090e-02
  2.5789440e-01
  9.7896792e-02
  2.4718447e-01
 -2.7381468e-01
  7.3223323e-02
 -1.1840206e-01
  7.1053803e-02
  9.4322246e-01
 -1.7848901e-02
 -1.9800778e-01
  1.8447888e-01
  5.8952928e-02
 -1.7967353e-02
  9.5953062e-02
  3.6707234e-02
  1.7782165e-02
  8.2915738e-02
  1.0419101e-01
  6.6798657e-02
  4.7110669e-02
 -8.1255496e-02
  1.3080077e-01
 -1.0874750e-01
 -2.4633432e-02
 -1.6655372e-02
 -3.0132239e-03
  5.9276227e-02
 -1.8467913e+00
  4.5096105e-01
  6.0511154e-01
  3.0899563e-01
 -2.2304974e-01
 -2.2393365e-01
 -1.5870507e+00
  6.7873165e-02
  9.1055050e-02
 -8.6396337e-02
  1.8546838e-02
 -7.3111602e-03
  4.0279254e-02
 -1.6845219e-01
 -1.0508823e-01
  1.2244145e-01
 -1.0704079e-03
  7.2275424e-01
  9.8916568e-02
  1.3064072e-01
 -2.9984165e-02
  6.7398086e-02
 -2.5701053e+00
  4.4175770e-02
 -1.3245837e-01
  1.1879835e-02
  1.3251744e-01
 -4.1352965e-02
  2.7459535e-01
  1.8668108e-02
 -2.4857982e-01
 -4.7446877e-02
  2.0936718e+00
 -2.0822050e-01
  2.5868878e-02
 -1.4372560e-01
 -4.1239895e-02
  1.1119791e+00
 -8.4495761e-02
  1.6139978e-01
  3.7421100e-02
 -1.4114451e+00
 -1.7241502e-01
  1.6413264e-01
 -1.2187041e-01
 -7.3540486e-02
  1.5662286e-01
  3.7173036e-02
 -2.0716731e-01
  1.8654445e-02
  1.1430469e-01
  2.5081632e-01
 -5.5235863e-02
  2.2168061e-01
 -1.7292283e-02
 -9.8233253e-02
  5.2648664e-02
 -1.9595599e-02
  1.8387556e-01
  1.6935800e-01
 -8.1708767e-02
 -2.3358475e-01
  2.3051585e-01
 -2.1950687e-01
  1.1166783e-01
  1.2707339e-01
  2.5062373e-01
  3.5685378e-01
 -5.3183067e-01
 -5.8432513e-01
  3.7423411e-01
  3.1225512e-02
  1.0845811e+00
  1.3505737e-01
  5.9286582e-01
 -4.9961418e-01
 -6.3045210e-01
 -2.5603014e-01
 -4.8642639e-02
  3.9999258e-02
  9.5868353e-03
 -2.2952560e-01
  3.2587945e-01
  8.3457008e-03
 -2.4618687e-02
  2.1746975e-01
 -2.2662990e-01
  3.2713402e-02
  5.7974495e-03
  2.5531864e-01
 -2.7275881e-01
  2.0207755e-02
 -1.6320112e-01
  2.2100995e-01
  1.7279407e-02
  2.0264015e-01
 -1.2254947e-01
 -4.0062003e-02
  1.6735099e-01
 -9.4185703e-02
  1.7160077e-01
  6.6854835e-02
  1.8686857e-02
 -3.6674288e-01
 -3.3357540e-01
 -2.0756650e-01
 -8.3646975e-02
 -5.0860536e-01
 -4.4160873e-01
  1.6942372e+00
  4.4237164e-01
 -6.8799123e-02
  2.8905759e-02
 -2.0786328e-02
  1.0757427e+00
  1.2672694e+00
  9.8115128e-01
 -2.3510155e-01
  2.1497186e-01
  1.2931755e+00
  4.0180501e-01
  2.4598977e-01
  9.6910083e-01
  5.1569182e-01
  1.4868783e+00
 -1.3768691e+00
  8.8829601e-01
  7.2600663e-01
  1.6058977e-01
  1.2383270e+00
 -9.9596357e-01
  1.6738710e+00
  8.9970469e-02
  1.0699975e-01
  2.5431371e-01
  4.7975212e-01
  2.9798098e-02
 -1.4848485e+00
 -1.6469445e-02
  1.8608930e-02
 -1.3037013e+00
 -1.7362827e-01
  1.9074128e+00
 -1.0592251e-01
  1.1472790e-01
 -6.5847701e-01
 -1.0738572e+00
 -1.3042037e-01
  3.7246276e-02
 -3.2477227e-01
  9.1514006e-02
  1.3032965e-01
 -9.1369338e-02
  1.4321701e-01
  8.1922626e-03
 -2.0548129e-01
  3.7607912e-02
  2.7719638e-01
  1.2592146e-02
 -2.3048423e-02
  4.5162290e-02
  7.0982045e-01
 -3.4430173e-01
 -8.4166586e-02
  9.2338167e-02
 -5.2175306e-02
 -5.1368419e-03
  5.6771226e-03
 -1.7343946e-01
  6.3213818e-02
 -2.5120631e-01
  4.6222646e-02
 -1.1695325e-01
 -2.4185272e-01
 -4.0498767e-02
 -6.5448523e-02
 -5.0743562e-01
  7.0403099e-01
 -2.8760511e-02
  1.8652828e-02
 -2.6458600e-01
 -1.2444562e+00
  5.4975815e-02
 -3.6568847e-01
  1.0982363e-02
 -9.6358337e-02
  1.1030505e-01
 -3.9336797e-02
 -8.3552986e-02
 -4.0485390e-02
  3.5766751e-02
  1.4938875e-02
 -2.4205932e-01
  1.1939238e-01
 -1.8817864e-02
  5.6475535e-02
  8.7303162e-02
 -2.2948287e-01
  3.2506320e-01
 -1.7887498e+00
  4.6573453e-02
  1.9275329e-01
  2.7501228e-01
 -1.3075487e-01
 -1.2443257e-01
  1.8337408e-01
  3.3315778e-01
  3.0360043e-01
  5.8887195e-02
  2.4376848e-01
 -4.8506126e-01
  4.7341648e-02
  1.3860464e+00
  4.9745809e-02
  8.7504029e-02
 -3.5104308e-01
 -1.5270138e+00
 -2.3358031e-01
 -9.7160831e-02
  4.6798270e-03
 -1.2139880e-01
  1.1758490e-01
  1.8514986e-01
  6.9599845e-02
 -5.5232927e-02
  5.2675601e-02
  3.4607381e-01
  1.6445786e-01
 -1.2184855e-01
  1.9356312e-01
  1.4269206e-01
  1.6978355e-02
  2.3841228e-01
 -7.2691940e-02
  2.0369239e-01
 -1.1951735e-01
  2.8359628e-01
 -5.2346591e-02
 -1.1286206e-01
 -8.0584347e-02
 -1.7866194e-02
  1.8445063e-01
  6.2500417e-01
  8.7299183e-02
  8.0508173e-01
 -1.6235191e-01
 -1.7747371e-02
  1.5610979e+00
  2.0971036e-01
  3.2567266e-02
 -8.4168708e-01
 -1.0824392e+00
  4.0568791e-02
 -1.1329000e-02
  6.2754564e-02
  1.1279568e-01
  1.2077334e-01
  2.5650594e-01
  1.4541075e-01
  1.3277963e-01
  1.2290121e-01
  1.3359699e-01
  2.7413273e-01
  1.8968152e-01
  7.0188850e-02
 -3.5065446e-02
  1.7064396e-01
 -1.5627301e-01
 -1.9458336e-03
  2.4000579e-01
  1.5141726e-01
  1.1355002e-01
 -1.0647282e-01
  3.6439800e-01
  1.0111218e-01
  8.5995970e-03
  8.2830444e-02
 -3.3486873e-02
 -8.2113042e-02
  1.9925950e-01
  1.1557350e-01
 -7.3458418e-02
  1.0061413e+00
  2.1843161e-01
 -1.3157868e-01
 -4.5064531e-02
 -1.0010217e+00
 -3.2121420e-01
 -5.9349310e-02
  2.3878193e-01
 -5.2766960e-02
 -8.0725797e-02
 -1.3377532e-01
  5.1758178e-02
 -1.0334274e-01
  2.7599216e-02
  2.7749904e-02
  1.4398003e-01
  8.9774923e-03
  2.2569093e-01
  3.1933346e-01
  4.5658998e-02
 -1.1312906e-01
 -1.6576040e-01
  1.6527447e-01
  2.2836115e-02
 -2.0982698e-01
 -3.0701500e-01
  1.0850663e-02
  2.3241635e-02
  5.9288085e-02
 -1.6376638e-01
 -1.7443251e-02
  9.2127277e-03
  9.8144598e-02
  5.6501865e-02
 -1.9424187e-01
  2.0859659e+00
  1.2266666e-01
 -3.1830102e-01
 -1.0995601e-01
 -7.8496546e-02
 -6.6077441e-02
 -2.2545549e-01
 -1.2400379e-01
  3.0137785e-02
  9.0545774e-02
  2.1058355e-01
  9.7949110e-02
 -4.6957098e-02
 -6.0817994e-02
  1.8217480e-02
  4.1059924e-05
  8.3092600e-02
 -4.4102421e-01
 -3.3426508e-02
  8.4599163e-03
  3.1758663e-01
 -5.7316959e-02
  1.8304108e-01
  1.4350992e-02
  1.1511793e-01
  2.5286146e-02
  2.8857596e-02
 -8.8094860e-02
  8.8709734e-02
 -8.4736176e-02
  2.0053104e-01
 -5.2549135e-02
 -2.6783454e-01
 -2.0551132e-01
 -3.6932397e-01
 -7.0567065e-01
 -2.4196090e-01
  5.5518653e-02
  1.8763673e-01
  9.4146246e-01
  1.1974536e-01
  1.4229980e-01
 -2.9509285e-02
 -7.5683111e-01
 -1.5469600e-01
 -2.7007228e-01
 -1.2150983e-01
  3.2784302e-02
  1.1295992e-01
 -1.6831340e-01
 -7.8022145e-02
 -1.0927081e-01
  5.6536995e-02
  5.7991169e-02
 -2.4864789e-02
  2.0479735e-02
 -1.6293605e-01
  9.4361208e-02
 -2.3126572e-01
 -4.9002391e-01
  1.9771957e-01
  1.8600054e-01
  1.0182459e-01
  2.1957088e-02
  1.9599722e-01
 -3.0794412e-01
  1.9429176e+00
 -1.4068998e-01
 -1.3117453e-01
 -3.7620008e-02
 -1.8456503e+00
 -7.0257612e-02
  2.5843075e-02
  1.5904418e-01
  2.1007245e+00
 -6.4495536e-03
  8.2961403e-02
 -4.4296827e-02
  5.2458804e-02
  3.0192900e-01
  1.6528029e-03
 -1.2406063e-01
 -1.4858648e-02
  3.8142903e+00
  6.4197443e-02
  4.6847355e-02
 -4.3333925e-02
  9.3334384e-02
  4.7006696e-03
  2.8362645e-02
  2.3938854e-01
 -3.2846221e-01
 -5.6938324e-02
  1.1609915e-01
  5.6531414e-02
 -1.7687659e-01
  2.8393349e-02
  5.3926159e-02
 -1.6283700e+00
  6.0214680e-02
  1.5370668e-01
  3.2227144e-02
  2.0374167e-01
 -1.5912293e-02
  1.6485049e-01
 -1.2026838e+00
 -1.2008456e+00
  2.3823533e-02
  4.1528881e-01
  6.5342593e-01
  4.0755171e-02
 -1.3136740e-01
  1.6323395e-01
 -2.2337028e-04
 -3.1495970e-01
  1.2504138e-01
  4.8116297e-03
  1.1799229e-02
  2.1206625e-02
  3.1593502e-01
  7.0929867e-01
 -1.3227236e-01
 -5.3321365e-02
  3.7691832e-02
  9.8719969e-02
  3.9270796e-02
 -1.5369569e-01
  1.5701337e-01
  1.1782465e-02
  2.2367766e-01
  1.1865636e-01
  1.6196078e-02
 -1.3274157e-01
 -3.0331846e-02
  1.5582414e-02
 -2.0860887e-01
  1.6521603e-01
 -4.0248653e-01
 -1.5972846e+00
  1.2465337e-01
 -1.7190584e+00
 -5.4732640e-03
 -8.9188589e-04
  4.4551349e-01
  4.4679317e-01
 -3.5441451e-02
 -2.4582364e-02
 -5.8924634e-02
  1.7238161e-01
  2.9129559e-01
  1.8301383e-01
 -1.8055777e-01
  1.5280744e-02
  4.0515006e-01
  5.4030120e-02
 -1.8508924e-02
  2.1998492e-01
  2.2257406e-02
 -1.5912846e-01
  3.3048812e-02
  9.1748285e-01
 -4.4032242e-02
  5.9309974e-02
  8.3759449e-02
 -3.7215754e-02
  5.7261221e-02
  2.1183078e-01
  1.9102970e-01
 -3.0765802e-02
 -2.0940164e-01
 -5.5703044e-02
 -1.7727330e-01
  8.3009414e-02
  2.4469186e-02
  2.0850617e-01
 -1.1271123e+00
  1.6500412e-01
 -4.5567065e-02
  4.3827954e-01
  1.0416722e+00
 -5.1500145e-02
  1.0651409e-01
  1.1419801e+00
 -1.6454522e-02
 -2.2645836e-01
  9.6701249e-02
  1.0940530e-01
 -2.8923166e-01
 -8.7722853e-02
 -1.9110364e-01
  4.4179533e-02
  1.0643668e-01
  5.9475891e-02
 -1.2695913e-01
 -7.2722346e-02
  3.7160087e-02
  9.2713857e-01
  1.5902261e-01
  1.4230788e-01
  2.5587985e-03
 -9.4137467e-02
 -3.3023104e-02
  1.1727039e+00
  2.4334812e-01
  1.0928768e-01
 -1.2359842e-01
 -1.0223489e-01
 -2.8044067e-02
 -4.4096693e-02
  3.2879338e-02
 -1.3973850e+00
  1.4854018e-01
  1.8366762e-01
  2.2939874e-01
  2.3170300e+00
  3.5134634e-01
  2.2888266e-01
  9.6913368e-02
  1.4758727e-01
  1.7607571e-01
  7.0704557e-02
  6.1555486e-02
 -1.3766657e-01
  4.8987161e-02
 -3.0141565e-01
 -4.2221703e-02
  2.6644997e-02
  6.6917747e-02
  2.6206900e-03
  1.5476188e-01
  2.3648340e-02
  1.5323780e-01
 -2.9975909e-01
  1.1373525e-03
  7.7202447e-02
  1.8468672e-01
 -4.3923747e-02
  7.5117663e-02
 -1.4279476e-01
 -1.5545410e-02
  2.7592522e-01
 -8.4992409e-02
  1.6697219e-01
 -5.8830854e-02
 -3.0118692e-01
 -1.4479207e+00
  1.3309507e-01
 -2.4391413e-01
  7.1179688e-02
  1.3347489e+00
 -5.2640659e-01
 -7.1486652e-02
 -6.5158412e-02
  5.1091108e-02
 -3.3313599e-01
  4.9757799e-03
 -1.2035641e-01
  1.3038750e-01
 -1.5368041e-01
 -8.6427644e-02
 -1.5861224e-01
 -2.3781270e-02
 -1.6537477e-01
  2.0960487e-01
  1.0723887e-01
  1.9637261e-01
 -7.8711525e-02
  4.4997260e-01
 -1.0605044e-01
 -8.1027681e-03
 -8.5410304e-02
  3.7368342e-01
 -2.5513092e-01
 -3.8391277e-01
 -3.1854961e-02
 -2.9322733e-03
 -2.3487015e-01
 -6.4901136e-02
 -1.2660263e-01
  1.0754050e-01
  2.0155499e+00
 -2.0875690e+00
 -1.8908541e-01
  9.0869075e-01
  3.8880056e-01
 -1.1971681e+00
  8.7935114e-01
 -9.8024112e-01
 -8.7244517e-01
  1.5178671e+00
 -4.9982555e-03
  2.7723604e-01
  6.6044249e-02
  6.4668900e-01
  1.3113462e+00
 -1.0862974e+00
  1.4949837e+00
  7.8763866e-01
  1.0041112e+00
  3.4572044e-01
 -8.9481479e-01
  1.7599536e+00
 -2.2759125e-01
 -6.0761303e-01
 -8.4030181e-02
 -7.6562934e-02
  2.5562646e-02
 -1.0789214e-01
 -1.7288312e-02
 -1.7424683e-01
 -8.1376070e-01
 -1.8076217e-01
 -1.1898621e-01
  9.5831580e-02
 -1.0241468e+00
 -1.4087123e+00
 -1.5725421e+00
 -6.9856828e-01
 -1.9789613e+00
 -9.8231071e-01
  1.0215108e+00
  2.2858272e+00
  2.8760579e+00
  1.0959010e+00
  1.5602994e+00
 -1.4894054e+00
  2.5184085e+00
  3.9263713e-01
  5.2482855e-01
  1.1714565e+00
 -8.1751233e-01
  1.0172719e+00
  1.1013248e+00
 -4.9142256e-01
  7.0881563e-01
  7.2839260e-02
  6.0965890e-01
  5.0245497e-02
 -1.8408749e-01
  1.6639189e-01
 -1.0744689e-01
 -1.6996795e-01
 -1.7417739e-01
  2.4866495e-01
 -3.7768847e-01
 -1.4833066e+00
 -2.1315737e-02
 -2.6425672e-01
 -1.8175410e-01
 -3.6903489e-01
 -2.0656893e+00
 -8.6338744e-02
  3.2072783e-01
  3.2587323e-01
  7.9146016e-01
 -4.8294375e-03
 -3.8240489e-01
  2.4273810e-01
  1.1457385e-01
  1.3159645e-02
  9.9157453e-02
 -1.1463608e-01
 -3.6415076e-03
 -8.6572446e-02
  7.3570646e-02
 -6.8551332e-02
  2.4184614e-02
 -2.5374383e-01
 -2.0550923e-01
  2.6740140e-01
  4.2157941e-02
 -2.7797821e-01
  2.0425248e-01
  1.1665242e-01
  1.4089057e-01
  8.0293216e-02
  4.7121692e-02
  5.9188344e-02
  1.6006058e-02
 -1.0404428e-01
  3.7939546e-01
  7.6252364e-02
  6.6001929e-02
  1.5367894e-01
 -7.4305624e-02
 -1.6549433e+00
  6.3185312e-02
  1.9612297e-01
  1.2014458e-01
  8.7902534e-01
  6.1756321e-03
 -2.3164752e-01
 -2.8529248e-01
 -1.2084851e-01
  1.8428710e-01
  2.9831912e-02
  3.2785498e-02
  1.8429813e-01
 -8.5104309e-02
  4.7146421e-02
 -2.0796727e-01
 -8.3952315e-02
  2.6261401e+00
  2.1898708e-01
  4.5775805e-02
  1.8031654e-01
  1.2427417e-01
  1.3155961e-01
 -4.2750441e-02
 -3.3767492e-02
  1.4917368e-01
  7.3823058e-03
 -5.9815701e-02
 -1.3543659e-01
 -9.4379157e-02
 -1.1681294e-02
 -6.2666923e-02
  5.2463897e-02
 -2.2187930e-01
  3.3840280e-02
 -8.2784230e-01
 -9.1718629e-02
  1.1648856e-01
  8.9644063e-01
  1.7216443e+00
 -2.8598478e-01
 -1.0489896e-01
  4.5792714e-02
  9.3756154e-02
  1.7250152e-01
  3.1835157e-01
 -4.0902536e-02
 -3.8858034e-02
 -7.3797181e-02
 -1.7152084e-02
  9.7740129e-02
  7.5108614e-03
  6.8420708e-02
 -8.0532514e-02
 -7.1477681e-02
 -8.5295305e-02
  2.6133168e-01
  1.7328080e-02
 -3.0243355e-01
 -1.1447205e-01
 -3.0897126e+00
  1.1992101e-01
  1.5125370e-01
  4.9411256e-02
 -1.5983677e-01
 -7.5819731e-02
  1.9835970e-01
  1.7924997e+00
 -6.2116131e-02
 -9.4262585e-03
  1.6955879e-01
 -1.4392945e+00
 -1.0487920e+00
 -9.1789442e-01
  1.8209361e+00
  2.9214653e-01
  1.6648607e+00
  1.3610102e-01
 -2.2855797e+00
  1.7330744e+00
  7.9332238e-01
 -1.0937055e+00
  1.0775944e-01
 -6.2835950e-01
  2.6848590e-01
  2.9048193e-01
  8.1550801e-01
 -4.1355304e-02
  4.5547470e-01
  1.1331602e+00
  1.2485144e-01
  1.0160328e-01
  5.4791564e-01
  8.4369056e-02
  6.1140156e-01
 -1.2136485e-01
 -1.0108017e-01
 -3.6388442e-02
  1.2673494e-01
  3.1541348e-02
 -2.5312838e-01
  9.5991589e-02
 -1.3652329e-01
  4.1204900e-02
 -1.3568342e-01
  1.3505621e+00
  8.1307597e-02
  8.1965797e-02
 -2.3772314e-01
 -1.0679306e+00
  2.7404669e-01
 -5.2912515e-01
 -1.9632036e-02
 -1.7251490e-01
  6.1163735e-02
  3.0474251e-02
  2.6581642e-01
 -3.2218620e-01
 -2.6196234e-02
 -3.7147667e-02
  2.8981844e-01
  1.3458206e-01
  2.2829132e-01
 -7.3958851e-02
 -7.4837193e-02
 -4.9078874e-02
 -2.1682855e-02
 -9.1689236e-02
  2.6191629e-02
 -4.7120876e-03
  6.9652181e-03
  2.2279456e-01
 -4.8046604e-02
 -6.2527172e-03
 -7.8827620e-01
 -1.1714017e+00
  1.2790070e-01
  1.7844573e-02
  1.3557321e-01
  6.1535824e-02
 -1.2256910e+00
 -1.7197682e-01
  6.1093781e-02
  3.5282862e-01
  1.4642922e+00
 -1.5010969e-01
 -7.2705939e-02
  3.7334601e-03
 -1.7430284e-03
 -8.0431297e-02
 -1.4402552e-01
 -4.1795787e-01
 -3.3074651e-02
 -3.6660053e-02
  2.8132650e-01
  1.7963303e-02
  1.1420213e-01
 -8.3775595e-02
  4.2074826e-02
 -1.8976057e-01
  2.3163589e-02
 -1.1068108e-02
 -2.8983451e-02
 -2.7388728e-01
  5.3271111e-03
 -8.6112209e-02
 -1.1837151e-01
 -2.3606708e-02
  5.2906770e-02
 -3.4964185e-02
  1.0272814e-01
 -3.4940129e-03
 -1.8664824e-02
  1.6765998e-03
 -2.5681520e-01
 -1.1503135e+00
  8.7039903e-02
 -2.6245192e-02
  6.2689227e-01
  1.5225120e+00
  2.7094567e-01
  7.0835367e-02
  7.4554689e-02
  2.5428310e-01
  9.6283674e-02
 -2.9749534e-01
 -1.7566060e-01
  9.6055970e-02
 -4.0006705e-02
  7.8280807e-02
 -2.0393527e-01
 -2.7386120e-01
 -1.1182466e-02
 -3.5721760e-02
 -3.2382239e-02
 -8.7292092e-03
  9.4772212e-02
 -4.6408676e-02
  1.0964220e-01
  2.2070384e-01
 -2.7327721e+00
 -1.5327910e-01
 -6.9335096e-02
 -3.2945510e-03
 -1.1589090e+00
 -4.9954988e-02
  3.6829554e-03
  1.6711682e-01
 -4.2218077e-03
 -1.3005367e-02
 -2.8951809e+00
 -4.6904091e-02
  2.1706933e-04
 -1.2194622e+00
  1.9428934e+00
 -1.2861486e-01
  3.2891107e-01
  1.8910341e-01
 -2.0398262e-01
 -2.4580099e-01
 -1.4328824e-01
 -6.2994339e-02
 -2.1361653e-02
 -1.6132560e-01
  4.8602261e-03
  2.0586915e-02
 -1.0904994e-01
  9.8277992e-03
 -8.5057840e-02
 -1.2829812e-01
  1.6472724e-01
 -1.0439035e-01
  1.6059968e-01
 -6.5191358e-02
 -8.2662910e-02
 -1.1768375e-01
 -8.1933886e-02
 -6.7361578e-02
  2.4054846e-01
  8.5616536e-02
  1.3436362e-01
  7.3087879e-02
  7.4720696e-02
 -7.1240477e-02
 -8.4489742e-03
  8.9400500e-01
 -1.7581725e-01
 -5.5180311e-01
 -9.2367238e-01
 -7.0080239e-01
 -1.0386589e-01
 -8.6496435e-02
  1.1184262e-01
 -4.9000259e-02
 -1.9493733e-01
  2.6276079e-01
  3.0418229e-01
 -8.2232408e-02
  1.5914651e-02
 -3.6659170e-02
  2.0692764e-01
 -2.7791515e-01
 -4.8731834e-02
  1.8433665e-01
 -1.1052056e-01
 -5.7674959e-02
  6.9544557e-03
  8.6133443e-02
  1.2113582e-01
  2.6218331e-01
  1.2094326e-01
  5.7616282e-02
 -7.5839214e-02
  1.0541956e-01
  1.4771478e-01
  1.0684088e-01
 -3.4336343e-02
  4.0419672e-02
  1.6976279e-01
 -6.9174990e-02
 -1.1754128e+00
 -3.0665287e-01
 -1.5703000e-01
  1.6443290e-01
  1.4721674e+00
  2.0681694e-02
 -3.7913802e-01
  1.5445621e-03
  3.6909886e-02
 -3.0858710e-01
  1.3349254e-01
  1.7448686e-02
  1.2541939e+00
  2.1111244e-01
  2.7559763e-01
  5.5405992e-01
 -5.2403673e-03
  2.3978063e-01
 -3.4554232e-02
 -3.5447057e-02
  1.2684931e-01
 -4.0449012e-02
  1.1634112e-01
 -1.4130683e-01
 -2.4169745e-01
  1.8261868e-01
 -5.4464296e-02
 -4.4038603e-03
  2.6891899e-01
 -5.1704915e-03
  1.2938783e-02
  7.2123356e-02
  9.6525721e-02
  4.7412851e-01
  1.6912821e-01
 -1.6390264e+00
 -1.4727879e-01
  8.3370292e-01
  5.0549197e-01
  1.5963949e+00
 -5.3236914e-01
 -1.1286648e-01
  2.8671789e-01
  1.6757633e-01
 -3.6970145e-01
 -3.5117432e-01
 -7.1489908e-02
  8.1341505e-02
  2.6448873e-01
  2.1555569e-02
 -6.1542865e-02
  6.3214853e-02
 -7.2381631e-02
 -2.3806033e-01
  1.6758686e-01
 -1.3909850e-01
 -1.3042927e-01
 -9.9424452e-02
 -2.3271382e-01
  7.1970530e-02
  1.6955931e-02
 -5.2858561e-02
 -1.9695006e-01
 -3.8423371e-02
  3.7428141e-02
 -2.9297784e-01
  3.9520501e-03
 -4.5943052e-02
  1.5393904e-01
  3.2651298e-02
  1.6776666e-01
  1.0382420e+00
  2.3355494e+00
 -3.0028851e+00
 -3.8268462e-01
 -1.5831000e+00
 -3.4981396e+00
 -1.6089346e+00
  8.4982389e-01
 -2.7407477e+00
 -7.6671183e-02
 -4.5937330e-01
 -3.1357074e+00
 -8.2076257e-01
 -7.7058178e-01
 -1.2888455e+00
 -1.1552172e+00
 -1.0062779e+00
  2.6290901e+00
  1.8929121e-01
 -1.8090075e+00
 -5.0728363e-01
 -1.5492401e-01
  5.8984673e-01
 -6.6819048e-01
  1.9189012e-01
  3.3624195e-02
  3.3816007e-01
 -1.2076972e-01
 -1.2557796e-01
  1.5880539e-01
  2.6789466e-01
 -2.3978022e-01
 -1.1617730e-01
  1.2546165e-01
  1.4583147e+00
 -2.1413977e+00
  1.9517723e+00
  2.0234690e+00
 -1.5626374e-01
 -1.5809994e+00
 -2.2754674e+00
  2.0449889e+00
  1.0120512e+00
 -1.9726449e+00
  3.0774870e+00
 -2.0769825e+00
  2.2334139e+00
 -2.2395811e+00
 -1.4310474e+00
  2.2659883e+00
 -2.2436926e+00
 -2.5701344e+00
 -1.8589745e+00
  2.0372629e+00
  1.4061919e+00
  1.5380857e+00
  2.7191487e-01
 -5.3984098e+00
 -2.2473471e+00
 -2.4547896e+00
  2.0143998e+00
  2.0531049e+00
  2.8961155e+00
 -1.5813174e+00
 -2.0306463e+00
 -2.1071320e+00
  4.4503126e-01
 -1.4326739e+00
 -1.9355246e+00
 -1.8016895e+00
 -2.1288004e+00
 -2.4564385e+00
 -2.7477679e+00
  2.9806981e+00
  1.1674101e+00
  2.2529528e+00
  1.8825285e+00
  2.1539476e+00
  1.2523553e+00
  1.8145194e+00
  2.6385567e+00
  1.7883953e+00
  1.9125283e+00
  2.1723685e+00
  1.7537445e+00
  1.2379837e+00
 -2.2340167e+00
  1.7983824e+00
  2.0126765e+00
  6.3180971e-01
 -2.2066758e+00
  2.1892593e+00
  1.3043935e+00
  1.7711009e+00
  2.9092143e+00
 -3.0955856e+00
  2.2319710e+00
  2.0486059e+00
 -1.7900923e+00
 -2.6284151e+00
 -3.9790945e+00
  2.3118773e+00
  2.6320984e+00
 -1.7337396e+00
  2.7618439e+00
 -3.3474627e+00
  2.4660013e+00
 -3.9384699e+00
 -3.2448351e+00
  2.4532080e+00
 -3.6566105e+00
 -2.7956591e+00
 -6.7003077e-01
  3.4029586e+00
  2.3022349e+00
  5.9381294e-01
  1.3525391e+00
 -2.8391721e+00
 -2.5386381e+00
 -2.7923944e+00
  2.3861454e+00
  1.0478176e+00
  1.6794920e+00
 -1.4709818e+00
 -3.3318560e+00
 -8.4955120e-01
  2.1804345e+00
 -5.7952342e+00
 -2.9252157e+00
 -3.2234924e+00
 -3.4565365e+00
 -1.8849500e+00
 -4.3498540e+00
  6.4702563e+00
  4.3535156e+00
  2.9475977e+00
  2.1434252e+00
  2.4625983e+00
  3.3178439e+00
  2.9125051e+00
  1.4616950e+00
  4.7234708e-01
  4.4723659e+00
  5.2616825e+00
  3.7043104e+00
  3.2166576e+00
 -3.0394168e+00
  2.7596459e+00
  4.8183603e+00
  1.7049398e+00
 -2.8214278e+00
  3.5470364e+00
  5.4323034e+00
 -1.7325352e-01
 -1.6470139e+02
 -5.0396383e-01
  2.0969708e+00
  1.2837404e+00
  8.3567506e-01
  4.8470645e+00
  2.7108560e+00
  1.3292961e-01
  4.9385390e+00
  9.2349279e-01
 -8.1933761e-01
 -3.5570843e+00
 -4.1804042e-01
  1.6322805e+00
  5.4165697e-01
 -7.6843482e-01
  1.3425522e+00
  4.3310852e+00
  1.2289376e+00
  3.4833038e+00
  2.3563163e+00
 -1.7402709e-01
 -3.0639968e+00
  1.8914988e+00
 -2.5552735e-01
 -9.3059659e-01
 -6.9187933e-01
  3.9349031e+00
  2.3028405e+00
 -2.0272031e-01
 -4.7084045e-02
  2.8245533e+00
  1.1903236e+00
 -3.5604835e-01
  2.4696937e+00
  1.0093622e+00
  1.5242879e+00
  7.1806890e-01
 -2.2001979e+00
 -8.5522938e-01
  1.5443475e+00
 -2.2117862e-01
 -8.2628036e-01
  3.4260121e-01
 -3.1520970e+00
 -1.4812750e+00
 -4.7198796e-01
  1.3697933e+00
  2.1344416e+00
 -3.2476752e+00
 -6.6686362e-01
 -1.7609451e+00
 -1.1200287e+00
 -2.5945053e+00
 -2.0585127e+00
 -8.7119859e-01
 -1.7530059e+00
  2.1575859e+00
  4.4355574e-01
  1.3722954e+00
  4.5385081e-02
  5.1296276e-01
 -1.4800322e+00
  1.6379880e+00
  3.6983367e-02
 -8.4196591e-01
 -2.9800509e-03
  1.0012004e+00
 -1.4792674e+00
  2.3983167e-02
  2.7494118e+00
 -3.3060089e-01
 -1.3275731e+00
 -4.5865780e-01
 -2.6259317e+00
  2.7506483e+00
 -3.5895482e-01
  8.3297575e-01
  3.1374276e-01
 -1.7663522e+00
 -1.0462873e+00
 -2.6650293e+00
 -8.7866813e-01
 -1.4525087e+00
 -2.9148786e+00
  6.7699629e-01
  1.5769479e+00
  4.0564734e-01
  2.0312128e+00
  1.6179860e+00
  1.0186092e+00
 -1.0408616e+00
 -5.3233260e-01
 -1.2957675e+00
 -2.1125243e+00
 -2.7726562e+00
 -1.5209702e+00
 -3.8942322e-01
  6.5244508e-01
 -1.8046973e+00
 -4.1399249e-01
 -9.2509055e-01
  2.4993234e+00
 -5.5502123e-01
 -2.0169978e-01
  6.6761607e-01
  7.6340032e-01
 -5.7414013e-01
 -3.7248582e-01
  1.6409186e+00
  2.9265344e+00
 -3.9880589e-01
 -1.0102264e+00
  1.8158433e+00
  1.3545278e+00
  1.6345978e+00
 -1.2820259e-01
 -2.2417965e+00
 -1.6917562e+00
 -2.6871798e+00
 -1.9697361e+00
 -4.5981199e-01
  8.8018119e-01
 -1.1033069e-01
 -4.9225818e-02
  2.5598497e+00
 -3.2656580e-01
 -5.1056765e-02
 -9.4357169e-01
  2.1817527e+00
 -4.9592461e-02
 -1.8144857e+00
 -1.8070183e+00
  1.0122509e+00
  4.7143883e-01
 -1.3791585e+00
 -1.2972929e-01
 -5.2665865e-01
  2.3527169e-01
 -5.3643727e-01
 -3.2353011e-01
  6.8771100e-01
  8.4527773e-01
  8.8198972e-01
 -9.2549004e-02
 -3.4495342e+00
 -5.8343248e+00
  2.7398244e-01
 -1.3611076e+00
 -4.6352515e-01
 -4.7109896e-01
  2.1124227e-01
  2.1581032e+00
 -1.2967235e-01
 -2.1734436e+00
 -2.5484569e+00
 -3.3313174e+00
 -4.5166522e-01
 -2.5642519e+00
 -1.6639960e+00
 -1.0851456e+00
 -3.1955898e+00
 -1.4540784e+00
 -9.6901631e-01
 -2.0665910e+00
 -1.5109185e+00
 -6.2046450e-01
 -1.0235023e+00
 -2.1229565e+00
 -2.1229520e+00
 -1.4820300e+00
 -1.5269492e+00
 -2.2872667e+00
 -2.4728832e+00
 -2.2723397e-02
 -1.8735925e+00
  4.3224874e-01
 -6.6802657e-01
  3.2105803e-01
 -8.5032845e-01
 -3.2744372e-01
 -6.4183819e-01
  1.2313573e+00
 -1.4225404e+00
 -4.9054715e-01
  9.3750596e-01
  2.2794051e+00
 -9.1119695e-01
 -3.5755789e+00
 -3.8183594e-01
 -1.8060300e+00
 -3.5968444e-01
 -5.3776056e-01
  1.2357771e+00
 -9.7245455e-01
  6.4984727e-01
 -1.0514737e+00
 -1.8185540e+00
 -2.5811465e+00
  4.1714013e-01
 -1.4142673e-01
 -3.3338925e-01
 -1.0270762e+00
  2.9581124e-01
  2.5106819e+00
  6.0869658e-01
  1.3921067e+00
 -7.5299692e-01
  3.2910553e-01
  1.4342995e+00
  2.6475675e+00
  1.1265010e+00
 -1.5260337e-04
  3.7991062e-01
  1.2988435e+00
  7.7434945e-01
 -1.0313569e+00
  4.1635904e-01
 -9.5395315e-01
 -8.9558864e-01
 -5.0746936e-01
  4.1077309e+00
  2.3032489e+00
  3.1083221e+00
  1.4464018e+00
 -8.8017577e-01
 -6.5640283e-01
 -4.2175114e-01
 -1.0959341e-01
  3.4244937e-01
  1.1832080e+00
  7.1521974e-01
  1.3387065e+00
 -1.2224672e-01
  3.9909449e-01
  1.1857831e+00
  1.3067906e+00
 -1.5380598e+00
 -9.2782670e-01
 -6.6451806e-01
  1.0111313e-01
 -6.5786231e-01
 -2.0678769e-04
  3.7372100e-01
  2.2771846e-01
 -3.9623853e-02
  3.0906560e-02
  1.4594913e+00
  4.5274374e-01
  8.9167312e-02
  1.7771795e-01
  1.0910321e+00
  7.4122541e-02
  9.0172404e-01
 -3.6932436e-01
 -5.2568501e-01
 -5.9263200e-01
  4.6133313e-01
  1.4322162e+00
 -1.0290935e-01
  7.7596307e-01
 -9.9672550e-01
  1.5165296e-01
  1.9013575e+00
 -2.3351517e+00
  1.8168937e-01
  3.2353383e-01
 -4.2770602e-02
  1.3111334e+00
  1.1289041e+00
 -4.2975548e-01
 -2.8530302e+00
  1.2748811e+00
 -5.6625229e-01
 -3.3149293e-01
 -6.6020393e-01
 -6.1785901e-01
 -5.6126378e-02
  1.2547491e+00
  9.4684923e-01
  5.3163296e-01
  3.2009062e-01
  1.1063935e+00
  1.5571102e-01
  1.6822864e+00
  3.6779407e-01
  9.0068191e-02
 -3.5852343e-01
  6.8447262e-01
  1.1952869e-01
  6.2297064e-01
 -9.3500173e-01
 -1.6376441e+00
 -4.4547391e+00
 -2.4145820e+00
 -1.1120912e-01
  9.2974097e-01
  8.9865401e-02
  4.8196203e-01
  7.2494984e-01
  1.0870415e+00
  1.8665521e-01
 -9.6602887e-01
 -1.3798038e+00
 -1.1804162e+00
 -1.9986122e+00
 -2.0304642e+00
  3.2147344e-02
  8.7717623e-01
 -4.7637889e-01
 -1.0606357e+00
  7.3270120e-02
  1.3929603e+00
  7.5390363e-01
  1.7807676e-01
  6.8185914e-01
  5.7063365e-01
  2.2880790e-01
  1.4555889e-01
  8.2328874e-01
 -4.6679419e-01
 -1.3735607e-01
  5.8080018e-01
  1.8510026e-01
 -8.7914991e-01
 -6.1684400e-01
 -2.0936537e+00
 -3.0400272e-02
  1.3654454e+00
  9.4133896e-01
  1.7223301e+00
  1.3322690e-01
 -7.6889865e-02
 -2.1751938e+00
  1.0089417e-01
 -5.4893994e-01
 -1.8430360e-02
 -4.8505494e-01
  1.9299681e+00
  6.9460404e-01
  3.7651435e-01
  2.4114579e-01
  4.3988818e-01
 -1.2169569e-01
 -1.7186859e+00
  9.5739579e-01
 -3.6733650e-02
 -4.9198285e-01
 -4.5547619e-01
  1.9480376e+00
  1.0457401e+00
  5.0163752e-01
 -3.0894622e-02
  1.4448345e+00
  1.2047607e+00
  2.2959824e-01
 -9.0926141e-01
  6.6668558e-01
  4.9946475e-01
 -1.6658545e-01
 -7.9156744e-01
  2.9616835e-02
  2.9616835e-02
  2.9616835e-02
  2.9616835e-02
  2.9616835e-02
  2.0425856e-01
  2.0425856e-01
  2.0425856e-01
  2.0425856e-01
  2.0425856e-01
  1.6406114e-01
  1.6406114e-01
  1.6406114e-01
  1.6406114e-01
  1.6406114e-01
  5.0968606e-02
  5.0968606e-02
  5.0968606e-02
  5.0968606e-02
  5.0968606e-02
  2.4840077e-02
  2.4840077e-02
  2.4840077e-02
  2.4840077e-02
  2.4840077e-02
  1.8215278e-01
  1.8215278e-01
  1.8215278e-01
  1.8215278e-01
  1.8215278e-01
  8.9403339e-02
  8.9403339e-02
  8.9403339e-02
  8.9403339e-02
  8.9403339e-02
