nep4_zbl 2 Ga In 
zbl 1.25 2.5 0.7
cutoff 6 5 68 39
n_max 4 4
basis_size 8 8
l_max 4 2 1
ANN 60 0
  1.3833615e-02
  6.7032672e-02
 -9.1167396e-01
  8.2202101e-01
  1.0932119e+00
  4.3884359e-02
 -2.0602583e-03
 -9.2338115e-02
 -1.7452574e-01
 -5.5056497e-02
  1.1493619e-02
 -1.0136477e-01
  2.0040123e-02
 -6.8597749e-02
 -1.3496767e-02
  3.1064752e-02
  1.1057805e-01
 -8.8086482e-03
  1.4851591e-02
 -1.2564169e-01
 -9.3082435e-02
 -7.1031959e-03
  2.2690736e-02
  2.3738749e-02
  2.6120409e-02
  8.5406929e-02
  3.9291818e-04
 -6.1515473e-02
 -3.4512606e-02
 -1.1514139e-02
 -3.8574580e-02
  2.0361826e-02
 -8.7228820e-02
 -1.0022213e-02
 -5.8345753e-03
 -5.4897696e-02
 -1.4920592e-01
  9.5463157e-01
 -4.6327305e-01
 -1.4582331e+00
  1.4593749e-02
  8.7251797e-02
 -7.0300028e-02
  7.7042453e-02
 -4.5616500e-02
  1.9081319e-02
 -1.7077856e-02
 -1.1294791e-02
  5.9397336e-02
 -7.5462200e-02
 -1.4069730e-01
 -2.7161112e-01
 -6.8310380e-02
 -6.9146380e-02
 -4.3479204e-02
  2.5832733e-02
  3.7026070e-02
  3.0106734e-02
 -1.5351418e-02
  4.9381934e-02
  7.2683357e-03
  7.4302956e-02
  2.3219376e-03
 -6.5655291e-02
 -4.9348842e-02
  3.2110989e-02
 -7.6771617e-02
  1.2816343e-02
 -7.0415415e-02
 -4.0964920e-02
 -4.5043636e-02
  1.9353062e-02
 -6.9332743e-01
  6.8026143e-01
  1.5394167e+00
  2.3561392e-02
 -1.5600584e-02
  6.2114345e-03
 -1.0241640e-01
 -3.6675245e-02
 -3.4043428e-02
 -2.8735760e-03
 -6.3564694e-03
  3.0995335e-02
 -1.4909760e-03
  4.9056751e-03
 -2.6026206e-02
 -2.8741384e-02
 -1.4807184e-01
  3.8921259e-02
  2.1266504e-03
  6.2421714e-03
 -3.5885754e-01
  9.6710706e-03
  5.4043945e-02
  4.9532298e-03
 -1.6340816e-02
 -1.7571271e-03
 -3.0454138e-02
  4.9011227e-02
  3.8633034e-02
 -3.4857024e-03
  1.5143656e-02
 -2.1658547e-01
 -1.4563870e-02
 -5.2562553e-01
 -2.2750332e-03
 -7.1546882e-01
  2.5169620e-01
  1.1713173e+00
 -1.0709247e-02
 -2.2977792e-02
  4.7486413e-02
  3.4900650e-02
 -1.6101897e-01
 -4.6612169e-03
 -3.2985304e-04
  2.0421255e-02
 -1.1396110e-02
  5.6658719e-02
  1.5834566e-02
  8.2868058e-03
  7.0238791e-02
 -4.0339716e-03
  7.7097394e-02
  1.9187962e-01
  6.5520448e-03
  2.5894135e-02
  2.6298340e-02
 -8.9466564e-02
 -7.9230564e-03
  7.3919632e-02
  4.7093384e-02
  4.3380544e-02
  1.7009484e-02
 -2.3887551e-03
 -4.2387303e-03
  3.0509606e-02
 -2.6658889e-02
 -7.6416746e-02
  6.1309814e-02
 -5.7490142e-03
  1.1179081e+00
 -3.8195026e-01
 -1.2511470e+00
  1.4553123e-02
  6.5249209e-03
 -3.2953493e-02
 -6.2208483e-03
 -1.6974309e-02
 -6.2118401e-03
  1.2671798e-01
  1.5923010e-02
  1.8824176e-01
 -1.1690959e-01
 -1.9245161e-01
 -3.6857285e-02
 -5.7299666e-02
 -2.4179449e-02
 -1.3493086e-02
 -3.5226241e-02
 -7.4820342e-03
  1.2002748e-03
  9.2488443e-03
  9.3008444e-02
  1.0283998e-02
 -7.0196874e-02
 -1.5610790e-02
 -7.1202204e-02
  6.8569861e-02
  8.9176342e-02
  2.1191031e-02
 -3.7558181e-03
 -6.8766914e-02
  1.7240804e-02
 -2.0208092e-02
  1.1546636e-02
 -8.5307652e-01
  4.1037029e-01
  1.2158426e+00
  1.1498751e-01
 -1.0084337e-02
 -2.8364463e-02
  2.3034910e-02
 -3.3607397e-02
 -9.2748210e-02
 -2.5433162e-02
  2.8804762e-02
  1.6437059e-05
 -2.2270622e-02
  2.0016320e-02
  6.0665123e-02
  2.3480626e-02
  6.0565386e-02
  6.2552087e-02
 -2.0934321e-02
 -8.4221482e-02
 -9.1643676e-02
 -9.0077386e-04
  1.0406961e-02
  3.3003934e-02
 -6.2942252e-02
  6.4906850e-02
  9.3732597e-03
 -2.3314778e-02
  9.5547782e-03
  3.4670273e-03
 -6.0047071e-02
  6.3570030e-04
  6.5927796e-02
  1.6723905e-02
  2.7220663e-02
  8.2744718e-01
 -2.8118461e-01
 -1.2106187e+00
 -2.8558113e-02
  5.6952459e-04
  1.1831210e-01
  4.1979174e-03
 -1.7129179e-02
  8.9061335e-03
  3.4160972e-02
 -1.4843155e-03
 -6.5633911e-03
 -1.4198116e-02
  2.2812665e-02
 -2.3013325e-03
 -2.6294764e-02
 -8.6800838e-03
 -3.7910964e-02
  6.0869870e-03
 -2.2247009e-02
 -7.9185903e-02
 -5.1322635e-02
 -5.0332759e-02
  3.0878871e-03
  4.1065780e-03
 -5.1459890e-02
 -1.6758166e-02
  1.1865970e-02
 -1.2979902e-01
  2.8217949e-02
  1.3511645e-02
  2.2188471e-01
 -3.3921065e+00
  6.0746237e-04
 -5.0950103e-02
 -1.0341076e+00
  2.7949536e-01
  1.2697560e+00
  2.9523499e-02
  7.2112054e-02
  8.4919104e-04
 -1.3627021e+00
  2.5275280e-03
  3.9207298e-02
  3.4860570e-02
  4.2888973e-02
 -8.8592554e-03
 -1.2402611e-02
 -1.2459013e-01
  7.6975897e-03
  1.9537820e-02
  1.4840282e-01
 -1.0455438e-02
  3.8697828e-02
  7.8014605e-02
 -5.0445247e-02
  1.2926003e-02
 -4.5970764e-02
  1.8506449e-02
 -5.2620899e-02
  1.3275112e+00
 -2.3320632e-02
 -3.7620834e-03
  3.0633932e-02
  5.2129742e-02
 -8.6839767e-03
  5.6005538e-02
  9.2868637e-03
  3.9340831e-02
 -1.4881207e-01
  8.1182981e-01
 -6.7744851e-01
 -1.3204205e+00
  1.1151318e-02
  3.4708943e-02
  5.6747649e-02
  5.8038987e-02
  1.1423879e-01
 -8.5453242e-03
 -3.8935846e-01
  3.2412838e-02
  1.5214688e-02
 -1.4715800e-01
 -4.4596642e-02
  3.7463896e-02
 -7.5738439e-03
 -7.1717866e-02
  3.9746384e-03
  9.2324309e-02
  1.8596224e-01
 -4.0003784e-02
 -2.5917016e-02
  8.1461426e-03
  3.0311184e-02
  6.5708101e-02
  5.6770142e-02
  1.8297855e-02
 -7.5866096e-02
 -7.0587195e-02
  1.1934757e-02
 -1.3324584e-01
 -4.4196624e-02
  2.3689240e-02
 -7.6305792e-02
 -1.2659691e-03
 -1.1820184e+00
  3.0616206e-01
  1.0441213e+00
 -1.6335294e-02
 -6.1959058e-02
 -9.4377743e-03
  3.5105791e-02
  3.2472657e-03
  2.0568406e-02
 -9.2862286e-03
 -1.8500142e-02
  1.1126877e-01
 -2.3296623e-02
  5.6385227e-02
  2.5278311e-02
 -1.1943802e-02
  8.7258086e-02
  9.1773964e-02
 -2.2474825e-03
  6.2905081e-02
  8.5128516e-02
 -1.2684988e-02
  2.6693966e-02
  5.0501343e-02
 -5.6399070e-03
 -1.1137260e-01
 -5.5947568e-02
 -2.8379735e-02
  8.2366895e-03
 -9.0261005e-02
 -2.3128718e-02
  2.7022980e-02
  3.0477492e-02
  3.4330033e-02
 -4.0633809e-02
 -1.0844160e+00
  5.1917142e-01
  1.1359220e+00
  2.8859859e-02
 -6.5831713e-02
  1.3250040e-01
  5.9230532e-02
 -9.9701416e-03
  6.8686088e-03
 -2.1592116e-02
  6.1736889e-02
  2.9530065e-02
  7.5338341e-02
  1.2216524e-01
  5.1364504e-02
 -5.3209536e-02
  2.7842121e-02
 -1.3763320e-02
  2.8340857e-02
  3.5285648e-02
 -8.7173901e-02
  1.2051179e-02
 -1.5413384e-01
 -4.2522695e-02
 -1.2070062e-02
 -4.1403126e-02
  3.5385504e-02
 -1.2054684e-03
  3.1794414e-02
  7.4859127e-02
  1.4844775e-02
  1.5611378e-02
 -3.3417877e-02
 -1.6092353e+00
  4.1268089e-01
  1.3919579e-02
 -1.0969763e+00
 -4.4727009e-02
  5.9205428e-02
  1.0186238e-01
  8.4128171e-02
  1.3014837e-01
  2.3624508e-01
 -1.8014041e-01
 -1.0351517e-01
 -5.9811058e-03
 -2.0417918e-02
 -1.2987522e+00
  2.1953713e-03
  1.0433249e+00
 -1.1563196e-01
 -1.1895491e-01
 -5.1717597e-01
  1.5385693e-02
  7.2295710e-02
 -2.5565371e-02
  6.7272700e-02
 -3.6345512e-01
  3.3194747e-02
  7.8926988e-02
 -3.3277930e-03
  3.4901351e-02
  3.5543114e-02
  3.6661353e-02
 -2.6528170e-02
  2.6404047e-02
 -1.2084250e-01
  7.6742638e-03
  4.0972721e-02
  5.0427064e-02
  9.0806442e-01
 -4.6930817e-01
 -1.3447553e+00
 -1.5743501e-02
  1.1919717e-01
 -1.6220693e-02
  1.0511101e-01
 -4.0581521e-02
 -1.1828135e-01
 -6.0124580e-02
  2.8894257e-03
 -3.7366007e-02
  6.4227879e-02
 -4.9595699e-02
  6.2070084e-03
 -1.5383312e-02
  3.6810383e-02
 -1.1314818e-02
 -3.1774156e-02
  2.6166443e-02
  2.9079724e-02
  1.6965028e-02
  2.2756351e-02
 -9.2520732e-03
  7.9657793e-02
  5.2456930e-03
  5.8718868e-02
 -9.2388630e-02
 -1.2948409e-01
 -1.5072720e-02
  2.4726920e-02
  6.1729252e-02
  7.7074661e-04
  8.0677122e-03
  1.7280117e-02
 -7.0644760e-01
  1.3325499e-01
  1.1044881e+00
 -6.7289285e-03
 -6.5715522e-02
  2.1799016e-01
  3.2320283e-02
 -1.7194653e-02
  1.1944006e-01
  2.4380302e-02
 -2.7636481e-02
  3.6498571e-03
 -2.7292589e-02
 -9.2297219e-02
  3.7293602e-02
  4.5742158e-02
  1.6552668e-02
 -3.1681392e-02
  1.2179752e-02
 -6.4164653e-02
  1.0112035e-02
  2.6046496e-03
  3.7548481e-03
 -4.1563652e-02
  7.0813317e-03
 -3.2081490e-04
 -9.2748459e-03
  2.8876593e-02
  3.0904643e-03
 -1.4048627e-02
  1.0385313e-01
 -1.8406237e-02
  1.1590055e-02
 -3.5141551e-01
 -1.0386902e+00
 -3.2732779e-01
 -4.5374623e-01
 -1.2239246e+00
  8.4433027e-02
 -1.1843200e-01
  1.7870622e-02
 -1.6100833e-01
 -1.9934565e-01
 -9.7555034e-03
  6.1067951e-01
  4.4504923e-01
 -1.0077484e-01
 -1.2706002e+00
 -2.4930769e-01
  8.1894293e-02
  1.7462252e-01
 -8.1692553e-01
 -1.3917495e-01
  2.1262560e-03
  1.6545005e-01
 -2.8189920e-02
  1.1556811e-01
 -1.2664230e-02
 -1.3154615e-02
  1.9196862e-02
 -4.4446073e-02
 -4.4152763e-02
 -6.3589357e-02
  1.8556349e-02
  3.1163074e-02
  3.3200603e-02
 -6.3249588e-02
  6.0411729e-02
  8.1611830e-01
 -1.0296706e+00
  5.4790187e-01
 -4.8188093e-01
  5.5363107e-01
 -9.0063676e-02
  1.9540026e+00
  8.2212287e-01
 -4.5766342e-02
  2.4094817e-01
 -1.4296462e-01
 -7.7893585e-01
  2.1435708e-01
 -4.5840895e-01
  2.0431213e+00
 -8.9639612e-02
  9.3297577e-01
  5.0710738e-01
  2.1870334e+00
 -4.7695580e-01
  1.2209848e-01
  2.1774459e+00
  4.1210711e-01
  5.1708952e-02
 -6.0501212e-01
  4.2388448e-03
  2.9819071e-01
  1.0800447e-01
 -8.2879290e-02
  8.0661441e-04
  4.9687546e-02
 -8.7854040e-01
 -1.4928663e-01
 -4.3880675e-02
 -9.0201187e-01
  8.7620001e-03
  2.6921678e-02
 -1.0768669e+00
  3.9276439e-01
  8.6266762e-01
 -7.6789983e-02
  3.7324008e-02
  3.9087474e-02
  4.9980223e-02
 -1.0528568e-01
  1.1200688e-03
 -2.4088344e-02
 -3.3468988e-02
  2.0312903e-02
  8.6459205e-02
  5.5829175e-03
  1.2212544e-02
  2.0571148e-01
  8.1800461e-02
 -3.9193466e-02
 -7.4457191e-02
  4.4317329e-01
  1.8150831e-02
  2.8715700e-02
  4.6470873e-02
  8.6132534e-02
  1.7323796e-02
  1.0743088e-02
 -6.8506800e-02
 -1.0768113e-01
  3.4771389e-01
 -4.2235613e-02
  1.0996389e-01
 -3.1247610e-02
  3.0490106e-02
 -3.3820461e-02
 -9.8143453e-03
  1.0013115e+00
 -5.6422335e-01
 -1.2371799e+00
 -1.9966795e-03
  5.6795564e-02
  1.9481633e-02
  7.7572815e-02
  5.8682635e-02
  3.1123940e-02
  3.7522543e-02
  4.1457815e-03
 -4.3257833e-02
 -3.0065240e-02
  9.2472369e-03
 -6.8738097e-03
  7.9465890e-03
  9.6584745e-02
 -5.8261333e-03
 -4.2929672e-02
 -3.9504878e-02
  7.5753681e-02
  1.5729096e-02
 -4.2260699e-02
 -7.1361017e-01
 -8.7343134e-02
  7.5637445e-02
  3.6127094e-02
  4.8277073e-02
 -1.5585845e-02
  3.5637661e-03
  8.4182031e-02
  9.8327491e-03
  1.1774092e-02
 -4.5248890e+00
  1.4343915e+00
 -1.0323167e+00
  4.7569227e-01
 -1.4837136e+00
 -1.1658129e-02
  4.5730478e-01
  7.3441440e-01
 -3.5184417e-02
  5.1110333e-01
  1.0436823e-01
 -1.1304045e+00
 -1.0832336e-01
  7.4967012e-02
 -4.4021556e-01
 -1.0004867e-01
  6.6240944e-02
 -1.6605052e+00
 -7.5335312e-01
 -9.6652955e-01
 -3.8173145e-03
  4.6315700e-02
 -6.3084131e-01
 -8.4408134e-02
 -5.8016300e-02
  7.3595248e-02
 -2.6281478e-02
 -3.6015645e-02
 -1.1357294e-02
  8.7461628e-02
 -3.3745971e-02
  6.8845116e-02
 -6.1173066e-03
  3.9864931e-02
 -2.5317566e-02
  1.7511431e-02
 -1.2892571e-02
  1.0031523e+00
 -4.9203810e-01
 -1.2146528e+00
  3.8938850e-02
 -6.7582779e-02
  2.7840836e-02
 -3.4244705e-02
 -3.1117878e-03
 -4.1609149e-02
 -2.5684882e-02
  2.6867211e-02
 -5.1020211e-01
  2.2158809e-02
 -2.4861077e-02
 -4.6483129e-02
 -5.1710378e-02
 -3.1847507e-02
 -9.9386722e-03
  1.9340623e-02
 -6.8190813e-02
 -2.2280177e-02
  1.3372648e-02
  1.1593934e-02
 -1.3093726e-01
  1.1986804e-02
  8.0724750e-03
  1.0405204e-02
  4.6274610e-02
  4.0412867e-03
 -1.6882988e-04
 -1.9174941e-02
 -4.3689188e-02
 -1.2741049e-02
  4.6949856e-02
 -1.7857768e-02
 -1.1601951e+00
  1.0206923e-01
  1.1731493e+00
 -1.2418569e-02
 -2.6024675e-02
  7.1775295e-02
 -4.8805770e-02
  4.4551782e-02
  1.2752268e-02
 -9.4283953e-02
 -4.4242196e-02
  3.2766558e-02
 -1.1435039e-02
  3.7623434e-03
  1.0805863e-01
 -4.3531302e-02
  2.5040053e-02
  3.3009166e-03
 -2.9405780e-02
  2.9625408e-02
  8.6637244e-02
  2.9393143e-03
  3.1168874e-02
  1.8992826e-02
  2.8758058e-02
 -5.7786703e-02
 -5.4899231e-02
 -8.9575134e-02
 -8.6070551e-03
  2.1142738e-03
  8.6648405e-02
 -9.1689788e-02
 -1.9399134e-02
 -3.9096519e-02
 -2.7125239e-02
 -1.1313719e+00
  4.3686166e-01
  1.3032742e+00
  9.0244658e-02
  8.4587656e-02
  3.5153013e-03
 -2.1295860e-01
 -1.3479087e-02
 -5.4744696e-03
 -1.0079194e-01
  4.3134317e-02
 -1.9372571e-02
  4.7320914e-02
  9.3507813e-03
  1.7976567e-02
  4.2973112e-02
  7.9413407e-02
  4.1269150e-02
 -1.7250968e-02
 -4.2680420e-02
 -1.3927138e-02
 -5.6455508e-03
  5.3756613e-02
 -3.3969972e-02
  4.4776805e-02
 -4.6323524e-03
 -1.0131897e-05
  1.2579300e-01
 -8.1397602e-03
 -5.0822642e-02
 -2.0993805e-02
  1.4013182e-01
 -4.8717987e-02
 -2.0283161e-02
 -4.7015771e-03
 -1.0330918e+00
  5.2367151e-01
  1.0976242e+00
 -7.5604068e-03
  1.9913966e-02
  5.8012888e-02
  1.2557840e-01
 -5.2775387e-02
  1.1717881e-01
  5.0406627e-02
  2.9562052e-02
 -4.0907189e-02
  5.0977610e-02
 -7.2646126e-02
 -5.3841755e-02
 -2.0659121e-02
  6.2915242e-01
 -2.9132009e-02
  4.2751361e-02
 -2.3679237e-04
  9.3813822e-02
  1.6913015e-02
  5.5827769e-03
  1.8460669e-02
 -8.4277680e-03
  1.5034643e-02
  3.3386617e-03
  1.4035477e-01
  4.8460614e-02
 -7.1233891e-02
 -7.3501214e-02
  3.3837251e-02
 -1.1587977e-01
 -1.2845825e-01
  4.2219847e-01
  7.6658714e-01
 -3.8591239e-01
 -1.8423341e-01
  1.4847079e-01
 -2.0178452e-02
  5.0239556e-02
  2.2885174e-02
  2.7133268e-03
 -8.7375371e-03
 -2.8652482e-02
 -1.8366063e-01
  9.6165929e-03
 -3.1921901e-02
 -1.2875672e-01
  3.8276017e-02
 -2.0250557e-03
 -3.1353746e-02
  3.9892036e-02
  1.1194638e-02
 -2.7360275e-02
 -9.5916629e-02
  9.1546305e-02
 -1.7899454e-02
  1.6315518e-02
 -1.4681506e-02
 -2.0977084e-02
  3.6550355e-03
 -6.1686479e-02
 -8.7725371e-02
  3.4105446e-02
  2.1326317e-02
  9.5996596e-02
 -6.3351080e-02
 -3.2947451e-02
 -4.8299190e-02
  1.0031685e+00
 -7.3753032e-03
 -1.0673031e+00
  8.7364968e-03
 -4.3402258e-03
  2.6065130e-03
  8.1215605e-02
 -1.9899029e-02
 -1.4245375e-01
  1.5915977e-02
  3.8843621e-02
  7.4728221e-02
  8.9087207e-03
 -9.6080005e-02
 -2.2501505e-03
 -5.7884324e-03
  4.7900164e-03
 -5.6308549e-02
  1.8711636e-02
 -7.4362166e-02
  3.2720521e-02
 -1.6762786e-02
  1.5608629e-02
  7.4754536e-02
 -1.7059099e-02
 -1.1330688e-01
 -8.0078892e-02
 -1.6589860e-02
  1.5052655e-03
  3.9257411e-02
 -3.2073651e-02
  1.3890764e-01
 -3.5342388e-02
  7.6193647e-03
 -2.8937630e-02
  1.3306080e+00
 -3.7605208e-01
 -8.4990817e-01
 -1.2645938e-02
  7.2196829e-01
  4.8284981e-02
  2.0745052e-02
 -9.7421454e-03
 -8.5971661e-02
  5.9025297e-03
  2.5611738e-04
  2.4211951e-02
  7.7108443e-02
 -1.4037058e-02
  7.4325815e-02
 -3.9157182e-02
  6.9138356e-02
  5.1815152e-02
  9.6562214e-02
  6.0301325e-03
  2.8484065e-02
 -3.2056183e-02
  1.0576500e-01
  2.2442775e-02
 -1.7907910e-02
  3.7082218e-02
 -2.0741686e-02
 -6.1261829e-02
 -2.4737462e-03
  3.3870488e-02
 -1.6412595e-02
 -6.4802088e-02
  4.2835966e-02
  3.8663577e-02
  1.1000432e-01
 -7.8723258e-01
  6.1107028e-01
  8.8273382e-01
  1.1403197e-01
  1.4140086e-01
 -7.9106726e-02
 -9.7791336e-02
 -1.3835445e-02
 -5.2399524e-02
  1.2195220e-01
 -2.1786537e-02
 -4.2017460e-02
  8.8523597e-02
 -7.0366986e-02
 -3.6326040e-02
  1.5109095e-01
  8.1320077e-02
  1.3284461e-01
  3.3989243e-02
  6.1712768e-02
  4.4968650e-02
  7.1591849e-04
  3.0071592e-02
 -9.9752277e-02
 -2.0657452e-02
  3.0568073e-02
  1.0001821e-02
  8.0328546e-03
  4.4885423e-02
 -3.7153177e-02
  6.8673827e-02
  7.8878015e-02
  1.3604524e+00
  7.4923210e-02
 -9.0160765e-02
  9.2319399e-01
 -3.1806561e-01
 -1.3984483e+00
 -1.9622238e-02
 -4.3296330e-02
  4.3229461e-02
 -5.0326459e-02
  3.0523000e-02
  7.2978437e-02
 -1.1894426e-01
  2.6459869e-02
  1.3893686e-02
 -1.3102479e-02
 -3.8526617e-02
  3.8575489e-02
  2.1403123e-02
  3.3435531e-02
 -4.5714734e-04
  1.5749045e-02
  4.6277698e-02
  1.0659901e+00
  3.1393182e-02
 -2.2730457e-02
 -3.0945366e-02
 -5.6190784e-03
 -3.4205336e-02
  3.2437090e-03
  9.2071205e-02
 -4.8064902e-02
  1.4902587e-02
 -1.0899296e-02
  1.1695062e-01
 -3.7129469e-02
  1.1601167e-01
  7.1523190e-02
 -1.1978055e+00
  4.9435636e-01
  1.2723532e+00
  7.2758101e-02
  7.1629770e-02
  3.3448797e-02
 -3.2082297e-02
 -1.1974551e-02
  7.2552725e-03
  1.9662037e-02
  1.2468336e-02
 -8.4497303e-02
 -3.7132313e-03
 -3.2200915e-01
  1.5458328e-03
  1.1054919e-01
  6.4582266e-02
  2.3154708e-02
  2.6481899e-02
 -1.9506799e-02
 -8.7015294e-03
  1.1035551e-01
  6.1070928e-03
 -7.4578844e-02
  2.6425773e-03
  1.6003194e-01
 -1.4279811e-02
 -2.6149627e-02
  2.0632581e-03
 -5.8071680e-02
 -8.2633264e-02
  3.4797560e-02
  7.9945749e-01
  8.9601249e-02
  6.7566554e-03
 -1.0972768e+00
  4.1229641e-01
  9.3436128e-01
  3.3451919e-02
 -4.0495601e-02
  6.2715332e-03
 -3.5042770e-02
 -7.5438850e-02
  8.4419630e-02
  1.0024738e-04
 -1.2146892e-02
 -6.6854231e-02
 -3.5924509e-02
 -1.3678757e-02
  6.9654407e-03
  1.8564163e-02
 -6.6703400e-03
  6.3416478e-03
  7.0107974e-02
 -5.9055164e-02
  4.4804234e-03
 -1.1428985e-02
  1.2777913e-01
 -1.6960689e-01
 -5.8524460e-02
  5.9995507e-03
 -2.2716818e-02
  7.2014078e-02
  5.8932286e-02
  5.2289227e-03
 -8.6154789e-02
  6.9093272e-02
  1.3098584e-01
 -2.3320392e-02
  5.7853679e-03
 -7.1854573e-01
  7.8526974e-01
  9.7907329e-01
 -4.0232863e-02
  1.6927715e-02
 -1.3471596e-02
  6.5547921e-02
 -9.4307877e-02
  1.1956599e-01
 -2.7977485e-02
 -1.1742469e-02
  5.1851660e-02
  3.6854636e-02
 -5.9845027e-02
  1.3742470e-02
  5.2280128e-02
  1.0608233e-01
  3.0545205e-02
 -7.5980663e-02
  1.0541727e-02
 -1.0119845e-02
 -5.2153174e-02
  3.1668060e-02
  4.6304137e-02
 -1.5300415e-02
  2.0679001e-02
 -3.8722713e-02
 -8.0678845e-03
  2.1498142e-02
 -2.7663946e-02
 -3.1277455e-02
  4.5130424e-02
 -2.9443592e-02
  6.4736016e-02
  4.6419859e-02
 -7.9495865e-01
  1.6045423e-01
  1.1314803e+00
  1.4997318e-02
 -5.7147704e-03
 -9.0881567e-03
 -4.2279437e-02
  2.1835463e-02
  1.4381064e-02
  2.8200146e-02
 -1.7314281e-02
  4.7861900e-02
 -3.1084102e-02
  2.4603910e-03
 -2.1248205e-04
 -3.4072179e-02
  3.3300575e-03
  1.9843968e-02
 -3.5622404e-03
  4.2660017e-02
  3.6533874e-02
 -1.6960451e-02
  3.5594352e-02
  4.9063809e-02
 -7.6286674e-02
 -9.1545790e-02
 -9.3041323e-02
  1.8192319e-02
  1.0997227e-02
 -5.8732420e-02
  9.9442629e-03
  2.8059878e-03
  6.9257416e-02
  7.7238166e-01
  1.6431340e+00
 -1.9301162e+00
 -1.2109295e+00
 -1.4459983e+00
  8.6825800e-01
  4.4250511e-02
  6.9934160e-02
  5.0935306e-02
  2.1108305e-01
 -4.5280895e-01
 -1.2438868e+00
 -4.1363612e-01
 -3.9638573e-01
 -2.0169893e-01
  6.9542170e-01
 -1.2469160e-01
  2.1369987e+00
  1.2606037e+00
  1.6516904e+00
 -3.3319563e-01
 -2.0632927e-01
  1.3310267e-01
 -2.1217382e-01
 -1.9941393e-01
  5.5670913e-02
  3.4654871e-02
  7.5845611e-03
  1.3248847e-01
  2.7634334e-02
  3.0051552e-02
 -3.7039984e-02
  4.8282303e-02
  3.0374004e-02
 -1.4478999e-01
 -6.9430006e-01
 -2.2299096e-01
 -1.2584913e+00
 -5.8927095e-01
 -9.2821926e-01
 -5.4761518e-02
  1.0328991e-01
  5.1389253e-01
  4.2943862e-01
  1.6593014e+00
 -9.5787928e-02
 -1.2727057e+00
  6.3040994e-02
  8.3947170e-01
 -1.2357787e+00
  2.7692804e-02
 -1.4372640e-02
 -1.9016799e-01
 -2.9765463e-01
 -1.1785815e+00
 -1.3037547e-02
 -2.3786858e-01
 -1.9702214e-01
 -2.1702431e-02
 -8.2093215e-01
  6.6419981e-02
 -1.1430090e-02
  6.5155216e-03
  2.5128642e-02
  4.9621724e-02
 -3.6275394e-03
  2.5616931e-03
  1.7217515e-01
 -3.7515664e-03
 -2.3694016e-02
  3.7734561e-02
  1.5361445e-02
  6.7386371e-01
 -6.5412456e-01
 -6.6985589e-01
  4.2325418e-02
  4.7802068e-03
 -4.4820976e-02
 -5.5856653e-02
 -1.0813778e-02
  1.2690078e-02
 -7.3318541e-02
  4.3229032e-03
  8.4549366e-03
  1.3895818e-02
 -5.2727226e-02
 -2.1539018e-02
  1.3376961e-02
 -1.2615280e-02
 -8.6379714e-02
  2.2941761e-02
  1.2561709e-02
 -5.9301075e-02
  5.9520203e-04
 -5.4851603e-02
 -6.3653192e-03
  5.4034613e-02
  1.4723060e-02
  2.0887440e-02
 -7.5813137e-02
 -1.6380911e-01
 -2.2580321e-03
 -2.9236360e-03
  2.4815505e-02
 -4.0487740e-02
 -2.3787433e-02
  3.9061725e-03
 -1.0787387e+00
  5.1406580e-01
  1.3729109e+00
 -4.8134192e-03
  1.5836881e-02
 -2.5538620e-02
  1.0912793e-02
  1.0808457e-01
 -1.3335148e-02
 -8.9313164e-02
 -6.1114557e-02
  8.2554789e-03
  5.3622805e-02
  1.2063239e-01
  3.9961521e-02
  5.2687272e-02
  4.9754750e-02
  3.8270202e-02
  3.8353588e-02
  4.0930491e-02
 -1.1462180e-01
  5.0801276e-03
 -3.8268663e-02
  3.0519368e-02
  9.3697928e-02
  5.0837997e-02
 -1.7855287e-02
  1.0404817e-01
  1.6847350e-02
  1.0073291e-02
 -2.1778652e-02
 -1.2172046e-02
 -6.0434323e-02
 -2.3271911e-02
  3.0584580e-01
  3.5567674e-01
  3.4088448e-02
  2.5382979e+00
  8.2131699e-02
  1.7389728e-01
  2.5393340e-01
 -4.1208616e-03
  3.2010281e-01
 -9.7671628e-02
  1.8890384e-01
  2.1805955e-01
 -2.4863145e-01
  7.0664644e-01
  4.8835492e-01
 -3.4674129e-01
  5.4166818e-01
  7.3664916e-01
  6.3732788e-02
 -1.2570488e-01
 -7.7209765e-01
  1.0476899e-01
 -1.4947481e-02
 -2.7149467e-02
  2.7040405e-02
 -2.6135409e-01
  9.3904592e-04
  7.0428349e-02
 -1.0515454e-01
 -2.3384748e-02
  5.0170384e-02
  4.9399849e-02
  1.1136408e-01
  5.5779733e-02
 -5.8697229e-03
 -5.7767793e-03
 -6.2077540e-01
  1.9046864e-01
  1.3575215e+00
 -5.6290153e-02
 -9.0706781e-02
 -1.1211549e-02
  2.5055550e-02
  3.7307952e-02
  5.9544459e-02
 -1.8028360e-03
  3.2172058e-02
 -6.2165461e-02
  2.2616467e-02
 -6.4678080e-02
 -1.2353880e-02
 -9.2324518e-02
  1.2150286e-02
  7.5303875e-02
 -1.5938325e-02
 -6.4561539e-03
 -1.8497748e-02
  3.6839642e-02
  1.9957142e-02
  8.9286432e-02
 -3.0596558e-02
  3.4010325e-02
  1.0729724e-02
 -1.2921378e-02
 -2.4210578e-02
  4.5345601e-02
 -6.8863690e-02
  1.0045017e-02
  1.4648859e-01
 -5.2461028e-01
 -6.2963208e-03
 -6.3076586e-01
  1.6510929e-01
  2.5205688e+00
 -7.3724166e-03
  5.4867148e-02
  1.0378233e-01
 -3.2894814e+00
 -3.7733991e-02
  2.2202918e-04
  4.5595624e-02
 -1.4764206e-01
 -3.6534641e-03
  3.1533405e-02
 -4.7699269e-02
 -7.7829972e-02
 -2.0378845e-02
  1.5282331e-02
 -6.5084465e-02
 -2.6873212e-02
  1.0744998e-02
 -9.4342425e-02
  2.1959459e-02
 -2.0174369e-02
 -7.1175188e-02
  7.4933201e-02
  2.3654846e-03
 -2.8444561e-03
  5.7050485e-02
  3.8042586e-02
 -1.6933588e-02
  6.7140018e-03
 -3.6655668e-02
 -6.1740313e-02
  1.0634238e-01
  5.0022684e-02
 -6.8101364e-01
  5.0609088e-01
  9.6531349e-01
 -1.1194566e-02
  4.1198824e-03
  1.8611351e-02
 -3.0866012e-02
  3.9887089e-02
  2.1546274e-02
 -5.4685574e-02
  7.0759200e-02
 -1.5132350e-01
 -1.1666691e-03
  9.0812910e-03
 -2.7269507e-03
  8.3671302e-02
  4.5755841e-02
  1.5929738e-02
 -2.0581994e-02
  7.4938506e-02
 -9.2167696e-03
 -1.5739029e-02
  2.5657076e-02
  9.5738359e-03
 -3.9398763e-03
 -3.7643086e-02
  1.8698238e-02
 -1.0906361e-02
 -1.5025399e-02
 -2.6691306e-02
 -2.4293009e-03
  2.6418639e-02
 -3.6165796e-02
  3.7256189e-02
  3.3502862e-02
 -1.4447484e+00
  1.0960495e+00
 -4.7887462e-01
 -3.1276375e-02
  6.9619216e-02
 -5.2016377e-01
  8.9407660e-02
  4.3662518e-02
 -1.3509045e-03
  1.4717309e-03
  5.9164472e-02
 -1.5349762e-02
  5.0138552e-02
 -2.3011167e-02
 -5.3887673e-02
  1.7263371e-01
 -4.5569128e-04
 -4.9215149e-02
  3.2899946e-02
 -1.1896459e-02
  2.2220376e-03
 -6.9205021e-04
  3.0694371e-02
 -8.9935511e-03
  5.4226875e-02
  4.5955714e-02
  5.0841920e-02
 -1.1573407e-02
  9.5724091e-03
  1.4295873e-02
 -6.0606211e-02
  7.9134829e-02
  1.0911446e-01
 -2.6105184e-04
 -9.8458994e-03
  8.8546789e-01
 -1.7113106e-01
 -1.8790437e+00
  4.9962252e-02
 -4.6406890e-04
 -1.0766730e-01
  3.6704101e-02
  4.9950231e-02
 -4.5851760e-02
 -2.9120121e-02
  3.4681253e-02
 -5.5577207e-02
 -3.6152665e-02
  1.1757685e-02
 -5.4475881e-02
 -9.4317593e-02
 -2.5086174e-02
 -9.2565686e-02
  7.1233008e-03
  6.6306606e-02
 -1.2284581e-01
 -9.4856564e-03
  1.6686358e-02
 -1.5361927e-02
 -1.5553813e-01
 -3.0429061e-03
 -1.4165097e-02
  7.3075742e-02
  6.3692341e-03
 -3.1422511e-02
  1.1790830e-02
 -5.1346734e-02
 -4.1858330e-02
  9.7049484e-03
  9.3930531e-03
  9.8544127e-01
 -4.2505920e-01
 -1.1574110e+00
  2.4011396e-02
  3.8621049e-02
  4.4369645e-02
 -2.2077754e-02
  1.8821806e-02
 -1.1058315e-02
 -6.4587101e-02
 -7.5680241e-02
  8.4503397e-02
 -9.2446953e-02
 -4.9097203e-02
  4.3511312e-02
 -5.9928168e-03
 -8.2575850e-02
 -4.8348863e-02
  1.1825660e-01
  1.3667127e-02
  1.0835874e-01
  3.6282785e-02
  5.6452688e-02
  2.5940977e-02
  7.2608039e-02
 -1.3630672e-02
  2.2832744e-02
  7.7984743e-03
  7.2134733e-02
 -5.4231077e-03
  4.0429711e-02
  2.1677388e-02
  6.7043580e-02
 -2.5629042e-02
  1.1827238e-02
 -6.0737288e-01
  6.0687548e-01
  1.4154968e+00
 -6.3837352e-03
  1.0625451e-02
 -9.6130140e-02
  4.5655705e-02
  2.4896797e-02
  4.7767173e-02
  1.0699839e-01
 -1.4250712e-02
 -6.8396784e-02
  9.8059006e-02
 -2.0728793e-02
 -1.1349595e-02
 -3.0431351e-02
 -1.6167020e-02
  1.1064142e-02
  3.1997982e-02
 -1.5630508e-02
 -3.2566013e-03
  4.4842023e-02
  1.6175039e-02
 -8.4470682e-02
 -9.1800816e-02
 -1.4667772e-04
 -2.5795687e-02
  3.4460131e-02
  1.1281447e-03
  3.1930253e-01
 -1.9212788e-02
  6.0079764e-03
 -6.9966979e-02
 -9.7893789e-02
 -1.5399532e-02
 -8.9002973e-01
  6.3737005e-01
  9.6795732e-01
  2.1589454e-01
  6.3391939e-02
 -2.6576301e-01
  2.9157311e-02
  5.0298348e-03
 -2.6873744e-04
  2.8102830e-02
 -7.6064393e-03
  4.7418740e-02
 -1.0016976e-02
  5.4500904e-02
  1.9609541e-02
  7.0466407e-02
  2.5102083e-02
  3.2535873e-02
 -4.5129701e-02
 -2.4290172e-02
  1.8657658e-02
  5.0594542e-02
 -1.5603660e-02
 -2.3712439e-02
 -4.3120075e-02
  7.1873590e-02
 -4.7397606e-02
 -9.8491952e-02
  1.1399471e+00
  7.8438796e-02
 -2.7231053e-02
  2.0785738e-02
 -1.9350220e-03
 -1.5941612e-02
  3.7389629e-02
 -9.3612313e-01
  6.8584120e-01
  1.2757401e+00
  1.0769026e-02
 -2.0780000e-01
 -1.1385100e-01
 -7.4852571e-02
  4.4902705e-02
 -7.5558588e-02
  6.5117381e-03
 -5.1912945e-02
 -2.3237798e-02
  6.2152382e-02
 -2.4245763e-02
  9.2405878e-02
  1.2502915e-01
 -4.7512329e-03
 -4.1278908e-03
 -8.1792824e-02
  7.2562702e-02
 -7.6286547e-02
  2.2941562e-03
  1.7814849e-02
 -7.6747932e-02
  7.4824005e-02
 -1.3106047e-02
 -4.5404248e-02
 -1.7745069e-01
  7.7309340e-02
 -2.6135042e-02
 -1.1473706e-02
  2.6678143e-02
 -1.4510836e-02
  1.9530674e-02
  4.8646837e-02
 -8.6994749e-01
  4.7542945e-01
  8.9191025e-01
 -9.2079546e-03
  1.9075600e-02
 -6.8002395e-02
 -9.7517192e-02
 -4.4433944e-02
 -4.5321070e-02
  1.1330915e-02
 -2.8456297e-02
  1.7479328e-02
  1.4339535e-02
  4.9022464e-03
  1.5078020e-02
 -1.2196485e-02
  5.6958672e-02
  6.7507089e-03
  9.0913586e-03
  4.5685910e-02
 -1.4235602e-01
  1.0414109e-01
  6.3433215e-02
  5.5104032e-02
 -9.0254551e-01
 -6.6506095e-02
  7.6238893e-02
 -3.6029816e-02
  1.8437557e-02
  7.6559158e-03
  1.0909253e-02
 -2.1610113e-03
 -1.4001699e-02
  8.7563368e-03
  2.9720418e-02
 -1.0383493e+00
  5.9154457e-01
  1.2687740e+00
 -5.2664164e-03
 -1.1304262e-02
 -4.1530062e-02
 -2.6012657e-02
 -2.2091685e-02
  2.5381209e-02
  6.6408686e-02
  1.0137090e-02
 -1.1063902e-01
  1.1242192e-01
  1.7751114e-02
 -1.4541366e-02
  2.1731392e-02
 -5.9173584e-02
  9.0155922e-02
  4.0138539e-02
 -9.1428170e-03
 -3.8336854e-02
 -6.9450818e-02
  1.1920840e-02
 -8.7449431e-02
  5.9167892e-03
 -9.7090617e-02
 -1.5663166e-03
  1.5073540e-02
  2.3669619e-02
 -5.5675395e-03
  2.4468213e-02
 -1.3915113e-02
 -7.8268852e-03
 -5.3899449e-01
 -4.6006650e-01
  5.0566018e-01
 -1.3923872e+00
  2.5450022e+00
 -6.0155630e-02
  2.6501557e-01
  4.6381912e-01
  2.8786245e-01
  1.0216226e-01
  1.4256127e-01
  1.6949396e-01
  2.2674109e-01
  5.1494735e-01
 -4.7660255e-01
  1.3200662e-01
  7.9023874e-01
 -2.3795193e-01
  3.7153575e-01
 -8.0394775e-01
 -2.2450419e-02
  4.9807832e-01
  2.4625464e-01
 -2.5426126e-01
 -5.8915085e-01
  1.0518796e-01
  2.4272013e-01
  1.0417399e-01
  3.5525776e-02
  1.0746382e-03
  9.5698290e-02
 -9.5860660e-01
  1.7737512e-02
  4.4898406e-02
 -8.2021195e-01
 -7.4137896e-02
 -1.0541666e-01
  8.1600016e-01
 -5.4465759e-01
 -1.2582576e+00
  9.2616878e-02
 -2.3091175e-03
 -4.2937532e-02
  8.1479050e-02
  1.1923115e-02
  3.3825549e-04
  5.9420425e-02
 -8.4037995e-03
 -8.4256809e-03
  1.5138346e-02
  1.7200641e-02
  1.3015255e-01
 -3.3164002e-02
 -1.5822772e-02
  2.4983000e-02
  3.1920888e-02
  1.3615789e-02
 -2.6010242e-04
 -8.1159957e-02
  1.3650274e-01
 -5.1985435e-02
  2.9862519e-02
 -4.8392203e-02
 -8.8374078e-02
 -1.5302908e-02
 -5.7319164e-02
  2.0240448e-02
  1.3058178e-02
  8.9074306e-02
 -1.2127138e-03
  1.6656183e-02
  3.8425174e-02
 -1.2190093e+00
  6.2350082e-01
  1.0052958e+00
  5.7902262e-02
  5.6614201e-03
 -2.9655326e-02
 -5.4330066e-02
 -5.1175761e-03
 -9.4484828e-02
 -9.2460755e-03
  3.5966419e-02
  1.3751274e-01
  8.8165894e-02
 -7.3388562e-02
  1.1428575e-02
  1.9692615e-02
 -2.2442570e-02
 -8.8125849e-03
  2.2206058e-04
  6.8852969e-02
  3.1039771e-02
 -2.4928669e-02
  3.8372386e-02
 -1.4866660e-02
  6.9226027e-02
 -9.5083557e-02
 -2.2304706e-02
  2.2922253e-02
 -5.2347579e-03
  3.0890526e-03
  3.5805214e-02
  2.6124489e-02
  1.3609107e-02
  2.3092309e-02
  1.1455410e+00
 -2.1180329e-01
  1.3479009e-01
 -5.1188046e-01
 -2.0749345e-01
 -1.3645353e+00
 -1.0821986e-03
 -2.0463400e-01
 -1.0504386e-01
  3.1856585e-03
 -1.6555076e+00
  2.4260510e-02
 -3.7301548e-02
  9.6812540e-01
 -5.4987453e-02
 -8.2253754e-01
 -6.8750441e-01
  1.2645929e-03
 -1.0024146e-01
  1.0302337e-01
 -4.8265196e-03
  3.9152551e-02
 -5.0267752e-02
  4.4626299e-02
  3.2562610e-02
 -2.5518743e-02
 -3.4137107e-02
  3.1227074e-03
  2.0629188e-02
 -4.8179951e-02
  1.1296640e-01
  7.4380308e-02
  4.9815927e-02
 -5.6611463e-02
  3.9384086e-02
  1.1650814e-02
  1.7534273e+00
 -6.1628795e-01
 -1.6723633e+00
 -2.5884701e-02
  2.6213059e-02
 -1.0436081e-02
 -1.0960472e-01
 -1.4505249e-02
 -6.4097652e-03
 -1.0987437e-01
  3.2727644e-02
 -5.0382327e-02
 -1.2187861e-02
  6.2892190e-03
 -1.7973419e-02
  1.0210844e-01
  1.9986646e-02
  4.1892588e-02
 -4.2047694e-02
  4.2609004e-03
 -1.4212206e-03
 -1.9746713e-02
 -6.3530929e-02
  4.5339573e-02
 -5.2300770e-02
  3.2512564e-02
 -2.6263546e-03
 -7.5143710e-02
  2.3941969e-02
  1.5046737e-02
  1.9249278e-01
 -9.5570907e-03
 -4.4583384e-02
  3.7002690e-02
 -1.0681574e-02
 -9.2547506e-01
  5.9279847e-01
  7.3406869e-01
 -5.5270948e-02
  9.8914243e-02
 -5.0850585e-02
  2.5693594e-02
  1.9722991e-02
 -8.8950042e-03
  1.7291868e-01
  2.4304390e-02
  6.7001595e-03
 -2.1897305e-02
 -2.0345001e+00
  3.8217925e-02
  7.7306181e-02
 -3.1770676e-02
  1.4297090e-02
 -1.5103096e-02
 -8.5661970e-03
  1.5588418e-01
  9.1478564e-03
  6.2387556e-02
 -5.3670579e-03
 -5.1568658e-03
 -1.3349354e-02
  6.2888041e-02
  2.8006420e-03
 -7.1854480e-02
 -2.3885002e-02
 -2.1179523e-02
 -7.7007726e-02
  3.1596713e-03
 -1.9695077e-02
  1.3103603e-03
 -9.2771822e-01
  6.4800584e-01
  1.0288842e+00
 -1.9993391e-02
  5.3294621e-02
  2.7686695e-02
  1.3436533e-02
  9.0059275e-03
  1.8615173e-01
 -2.2950074e-01
  7.9166017e-02
 -4.8831701e-02
 -2.5953716e-02
  1.6756264e-02
  2.0962580e-01
 -1.8830137e-02
  6.5707184e-02
 -7.6044591e-05
  1.2160415e-01
 -1.5547975e-02
  1.0423981e-02
 -7.2339773e-02
  8.9972086e-02
  1.2113504e-02
  1.5210783e-03
  5.3138998e-03
  2.3863938e-02
  1.2688064e-03
 -2.7183408e-02
 -6.5255868e-03
  6.5219432e-02
 -8.4814049e-02
  2.8136054e-02
 -1.9922400e-02
  2.0507881e-02
  8.1942827e-01
 -4.7425514e-01
 -1.0805521e+00
  6.1187480e-02
  8.5700653e-02
  5.3240417e-04
  7.3077649e-02
 -1.6947290e-02
 -3.4534190e-02
 -1.5899648e-01
  4.0897265e-02
 -1.6914218e-03
  3.2787737e-02
  5.9705772e-03
  6.7738150e-03
  6.4212908e-03
  3.3446111e-02
  7.4907787e-02
 -3.9514754e-02
 -3.5708811e-02
  8.7864012e-02
  3.5246029e-02
  4.2604897e-02
  1.6651292e-03
 -3.0047053e-02
 -1.0549217e-02
 -5.8054901e-03
 -1.6276963e-02
  1.5874374e-01
  4.4718038e-02
 -4.6179716e-02
  2.6499726e-02
 -2.0660950e-02
 -4.4073142e-02
 -3.9783111e-01
  6.3383394e-01
 -1.2042322e+00
 -7.6452726e-01
  7.4660465e-02
  1.1430318e-01
 -5.0232499e-03
  5.7080816e-02
 -5.0195888e-02
  2.4903845e-02
 -3.4818064e-02
 -4.4034749e-02
 -8.1038997e-02
 -7.5253993e-02
 -3.8485985e-02
 -1.9460944e-02
 -1.0262021e-02
 -1.8257223e-02
  1.4744702e-02
  2.9504303e-02
  7.5954478e-03
  4.0867969e-02
 -3.3039834e-02
  1.3325960e-02
  1.2523268e-01
  3.7842181e-02
 -3.4878675e-02
  6.8186767e-02
 -8.1189936e-03
 -1.2059555e-02
  1.3890724e-01
  1.5739334e-01
  4.0547601e-03
  6.6508056e-04
 -2.8843848e-02
  1.9618189e-01
 -9.9011129e-01
  4.3964395e-01
  1.1598407e+00
  1.6916730e-02
  8.4172348e-03
 -2.1783566e-02
  5.2480478e-02
  2.7520398e-02
  8.2203057e-03
  1.5327381e-02
  1.1198165e-01
 -5.2947104e-02
  2.3298894e-01
  2.6653459e-02
 -5.3157378e-02
 -2.8021555e-02
 -1.1420310e-02
  3.5169303e-02
 -8.1129493e-03
 -1.2586510e-01
  1.4716574e-02
  2.2128161e-02
 -3.3138532e-02
  3.7651185e-02
  3.3638611e-02
  8.4436880e-03
 -1.3107510e-02
 -2.8789097e-02
  4.2460606e-02
 -6.6657349e-02
  3.5188760e-04
 -6.0364723e-02
 -1.9859258e-02
 -1.0234014e-02
  7.0545045e-03
  7.4618965e-01
 -5.3393066e-01
 -1.3085527e+00
  1.8492403e-02
 -9.1186762e-03
 -1.7495189e-02
 -2.1439793e-02
 -4.0229715e-02
  8.5726911e-03
 -9.4264619e-02
 -4.0880762e-02
  5.0395645e-02
 -4.7294083e-03
  8.6487047e-02
  4.5389749e-02
  6.9746770e-02
 -5.9493780e-02
 -4.0041082e-02
  9.2424661e-02
  7.0603967e-02
 -8.3635323e-02
  9.5347650e-02
 -5.7736330e-02
  1.0243880e-02
  1.3840474e-02
 -5.8183998e-02
  1.0494404e-03
 -6.0660918e-03
 -5.5497326e-03
  1.7356478e-02
  3.9826576e-03
  2.5095076e-03
  2.0065157e-02
  3.3199203e-03
  4.1544465e-03
 -2.8438318e-01
  6.4701164e-01
  9.7920698e-01
 -1.5361562e-03
 -1.7817839e-03
 -2.9217262e-02
  1.6278632e-02
  8.0486193e-02
  3.1270410e-03
  3.0330231e-03
 -1.5535429e-02
 -5.1549457e-02
 -3.7523657e-02
  4.5210733e-03
  1.2875710e-01
 -6.1840519e-02
 -2.3206865e-02
  7.8074887e-02
 -2.1752137e-01
  1.8166000e-02
  1.2935175e-01
  1.4340919e-02
 -5.4598864e-02
 -7.9430137e-03
  3.8104318e-02
 -1.6106117e-01
 -1.4360134e-02
  2.3318628e-02
 -1.3619886e-01
  3.7792355e-02
  3.0550789e-02
  2.8395767e-03
  2.1145374e-02
 -9.5315456e-01
  1.1285806e+00
 -7.3203415e-01
 -5.8191496e-01
  5.3107256e-01
 -1.2744048e+00
  1.2402979e+00
 -9.2980921e-01
  8.0592179e-01
 -8.6591166e-01
 -9.9125487e-01
  1.2262138e+00
  1.0808986e+00
 -1.3049186e+00
 -8.2930952e-01
  1.0665630e-01
 -1.0395689e+00
  7.4165386e-01
 -3.8990271e+00
  8.7929612e-01
 -1.0066150e+00
 -5.7690620e-01
 -1.2073996e+00
  2.0668161e+00
  1.0639453e+00
  9.3699962e-01
 -7.9522759e-01
  8.7605959e-01
 -1.0340302e+00
 -1.4178797e+00
 -1.2696146e+00
 -1.4482148e+00
  9.4462669e-01
  1.9129926e+00
  1.2565222e+00
 -9.7396195e-01
  3.5993204e+00
 -1.2862474e+00
 -2.2231814e-01
 -1.4547127e+00
 -1.7167308e+00
  7.9002762e-01
  1.0775687e+00
 -1.3413812e+00
 -1.1012726e+00
 -8.4647536e-01
 -1.5091258e+00
 -8.9589733e-01
  1.9817444e+00
  1.3601059e+00
 -8.8685244e-01
 -2.7118857e+00
 -6.0407883e-01
 -9.4008464e-01
 -1.3985814e+00
  1.1684736e+00
  6.4100409e-01
 -1.0656775e+00
  1.3188472e+00
 -9.3706906e-01
 -2.4421206e+00
  4.6662469e+00
 -2.3744726e+00
 -3.5626718e-01
  9.5339203e-01
 -3.0122302e+00
  2.3961530e+00
 -1.5979519e+00
  2.1633320e+00
 -1.4331113e+00
 -2.7393725e+00
  2.2933588e+00
  2.5723808e+00
 -1.4001000e+00
  2.9755044e-01
  5.8054477e-01
 -1.8240244e+00
  1.9072202e+00
 -2.5653918e+00
  1.9183646e+00
 -1.7687273e+00
 -2.1181724e+00
 -4.5674286e+00
  1.1177633e+00
  7.8634602e-01
  1.5427281e+00
 -7.7333248e-01
  2.3416994e+00
 -4.3870091e+00
 -2.8986032e+00
 -2.2352242e+00
 -2.4578388e+00
 -1.4283483e-01
  3.9976335e+00
  1.4042362e+00
 -4.1680489e+00
 -2.5871903e-01
 -1.6270180e+00
 -1.3418355e+00
 -1.8302611e+00
 -1.6441274e+00
  3.4448512e+00
  1.4222180e+00
 -3.2814536e+00
 -2.0569735e+00
 -2.0955725e+00
 -2.9268975e+00
 -2.5648086e+00
  5.8661568e-01
  4.2579761e+00
 -1.8579459e+00
 -3.5810668e+00
  1.9978797e+00
 -6.5127629e-01
 -2.9205487e+00
  1.8529650e+00
  8.5401553e-01
 -1.9539274e+00
  4.3826976e+00
 -4.5597863e-01
  8.5525297e-02
 -3.4403199e-01
  4.9475244e-01
 -1.1907353e+00
 -2.5501114e-01
  2.1630393e-03
 -8.9532584e-03
  4.4916324e-02
 -1.2515415e-01
  4.5388788e-01
  2.6886953e-02
 -8.8722557e-02
  8.8984884e-02
  3.6222219e-02
 -2.7281230e-02
  4.4660675e-03
  8.3398428e-03
 -7.0794940e-02
 -1.5118068e-01
 -4.3725133e-02
  1.5028001e-01
 -9.3133915e-03
 -1.4379350e-02
  3.1172641e-02
 -1.1288700e-02
  1.7148837e-01
  2.4367198e-02
 -4.2332813e-02
  1.9008683e-02
  3.1474414e-03
  1.2693200e-02
 -3.7904307e-02
 -6.1600272e-02
 -7.1269035e-02
 -4.1474085e-02
  3.5554618e-02
  9.6110150e-02
 -8.2819507e-02
  9.0184546e-01
  1.6036557e-01
 -7.9730898e-04
  7.6208254e-03
  5.4247819e-02
 -3.3955641e-02
 -5.7084612e-03
  4.2025764e-02
 -2.0347597e-02
  4.3982817e-03
 -2.5267212e-03
  6.7795523e-02
  4.1511863e-02
 -1.9276697e-02
 -1.5036855e-02
  2.3043472e-02
  6.5246155e-03
  3.0747805e-02
  8.8272892e-02
  8.8601477e-02
 -5.2604936e-02
  1.1241029e-04
  4.5526144e-01
  4.8305683e-02
  6.2618762e-02
  7.1150012e-02
 -3.6937758e-02
 -3.3246867e-02
 -7.4166888e-03
 -8.8882320e-02
  3.1602800e-02
  5.5579465e-02
 -3.2572564e-02
  7.0762181e-01
  8.1547042e-03
  9.1097140e-01
  2.2423074e+00
 -7.7494897e-02
  3.3671930e-02
 -1.3095580e-02
 -6.4280063e-02
  5.5278193e-02
 -1.1581319e-01
  9.4567109e-03
 -2.3464220e-02
  1.3543010e-01
  9.3743522e-03
  3.5812318e-02
  7.3754629e-03
  1.0969057e-01
  3.7589826e-02
  1.7361876e-02
  7.1815491e-02
 -6.8892621e-02
 -2.8017475e-03
  1.9542037e-02
 -1.0643730e-01
 -1.2400825e-02
  1.7808352e-01
  8.9485854e-02
  4.5522131e-02
 -3.0019274e-03
 -1.5200499e-01
 -9.8922187e-03
  6.2568568e-02
 -1.3164311e-02
  9.1835380e-02
  2.7333099e-02
 -8.2643849e-01
  3.4871068e-02
 -1.3375012e+00
 -1.7130972e-01
 -2.4844790e-02
 -1.4452168e-01
  5.9403270e-02
 -1.1340485e-02
  2.6259176e-02
 -1.6315818e-01
  1.5883188e-01
  7.4487776e-03
  2.8885271e-02
 -1.6865419e-02
 -3.3092853e-02
  7.6173536e-02
  2.2566574e-02
 -3.6600739e-02
  6.7895432e-03
  6.4863502e-03
 -1.0029177e-01
  2.5642933e-03
 -1.0908815e-01
 -8.4090360e-02
  1.1698524e-01
  4.1627955e-02
 -2.3292113e-02
 -1.3133951e-01
  1.6598389e-01
 -4.3767553e-02
  7.8179479e-02
  4.5651194e-02
 -8.0315381e-02
 -9.6909463e-02
  5.0636679e-02
  5.9719855e-01
 -1.8019600e-01
  1.6815377e+00
  6.0750492e-02
  5.3738590e-02
  7.1985312e-02
  7.9795131e-03
  1.1774643e-01
 -6.5198215e-03
  2.2344764e-03
 -4.3817139e-03
  1.6052416e-01
  1.3048626e-02
  7.0317730e-02
  5.2891329e-02
  1.0909744e-02
  5.1650941e-02
 -2.7801807e-04
 -1.2772602e-01
 -7.9568736e-03
 -4.2553754e-03
  7.0122235e-02
  1.2706360e+00
  1.0263040e-03
 -3.8315568e-02
  8.1970133e-02
 -7.6816902e-02
 -1.6825477e-03
 -5.2736610e-02
 -4.0385872e-02
 -5.0525889e-02
 -1.1759607e-02
  2.5509136e-02
  7.3432289e-03
 -1.2054808e+00
 -9.3010521e-01
 -8.3774298e-01
  1.6064707e+00
  9.0537272e-02
 -5.6653727e-02
 -3.2503521e+00
 -1.6648480e+00
  3.1234046e-02
 -2.0131514e+00
 -9.1813254e-01
 -1.0266114e+00
  2.8716883e-01
 -4.2564180e-02
 -5.9429300e-03
  1.5271492e-01
 -2.0195532e+00
  5.6255132e-01
  1.3486268e-01
 -1.6976936e-01
 -2.9001397e-01
 -1.6456726e+00
  1.4813435e-01
  3.2740355e-01
 -1.1461016e+00
 -8.4686056e-02
  1.2498863e-01
 -6.5229915e-02
  7.4328021e-03
 -2.7946856e-02
  6.3094571e-02
  1.2017010e-01
 -4.8631780e-02
 -1.0514621e-02
  5.1271610e-02
 -3.7529767e-02
  4.0746725e-01
 -2.0337835e-01
  1.7045090e+00
  1.3753474e-01
 -3.4996841e-02
 -1.2343188e-01
 -1.5169105e-02
  7.9052106e-02
  1.8584942e-02
  1.6154872e-01
  2.9696889e-02
  7.1687490e-02
  1.9613715e-02
  2.6745416e-02
  2.0309150e-01
 -4.1490812e-02
  9.6476711e-02
  1.0953027e-01
  2.5655514e-02
  3.1941850e-02
  4.8374493e-02
  1.3581265e-05
  3.8957603e-03
  3.8151182e-03
  3.6246628e-02
  4.7754534e-02
 -1.6813080e-01
  1.6112324e-02
 -1.6166912e-02
 -1.4284774e-02
  1.4197415e-02
  4.8829541e-02
 -3.1990182e-02
 -6.6139936e-02
 -4.7077220e-02
  7.1941584e-01
 -3.2043332e-01
  1.5063608e+00
  2.9724675e-01
  1.8823572e-01
  7.8713201e-02
 -1.2453563e-02
 -1.2536509e-01
  1.5190130e-02
  3.9347529e-02
  3.0110262e-02
 -5.0931019e-03
  3.9315533e-02
 -5.2515797e-02
  1.8337426e-01
 -4.5414168e-02
 -2.4315756e-02
 -3.9052062e-02
 -1.2041276e-02
  4.7947723e-02
 -8.7273996e-03
 -1.5579279e-01
 -5.8799356e-02
 -3.5910659e-02
 -3.4128152e-02
  3.8111191e-02
 -2.4891023e-02
  1.8792690e-01
 -2.5597239e-02
 -5.1143891e-03
  1.1560214e+00
 -6.4007893e-02
 -2.3304703e-02
 -9.4957232e-02
  1.1502775e-01
 -9.0467030e-01
  2.4484457e-01
 -1.2971514e+00
 -5.2358913e-01
  5.0194651e-01
  1.4924711e-02
  6.3366607e-02
  6.4455688e-02
 -1.1117677e-02
  4.6506323e-02
  2.1042082e-02
  4.2109702e-02
  3.1781062e-02
  7.0230835e-03
 -3.0317999e-02
 -1.8260807e-02
 -2.7182889e-03
 -3.9446138e-02
  1.2772523e-01
  6.7391121e-03
 -7.5676970e-02
  1.0067978e-03
 -1.1223754e-01
 -6.2728124e-03
  5.4779235e-02
 -3.1088402e-02
 -4.2232752e-02
  3.4969810e-02
  2.3675317e-02
  3.2741268e-04
 -1.8406869e-01
 -2.8708080e-02
 -1.7699329e-02
 -1.2854328e-02
  3.8684148e-02
 -4.2210540e-01
  7.0095152e-02
 -1.3161080e+00
 -2.0548475e-03
 -3.8620081e-02
 -2.7714629e-02
 -2.0004012e-01
 -2.6467256e-03
  1.0324065e-01
  9.7362660e-02
 -8.9324363e-02
  4.6724297e-02
  6.6841446e-02
  2.4677862e-03
  1.6876394e-03
  3.9324918e-04
  5.2736171e-02
 -1.5159666e-02
 -3.7948132e-02
  5.9234546e-03
  3.1138565e-02
 -8.3492752e-03
  4.1160498e-02
 -1.2060691e-02
 -4.0689483e-02
  4.7561113e-02
  1.0223404e-01
  2.6968081e-02
  1.2573546e-02
  4.9400613e-02
  1.4216556e-02
  3.6414117e-02
  7.6067291e-02
 -1.3295716e-02
 -1.1335992e-02
  5.7564670e-01
  5.9028304e-01
  1.4000772e+00
  2.0725396e-01
  3.5316929e-02
 -2.1040617e-03
  5.3596999e-02
 -6.7152061e-02
  8.0592938e-02
 -3.3773728e-02
 -2.9881284e-02
 -2.6618520e-02
  7.0318036e-02
 -3.7579577e-02
  2.9724533e-02
 -2.2784749e-02
 -3.3910960e-02
  5.2167688e-02
 -1.6053954e-02
  5.6752637e-02
 -2.9955002e-02
 -2.8355258e-02
  8.4534071e-02
 -6.1043955e-02
 -1.6705157e-02
  6.0051564e-02
 -4.0910982e-02
  6.3149996e-02
 -1.2640460e-01
 -5.4836139e-02
 -1.4602438e-02
 -1.1718039e-02
  3.1129111e-02
 -4.3168072e-02
 -6.8359427e-02
 -4.1362801e-01
  5.7994980e-01
 -1.6479716e+00
 -2.2814950e-01
 -1.2491984e-02
 -2.8446133e-04
 -1.4154877e-01
 -7.4109295e-03
 -1.8274653e-01
  9.8716542e-02
 -2.6453599e-02
 -3.2748929e-03
  4.7355826e-04
  1.0076124e-01
  1.6664714e-02
 -2.8307324e-02
  2.0296268e-02
 -3.4072932e-02
  1.8602006e-02
 -3.4602072e-02
 -6.0054328e-02
 -1.1405616e-02
 -1.3736342e-01
 -2.5084730e-02
 -6.5327715e-03
 -6.8896689e-02
 -1.4313872e-01
  2.0397879e-02
 -5.4282080e-03
 -5.1141366e-02
 -4.2708091e-02
 -6.8992875e-03
  8.7448329e-02
 -2.6700299e-02
 -1.4671189e-02
  3.6681780e-01
 -3.7328112e-01
  1.7242082e+00
  3.3901593e-01
 -4.6492625e-02
 -5.3353373e-02
 -3.4875371e-02
 -7.4168690e-02
  1.0673836e-01
  6.5688774e-02
 -7.4484028e-02
 -1.5534787e-02
 -6.7591526e-02
 -1.0186238e-01
  2.8698104e-02
 -3.4261126e-02
 -1.3183409e-01
  2.3101978e-01
  9.5418170e-03
 -3.3605692e-04
 -1.8197093e-02
  1.8493481e-02
 -8.5589252e-02
  2.2723567e-02
  3.2557312e-02
 -1.3215224e-02
 -9.5842257e-02
 -4.2595137e-02
 -5.1799927e-02
 -3.6752965e-02
 -1.6607233e+00
  5.3616878e-02
  6.4475499e-02
 -6.8006001e-02
 -5.4495372e-03
  6.4269006e-01
  3.7518147e-02
  1.4867990e+00
  1.4727789e-01
 -2.1922866e-02
  1.5953910e-02
 -3.5146900e-02
  9.8234810e-02
  7.0986465e-02
  7.6531358e-03
 -9.8756798e-02
  1.5181378e-02
 -5.6837387e-02
  1.1590828e-02
 -1.0655461e-01
 -8.3711348e-02
  3.5348490e-02
  1.0564845e-03
 -5.0247137e-02
  1.2275826e-02
 -1.1105695e-01
  6.5333709e-02
 -6.3860066e-02
 -2.7486993e-02
 -5.8190364e-02
  4.7704815e-03
 -7.4260108e-02
 -1.4140318e-02
 -7.2104782e-02
 -3.6209337e-03
  8.9032687e-02
 -5.7905721e-03
 -2.7674116e-02
  7.2174735e-02
 -7.0742361e-02
  3.8194692e-01
 -1.0981615e-01
  1.1111919e+00
  1.8994880e-01
 -6.6232830e-02
  7.9684250e-02
  5.1241890e-02
 -4.6337038e-02
 -7.8870088e-02
  1.4165264e-01
 -7.4209478e-03
  5.5389698e-03
 -3.4280024e-02
 -1.0136890e-01
 -4.8252311e-02
  1.8590007e-02
  3.5794079e-02
 -3.5439286e-02
  4.7950100e-02
 -2.5097716e-03
  3.1228291e-02
  4.1018296e-02
 -4.3279260e-02
 -6.9986045e-02
  3.3902481e-02
  1.3000287e-01
  3.8741525e-02
 -1.7434804e-01
 -7.6940797e-02
  5.7005797e-02
 -2.1140359e-03
 -6.5741286e-02
 -5.2405581e-02
  2.0702740e-02
 -2.0446563e-01
  4.7564524e-01
 -7.7139810e-02
  1.7020601e+00
 -5.1060122e-02
  3.2583706e-04
  6.7913711e-02
 -2.6663678e-02
  1.4901276e-01
  5.1871347e-03
 -2.8888144e-02
  2.4085075e-02
  6.1418179e-02
  2.4025384e-02
 -1.5352373e-01
 -1.9120723e+00
 -1.7653143e-01
  1.2404933e-01
  5.0912026e-02
 -1.5308788e-02
  5.8943056e-02
 -5.3323861e-02
  6.4061061e-02
 -5.3636234e-02
 -2.0367322e-02
  5.5274054e-02
  2.0534003e-02
 -2.9473221e-03
 -2.0252185e-02
  1.0135669e-02
  3.1522412e-02
 -4.2491131e-02
 -4.7742508e-02
  2.6980942e-02
 -2.5500856e-02
 -2.6260099e-01
  4.6089318e-01
 -2.8778592e-01
  1.1388187e+00
  4.6267679e-01
  1.5149619e-01
 -5.2405912e-01
  1.5784039e-01
  3.7961874e-02
  1.7890243e-02
  1.1487734e-01
 -4.5368006e-03
  5.0848097e-02
  1.8245062e-02
 -8.7337233e-02
  1.6851592e+00
 -3.2288165e-04
  1.0510808e-01
  1.8583778e-03
 -5.4827809e-02
 -8.3900280e-03
  2.5404090e-02
  4.6374217e-02
 -3.3711481e-03
  2.4577735e-01
  1.8429652e-02
  1.2368476e-02
  6.9049187e-02
  3.8447578e-02
  1.3050517e-01
  2.2632363e-03
  7.9607457e-02
  2.1862753e-02
 -8.9937031e-02
 -7.5972557e-02
 -3.3353338e-01
  8.1372929e-01
 -1.4921805e-01
  1.1707314e+00
  1.8082225e-01
  7.4788101e-02
 -4.1223753e-02
  1.4268745e-01
  5.4356486e-02
  7.6676928e-03
 -4.0136229e-02
 -3.5091162e-02
  6.2236406e-02
 -8.7372303e-02
  7.1023973e-03
  1.2251153e-01
 -5.9060883e-02
  8.0803245e-02
 -9.8381922e-02
  9.9916244e-03
 -1.2264878e-02
 -7.6161183e-02
 -4.6683613e-02
  2.2097250e-02
  3.1436890e-02
 -8.3609864e-02
 -4.6852577e-02
  3.1777583e-02
  7.5741366e-02
  1.8218762e-01
 -2.3463950e-02
 -5.1450331e-02
 -4.8725805e-03
 -3.5750888e-02
 -2.3003193e-02
  5.0516456e-02
 -6.3586944e-01
  1.2947735e-01
 -1.6237100e+00
 -3.5697603e-01
  7.1874961e-02
 -7.0497133e-02
  2.2091713e-02
 -2.2346016e-02
 -3.6937736e-02
 -7.5925410e-02
 -2.4340221e-01
 -2.5849223e-02
  3.2692391e-02
 -3.2211825e-01
 -3.5023525e-02
  1.5361909e-02
 -1.1638117e-02
  3.8841270e-02
  1.1602501e-02
  1.0229455e-01
 -1.4460213e-02
 -7.5417839e-02
 -1.1944134e-01
 -3.8842268e-02
 -1.2352917e-01
 -3.0946985e-03
 -2.0055948e-02
  2.1189164e-02
  5.2770739e-03
 -3.2181956e-02
 -5.6897202e-03
  1.7462354e-02
 -1.3670851e-01
 -1.8345185e-02
  8.8526905e-01
 -2.8586938e+00
 -3.1629226e+00
  1.1850576e+00
 -2.1725242e+00
  7.7849053e-02
 -3.4070295e-01
  6.5368038e-01
 -1.4753774e-01
 -2.4416566e-01
  7.2975475e-01
 -7.6637983e-01
 -8.6145139e-01
 -6.9897050e-01
  7.2128195e-01
 -1.7879932e-01
 -3.8343686e-01
  1.4700228e-01
 -9.4529493e-03
 -5.9182006e-01
 -1.4811602e-01
 -3.4310374e-01
  3.6693716e-01
  1.2541637e-01
 -5.7647306e-01
  2.3500004e-01
  3.3582249e-01
 -2.6381230e-01
 -3.9134660e-01
 -4.8560768e-02
 -2.2722022e-03
  6.8872400e-02
  5.7263684e-01
 -1.0526229e-01
  2.0277010e-01
 -3.2197170e-02
  3.6738005e-01
 -2.9651480e-02
  1.4179612e+00
  1.0361797e-01
 -7.3775224e-02
 -2.0787174e-01
  3.6234371e-02
  6.1038449e-02
  6.5405297e-01
  2.6066105e-03
 -9.9280164e-02
  2.5689708e-02
  6.9423914e-02
  3.6327087e-03
  8.8463582e-02
 -5.6586444e-02
  2.1192793e-02
 -4.0595710e-01
 -2.3093265e-01
  7.6108985e-02
  3.9043155e-02
  1.5091322e-01
  9.2767633e-04
  1.4202859e-02
  2.9628759e-03
 -1.9630898e-02
 -9.1417832e-03
  6.7536131e-02
  4.5908585e-02
  5.6849420e-03
 -5.0367188e-02
  1.1427702e-02
 -5.5535901e-02
 -2.8678726e-02
  2.6376644e-02
 -6.8058622e-01
  1.1562167e-01
 -1.2846546e+00
 -3.6745489e-01
 -9.0118170e-02
 -2.7202899e-02
 -3.6402531e-02
  6.6509083e-02
  8.4519535e-02
 -2.7726841e-01
  1.2531377e-01
  2.7422106e-02
  1.0157367e-03
  1.5974946e-02
 -8.5610956e-02
  1.5632418e-01
 -7.0929594e-02
  1.0562060e-01
  9.7639831e-03
  4.2665172e-02
 -5.7688128e-02
 -6.8641439e-02
  2.8292760e-02
  8.8524260e-02
  5.6278288e-02
 -9.0746544e-03
  6.3220128e-02
 -1.1509067e-02
 -3.5469998e-02
 -2.3472691e-02
  4.6024617e-02
  3.1368732e-02
 -1.1467677e-01
  1.9621342e-02
  9.2134392e-03
 -3.6143979e-01
 -4.1845096e-03
 -1.0927397e+00
 -1.1772417e-01
  5.7772446e-02
  8.2624115e-02
 -9.1301044e-03
  6.3637152e-02
 -2.5664125e-02
 -5.9170024e-03
  2.0179573e-02
 -7.7810667e-02
  1.5568431e-02
  2.0199249e-02
  9.7983345e-02
 -7.1007647e-03
 -9.4877064e-02
 -7.0208684e-02
  1.3556912e-02
 -1.1961306e-02
  2.2085229e-01
 -2.7101960e-02
  6.7572415e-02
 -4.3244637e-03
 -1.4864311e-01
 -1.8725434e-02
 -7.5047709e-02
 -1.1682493e-02
  2.2578724e-02
  1.3641994e-01
 -4.7744988e-03
  5.5024970e-02
 -4.9671639e-02
 -2.7534306e-02
  1.5783057e-02
 -8.4707445e-01
  1.9129251e-01
 -1.0682851e+00
  2.3581255e-02
 -1.6215163e-01
  7.3386342e-03
 -1.6913569e-01
  5.2051801e-02
  1.6476022e-01
 -2.1570824e-02
  1.6490324e-01
 -4.8360154e-02
 -4.3137081e-02
 -3.7847634e-02
 -1.5335727e-01
  1.9099858e-02
  8.6409889e-02
 -2.8751705e-02
 -9.7374238e-02
  3.8202807e-02
 -4.8862938e-02
  7.8584552e-03
 -4.7081418e-02
 -1.9310344e-02
 -7.0966832e-02
  9.9279739e-02
 -8.1590153e-03
 -4.4702671e-02
 -5.9872828e-02
 -2.2605894e-02
  4.6842796e-04
 -2.1221843e-02
 -8.6869886e-03
  3.0542912e-02
  3.6898784e-02
 -5.1666677e-01
  1.3132097e-01
 -1.2713012e+00
 -4.0290329e-01
  1.9864228e-03
  5.4485127e-02
 -1.8354048e-01
 -4.0377244e-02
  7.3477089e-02
 -2.5372732e-02
  9.0932749e-02
  2.7411892e-03
 -2.1350798e-03
  8.8539243e-02
 -3.7301440e-02
  9.2359586e-03
  1.2028664e-02
  9.2441566e-02
  1.5865112e-02
  4.7314208e-02
 -9.0499735e-03
 -2.3990605e-02
  2.5328686e-02
  8.7053321e-02
  1.0824302e-01
 -2.9198926e-02
  8.5855782e-02
 -1.2586985e-03
  9.9778689e-02
  2.0108409e-02
  1.3258722e-01
 -5.7978347e-02
 -1.8268452e+00
  4.6149567e-02
 -4.4348910e-02
  3.9578608e-01
 -7.6718879e-01
  1.2074707e+00
  1.6130398e-01
  6.5943100e-02
 -4.1543812e-02
 -2.8489171e-02
 -1.0352096e-01
  9.8809311e-03
 -7.3096924e-03
  1.2205180e-01
  1.7329940e-01
 -3.0633230e-03
 -8.5775331e-02
  3.5270158e-02
  1.4723000e-02
  5.8871317e-03
 -5.0792702e-02
 -4.4147525e-02
 -6.5721631e-02
 -4.2307544e-02
 -9.1524115e-03
  1.9593395e-02
  2.1665934e-02
  2.5096206e-02
 -5.7095727e-03
  5.4772139e-02
  1.0251614e-02
 -2.3962528e-02
 -2.3318954e-02
  6.7790195e-02
 -1.2813507e-01
 -8.0290042e-02
 -2.1256221e-02
 -8.2714282e-02
  7.4117792e-01
 -1.8060358e-01
  1.0741159e+00
  3.2437718e-01
  1.1769717e-02
 -1.3872005e-01
  6.9584005e-02
  5.3828940e-02
  3.7643712e-02
  7.8702003e-02
 -6.1913878e-02
 -9.5491447e-03
 -5.7813194e-02
 -1.4642226e-02
 -5.6605343e-02
 -6.5750495e-02
  7.6904744e-03
  2.0891514e-02
  1.1219651e-02
 -2.0164882e-03
 -1.4979444e-01
  2.8522599e-02
  9.5472030e-02
 -2.8085433e-02
 -6.1157532e-02
  3.6498203e-03
  5.7895720e-04
 -5.4622341e-02
  1.9095296e-02
 -8.2506962e-02
  3.4994200e-02
 -4.6469595e-02
  8.0907449e-02
  1.4764161e-03
  1.4309204e-02
 -4.0110636e-01
  3.3234131e-01
 -1.2112824e+00
 -2.7215862e-01
  9.4918585e-01
  7.2574876e-02
  6.4127743e-02
 -3.8064450e-01
  1.7191954e-02
  2.8339657e-03
  4.9613919e-02
  3.6544688e-02
  2.0240044e-02
 -1.4489421e-02
 -6.2569223e-02
 -7.0578004e-03
 -1.4740954e-02
 -5.3832494e-02
 -3.8424097e-02
 -3.0948997e+00
  6.1464481e-02
 -2.3586014e-02
  3.1897739e-02
  2.1638933e-03
 -6.5362826e-03
  9.2911117e-02
 -1.7459122e-02
  6.9702836e-03
  9.1541834e-02
  1.6524950e-02
 -7.5259097e-02
 -8.0712380e-06
  1.1170065e-03
 -1.6384838e-02
 -3.6349189e-02
 -7.3801470e-01
  4.0787649e-01
 -7.0461422e-01
 -3.0631745e-01
  6.1721507e-02
  6.6985283e-04
 -8.6098230e-03
 -7.7506818e-02
 -2.9265734e-03
  7.7540934e-04
 -1.2440587e-02
  2.9685115e-03
  3.8397435e-02
  4.4590723e-02
  9.6640838e-03
  7.6170400e-02
 -6.8437658e-02
  5.1925275e-02
  7.7363597e-03
  1.0453600e-01
 -1.3455798e-01
 -4.3004274e-02
  1.0203758e-01
  4.9238473e-01
  1.4629276e-02
 -1.1577079e-01
  1.9821582e-02
  1.1321713e-01
 -1.2164545e-01
  1.7362788e-02
  6.0336791e-02
 -1.6017262e-02
  5.1788293e-02
 -2.4987549e-02
  2.4840699e-01
  2.8390044e-02
  6.5367275e-01
 -1.9674523e-01
 -4.9353877e-01
  1.7179227e-02
  3.1563338e-02
 -7.5978870e-03
 -1.0967784e-01
 -1.9374548e-02
  3.0715747e-03
  4.2300928e-02
 -1.1640503e-01
 -4.3077320e-02
 -8.0428056e-02
  2.6401464e-02
 -3.0538919e-03
 -5.2012324e-02
  3.7808489e-02
 -1.1230954e-01
 -8.6001962e-02
  1.0247616e-01
 -5.5442583e-02
 -1.9422991e-02
 -5.4468766e-02
 -3.6519129e-02
 -3.4773063e-02
 -1.6248172e-02
  4.7006205e-02
  1.8421885e-02
  1.6295332e-02
  3.6301516e-02
 -2.0961571e-01
 -1.0302529e-01
  7.2490036e-02
  2.3454953e-02
 -5.7844794e-01
  2.8104398e-01
 -1.2596407e+00
 -4.6791360e-02
  8.7331533e-02
 -1.2700565e-01
  6.9668904e-02
  1.0226045e-01
  1.4941366e-02
 -1.2031829e-03
 -3.6949430e-02
  2.9078929e-02
  1.0127986e-01
  3.3344179e-02
  1.3616694e-02
  6.0886787e-03
  1.6369794e-01
  2.7836263e-03
 -7.9054544e-03
  3.9736666e-02
 -6.2284976e-02
  3.0458856e-02
  3.9512165e-02
 -2.6965456e-02
 -5.3994399e-02
 -6.0200910e-03
  1.2802357e-02
 -3.6018159e-02
  5.2621193e-02
 -5.4210052e-02
  6.0330514e-02
 -1.3689037e-01
  5.2771546e-02
  3.5967320e-02
  5.5933647e-02
  4.8239970e-01
 -1.5572999e-01
  1.6561795e+00
  3.7372860e-01
 -2.1660330e-02
  6.5995023e-02
 -2.3855727e-02
 -5.7673909e-02
 -1.4477442e-01
 -2.1996140e-03
 -1.2669415e-02
  1.1846440e-01
 -5.5732937e-03
  2.0362068e-02
  2.2214654e-04
 -1.2117210e-02
  8.9531057e-02
 -1.7828883e-01
 -5.3422991e-02
  1.3529846e-06
  4.4512730e-02
  8.9111917e-02
  1.3243636e-02
 -4.2760428e-02
 -5.9201154e-03
  9.4645834e-03
 -2.4938153e-02
 -1.5086843e-01
 -3.8067568e-02
  8.4960476e-02
 -1.5291293e-01
 -1.0414248e-01
 -1.0639197e-01
  2.5222877e-03
 -1.7677998e-02
 -8.6376363e-01
  3.4994060e-01
 -6.9856721e-01
 -2.9663724e-01
  1.0072139e-01
  7.3518351e-02
  3.1046014e-02
 -6.8952776e-02
  1.4347686e-02
 -8.2183987e-02
  4.5987736e-02
 -2.8658874e-02
 -3.6663268e-02
 -2.7495950e-01
  6.6597812e-02
  2.1846315e-02
  3.4092646e-03
 -3.6398112e-03
 -6.8372481e-02
 -4.5776483e-02
 -7.5683340e-02
  7.9417378e-02
  1.0901660e-01
 -5.2295998e-02
  3.4057997e-02
 -8.0853790e-02
 -1.2023197e-02
  2.3390235e-02
  7.8320211e-01
 -8.8964306e-02
 -1.7488965e-01
  9.8267443e-02
  2.3431586e-02
 -1.9740147e-04
 -9.5109537e-02
  4.1242033e-02
 -5.8417904e-01
 -7.5636280e-01
  1.0209146e+00
 -3.2551106e-02
  1.3264241e-02
 -7.9032570e-02
 -6.1795946e-02
 -1.9569453e+00
 -7.4754469e-02
 -1.1284307e-01
 -4.7150422e-03
 -1.1715341e-02
  1.6129176e-01
  7.6266326e-02
 -2.3755003e-02
  3.5635397e-02
  1.9345116e-02
  3.6017892e-03
  2.2969604e-02
 -4.2142179e-02
  1.4079706e-01
 -1.0709170e-01
 -3.6941215e-02
 -9.6938320e-02
  1.8349540e-01
 -3.7352536e-02
 -5.4084353e-02
 -9.8346524e-02
  4.4761640e-03
 -4.8350552e-03
 -4.5747075e-02
 -2.3390880e-01
 -3.8518168e-02
  2.5436604e-02
  6.4883959e-01
 -1.9648401e-01
  1.4633533e+00
  1.9166514e-01
  9.2395186e-02
  4.3633339e-04
 -1.1315249e-01
 -1.0187031e-01
 -1.0498729e-01
 -1.4976907e-02
  1.1194889e-01
 -9.9234981e-04
 -8.0044881e-02
 -7.0956722e-02
  2.7541104e-03
 -5.0271000e-03
 -1.5640270e-02
  2.4119060e-02
  6.0317185e-02
  4.8771866e-02
  2.1180470e-01
  2.3734758e-03
  4.1865665e-03
  5.1710907e-02
  8.5462451e-02
 -6.9607735e-02
 -4.1113745e-02
 -5.8287568e-02
 -1.2674279e+00
  4.8625253e-02
 -7.9010352e-02
 -3.3195354e-02
  1.0848684e-02
  5.4506522e-02
  7.0593603e-02
 -9.2565089e-01
  1.4392026e-01
 -9.7528201e-01
 -4.5788336e-01
  1.7337160e-02
 -3.6360063e-02
  1.4337932e-02
 -4.5661718e-02
  4.0958598e-02
 -4.4042222e-02
 -7.9383418e-02
 -8.1566490e-02
 -2.8399076e-02
 -1.8621361e-02
 -4.4075027e-03
  5.6004620e-01
  1.5873043e-03
  4.7727905e-02
  2.1693708e-02
 -9.6471339e-02
 -3.9329786e-02
  3.7307031e-02
  1.5875338e-02
  3.6353625e-02
  9.2093926e-03
  3.0759409e-02
  1.6948014e-02
  9.1229312e-02
  6.7348428e-02
  4.3115992e-02
  1.3225217e-02
  1.0498643e-01
 -2.0018596e-02
 -6.5827142e-03
  1.8462849e-01
 -9.5989722e-01
  1.8030185e-01
 -1.4998285e+00
 -4.4668978e-01
 -2.7817566e-02
 -1.2702929e-05
 -1.4988676e-01
 -1.6735962e-02
  8.4291905e-02
  4.6202332e-02
  1.3955047e-02
  6.3887179e-02
  2.9001269e-02
  3.9019743e-03
 -2.6858721e-02
  3.0544611e-02
  2.9833972e-02
  4.0437885e-02
 -6.2817503e-03
 -3.7065715e-02
 -9.0208225e-02
 -2.5064347e-02
  2.0647332e-02
 -1.5825026e-02
  5.4027922e-02
 -2.1919039e-01
  4.3348763e-03
  9.7449683e-03
  6.0111482e-02
  1.7624635e-02
 -4.2205598e-02
 -1.2444073e-01
 -7.8318357e-02
 -7.9560034e-02
 -4.2768069e-02
 -9.7717601e-01
  1.3406599e-01
 -1.6843674e+00
 -9.3224160e-02
 -1.0168857e-01
  9.4450591e-03
  1.0475408e-02
  1.4057837e-01
  6.1022326e-02
  2.6558315e-02
  4.3478947e-02
  6.2442315e-03
  1.8044513e-02
  2.3719380e-02
 -3.0125214e-02
 -2.7816661e-02
 -2.7467320e-03
 -3.7474558e-02
 -2.8123952e-02
 -5.6295015e-02
  2.4648082e-02
 -4.9878221e-02
  2.9521514e-02
  7.6135777e-02
 -6.0442097e-02
 -1.7064990e-02
  1.5627387e-01
 -1.4361902e-02
 -4.1292258e-02
  4.3225445e-02
  7.9199880e-02
  9.5200121e-02
  1.0632714e-02
 -3.5507895e-02
 -6.9270581e-02
  6.4512473e-01
 -4.2431369e-01
  1.6312090e+00
  4.4305593e-02
 -4.2759944e-02
  5.9701335e-02
  9.3952119e-02
 -3.3199612e-02
  2.2667481e-04
  5.8675606e-02
 -3.6011724e-04
 -4.1137002e-02
 -3.1452380e-02
  2.8038289e-02
  3.9420716e-02
 -3.3532429e-02
 -1.5706383e-04
 -9.4864041e-02
  1.5650957e-03
  4.7769237e-02
  4.5580648e-02
 -4.3347344e-02
  7.9298280e-03
  4.8537239e-02
 -4.6377555e-02
 -5.5292766e-03
 -2.0157179e-02
 -4.2822546e-01
  3.6010277e-03
  9.3029533e-03
  5.6486722e-02
  4.1768178e-03
 -1.0144022e+00
 -2.7247725e-02
 -4.2061813e-02
  1.2486439e+00
 -2.6965539e+00
  1.1862009e+00
  8.5797906e-01
 -8.5010983e-02
  1.5912594e-02
 -1.0243365e-02
  7.3060535e-02
  7.4146777e-02
  2.4990343e-01
  1.6834242e-02
  2.9579952e-02
 -1.2690172e-01
 -4.4330649e-02
 -3.6321071e-03
  2.2895372e-01
 -4.2129904e-02
  1.0698207e-02
 -5.2260552e-02
 -4.3270839e-03
  3.0368016e-04
  5.6591637e-02
  6.2335625e-02
 -4.3284997e-02
  6.6777870e-02
  1.5443330e-01
 -1.8451305e-02
  6.2050346e-02
  4.9288191e-02
  8.8917734e-03
 -6.6019118e-02
 -2.4153274e-02
  4.1892286e-02
 -2.0714732e-02
 -1.7567494e+00
 -3.9589754e-01
 -9.3191043e-02
 -8.4194529e-01
  3.2169974e+00
 -6.5395869e-02
 -2.0139873e+00
 -3.6152825e-01
  3.3386898e-01
 -5.6412947e-01
  4.2804247e-01
 -1.0042073e+00
  3.3123842e-01
 -5.3298146e-01
  9.5465288e-02
  4.9068454e-01
 -1.5763952e+00
  5.6682855e-02
  2.2838852e-01
 -2.4381115e-01
  2.3392658e-01
 -9.5141226e-01
 -1.7586723e-01
  6.4044875e-01
 -2.2282583e-01
  5.8994561e-02
  3.4511214e-01
 -4.3450296e-02
 -7.3045880e-02
 -4.5117024e-02
 -2.3818513e-02
 -6.4786017e-02
  7.7000394e-02
  3.3741601e-02
  6.3702807e-02
 -1.3580789e-02
 -4.9221292e-01
  4.2695597e-02
 -1.7800217e+00
 -2.1755475e-01
 -3.1402963e-03
  3.9817005e-02
  6.3030250e-02
 -9.6077777e-02
 -4.1038387e-02
 -2.2339696e-02
 -3.0766236e-02
  1.5094594e-02
  7.9136580e-02
 -3.5756335e-02
 -6.2497102e-02
 -3.8209125e-02
 -4.5746733e-03
 -5.9335136e-01
 -4.8805950e-03
  2.8484587e-02
  4.4599138e-02
  1.8784234e-02
  2.3135582e-02
 -1.0277467e-02
 -5.5427004e-02
  1.0188364e-01
  1.7810430e-02
 -1.6268896e-02
  1.0987269e-02
  4.7008723e-02
 -9.0363640e-03
 -6.3798331e-02
  1.3015766e-02
 -1.8487394e-02
 -7.2744340e-02
  3.1107363e-01
  8.9351535e-02
  1.7164180e+00
  1.5026872e-01
 -4.2730365e-02
  9.1283336e-02
 -1.1653417e-01
  9.0585630e-03
  3.0536295e-03
  6.9626652e-02
 -4.6005711e-02
 -4.1989777e-02
  5.3043507e-02
 -3.8030134e-03
  4.5062997e-03
 -3.2961972e-02
 -5.5207338e-02
  1.8076200e-02
  1.8734513e-02
  1.4697525e-01
  1.4752884e-02
  3.4756985e-02
  1.8760379e-02
  2.5696518e-02
  2.5368934e-02
 -4.6082451e-03
  1.8070407e-03
 -2.0913366e-02
 -2.0625550e-02
 -2.3080148e-02
 -2.7925332e-04
  4.7221708e-01
 -1.8530757e-03
  1.9532008e-01
  2.2216091e+00
  1.4139010e+00
  2.6653104e+00
  1.2113754e-01
  4.2748899e+00
  1.6546002e-02
 -4.4770908e-02
  1.4975977e-01
  3.2918692e-02
  1.3960162e-02
  7.4150600e-02
 -2.5163120e-02
 -2.9498565e-01
 -7.9416614e-03
 -1.0208626e-01
 -8.6741313e-02
 -1.8391792e-02
 -3.5475481e-03
 -7.7354848e-02
 -1.0235834e-02
  1.1459003e-01
  9.5980629e-02
 -2.1314040e-02
  4.1084331e-02
 -1.9612940e-01
 -1.4296795e-02
 -1.4834918e-01
 -4.1449029e-02
 -4.5837101e-02
 -2.8511604e-02
  1.2792366e-02
  7.5456902e-02
 -4.5801051e-02
 -2.0329763e-01
 -9.2968173e-02
  3.4278393e-01
 -5.4282755e-01
  2.4473337e-02
 -1.6437644e+00
 -1.2113857e-01
  1.9570883e-02
 -5.2838746e-02
 -1.2415083e-02
  8.4870763e-02
 -1.5821251e-01
 -4.5217685e-02
  2.9986944e-02
 -2.4654917e-02
  3.5816971e-02
 -3.8560994e-02
 -7.7648014e-02
 -1.0509697e-01
  4.3288864e-02
 -3.4910038e-02
  2.4185143e-02
 -9.6487897e-03
  6.2145825e-02
  4.8332620e-02
  5.8104072e-02
  7.3681259e-01
  1.6993945e-02
 -2.4926828e-03
  2.5605872e-02
  3.1081775e-01
  2.3197092e-02
  6.4482681e-02
  7.0708252e-02
  4.5952611e-02
 -1.8752578e-03
  5.6391351e-02
  1.5628931e-01
  1.2480378e+00
 -7.3849982e-01
  1.3573053e+00
  2.1786326e-01
 -4.2218003e-02
 -1.3393219e-02
 -1.0029742e-02
  3.7559431e-02
  1.8045345e-02
  7.1115226e-02
  4.7159303e-02
 -1.4423097e-02
  4.2599592e-02
  1.6422013e-02
 -9.6992478e-02
 -1.0711119e-01
  3.1106884e-02
 -3.4608237e-02
 -1.0954645e-01
  2.3425732e-02
 -1.5415896e-01
  7.3166019e-03
  6.4561114e-02
 -9.2975395e-03
  5.7663068e-02
 -1.5883051e-02
  4.7684638e-03
 -1.1172654e-01
 -1.6826802e-03
  2.8930351e-03
 -7.0310287e-02
  2.7476303e-02
  3.7467379e-02
  1.2229293e-02
  3.0869100e-02
 -1.0566169e+00
  3.3695194e-01
 -1.1997801e+00
 -4.9371090e-02
 -5.5199754e-03
  6.8564683e-02
 -2.2495562e-02
 -8.3841175e-02
 -2.3378454e-01
 -6.0508713e-02
  9.4296568e-04
 -1.1599305e-01
  1.1055856e-01
  1.5116526e-02
 -6.3571170e-02
  9.1751598e-02
 -1.1769948e-02
  3.9624143e-03
 -2.9391109e-03
 -1.1517012e-02
 -9.4853811e-02
 -4.2129509e-02
 -4.9449395e-02
 -3.6177047e-02
  9.1223326e-03
  2.6132381e-02
  2.7039868e-01
  2.1128549e-01
 -3.7897971e-01
  3.6770622e-03
  2.6489079e-01
 -9.7934231e-03
 -1.5916167e-02
  2.7532080e-02
  2.4180834e+00
  7.1127750e-02
 -5.2607268e-01
  1.3654606e+00
  1.5941111e+00
  3.6352524e-01
 -8.3952969e-01
 -3.7485787e-01
 -7.9934727e-03
 -3.3833694e-01
  4.8036653e-01
 -8.3065361e-02
  1.0664660e+00
 -3.4708984e-02
  2.4147445e-02
  1.7279561e+00
 -1.1309240e+00
  5.0543809e-01
  3.9262941e-01
  6.6346519e-02
  7.0990449e-01
  1.4226915e-02
  6.8827617e-01
  3.4086782e-02
 -1.7899886e-02
  2.2516219e-02
 -2.1309946e-02
  3.8875051e-02
 -1.1508136e+00
 -1.2068287e-01
  2.6615933e-01
  3.2081146e-02
  1.1116579e-02
  3.3527646e-02
 -3.6019064e-02
  7.4714884e-02
  2.6873491e+00
 -3.1941827e-02
  9.4121838e-01
  2.3406890e-01
  1.9747475e-02
  5.7799567e-02
 -3.3685242e-04
  6.8890102e-02
  2.3243295e-02
  5.4593764e-02
  2.4960157e-02
  1.1550615e-01
 -1.1612061e-01
  3.0280763e-02
  3.4353121e-03
 -2.1378271e-02
 -4.9516965e-02
  3.2519538e-02
  9.4081186e-02
  7.7987343e-02
 -1.1194793e-01
 -5.9950858e-02
 -5.5306006e-02
  5.3318981e-02
 -6.1147735e-02
  1.1177699e-01
 -1.7147211e-03
 -1.2917560e-01
 -1.5420321e-01
 -4.0717065e-02
 -5.8242388e-02
  3.4798011e-02
 -9.1933697e-02
  6.2983580e-02
  4.7276202e-01
  2.8637619e+00
  4.2446966e+00
 -9.4135964e-01
 -1.4450884e+00
 -5.3944986e-02
  1.0245009e-01
 -1.0575376e-01
 -4.1936494e-02
  1.4223669e+00
  2.5443636e-02
  7.4836351e-02
 -3.7206188e-01
 -3.5703089e-02
  4.8263285e-02
 -1.8733235e-01
  2.2905006e-01
  2.6894861e-01
  7.3548914e-03
 -1.4277562e-02
 -1.4058395e-01
 -1.6540190e-02
  3.6520112e-02
 -1.4025571e-02
 -6.0010646e-03
 -5.3567616e-03
  8.0161855e-02
 -2.4466515e-02
  1.0840079e-01
  3.4782931e-02
  3.9293841e-02
 -7.4794874e-02
 -8.7164540e-04
 -1.4838329e-02
 -7.6455255e-03
  8.3501846e-02
 -4.5201293e-01
  4.9788105e-01
 -1.0546259e+00
 -3.2184640e-01
 -4.8951965e-02
 -3.6074156e-03
 -7.6651618e-02
 -4.7318596e-02
  6.1420944e-02
  4.8175741e-02
 -8.9334689e-02
 -1.3700527e-01
  3.8827837e-02
  3.7098709e-03
  1.7889878e-02
 -2.1107843e-02
  1.3519692e-01
  1.0549457e-01
  4.3222107e-02
 -2.8662888e-02
 -7.5532682e-02
  8.4536068e-02
  1.7280632e-01
  9.7625189e-02
  2.7039059e-02
  9.0176277e-02
  1.1756803e-01
 -2.9964676e-02
  4.5487598e-02
  2.0482680e-02
 -1.0946477e-02
 -4.6881404e-02
 -8.6359441e-02
  6.3021637e-02
 -3.1673491e-02
  1.3868369e+00
 -1.9114292e-01
  3.5107598e-01
  5.0383216e-01
 -1.3722885e-01
  3.0918613e-02
 -3.2564048e-02
 -4.4452199e-03
 -4.4202726e-02
 -2.5976488e-02
  9.0823576e-02
  2.4273348e-01
  1.0444409e-01
  1.3199694e-01
  1.0319006e-01
 -1.3331193e-02
 -3.8743898e-02
  3.1488657e-02
  1.1663216e+00
  5.6343939e-02
  9.7760633e-02
 -1.4235611e-01
  2.2468917e-02
  8.0835536e-02
  7.2794561e-03
 -4.6206024e-03
  2.6807103e-02
  1.0169411e-01
  4.7172807e-02
  7.7296518e-02
 -1.0268985e-01
 -5.4784693e-02
  4.2460617e-03
 -1.2141211e-02
  1.5786320e-01
 -3.6897734e-01
  2.0377649e-01
 -1.4779801e+00
 -4.7717281e-02
  1.1237703e-01
  6.9497503e-02
 -6.4495066e-03
 -9.9037692e-02
 -4.8106719e-02
 -4.1463856e-02
 -2.1222665e-03
  4.5294603e-03
 -2.1659985e-02
  1.3877779e-01
  2.8079318e-02
 -1.3300999e-01
  2.3317158e-02
  2.9994852e-03
 -3.7584912e-03
  9.9746110e-03
 -5.7819828e-02
  6.3473821e-01
 -6.2381895e-03
 -5.2407440e-02
  1.1629540e-01
 -1.2148333e-01
 -2.7211368e+00
  5.8753602e-02
  1.7779207e-02
 -3.6342293e-02
  6.2066246e-02
 -7.3840223e-02
 -3.3753991e-02
  3.6688976e-02
 -2.1260568e-01
  5.4579222e-01
 -5.8023825e-02
  1.2272878e+00
  1.2204900e-01
  3.4960095e-02
 -1.9387543e-02
 -1.4462186e-02
  5.5792794e-02
 -4.2134173e-02
  1.5650023e-02
  1.9360617e-02
  1.5941467e-02
  7.0749164e-02
  9.2249475e-02
 -1.6811914e-03
 -2.0141719e-02
  2.9279267e-02
  1.9917063e-02
 -4.9033172e-02
  2.4766371e-02
 -8.4091984e-03
 -1.5263022e-02
  2.7066549e-02
  3.2014653e-02
  5.2840255e-02
 -3.1106258e-02
 -1.1695462e-01
  1.6520528e-01
 -2.2555018e-02
 -8.6792164e-02
 -2.0358782e-02
  6.8130918e-02
 -1.4580558e-01
  2.2478875e-02
  5.7767886e-01
 -1.2157050e+00
  1.2740201e+00
  2.8898551e+00
  3.8943648e-01
  7.0273042e-01
  4.9941514e-02
  4.3432000e-01
 -7.5167127e-02
  8.1487250e-01
  5.7262599e-01
  9.7362725e-03
 -7.7095162e-03
  4.9023411e-01
  1.6332232e+00
  3.4031120e-01
  7.8375751e-01
  1.0912469e-01
 -5.7298280e-03
 -3.3280827e-02
  2.6665559e-01
  2.2038704e-02
 -1.3145399e-01
 -9.8979086e-02
 -6.1607555e-02
 -7.5402744e-03
  7.5356025e-01
 -5.6826357e-02
  2.6442921e-02
 -1.3964752e-02
 -6.7434773e-02
  7.0210919e-03
 -3.6729403e-02
 -6.1692320e-02
  3.3622123e-02
 -2.8200908e-02
  1.2821052e+00
 -1.3547683e-01
  1.3648635e+00
  4.7124919e-02
  8.6699784e-02
 -8.0177570e-03
 -6.8472698e-02
  4.2579964e-02
 -2.8758196e-02
  6.4493120e-03
 -2.0266913e-02
  1.7212103e-04
 -1.2052750e-01
 -4.9808365e-03
 -2.6485031e-02
 -3.1355694e-03
 -4.9679436e-02
 -1.4649308e-01
 -1.2045502e-01
  4.8708372e-02
 -2.6439145e-01
  1.4015457e-02
 -8.7911375e-02
 -3.7256815e-03
 -3.9669439e-02
 -9.3850642e-02
 -1.0759810e-02
  1.5931684e-01
  8.4342830e-02
  7.0474885e-02
 -2.9698653e-02
  1.8134174e+00
 -6.0732182e-02
 -2.8472468e-02
  2.4681926e-01
 -3.0867189e-01
  2.1668329e+00
 -1.6250987e-01
 -1.3296212e+00
  4.1561159e-03
  4.0415142e-02
  2.2719833e-03
  1.0255040e-01
 -1.5147217e-02
 -4.7405876e-02
  6.4565800e-02
 -2.4595028e-03
  1.2800986e-01
  4.5570597e-02
 -1.5462029e-01
 -6.0091488e-02
 -1.3581911e-02
  1.6106213e-02
  4.1479912e-02
 -5.7952221e-02
 -1.8401203e-01
 -1.1359393e-01
 -1.4400334e-02
  1.4032713e-01
 -6.3089237e-02
 -7.8213930e-02
 -5.8246995e-03
  2.4958069e-02
  1.2229475e-02
 -1.0589956e-01
 -4.1540291e-02
  7.0717502e-03
  2.4456507e-01
 -8.9706890e-03
 -2.3063054e-02
 -3.0169946e-01
  8.8583313e-02
 -1.5300997e+00
 -6.2652284e-01
 -8.7713346e-02
 -2.0081575e-04
  4.4317911e-03
  1.6517970e-03
  2.0399660e-02
  2.9963214e-02
  4.4588875e-02
  2.1953987e-02
  8.2657887e-03
 -6.7973815e-02
  1.0282518e-01
 -6.5224513e-02
 -4.2106472e-02
 -1.4265203e-04
  9.8358773e-02
 -1.8993119e-02
  8.6243972e-03
  6.8110123e-02
 -3.1872753e-02
  6.6738054e-02
 -5.0033601e-03
 -3.5200991e-02
  2.3566054e-01
  1.4248139e-02
  5.3866282e-03
 -2.4424328e-02
  1.1592189e-01
 -5.6795413e-03
 -1.3216957e-01
  4.1146956e-02
  7.0192248e-02
 -6.3365346e-01
  1.0181460e-01
 -1.8756516e+00
 -2.2663528e-02
  2.2485575e-02
  4.9584500e-02
 -3.6577354e-03
 -1.2030361e-01
 -1.1258692e-02
 -2.4988133e-02
  1.3884886e-01
 -9.1375522e-02
 -6.9335684e-02
  8.2604021e-02
 -1.8189602e-02
  4.4622228e-02
 -3.7979599e-02
 -6.3161187e-02
  3.7245497e-02
 -3.1092575e-02
  7.1723736e-04
 -4.1980982e-02
 -3.7213854e-02
 -1.2804383e-02
  5.2398641e-02
 -2.6959281e-02
  4.6690051e-02
  3.3706833e-02
  1.6679399e-02
 -7.3489077e-02
  1.5455644e-02
 -2.9081230e-03
  3.9520040e-02
 -7.0642561e-02
 -6.3979574e-02
  7.0844626e-01
 -1.3786098e-01
  1.4865297e+00
 -2.2153238e-02
  3.5244275e-02
 -1.5439969e-01
 -8.9647800e-02
  7.0943877e-02
  1.3893312e-01
  1.2836036e-01
  1.8269517e-02
  5.0713951e-03
 -5.6932792e-02
 -1.1757283e-02
 -2.1701882e-02
 -5.2838065e-02
  9.0197779e-02
  4.1672554e-02
 -7.5926393e-02
 -2.0604596e-01
  8.4701283e-03
 -5.2686315e-02
 -2.4624540e-02
  2.0882832e-03
 -6.4048506e-02
  1.2736904e-02
  1.3659942e-02
  4.8230637e-02
  3.0664101e-02
  2.7434157e-02
 -7.4637525e-02
  1.8000338e-03
  1.0254039e-02
  5.2511975e-02
  1.5727712e+00
 -2.7564185e+00
 -1.1196066e+00
  1.6164182e+00
 -1.7452620e+00
  2.0376947e+00
 -1.5592225e+00
 -1.1704080e+00
  1.0900484e+00
  1.6926695e+00
 -1.7139269e+00
  1.4389347e+00
 -1.4848151e+00
 -1.7305268e+00
 -1.7601483e+00
 -1.4010867e+00
 -1.3030316e+00
 -1.7866894e+00
  1.2073097e+00
 -1.7367758e+00
 -1.4493753e+00
  1.7467054e+00
  1.3201498e+00
  2.2678251e+00
  1.5709178e+00
 -1.7059878e+00
 -1.2461947e+00
  1.3376569e+00
  1.9841648e+00
  1.6990516e+00
  1.5053213e+00
 -1.3627468e+00
  1.8080076e+00
 -2.9284954e+00
 -1.0331144e+00
  1.6841807e+00
  9.6517479e-01
  1.5401734e+00
 -1.6052878e+00
  8.3378226e-02
 -1.0755398e+00
  1.4595131e+00
 -1.7703961e+00
  4.7825274e+00
  1.2877902e+00
 -1.3749216e+00
  1.9007396e+00
  3.7264428e-01
 -1.3754535e+00
  4.2165717e-01
  1.6640351e+00
 -2.0004098e+00
  1.4739903e+00
 -1.3814694e+00
  5.0981359e+00
 -1.3365490e+00
  1.1582037e+00
  1.5027014e+00
  1.3120348e+00
 -1.4637035e+00
  7.9841006e-01
 -3.0430079e+00
 -9.2043138e-01
  3.2070415e+00
 -6.1555848e+00
 -1.6428925e-01
 -2.8459156e+00
 -1.4694628e+00
  1.3631099e+00
  1.5737031e+00
 -1.2848803e+00
  2.8924043e+00
 -2.3945510e+00
 -3.6506343e+00
 -1.2199907e+00
 -1.4681237e+00
 -1.0954961e+00
 -2.5976522e+00
  1.8696040e+00
 -9.3651378e-01
 -9.4661176e-01
  2.4004571e+00
  4.3445829e-01
  5.5762882e+00
  1.6401155e+00
 -2.7715197e+00
 -5.5295813e-01
  1.3527243e+00
  1.5592344e+00
  5.0709462e-01
  1.6675875e+00
 -1.6064062e+00
  1.2351731e+00
 -1.2464985e+00
 -5.5274886e-01
  1.8672816e+00
  1.4287455e+00
  4.5225968e+00
 -3.3823612e+00
 -1.2444202e+00
 -1.6609859e+00
  2.6559281e+00
 -3.8779738e+00
  2.4897549e+00
  2.2093751e+00
 -3.8388999e+00
  6.0161266e+00
 -9.1865498e-01
 -3.5001860e+00
  2.7261209e-01
  1.0960534e+00
 -2.9890966e+00
  1.4901233e+00
 -1.2861347e+00
  2.1083894e+00
 -2.3681571e+00
  1.2768011e+00
  2.2840633e+00
  3.0010619e+00
 -1.9690614e+00
 -1.2127448e+02
  2.5029452e+00
  6.3889194e-01
  5.9497261e-01
 -6.7446552e-02
  9.2138946e-01
  7.1438521e-01
 -5.5254374e-02
 -6.0553789e-01
 -1.5348086e+00
 -2.3918328e+00
 -2.1019001e-01
 -7.6568878e-01
  6.6439754e-01
  1.1395878e+00
 -1.2651075e+00
  1.4794376e+00
  1.7254533e+00
  3.3269483e-01
 -1.0500156e-01
  9.4146216e-01
 -1.6319896e+00
 -1.5355456e+00
 -6.9680430e-02
  6.8140596e-01
 -1.8544939e+00
  9.8183233e-01
 -3.0210033e-01
 -2.6341188e+00
  1.2858275e-01
  9.7191787e-01
 -5.4766804e-01
 -1.8235455e+00
 -8.5703236e-01
 -1.1581583e-01
 -3.2009795e-02
 -5.8749318e-01
  1.2416201e+00
  2.1404599e-01
  6.3027672e-02
  1.9971243e-01
  4.7252569e-01
  8.9293150e-03
  1.1798313e+00
  3.9291213e+00
  4.7802490e-01
  1.0674137e+00
 -1.7333869e+00
  2.6746471e+00
  1.3598877e+00
 -1.5285673e+00
  2.5768428e+00
  1.9695501e+00
 -1.7264676e+00
 -3.3338286e-02
  3.1968108e-01
 -1.6854504e-01
 -2.5010152e+00
 -3.2549348e-01
 -8.1754154e-01
 -1.6938479e+00
 -4.6542835e-01
  2.6280029e+00
 -2.3396827e-01
  6.2724507e-01
  1.7432058e+00
  5.8432639e-01
  3.1384141e+00
  3.2070220e+00
 -1.7548552e+00
 -8.6911726e-01
  3.5792150e+00
  1.2640779e+00
 -2.4644697e+00
 -1.3055185e+00
 -1.5173483e+00
  3.7735839e+00
 -1.7695321e-01
 -6.1923839e-02
 -8.0709755e-01
  3.0685647e+00
 -2.2827122e+00
 -1.9983859e+00
  1.9703901e-01
 -6.7012095e+00
 -2.2392218e+00
 -2.0843327e+00
 -7.5785831e-02
 -1.6088191e+00
  1.6535944e+00
 -3.0519941e-01
  2.5829251e+00
  3.5867782e+00
 -1.1813473e-01
 -1.9323912e+00
 -1.8809744e+00
 -1.9070134e-01
  7.5699621e-01
 -1.8892500e+00
 -4.6967992e-01
 -3.3871896e+00
 -2.4619410e+00
 -1.1929510e+00
 -7.1886164e-01
 -2.9893458e+00
 -1.6647586e+00
 -3.4576648e-01
 -4.5680225e-02
 -3.2013386e-01
  3.3659234e+00
  1.2040601e+00
  9.0460837e-01
  3.6433802e+00
 -1.9118798e-01
 -5.5888873e-02
  5.1390022e-01
  4.7659793e-01
  1.3281405e+00
  1.6227196e+00
  3.5905275e+00
  7.1144347e+00
  5.5554765e-01
  1.8081373e+00
  1.4214603e+00
  6.1068618e-01
  4.7406673e-01
  1.1517267e+00
  1.5426849e+00
  9.6872705e-01
 -1.3618640e+00
  3.5826632e-01
  1.6066222e+00
  9.1877890e-01
  1.0711975e+00
  1.3904922e+00
  8.7129068e-01
  6.1010796e-01
 -1.4415007e+00
  1.5792699e-01
  7.6907074e-01
 -6.0482496e-01
  8.2593757e-01
  4.9950364e-01
  1.2054579e+00
 -3.2134074e-01
  2.2279217e+00
  2.8753490e+00
 -6.8823707e-01
  1.0858507e+00
 -2.6290359e-02
  1.2490960e+00
  2.1796967e-01
  2.3989677e+00
 -1.5060339e+00
  3.1225625e-01
  8.4269416e-01
 -9.0608233e-01
  4.0908399e+00
  3.4237394e+00
  3.7530050e-01
 -1.1562283e+00
  1.3348492e+00
  1.7009959e+00
  3.2537243e-01
  4.3194357e-01
 -1.4981911e-01
 -8.9902639e-02
  3.7412122e-02
  1.1781201e+00
  1.6766300e+00
  2.1539948e+00
  2.5170841e+00
  2.6267219e+00
  6.3816988e-01
  6.0888445e-01
  1.2445871e+00
  4.0713593e-02
  1.9628839e-01
  1.9512370e-01
  3.9003271e-01
  4.4651303e-01
  1.6175841e-01
  7.5739157e-01
 -9.4517785e-01
 -9.3203622e-01
 -1.7945540e-01
  1.8649634e-02
 -2.5956836e-01
 -2.1640553e-01
  2.0458062e-01
 -1.6271133e-02
 -1.2381526e+00
 -1.0538386e+00
 -3.0114412e-02
 -1.1973373e+00
 -1.2332659e+00
 -3.1425348e-01
  1.1129914e-01
 -6.0521960e-02
 -3.4458014e-01
  2.9402518e-01
  8.4285623e-01
 -1.1106285e-02
 -2.2427340e-01
 -1.7949152e-01
 -1.5871056e+00
 -4.3385676e-01
 -2.9299766e-01
 -1.1090760e+00
 -2.7276999e-01
  1.2996230e-02
  1.3229178e-01
 -1.0709587e+00
 -1.5657578e+00
 -2.9270694e-01
 -3.5226706e-02
 -1.1091766e+00
  4.5425442e-01
 -5.7142559e-02
  7.3448557e-01
  1.0543195e+00
 -2.7754486e+00
 -3.5683498e+00
  1.8557476e+00
  4.1078930e+00
  1.8490094e+00
  1.6883191e+00
 -1.0346063e+00
 -1.3718572e+00
 -2.8799355e-01
  3.1981847e-01
  9.6948731e-01
  1.7362925e+00
 -2.4032960e+00
 -1.6303988e+00
  7.8428036e-01
  1.0266421e+00
  3.1035611e-01
  4.8254988e-01
 -1.6180708e+00
 -8.1965560e-01
 -2.2549832e-01
 -8.0708015e-01
  5.5795591e-02
 -7.2986186e-01
 -6.8778312e-01
 -8.1671125e-01
  8.2507700e-01
 -5.7275422e-02
 -6.3399816e-01
 -6.3801390e-01
  2.1686053e-01
 -5.3892660e-01
 -3.4703439e-01
  1.7884395e-01
  8.0259079e-01
  2.7647421e-01
  8.9565642e-02
  1.4385031e-01
 -1.5480598e-02
 -2.3769049e-02
 -1.2077258e-01
 -1.3724254e+00
  3.1828082e-01
  7.6033002e-01
  2.3982748e-01
  1.4324961e+00
 -1.7216363e+00
 -9.6892321e-01
 -3.0762706e-02
  6.3705653e-01
 -1.3610445e-01
  7.2629911e-01
  7.4753249e-01
 -2.9164287e-01
 -4.7391202e-02
 -1.3217232e+00
  1.3668122e+00
  4.9777693e-01
 -1.0403353e+00
 -1.7409235e+00
  1.2061707e+00
  2.0132003e+00
 -1.4756982e-01
  8.7603398e-02
  3.9671338e-01
  7.9825968e-01
 -3.9502195e-01
  4.8655141e-03
 -7.5994736e-01
  3.8736481e-02
  2.5885648e-01
  8.9690179e-01
 -1.3565621e+00
 -6.8782954e-03
 -3.7164032e-02
 -2.3556659e-02
  2.1399932e+00
  2.6762944e-01
  5.1061916e-01
  2.6517304e-02
 -4.8405820e-01
 -1.3818151e+00
 -1.4564329e+00
 -1.2124958e+00
  8.9663893e-01
  2.1664996e-02
  3.5500798e-01
  3.3270571e-01
 -1.2175158e+00
 -2.8580574e-02
 -5.4532617e-01
 -1.4910923e+00
 -5.3610879e-01
 -2.0814849e-02
 -1.1828914e-01
 -3.5192814e-01
  3.3634592e-02
 -8.1941292e-02
 -3.2172825e-02
 -1.5375200e-01
  3.6261207e-01
 -1.2169421e-01
 -2.3976868e-01
 -2.6504704e-01
  1.0151438e+00
  8.4638292e-01
 -4.4301227e-01
  2.3695846e+00
  1.0140628e-01
 -2.8926712e-01
  3.5030298e+00
  5.2648096e+00
  3.3862083e+00
  1.4442912e+00
 -1.2173868e-01
 -6.5482414e-01
 -2.2771139e+00
 -2.2790697e+00
  7.0281309e-01
 -1.3244535e+00
 -2.4282839e+00
 -7.7363509e-01
  5.1775694e-01
 -1.4416268e+00
 -1.5481888e+00
 -3.7271184e-01
 -3.2150450e-01
 -1.2169856e+00
 -5.2220130e-01
 -5.6440413e-01
 -2.3638867e-02
  3.2713443e-02
  3.3903736e-01
  1.2480480e-01
 -2.2080058e-01
 -9.8225451e-01
  3.5391310e-01
  8.8931419e-02
 -3.9279431e-01
 -2.1588047e-01
  2.9616835e-02
  2.9616835e-02
  2.9616835e-02
  2.9616835e-02
  2.9616835e-02
  2.0425856e-01
  2.0425856e-01
  2.0425856e-01
  2.0425856e-01
  2.0425856e-01
  1.6406114e-01
  1.6406114e-01
  1.6406114e-01
  1.6406114e-01
  1.6406114e-01
  5.0968606e-02
  5.0968606e-02
  5.0968606e-02
  5.0968606e-02
  5.0968606e-02
  2.4840077e-02
  2.4840077e-02
  2.4840077e-02
  2.4840077e-02
  2.4840077e-02
  1.8215278e-01
  1.8215278e-01
  1.8215278e-01
  1.8215278e-01
  1.8215278e-01
  8.9403339e-02
  8.9403339e-02
  8.9403339e-02
  8.9403339e-02
  8.9403339e-02
