nep4_zbl 2 Ga In 
zbl 1.25 2.5 0.7
cutoff 6 5 68 39
n_max 4 4
basis_size 8 8
l_max 4 2 1
ANN 60 0
  1.8276459e+00
 -6.9105618e-02
 -1.2308592e-02
 -6.8195856e-01
  4.6727292e-02
 -3.9080385e-02
  1.3937064e-02
  2.9665994e-02
  2.8218323e-02
 -4.7668543e-02
  6.2414952e-02
 -1.2151522e-02
 -1.8274454e-02
  2.8869484e-02
 -9.0412032e-03
  1.4141146e-02
  2.8042343e-02
  5.5141911e-02
 -5.3543385e-02
  2.6548155e-02
  2.5017841e-02
 -3.8381413e-02
 -4.1029669e-02
  3.6654979e-02
  3.5685997e-03
 -1.6598022e-02
 -3.8134005e-02
 -1.2904980e-02
 -3.6590841e-02
  2.2928901e-02
 -2.4181979e-03
  1.0276528e-02
  4.0309504e-02
  8.9762531e-02
  3.2939915e-02
  1.3794287e+00
  3.5893269e-02
  2.7037472e-01
 -5.0969201e-01
  1.5297829e-02
 -7.6995874e-03
 -3.8275506e-02
 -2.7799761e-02
 -7.9644509e-02
  1.1987062e-03
 -8.6521611e-02
  7.1478179e-03
 -4.7317408e-02
  4.6522226e-02
  5.4911088e-02
 -1.3773710e-02
  6.4213216e-02
  3.3905853e-02
  2.1057596e-02
 -1.9693382e-02
 -8.9539483e-02
  2.8812269e-02
  1.8232316e-02
  1.8023036e-03
 -3.4530073e-02
  4.2902835e-02
  5.5726845e-02
  2.8615862e-02
  2.0181539e-02
  1.4114801e-02
  3.3765372e-02
 -1.1792155e-02
 -2.4312889e-02
  2.6696533e-02
 -3.3089612e-02
  1.3836128e+00
 -1.0309225e-01
  2.6596814e-01
 -1.9097070e-01
  1.0956249e-01
  1.8830465e-02
  7.6843977e-02
 -1.7524704e-02
  1.7826278e-02
 -7.7122282e-03
  9.2702201e-03
  1.0228752e-01
  1.4054249e-02
  7.2340995e-02
  1.1916700e-02
 -3.7863310e-02
 -2.2901857e-02
  1.2161857e-02
 -3.8224270e-04
  3.8086813e-02
 -1.0117642e-02
 -4.4064276e-02
  5.9859812e-02
 -4.2349990e-03
  3.2878015e-02
 -5.9617229e-02
 -5.3748932e-02
 -3.9049771e-02
  4.5166038e-02
 -7.7296980e-03
 -5.2033234e-02
  6.0307354e-02
 -4.4100963e-02
 -1.0423886e-01
  1.4948727e-02
 -1.6409413e+00
  1.4825718e-02
 -2.7960038e-01
  4.1378671e-01
 -1.5086935e-01
  3.8070062e-03
 -5.4410305e-02
  5.0376050e-02
  4.5397099e-02
 -1.1510203e-03
 -1.0462917e-02
  2.0935260e-02
  2.4979807e-02
  3.6936264e-02
  2.9425055e-02
  8.6433165e-02
 -9.4482535e-03
 -1.9948158e-02
 -1.7336513e-01
 -4.6505269e-02
  4.3904610e-02
  3.6579543e-01
  1.8954191e-03
  1.0911445e-02
  9.1777757e-02
 -2.3426574e-02
 -6.9196634e-03
  8.0315121e-02
 -3.0597884e-03
 -3.9859205e-02
 -2.8849781e-02
  1.0451183e-02
 -6.7009628e-02
  1.0974096e-02
 -4.0092906e-03
 -1.6604798e+00
  4.2714659e-02
 -4.4821501e-02
  2.1089319e-02
 -1.1938962e-01
 -1.0258878e-02
  2.6869331e-02
 -5.5945918e-02
 -1.2733995e-02
  1.6158303e-02
  5.0925333e-02
  1.0215945e-02
 -1.3087556e-02
  1.8245101e-02
  6.0285639e-02
 -1.3252175e-01
 -1.1239418e-01
 -3.8325533e-03
 -3.1377729e-03
 -7.3552810e-02
 -8.9718051e-02
  3.3994254e-02
 -9.6585318e-02
 -1.6682593e-02
 -1.5898023e-02
 -1.1312604e-02
 -2.0144899e-04
 -1.3612864e-02
  8.1658855e-02
  4.6553578e-02
  6.7601889e-02
 -8.2892720e-03
 -3.3973891e-02
  5.3226877e-02
 -4.0150609e-02
  1.6184196e+00
 -4.0159612e-03
  1.0907589e-01
 -4.3853899e-03
  1.2701420e-01
  4.6059981e-02
 -1.5255018e-02
  4.4827435e-02
  1.3370479e-02
  7.6999508e-02
 -9.6568361e-02
 -3.1164022e-02
 -1.5470279e-02
  7.5585306e-02
  1.7494842e-02
 -7.5066619e-02
 -2.1189848e-02
 -1.5420967e-02
  1.0200989e-01
  1.1020076e-02
  2.2836275e-02
 -1.6602889e-02
  7.4279480e-02
  2.1263508e-02
 -3.2125771e-02
 -4.7692820e-02
 -2.7522277e-02
  5.0997607e-02
  2.1489743e-02
 -6.3266315e-02
 -3.3610493e-02
  5.8322288e-03
  8.3055757e-02
 -5.4572443e-03
 -6.4179264e-02
  1.3233594e+00
 -1.0567000e-01
  1.7143132e-01
 -5.0503045e-01
  1.5557508e-01
 -2.7563833e-02
 -1.1920439e-02
  1.5200512e-02
  9.1700153e-03
 -8.6915918e-02
 -2.3254842e-02
 -1.8065825e-02
 -2.7205966e-02
 -3.4025706e-02
  4.6777129e-03
 -2.5071634e-02
  7.9019010e-02
  1.1120596e-02
 -1.8878473e-02
  5.6293655e-02
 -3.1931248e-02
 -8.3800070e-03
 -6.5114076e-04
 -1.8058410e-02
  1.2143993e-02
 -2.1539068e-02
  2.2913689e-02
 -8.3589144e-03
 -3.3355355e-02
  3.2911774e-02
  1.2815199e-02
  1.1431307e-02
  8.6397015e-02
  5.3590119e-02
 -4.0656008e-02
 -1.3330967e+00
  1.9476153e-02
 -6.4300868e-04
  9.5014179e-01
  1.2763486e-02
 -3.5321511e-02
 -1.3207315e-02
 -2.4897777e-02
  3.4135204e-02
 -9.6347995e-02
  9.6667163e-02
 -7.1581893e-02
 -7.4876666e-02
 -6.0487874e-02
  9.5856087e-03
 -2.1544162e-02
  5.3676423e-03
  1.3291109e-02
  3.5695583e-02
 -3.7141159e-02
 -7.5330116e-02
 -4.4091225e-02
 -4.1275248e-02
 -1.4945122e-02
 -1.3393314e-03
 -9.8749742e-02
 -1.3672623e-02
 -1.6973462e-02
  7.1995042e-02
  5.9568819e-02
  2.2710068e-02
 -1.8377955e-01
 -1.3537586e-02
 -3.9538596e-02
  5.7114050e-02
  1.7292490e+00
 -7.5555607e-03
  1.1062070e-01
 -2.1823712e-01
  1.3749254e-01
  8.9702033e-02
 -1.6126232e-02
 -5.8221037e-04
  1.5627960e-02
 -3.7523508e-02
  4.4227652e-02
 -1.4659597e-02
  3.1823646e-02
 -6.0680758e-02
 -3.1712744e-02
  1.2226270e-03
  2.3342159e-02
 -7.8345193e-03
  5.9388909e-02
 -1.9653972e-02
  5.9976093e-02
  7.5186831e-03
 -6.2147863e-02
  6.3921988e-02
  4.6490017e-02
 -4.6776634e-02
 -2.4256410e-02
  6.9464549e-02
  3.5332839e-03
  1.6425675e-01
 -1.4280403e-01
  1.4885803e-01
 -2.8760225e-02
  5.5412821e-02
  8.8599481e-02
  1.4023584e+00
 -9.2215920e-03
 -3.1066058e+00
  2.6587114e+00
  3.7072003e-01
 -2.1331039e-01
  4.9612191e-01
  3.7815511e-01
  1.1415182e+00
 -1.2534807e-02
 -1.0630471e-02
  3.3782944e-01
 -4.1773027e-01
  9.2738521e-01
 -2.0511845e-01
  1.6410695e-01
 -3.0032876e-01
  1.2025599e-02
 -1.6119952e+00
  8.0273849e-01
  1.2376838e-01
  8.6073488e-02
 -2.8080517e-01
 -3.7135521e-01
 -7.7102616e-02
 -6.5105617e-02
 -2.1897130e-02
  3.5863888e-02
 -2.7163252e-02
  5.4978929e-02
 -5.8452189e-02
 -8.4527284e-02
 -8.8069633e-02
 -8.1331227e-03
 -2.9416472e-02
  1.5390743e+00
 -4.7473248e-02
  3.9344981e-01
 -3.6641368e-01
  7.7984318e-02
  2.1658055e-02
  2.6927406e-01
  9.5201246e-02
 -4.4589601e-02
 -2.0477751e-02
 -2.7904685e-03
  7.3119111e-02
 -2.0395589e-01
 -1.1615116e-01
  8.5846186e-03
  1.3969580e-02
 -1.0598485e-02
 -2.1079347e-02
  1.3249403e-02
 -2.5394633e-02
  1.4928906e-03
 -1.0840249e-02
  3.8669232e-02
 -1.0892599e-01
 -7.9310417e-02
 -1.7555766e-02
 -2.2938831e-03
  6.3737184e-02
 -5.0302949e-02
  1.0131906e-02
  4.3510508e-02
 -1.0442267e-01
 -2.8038677e-03
  4.9430691e-02
 -3.8060874e-02
  2.2990489e-01
 -1.3462453e-01
 -1.0606725e+00
  5.5278767e-02
 -5.5998796e-01
  1.6595200e-01
 -3.5981495e+00
 -8.7650526e-01
 -1.2167398e+00
  3.6319789e-01
  7.8719221e-02
 -1.5248718e+00
  5.9934282e-03
 -5.5616993e-01
 -6.9806099e-01
 -5.1793075e-01
 -1.2376279e+00
 -9.0365462e-02
 -2.4078600e+00
  9.6181023e-01
 -2.1907029e-01
 -3.4519196e-01
 -1.3368211e+00
 -7.5583178e-01
  9.9137759e-01
  6.3040614e-02
  1.2472264e-02
  3.2162922e-03
  5.3847122e-01
 -2.9183787e-01
 -2.9714930e-01
  5.8972467e-02
  1.0870476e+00
  6.3903600e-02
  2.3453678e-01
  1.2818416e+00
 -9.6548155e-02
  2.2288807e-02
  3.3094194e-02
  1.7253513e+00
 -9.4611188e-03
 -1.6396377e-02
 -1.8347729e-02
  5.2276704e-02
  1.0297314e-01
  8.3485171e-02
 -2.9124025e-02
  1.2318350e-01
  5.0488818e-03
 -8.4305495e-02
 -1.9414557e-02
 -7.5689740e-02
  1.1424591e-03
 -8.1393875e-02
  3.6895107e-02
  3.5578195e-02
  4.7346547e-02
 -2.1216974e-02
 -4.4618095e-03
  4.8618212e-02
 -2.2836779e-03
 -1.0154264e-01
  5.0095029e-02
  4.1660171e-02
  2.6462920e-02
  2.6520908e-02
  6.8966888e-02
  5.4022793e-02
  1.5196334e-02
 -1.2704727e-02
  1.7874800e+00
  6.0400676e-02
  1.4526173e-01
 -3.2634085e-01
  3.2588640e-01
  5.5699725e-02
 -2.9741438e-02
  1.0615283e-01
 -3.8434558e-02
 -4.7641337e-02
  5.2346397e-02
  6.2071379e-02
 -9.8569937e-02
  2.8385030e-02
  4.7349729e-02
 -9.1715381e-03
 -1.4066349e-01
  6.6929750e-02
  3.2951299e-02
  2.0319832e-02
 -2.0186400e-02
 -6.0454425e-03
  4.1159499e-02
  2.7461905e-02
 -3.1674426e-02
 -1.2428894e-02
 -1.2469997e-03
 -2.5480296e-02
  1.7670352e-02
 -3.4608066e-02
  5.4955516e-02
 -4.1205119e-02
 -2.1420052e-02
 -6.7738006e-03
  7.1095102e-03
  1.6021515e+00
 -5.8903717e-02
  2.0206894e-01
 -8.9150578e-02
  1.7901194e-01
  3.1375073e-02
  3.0830074e-02
 -2.1953326e-02
 -5.0995688e+00
 -1.9620415e-03
 -2.7487099e-03
  1.2089876e-02
 -1.3238631e-02
 -2.2187077e-02
 -5.7669926e-02
 -3.3927929e-02
  2.6981177e-02
  2.0829491e-02
 -2.3174096e-02
 -2.1771589e-02
  4.1627079e-02
 -8.8742767e-03
  1.2368360e-05
 -2.2271946e-02
  6.6929109e-02
  4.8983060e-02
 -5.8727679e-03
 -3.9634377e-02
 -1.6930031e-03
 -1.0248401e-03
  2.9847843e-03
  2.2385770e-02
  1.8967709e-03
  7.7016324e-02
 -4.7735297e-03
 -1.6368256e+00
  9.0868520e-03
 -7.9690444e-04
  1.3914281e-01
  5.1901214e-02
 -4.0712457e-02
  6.2201535e-03
  2.1454684e-02
  1.6033469e-02
 -1.2066635e-02
 -2.5565969e-03
 -2.4552720e-03
  9.0971649e-02
  3.2778963e-02
 -1.0825911e-02
 -1.7793244e-02
  5.1594835e-02
 -2.7431378e-02
  6.8487105e-04
 -6.8830505e-02
  1.9902287e-02
 -1.9728821e-02
 -6.7934409e-02
  9.8895216e-03
 -6.9441855e-02
 -3.3633623e-02
  3.8905781e-02
  5.3233985e-02
 -3.9927885e-02
  4.1684721e-02
  2.5004428e-02
  2.5717901e-02
  2.8023232e-02
  3.6652002e-02
 -9.3012623e-02
 -1.6596137e+00
 -5.5244830e-02
 -3.0854034e-01
  5.4055357e-01
 -2.1596288e-02
  2.0942187e-02
 -2.9305806e-02
  4.0567134e-02
 -3.9325055e-02
  4.9857873e-02
 -5.0715785e-02
 -5.1788256e-02
 -3.3736730e-03
  3.9105039e-02
  7.5445436e-02
  4.3621515e-03
 -4.2828780e-02
  1.5688885e-02
  6.9806729e-03
 -3.2505795e-02
  7.9842925e-02
  2.6897529e-02
 -9.5273666e-02
 -4.3779720e-02
  4.4478956e-03
 -7.0610128e-02
 -2.0984256e-01
  2.6552720e-02
 -4.7426351e-04
 -1.0868589e-01
 -2.1068152e-02
  2.3619009e-02
  4.6281996e-03
 -2.5065208e-02
 -4.7169972e-02
  1.3512912e+00
 -6.5066814e-01
 -1.7698262e+00
  4.3739552e+00
 -2.5820191e+00
  3.8115251e-01
  8.5616654e-01
  4.4845459e-01
  3.8600132e-01
  8.1879008e-01
  8.3268178e-01
 -4.1023325e-03
 -1.0201287e+00
  3.1490719e-01
 -8.1481290e-01
 -1.0677904e-01
  2.5677379e-02
  1.3327721e+00
 -7.0833999e-01
 -8.8343126e-01
  5.7852358e-01
  1.5317415e-02
  3.6836073e-03
 -3.0075351e-02
  9.1521722e-01
 -1.6162539e-02
  1.5475974e-02
 -1.2971613e-03
 -5.8821132e-03
 -1.1070656e-02
  1.1610053e-01
 -2.1121763e-03
 -2.5155470e-01
 -2.5433216e-02
  1.6429316e-02
  1.6747369e+00
  8.0819248e-04
  4.7088873e-01
 -3.6375672e-01
  3.7887827e-02
 -1.1998867e-02
 -2.1543806e-02
 -9.9489717e-03
 -9.8413482e-02
  3.3071451e-02
 -2.7643512e-03
  4.3562472e-02
  1.1934554e-01
  6.0644820e-03
  4.0887844e-02
  2.4415022e-02
  3.4093983e-02
 -4.4646185e-02
  1.3300499e-01
  5.1780071e-02
  4.0418670e-02
 -1.2351879e-03
 -6.1512366e-03
  4.9959481e-02
 -7.1357422e-02
 -1.0850257e-02
 -2.6656393e-02
 -3.8118158e-02
 -4.8709225e-02
 -8.4203361e-03
  6.5249326e-03
 -1.1750037e-02
  9.8232843e-04
 -9.8154461e-03
 -1.0030939e-02
 -1.5322909e+00
 -1.7524549e-03
 -1.3241805e-01
  2.4930562e-01
 -8.8042632e-02
 -1.5247742e-02
  3.9229315e-02
  1.9232249e-02
 -2.6241666e-02
 -4.1882064e-02
 -8.2219178e-03
 -8.4571034e-02
  5.5523110e-03
  2.3512023e-02
  9.9868461e-02
 -3.8975231e-02
  1.1497349e-02
 -6.6499032e-02
 -2.2344081e-02
  5.5794112e-02
  2.1670172e-03
  1.8067852e-02
  2.7669179e-05
 -1.0330593e-01
  1.0372032e-02
  1.9547613e-02
  4.7230266e-02
  7.0627006e-03
 -7.2956361e-02
  1.4618504e-03
 -1.3799766e-03
 -2.6932473e+00
 -6.3214667e-02
 -8.1421612e-03
  9.8144233e-02
 -5.3278589e-01
 -3.9386383e-01
 -3.8857421e-01
 -2.0509608e-01
 -1.1142737e+00
  7.0434636e-03
  2.2831732e-02
 -7.3361605e-02
 -1.3732798e-01
 -6.9811293e-03
  2.7016876e-02
 -7.9300985e-02
 -3.9154917e-01
 -1.3573442e-01
  8.4705595e-03
 -6.8423070e-02
 -5.0310228e-02
  5.2754730e-02
  2.2022040e-01
 -3.0708244e-01
 -1.1946342e-02
 -1.4416748e-01
 -1.5817975e-01
 -1.5228601e-01
  9.1900371e-02
  8.2790226e-02
 -1.0930646e-01
  2.2728849e-02
  2.7583935e-03
  2.8812764e-03
  8.2846634e-02
 -8.3859712e-02
 -2.9342324e-02
  9.9973138e-03
  1.9825116e-02
 -1.2655697e+00
  2.6902413e-01
 -8.9583322e-03
  2.7343777e-01
 -5.0701160e-02
  5.1688468e-03
 -6.8482690e-02
 -9.8626100e-02
  2.7221266e-02
  3.8070727e-02
  2.3282040e-02
  1.0970552e-01
  2.1339532e-02
 -4.3914821e-02
  5.0654840e-02
  1.8828208e-02
 -5.2930728e-02
  2.5809713e-02
 -3.2367177e-02
 -6.8823383e-03
 -3.3331111e-02
 -2.8997578e-03
  1.7009748e-02
  3.8871661e-02
 -3.9211488e-03
 -1.9511228e-03
 -3.0489268e-02
 -4.7275443e-02
  8.7195203e-02
  2.5744982e-02
  3.1645328e-02
  6.1526649e-02
 -3.4284048e-02
  1.5737772e-02
  2.2551782e-02
  1.4268326e+00
 -9.0225428e-02
  3.6979653e-02
 -2.5711319e-01
  7.5087065e-01
  8.0365859e-02
 -9.5180139e-02
 -4.3317627e-02
  3.3904673e-03
  6.9106802e-02
  4.4384799e-03
  1.9620767e-02
 -9.8849398e-01
  5.9611004e-02
  6.9445610e-02
 -1.2379748e-01
 -1.2460008e-02
  4.8726471e-03
 -3.1081889e-02
 -3.7738349e-02
 -1.8432936e-02
  5.4333221e-02
 -7.0111887e-03
  2.9569972e-02
 -4.3810204e-02
 -6.8100840e-02
  1.0926996e-02
  1.8362276e-02
  2.1860301e-02
  8.9455051e-03
  7.8163080e-02
  4.0008944e-02
 -2.9556453e-02
 -1.7821258e-03
 -2.4305122e-02
  1.7603809e+00
 -8.0207422e-02
  2.2314589e-01
 -2.9714635e-01
  6.7300037e-03
  4.5402788e-02
 -6.4005621e-02
 -3.5372719e-02
  2.2959519e-02
  1.6766567e-02
 -1.1584435e-01
 -8.8268947e-03
  7.4130617e-02
  6.9165356e-02
  2.5908928e-02
 -4.4459049e-02
  6.7264669e-02
 -1.0282345e-04
  8.2566246e-02
 -1.2657026e-02
  6.9387723e-03
 -9.5878802e-02
  4.9022157e-03
  6.2067248e-02
 -2.0757630e-02
 -1.2832651e-01
 -2.0873526e-02
  1.3430351e-02
  5.3008046e-02
  1.8594703e-02
  7.5034373e-02
 -6.6733778e-02
  5.7348091e-02
 -2.4931649e-02
 -3.1706288e-02
 -1.6667022e+00
  1.5901990e-02
 -2.5340450e-01
  9.6170537e-02
 -2.7652601e-02
  9.4718829e-02
 -1.0055019e-02
  5.4911416e-02
  2.8248759e-02
  1.5110525e-02
 -2.4880557e-03
 -6.7398645e-02
 -4.5873027e-02
  3.0197531e-02
  2.2991993e-02
  3.3903727e-03
 -5.4564934e-02
 -3.9451983e-02
  1.7454496e-02
 -9.2303017e-03
  6.1718952e-02
  4.2414337e-02
 -1.5750399e-02
 -1.1259061e-02
  7.1005315e-02
  4.3524813e-02
 -2.3706725e-02
 -1.9866912e-02
 -5.7078645e-02
  1.9302648e-01
 -3.7046030e-02
 -1.7127946e-02
  3.2499261e-02
 -4.2491481e-02
  3.0515054e-02
 -1.6229919e+00
  1.0376608e-01
 -1.6408825e-01
  3.1666133e-01
 -1.6565815e-02
  1.9622760e-02
 -7.7778818e-03
 -4.7041763e-02
  6.8370566e-02
  1.3723345e-02
 -5.3200159e-02
  9.5970236e-02
  4.6599526e-03
  2.5851142e-02
  1.4676350e-01
  1.6456086e-02
 -1.6144458e-02
 -5.7701591e-02
  2.5464268e-02
  1.4442734e-01
  3.8883839e-02
  2.3794815e-02
 -1.9330671e-03
 -3.4427995e-04
 -3.1704586e-02
 -2.6335638e-02
  6.3407712e-02
  2.2321820e-02
  2.9312225e-02
 -1.4087692e-01
 -3.8109224e-02
  8.8849524e-03
 -2.5397664e-02
  7.2607957e-03
  3.4152385e-02
  1.5579132e+00
  5.4447558e-02
  1.4355767e-01
 -3.4602821e-01
  9.8373508e-03
  2.3164502e-03
 -3.5190680e-03
  1.5278790e-02
  1.0469404e-02
 -2.7640693e-02
  5.1688809e-02
  1.0508023e-02
 -3.4818906e-02
  4.5034338e-02
 -5.6748208e-02
  2.2067152e-02
  3.4918781e-02
  8.7164539e-01
  6.1290279e-02
 -3.3850808e-02
  2.9460559e-02
 -6.2883236e-02
  5.8999334e-02
  1.5712390e-02
 -7.2720768e-03
  6.2246218e-02
  1.5371725e-02
  1.3962045e-02
  1.8693536e-03
  1.0785956e-02
 -5.3561576e-02
  6.3818417e-02
  7.5485401e-02
 -8.3137184e-02
  1.1232682e-02
  1.5942187e+00
  1.5154890e-02
  1.4270680e-01
 -6.1393869e-01
  3.5177547e-02
 -2.5793182e-02
 -8.7093160e-02
 -2.0701124e-03
  3.3855049e-03
  1.9491779e-02
 -1.3856136e-02
  2.4135115e-02
  2.6309446e-02
  9.3516737e-02
  1.3541652e-02
 -8.2762122e-02
 -1.6320717e-02
 -1.2864225e-02
  1.1472975e-02
  3.3614077e-02
  1.1841012e-03
 -2.0182367e-01
  3.0788234e-02
 -9.1474168e-03
 -7.0940956e-02
 -2.8900705e-02
 -7.1692012e-02
 -2.0114154e-02
  1.0165515e-03
  4.5993822e-04
  2.8810535e-02
  2.0952005e-02
  5.5408362e-02
  1.4992307e-02
 -1.4097233e-02
 -1.4374822e+00
  1.9633351e-02
 -1.6700025e-01
  2.2178860e+00
 -7.8547217e-02
 -3.5827693e-02
  1.8965988e-03
 -2.2624390e-02
  3.3348782e-03
  1.1337497e-01
  3.2947946e-02
 -1.1371531e-03
  2.3552015e-02
  4.0417127e-03
 -8.1603125e-02
 -2.9575892e-02
 -1.8099168e-02
 -7.2152247e-03
  1.8279729e-02
 -3.9884984e-02
 -8.1683481e-03
 -7.5746789e-03
  1.0854362e-02
  2.8448042e-02
 -3.6390439e-02
  1.0781612e-01
 -1.1296965e-01
 -1.7397644e-03
 -5.5585089e-03
  8.3792089e-03
  4.0434871e-02
  2.6263105e-02
 -5.4699327e-03
  8.4866881e-03
  4.1910511e-02
  6.5756041e-01
 -4.9164947e-03
  3.2485461e-01
 -6.0379535e-01
  1.5775633e-01
 -8.3692353e-03
  6.4197131e-02
 -2.7200820e-02
  3.3718288e-02
  1.1015244e-02
 -2.1098847e+00
  6.6795168e-03
  7.7996410e-02
 -2.4397582e-02
 -9.4804782e-03
 -8.5654035e-03
 -5.4473460e-02
  1.0609556e-01
 -4.8959348e-02
 -2.1259075e-03
 -3.5646904e-02
  4.4161752e-02
 -1.7395720e-02
  2.1752955e-02
 -6.2169149e-03
 -1.0208515e-01
  4.3921161e-02
  3.4850217e-02
  1.5221869e-02
  4.5263935e-02
 -5.8051743e-02
 -3.3340212e-02
  2.5936225e-03
  3.5500892e-02
 -3.2697322e-03
  1.4675276e+00
 -6.6742428e-02
  1.1068862e-02
 -2.2818296e-01
  2.6692581e-01
 -1.8278265e-02
 -3.9443909e-03
 -1.0478021e-02
  3.5988199e-04
  1.0707629e-02
 -5.7022199e-02
 -2.8523575e-03
 -5.8364142e-02
 -5.3793541e-03
  7.1253613e-02
 -3.2470725e-02
 -4.7188193e-02
  3.3187983e-03
 -6.2045783e-02
 -5.1459661e-03
 -2.7088465e-02
  2.3718182e-02
  1.4359309e-02
 -4.3228295e-02
 -8.9184515e-02
  3.9077308e-02
 -1.0868841e-01
  3.3491045e-02
  5.5274799e-02
 -2.9472934e-02
 -3.3807866e-02
 -4.0655714e-03
 -1.4235050e-02
  3.3664174e-02
  3.3984103e-03
  1.7275172e+00
  7.7094935e-02
  2.6681334e-01
 -5.4073494e-02
  7.1502566e-02
  5.3786859e-02
 -2.9968363e-03
  1.2183987e-01
 -8.3624147e-02
  3.3768946e-03
 -9.2116609e-02
  1.0182639e-02
 -1.7814432e+00
  8.2968734e-03
  1.1357858e-02
  2.5637147e-01
 -7.1128495e-02
 -4.5511339e-02
  4.6910964e-02
 -3.7705027e-02
 -2.6366370e-02
 -1.2136693e-01
 -2.5565244e-02
 -5.2132800e-02
 -4.5560278e-02
  4.7582533e-02
 -7.5170640e-03
  6.0582208e-03
  1.9513553e-02
 -4.5796344e-03
  1.6241932e-02
 -3.7568621e-02
 -4.0094662e-03
 -1.3635914e-02
  3.0986058e-02
  1.9836404e+00
 -5.3780809e-02
  2.5136852e-01
 -1.7951901e-01
  1.9661662e-01
  6.0474623e-02
  2.4496285e-02
 -3.2419812e-02
 -2.3765795e-02
  1.3652495e-01
 -3.3955947e-02
  8.1726462e-02
  8.8038277e-03
 -2.6032677e+00
 -2.3324160e-02
  1.2041941e-02
  9.5241666e-03
  5.6628659e-02
  3.4980137e-02
 -4.1268378e-02
  9.4168447e-04
 -8.2405992e-02
  3.8381416e-02
  2.9099794e-02
  5.7466034e-02
  1.9166498e-02
 -3.1396210e-02
  1.0210831e-02
  3.4105215e-02
  1.7584028e-02
 -6.0273211e-02
  6.1286952e-02
 -1.8165559e-03
 -1.5458984e-02
 -1.1211111e-01
  1.3480315e+00
  5.6340639e-03
  1.5256569e-01
 -2.2869632e-01
 -1.3311821e-02
  4.4722348e-02
 -1.4395221e-02
 -1.5727563e-01
 -9.1732278e-02
  2.4067987e-02
 -5.0347745e-02
 -5.1776763e-02
 -6.6814329e-03
 -1.3369364e-02
 -2.6801633e-02
 -1.9348782e-02
  1.1510698e-02
  3.5818368e-02
  1.4938968e-02
 -7.8062922e-02
  6.8571337e-02
 -4.7040153e-02
 -9.2346026e-03
 -5.6394327e-02
  2.8181348e-02
  1.8914532e-03
  6.5342054e-02
 -8.0560960e-02
  2.4180340e-02
  1.2977619e-01
  5.4424261e-03
 -2.7741652e-03
  4.9733654e-02
 -5.9033390e-03
 -1.2550978e-01
  1.6575959e+00
 -2.7672006e-02
 -1.8841743e-02
 -1.4073590e-02
 -9.1193423e-02
  5.8566011e-02
 -1.4403497e-01
  7.6585390e-02
 -3.9417885e-02
 -4.7273275e-02
 -1.3759043e-02
 -4.0207099e-02
  3.2282505e-02
 -7.4326478e-02
  2.2669081e-03
 -1.0704434e-02
 -4.5856360e-02
  3.5483323e-02
  4.5035608e-02
  1.9721109e-02
  3.1678099e-02
  3.9103180e-02
  8.8067256e-02
  3.1771533e-02
 -5.8756802e-02
  6.9608130e-03
 -2.5701940e-03
  5.2264709e-02
  8.5423373e-02
  1.5009222e-02
 -4.2511385e-02
  1.2378366e-01
  1.6351346e-02
  2.0888590e-03
  1.4563079e-01
  1.7955644e+00
  1.9327251e-02
  3.2610974e-01
 -1.9998616e-01
  9.8433010e-02
 -5.8157548e-02
 -1.3297580e-01
 -3.8370828e-03
 -9.9831387e-02
  1.9491710e-02
 -7.5290882e-04
  6.9998172e-03
 -6.7420979e-03
  1.1019813e-01
 -1.4125713e-03
  3.8214754e-02
 -3.7026655e-02
  5.1903138e-03
  1.7618140e-02
 -1.8070891e-02
  8.7695077e-02
  1.5631927e-02
  2.2788614e-02
  8.8486662e-03
 -3.2807793e-02
 -3.1715348e-02
 -2.5424095e-02
 -5.1562442e-03
  3.0264389e-02
  9.3593530e-02
  7.6844492e-03
 -8.5523641e-03
 -3.3362985e-02
  6.0981400e-02
  1.7330388e-02
  1.8452229e+00
  8.1611909e-02
 -3.2587089e-02
 -2.6232734e-01
  6.3684992e-02
  3.6806703e-02
  3.4832933e-03
  1.9771667e-02
 -1.4965264e-02
  1.8449793e-02
 -1.2786726e-02
  1.7940667e-02
  2.2021024e-02
  1.6568689e-02
 -8.6559452e-02
  1.0573031e-01
  7.8969985e-02
 -1.9107526e-02
  9.5142154e-03
 -4.1950013e-02
  4.3892790e-02
 -1.6185414e-02
 -1.3695947e-02
  4.3802727e-02
  2.3377763e-02
 -5.0338175e-02
  2.0755999e-02
 -4.9139434e-03
  2.2510143e-02
 -3.2775588e-02
 -2.5894379e-02
 -4.9037963e-02
 -3.2437656e-02
 -4.4561040e-02
 -4.7450378e-03
 -2.0619678e+00
 -1.5329914e+00
 -3.4511178e+00
 -2.1665599e+00
  2.9292254e+00
  1.5494242e+00
  1.1361855e-01
  3.7624156e-01
 -2.0490013e-02
  1.3065923e+00
 -1.4289051e-01
 -1.7582868e-01
  3.0601707e-01
 -2.8863400e-01
 -3.9810854e-01
  2.2026654e-02
  6.8491995e-01
 -2.6281860e-02
  1.4850266e+00
  3.5159619e+00
  7.0841685e-03
  1.7297588e-03
 -3.3225175e-02
  3.5030082e-01
  3.8318250e-03
 -1.6509537e-02
 -1.5781697e-02
 -1.1486828e-02
  6.1649103e-03
 -2.6564980e-02
 -2.2396808e-02
 -1.3832430e-02
  1.9864996e-03
  3.3993009e-02
 -5.6502242e-02
 -2.3651028e+00
  2.9377048e-03
 -6.4270958e-02
 -8.9225525e-01
 -4.1488670e-03
  1.3837648e-04
 -3.6495119e-02
  1.8331543e-01
 -1.2681672e-02
 -1.1086942e-01
 -5.3600397e-02
  5.3459503e-02
  3.1038744e-02
 -7.9168528e-03
  1.0698520e-01
  3.0390397e-06
 -5.5580657e-02
 -5.6721844e-02
 -2.5372412e-02
 -2.0195231e-02
  5.0225321e-02
  2.2936733e-02
  2.4241127e-01
  3.9575081e-02
 -2.3262851e-02
  3.0862410e-02
 -4.7269855e-02
  1.2356210e-02
 -3.5825840e-03
 -1.7450245e-02
 -2.6108366e-02
  5.1953543e-02
 -1.2275526e-02
  1.6538007e-02
 -1.0827982e-01
  1.4115471e+00
  5.3048260e-03
  2.2513384e-01
 -2.7927956e-01
  5.0485194e-02
 -1.8493796e-02
  1.2095865e-03
 -3.7156142e-02
  1.6967535e-02
 -1.8512916e-02
  3.0756917e-02
 -3.3236731e-02
 -9.9092841e-02
  2.9255044e-02
 -4.1318322e-03
  1.5792942e-02
 -4.3472294e-03
 -2.8939422e-02
 -2.2533933e-02
 -9.4214249e-03
 -3.1974327e-02
  4.3775108e-02
  7.5113453e-02
  4.0342297e-02
 -1.1042027e-02
  1.9794965e-02
 -1.8681379e-02
 -7.3055021e-02
  3.0407228e-02
  1.4888071e-01
 -4.6922579e-02
 -3.8075689e-02
  4.3703176e-02
 -5.3908837e-01
  2.3178968e-03
  3.9926237e-01
 -8.6216219e-03
  7.0333374e-01
 -5.6657128e-02
 -2.1396160e+00
 -7.2927460e-02
  8.6356532e-03
  6.0467881e-01
 -3.6069028e-02
  7.0835166e-02
 -1.8992772e-02
  1.6314475e-03
  4.7739056e-01
 -3.9846089e-02
  2.0182672e-01
 -1.3534953e-01
  6.0038526e-02
  1.2053676e-01
  9.0893972e-01
 -7.3623516e-02
 -1.4813935e-02
  1.9324072e-02
 -4.3850686e-02
  2.8429806e-01
  2.8593147e-01
  5.7119980e-02
 -1.0000671e-01
  2.0523961e-03
  9.2529505e-02
 -6.0763426e-02
 -2.5027739e-02
 -2.1504566e-02
 -2.7080432e-03
  3.9889239e-02
 -6.0068216e-02
  1.8242319e+00
 -3.6744580e-02
  1.4220326e-01
 -4.1091934e-01
  5.6254383e-02
  1.3680192e-02
  3.8660862e-02
 -8.4787682e-02
 -5.8828823e-02
 -3.0117635e-02
  5.8734056e-02
  4.2002115e-02
  8.1641980e-02
 -2.8446058e-02
  2.8984721e-03
  9.8654404e-03
 -4.6065026e-03
  1.5225193e-02
  7.0559680e-03
  3.3969391e-02
 -1.8382937e-02
 -8.6603291e-02
 -2.8944395e-02
  1.1546546e-01
  9.2793610e-03
 -1.0724673e-01
 -4.2030317e-01
 -1.4648785e-02
 -1.0429251e+00
 -2.1097180e-02
  3.0421942e-02
 -9.3174977e-03
  7.6151520e-02
  1.6498044e-02
  2.8538764e-03
  2.4353148e-01
 -2.3178454e-01
 -9.0392643e-01
 -3.0469835e-01
 -1.3014110e+00
 -1.4133587e+00
 -1.8592355e-01
  1.9378345e-02
  1.0284221e-01
  7.2226024e-01
 -2.3606153e-01
 -1.6890934e+00
 -1.7533410e-01
  1.3059234e-03
  1.6501397e-01
 -6.1457789e-01
 -7.2306573e-01
 -6.9425738e-01
  6.2669520e-03
 -5.3704232e-01
 -5.1087934e-01
 -5.5940609e-02
 -7.1221524e-01
 -3.2536691e-01
 -4.3495093e-02
  1.4287183e-01
 -6.6632025e-02
 -1.5419921e-02
  1.1926733e-02
  1.6475758e-02
  3.5472032e-02
  1.8561570e-02
 -6.2111970e-02
  1.5280840e-02
  8.3010666e-02
  1.3953551e+00
  5.0417632e-03
  1.3156004e-01
 -1.5284559e-01
  4.7336441e-02
  1.4229035e-01
  3.0037129e-02
 -3.5303863e-05
  3.0256914e-02
 -7.9245664e-02
 -4.0908001e-02
  5.0447755e-03
  3.6856383e-02
  3.3866891e-03
  2.1390460e-02
 -3.1926911e-02
  4.1442506e-02
  2.6056211e-02
  1.2191775e-02
  1.7743258e-02
  7.0292098e-03
  4.0467951e-02
  1.1085201e-01
  7.6609409e-01
  4.8606858e-02
  2.2782201e-03
 -4.8279647e-02
  1.1458534e-02
 -2.9537552e-03
  1.3680348e-02
 -2.2188395e-03
 -5.8783043e-02
 -7.4075805e-03
  4.6625558e-02
 -2.4328601e-02
  1.8619349e+00
  4.6233781e-02
 -9.4583619e-04
 -2.2795743e-01
  1.9840151e-02
  2.3839297e-02
  2.3697069e-02
  8.0947682e-02
  5.8935784e-02
  5.9495784e-02
 -9.4809227e-02
  1.5157615e-02
 -9.3374036e-02
  3.6869328e-02
  4.5064200e-02
 -2.2828942e-02
  8.0511592e-02
  1.5831603e-02
  7.5975105e-02
 -7.0968419e-03
  7.8807004e-02
 -8.5510977e-02
  1.2160223e-02
 -5.6911837e-02
  9.1306213e-03
  7.3007353e-02
 -1.5458341e-01
  4.7767223e-03
 -1.1749323e-02
  8.3033256e-02
 -2.1392127e-02
 -9.5279319e-03
 -2.5327874e-02
 -5.9488874e-02
  3.7646934e-02
 -9.7662413e-01
  1.0293096e-01
 -6.8497008e-01
  1.1755168e+00
 -2.0557241e-01
  7.3778301e-02
  1.9985564e-02
  1.1051373e-02
 -2.1401675e-02
  7.2985098e-02
  3.9951019e-02
  3.8436905e-02
 -2.7930548e-02
 -1.2966010e-02
 -1.2791196e-01
 -1.1971866e-02
  3.4200214e-02
  2.0484129e-02
 -1.6402634e-02
  2.0132186e-02
  3.7293874e-02
 -8.6180232e-02
  4.6433434e-02
 -2.0928008e-02
  7.9932392e-02
 -1.7518651e-01
 -1.6177554e-02
  2.1733755e-02
  3.5499822e-02
  9.0637334e-02
  7.3450715e-03
  7.4729301e-02
  9.3003042e-02
  5.3184936e-03
  1.0896023e-01
 -1.4410222e+00
  8.3441317e-02
  4.4034336e-02
  3.9501604e-01
 -1.3690784e-02
 -1.6325828e-02
 -3.5149854e-02
 -5.9895843e-02
 -2.8103987e-02
  1.0661738e-02
  6.8504871e-03
  9.3195111e-02
  1.7385002e-02
  4.8123766e-02
 -2.4075346e-02
 -3.1892776e-02
 -2.6639923e-02
  8.1966236e-02
 -3.7610725e-02
  4.9896333e-02
  6.8519555e-02
  9.1734424e-02
 -3.3930648e-02
 -2.6390256e-02
 -4.2735208e-02
  6.8528481e-02
  1.3185005e-02
 -1.0461140e-01
  8.3933242e-02
  2.4337559e-03
  1.1585167e-02
  5.1171862e-02
 -2.3562059e-02
  9.7965309e-03
  1.4120886e-03
  1.7769434e+00
  1.2793086e-02
  7.8812122e-02
 -2.5106338e-01
  3.2749248e-01
  5.1544432e-02
  2.5934454e-03
  4.3067191e-02
  1.7428100e-02
  4.2857457e-02
  4.3166105e-02
  2.4635369e-02
 -7.0697907e-03
 -3.1631306e-02
  2.8456191e-02
 -4.8671351e-03
 -1.1471584e-01
 -1.1239307e-02
  1.3826798e-02
  3.6566496e-02
 -4.3066159e-02
 -1.3558461e-02
 -2.8374694e-02
  2.9036431e-03
 -3.2609798e-02
 -2.9509252e-02
  1.0691754e-02
 -4.2916848e-03
 -4.8144881e-02
  1.7495489e-02
 -1.5140890e-01
  6.4277045e-02
  9.8606129e-04
 -1.6923236e-02
 -7.3100366e-03
 -1.8075229e+00
  3.0918415e-03
 -6.7577191e-02
  3.0363479e-01
 -1.8347624e-01
 -4.8391931e-02
  1.5108148e-03
 -5.0874120e-03
  3.5285838e-02
  4.9577206e-02
 -4.0361878e-02
  8.5550509e-02
  2.4206707e-02
  2.5842514e-02
 -2.5697097e-01
  2.1501876e-02
  2.1900347e-02
 -1.0880439e-02
  2.7890468e-02
 -2.8759774e-02
  1.3802820e-01
  9.9866882e-02
 -8.3371602e-02
 -1.7513260e-02
  2.4580503e-02
  4.5087025e-01
 -9.6049719e-03
  4.4418804e-02
  2.3160977e-02
  1.0690874e-01
 -4.2824902e-02
 -7.5517413e-03
  2.3554504e-02
 -1.0480233e-01
 -3.0791273e-02
 -8.6853385e-01
 -1.2873194e-01
  1.0084808e-01
 -4.9643809e-01
  2.0788462e-01
  3.4542035e-02
 -2.2788761e-02
 -1.7814207e-03
  1.2511847e-02
 -7.0267958e-03
  8.7560010e-01
 -1.1026967e-01
  1.0750427e-02
 -8.7056451e-02
  2.1071257e-02
  3.7998646e-02
 -1.4843766e-02
 -1.2904707e-01
 -4.8762579e-02
 -1.6543531e-03
  4.0839333e-02
  1.4134001e-02
 -1.5194132e-02
 -1.8783445e-02
  4.1358182e-03
 -1.1511797e-01
 -6.2494420e-02
  6.9566689e-02
  4.4296794e-03
  7.1776427e-02
 -7.3119174e-03
 -3.4645319e-02
  4.0068060e-02
 -2.9134527e-02
 -1.2366747e-02
 -1.0959305e+00
  5.8873530e-02
 -1.9083397e-01
  1.5398991e-01
 -6.9787748e-02
 -5.4932050e-03
 -3.6442116e-02
 -5.2536599e-02
 -2.9389139e-02
 -1.8357236e-02
 -2.5523942e-02
  1.7525725e-02
  4.6796504e-02
  7.3103388e-03
 -7.1170777e-02
  6.8903347e-03
 -1.1250693e-01
  3.6361970e-02
 -1.2868280e-02
  2.1681753e-03
  4.7178842e-02
 -1.0887115e-02
  3.3088945e-02
  4.6419892e-03
 -2.3755189e-02
 -1.3120152e-01
 -8.3972469e-02
  1.2222542e-01
 -5.7076462e-02
  1.4727734e-03
  1.5112510e-02
 -4.9864933e-02
 -4.9722232e-02
 -4.1713003e-02
  7.3007669e-04
 -1.5022542e+00
 -3.2353498e-02
  9.8263081e-03
  1.8958415e-01
 -2.1399886e-03
  4.6723071e-02
 -3.3919986e-03
 -7.5769715e-02
 -4.6249274e-02
 -1.2914291e-01
 -1.7040880e-01
 -1.9582501e-02
  7.4522838e-02
 -1.1264796e-02
 -3.9228436e-02
  1.4401840e-02
 -1.2618730e-02
  3.9093949e-02
 -5.0017700e-02
 -4.4187248e-02
  7.8210250e-02
  3.3045514e-03
  2.7292075e-03
 -4.5801353e-02
 -1.4251237e-02
  2.1909075e-02
 -4.9701087e-02
 -3.7230559e-02
  2.9182583e-02
 -3.7917376e-02
  2.2429541e-02
  2.1273823e-01
  3.1765103e-02
 -2.9020663e-02
  2.0019431e-02
  1.6385577e+00
 -2.5207978e-01
  9.9180222e-02
 -1.0002584e-01
  1.4577429e-02
  5.7925273e-02
  8.6042941e-02
  2.9383627e-01
 -1.2979912e-02
  6.0050111e-02
 -3.4431815e-02
 -1.6080627e-01
  2.2627462e-02
 -3.0402569e-03
 -1.1856022e-02
 -8.4338803e-03
  8.3792508e-03
  3.4093086e-02
 -1.7002538e-02
 -3.8082130e-02
 -1.2782751e-01
 -1.1928626e-01
  8.5676648e-02
  1.9034535e-02
 -5.0662277e-04
  5.2026160e-02
  4.6171024e-02
  1.1676854e-02
 -7.4041262e-02
 -5.5844445e-02
  3.8298879e-02
  7.6899529e-02
  1.0954341e-01
  6.9093084e-01
 -2.2684826e-02
  1.6912606e+00
 -8.8847242e-02
 -2.9457126e-02
  3.9403141e-02
  3.5305820e-02
 -1.0190286e-01
 -8.1261910e-02
  6.6866338e-02
  1.1979840e-02
  9.5511533e-02
  2.0982191e-02
  1.5186013e-02
  2.3491850e-02
  4.0396575e-02
  5.5870116e-03
 -4.6679452e-02
 -1.3325740e-01
 -7.1162428e-04
  3.8485628e-02
 -3.2465305e-02
  8.4539473e-02
  1.2422351e-03
  3.8925409e-02
  2.3711722e-02
 -1.1987786e-02
  1.1142811e-02
  1.2852818e-02
  4.0861584e-02
  1.8955210e-02
  1.2127458e-02
 -1.5656794e-03
 -9.1589175e-02
  3.1813696e-02
 -7.3851354e-02
 -4.7670193e-02
 -1.1252283e+00
  1.2501778e-01
 -9.5536840e-01
  5.8332372e-01
  2.7259555e-01
  2.0347504e-02
 -4.8088029e-02
 -5.9554353e-02
  6.2802680e-02
 -6.0758386e-02
 -1.0902697e-01
 -1.0588726e-02
 -1.0742328e+00
 -1.0476933e-02
 -2.1602406e-01
 -3.6358923e-02
 -2.4262937e-03
  1.3140175e-01
  6.7865953e-02
  3.5774063e-02
 -1.7051330e-02
 -1.4502099e-02
 -6.2901652e-03
 -1.8747020e-01
  2.4872968e-02
  5.1420666e-02
  1.1612547e-02
  1.4680781e-02
  5.7251573e-02
 -9.9929497e-02
  2.1930492e-02
  3.0724841e-01
  2.8400876e-02
  9.9529974e-02
 -4.0169384e-02
 -1.9649907e+00
 -3.5829374e-04
 -3.8335818e-01
  1.4483869e-01
 -1.6849609e-02
  2.4792203e-03
 -2.0861020e-03
 -7.1092164e-03
 -6.2546935e-03
 -2.9896043e-02
  6.4956792e-02
 -1.7734405e-02
 -5.2643061e-02
 -1.5245219e-01
 -4.1924994e-02
 -4.0657777e-02
  6.4870776e-03
  2.5181688e-02
  1.0713617e-02
  8.6699146e-01
 -1.8392740e-02
  1.3164882e-01
 -2.2043027e-02
  3.4228019e-02
 -2.6909156e-02
  2.0566569e-03
 -1.4353687e-03
 -2.9985042e-02
 -4.3179528e-03
 -2.2084832e-02
 -1.7149372e-02
  5.3694822e-02
  1.2069971e-02
 -4.8048799e-03
 -9.4437301e-03
  1.5937310e+00
 -8.0738276e-02
  2.3249350e-01
 -1.8748780e-01
  1.0990242e-01
  2.5474172e+00
  1.4303100e-02
  4.7097760e-03
 -4.5115277e-03
  9.5694680e-03
  4.1534983e-02
 -6.5119393e-02
  1.9180411e-02
  2.6792824e-02
  8.7212168e-02
 -9.6545201e-03
  9.9942818e-02
 -2.3827994e-02
 -2.8323878e-02
  2.0327130e-02
  4.0722780e-02
 -2.3132024e-02
  1.0430858e-01
 -1.8181588e-01
  4.7602803e-02
 -2.4102369e-01
  6.6558742e-03
 -2.1330604e-02
  4.7742084e-02
 -8.7570690e-04
 -3.3548795e-02
  2.0790501e-03
  3.2362603e-02
 -4.8446637e-03
 -7.2948732e-03
  1.7207862e+00
 -2.0797515e-02
  1.8249339e-01
 -1.4718451e-01
  3.4375778e-01
 -2.9661984e-03
 -2.6443288e-02
  3.1891499e-02
  5.6176718e-02
  1.6342854e+00
  2.6639521e-02
 -6.0922209e-02
  1.4733674e-02
  5.9014846e-02
 -9.1913559e-02
 -1.0306192e-02
  2.0010389e-02
  5.1274095e-02
 -7.0660643e-02
  7.2819345e-02
  3.8800333e-02
 -4.1450355e-02
  1.7542586e-03
 -6.9725379e-02
 -4.0557977e-02
 -4.0872414e-03
 -3.2505027e-03
 -4.0602803e-02
  4.4381887e-02
  4.7025937e-03
  3.5981923e-02
  7.5954229e-02
  1.4318321e-02
 -3.4112219e-02
  9.7308373e-03
  1.7117864e+00
  1.7001312e-02
 -5.8085114e-02
 -1.6031155e-01
 -3.0166274e-02
 -3.4002706e-02
  3.0206658e-02
  2.3239337e-02
  4.8065212e-04
 -1.5258539e-02
 -1.6441816e-01
  2.5113957e-02
 -5.0370401e-04
  5.9958394e-03
 -8.6808708e-03
  1.1874858e-02
 -5.5936474e-02
  3.7879462e-03
  1.3171365e-02
 -7.7774182e-02
  9.2955187e-02
 -1.1937633e-01
 -2.6881510e-02
  5.1737804e-04
  2.0845199e-02
  2.2756478e-02
 -9.4255723e-02
  1.0294158e-01
 -5.6441664e-03
 -1.8929323e-02
  1.7501036e-02
  5.7159865e-04
 -3.4247149e-02
 -1.9940149e-02
 -1.1008933e-02
  1.6338780e+00
 -9.8155960e-03
 -1.5177069e-02
 -1.0958395e-01
 -1.1331480e-02
  1.2966108e-02
  1.1003644e-02
 -4.2091820e-02
 -5.6649134e-02
 -6.5528583e-03
  8.2240673e-03
  1.3344520e-02
 -2.4237882e-02
  1.6880676e-02
  4.9493376e-02
 -3.0234089e-02
  8.1966609e-02
  2.0887811e-02
  1.9966846e-02
  4.2499658e-02
 -6.5812267e-02
 -5.0769180e-02
 -1.9814348e-02
  4.1126892e-02
 -7.3439348e-03
 -9.5408140e-03
 -1.9025286e-01
  1.0042181e-02
  1.4750408e-04
  1.3433292e-02
 -4.9989730e-02
  6.9769934e-02
 -4.3597156e-03
  6.1271835e-02
 -1.4227658e-02
 -8.2139283e-01
 -1.0356877e+00
 -6.9521046e-01
  6.9838083e-01
  9.4104117e-01
 -1.1869769e+00
 -1.2276549e+00
  1.0762815e+00
 -9.5136636e-01
  1.2752175e+00
 -8.6533403e-01
 -8.3644819e-01
 -1.1052792e+00
 -7.3916215e-01
 -6.7478609e-01
  1.1005096e+00
  1.0888488e+00
 -2.6838915e+00
 -6.9868594e-01
  1.2267964e+00
 -4.1846557e+00
  7.9865789e-01
 -7.5671726e-01
 -6.1225981e-01
  8.4014839e-01
  1.0518277e+00
 -7.5476187e-01
 -7.3508829e-01
  4.7209430e-01
 -1.1934437e+00
 -9.2485690e-01
 -6.0780925e-01
 -7.3702592e-01
 -1.1291810e+00
 -6.1865062e-01
 -8.4902292e-01
 -7.0191926e-01
 -9.7224253e-01
  6.0982114e-01
 -1.1183889e+00
 -1.7197813e+00
 -9.6213394e-01
 -3.0320513e+00
 -9.0171844e-01
 -1.1329890e+00
  1.5804109e-01
  4.9618405e-01
 -8.5611635e-01
  9.6861446e-01
 -2.6218510e+00
  1.4174137e+00
  3.6399606e-01
 -1.0264230e+00
 -1.1244177e+00
  4.0181693e-01
  8.0731767e-01
 -7.6961660e-01
 -9.6623421e-01
 -9.1633993e-01
 -7.8037953e-01
 -3.9129531e+00
 -2.7559407e+00
 -5.6755972e-01
  2.4267838e+00
  2.2193646e+00
 -2.4723542e+00
 -2.6598480e+00
  2.9004738e+00
 -2.9522388e+00
  2.4503133e+00
 -2.3167644e+00
 -5.4909492e-01
 -2.0777018e+00
 -2.8020885e+00
 -1.1408838e+00
  2.4409654e+00
  4.6091619e+00
  2.1042979e-01
 -2.8706951e+00
  3.6373212e+00
 -2.8417089e+00
  5.4613912e-01
 -1.3776604e+00
 -2.6272309e+00
  1.8883353e+00
  3.5580399e+00
 -1.3518342e+00
 -2.1422899e+00
  3.5288379e+00
 -4.0127930e-01
 -1.2709733e+00
 -1.5298116e+00
 -4.0335379e+00
 -1.7701921e+00
 -8.8430744e-01
 -4.2949858e+00
 -3.3732569e+00
 -9.9571079e-02
  2.3785849e+00
 -1.0116452e+00
 -8.8977867e-01
 -2.9186058e+00
 -4.4724460e+00
 -1.1089531e+00
 -3.8610640e+00
  5.0274843e-01
  5.8469999e-01
 -3.1741955e+00
  5.4705367e+00
 -9.4253048e-02
  1.4575094e+00
  3.2541102e-01
 -1.6312578e+00
 -4.0510516e+00
  1.0870930e+00
  4.6681585e+00
 -1.3703549e+00
 -3.0318465e+00
 -1.5105582e+00
 -8.0409878e-01
 -1.1829074e-03
 -2.6767427e-01
 -2.3082487e-01
  2.2142757e-01
  1.5162901e+00
  1.2039018e-01
  6.7512977e-01
  4.4163004e-02
 -1.4155822e-01
  3.5438910e-02
 -7.1902655e-02
  5.3443243e-03
  1.5720727e-01
  3.9143974e-01
  1.2961583e-02
 -2.7727205e-02
  3.4132931e-02
  6.2880507e-03
 -5.0506312e-02
  2.7068138e-02
  9.1938645e-02
  9.7671434e-02
  6.7163315e-03
  4.5893479e-02
  6.5977678e-02
  7.8952685e-03
 -1.0520288e-01
 -8.0128156e-02
  5.4204486e-02
 -3.5574522e-02
 -3.0701410e-02
  6.7713857e-03
  1.7468389e-02
 -1.0968884e-02
 -8.7979063e-03
 -9.9223129e-02
 -1.0333499e-01
 -9.4821408e-02
  3.0192193e-01
  1.7264092e+00
 -1.6714951e-02
  9.0835273e-02
 -1.6236864e-02
 -1.1424407e-01
  3.8505577e-02
  2.2310331e-02
  3.7229359e-02
  1.8454368e-01
 -2.0748070e-02
  7.2542027e-02
  3.1032495e-02
 -7.9849921e-03
  7.6424204e-02
  8.3445646e-02
 -1.1134062e-01
 -1.1654893e-02
  1.1702856e-01
  5.7526836e-03
  1.1810567e-02
 -1.4769317e-02
  9.1822453e-02
  2.6062785e-02
 -2.7738165e-03
  9.9225357e-02
  5.4019611e-02
  7.1191937e-01
  3.3950109e-02
  4.2273100e-02
 -1.0401339e-03
 -5.4539726e-03
 -3.6523748e-02
  1.0746376e-01
  1.8677135e-01
 -3.6546740e-01
 -1.4647363e+00
 -3.7926070e-02
 -4.3226942e-02
  5.0551617e-03
 -6.5574641e-03
  1.3483644e-01
  1.3867484e-02
 -1.6656160e-02
 -2.4382831e-01
 -3.4674790e-02
  4.9207292e-02
  1.1577156e-01
  5.3255994e-02
  2.2005949e-02
  6.0622685e-02
  1.7359881e-02
 -1.1726920e-02
  1.8315695e-02
 -6.8681198e-03
  6.1582117e-03
 -1.9476426e-01
 -1.0276254e-02
 -2.5716260e-01
  5.6129940e-02
 -1.6856134e-03
 -1.0627200e-03
 -1.4876960e-01
  1.5139648e-01
  6.7115356e-03
  6.0759880e-02
 -2.2082690e-02
 -9.9117123e-03
 -1.9823226e-01
 -8.4991500e-02
  7.0112222e-01
  1.4427472e+00
  1.7658638e-02
 -1.5060650e-01
 -5.8366034e-02
  1.0936599e-01
  1.1063124e-01
 -5.6783851e-02
  7.1123175e-02
 -7.7109667e-03
  4.9679499e-04
  5.3726345e-02
 -3.1410720e-02
  2.5450697e-02
 -1.0686778e-02
  5.8097295e-03
 -1.0924616e-02
 -8.8751808e-02
  1.2940010e-01
  3.5737306e-02
  3.3198010e-02
  6.8174326e-03
  1.3923319e-02
 -1.8636698e-01
  2.0787384e-02
  1.2302749e+00
  6.6548601e-02
  3.0775715e-02
 -1.6340783e-02
  2.8381705e-02
  8.8393368e-02
  8.4089383e-02
  3.3332501e-02
 -1.0214204e-01
  1.7078403e-01
 -2.9712093e-01
 -1.5878493e+00
  2.3889587e+00
  5.7339665e-02
 -1.4197971e-01
  5.6980839e-03
 -2.7490396e-02
  1.7174622e-02
  5.4690611e-01
  4.3756399e-02
 -1.3697425e-02
 -3.4813721e-02
  6.4644061e-02
 -1.0864640e-02
  3.1106438e-02
  1.0596173e-02
 -4.0199675e-02
  9.5968045e-02
 -6.3457839e-02
 -9.9928111e-02
  2.1404362e-01
 -3.9235026e-02
 -2.1130845e-03
  3.0707373e-04
  8.4904991e-03
  4.9524073e-04
 -1.3856575e-02
 -1.6198639e-02
 -5.2074056e-02
  1.1199801e-02
  5.1616382e-02
 -5.3603344e-02
  2.7045529e-02
 -3.0390721e-02
 -3.9010453e-01
  2.5712097e-01
  1.6039474e+00
  1.7786616e-02
  2.1523546e-02
 -2.8314924e-02
 -5.9546143e-01
  3.8990851e-02
 -6.3988408e-03
 -1.3684724e-02
  1.8357816e-01
 -3.8354803e-02
 -5.6269504e-02
 -3.3834007e-01
  2.6433621e-02
  6.4815894e-02
  5.6870637e-04
  9.5706709e-02
  5.3278280e-05
  5.7052020e-02
  1.1982097e-01
  4.7291949e-02
  7.9977782e-03
 -3.3944637e-02
  4.8018597e-02
 -6.4477496e-02
 -2.0254895e-02
  1.2824580e-01
  3.3676170e-02
  2.3341121e-03
  9.7459853e-02
  1.4596862e-02
  4.7601663e-02
 -4.6555709e-02
 -7.6098549e-01
 -1.3652277e-01
  1.7802818e-01
  1.3636491e+00
  3.1072818e-02
  1.7842117e-01
  8.8756010e-03
 -2.0464729e-03
 -1.8720965e-01
 -3.9933555e-02
 -3.5823046e-04
  1.5291417e-01
 -3.6719805e-03
  2.5734773e-02
  2.2744663e-02
  3.7647519e-02
 -1.2407593e-01
  4.3296763e-03
  4.7079820e-02
 -1.8764006e-03
  4.0663153e-02
  4.1761756e-02
  1.6496070e-01
  2.2814237e-01
 -7.7987753e-02
 -1.2266897e-02
 -1.1079325e-01
 -1.0134283e-02
  2.4445559e-01
  9.8821461e-02
  1.0773066e-02
  9.4355471e-02
  6.0390238e-02
  2.2281658e-02
  1.8845631e+00
  2.5380020e+00
  1.3674780e+00
  4.1857333e+00
 -7.5679797e-01
  1.7357312e-02
 -2.7194580e-01
 -6.3012853e-02
 -2.4217848e-02
 -7.1286163e-03
 -6.7153817e-01
 -2.4110994e-01
  2.5940806e-02
 -1.5279853e-01
  3.4092814e-02
 -5.9706664e-01
 -1.6240168e-02
 -4.6848315e-01
 -1.1202069e-01
 -5.2467097e-02
  1.3466451e-01
 -8.6327332e-01
 -1.8072486e-02
 -1.4191164e-01
 -1.9507382e-02
 -2.9200789e-01
  2.9757878e-02
 -1.2612448e-02
  5.2863102e-02
 -5.7270313e-03
  1.7997241e-01
  3.4484082e-01
  7.1435863e-01
  3.5280909e-02
 -1.1366934e-01
 -9.6924834e-02
  3.1087098e-01
  9.1511294e-02
 -1.8372275e-01
 -1.2564394e+00
  3.1097376e-04
  4.2704791e-02
  1.1924134e-03
 -6.3267997e-03
 -1.6863948e-02
  6.0465712e-02
  3.2287188e-02
 -7.3915601e-02
 -1.2362400e-01
 -3.0960152e-02
  5.3982154e-02
 -6.4889818e-02
 -6.2969904e-03
 -4.8399176e-02
  2.0924960e-01
 -3.8903121e-02
 -2.1428922e-02
 -4.9006425e-02
  4.4580124e-02
 -6.8379574e-02
 -3.8364757e-04
  3.7927332e-03
 -5.0083097e-02
 -6.7117484e-03
 -5.3261664e-02
  1.7721673e-02
 -6.5014891e-02
  4.4047207e-02
  1.5741132e-02
 -9.8503165e-02
  1.7859911e+00
  1.3070799e+00
 -1.0224649e+00
  6.4563823e-01
  7.8385371e-01
 -1.7502840e+00
 -3.1038504e+00
 -6.6509712e-01
 -1.1920591e-01
 -9.4081452e-03
 -1.0195529e+00
  3.3001672e-02
 -8.5073972e-01
  5.5325520e-01
 -2.3859173e-01
 -9.4569659e-01
 -1.7886199e+00
  3.3137679e-01
 -3.2045946e-01
 -4.8619327e-01
 -7.8138113e-01
 -1.3958478e+00
 -4.9879104e-02
 -1.7991717e-01
 -2.7904692e-01
 -1.2098629e-01
 -4.7701228e-02
 -2.8799716e-02
  5.2319635e-02
 -5.0966740e-02
  1.0694656e-01
 -5.6035448e-02
 -4.9710620e-02
 -6.1050702e-02
 -4.0356558e-02
 -4.3885797e-02
  1.7134254e-01
  1.1017268e-03
 -5.3900272e-01
 -2.1108990e+00
 -2.9317213e-02
 -7.6257929e-02
 -1.1169008e-02
 -5.7253923e-02
  8.8899702e-02
  1.7408364e-02
  2.2379294e-02
 -1.6437931e-01
  3.3223929e+00
 -9.1941848e-02
  1.0928287e-01
  1.0029339e-02
  1.4292520e-01
 -3.4556616e-02
 -5.4040596e-02
 -1.2826055e-01
 -5.3527083e-02
 -4.7147997e-02
  4.2671558e-02
 -9.1791086e-02
 -3.9201599e-02
 -8.8621087e-02
 -4.5898944e-02
 -4.0974010e-02
 -4.2513195e-02
  5.4119755e-02
 -3.1361490e-02
  1.4333679e-02
  8.5480548e-02
  3.3509746e-02
  3.6240201e-02
 -2.6978964e-01
 -2.7396724e-01
  3.3117890e-01
  1.7301769e+00
 -8.5496359e-02
  1.1805563e-01
 -3.7972942e-02
  5.0337601e-02
  3.7198961e-02
  2.4764506e-02
  1.0666574e+00
  7.5606003e-02
  2.8704849e-01
  4.3755043e-02
  1.2489333e-03
 -2.4410773e-02
  2.5715809e-02
  3.2140933e-02
  3.4904178e-02
 -9.6670156e-03
 -5.1006075e-02
  5.1484801e-02
 -1.7354666e-01
 -1.6655588e-01
  3.7585843e-02
  2.0210855e-02
  3.8658909e-02
 -4.9097553e-02
 -3.4652054e-02
  4.2039596e-02
  2.0521595e-03
 -8.7119237e-02
 -2.6665712e-02
 -8.9025134e-03
 -2.2015460e-02
 -1.2868881e-01
 -4.0510077e-02
  1.6231151e-01
  1.4366345e+00
 -1.0059527e-01
  1.2029066e-01
 -1.7447926e-02
 -1.0620194e-02
 -2.9860204e-03
 -4.0612768e-02
 -1.8422714e-02
  3.4180354e-02
 -1.0350604e-02
 -4.1881058e-02
 -7.9120874e-02
 -1.6049191e-02
 -5.4433994e-02
  9.3573276e-03
  4.2954553e-02
 -1.0520468e-01
 -3.8698673e-02
 -5.2899912e-02
 -5.0374988e-02
  1.9835273e-02
  9.0774827e-02
  3.9858278e-02
 -7.0345543e-02
  1.0121191e-02
  1.3798116e-02
 -1.5701592e-02
 -3.5247635e-02
 -1.1740330e-02
 -2.2216199e-03
  4.2678271e-03
 -9.2047397e-03
 -7.6984474e-03
 -2.1093518e-01
  3.9917761e-01
  1.6787175e+00
  1.0131984e-01
  3.4430806e-02
  8.2304168e-01
 -7.6577827e-02
  6.3770927e-02
  9.0102397e-02
  1.3118153e-02
  1.8038629e-02
  7.0665836e-02
 -7.4525870e-02
 -3.0903423e-02
  1.3420427e-01
  1.3765953e-02
  1.9391226e-02
 -3.6767203e-02
  3.8620207e-02
 -2.3425641e-02
  4.8632436e-02
 -1.0293532e-02
  9.7249597e-03
 -6.9448099e-02
  4.9379513e-02
 -2.7585125e-02
 -1.1279897e-01
  9.3416031e-03
 -1.2213392e-02
 -6.1346110e-02
 -5.0119437e-02
  7.0583643e-05
  9.9225439e-02
 -4.6563709e-01
 -1.4866531e+00
  2.1108294e+00
  1.5166385e+00
  3.3045554e-01
  1.6088483e-01
 -1.6142677e-01
 -3.2988885e-01
  2.0616272e-01
  5.3174824e-01
  1.6149463e-01
  3.3841884e-01
 -2.5255159e-02
  1.9879285e-02
  7.1268544e-02
  5.6065899e-01
  3.9711162e-01
 -2.9757467e-01
  1.1874657e-01
  1.1706401e-01
  7.6115206e-02
 -4.2757303e-02
  5.3791571e-03
 -2.3729913e-02
  2.0022576e-01
 -2.2106898e-01
  4.0818907e-02
  1.3930555e-02
 -6.7577073e-03
  5.9630666e-02
 -3.4450881e-02
 -1.5477532e-01
  7.7209011e-02
  2.5628146e-02
 -6.4000949e-02
 -2.5359488e-01
 -8.8856049e-02
 -5.9117522e-02
  3.5439110e-01
  1.5430564e+00
 -4.1555718e-01
 -9.1582455e-02
 -2.5416298e-02
  1.4014700e-01
 -2.0336878e-01
  4.8769854e-02
  8.4151316e-04
  3.4576159e-02
 -6.6221289e-02
 -9.8443918e-02
 -2.2233014e-01
  1.0947467e-02
 -1.9195270e-02
  1.9253783e-02
 -2.2102188e-02
 -1.3418619e-01
 -1.4835198e-01
 -7.4532144e-02
  3.8284015e-02
 -1.6524294e-02
 -1.6391112e-02
 -8.0696875e-03
  1.6747385e-02
 -1.1487608e-01
 -7.6233797e-02
 -4.0969165e-04
  1.0926846e-01
 -1.8511739e-02
  2.4833279e-02
  5.1186373e-03
 -1.3190583e-02
  1.5334439e-01
  1.9138403e-01
 -4.1916266e-01
 -1.5268340e+00
 -2.4824023e-02
 -9.4155064e-03
  1.6816057e-01
 -1.1606079e-02
  1.8784313e-02
 -8.0570482e-02
  1.3267983e-01
  1.7979400e-02
 -5.5807126e-03
 -5.1294453e-03
 -1.3126150e-01
  2.3152867e-02
 -8.5633127e-03
  4.7264136e-02
  6.5931082e-02
  6.8633750e-02
  3.8463514e-02
 -8.5278027e-02
 -5.5532426e-01
  2.0314613e-01
  1.4581497e-02
 -9.2137180e-02
 -8.3587244e-02
 -5.1561698e-02
 -7.2046004e-02
 -5.1617436e-02
 -1.1131903e-02
 -3.0887851e-02
  8.2508065e-02
  1.3556430e-02
 -7.3012188e-02
 -1.5636235e-01
 -7.5515732e-02
  3.4900412e-01
  1.9610732e+00
 -1.2830859e-01
 -4.0497195e-02
 -5.0960645e-02
  9.3931571e-02
  9.4936937e-02
 -2.0971647e-02
  4.2583302e-02
  1.4996207e-02
 -3.1155920e-02
 -3.5502356e-02
  9.0414826e-03
 -9.4711930e-02
  6.8979673e-02
 -6.4646108e-03
  1.8050654e-02
  3.0344164e-02
  1.3619888e-04
  6.0166474e-02
  3.5537772e-02
  7.3683716e-02
 -9.7778125e-04
  6.4584836e-02
 -1.0034666e-01
  1.3602620e-02
 -1.4157801e-02
 -9.8713785e-03
 -9.0195589e-02
  1.9491196e-02
 -1.0646909e-01
 -2.3748834e-02
 -6.4411238e-02
  3.0009884e-01
  1.5731500e-01
 -2.0892896e-01
 -1.6009079e+00
  1.3943024e-03
 -9.5159560e-04
  1.3611760e-03
 -1.4808114e-01
  9.2544727e-02
  7.1674600e-02
 -2.3809042e-02
 -3.1037774e-02
 -6.9967639e-03
  2.2072665e-02
  2.4725880e-02
 -1.7431633e-01
  6.3992620e-02
  3.6085952e-02
  5.4764178e-02
  4.6844780e-02
 -8.3386280e-02
 -3.2689415e-02
  1.3358192e-02
 -1.5511194e-01
 -8.0576681e-02
  3.5198700e-02
  4.8336662e-02
  1.0196343e-01
 -3.9690256e-02
 -2.9967887e-02
 -4.7605671e-03
 -7.7228970e-03
  8.2035555e-04
  2.4984078e-02
  2.9331408e-02
  1.5017040e-01
  4.4350246e-01
 -1.7126572e-01
 -1.5196921e+00
  1.9623550e-02
 -3.3528063e-02
 -5.5017628e-02
  1.2114554e-02
  6.4154312e-02
  1.8521279e-02
 -1.3908674e-01
 -3.4119818e-02
 -6.2236831e-02
  1.3805036e-01
  2.4801098e-02
  1.6913200e-02
  1.4293483e-02
  4.0737245e-02
 -1.4168209e-02
 -9.7155526e-02
  9.0274841e-02
 -1.5500818e-02
  3.3313218e-03
  5.3773854e-02
  1.7782381e-03
  3.5128847e-02
 -6.2622607e-02
 -8.2936041e-02
  4.0569678e-02
  3.0112166e-02
  2.5667506e-03
 -2.7879314e-03
  3.6444921e-02
 -1.1410234e-02
 -2.3100953e-05
 -4.3840867e-01
 -2.0485182e-01
  8.7145418e-02
  1.6304667e+00
  1.0699390e-01
 -8.8911915e-01
  1.8962357e-02
 -8.8604309e-02
 -6.8124115e-02
  6.1080471e-02
  3.6238063e-02
  6.8796769e-02
  6.0772080e-02
  1.8995145e-02
 -3.1380220e-03
  1.7364904e-02
 -3.2967478e-02
 -2.4252992e-02
 -1.0111340e-02
 -6.2414788e-02
  7.1919253e-03
 -9.3810065e-03
  9.0626583e-02
  3.9338425e-02
  7.2944700e-03
 -6.8888828e-02
 -4.8983914e-01
  1.6194166e-01
 -3.0491967e-02
  3.1211792e-02
 -6.0520031e-02
  2.9635245e-02
  2.6511038e-02
  2.7491301e-01
 -4.6164084e-02
  1.4846539e-01
  7.0057154e-02
 -2.1235895e-01
 -1.7490652e+00
 -3.7450567e-02
  3.4726996e-02
  7.4163139e-02
  1.0449156e+00
  3.1749509e-02
 -3.6301795e-02
 -2.0287365e-01
 -1.5273107e-03
  1.2591085e-02
 -1.1796165e-01
  3.2255430e-02
  7.5817108e-02
 -1.8716316e-01
 -2.4127038e-01
 -3.0603357e-02
  1.4256840e-02
  4.8691798e-02
 -7.1380711e-03
 -4.8643793e-03
  8.0650216e-03
 -1.1604407e-01
 -6.1960751e-03
 -8.9257494e-02
  3.0156298e-02
  1.1713856e-01
 -1.5411008e-02
 -5.7919682e-03
  9.5392950e-03
  3.2894794e-02
 -2.9791387e-02
 -1.7293262e-01
  1.9666584e-02
  3.0313551e-01
 -2.5452027e-01
 -1.6836537e+00
 -4.9414705e-02
 -6.8143988e-03
  4.7581731e-03
 -1.0926826e-01
 -4.5636151e-02
 -1.9292273e-02
 -2.0167580e+00
  1.4486460e-01
 -1.1128451e-01
  5.0982542e-02
 -7.0883267e-02
 -5.6088667e-02
  1.5601170e-02
  3.6614574e-02
  5.2376542e-02
  5.3929247e-02
 -7.6547191e-02
 -3.0354448e-03
 -6.4663447e-02
 -2.4386337e-02
 -4.6678398e-02
  5.3532816e-02
  1.4707079e-02
  1.0711830e-01
 -9.6554076e-03
  1.1147994e-01
  3.1482879e-02
 -3.3293549e-02
  1.3169556e-02
  1.1188181e-02
 -2.8023662e-02
  2.3563915e-01
  1.1378337e-01
 -2.7739671e-01
 -1.6690929e+00
  5.7233191e-01
 -2.4705566e-03
  8.8008106e-02
  4.4575017e-02
  5.7708534e-05
 -5.0778911e-02
 -2.2685090e-02
  1.8603358e-02
 -1.5966460e-01
  7.3677860e-02
 -2.2982966e-02
 -9.8182134e-02
  5.6523167e-02
  8.5444868e-02
 -6.8610879e-03
 -3.1007726e-02
 -3.4613766e-02
  1.5591333e-03
  5.2472029e-02
 -7.0372955e-03
 -5.1167994e+00
 -1.8588826e-02
 -3.6409426e-02
 -3.1435657e-02
  7.8194857e-02
 -9.0259679e-02
 -7.5778291e-02
 -2.3876551e-01
  9.7733565e-02
  3.2198917e-02
 -4.3452095e-02
 -1.5090311e-01
 -5.3852594e-01
  7.3684490e-01
  1.8762938e+00
 -1.6968286e-02
  1.6683389e-01
 -7.4774939e-01
 -3.0057268e-02
 -4.6846867e-02
  3.3783971e-03
 -5.0853830e-02
  2.8826481e-02
  6.1107669e-02
 -4.3394193e-05
  2.1811628e-03
 -2.5116501e-02
 -3.3689007e-02
  5.3641345e-02
 -9.8992854e-02
  1.4932806e-02
 -2.1224286e-02
  5.4708809e-02
 -7.3654048e-02
  4.3635495e-02
 -2.2736689e-01
 -1.2358652e-02
  5.8163937e-02
  3.9119530e-03
  8.7131195e-02
 -1.4148044e-02
  1.3762785e-03
 -4.6423683e-03
 -1.8077055e-02
  3.8496207e-02
 -3.3934571e-02
  1.9664092e-02
  2.5447527e-01
 -1.8921094e-01
 -1.3438711e+00
 -2.2325289e-02
 -4.6054542e-02
  2.4397453e-02
  9.2837584e-01
  1.1373820e-01
 -1.3051737e-02
  1.6746958e-01
 -3.0860240e-02
 -3.3188246e-02
  6.3804016e-02
  4.5133349e-02
  6.5492459e-02
  6.2045526e-02
  3.5367147e-03
  3.9584354e-02
 -1.1718725e-02
 -4.4262085e-02
 -1.2405899e-01
 -8.9385649e-03
  7.2119810e-02
 -4.8521638e-02
 -1.2870575e-01
  3.6391437e-02
 -4.5783695e-02
  5.1115200e-02
  6.9936508e-01
  2.8504783e-02
  8.8853650e-02
 -8.3758488e-02
  9.3384415e-02
 -3.0412290e-02
 -2.4245332e-01
 -4.3311068e-01
  9.4123363e-01
  1.1663381e+00
  1.3022509e-01
 -9.7170249e-02
  3.3314850e-02
  7.0712143e-03
 -4.9772654e-02
 -3.6255952e-02
 -3.5187843e-01
  1.3041818e-01
  1.5850754e-02
  6.0608659e-02
  2.1630213e-01
 -2.1826046e-02
  5.0170098e-02
  1.4455408e+00
 -7.1813449e-02
  1.7245372e-01
  4.7309287e-02
  6.8174566e-05
 -1.3592251e-01
  2.1756561e-02
 -6.3893750e-02
 -8.6333714e-02
  5.3974159e-02
 -4.3873645e-02
  9.7738110e-02
 -5.2359443e-02
  2.8309375e-02
  4.3490216e-02
 -1.3747786e-02
 -6.4182729e-02
 -3.5043038e-02
  8.1075013e-02
  1.4436604e-01
 -6.2863916e-01
 -1.6870103e+00
 -2.8221361e-02
 -2.8894670e-02
  5.2397385e-02
  4.4472948e-02
 -8.5797654e-03
 -2.0669887e-02
 -5.1337034e-03
  3.3460289e-02
  7.9796515e-02
  1.7921804e-03
 -3.9126020e-02
  4.1038856e-02
  4.1988310e-03
 -5.4776568e-02
 -1.2593436e-02
 -5.5080209e-02
  3.9823566e-02
 -2.6231695e-02
 -2.3351166e-02
  1.5047458e-01
  1.1527914e+00
 -9.0899915e-02
 -8.6570688e-02
 -2.6665581e-02
 -1.0722557e-01
  3.9513107e-02
 -7.9549244e-03
  3.4229524e-02
 -4.9714046e-03
  1.5169266e-03
 -6.7411669e-02
  6.5410078e-02
  1.7379772e-02
 -1.0741587e-01
 -1.5332967e+00
  1.1317906e-02
  2.2162894e-02
 -1.9358078e-01
  2.6851144e-01
  2.0858742e-01
  3.6351290e-02
  3.5226740e-02
  6.9982365e-02
 -5.2497264e-02
 -1.7787729e-01
 -1.0387788e-01
 -1.5722349e-02
 -2.9911127e-02
  1.6601343e-01
  5.9192471e-02
 -6.6275470e-02
  1.8496862e-02
 -1.4022774e-01
 -5.0910739e-03
  4.0083937e-02
 -7.1877152e-02
  5.1855922e-02
  5.5889044e-02
  2.8462369e-02
  4.1757595e-02
  7.3302453e-03
 -2.9315129e-03
 -7.0992254e-02
 -6.4001619e-03
  2.9084112e-02
  6.3668080e-02
  1.6795935e-02
 -2.6298812e-01
  1.5730447e-01
  1.7369449e+00
  1.9707400e-02
  3.3584420e-02
  3.5523638e-02
 -4.2007007e-02
 -1.3320941e-01
  1.2469452e-02
 -4.7969166e-02
  6.8231717e-02
 -5.0706405e-02
 -2.2308393e-03
 -1.1620860e-02
  1.7023794e-01
 -7.2531201e-02
  5.4225745e-03
  5.7518151e-02
  3.8447477e-02
  6.3427284e-02
  5.7328600e-02
  5.7661399e-02
 -2.7991826e-02
  8.6070418e-02
 -1.8551802e-02
 -1.0545272e-02
  5.6858439e-02
  1.5043168e-02
 -7.8830533e-03
 -8.3776779e-02
 -1.4674605e-01
  5.4481547e-02
 -1.4229769e-01
 -4.2587083e-02
  7.4286111e-02
 -4.9313894e-01
 -3.8211587e-01
 -1.3179753e+00
 -5.4890737e-02
  6.6754997e-01
  2.7443320e-03
  8.4870040e-02
 -4.6066422e-02
 -4.7418412e-02
  1.2433109e-02
 -6.2878244e-02
 -2.1100687e-02
 -4.7241125e-02
  4.5072043e-01
  3.7492342e-02
 -6.4244606e-02
  3.4072191e-02
 -2.0863445e-02
 -2.0451124e-01
  7.3961340e-02
 -5.7989798e-02
 -1.0872167e-02
 -7.0946842e-02
  5.8156293e-02
 -2.4979229e-01
 -9.2070192e-02
 -1.4785884e-01
  2.1263567e-01
 -1.6012659e-02
 -2.2754109e-02
 -1.6486621e-01
  9.7927582e-03
  1.5228763e-01
 -4.3092757e-02
 -1.8397665e-01
 -4.1148376e-01
  4.0836182e-01
  1.3324356e+00
 -2.2334138e-02
  1.1219883e-02
  1.1639397e-01
 -3.0823722e-01
  1.9168744e-02
 -9.9839613e-02
  1.0164254e-01
  2.2465380e-02
 -1.0584847e-01
 -2.6401451e-02
  7.5645864e-02
 -5.1618114e-02
  1.0507389e-01
  1.5053628e-01
  1.8465635e-03
  5.1612440e-02
  9.6033156e-02
  1.0363235e-01
 -8.6645577e-03
  2.1592220e-02
 -6.9011194e-03
  1.6080256e-01
 -1.2146869e-02
  4.0319253e-02
  1.0588615e-01
  9.1612548e-02
  5.5486407e-02
 -2.1756837e-02
 -2.1361860e-02
  6.4079344e-02
 -8.4632598e-03
 -3.1476703e-01
 -1.2622330e-01
  2.2030784e-01
  1.7072920e+00
  3.1933650e-02
 -2.2081917e-02
  2.5213821e-02
  2.0024360e-03
 -1.8236786e-02
  1.7343890e-02
  1.2598626e-01
  1.0818397e-01
 -1.0988285e-01
 -6.0626186e-02
 -2.2809314e-02
  1.7972954e-02
  1.9613951e-02
 -1.4784885e-02
 -9.8121323e-02
  3.0235069e-02
 -3.1863968e-03
  1.4029943e-02
  7.4257076e-02
  3.1011915e-02
  4.5280889e-02
 -4.7903396e-02
 -4.3368246e-02
 -2.2104857e-02
 -3.6691293e-02
 -5.0654538e-02
  1.0870865e-02
 -6.2834620e-02
 -3.0654948e-02
 -2.7620247e-02
  8.5083537e-02
  2.9606748e-01
  1.0493442e-01
 -3.1470826e-01
 -1.6151290e+00
  5.7707705e-02
  1.4400424e-01
  1.5159540e-01
 -7.7168114e-02
 -7.3382474e-02
  8.4559731e-02
  6.0116917e-02
  5.7628885e-02
  1.5615982e-02
 -2.5664425e-01
 -3.1261902e-02
  1.1856478e-02
  4.8368573e-02
 -6.7362778e-02
 -1.4410407e-02
  9.6312010e-01
  1.0511615e-01
  1.0192365e-03
 -1.8393898e-01
  2.8234404e-02
  5.6509804e-02
 -4.6747711e-02
  1.0175531e-01
  8.3114751e-02
 -4.5050431e-02
 -1.7422847e-02
  9.8287024e-02
 -7.5402625e-02
 -4.7084629e-03
  6.6772826e-02
  3.4871802e-02
 -1.3575530e-01
 -1.8523662e-01
  7.0669323e-02
  1.7800252e+00
 -1.7084830e-01
  1.9740721e-02
  1.7621272e-03
  9.6385330e-02
  1.4497382e-02
 -9.7681277e-02
 -2.6040005e-02
  7.7484712e-02
  1.2389066e-02
  1.8699097e-02
  2.4263952e-03
  1.6003618e-01
  1.8042132e-02
 -4.6233568e-02
  8.6549018e-03
  1.0265479e-02
  1.9782452e-02
  1.2274835e-02
 -1.2660967e-01
 -3.4732237e-02
 -4.5269147e-02
  2.6622808e-03
  2.1906937e-02
 -1.7768718e-02
 -8.0534354e-02
  7.9280323e-01
  1.4262359e-02
  7.4816018e-02
  2.2798866e-02
  6.0848471e-02
 -1.6741879e-01
  3.7336472e-01
  1.1839893e+00
 -2.3538158e+00
 -6.0853988e-01
  8.7666726e-01
  6.2857531e-02
 -1.8031771e-01
 -9.8020904e-02
 -3.0152377e-02
  8.5651197e-02
  2.1387704e-02
 -9.8672205e-01
 -1.5251134e-01
  6.6051476e-02
  6.8276271e-02
 -4.4587471e-02
 -1.3464653e+00
 -9.2457496e-02
 -7.6080225e-02
 -1.9837214e-02
  9.1015376e-02
 -5.0061536e-01
 -1.8822771e-01
 -8.4618144e-02
 -1.0207242e-01
 -4.0572431e-02
  6.9249332e-02
  9.1148103e-03
  3.9460540e-02
 -4.3972582e-03
  1.2913065e-02
 -5.3922635e-02
  4.0199395e-02
  5.5441353e-02
 -7.0102371e-02
  1.5800361e-02
  2.1712571e-01
 -5.2978538e-02
 -1.6148578e+00
  6.9068782e-02
  6.3609160e-02
 -1.5209055e-02
  6.1205078e-02
 -1.2516665e-01
 -2.5452616e-02
 -1.8816143e-02
  1.5099336e-03
  2.8315293e-02
 -1.1227462e-01
 -3.7975442e-02
 -2.3758870e-02
  7.5414181e-02
 -1.2087668e-01
 -3.1994995e-02
  2.6922443e-04
 -3.1352222e-02
 -8.8953085e-02
 -1.8269975e-01
  6.1807554e-02
 -7.7987075e-02
  6.5637149e-02
 -2.2517677e-02
  6.3278355e-02
 -6.3020095e-02
  4.5511298e-02
 -6.7630462e-02
 -9.7705632e-02
 -3.8160216e-02
 -6.4921975e-03
 -4.4841126e-02
 -1.4548097e-02
  1.5205157e-01
 -4.3284875e-01
 -1.6587993e+00
 -2.2315957e-02
 -2.8491767e-02
 -6.4935625e-02
  4.7925252e-02
  4.0100841e-03
 -1.0655386e-01
 -6.4363800e-02
  6.4804174e-02
  5.4373972e-02
  5.2618734e-03
  4.7993489e-02
  3.5548542e-02
  1.5712824e-02
  8.2665071e-02
 -7.5806499e-02
  1.3335041e-02
  9.6450076e-02
  1.3409290e-01
 -1.1751144e-01
 -2.9539200e-02
  3.0654946e-02
 -7.0100598e-02
 -1.3715318e-02
  1.2163017e-02
  1.6667603e-02
  1.3693316e-01
  1.9817624e-02
  3.2965660e-02
 -1.5375535e-04
  1.0387534e-02
  1.4037867e-02
  4.0501332e-01
  2.1268180e-02
 -2.7111498e-01
 -1.4562812e+00
  7.6823547e-02
 -2.1498744e-01
  1.3399818e-02
  1.4777660e-01
 -1.2239135e-02
 -4.7126310e-03
  5.4306604e-02
 -7.0491701e-02
  4.7791258e-02
  8.0240862e-03
 -1.0212101e-01
  8.7426953e-02
 -9.4132140e-02
  1.9676864e-02
 -5.1562164e-02
  1.4718563e-02
  1.3021117e-02
 -3.0117619e-01
 -1.0778180e-02
 -4.1767672e-02
 -3.7930394e-03
  1.2871163e-01
 -3.8557664e-02
 -5.0607622e-02
  1.4566521e-02
  1.9810539e-02
  1.1177075e-02
 -1.2619077e-02
 -4.1033134e-02
  6.0416716e-03
 -8.6887702e-03
  7.8019753e-02
  1.5518093e+00
  5.1824648e-02
  6.2910247e-01
  3.0145305e-01
  9.7390890e-02
  6.0198437e-02
  9.4472930e-02
 -4.7353745e-02
  1.6159914e-01
  5.9275314e-02
 -1.8587244e-01
 -3.7501931e-02
 -3.9712232e-02
 -1.3090518e-01
  6.1051641e-04
 -4.3147299e-03
 -3.8865093e-02
  3.0810183e-02
 -2.8981391e-02
 -2.8758202e-02
 -1.3799920e-02
  1.2480114e-02
  8.1199080e-02
 -4.4129575e-03
 -5.7855926e-02
  1.4675153e-02
 -8.1425644e-02
 -2.2513069e-02
 -1.4565055e-03
 -5.0804805e-02
 -5.4704588e-02
  1.9052843e-02
  5.3452052e-02
 -4.6882670e-02
  2.1338379e+00
  2.1440639e+00
  1.6509722e+00
 -1.2598640e+00
 -5.3221835e-03
 -3.8358927e-02
  3.7485354e-02
 -3.6742248e-02
 -4.6994567e-02
 -7.6974444e-02
 -1.4881196e-02
 -1.2557749e-01
  2.4130680e-02
  2.6307147e-02
  2.4724593e-02
  6.5638460e-02
 -3.8981248e-02
  2.2185459e-03
  2.0571148e-02
  2.3279697e-02
 -2.8094914e-02
  2.4837749e-02
  2.6765665e-02
 -1.1938891e-01
  4.8006374e-02
 -3.9449683e-01
  4.1236386e-02
 -5.4823276e-02
 -1.4086340e-02
  2.9137356e-02
 -6.4414188e-02
 -2.1268744e-02
  1.9550258e-01
 -1.0589769e-02
  6.7571872e-01
 -2.9793772e-01
 -1.7969419e-01
  3.2261887e-01
  1.4584951e+00
  3.3305574e-02
  9.8777659e-02
  1.5858223e-01
 -1.1442308e-01
 -5.2690700e-02
  1.9256771e-02
  5.9478514e-02
  2.6877362e-02
 -3.5116378e-02
 -2.1421550e-02
 -3.6166646e-04
 -6.3932380e-03
  6.6422243e-03
  6.4627533e-03
 -3.3661790e-02
  8.2402021e-02
 -1.1153771e-01
  9.7867064e-03
  5.9833091e-02
 -4.0346216e-02
 -5.2108828e-02
 -1.1145787e-02
 -2.8762810e-02
  5.8247913e-02
 -3.2402966e-03
  1.3309331e-03
 -3.2511789e-02
  2.5080590e-02
  1.1870133e+00
  4.1017883e-02
 -4.0763959e-02
  9.5270731e-02
  3.4026197e-01
 -3.4271342e-01
 -2.1135552e+00
 -8.3100714e-02
  6.8166763e-02
  1.2984711e-01
 -1.9117692e-02
 -4.4653386e-02
 -1.5055108e-02
  7.6117650e-02
  4.4677060e-02
 -7.0936526e-03
  4.5184195e-02
 -7.0763834e-02
  5.2446514e-02
  3.5373420e-02
  8.2509462e-03
  5.8590088e-02
  1.7510809e-02
 -5.2049119e-02
 -1.2762834e-01
 -5.7909429e-02
 -3.9491132e-02
 -1.2177692e-01
  3.6951657e-02
 -7.6808751e-02
 -2.1273762e-02
  2.6972808e-02
  8.4744371e-02
 -2.8987024e-02
 -5.2286811e-02
  9.4149254e-02
 -1.6302289e-02
 -4.6832353e-02
  3.0069122e-02
  3.2494867e-01
 -4.2784387e-01
 -1.4991751e+00
 -1.1643386e-02
 -7.1946107e-02
 -1.4836806e-01
 -1.0557241e-01
  3.5819046e-02
  1.5374312e-01
 -1.6650061e-01
 -1.3731387e-02
  1.6634814e-01
 -2.5478903e-02
  3.1675518e-02
 -1.5351902e-01
 -4.4811415e-03
 -8.4117286e-02
  1.3098231e-02
  1.1756265e-01
 -3.1330667e-02
 -1.2010597e-01
  7.6883689e-02
  1.3009268e-01
  1.1682636e-01
  8.6005881e-02
  2.3967098e-03
  3.8221385e-02
 -1.4345002e-01
 -4.1522045e-02
 -3.8571466e-02
  3.2876603e-02
 -1.3483718e-02
 -3.8622916e-02
 -5.6482363e-02
  6.2849119e-02
  9.9823989e-02
 -3.8684887e-01
 -1.2534393e+00
 -1.3285365e-02
  4.8706089e-03
 -3.7648343e-02
  6.8579130e-02
 -1.3709689e-02
 -3.6682516e-02
 -3.0026203e-02
  1.2122532e-02
  7.3949955e-02
 -6.7234767e-04
  1.9277023e-01
  2.3784812e-03
 -2.2016127e-01
 -2.6650285e-02
  3.4706041e-02
 -8.9021148e-03
  2.3030896e-02
 -3.7328109e-02
  5.9497740e-02
  6.7177236e-02
  1.1283447e-02
  8.3951801e-03
 -1.5812114e-01
 -9.6525233e-03
  1.8105528e-01
 -3.0542862e-02
 -2.2763067e-01
  1.1060477e-01
 -2.7219411e-02
 -1.1523752e-02
 -2.8395722e-02
 -3.0104730e-02
 -2.3609027e-02
  5.9311274e-02
  1.8044925e+00
 -1.3221914e-01
 -1.7965560e-01
 -6.4316943e-02
 -7.7199124e-02
 -3.6788154e-02
  4.2314764e-02
  1.1774296e-02
  3.0658742e-02
 -2.7016366e-02
 -4.4250295e-02
  1.0790106e-02
  4.2809676e-02
 -3.4835313e-02
  1.4769668e-02
  1.0335721e+00
 -1.0312185e-01
 -3.9394900e-02
 -1.6873775e-02
  1.7001424e-02
  5.8306567e-02
 -3.6539830e-02
 -4.1658122e-02
 -8.0955252e-02
 -6.9236811e-03
 -1.2620653e-02
 -4.3280773e-02
  1.2814213e-01
  1.2558186e+00
 -4.6599057e-02
  5.5401854e-02
 -1.9996302e-02
 -2.2097098e-02
  1.5642230e-01
 -5.6439817e-01
 -1.5483489e+00
 -6.5984443e-02
  5.1201070e-03
 -1.2117635e-01
  1.0325912e-01
  2.8433248e-02
 -2.8627904e-03
  2.7594664e-03
  3.9487168e-02
 -4.6236560e-01
 -2.4968073e-02
 -1.6194260e-01
 -4.8465829e-02
  2.9425163e-02
  1.2636392e-01
 -2.6104623e-02
  9.1075618e-03
 -3.2531068e-02
 -3.2577045e-02
  1.7299751e-02
 -1.8072611e-01
 -5.8593159e-03
  8.7200180e-03
  2.7721418e-02
  3.2607842e-02
  3.8528237e-02
 -2.9449740e-01
  3.8859725e-02
  1.1287529e-01
 -3.2940675e-02
 -2.6959257e-02
  1.3122865e+00
 -5.6814635e-01
  8.5430783e-01
 -3.2117074e+00
  1.5053746e+00
 -1.5909775e+00
 -2.2043552e+00
 -6.3923401e-01
  9.8622823e-04
  1.3782600e-01
 -7.4612355e-01
 -1.3611154e-01
  2.9289079e-01
  5.3473454e-02
  2.3308112e-03
 -1.0373242e+00
 -1.7159771e+00
  5.9910965e-01
 -2.4816118e-01
  3.6865830e-02
 -2.6359078e-01
 -9.5160747e-01
  1.7576633e-01
  7.2472133e-02
 -3.4045693e-02
  1.3022503e-02
 -2.3064062e-01
  3.9725959e-02
  1.1742765e-01
 -6.9722004e-02
 -1.7818674e-02
  4.9071647e-02
  6.8780378e-04
  7.3198872e-03
 -7.1075321e-03
  1.7526407e-02
 -5.2980274e-01
 -8.0023885e-02
  2.3794308e-01
  1.3143960e+00
  4.5763392e-02
 -3.0536240e-02
  1.0458501e-01
  5.1860325e-03
  8.3746687e-02
  3.9701298e-02
 -1.1263992e-02
 -3.1635072e-02
 -2.3799194e-02
 -1.9451959e-02
 -4.2540948e-03
  4.7788333e-02
 -1.5240188e-02
 -1.6299749e-02
 -1.0798673e-01
 -3.1269684e-02
  1.9975041e-01
 -1.9587158e-01
 -1.9885546e-02
  1.7980685e-02
 -9.4511528e-03
  1.1872223e-01
  8.4884748e-02
  9.8311968e-02
 -7.7703021e-02
  9.6443377e-02
  2.9615078e-02
 -1.1753944e-01
 -1.0304853e-01
 -4.9375344e-02
  1.2226178e-02
  4.2396732e-02
  5.3934389e-01
 -5.1270491e-01
 -1.4638587e+00
 -9.9951513e-02
 -1.7279807e-02
 -7.1854787e-03
  2.3245003e-02
 -4.1990019e-02
 -5.4542266e-02
 -3.2378498e-02
  5.6046247e-02
 -1.0561000e-02
  7.7143319e-02
  6.7117922e-03
  1.7617373e-02
  9.0092383e-02
 -1.7753581e-02
 -6.2492289e-02
  1.2106630e-02
  1.8095244e-01
  3.8714893e-02
 -1.5921613e-02
  9.2849500e-02
 -1.7671283e-02
 -1.7033850e-01
 -5.6538913e-02
  2.8950287e-02
  2.5592593e-02
  6.5879345e-02
  6.1497506e-02
  4.7939435e-02
 -1.1047805e-02
  2.9296316e-02
 -1.0431240e-02
  1.1442324e-01
  2.4364184e-01
 -3.1776854e-01
 -1.6968968e+00
 -6.4524950e-04
 -3.0377628e-02
  2.2771599e-02
 -4.4575874e-02
  6.2749952e-02
  6.6876844e-02
 -6.0470920e-02
  2.5100396e-03
  6.2053055e-02
  1.3065438e-01
  7.6316809e-03
 -1.2969002e-01
  4.4440836e-02
  3.1655055e-02
  5.5243324e-02
 -5.1013868e-02
  8.8886544e-02
  2.0256598e-02
  1.3199647e-02
  7.7014916e-02
 -5.6808083e-03
  3.3422213e-02
 -8.5115500e-02
 -1.1675442e-01
  4.4346198e-02
  4.5319933e-02
  2.6741780e-02
  1.1625542e-01
 -3.5975415e-02
  5.7794552e-02
 -7.5326979e-02
 -1.0528168e-01
 -2.3290741e-01
  4.5111170e-01
  7.2522253e-01
 -1.2205179e-02
 -1.5251613e-01
 -1.0193478e-01
  1.4261811e-02
 -8.3254859e-02
  2.4716906e-01
 -8.0114909e-02
 -3.1861227e-02
  1.0286834e-02
  6.0628209e-02
  4.5029994e-02
  3.8261104e-02
  5.1199734e-02
  4.0755026e-02
 -1.7136617e-02
 -2.8881671e-02
 -1.1698073e-01
  1.5229152e-01
 -2.9269515e-03
 -1.8193891e-02
 -7.5382903e-02
  8.2290573e-03
  1.0122816e-01
 -1.3660599e-02
  7.6622754e-02
 -7.9631275e-03
  1.9700233e-02
 -1.7037559e-02
  2.8870812e-02
 -1.2026217e-02
  2.5602210e-02
 -1.0290256e-02
  1.3482141e-01
 -8.6424597e-02
 -1.5883756e+00
 -1.5856852e-01
  3.6447424e-02
  2.6409065e-03
 -9.4312504e-02
  6.2091801e-02
 -2.5599292e-03
 -5.6258600e-02
 -4.5322534e-02
  1.4390630e-01
 -1.4043255e-01
  5.1519256e-03
 -4.6811841e-02
  8.6069964e-03
  2.7236141e-02
  1.6125396e-02
  1.5626220e-01
 -6.5424860e-02
 -7.0492417e-02
  8.0454135e-03
 -2.2590099e-01
  1.0846069e+00
 -3.6378995e-02
  2.0626411e-02
 -4.0139634e-02
 -6.3222251e-03
 -5.8812995e-02
 -3.4978248e-02
 -8.5491382e-02
 -1.0122959e-01
  3.7929011e-03
  1.2375062e-02
 -3.9624959e-02
 -2.8233474e-01
  5.0514854e-02
  1.5164102e+00
 -8.0804672e-04
 -1.0298508e-01
 -2.2222001e-02
 -3.1754229e-02
  4.6651665e-02
  3.4855492e-02
 -1.3273560e-01
  2.4115963e-02
 -3.3434600e-02
  9.8909631e-02
 -1.4566071e-02
  2.7146932e-02
  3.5673618e-02
 -4.0607896e-02
 -2.3048835e-02
  1.7184995e-02
  5.3945715e-03
 -1.6387945e-02
 -8.7242462e-02
  1.0724991e-02
  1.1434416e-01
 -2.4819378e-02
  7.5783066e-02
 -1.0231944e-01
 -6.1924528e-02
  7.9453282e-02
 -1.0153297e-01
  3.3586241e-02
 -2.5280993e-02
 -5.0369196e-02
 -1.7284536e-01
  3.7862163e-02
 -3.9629987e-01
  4.1166413e-01
  1.5963948e+00
 -7.6926120e-02
  8.3035402e-02
  2.6788304e-02
  6.0931306e-02
  2.0816819e-01
  6.2059321e-02
 -2.0837465e-01
 -3.6669366e-02
 -2.4804693e-02
 -1.6251452e-02
  4.1490775e-03
  1.2470540e-01
 -3.9872728e-02
  4.0053017e-02
  3.5912775e-02
 -5.8934603e-02
  4.7796451e-02
  3.4481898e-02
  1.8829484e-02
 -4.5854323e-02
 -6.3541681e-02
  1.8584625e-03
 -1.3911525e-03
 -5.0014178e-03
 -1.7477953e-01
 -5.9511185e-02
  1.4243587e-02
 -3.2018896e-02
  8.8440590e-03
  8.9281648e-03
 -1.3524507e+00
 -1.3899989e+00
  3.9707202e-01
 -1.4313699e+00
  2.8569700e-02
  9.5337075e-01
  5.2955621e-01
 -5.0425243e-01
 -2.3304379e-02
 -1.3591832e-01
  1.3337612e+00
  4.7767481e-01
 -3.0842447e-01
  4.6468058e-01
 -4.5075953e-02
  6.2874454e-01
  1.2592988e+00
 -6.6901463e-01
  2.1540104e-01
  5.9531830e-02
  7.4691314e-01
  1.1578480e+00
 -6.1668533e-01
  3.4723133e-03
  7.2618566e-02
  9.8726340e-03
 -7.8884855e-02
  3.7120234e-02
  1.1189327e-01
  4.5424823e-02
 -4.7817759e-02
 -6.2888496e-02
 -2.8561408e-02
  1.7846243e-02
 -2.3301083e-03
  4.4213068e-02
 -8.8600770e-02
 -6.9610454e-02
  1.7197102e-01
  1.3464689e+00
  4.6864310e-03
 -4.5665175e-02
 -1.8265640e-02
  5.2661605e-02
 -1.2863600e-02
 -1.7066859e-02
 -7.3012806e-02
 -1.2588078e-02
 -3.3560056e-02
  1.8538726e-02
 -3.4553360e-02
  5.9134420e-02
  3.2508221e-02
 -1.0984923e-01
 -1.3064461e-02
  5.3724993e-02
  5.5875994e-02
  1.9206953e-01
  2.6932051e-02
 -5.7283167e-02
  9.3957990e-02
  9.3211375e-02
 -2.0396269e-03
 -1.7561148e-04
  1.1736307e-02
  2.0768598e-02
  2.1138044e-02
 -1.9529523e-02
  1.1266150e-01
 -6.3538253e-02
  1.4364171e-01
  6.4257169e-01
  1.4112607e-01
 -1.3940012e-01
 -1.4386674e+00
 -4.4515144e-02
 -4.0432636e-02
  8.9924194e-02
  2.6929401e-02
  1.2383411e-02
 -1.7061393e-01
 -7.0969887e-02
 -1.2521131e-02
  6.1497334e-02
  1.7037220e-02
 -2.2775948e+00
 -7.7675015e-02
 -1.7240910e-01
 -1.3266954e-01
  3.9662387e-02
  8.8446671e-03
 -3.9250925e-03
  2.4922730e-02
  4.4112217e-02
  5.6997512e-02
  5.1384352e-02
  8.7557519e-03
 -6.7396171e-02
  7.6465216e-03
 -3.3021796e-02
  2.5565736e-02
  4.2369710e-03
 -8.2519002e-02
 -6.1985686e-02
  4.1394167e-02
  2.0374164e-01
 -3.3435680e-02
 -1.8408525e-01
  6.4934812e-02
  1.3982737e+00
  3.0887071e-02
  1.4699881e-01
 -1.5299564e-03
 -2.5782067e-02
  1.0630950e-01
 -1.2618799e-02
  2.2440078e-03
  6.4244673e-02
 -2.4417166e-02
  4.7491558e-02
  1.7945784e-01
  4.9219988e-02
  5.4368190e-02
  3.5146900e-02
  3.2877520e-02
  6.3106291e-02
 -5.7065938e-02
  5.6929071e-02
 -2.6918074e-02
 -1.1174687e-01
 -1.2689383e-01
 -6.1875001e-02
 -5.7631213e-02
  6.8021163e-02
 -1.0029866e-01
 -5.5500623e-02
  1.3575171e-02
  9.5045231e-03
  4.5622647e-02
  1.8160088e-03
 -6.4151302e-02
 -1.0797397e-01
 -2.4840344e-01
  1.6787918e-01
  1.5967369e+00
 -6.7086685e-01
  7.9762146e-02
  1.2964000e-01
 -4.5963541e-02
 -5.8305737e-02
 -4.1688073e-02
 -6.4017773e-03
  1.5590313e-02
  7.2772382e-03
 -8.8074900e-02
 -7.8211293e-02
 -5.5992592e-02
  9.1581774e-04
 -4.9089182e-02
  7.2875328e-02
 -5.7608891e-02
  6.3310638e-02
 -8.6244911e-02
 -9.0295799e-02
 -1.6348565e-02
 -3.1807672e-02
 -5.2062258e-02
  1.5214643e-01
 -5.6206793e-02
 -5.9651323e-02
  1.4900959e-02
  2.2316957e-02
 -7.9562515e-02
  1.8951470e-02
 -6.8450421e-02
 -1.7633886e+00
 -1.2081759e+00
  1.3725260e+00
 -1.6103634e+00
  1.6671344e+00
 -1.7786219e+00
 -1.4112113e+00
 -2.0020473e+00
  1.6248881e+00
  1.5156024e+00
  1.2736875e+00
 -1.5523266e+00
 -1.6206410e+00
 -7.4813950e-01
  2.9355066e+00
 -1.8971348e+00
  1.7091846e+00
 -8.3986843e-01
  1.3453516e+00
  1.5795063e+00
 -1.3850836e+00
  1.3831793e+00
  1.3642782e+00
  1.4973164e+00
 -1.3214407e+00
  1.9651064e+00
 -1.9895338e+00
  1.6032814e+00
  9.7413534e-01
 -8.7729853e-01
  1.9186490e+00
 -1.9988528e+00
 -1.4547936e+00
  1.7157966e+00
 -1.3221500e+00
 -2.0076683e-01
  1.5309023e+00
  1.4828655e+00
  1.4952561e+00
  3.4614253e+00
  6.6569304e-01
 -1.6073878e+00
  7.2669238e-01
  1.3529522e+00
  1.8582461e+00
 -1.1882453e+00
  1.5543691e+00
 -1.3007436e+00
 -1.9092013e+00
  1.8209242e+00
  1.3951985e+00
 -2.2673609e+00
  1.5230564e+00
 -2.0215466e+00
 -1.3754152e+00
  1.8312371e+00
 -1.6821939e+00
  1.5442010e+00
 -1.4245213e+00
 -1.3745933e+00
 -2.7769423e+00
 -1.2740508e+00
  1.2648287e+00
 -1.9426100e+00
  2.5217266e+00
 -3.2332056e+00
 -1.2477770e+00
 -1.3581507e+00
  9.9327910e-01
 -2.2691357e-01
  3.5281250e+00
 -5.3721213e+00
 -1.7504078e+00
 -8.0612302e-01
  2.8857789e+00
 -3.2896371e+00
  2.7892838e+00
 -1.0883875e+00
  1.3010687e+00
  2.5267072e+00
 -2.3656387e+00
  2.5168352e+00
  2.6108596e+00
  1.9367229e+00
 -4.4831400e+00
  3.0218325e+00
 -4.4751577e+00
  3.6986556e+00
  4.1306219e-01
 -7.5085860e-01
  1.4540823e+00
 -3.4007604e+00
 -1.6442198e+00
  3.5566986e+00
 -1.7537800e+00
  1.1791830e+00
  1.9459488e+00
  3.2495196e+00
  1.6756572e+00
  2.7117651e+00
  1.2025322e+00
 -1.8675997e+00
  1.1781124e+00
  1.4735321e+00
  1.6978145e+00
 -1.1165316e+00
  2.6801836e+00
 -9.4722772e-01
 -2.4570866e+00
  3.9089980e+00
  2.2337050e+00
 -2.6705577e+00
  1.3149611e+00
 -3.9424403e+00
 -1.5671148e+00
  3.1562362e+00
 -2.3042183e+00
  1.4417560e+00
 -1.1117561e+00
 -2.0167241e+00
 -1.2807213e+02
  3.2965052e+00
  2.1180401e+00
  3.2450324e-01
  1.1908065e+00
  9.6873176e-01
  4.7829086e-01
 -7.1774387e-01
 -1.2416659e-02
  3.1480131e-01
  1.5425726e+00
  1.9185863e+00
  3.2988468e-01
  1.6547385e+00
  3.5042708e+00
 -1.1988003e+00
 -4.7085601e-01
  7.3741186e-01
  5.8858484e-01
 -1.0264710e-01
 -1.9422667e+00
  4.2883415e+00
  1.9495155e+00
  1.0956803e-01
 -1.1534094e+00
  2.8408856e+00
  4.4551220e+00
  3.8974696e-01
  4.4819412e-01
 -3.1357220e-01
  1.4057598e+00
 -1.3326238e-02
  4.6810373e-03
  1.3075018e+00
  1.7200142e+00
 -1.1000025e+00
 -6.9239855e-02
 -9.6273117e-02
 -9.0742763e-03
  1.0201714e+00
 -7.6820153e-01
  1.0757736e-02
 -1.1386139e-03
 -7.6539969e-01
 -2.9437828e+00
 -1.6036719e-01
 -6.4138943e-01
  1.2776703e+00
  1.0287982e+00
 -1.1668757e+00
  1.4361684e+00
  1.0364363e-01
 -4.6561222e+00
  7.7059656e-01
 -3.8528562e-02
 -2.8998325e+00
  9.7672462e-01
 -1.5537928e+00
 -1.0841446e+00
  3.9728948e-01
  4.6211019e+00
 -7.3359333e-02
 -2.1921174e-01
 -1.6377097e+00
  1.1137686e+00
 -5.4102474e-01
 -2.8571779e-01
 -2.1900678e+00
 -2.0227256e+00
 -5.1029783e-01
  1.0035599e-02
 -1.4173367e+00
 -1.8780235e+00
  4.2191425e-01
  2.5186899e+00
 -3.6863050e-01
  5.1662672e-01
  5.0660700e-01
  4.6229082e-01
  1.6843343e-02
 -9.0962094e-01
 -6.0130268e-01
 -6.0133278e-01
 -1.3430619e+00
 -8.8323575e-01
  1.3527026e+00
  7.4911383e-03
 -1.5762517e-01
 -2.4727783e+00
  1.8093662e+00
  5.1442068e-02
  7.1840405e-02
 -9.3716764e-01
 -1.9542394e+00
 -9.5279676e-01
 -2.6288950e+00
 -9.3371469e-01
  1.5725048e+00
  8.7003863e-01
 -1.6220841e-01
  6.3886958e-01
 -3.7708509e-01
 -6.0145345e-02
  3.7106854e-01
 -2.1969378e-02
  2.1512668e+00
  9.4392622e-01
 -2.0794360e-02
 -1.9410868e+00
 -6.2309623e-01
 -2.8369617e+00
  7.9410434e-01
  1.1877946e+00
  2.2664663e-01
 -8.4772930e-02
  2.7119347e-01
  2.1160774e-01
 -9.7770117e-02
 -6.6935909e-01
  2.2810209e+00
 -5.1357961e-01
  3.4188053e-01
 -4.1459247e-01
  4.8878461e-01
 -2.4177626e-01
 -9.6334654e-01
 -5.2725244e-01
  4.2743108e-01
  6.7021865e-01
 -2.3315260e+00
 -4.4671152e-02
  2.9819629e-01
  3.1017323e+00
 -2.3862338e+00
 -1.6854855e+00
 -1.4599766e-01
  1.7046684e+00
 -1.0997874e+00
  3.7689751e-01
 -7.0329912e-02
 -6.0487263e-02
  8.2237378e-02
  4.0965316e-01
  2.8886026e-01
 -2.6322088e-01
  7.1417624e-01
 -2.4132872e-01
  3.4824619e+00
  2.2806122e+00
  5.2353799e-01
  3.4781200e-01
  2.6070336e-02
  2.0122166e+00
 -8.3638459e-01
 -1.6732972e+00
  2.4992131e-01
  2.4126184e+00
  1.0989597e+00
  2.4057724e+00
  1.7377675e+00
  2.8449051e+00
  3.3861058e+00
  1.2492981e+00
  8.4526348e-01
  2.0198667e+00
 -3.8144985e-01
 -5.3746587e-01
  1.3891599e+00
  4.9359697e-01
 -1.2851498e-01
  1.4142491e+00
  1.2283368e+00
  2.6461723e+00
  6.5773845e-01
  2.6061673e+00
  4.3524376e-01
  2.4508648e-01
 -3.5141066e-02
  9.8650515e-02
  1.0624226e+00
  1.3672421e+00
  4.5433173e-01
 -1.3352318e-01
  1.6418127e+00
 -8.1956714e-01
 -2.3463440e+00
 -2.0546027e-02
 -2.5452504e+00
 -1.9029312e+00
 -1.3536900e+00
  1.3423535e-01
  6.5424269e-01
  9.9759179e-01
 -1.0537501e-01
 -3.0329654e-01
 -1.0071586e+00
 -1.3394630e+00
  3.5676992e+00
  5.7151985e-01
 -4.3568844e-01
 -3.8683289e-01
 -2.7501559e-01
 -4.3485156e-01
  1.4739534e+00
  1.3672753e-01
 -5.8516711e-01
  2.6747430e-02
 -1.4206101e+00
 -1.6148295e-01
  1.5682422e+00
  3.1583014e-01
 -2.8698246e+00
 -2.5912911e-01
  8.3514220e-01
  6.7627776e-01
 -1.7840443e+00
  7.2874784e-01
 -2.4727173e-01
 -3.3215269e-01
 -2.3362814e-01
  4.6262249e-02
 -9.9168956e-01
 -1.5931160e+00
 -2.0950196e-02
 -1.9042170e+00
  6.3234776e-01
  7.8343615e-02
  9.3993402e-01
  1.0807650e+00
 -3.3887026e-01
  1.3379419e+00
 -1.7820888e+00
 -7.2788024e-01
  7.6365137e-01
  1.1734225e+00
 -5.1100868e-01
 -5.2527565e-01
  1.6945552e+00
 -4.3188456e-01
  1.8076358e+00
  4.1015035e-01
 -4.6816802e-01
 -1.7837429e+00
 -2.5385574e-01
 -1.2283947e+00
 -1.4403383e+00
 -7.1975416e-01
 -1.1526067e+00
 -8.5764027e-01
 -9.6382731e-01
  2.5766030e-02
 -2.7942348e-01
 -1.0445832e-01
 -2.1623170e+00
  3.3298010e-01
  1.1814388e+00
 -1.4678576e-02
 -1.2545326e+00
 -1.8402899e-02
  2.6554385e-01
  2.4859551e-03
  1.4678639e+00
 -9.5383218e-04
 -1.8921372e-02
 -1.6655236e-01
  8.7095743e-01
 -1.6414552e+00
  4.7515628e-01
  7.6249778e-01
 -1.9144535e+00
 -7.1847820e-01
 -3.3222049e-02
 -5.3832138e-01
  7.7244788e-01
  4.8998326e-01
  1.2242181e-02
  2.5282159e+00
 -2.5665652e-02
 -5.1647198e-01
  9.0822494e-01
  1.7189777e+00
  9.3185014e-01
  6.1079454e-01
 -1.4156738e-01
 -1.1821952e+00
  3.6550277e-01
  9.0348548e-01
  1.1869303e-01
 -2.6848689e-01
  1.0652672e+00
  1.0070945e+00
 -4.6687104e-02
 -5.7049159e-02
 -3.4116817e+00
 -2.7214539e-01
 -9.1375662e-03
  5.3355549e-02
 -4.7393364e-01
 -8.0140364e-01
  1.1236435e-01
  1.1794501e-02
 -1.2331063e+00
 -3.5688462e+00
 -4.0344484e-02
 -6.4712191e-01
 -6.0928965e-01
 -8.6045676e-01
  2.7080838e-02
 -1.2930714e-01
 -8.0581927e-01
  8.7615943e-01
  3.2334290e-02
 -7.6472715e-02
 -2.7028668e-01
  5.3113949e-01
  2.5398005e-02
  7.1348351e-01
 -6.1735505e-01
 -5.9509158e-01
 -5.7976253e-02
 -1.1841044e+00
 -8.2489610e-02
 -1.4235403e-01
  3.2026216e-02
  1.3662885e+00
  1.2153333e-01
 -2.1615496e+00
  1.4606845e+00
  2.5572727e-02
 -1.7289566e+00
  2.5335909e-03
  5.6073401e-02
  4.7685999e-02
  1.7146895e+00
  1.0184947e+00
  2.9569611e-02
 -1.5794104e-01
 -3.9135399e-01
 -8.9975291e-01
 -2.1160839e-01
  3.8955396e-01
 -7.5884119e-02
  1.2102585e+00
  1.0246719e-01
 -8.9741707e-02
 -2.9147676e-01
  4.3570247e-01
  3.6824405e-02
 -3.5134867e-01
 -1.3540337e+00
 -8.7216152e-03
  1.0472421e-01
  4.8338276e-01
 -4.4200506e-02
  1.1755376e+00
  5.1998353e-01
 -1.4249916e-01
 -3.1330174e-01
  9.7445405e-01
 -1.9422174e-02
 -3.9016675e-02
  2.9349174e-02
  2.9349174e-02
  2.9349174e-02
  2.9349174e-02
  2.9349174e-02
  2.0425856e-01
  2.0425856e-01
  2.0425856e-01
  2.0425856e-01
  2.0425856e-01
  1.6406114e-01
  1.6406114e-01
  1.6406114e-01
  1.6406114e-01
  1.6406114e-01
  5.0968606e-02
  5.0968606e-02
  5.0968606e-02
  5.0968606e-02
  5.0968606e-02
  2.4741443e-02
  2.4741443e-02
  2.4741443e-02
  2.4741443e-02
  2.4741443e-02
  1.6266836e-01
  1.6266836e-01
  1.6266836e-01
  1.6266836e-01
  1.6266836e-01
  8.9403339e-02
  8.9403339e-02
  8.9403339e-02
  8.9403339e-02
  8.9403339e-02
