nep4_zbl 2 Ga In 
zbl 1.25 2.5 0.7
cutoff 6 5 68 39
n_max 4 4
basis_size 8 8
l_max 4 2 1
ANN 60 0
 -1.6897662e-01
 -1.4184714e-02
 -1.1914643e+00
 -1.0193559e+00
 -1.9085487e-02
 -2.2322008e-02
 -2.1781335e-02
 -6.3369140e-02
 -1.1883534e-01
 -2.6778713e-02
  3.0134086e-02
  7.1059838e-02
  4.4224501e-02
  1.4023334e-01
 -1.3025124e-01
 -1.2898482e-01
  4.0614698e-02
 -1.6458939e-01
 -4.0422730e-02
 -1.6093606e-01
 -1.6689423e-01
 -5.1747005e-02
 -5.1851913e-02
  3.0849863e-02
  2.1716854e-02
 -1.2352401e-01
  5.5821985e-02
 -7.1277767e-02
 -1.2728445e-01
  1.6245565e-01
  4.6909157e-02
  1.4651847e-01
  3.2670300e-02
  7.2198287e-03
  6.5832831e-02
  4.4906205e-01
 -1.1004234e-02
  1.7388381e+00
  8.6259782e-01
 -1.1367175e-01
  5.5351075e-02
  1.0014799e-01
 -1.0763512e-02
  1.2565564e-02
  4.4631749e-02
 -9.6147209e-03
 -1.3857596e-01
 -1.3587731e-02
  7.2075970e-02
 -1.7665913e-02
  3.2857522e-02
  2.3357822e-02
 -2.2770802e-02
 -7.6758810e-03
  3.9440576e-02
 -2.4489444e-02
  4.4690438e-02
 -2.5546165e-02
  9.2023820e-02
  7.1902119e-02
  1.2085790e-01
  1.0057990e-01
 -4.5753319e-02
 -1.6874846e-02
  7.0826538e-02
  7.3309331e-03
 -3.3715833e-02
  1.0740159e-01
  1.1968881e-01
 -3.6474489e-02
  1.5379333e-01
 -2.3368564e-02
  1.6373729e+00
 -5.1329438e-02
  6.4214445e-03
  2.1786384e-02
  9.2425771e-02
 -1.7529832e-02
  2.9413512e-02
  1.0728208e-01
 -5.5731151e-02
  1.7688003e-01
 -1.6034378e+00
  2.4861772e-02
  5.5178318e-02
  4.0555779e-02
  5.5171344e-02
  3.1341456e-02
  3.1249659e-02
  1.8761542e-01
 -2.1061100e-02
  2.5278902e-02
  4.8235606e-02
 -1.1615978e-01
  1.3608319e-03
 -9.0830043e-02
  2.5419036e-02
 -1.8265396e-02
  1.1339819e-01
  1.1541447e-01
  4.9265146e-02
  8.1851119e-03
  1.8075712e-02
 -1.3806595e-02
  7.6658852e-02
  8.7166131e-01
 -1.3471442e+00
  2.2225385e+00
 -1.6720251e+00
 -7.9888391e-01
 -1.6152883e-01
 -3.0068710e-02
  2.3923251e-01
  6.7896521e-01
 -5.4646486e-01
 -7.8799564e-01
 -1.2813428e-01
  1.5209438e+00
 -7.5045121e-01
  1.1243112e+00
  3.0569162e+00
  9.3354583e-01
  1.9501487e+00
  5.0122333e-01
 -1.3471258e+00
 -7.6909101e-01
  4.4195402e-01
 -3.0151653e-01
  9.9045736e-01
 -5.6246195e-02
  2.5268227e-02
  3.7511796e-01
  3.0589008e-01
  4.1455731e-01
  5.1273916e-02
  5.6240612e-01
  6.1447322e-02
  1.6989565e-02
  9.8143499e-03
 -3.3871156e-01
  1.5738256e-01
  1.5247551e-01
  1.7651051e+00
  3.6534959e-01
  1.2377985e-01
 -2.5436919e-02
 -1.7821720e-01
 -8.0149593e-03
  4.6928990e-01
 -1.1826714e-01
 -8.5975416e-02
  4.5318913e-02
  9.5005386e-02
  4.1880563e-02
  3.8062390e-02
  3.4278274e-02
  1.2612297e-01
  4.7071867e-02
 -1.8222263e-02
  5.2393846e-02
  5.8785167e-02
  1.4070778e-02
 -3.4944881e-02
 -2.2385554e-02
  7.9899296e-02
  1.1091001e-02
  1.5954824e-02
  1.1975092e-01
 -5.2432101e-03
 -8.6955324e-02
  2.1339970e-02
  1.1158204e-01
  4.1876730e-02
 -5.0137010e-03
  5.4295990e-03
 -3.9452219e-01
 -2.8283902e-02
 -1.5914063e+00
 -1.6517906e-01
  3.1268235e-02
 -1.8040003e-02
 -3.3488604e-03
 -8.0297939e-02
 -1.3057259e-01
 -1.6114110e-01
  7.1744800e-02
 -1.0091604e-01
  5.3736243e-02
 -2.2439679e-02
 -2.2814367e-02
  1.1568309e-01
 -1.7967679e-03
  6.4561583e-02
 -1.0680111e-02
  1.0870544e-01
 -5.1501717e-02
  8.9585781e-02
  6.2083621e-02
 -1.7916195e-01
 -2.0034159e-02
  1.3145914e-03
  1.3752533e-02
  6.4455807e-02
 -6.4145386e-02
 -1.6660701e-02
 -1.3970679e-02
 -5.5886889e-03
  1.5504974e-01
  7.7837785e-03
  1.9279857e-01
 -2.3207052e-01
 -1.2550680e-03
 -6.0494775e-01
 -7.1839267e-01
 -7.5386219e-02
 -8.7534457e-02
 -2.4954425e-03
 -9.0125456e-02
 -2.3045518e-02
  1.4452621e-02
 -2.9995183e-02
  8.8374456e-03
  5.8797114e-02
 -8.2908064e-02
 -9.9219307e-03
  3.6854561e-02
 -1.0072933e-02
 -1.6984142e-02
  5.3536236e-02
  9.6348226e-02
 -6.3480046e-03
  4.6520926e-02
 -1.3056361e-02
 -6.2437993e-02
  7.7450678e-02
  5.8054287e-02
 -8.3117941e-03
  9.6922033e-03
 -1.6663544e-02
  7.1570538e-02
 -6.4985722e-02
  2.3161829e-01
 -3.4382764e-02
 -3.0510039e-03
 -1.1497772e-02
  3.5754721e+00
 -2.7208154e+00
  6.7504907e-01
 -2.3225947e-01
  3.1734095e+00
 -2.8196648e-03
  4.2985521e-02
 -5.9216869e-01
  5.2094483e-04
 -9.8375350e-01
 -1.7057903e-01
 -7.1961462e-02
 -2.8926405e-01
  8.4028423e-01
  5.1399899e-01
  1.0315200e-01
  1.9017875e-02
  5.7475060e-02
  5.7085615e-04
  3.1594011e-01
 -1.4649187e-01
 -3.3181697e-01
 -1.0959455e-01
 -8.7538637e-02
  7.5918309e-02
 -2.3693608e-02
  8.9091368e-02
 -1.2689006e-02
 -1.3278989e-01
  1.1757725e-01
 -8.7876849e-02
 -6.9261803e-03
  5.9993651e-02
 -6.3276333e-03
  4.1206211e-02
  6.1376058e-02
  5.3696793e-02
  2.3998210e+00
  5.3826100e-01
 -7.1013151e-03
  2.5347505e-02
 -5.3951733e-02
 -4.1697320e-02
 -1.2414731e-02
  1.4600821e-02
 -1.1970063e-01
 -1.6960812e-01
  4.6102792e-02
  5.7259086e-03
 -9.2798986e-02
  1.1197852e-01
  1.3511822e-02
  5.2193440e-02
  7.8847725e-03
 -5.9737258e-02
 -1.1894112e-01
 -3.4628104e-02
 -1.3937506e-01
  1.2718450e-01
 -1.2263529e-02
  4.1423474e-02
 -3.4588788e-02
  1.4000713e-02
 -5.7427764e-02
 -3.5700306e-02
  1.6221836e-01
  1.4493345e-01
 -1.1134112e-01
 -5.0777063e-02
  9.2126047e-03
  2.2172701e-01
  7.0555352e-02
  1.7082318e+00
  5.7653183e-01
  2.0039104e-02
 -2.2090792e-03
 -5.4496678e-04
 -6.2928982e-02
  7.6429136e-02
  6.8816237e-02
  1.7949185e-01
  3.9800644e-02
 -1.3167408e-01
 -5.1300228e-02
 -4.7925033e-02
 -3.6602832e-02
 -2.0417484e-02
  2.0801544e-02
  1.8768543e-02
 -6.0720800e-04
 -8.5548848e-02
 -5.6946903e-02
 -2.5277317e-02
  2.6169885e-02
 -1.0572645e-01
 -1.2703244e-01
 -1.9182275e-01
  3.1615078e-02
 -1.9990603e-02
 -6.4683951e-02
 -3.4718804e-02
 -3.8058120e-03
  2.4130549e-02
 -3.3134215e-02
  3.7772581e-02
  5.4894205e-02
  1.0490763e-01
  1.4830236e+00
  1.2528807e-01
 -1.9120552e-01
  2.4343690e-02
  8.2382664e-02
 -1.5391746e-01
 -1.5171020e-01
  1.1915565e-01
 -4.0763863e-03
  5.9850141e-02
  1.3658958e-02
 -8.7111644e-02
 -2.9142665e-02
  3.5023775e-02
  1.1331957e-01
  2.3450911e-02
 -2.0226821e-02
  2.9384438e-02
  1.8335900e-03
  9.0661429e-02
 -4.5591462e-02
  6.5051176e-02
  2.1838345e-02
 -7.5827432e-03
 -1.0101675e-01
  1.8964354e-03
  2.2089932e-02
  5.4645050e-05
  6.2548384e-02
  1.0543716e-01
 -6.4669803e-02
 -8.0638811e-02
  1.6025923e-02
  1.9596699e-01
  1.6151863e-01
  1.5423414e+00
  6.5394711e-01
  5.6911666e-02
  5.5857882e-02
  1.0848962e-02
  9.0351462e-02
 -6.7703038e-02
  6.3604838e-03
  2.7825836e-02
  5.1410524e-03
 -8.5307276e-03
  3.8298629e-02
 -3.0610684e-02
 -1.0148977e-01
  1.2574063e-01
  2.0927100e-02
 -4.8579667e-02
 -6.4830795e-02
 -1.9088528e-01
  4.2941859e-03
 -9.4546959e-02
  3.6035065e-02
 -1.3708275e-02
  9.2489213e-02
 -1.4410912e-02
  2.4750847e-02
  6.7592554e-02
  6.5056428e-02
 -6.1523054e-02
 -5.9496192e-03
 -5.1336177e-02
  9.3315747e-03
  1.3730230e-02
  3.1541061e-01
  1.6509260e-01
  1.4336082e+00
  8.4683424e-01
 -3.1221306e-02
 -5.2606559e-04
  3.3822455e-02
 -2.7291054e-02
 -7.5855330e-03
  8.2559222e-03
 -8.2071677e-02
 -1.8529819e-01
 -1.0302148e-01
  3.9882579e-01
  6.0061388e-02
  1.0205252e-01
  2.0134261e-01
 -5.4658651e-02
  9.4146170e-03
 -7.8995831e-02
 -4.3764129e-02
 -6.6171713e-02
  2.9785065e-02
 -1.0603915e-02
  8.1281073e-02
 -1.5161633e-01
  4.2974092e-03
 -7.5283915e-02
  7.0561007e-02
  4.6911415e-02
  6.7643365e-03
  1.2400810e-02
  3.0046457e-02
 -8.6108297e-03
  1.1415280e-02
  7.6345005e-03
  4.7251992e-02
  1.2199038e+00
  5.7199156e-01
  9.9970333e-02
 -8.9945644e-02
 -2.0814640e-03
 -2.3856556e-02
  5.9582368e-02
  2.5806677e-02
  2.3577262e-02
 -4.5230661e-02
 -8.9823075e-02
 -3.8997527e-02
 -1.7071612e-02
 -1.6842375e-02
  1.8947135e-01
 -6.5982446e-02
  1.7353560e-01
 -3.5073865e-02
 -1.1911621e-02
  9.5322967e-02
 -6.2520951e-03
  1.1791063e-01
 -8.2115997e-03
 -3.3651929e-02
 -1.3235305e-02
 -2.0021077e-01
 -2.2013864e-02
  1.7053582e-02
 -6.1249770e-02
  5.0125357e-02
  7.2895281e-02
 -1.0225433e-02
 -1.4071880e-01
  1.0720050e-02
  4.3887973e-02
  1.4262944e+00
  9.4067365e-01
 -6.9408439e-02
  2.9802727e-02
  3.1478424e-02
  3.7298020e-02
  8.7801926e-02
  3.7366562e-02
  1.4475709e+00
  6.3872896e-02
  6.1392263e-02
 -3.2856546e-03
  6.0846720e-02
  3.8770065e-02
  5.2162509e-02
  1.3573880e-02
  1.0980207e-01
  9.2881862e-03
  2.8467306e-03
  1.1299771e-02
  3.9908732e-03
  7.7361546e-02
  3.6230564e-02
  1.8638719e-02
 -5.5770101e-03
  8.2755424e-03
 -1.0731886e-01
 -4.3631770e-02
  1.3202971e-01
  6.9212586e-02
 -5.4972195e-03
  6.5844923e-02
  4.5762453e-02
 -1.1730614e+00
 -1.1023563e+00
 -8.3475775e-01
  2.4015958e+00
 -8.5611075e-01
  3.0589798e-01
 -3.7460545e-01
 -2.2841222e+00
 -4.2908153e-01
 -1.8754547e+00
 -6.2008452e-01
 -7.3752803e-01
 -3.3292134e+00
  2.6219004e-01
 -5.0455320e-01
  2.6390324e+00
 -8.6166203e-01
 -3.9530018e-01
 -6.6801059e-01
 -1.7117352e+00
  3.9856800e-01
  3.1316182e-01
  6.0702360e-01
 -6.5294909e-01
 -9.0950382e-01
  3.8392401e-01
 -4.3527153e-01
 -4.2337093e-01
 -9.4528366e-03
 -7.3972852e-03
 -8.5338667e-02
  2.3004398e-02
  8.1781568e-03
 -3.2762170e-02
  6.8094063e-01
 -3.3817772e-02
 -6.5424368e-03
 -1.4662899e+00
 -8.6902648e-01
  1.3152213e-01
 -4.5566019e-02
 -4.2930409e-02
 -2.5238480e-02
  9.2137121e-02
 -2.7610332e-02
  3.6975473e-02
 -2.1051774e-03
  3.5161090e-03
  2.9514117e-02
  2.2414951e-03
 -1.3736564e-01
 -3.2820351e-02
  1.5602826e-01
  1.5673801e-01
 -4.4383362e-02
 -4.6636391e-02
  6.7700946e-01
 -5.8585964e-03
 -3.2064106e-02
  1.6095998e-02
  2.6276829e-03
 -2.4470350e-02
  2.3045251e-01
  7.1058318e-02
  1.3357457e-02
  2.8785387e-02
 -6.4661257e-02
 -1.0659266e-02
  1.0741745e-02
 -1.2641196e-01
 -1.2533052e-01
  9.1480285e-02
 -1.4281605e+00
 -1.0741918e+00
 -1.0088696e-01
  8.9513391e-02
  1.1761337e-02
  8.2635783e-02
 -2.4758453e-02
 -1.8176343e-02
  2.4672734e-02
 -8.4100015e-02
  4.5015644e-02
  1.4373510e-01
  8.0020636e-02
  1.7503470e-02
  2.5207438e-02
  6.7767039e-02
  4.4245157e-02
 -9.7175650e-02
  1.1887614e-02
  1.4071421e-02
 -1.1101657e-01
  2.2332496e-03
  5.5782121e-02
 -6.7239575e-02
  8.5550964e-02
 -5.1053803e-02
 -3.9565139e-02
  5.6869656e-02
 -8.0383524e-02
 -4.1827485e-02
 -7.0518121e-02
 -4.1547480e-01
  5.6555957e-02
  2.2300193e-01
 -9.5452024e-03
  1.1565046e+00
  7.9464453e-01
 -1.9773094e-01
  6.0533557e-02
 -1.6591756e-02
 -1.5695280e+00
  6.6062242e-02
 -1.7929057e-02
 -1.0286546e-01
  4.3570459e-02
 -6.6279240e-02
 -8.8298522e-02
  1.4997241e-03
  7.8611203e-02
  5.0592098e-02
  1.5812008e-02
  1.8212331e-02
 -7.4185014e-02
  5.9744518e-02
  4.6080742e-03
 -9.0707028e-03
  3.1659164e-02
 -6.8817944e-03
  4.4941735e-02
 -1.6970214e-01
  1.4452344e-01
  8.1649363e-02
 -2.4623461e-03
 -1.8096566e-02
  1.8147866e-01
 -9.1309436e-03
 -1.2591580e-01
 -2.3040034e-02
  5.7321977e-02
  1.6623698e-01
  1.5854201e+00
  4.7673312e-01
 -3.2824211e-02
  9.4279591e-03
 -1.6349207e-01
 -6.8913169e-02
  2.1257101e-01
  2.0859902e-01
 -1.4870806e-01
 -4.4918191e-03
 -1.1226181e-01
  9.1620222e-02
  1.7628929e-02
  6.6950254e-02
 -8.2990322e-03
 -5.8188658e-02
  1.7590813e-02
  7.5254217e-02
  2.0720879e-02
  4.4763878e-02
  2.5110543e-02
 -8.3927236e-02
  7.6993564e-03
  7.3879644e-02
  1.1371533e-02
 -2.6328666e-02
 -3.8996920e-02
 -1.3026161e-01
  5.3184357e-02
  9.5351711e-02
 -1.3554591e-01
 -3.8664088e-02
 -5.5649221e-02
 -1.0048468e-01
  2.0138510e-02
  1.1571562e+00
  7.4700743e-01
  1.8935407e-02
 -6.1698150e-02
  5.3777661e-02
 -1.3536620e-01
 -2.0131320e-04
  4.7781106e-02
 -1.1589279e-02
 -9.2485053e-03
 -1.3815062e-02
  1.0073870e-01
 -1.5810411e-02
  3.1693773e-03
  5.6300606e-03
  3.4717231e-03
  1.8265579e-02
  4.8864055e-03
  5.3614314e-04
 -5.9445944e-02
 -1.8145803e-02
  3.2145355e-02
 -3.4625733e-03
 -5.3836290e-02
  2.7981615e-02
 -2.0865436e-01
 -2.7565720e-02
 -5.2328594e-02
 -1.2305699e-02
 -1.7017341e-01
  3.3573374e-02
  4.5566060e-02
  6.8216637e-02
 -1.1276010e-01
 -2.9998230e-02
 -1.8282751e+00
 -3.7797135e-01
  6.4088218e-02
 -5.4011300e-02
 -1.1281185e-01
 -4.4911858e-02
  1.2007645e-01
 -4.1154876e-02
  8.6895756e-02
  5.4822363e-02
 -5.3415438e-03
  6.3957409e-03
 -1.0194813e-01
 -3.5546001e-02
  8.1363320e-02
 -6.8233401e-02
  2.3247922e-02
 -2.6986860e-02
 -2.5999179e-02
  5.3583216e-02
  1.0951941e-01
  1.5746627e+00
 -1.0127598e-02
 -5.4314747e-02
 -6.9405235e-02
  2.8068492e-02
  5.5906404e-02
  1.0088511e-02
 -6.9348626e-02
 -4.7680173e-02
  1.3623059e-02
 -6.2731415e-02
 -3.2898462e-03
 -1.1680140e-01
 -1.2694390e-01
 -1.3430308e+00
 -1.9790411e-02
 -7.8771427e-02
  6.2388405e-02
 -6.1851189e-02
 -2.5915226e-01
  1.4895773e-02
 -7.3935851e-02
  2.4982174e-01
  4.5756035e-02
 -4.1386496e-02
 -5.7874281e-02
 -2.1825820e-02
 -1.9979091e-01
 -7.2842003e-03
  1.0095711e-01
  1.7644173e-01
  1.3029560e-01
  6.0915660e-02
 -4.1410979e-02
 -4.0852550e-02
  2.7177960e-02
  3.3778183e-03
  4.7983807e-02
  5.2582551e-02
  2.2483198e-02
  3.0730203e-02
  7.6898806e-02
 -9.4867339e-03
  2.8867332e-02
  5.6606535e-02
 -1.3851589e-01
  8.2114704e-02
 -6.7252867e-02
 -1.1848424e-01
 -1.1344255e+00
 -7.2159028e-01
  2.2945283e-02
 -1.2392285e-01
  1.2200335e-02
  8.3138257e-02
  5.4218890e-03
 -4.4248093e-02
  1.6316773e-01
 -2.1904144e-02
  1.9656637e-01
  3.2839432e-02
  4.5595028e-02
  5.2948005e-02
  3.4717447e-03
  1.3447652e-02
  1.3279309e-02
  1.0537305e-02
  2.6315397e-03
 -9.7623020e-02
  6.4081170e-02
 -9.3066189e-03
 -2.4750879e-02
  1.9555036e-02
 -2.6648328e-02
 -4.1760627e-02
 -8.6838761e-03
 -2.9316666e-02
  6.0239468e-02
 -1.0894761e-02
 -7.1097232e-02
 -7.3996380e-02
 -3.3493973e-02
 -4.4609424e-01
 -3.6216366e-01
  6.4129460e-01
  1.6160736e+00
 -3.3614600e-01
 -2.3711000e-02
 -2.3140103e-01
 -1.9901046e+00
 -1.2689223e+00
 -2.4202515e-01
  3.9736807e-01
  9.6157581e-01
 -1.0487696e+00
 -7.3234701e-01
  8.4378564e-01
 -6.8296552e-02
  5.9115320e-01
 -1.2145318e+00
 -1.4596173e+00
  8.2786369e-01
  8.8241428e-01
  1.0953516e+00
  5.1664299e-01
 -1.3016734e+00
 -1.2868963e+00
  4.4013146e-02
 -1.1245766e-01
 -3.1179920e-01
 -1.1848762e-01
  2.4968931e-02
 -3.5832141e-02
 -2.7227525e-02
 -1.5291288e-02
 -3.8867239e-02
  4.5864904e-01
  2.1638776e-01
 -8.2121275e-02
  1.6674426e+00
  5.0161254e-01
  1.0650662e-01
  8.5078686e-02
 -1.0136724e-02
  7.7359863e-02
 -6.4777270e-02
 -9.1291058e-01
 -1.1758355e-01
 -3.8330432e-02
  2.2340879e-01
 -1.7747713e-02
  1.4647343e-02
  7.0969634e-02
 -6.8819635e-02
 -5.2640840e-02
  1.0089524e-01
 -3.8877551e-03
 -4.0827539e-02
  5.1848110e-02
 -1.5228584e-02
 -2.4230158e-02
  3.4280550e-02
  1.9540049e-02
 -3.4043912e-02
  1.1313166e-01
 -1.1154688e-02
  1.2275078e-01
 -6.2225174e-02
  2.0073757e-01
 -5.0054930e-02
  3.2144450e-02
  7.1475960e-02
  8.3350994e-02
 -2.9318118e-02
  1.4032649e+00
  1.0976874e+00
 -9.4851159e-02
 -4.1564708e-03
 -1.0021676e-01
 -1.6216144e-01
  5.0731469e-03
 -1.5906547e-01
 -4.1787237e-02
 -2.7786458e-01
  8.4868327e-02
 -3.5124246e-02
  9.2997879e-02
  1.4846845e-01
  6.4442575e-02
  5.0228916e-02
  2.6343370e-02
 -9.4546489e-02
 -2.2337567e-02
 -6.8119161e-02
 -2.9623609e-02
  1.6235685e-01
  9.0763401e-03
 -7.4639865e-03
 -1.9298847e-03
 -4.2727225e-02
 -1.4384522e-01
 -8.9032345e-02
 -2.2683848e-02
 -1.3421239e-01
  1.0466659e-02
  1.5679719e-01
  1.5031627e-02
 -1.8267708e-01
 -1.4218743e-01
 -1.1290133e+00
 -6.7330545e-01
  3.9505146e-02
  1.1566979e-01
 -6.3039005e-02
  9.5029563e-01
  9.5160544e-02
 -6.2843380e-03
  7.0016071e-02
  6.9463789e-02
  1.5289490e-01
 -3.4354180e-02
  5.7847720e-02
  2.4068605e-02
 -1.7022595e-02
  1.0408826e-02
  8.4300712e-02
 -9.9809475e-02
  2.0660207e-02
  8.6699121e-02
 -1.0900708e-03
  3.8024884e-02
  3.4694321e-02
  6.2609717e-02
  5.1105049e-02
  1.0802375e-01
 -1.6408045e-02
  6.8631344e-02
 -2.4447560e-02
 -1.5551582e-01
  5.6514546e-02
  3.8850326e-03
  6.8334863e-02
 -3.9293414e-01
  1.2286857e-03
 -1.1903764e+00
 -3.9702573e-01
 -2.0540243e-02
 -1.5782994e-01
 -3.3579811e-03
 -9.4604582e-02
  9.3798473e-02
  3.6695532e-03
 -8.9916013e-02
  2.2070456e-02
  1.2304340e-01
 -1.7134003e-02
 -5.9658121e-02
  1.1882361e-01
  2.9268523e-03
 -1.5818702e-01
 -7.4345537e-02
  1.0738692e-01
 -9.1683500e-02
  2.4303986e-02
 -3.2678733e-04
  9.3279583e-03
 -3.5426926e-02
 -6.4228147e-02
 -1.7704098e-02
  4.9927089e-02
  4.2007670e-01
  1.6347770e-01
 -9.9768691e-02
 -2.5635791e-01
  5.2976947e-02
  3.4115780e-02
 -8.6487569e-02
  3.8434610e-01
 -1.4387380e+00
 -2.8687367e-01
 -2.5105572e-01
  3.0246541e-01
  1.4770834e-03
 -2.7512339e-01
 -2.4239247e+00
 -2.6213522e+00
  6.0683990e-01
 -1.4639203e-01
  1.8441834e-02
 -1.2069893e+00
 -9.0772480e-01
 -3.4772414e-01
  1.2057887e-01
 -4.6369937e-01
 -2.6191225e+00
 -1.1047522e+00
  4.5800385e-01
 -4.5557153e-01
 -2.0935790e-01
 -5.2055866e-01
 -2.8245429e-02
 -9.0612149e-01
 -3.0770101e-02
 -1.6151991e-01
 -2.0124172e-01
 -4.9153787e-01
  7.3543616e-02
  3.4040084e-01
 -2.7037304e-02
  7.7982448e-02
 -7.8328407e-01
  2.3283733e-01
  3.8795269e-01
  1.1298408e-01
  1.4499032e+00
  6.9829559e-01
 -1.6461797e-01
  1.5004007e-02
  7.6849058e-02
 -1.9122157e-01
 -3.8755080e-03
  6.0802478e-02
 -1.8497033e-04
 -4.9298901e-02
 -6.3817173e-02
 -2.3343669e-02
  4.3247141e-02
  1.7798817e-02
  2.6354378e-02
  1.9413973e-01
  2.9478665e-02
  8.8991791e-02
 -5.2987482e-02
 -2.0776760e-02
  1.6293701e-02
  3.6343865e-02
  1.2457793e-01
 -1.1684731e-02
 -1.4359347e-02
  1.2156964e-01
 -4.0081315e-02
  5.1706941e-03
 -3.8046543e-02
  5.3707078e-02
 -7.3384479e-02
 -1.2128741e-01
  9.4610542e-02
 -3.8162101e-02
 -3.2149322e-02
 -8.7051746e-03
 -3.8741000e+00
  4.5668319e-01
 -1.9816726e-02
  4.4901609e-01
  1.0983688e-01
 -4.1704364e-02
  1.4526242e+00
 -9.2829126e-01
  4.0464655e-01
 -5.6719559e-01
  3.5764414e-01
  1.8246500e+00
 -1.2909303e+00
  1.8987298e-01
 -8.1705886e-01
 -2.9195076e-01
 -4.9903233e-02
  2.9216316e-01
 -1.4249346e+00
  6.8003543e-02
 -3.7969625e-01
 -8.5432470e-02
  2.7929902e-01
  2.0414826e-02
  4.1441675e-02
 -2.7703810e-01
  5.9081517e-02
 -2.0982334e-02
 -8.2711130e-04
  2.4783076e-01
  4.7802469e-03
  2.6122177e-01
  1.0353962e-01
  1.2233785e-01
  1.2747388e+00
  3.8779765e-01
 -2.1599218e-01
 -3.9664533e-02
  4.0779665e-02
  9.0295911e-02
  1.6675083e-02
 -1.3256789e-02
  2.8277317e-03
 -1.7965674e+00
 -4.7387920e-02
  5.8062591e-02
  1.2622654e-01
 -5.6689776e-02
 -1.0317817e-01
 -9.0124764e-02
  1.3769589e-02
 -5.5057280e-02
  5.4172557e-02
  7.0596091e-02
  8.8035800e-03
 -1.8472185e-02
  7.8277523e-03
  2.8898349e-02
  1.3969119e-01
 -1.0462380e-01
 -9.8433658e-02
 -1.6075073e-02
  9.7476952e-03
 -5.6159660e-02
  1.4765570e-01
 -3.9743572e-03
 -1.9912289e-02
  1.1894273e+00
  1.2567227e+00
  7.0834833e-01
  2.3420582e+00
 -5.8636717e-02
 -5.2800208e-02
  1.9941183e-02
 -1.8396033e-01
 -8.4875643e-01
  7.2058487e-01
 -2.3028085e-02
  5.0765430e-03
  1.4516710e+00
  8.0921985e-02
  1.0844195e+00
 -4.6810005e-02
  6.7900918e-02
  5.9659895e-02
 -8.1343174e-02
  5.4227626e-01
  5.1846683e-02
 -8.7060459e-02
 -1.7520258e-02
 -4.3478940e-02
  2.4845043e-01
  9.2564493e-02
  1.2422076e-01
  1.6548904e-02
  1.0531576e-02
  4.7550786e-02
 -5.2298877e-02
  1.3267908e-01
 -1.5047852e-02
  4.7279034e-02
  1.5891443e-03
  3.5480140e-03
  2.2484347e-02
 -3.6388309e+00
 -6.8854906e-02
  1.0476503e-01
 -8.6323820e-02
 -4.1871019e-02
 -4.6872045e-03
 -8.5870467e-02
 -5.7276919e-02
  1.3047292e-02
  4.4708690e-03
  5.7288753e-03
 -2.6416408e-02
 -3.2042347e-02
 -5.7434984e-02
  5.4268733e-02
 -8.9280725e-02
  4.2601757e-02
 -3.8883183e-02
  4.4882866e-03
 -2.5698351e-02
 -7.5122140e-02
 -2.7235750e-02
 -1.1385091e-02
 -4.3722428e-03
 -1.0322992e-01
 -1.3780434e-01
 -5.7546191e-02
 -1.7595841e-02
  2.4624275e-02
  3.0917883e-02
  1.4047500e-02
 -4.0430207e-02
 -1.3985452e-01
 -2.6495117e-01
 -2.6601636e-01
 -1.9102888e+00
 -8.5247117e-01
  1.2018046e-02
 -4.9911145e-02
  2.3637079e-02
 -3.9532285e-02
 -7.9210781e-02
 -1.2321578e-02
 -6.3576610e-03
 -1.5667607e-01
 -1.6641980e-02
 -4.2284887e-02
  2.1995991e-02
  8.4275670e-02
  2.3096235e-02
  3.3791556e-03
 -4.5603737e-02
 -3.0254770e-02
  2.9045079e-02
 -8.1324853e-02
  7.9465844e-02
 -1.1876657e-01
  1.1562674e-02
 -1.8180918e-02
  5.7608254e-02
  9.2899404e-02
 -3.7419372e-03
  2.1709180e-01
  3.7028670e-02
  1.2705292e-03
  2.4849663e-02
 -6.9872975e-02
 -6.0016960e-03
 -4.7795704e-01
 -1.3457240e-01
 -1.1639650e+00
 -3.9445347e-01
  3.9772756e-02
  2.6139137e-01
 -1.8899487e-02
  7.2637953e-02
  4.0218130e-02
 -3.7868284e-02
  6.4422362e-02
  1.0109197e-01
  8.4885865e-02
 -7.7478588e-02
 -1.8929696e-02
  7.9493739e-02
  1.3568476e-01
 -2.0880884e-01
 -1.6148608e+00
  7.6302467e-03
 -3.6139369e-02
  4.6209253e-02
 -1.5053917e-01
  5.5265933e-01
  1.0439786e-01
 -6.1999890e-03
 -1.3562444e-02
  4.7373958e-02
 -1.2227624e-02
 -3.4467321e-02
  3.0161571e-02
 -4.2645819e-02
 -4.4338182e-02
 -2.0879209e-02
 -5.8842143e-03
 -5.7173803e-02
 -1.5869640e-02
 -1.3954306e+00
 -5.9521246e-01
  3.2234542e-02
  5.3059347e-02
 -2.0005073e-02
 -3.5399161e-02
 -6.0973413e-02
 -2.4534851e-02
  1.1678904e-02
  5.2310091e-02
 -7.7883913e-03
 -2.7934466e-02
 -2.7089283e-02
 -3.3004481e-02
  2.3273407e-02
 -2.9039389e-02
 -7.2253705e-03
  6.9937795e-02
  1.4934050e-02
 -5.1807318e-02
 -2.9988040e-03
 -1.3113032e-03
 -1.1001418e-01
 -1.5763216e-01
 -5.6245435e-02
 -3.1438433e-02
  7.2328821e-02
  9.1314455e-03
  1.1719584e-01
  7.6169290e-02
 -5.3334489e-02
 -6.5504596e-02
 -1.1244673e-01
 -9.0782091e-02
 -1.4322096e-01
 -1.3909066e+00
 -6.3023621e-01
  7.8357674e-02
 -5.2399009e-02
  4.5780327e-02
 -1.9856500e-03
 -1.0271616e-01
  3.6062278e-02
  3.4501690e-02
 -6.3034192e-02
  1.3801081e-01
  3.8422938e-02
 -1.0187556e-03
  6.4561963e-02
  2.4851648e-02
 -4.2444248e-02
  2.0070238e-02
 -4.4175215e-02
 -4.6264950e-02
  1.0195160e-02
 -3.3086602e-02
 -5.2092664e-02
  3.0189352e-03
  1.4973706e-01
  1.5027127e-02
  2.1787506e-02
 -2.5416695e-02
  4.6451196e-02
  2.3369223e-02
 -5.2410088e-02
  2.4645883e-01
 -2.0756042e-02
  2.0935335e-03
 -1.6793132e-01
 -8.1652850e-02
 -1.4078511e+00
 -9.2230123e-01
  5.3073082e-02
  1.8450549e-02
 -3.6370698e-01
  1.5307194e-01
 -4.3192372e-02
 -8.3755307e-02
 -1.2762539e-01
  2.5700808e-02
 -6.2927991e-02
 -3.7346315e-01
  3.9056531e-01
  3.0549947e-02
  1.7975729e-02
  1.1899314e-01
 -1.2456524e-01
  8.8728778e-04
 -8.2307190e-02
  8.5822269e-02
 -4.5590036e-02
 -6.4052939e-02
 -2.8305309e-02
  1.0154247e-03
 -6.4370833e-02
 -1.1631306e-01
  1.4683763e-02
 -1.1509587e-01
  1.2965824e-01
  7.8421131e-02
  1.8468933e-02
 -2.2617222e-03
  2.5348267e-01
  1.4242595e-01
  6.6554211e-03
  1.3384987e+00
  9.2587829e-01
 -1.0522014e-03
  2.1650566e-01
  5.4447908e-02
  2.5712945e-02
  1.3306914e-02
 -1.8848810e-02
 -1.5855590e-02
  1.9430444e-01
 -1.0638916e-02
  4.6356223e-03
 -3.9333425e-02
  4.9122428e-03
  1.5099527e-01
  3.3459008e-02
  2.6117254e-02
 -2.0031212e-02
  4.8948575e-02
 -2.9392216e-02
  2.2079861e-02
 -2.9000953e-02
  1.3661617e-02
  4.3757334e-02
  2.4530603e-02
  9.5013022e-02
  1.7511423e-01
  7.5484836e-03
 -1.1063566e-02
  1.4420722e-02
 -1.5800154e-01
 -7.2146393e-02
 -2.2907643e-02
 -2.4118605e-01
 -3.6896434e-02
 -8.8720733e-01
 -4.8028436e-01
 -6.2321302e-02
 -2.6369262e-02
 -8.0256378e-03
  2.9160570e-02
  2.5485098e-01
 -3.1300832e-02
 -5.8572218e-03
  8.8525869e-02
  1.1128512e-01
  7.0857175e-02
 -1.3919091e-01
 -1.6463479e-02
  3.3394586e-02
  1.4487227e+00
  2.9293115e-03
 -5.4292079e-02
 -7.0741266e-02
  3.5307619e-01
 -7.0740096e-02
  2.2606851e-01
  7.6345466e-02
  1.1331255e-02
  2.4020791e-02
  5.0734434e-02
  6.7862459e-02
  5.7694393e-01
 -2.9415773e-02
  6.6100620e-02
  2.2667388e-02
  7.9749703e-02
  4.0679123e-02
 -2.1985657e+00
  1.3220408e+00
 -5.0975949e-01
  2.5517941e+00
 -1.0684446e-01
 -1.5986395e+00
  5.0748461e-01
 -3.5256792e-02
 -5.0336200e-01
  2.1073620e+00
 -1.7121939e-01
  2.0581065e-01
 -1.2886903e+00
 -3.5031378e-01
 -2.2429025e-01
  2.1918072e-01
 -5.0068498e-01
 -1.1631984e+00
 -4.8041886e-01
 -1.7305735e-01
  9.9472451e-01
 -3.5106000e-01
 -8.4246680e-02
 -5.4492307e-01
 -1.4032261e-01
  1.1114715e-02
 -1.4102527e-01
 -1.0062340e-01
 -2.3695117e-01
 -1.0548739e-01
  1.8949168e-02
  3.9452976e-03
 -4.2067874e-02
 -1.6208144e-02
 -5.4398376e-02
 -2.2226113e-01
 -4.2776827e-02
 -1.3497492e+00
 -9.7650599e-01
 -5.0622892e-02
  2.6428590e-03
 -9.1677114e-02
 -1.5192568e-01
 -6.9850855e-02
 -1.1516013e-03
  1.8593138e-02
  6.3419573e-02
 -1.8109837e-01
  6.6754371e-02
  1.0239490e-02
  1.8042520e-03
 -4.1337606e-02
  5.1164620e-02
  6.5351382e-02
 -1.9344730e-02
  3.5206564e-02
 -4.4148661e-02
  1.1114475e-03
  8.9689471e-02
 -5.7528544e-02
 -8.5519059e-03
  1.3127387e-01
  2.6116455e-03
  1.6031656e-01
  1.0101302e-01
  7.1652460e-01
 -5.1395394e-02
 -2.0653652e-01
 -1.3127195e-02
  5.4786678e-02
 -2.8432992e-01
  6.9221840e-03
 -3.8013566e-01
 -6.7344975e-01
 -4.5836666e-03
 -7.2504431e-03
 -1.1544674e-02
 -1.1822435e-01
  1.2718248e+00
 -3.9438490e-02
  4.1482255e-02
  5.7580490e-02
 -6.8632677e-02
 -1.4772536e-01
 -1.5702349e-01
 -4.5169082e-02
 -1.0837454e-02
  6.0706738e-02
 -4.1507825e-02
 -2.2363444e-01
  1.1811247e-03
  2.9723896e-02
 -1.6076818e-01
 -2.5241049e-02
  1.2967797e-01
  1.3662817e-01
 -4.1705586e-02
  9.7105175e-02
  9.9225499e-02
 -8.4340042e-03
 -1.9188951e-01
 -1.2301955e-01
 -1.5113898e-01
 -2.9525161e-02
  1.1977368e-02
  5.0216023e-02
  1.1592165e-02
 -1.9880358e+00
 -5.8789241e-01
  1.3858873e-02
  8.4038302e-02
 -1.2396543e-01
  6.2491752e-02
 -5.3905277e-03
 -8.2217805e-02
  1.5267649e-03
  4.5439143e-02
 -1.1998391e-01
 -2.7496347e-02
  2.0052448e-02
  2.8918739e-02
 -8.4108105e-03
  1.0221840e-02
  4.2082787e-02
  4.1336752e-02
  4.0158801e-02
  9.1351882e-02
 -7.2033398e-02
 -3.3518011e-03
 -5.0731611e-02
  8.4627368e-02
 -3.2075692e-02
 -5.0355881e-03
 -6.8225753e-03
  1.9714213e-03
  4.9699252e-03
 -1.7310459e-02
 -2.2462772e-03
 -8.3041899e-03
 -2.6332248e-02
 -1.0587844e-02
 -1.7800163e-02
 -1.0576030e+00
 -1.0004221e+00
  1.8224354e-01
 -1.4357947e-01
  5.1045897e-03
  2.4044439e-02
 -9.4928548e-02
 -2.0571916e-01
 -5.8697995e-02
 -2.3700584e-02
  1.4078379e-01
 -8.4765926e-02
 -1.1872379e-02
  2.9428411e-02
  4.1353796e-03
 -1.5975621e-02
  1.7834654e-02
 -1.1671443e-01
 -2.6122931e-02
  2.9580817e-02
  5.8528241e-02
 -7.2644064e-03
  1.1871042e-02
 -1.3253600e-02
 -8.0746533e-03
  6.7241065e-02
  7.6814010e-03
  4.1789310e-03
  1.1454188e-03
  9.7640395e-02
  7.7321245e-03
 -1.5453724e-03
  8.8770591e-02
 -4.7478464e-01
 -9.2268206e-02
 -8.7172735e-01
 -7.0129859e-01
  4.1026387e-02
  4.9612112e-02
 -3.1436633e-02
 -5.3496875e-02
  2.8621104e-02
 -4.9455181e-02
 -1.8247490e-01
 -6.5190867e-02
  7.3218592e-03
 -8.1637658e-02
  1.1093799e-02
 -2.4794163e-02
  1.7737091e-02
  2.4171812e-03
 -8.4219880e-02
  1.9828033e-02
 -9.2115127e-02
  9.4481938e-02
  1.6676888e-02
 -8.7120473e-02
 -2.5312623e-02
 -3.9858703e-02
  8.3079942e-02
  1.0258541e-02
  9.1128089e-03
 -3.1258501e-02
  7.2903059e-02
 -4.2299721e-02
  1.5315516e-03
 -2.3809481e-02
  3.1566810e-02
  7.7070318e-02
  3.6122546e-02
  9.9917084e-01
  3.2048258e-01
  1.2482699e-01
  7.1842135e-03
 -1.3552250e-01
 -8.8863727e-03
 -1.0449243e-01
  6.8214037e-02
 -3.1760179e-02
  2.0205446e-03
  5.0269254e-02
 -3.3062052e-02
  7.0569329e-02
  2.2562556e-02
  4.7354959e-02
  2.8806379e-02
  2.9715704e-02
 -2.8503323e-02
 -6.6541418e-02
 -1.0724926e-02
 -2.2589780e-02
 -2.5789622e-02
  2.0518418e-01
  6.9805041e-02
  6.1064057e-02
 -2.1793932e-01
 -1.0113136e-01
  5.2716628e-02
 -5.9013866e-04
 -6.9842964e-02
  1.8185686e-01
  8.2094902e-03
 -1.5310541e-01
 -3.4299359e-01
 -9.7574696e-02
 -1.3297405e+00
 -2.4852023e-01
 -4.6155885e-02
 -3.3360798e-02
  1.0330167e-01
 -1.0099024e-01
  1.2808937e-01
 -1.7370770e-02
  1.5468644e-01
  9.5559703e-03
  4.6512078e-02
  8.5185908e-02
 -2.3728112e-02
  2.8988190e-02
 -1.0332574e-02
 -4.9264892e-03
 -1.9036844e-02
 -5.7024643e-02
  1.0229009e-01
 -4.4354685e-02
 -1.2201641e-02
  1.6038907e-01
 -5.0029755e-03
 -6.1229404e-02
  4.2321522e-02
  1.7329413e-02
  2.5256108e-02
 -2.5782358e-02
 -7.3176242e-02
 -8.5746586e-02
  6.2988149e-03
  6.5234073e-02
  3.4724254e-02
 -3.0483198e-01
  4.4525155e-01
  1.8152004e+00
 -1.6344174e+00
  8.7721258e-01
  9.7767383e-01
 -1.2098111e+00
 -4.0427961e+00
  2.5592730e+00
 -9.8439586e-01
  9.3157127e-02
 -1.6195180e+00
 -1.4728874e+00
  6.2380677e-01
  1.0537847e+00
  2.8223193e-01
  4.6950006e-01
 -8.8990061e-04
 -8.9055276e-01
 -2.0730905e-03
 -1.7037471e-01
  1.5864670e-01
  1.1372676e+00
 -1.5426273e-02
  1.1728618e+00
  7.3829882e-02
 -9.2542946e-02
 -1.6495407e-01
 -1.7512728e-01
  2.1056135e-01
 -2.8157133e-01
  2.2430688e-02
  6.9995277e-02
 -5.4438144e-02
  4.8935786e-01
 -2.7658334e-01
 -1.3306172e-02
 -1.3138063e+00
 -1.0446763e+00
 -1.2943406e-01
 -4.7075439e-02
 -9.4828075e-03
 -4.4173170e-02
 -5.0490629e-03
 -9.2465989e-03
  5.8832277e-02
 -4.3340683e-02
 -4.7584274e-03
  4.4953950e-02
 -9.0081329e-03
 -6.0152303e-02
  4.6842285e-02
 -6.0021982e-02
  3.6374327e-02
  7.9624373e-03
  1.3509326e-01
  3.3351265e-02
 -6.4290285e-02
  3.3000447e-02
  2.5030470e-02
  1.3105893e-01
 -6.5556099e-03
 -6.4654057e-03
  4.8917457e-02
 -1.9653165e-01
  1.0427752e-02
 -1.2666916e-02
  5.7950453e-03
 -8.2711101e-02
  5.6464737e-03
 -2.5327012e-02
 -1.1642268e-01
  1.6128652e+00
  7.2848767e-01
 -4.1731126e-03
  2.0570772e-02
 -2.7481837e-02
 -4.0197190e-02
 -2.7049843e-02
 -7.6978788e-02
  1.7484458e-02
 -2.1431090e-02
 -1.2702960e-01
 -5.4180350e-02
  1.5980250e-01
  1.1754830e-02
 -1.3056140e-02
 -3.7289850e-02
  5.3278156e-02
 -4.2294222e-03
 -6.4960688e-02
 -2.5132734e-02
  7.8389682e-03
  6.5092944e-02
 -4.0305134e-02
 -3.5325661e-02
 -2.7899506e-02
 -8.2662173e-02
  2.3265272e-02
  6.9862008e-02
 -2.6102616e-02
  7.8218736e-02
  9.9320598e-03
 -5.8826964e-02
  3.2411896e-02
 -2.4719067e+00
  1.6610119e+00
  1.7976134e+00
  6.5857106e-01
  7.3775135e-02
  1.5065388e-01
 -7.7850574e-01
 -3.3074405e+00
 -1.3953606e+00
 -2.0966208e+00
 -5.2485786e-02
  1.5687706e-01
 -1.3637362e+00
  4.9187750e-01
 -2.5324848e-01
 -3.3213943e-02
 -1.4024801e+00
 -2.2379789e+00
 -1.2034172e-02
 -5.4550327e-02
  4.3505233e-02
 -4.7173312e-01
  2.5412434e-01
 -8.7953103e-01
 -1.4433355e+00
  2.0400591e-01
 -6.3361764e-02
 -1.5171549e-01
 -1.1641471e-01
  2.1444084e-01
 -1.9094372e-01
  1.0000806e-01
  1.1145213e-01
  1.3302498e-01
  5.9072778e-02
 -4.0787411e-01
 -5.5399079e-02
 -1.1905988e+00
 -6.6726506e-01
 -5.8555137e-02
 -9.2890859e-02
 -9.3988977e-02
 -5.8452819e-02
  2.3461156e-02
 -2.6640892e-02
 -2.1286575e-01
 -8.9726567e-02
 -6.3427962e-02
  8.1962598e-03
 -2.5778348e-02
  7.2569050e-02
 -3.8228001e-02
 -4.1422001e-03
  2.2419853e-02
 -1.3639997e-01
 -4.0902807e-03
  1.3261086e-01
  3.8440064e-02
 -2.0803878e-02
 -9.2324927e-02
  9.7694919e-02
 -7.1494922e-02
  6.4176589e-04
  4.2844251e-02
 -3.5457660e-02
  1.7106434e-02
  8.3586894e-02
  3.2594956e-02
 -3.3067655e-02
 -2.4652660e-02
  7.6712507e-01
 -9.1097392e-03
  1.9446974e+00
 -1.5890774e+00
 -1.8508613e-01
 -5.3071562e-02
  3.8513571e-02
  1.0855597e-01
 -2.5715448e-03
  1.4047554e-01
 -6.5625226e-03
  3.2456741e-02
  4.6299834e-02
 -2.1233001e-01
  3.4314010e-02
  4.0225998e-02
  3.2712977e-02
 -2.6012817e-02
 -2.3729859e-03
  5.3225070e-02
  1.2487383e-02
 -2.5191478e-02
 -1.7661985e-02
  4.3817498e-02
  8.0791622e-02
 -2.7766544e-02
 -1.4368393e-02
 -8.0337152e-02
 -1.0737182e-01
  1.2454330e-01
  1.0030404e-01
  2.0535337e-02
 -7.4485764e-02
  1.1127514e-01
  6.8733841e-02
  5.9840381e-01
 -1.5953839e-02
  1.6158532e+00
  6.3456112e-01
 -1.9862434e-02
 -9.1491535e-02
  6.7965470e-02
 -1.4196602e-01
  6.8136752e-02
 -1.2749591e-02
 -1.2889454e-01
 -3.0339500e-02
  1.6479442e-01
  1.2217902e-02
  8.0263466e-03
  2.8030489e-02
  7.2825670e-02
  5.7480829e-03
 -4.0181812e-02
 -1.0434862e-01
  1.0707153e-02
 -2.7643712e-02
  2.5205767e-02
  2.0914493e-02
  4.8145909e-02
 -1.2424566e-01
 -7.4778683e-02
 -3.2388754e-02
  1.5436730e-02
 -7.5856484e-02
 -2.0940000e-01
  4.1552823e-02
  9.8693930e-02
 -7.0437789e-02
  1.6062935e-03
 -1.5854479e+00
  5.0228686e+00
  3.1170514e-01
  9.7705436e-01
  3.2030368e+00
 -1.2113044e+00
 -1.5186960e-02
 -7.0935325e-03
 -6.7714483e-01
 -5.2838558e-01
  1.1458290e+00
 -1.0163362e-01
  1.2822976e+00
 -6.9362116e-01
 -3.8955384e-01
 -2.6776469e+00
 -1.1717594e+00
 -1.6637120e+00
  4.2779759e-01
 -1.3867420e+00
 -2.1046625e-01
  2.4230461e-01
 -2.6790434e-01
  1.5865979e+00
 -3.0152845e-01
  2.7000323e-02
  2.2246245e-01
 -2.5586758e-02
  9.2794314e-02
 -1.0462847e-01
  3.8356087e-01
 -1.8774116e-02
  8.3808310e-02
 -1.1172751e-01
 -6.4562969e-02
  2.4218987e-01
  1.0234077e-01
  1.4503036e+00
  9.7712916e-01
 -2.3420388e-01
 -2.1946363e-02
  1.3531440e-01
  2.3701819e-02
 -2.9411556e-02
 -2.7976027e-02
 -2.0589335e-01
 -5.0553866e-03
 -3.8647603e-02
 -8.3584461e-04
 -7.2275281e-02
  1.1595868e-02
  3.1187009e-02
 -6.1276298e-02
  4.4192694e-02
  3.6817839e-04
 -4.0375806e-02
  6.7874819e-02
  3.1073354e-02
  4.6110103e-01
  1.1678411e-02
  1.5020588e-01
  2.2506690e-02
 -4.0509282e-03
 -1.7717256e-01
  3.0475473e-02
 -2.8315172e-02
 -5.2403022e-02
 -1.4282846e-01
  4.4189874e-02
  1.6800709e-02
 -1.3110104e-01
 -2.7750218e-02
 -1.3993132e+00
 -6.3111347e-01
  1.6620052e-01
 -4.8065178e-02
 -4.6900723e-02
 -3.2620221e-02
 -1.9319490e-02
  3.9277777e-02
  5.0376516e-02
  6.4058654e-02
 -1.2605236e-01
 -7.8085072e-02
  2.6600130e-02
 -4.6922788e-02
 -4.1822936e-02
  1.6835834e-01
 -2.5332717e-02
  3.4108162e-02
 -5.6481194e-02
 -5.2746050e-02
  1.0773649e-01
 -1.5337374e-02
 -3.2201141e-02
  9.3319818e-02
  7.3271111e-02
 -1.6698849e-03
 -3.1953249e-02
  6.5383919e-02
 -7.4296505e-03
 -6.2693837e-03
  1.8355101e-01
  3.8584445e-02
 -4.1844927e-02
  2.5195367e+00
 -2.4058089e+00
 -2.4828002e+00
  3.1350431e+00
 -1.9199921e+00
  2.6539350e+00
  2.4898746e+00
  1.2409608e+00
 -1.8737105e+00
 -2.1981256e+00
 -2.7323558e+00
 -2.4373343e+00
 -2.4025874e+00
 -2.0324118e+00
 -2.2362139e+00
  7.1080767e-02
  2.6402886e+00
  2.3446047e+00
 -2.4228420e+00
 -1.8633575e+00
 -2.5363619e+00
  1.9735019e+00
  1.7231799e+00
  2.5776749e+00
  1.1568569e-01
 -2.4204159e+00
 -2.4310052e+00
  2.0975518e+00
  2.1634171e+00
 -1.6011550e+00
 -2.1329250e+00
 -2.0681400e+00
 -2.7189739e+00
 -9.3086970e-01
  1.4729092e+00
  2.1443980e+00
  2.5764866e+00
  2.3964949e+00
  2.4962075e+00
  2.0292227e+00
 -2.2053230e+00
  1.7773287e+00
 -2.5198350e+00
  2.4937184e+00
  2.5900116e+00
  2.4892187e+00
  2.3216331e+00
  2.7512143e+00
 -1.8852473e+00
  2.5305381e+00
 -1.6579877e+00
  2.1065688e+00
 -2.3720655e+00
  7.9863876e-01
  2.3903816e+00
 -2.6821995e+00
 -2.1328745e+00
 -6.5436822e-01
 -2.4157634e+00
  2.1664474e+00
  3.4718361e+00
 -5.8777905e+00
 -3.2736268e+00
  2.3658521e+00
 -1.2815864e+00
  3.3207939e+00
  9.6645385e-01
 -2.1218567e-01
 -2.2541637e+00
 -3.0412655e+00
 -2.8600655e+00
 -3.2930264e+00
 -3.1762543e+00
 -8.1153339e-01
 -2.5999777e+00
 -3.4924915e-01
  5.2502956e+00
  3.4602778e+00
 -2.0479181e+00
 -7.2955394e-01
 -2.1411963e+00
  2.4786317e+00
  3.2358071e-01
  2.2596924e+00
 -7.6355189e-01
 -3.0127106e+00
 -4.0335116e+00
  1.1925504e+00
  1.2585678e+00
 -6.0505235e-01
 -1.8363223e+00
 -2.4254957e-01
 -2.8885128e+00
 -1.0908511e+00
  1.2544181e+00
  3.5732589e+00
  2.9306581e+00
  3.0018692e+00
  2.0058944e+00
  2.5038188e+00
 -2.2199590e+00
  3.0501106e-01
 -4.7775154e+00
  3.8595862e+00
  1.1979086e+00
  6.5405173e+00
  2.4648530e+00
  4.1677723e+00
 -3.7279645e-01
  2.3514016e+00
 -3.5892951e+00
  1.6317530e+00
 -3.0922012e+00
 -2.6065782e-01
  2.1827970e+00
 -2.3537941e+00
 -2.2707205e+00
  3.0652782e-01
 -4.0757861e+00
  1.4641160e+00
 -4.7294983e-01
 -2.5412122e-02
  9.8349792e-01
  4.0709656e-01
 -2.8039849e-01
 -2.8630602e-01
 -1.4853283e-02
  3.8053293e-02
  2.7125469e-01
 -1.4887011e-01
  4.6580326e-02
 -8.6234838e-02
 -3.4194838e-02
 -1.6711238e-01
  8.2699783e-02
 -8.4438905e-02
  1.4385355e-01
  4.9070690e-02
  2.8908527e-02
  6.9054868e-03
 -2.1925427e-03
 -3.1007303e-02
  8.6966353e-03
 -1.2665807e-01
  1.5561332e-01
  1.6069705e-02
 -3.0346322e-01
  1.2758054e-01
  7.8475624e-03
  5.5469170e-02
  2.2293252e-01
 -6.7240007e-02
 -6.9459729e-02
 -4.8457794e-02
  1.4711547e-01
  4.9565253e-01
  8.5159265e-02
 -1.6121932e+00
 -3.0495858e-01
  1.8273542e-02
  2.9878598e-02
 -4.5433752e-02
 -7.5328194e-02
  3.4942067e-01
  7.3931456e-02
 -4.0210735e-02
 -1.1767935e-01
  2.4860376e-02
  2.5185740e-02
 -1.8808137e-01
  3.4366131e-02
  4.2578313e-02
  2.8523450e+00
  1.9658158e-02
 -5.2663740e-02
  3.2726094e-02
 -2.0684589e-01
 -5.2870142e-01
  1.4240291e-02
 -6.8036065e-02
 -8.2047954e-02
  2.2218828e-01
  1.4087297e-01
  9.5044456e-02
 -3.7413919e-01
  2.3922637e-01
 -5.2216776e-02
  1.1395195e-01
 -3.0877711e-02
 -4.4664323e-02
  1.8127511e+00
  1.3371907e-02
 -2.5000536e+00
 -1.9400327e-01
  1.7239553e-01
 -1.5052475e-01
 -2.4636148e-02
  2.8913980e-02
  2.7666694e-02
 -1.7688001e-02
  3.8382936e-02
  3.6742445e-02
 -5.4033548e-02
  3.5985297e-01
 -7.8347772e-02
  1.0447741e-01
  3.4162629e-02
 -6.9388859e-02
 -2.0226637e-01
  1.5706740e-01
  1.1327455e-01
  4.2835683e-01
 -1.7062078e-01
  2.0837730e-01
 -7.7299196e-03
  3.1099323e-02
 -4.7447816e-02
 -7.5254492e-02
  9.6065469e-02
  9.0852007e-02
  5.9246935e-02
  1.4544936e-01
 -2.9562253e-01
  2.2196341e-01
 -4.6003636e-02
  1.9357883e+00
  1.2215000e-01
 -1.0936358e+00
 -1.6710377e-01
 -2.9601553e-02
  1.0039569e-01
  1.8801427e-02
 -1.2828122e-01
 -3.1051397e-02
  4.4458024e-02
  6.9500692e-02
 -9.9003799e-03
 -6.1934505e-02
  7.8415666e-03
  1.0851335e-01
 -9.5518284e-02
  5.5827681e-02
 -2.5172466e-02
 -5.5616625e-02
 -2.3570839e-01
 -2.4263889e-02
  1.7270202e-02
  2.5867632e-01
  1.5444605e-01
 -2.6710111e-01
 -2.6966311e-02
  3.1294662e-01
 -1.1270386e-01
  3.1024689e-02
  5.6084666e-02
 -1.5173671e-01
 -7.2136588e-02
  1.9194104e-01
  8.6489394e-02
  7.2043128e-02
  3.0140698e-01
  1.0556459e-01
 -1.8947289e+00
 -9.6448518e-02
 -5.5090636e-02
  1.5636113e-01
 -4.1306876e-02
  2.9886067e-02
  5.6755792e-02
  2.7047980e-01
  2.3052064e-03
  4.7683255e-03
  2.1234365e-01
  1.2137467e-01
  4.0439583e-02
 -1.7381784e-01
 -2.2115633e-02
  2.7819008e-01
 -2.5499231e-01
 -2.2766811e-01
 -3.6135424e-02
  1.2545997e-02
 -3.0973899e-01
  1.0933151e-01
 -1.1752675e-01
 -2.8549915e-02
 -9.4013125e-02
 -3.1306464e-02
  1.0367651e-02
  1.2611279e-02
 -1.5787499e-01
  3.9768778e-02
 -8.8604964e-02
  3.1317121e-03
 -6.9744247e-01
 -5.8316296e-01
  9.2492454e-02
  1.5921282e+00
  1.2367751e-01
 -4.5164800e-03
 -3.6312842e-01
 -2.5042877e-01
  6.5781191e-02
  5.5575538e-01
  6.5004557e-02
 -3.3816777e-02
  2.5040740e-01
  2.2020547e-02
  1.1804131e-01
  3.5913851e-02
 -1.4940029e-01
 -3.1106572e-03
  1.7913759e-01
  2.3988645e-01
 -4.2107675e-02
  3.0647175e-02
  1.0284394e-01
  2.4504787e-01
 -1.5371133e-01
 -1.9997429e-02
  1.7403774e-02
  1.3610300e-01
 -1.1344706e-01
  1.4471869e-01
  1.5921128e-01
 -1.9819708e-01
 -9.8302834e-02
  1.3850810e-01
  1.0095671e-01
 -1.7839601e-02
  8.0247796e-01
 -6.9698632e-02
 -1.7018449e+00
 -1.3995400e-01
 -3.8526145e-01
 -4.7756669e-01
 -1.2030654e-01
  4.1145258e-02
  5.0642248e-02
 -1.8811356e-01
 -1.4502077e-02
  3.5774764e-02
  1.8759727e-02
 -2.4355603e-02
  4.8572399e-02
 -5.1437721e-02
 -1.4596480e-01
  8.4099576e-02
  3.2861602e-02
  1.2709992e-01
 -1.2913136e-01
 -5.2203011e-02
 -1.6784252e-01
  1.4353101e-01
 -2.2173121e+00
  4.0246557e-02
 -1.4410226e-01
  7.1461084e-03
  1.6229458e-01
 -2.7767399e-01
  1.1407121e-01
  2.1259140e-02
 -1.1132825e-01
 -1.3038450e-01
  2.0678736e-01
  4.4380897e-01
  8.9792535e-03
 -1.2700378e+00
 -6.7113064e-02
 -5.9530400e-02
  5.0417442e-02
  3.9208815e-02
 -1.7538631e-01
  4.2764646e-01
  6.9596149e-02
  1.9103363e-01
  2.2095889e-01
 -5.6103498e-02
 -9.1320999e-02
 -1.3139555e-01
  4.2079266e-02
  4.9620215e-02
  1.8626507e-01
 -2.3425989e-02
 -4.1571181e-02
  1.3131721e-01
  9.9169603e-03
 -2.2435505e-02
 -2.1041963e-01
  5.6441948e-02
  1.0268727e-01
  2.5041640e-01
  1.3315918e-01
 -3.5167206e-02
 -5.8585159e-02
 -1.2434877e-01
  6.9188185e-02
 -3.4011263e-01
  1.3377026e-01
  7.8391988e-04
  4.9463338e-01
  8.4255315e-02
  1.7314633e+00
 -9.4103462e-01
  2.1730835e-02
  2.1723476e-01
  1.8789431e-01
  1.5651253e-01
  6.8636429e-01
  1.1215913e-02
 -5.3847101e-02
 -3.1680830e-03
 -1.3075361e-01
  3.5299706e-01
 -2.1513801e-02
  1.9757077e-01
  7.9949675e-03
  2.5886017e-01
  1.2294031e-01
  5.2485578e-02
 -7.5942375e-02
 -1.3083276e-01
 -2.5074577e-03
  1.7013958e-01
  5.2383732e-02
 -1.2822229e-01
 -3.4513387e-03
  2.5147112e-02
 -5.3784143e-02
 -3.8212225e-02
 -2.0359866e-03
 -2.8492929e-02
 -1.2065492e-01
  2.1131536e-01
  1.2552816e-01
 -1.1102612e+00
 -3.8281596e-01
  1.7710295e+00
 -5.7075094e-03
  1.5248342e-01
  1.7593721e-01
 -1.0864957e-01
  1.8042115e-02
  1.8537889e-01
 -1.5363191e-02
  6.9767587e-02
 -1.7939827e-01
 -3.6614150e-01
  6.2312838e-02
 -2.5684494e-01
 -4.2753115e-02
 -1.6403703e-01
  1.8903619e-02
 -2.5549592e-02
 -6.8277173e-02
 -1.7448823e+00
  2.0449570e-01
 -1.0908201e+00
  2.0411332e-01
  1.7483155e-01
  2.7425277e-01
  1.1060086e-01
 -1.2751549e-01
  4.1067094e-04
  7.9058424e-02
 -3.3948588e-01
  1.1668111e-02
 -1.9648719e-01
  1.3365459e-01
 -4.4775467e-02
 -9.4503440e-02
  7.9643086e-02
  7.1662790e-01
 -4.3547317e-02
 -1.6762011e-02
 -4.1964471e-01
  2.1481733e-01
 -3.2806835e-01
  7.1536303e-02
 -8.9151129e-02
 -2.6786366e-02
  1.5776504e-02
  3.6447246e-02
  1.2060855e-01
 -1.0859374e-01
  2.9186631e-02
  2.7035001e-01
 -5.3440835e-02
  1.2924667e-02
  1.9977491e-01
 -5.8013825e-03
  1.3766064e-01
 -1.6335475e-01
 -2.5173394e-02
 -4.9727641e-02
 -2.0516323e-01
  4.5171073e-01
  5.6199384e-01
 -2.1021746e-01
 -7.2302476e-02
  8.6119458e-02
 -1.6629733e-01
 -1.7564030e-01
 -1.7604950e-01
 -4.6135342e-01
  1.1267420e+00
  9.8293640e-02
 -1.5058620e+00
 -2.7237287e-01
  1.7951150e-01
  8.9487886e-01
  6.2842213e-02
 -5.4304756e-02
  2.4026362e-02
  3.4381241e-02
 -7.5540915e-03
 -2.2028047e-01
 -2.0916536e-02
  3.7224412e-02
 -2.2197315e-01
  1.0595148e-01
 -2.9203421e-01
 -3.5342205e-02
  6.6308297e-02
 -1.2131056e-01
  2.8496042e-01
  1.0762396e-01
  1.3357012e-01
 -9.2934761e-03
 -9.7652219e-02
 -3.8144659e-02
 -4.3560471e-02
 -1.4275565e-02
 -8.5975617e-02
 -2.4166501e-01
 -2.1085074e-02
 -8.5492440e-02
 -1.1070587e-01
 -2.6967448e-01
  2.1169676e-01
 -8.1730938e-01
  3.2329123e-02
  1.3750461e+00
  1.7983070e-01
 -1.9977752e-02
 -2.3376145e-03
 -1.1648230e-01
 -1.2644025e-02
 -6.4487532e-03
  1.3440311e-01
 -4.7971591e-02
  1.6951522e-01
 -1.3298050e-01
 -2.1606897e-01
  1.2533608e-01
  5.3929042e-02
  6.6786222e-02
  2.1692340e-03
  1.6132008e-01
 -5.6842547e-02
  1.9768606e-01
 -2.3483284e-01
 -2.0962302e-02
  1.3256688e-01
 -2.4802695e-01
  2.3745215e-02
 -3.3751097e-02
 -2.5457740e-02
  3.5861224e-01
  1.3691169e-01
  3.4067512e-02
  3.5577390e-01
  2.3893923e-03
  8.3895931e-03
  9.0125434e-02
 -9.7363824e-01
 -2.0150948e-01
  1.8198159e+00
  2.0954246e-02
 -2.4712913e-02
 -3.1431353e-01
  9.4621684e-03
  1.5482561e-01
 -2.7889583e-01
  3.7280270e-01
 -6.5674730e-02
  7.8983745e-03
 -1.3426618e-01
 -1.4332485e-01
 -4.3516634e-03
  1.3608256e-01
  6.7774653e-02
  5.6674607e-02
  9.5167249e-02
  5.8530401e-02
  1.7485099e-03
 -4.9875770e-02
 -2.6215672e-01
  2.1592344e-01
 -4.2823851e-02
 -4.4759404e-02
 -2.0832768e-02
  7.4638411e-02
 -1.3431331e-02
  3.4387055e-01
 -1.4844020e-01
  5.4329559e-02
  6.0477849e-02
 -4.0390202e-01
 -1.8929681e-01
  7.7514356e-01
 -3.0525554e-02
 -1.1968185e+00
  2.7154444e-02
 -6.3491359e-02
  1.6363242e+00
  6.3228972e-02
  5.6890864e-02
 -3.9446082e-02
 -6.8587191e-02
 -3.7797946e-02
  2.0258497e-03
 -4.1493114e-02
  5.0174024e-02
 -2.6528388e-01
  2.3048233e-02
 -2.2664936e-01
  1.0080161e-01
 -1.9663781e-01
  1.8121785e-01
  1.5335241e-01
 -5.1385701e-02
 -3.4589849e-02
 -6.0244810e-02
  2.3163173e-03
  3.3186241e-03
 -1.6297483e-01
  8.9432210e-01
 -7.2785430e-02
 -9.5424578e-02
 -3.0147973e-01
 -2.4115171e-01
 -2.2657730e-02
 -1.4196576e-01
 -3.6393556e-01
  9.1143548e-01
  1.1282689e-01
 -6.7057419e-01
 -7.2953820e-01
 -2.3268133e-02
  4.1469328e-02
  8.5564509e-02
 -2.8957177e-02
  2.8807470e-01
  2.2007705e-01
 -2.8701806e-02
  1.0122862e-01
  4.8658315e-02
  5.4506715e-02
  4.4414908e-02
  1.7931607e-01
 -6.4222592e-01
 -2.0356265e-01
 -2.5103511e-02
  8.8278815e-02
 -3.2611363e-02
 -1.1918644e-01
  7.3978044e-03
  2.2925390e-01
 -2.9294124e-02
  1.3146092e-02
 -5.8317352e-02
 -2.6406765e-01
  5.7409484e-02
 -4.0076233e-02
  1.2291621e-02
 -7.6759636e-02
  7.3507927e-02
 -3.0520114e-03
  6.8802610e-02
 -6.6008973e-01
 -1.5276550e-01
  1.7757379e+00
  1.2041084e-01
 -1.0619433e-01
  6.6450492e-02
 -5.0529279e-02
  3.7079748e-02
 -1.9232975e-02
  1.7529170e-01
 -4.5041051e-02
 -1.0965504e-02
 -5.4409839e-02
  7.5244978e-02
 -5.7049744e-02
  5.8314785e-02
 -5.4980409e-01
  7.1071707e-02
  4.3702342e-02
 -1.6373608e-01
  3.4524128e-02
 -4.4678390e-02
  4.4101052e-02
  5.3085536e-02
 -1.8927774e-01
  1.8321227e-03
  6.4981408e-02
 -3.3748101e-02
 -8.6565115e-02
 -7.5387843e-02
  6.3574828e-02
 -9.4322279e-02
 -5.0055087e-02
  2.4814375e-02
  1.1748206e-01
 -4.8233369e-01
  1.6955745e-01
  1.6253835e+00
  3.8507250e-01
 -2.0124128e-02
  5.6062464e-02
 -3.1871021e-02
  1.2102286e-01
  2.0761265e-01
  1.6443108e+00
 -7.0035052e-03
 -8.3619893e-02
  3.8686025e-01
 -2.0088406e-01
  5.0846543e-02
  2.6757363e-02
 -1.5479100e-01
 -1.4778818e+00
 -6.2772460e-02
 -1.4593224e-02
 -1.1930374e-01
 -3.2164823e-02
 -3.4647910e-03
  1.0855673e-01
 -1.3137242e-01
 -1.1604240e-03
  5.0223876e-02
 -7.3801704e-02
 -3.0668738e-01
  2.7646495e-02
 -2.7470028e-02
 -7.8065127e-02
 -1.2497923e-02
 -1.0524113e-01
  1.0302231e-01
  1.5169546e-01
  4.3110568e-03
 -1.3262943e+00
 -3.3286768e-01
 -1.8603078e-01
 -2.1324758e-01
  7.2800560e-04
 -4.2137552e-02
 -1.3201743e-01
  9.5576011e-02
 -7.8438371e-03
  3.4123152e-02
 -7.1411170e-02
  8.8716172e-02
  9.5617585e-03
 -7.1181960e-02
  1.1015296e-01
  6.8270162e-02
 -7.0301071e-02
  1.7352466e-03
 -2.9067048e-01
 -3.5509759e-01
 -3.5890389e-02
 -5.1167379e-03
 -1.7521675e-01
 -4.4089422e-02
  4.3778267e-02
  4.4587247e-02
 -2.5803190e-02
  2.3606330e-01
 -4.4889504e-04
 -6.9642492e-02
 -4.3554011e-01
 -2.5940018e-02
  3.1252936e-01
  1.7103404e-01
  1.8852518e+00
 -2.1825645e-02
 -7.2645968e-01
  2.2016091e-02
 -1.1421946e-01
  1.2234848e-01
 -4.0353939e-01
  8.6521208e-02
  1.6029691e-02
 -3.0029623e-02
  2.2094591e-02
  2.3046359e-01
  2.4968202e-01
  8.9923233e-02
 -9.4609294e-04
  7.1235195e-02
 -3.3498360e-03
  2.8288957e-02
  3.6499884e-02
 -1.8274696e-01
 -6.5653086e-02
  1.0577030e-02
  2.1273188e-02
  5.3292565e-02
  1.6545483e-01
 -4.5456275e-02
  8.1847303e-02
 -2.9131857e-01
  1.1577581e-01
 -3.7434861e-01
 -1.1083213e-01
  6.0754489e-02
 -1.5153435e-02
 -3.1997135e-01
  1.2293807e+00
  1.5201004e-01
 -1.7319651e+00
 -4.4539610e-01
  2.9103729e-01
  1.9103914e-01
 -3.1383339e-02
  3.2778418e-01
 -2.3742969e-01
 -8.4585696e-02
 -1.0750042e-01
 -1.4787295e-01
  1.4203254e-02
 -1.0090397e-01
  2.2402852e+00
 -7.0873491e-02
 -8.9086019e-02
  2.1807042e-01
  4.1203171e-01
  8.6253911e-02
 -8.9550562e-02
 -5.3462438e-02
  4.9606748e-02
  4.9027324e-01
  1.9973924e-02
 -1.3549060e-01
  6.4216360e-02
 -5.1377624e-01
  6.4020805e-02
  1.1730234e-01
 -1.5948108e-01
  5.0710559e-02
 -1.2078180e-01
  2.2535485e-01
 -1.0288662e-01
 -1.8347205e-01
  1.2691750e-01
  2.0110965e+00
  3.1846681e-01
 -1.6975746e-02
 -1.6991910e-01
 -2.0912942e-03
 -6.5377266e-03
  4.8118565e-02
 -5.2962657e-02
 -1.9690715e-01
  2.1063830e-01
 -5.0486304e-02
 -1.6983469e-01
  6.0024555e-03
 -1.3680044e-01
  4.4961087e-02
 -2.9975110e-01
  1.2726873e-02
 -4.4623189e-02
  2.3071913e-02
 -2.2958776e-01
 -2.9465529e-01
 -1.2116612e-01
 -1.1088087e-01
  8.2100436e-02
  1.2019943e-01
 -9.0966269e-02
  4.2481810e-02
  3.5865683e-02
  4.6653114e-02
  5.8612168e-02
 -1.1987848e-01
  3.4360346e-01
  9.3057491e-02
 -1.2919188e+00
 -5.7199385e-02
  1.3081445e+00
  6.6959924e-01
  5.2033970e-04
 -2.5531957e-01
 -5.8790273e-03
 -4.6358176e-02
  1.3728927e-01
  3.0766325e-02
  7.5344765e-01
 -1.9445296e-01
 -4.0155627e-02
  5.8336440e-02
 -7.0937216e-02
 -1.6423337e-01
 -8.2135484e-02
  3.9632052e-02
  2.2824809e-01
  2.5971550e-02
 -2.3269036e-01
  4.3748427e-02
  2.4459106e-01
 -1.5593803e-01
 -4.0536276e-01
  7.2126293e-01
  1.6617553e-01
 -1.1656071e-01
  1.3739713e-02
 -1.8374821e-02
 -1.6564729e-02
  1.0989953e-03
 -1.9559497e-02
 -3.0307697e-02
 -4.6952012e-01
  4.1909713e-01
 -8.6723164e-02
 -1.4933885e+00
 -3.7725037e-01
 -5.0471928e-02
  3.7329488e-03
 -1.1312545e-03
  1.7059258e-01
 -7.4053295e-03
 -2.2608396e-01
 -2.2528088e-01
  1.4170770e-01
  1.6640235e-01
  1.9625166e-02
  3.9772794e-02
  1.6281916e-01
 -2.2895259e-01
  3.3289522e-02
 -6.4465545e-02
 -1.7157444e-01
  4.1002374e+00
 -6.9439247e-02
 -3.8215082e-02
  1.9410068e-02
  8.7275252e-02
  2.8991198e-02
 -3.2202181e-01
  3.5786584e-02
 -1.9327966e-02
 -9.0472504e-02
  7.3464938e-02
  5.2344799e-02
  6.1834776e-03
 -4.1005351e-02
 -1.4104064e-01
 -9.7531706e-01
  6.5764099e-02
  1.6287959e+00
  2.2587046e-02
  4.4736909e-03
  1.7311792e-01
  1.0074838e-01
 -6.2161043e-02
 -2.6638043e-01
  3.2239094e-02
  1.1511274e-01
 -1.9118308e-01
  1.7222279e-01
  3.1291179e-02
  1.2928666e-02
  1.7521057e-02
 -2.7106363e-02
  4.4684331e-03
  7.3177561e-02
  1.2994510e-01
  1.3191366e-02
 -2.2833906e-01
  6.2887832e-03
 -7.5502463e-02
 -4.4921815e-02
  3.1403519e-02
 -3.5410289e-02
  1.2368638e-01
  1.2392332e-01
 -7.0508473e-02
 -1.6744027e-01
 -7.0199013e-02
 -5.9712742e-02
  2.2344649e-02
  7.5519085e-03
  1.0447671e+00
  2.1362612e-01
 -2.0338283e+00
 -5.5982077e-01
  2.3111055e-02
  1.0993108e-01
  3.1730797e-02
  3.3306189e-02
 -3.2740321e-02
  1.6034232e-01
 -6.9690004e-02
 -6.9039732e-02
 -3.0904340e-02
 -4.4551130e-02
  2.3897386e-01
 -1.6658327e-01
  1.7755012e-01
 -2.0839982e-02
  5.1883435e-01
  2.0480035e-01
  9.7008705e-02
  2.0968571e-02
  2.8643064e-02
 -1.5001279e-01
 -2.3274453e-01
  1.0289151e-01
  6.0185418e-02
 -3.1917494e-02
  3.3297937e-02
  8.3046956e-03
 -1.0788684e-01
  1.9858123e-01
  1.5110011e-01
  5.8885727e-02
 -1.2149136e+00
  5.5455911e-01
  9.2578399e-01
 -1.5206509e+00
 -4.7325343e-01
 -2.7528128e-01
  2.8508833e-01
  2.2754756e-01
  1.8590111e+00
 -2.3600882e-02
 -4.8511153e-01
  1.8786740e-01
 -3.1395108e-01
  4.8954558e-01
 -2.0405725e-01
 -2.9123056e-01
 -5.5456951e-02
 -7.5592682e-02
  1.6326065e-01
 -2.8548998e-01
 -7.8461498e-02
 -1.5322099e-02
 -5.7707407e-02
 -1.4525984e-01
  8.4722340e-01
 -4.6311304e-02
 -3.3036489e-02
  5.9913684e-02
  1.7806967e-01
  1.8510645e-02
 -2.8723943e-01
  6.5099478e-02
  5.4192811e-02
 -3.4254602e-01
  2.1771388e-01
  1.0538002e-01
 -6.9732797e-01
 -9.8114532e-01
 -2.8536870e+00
  1.3651664e+00
  5.5377173e-01
  6.0874868e-02
  8.4157199e-01
  3.1301882e+00
  6.6953027e-01
 -1.1034325e-01
 -8.7497061e-01
  6.0029638e-01
 -1.1754616e+00
  2.5390503e-01
 -2.0405188e-01
 -2.7700585e-01
  1.7278390e+00
  3.1003150e-01
 -2.3638406e-01
 -6.7107666e-01
  2.1061811e-01
  7.0931637e-01
  7.7636652e-02
  8.2792211e-01
 -3.0729485e-01
 -3.1780732e-01
 -4.3768311e-01
 -3.8962698e-01
  1.2979724e-01
 -1.6343768e-01
 -2.1183401e-01
  1.3930875e-01
 -3.2613492e-01
 -7.1203798e-02
 -1.2697624e-01
 -1.0066056e+00
 -1.5679269e-01
  1.9944395e+00
  4.8744593e-02
 -5.2823162e-01
  2.4455386e-01
  5.5587228e-02
  3.6534309e-02
  1.4855771e-01
 -2.0915037e-04
 -1.0646505e-01
  3.1848069e-02
 -6.2989313e-03
  3.8645837e-02
 -1.4979946e-02
  2.6392633e-01
 -3.9676022e-02
  6.1302420e-02
 -1.7430386e-02
 -1.6005086e-02
  5.3503051e-02
 -9.5789649e-02
  1.6627159e-02
  2.8178132e-01
 -1.0068393e-01
 -4.7735232e-03
 -1.0660562e-01
 -7.8657292e-02
 -9.1378912e-02
 -4.4332061e-02
 -9.3070097e-02
 -8.4230322e-03
 -2.2288100e-01
 -1.8674678e-01
 -4.0589795e-01
  1.4002688e-01
  1.0924520e-01
 -1.4005523e+00
  1.0735235e-02
  2.7725467e-01
  1.4110528e-01
  9.7490638e-02
 -3.4081746e-02
  3.1954903e-02
 -7.2285853e-02
  1.5471202e-01
  4.3430938e-03
 -1.6437076e-01
 -1.3210386e-01
 -7.1979545e-02
  2.1278113e-01
  1.1504161e-01
  1.0159061e-01
  4.9262334e-02
  4.9623873e-02
 -4.9593199e-02
  4.3010950e-02
  5.3977922e-02
  1.4675754e-01
 -5.4343432e-02
  1.9896846e-01
 -1.0445634e-01
  7.2694667e-02
 -1.1579184e-01
  6.2483426e-02
  2.1180582e-01
 -3.2510430e-02
  1.5286881e-01
 -1.6143809e-01
  9.5883086e-03
 -1.0913917e+00
 -1.0521455e-01
  2.4144025e+00
  9.2035741e-02
  1.8305875e-01
  1.1373401e-01
 -2.3433584e-01
 -7.6492056e-02
 -2.8088497e-02
  2.3566982e-02
  1.7860951e-02
 -5.5985667e-02
  2.8219026e-02
 -1.9750646e-01
  3.9762862e-02
 -3.2066040e-02
  6.4656049e-02
 -6.4635880e-02
 -9.0763234e-02
 -4.7301546e-02
 -1.6687916e-01
 -2.5273401e-01
 -5.9056092e-02
 -1.9548574e-01
 -4.5783982e-02
 -5.9376530e-02
  5.2286375e-02
 -3.4952045e-03
  3.3547204e-02
  3.2347468e-01
  4.0126941e-01
  1.5770707e-02
 -1.2553248e-01
 -2.5421324e-01
  7.3508538e-02
 -3.9861253e-01
 -9.8108742e-03
  2.1622245e+00
 -8.4720090e-02
  2.1946897e-01
  2.1135870e-01
 -2.7214007e-03
 -1.7328773e+00
 -5.2757446e-02
  9.8053381e-02
  1.6375190e-02
 -4.3268126e-02
  5.2120976e-02
 -1.7773135e-01
 -1.3511181e-01
 -4.4748764e-02
 -1.7205259e-01
 -3.4073848e-02
  2.0390613e-01
 -5.6253869e-02
 -3.6663994e-02
 -1.3300939e-01
  4.9271174e-02
 -5.8079716e-03
 -1.9599418e-01
 -1.8645138e-01
 -3.0804569e-01
  1.5384309e-01
  4.2484292e-01
 -8.2846753e-02
 -5.8279421e-02
 -1.0299692e-01
  1.8246634e-01
 -1.4677271e-01
  1.5132108e-02
  4.5915875e-01
  2.9988468e-02
 -1.4363937e+00
 -3.7386101e-01
 -4.1257136e-02
  1.2997344e-01
 -3.5867438e+00
 -1.5791988e-02
  1.5688181e-01
  3.6692858e-01
 -2.2119968e-03
 -2.1368536e-01
 -1.9517457e-01
 -1.3075952e-01
  1.3508774e-02
  1.0895474e-03
  2.5621818e-02
 -1.5841781e-01
  6.2242150e-02
  4.2191625e-02
 -9.9675655e-03
 -1.9439331e-01
 -4.1875839e-02
  2.1829549e-03
 -3.3156618e-02
 -1.5178303e-01
 -1.1286833e-02
 -2.4951136e-01
  2.6911286e-01
  1.4875637e-01
 -4.7261566e-02
  1.6859101e-01
  2.7235165e-02
  3.0088142e-02
 -6.6486448e-02
 -4.7002748e-01
  4.5967299e-02
  1.5329094e+00
  4.3617882e-02
  3.2950394e-02
 -8.5998885e-02
 -9.3911588e-02
  2.1785188e-01
 -6.7756101e-02
  7.4760266e-02
 -2.6838169e-01
  1.8253131e-01
  1.5484697e-01
 -4.5408770e-02
 -8.7490659e-03
 -4.2382665e-02
  1.7314382e-02
 -2.2554894e-01
  7.0965618e-02
  2.4836229e-01
 -6.1460778e-02
 -2.1764655e-01
  2.8286522e-02
  1.8848504e-01
  2.2600654e-01
  4.1714076e-02
 -3.2431688e-02
  1.4250158e-01
 -2.7248812e-01
 -1.1885065e-01
 -1.0133149e-01
  6.1789569e-02
 -2.2978483e-02
 -9.5769599e-02
 -2.6355067e-02
  7.2879189e-01
 -5.5524451e-01
 -3.0738842e+00
  4.3663397e-01
 -3.4504771e-01
  6.7230023e-02
  3.4335771e+00
  1.0064308e-01
 -2.8479850e-02
 -2.0439675e-01
 -1.1248783e-01
 -2.8106434e-02
  3.0302316e-01
  9.4732724e-02
 -2.1647884e-02
 -3.1863165e-01
 -1.8263368e-02
  2.0251787e-01
 -7.1001425e-02
  4.5178857e-02
 -1.7820003e-02
  2.6582837e-01
  1.1319076e-02
 -9.0236232e-02
 -1.1960349e-01
 -9.1110453e-02
 -3.2508886e-01
  1.9020215e-01
 -6.2840320e-02
 -9.7638190e-02
  1.0389809e-02
 -9.6242093e-02
  1.5415940e-01
 -8.7538779e-02
  3.6136103e-01
 -8.5568559e-01
 -9.7302176e-02
  1.4701385e+00
  3.7125838e-01
 -8.5708581e-02
 -1.4644137e-01
 -6.2302966e-03
 -2.4744515e-01
 -1.3680488e-01
  7.0183007e-03
 -3.0101098e-03
  2.0889123e-01
 -6.5880269e-02
 -5.8307115e-02
 -6.1309922e-02
  5.3109266e-03
  7.1182594e-02
  1.3004480e-01
 -1.2287373e-01
  3.7809249e-02
 -1.0914105e-03
  2.5584063e-02
  3.4786206e-02
 -6.6572264e-02
  4.5488286e-01
 -1.1281522e-01
  6.1565656e-02
  2.0099527e-01
 -1.6792469e-01
 -1.0593274e-01
  1.2592988e-01
 -3.1222647e-01
  1.1356743e-01
 -9.9937364e-02
 -4.6703089e-02
 -2.6413569e-01
  2.8730718e-02
  3.3411580e-01
  7.4093953e-02
 -1.1186928e-01
  6.2348846e-02
 -1.7083976e-01
  2.3680355e-02
  3.5259441e-01
  1.6309233e-02
 -4.2263263e-01
 -2.2282388e-02
 -9.4887681e-02
 -6.4672999e-02
  2.7889606e-02
 -1.5065616e-01
  2.3441765e-01
 -1.3459541e-01
  6.2417284e-02
 -2.6671859e-02
 -2.3595764e-01
 -6.8069540e-02
  1.5712017e-02
  7.4672498e-02
 -2.9837737e-02
  1.0271305e-01
  5.1472306e-01
  2.0737583e-02
 -1.4749703e-01
 -1.6397500e-01
  7.5584240e-02
  1.1902592e-01
  2.7402218e-02
 -2.9637095e-01
 -5.5459600e-02
 -1.3763711e-01
  1.5466017e+00
  3.1252173e-01
  2.4293175e+00
 -2.3679214e+00
  3.8798772e-02
 -2.6521280e+00
 -5.6403440e-01
  1.1332840e-01
  4.4141155e-01
  1.3087977e+00
 -8.4600145e-01
 -1.7172663e+00
  9.9307263e-01
 -2.7086186e-01
  4.0480563e-01
 -8.9982903e-01
  7.6499484e-02
 -3.3401009e-01
  1.2381809e+00
 -5.9892073e-02
  3.9725803e-02
 -6.4292711e-01
 -1.4895442e-01
  9.6904194e-01
 -1.4836974e-02
  4.6898726e-06
  3.4809764e-03
 -1.6898759e-01
 -3.7125345e-02
  5.6483972e-01
  4.6982241e-01
 -3.0818379e-01
 -2.1960758e-01
  1.2481818e-01
  1.4800518e+00
  2.2188394e-01
  1.4815491e+00
  1.7271214e+00
  2.4394362e+00
  2.8803766e-01
  4.3522483e-01
 -1.3856165e+00
 -5.3722298e-01
 -3.9975166e-01
  9.1309184e-01
  4.2974842e-01
  1.6432575e+00
  3.6526597e-01
 -1.6479838e-01
 -1.7335084e-01
 -2.2641014e-01
  9.3691176e-01
  2.0624785e+00
  3.2095903e-01
  2.7943315e-02
  7.8682697e-01
  3.9677933e-01
  9.4966662e-01
  4.1097805e-02
 -9.1751643e-02
 -2.3262839e-01
 -3.8937742e-01
  1.5935257e-01
  2.4078729e-02
  1.8339920e-01
 -1.0542164e-01
 -2.8208360e-01
 -4.2181787e-01
  4.5014548e-01
 -1.1375276e+00
  6.2779158e-02
  1.4249541e+00
  4.5299828e-01
 -1.2951034e-01
  4.0211845e-02
 -9.0349279e-02
 -1.1281404e-01
 -7.8298651e-02
  7.3337317e-02
  7.6556824e-02
  3.6309183e-02
  9.9796681e-03
  1.4090186e-01
  5.1496983e-01
 -1.0861481e-01
  9.2205055e-02
  5.6547437e-02
  2.5320062e-02
  4.7978073e-02
 -3.1681085e-01
 -1.8262289e-02
  2.8680576e-02
  1.9487281e-01
 -3.0510766e-02
  2.2617674e-02
  2.5552599e-02
  9.1200136e-02
 -5.2742530e-02
  1.1455574e-01
  2.8628188e-01
 -2.4236234e-01
 -6.2081352e-02
 -4.1739473e-01
  1.6027754e-04
 -4.5370647e-01
 -2.2620100e-01
  1.0004163e+00
  5.2575213e-01
  3.2066040e-02
 -9.4141774e-02
  1.6747119e-01
 -1.3015635e-01
  5.4524668e-02
  1.2235049e-02
  4.2884690e-01
  5.3434905e-02
 -2.5751723e-02
  5.8660451e-02
 -1.7558596e-01
  1.0827284e-01
  2.0540228e-02
  7.1051309e-04
 -1.1261810e-01
 -5.1125448e-02
 -1.4731397e-02
 -1.0246422e-01
 -1.3583380e-01
 -7.2038628e-02
 -4.7568068e-02
  6.9406055e-02
  1.1336029e-01
 -2.7177802e-01
  1.7131586e-01
  1.3335992e-01
 -6.4775720e-02
 -2.5790183e-02
 -3.5746790e-02
 -2.9472549e-02
 -1.4548999e-01
  7.2118098e-01
  2.6496861e-02
 -1.5555463e+00
 -1.1398280e-01
 -1.6309600e-01
 -2.2659715e-01
  2.0021492e-01
 -9.6309148e-02
 -1.1916636e-01
 -2.5366079e-03
  5.0656237e-02
 -3.7919576e-03
 -2.5315344e-02
 -6.9124214e-02
 -9.7661138e-02
  7.6428615e-04
 -4.5896400e-02
  3.2122150e-02
  1.0356291e-01
  9.4580119e-03
 -2.3305283e-01
  4.3531740e-01
 -3.1335711e-01
 -2.1415557e-01
 -1.1355583e-01
  3.9053608e-02
  2.8782153e-01
  3.5371697e-01
  1.4916861e-01
  5.5859182e-02
 -2.3027109e-01
 -1.4165437e-01
 -5.3069629e-03
  9.9012956e-02
 -6.9553077e-02
  1.4473178e+00
  1.7647142e+00
  2.2780914e+00
 -4.0060803e-01
 -1.1670446e+00
  5.4808605e-02
  7.3456235e-02
 -2.0509398e+00
 -8.7298799e-01
  3.9291763e-01
 -1.1909311e-01
 -2.2139966e+00
  2.0051551e+00
 -4.5209825e-01
  1.0154245e+00
  1.6457886e-02
 -1.1410222e+00
 -1.4642029e-01
  1.0586931e+00
  5.0449169e-01
  1.2757303e-01
 -2.0600865e+00
 -5.3300965e-01
  9.9808973e-01
  3.4925762e-01
  1.0967636e-02
 -6.2882429e-01
  9.9834409e-03
  1.6981761e-01
  4.1255172e-02
 -3.6886644e-02
  2.2675958e-01
  3.3366287e-01
  1.3376337e-01
 -3.3412643e-02
  6.9792426e-01
  6.9013841e-02
 -1.6654787e+00
 -2.0599233e-01
  5.6628902e-02
 -1.1387312e-01
  1.7206331e-01
  1.2675761e-01
 -1.2519780e-01
  5.7239749e-02
 -4.1417044e-01
  3.1064551e-02
  2.4150801e+00
  1.3405258e-02
  6.9460534e-02
  7.2574809e-02
  7.5733565e-02
  1.6975126e-01
  2.6024029e-01
  1.5775134e-01
 -1.4633192e-01
 -1.1244667e-01
 -8.8601120e-02
  3.3769283e-02
 -1.4517552e-01
  1.7504030e-01
  7.1067870e-02
  2.3007916e-01
  1.6791606e-03
  1.6723953e-01
  9.0213120e-02
  2.0917763e-01
  3.6694869e-02
  4.2335209e-02
 -5.9611782e-02
  2.8839526e-01
 -8.7877447e-03
 -1.4666598e+00
 -3.6132883e-02
  9.7378023e-02
 -3.0157743e-03
  5.0310496e-02
  2.5721681e-01
  4.2424582e-02
 -3.9255776e-02
 -2.4532093e-02
 -3.8600519e-02
  1.6777247e-01
  9.7373901e-03
  5.5915773e-01
  2.6765659e-01
  2.1903481e-02
  4.3657781e-03
  1.3613630e-02
 -1.7060679e-01
 -2.0020716e-02
  6.5801837e-02
  4.2941915e-03
 -2.2935912e-02
  5.3201146e-02
 -6.1682735e-02
 -3.4092691e-02
 -6.0717762e-01
  1.7801324e-01
 -3.9435589e-01
 -4.4995188e-03
 -1.3427054e-02
  1.0000106e-01
 -8.2903594e-02
 -1.6846249e-01
 -9.1860145e-01
 -6.2360544e-02
  1.6765183e+00
  6.0124290e-01
  2.6473707e-01
  1.7975375e-02
  4.8279986e-02
  1.1136390e-01
 -3.1945056e-01
  3.7970383e-02
 -1.2263548e-01
  6.0970765e-02
  3.9363660e-02
 -5.8308847e-02
  3.2571530e-01
 -7.9756200e-02
 -5.3403802e-02
  1.4036517e-01
  2.1346053e-01
  2.0770004e-01
  5.1636107e-02
  7.2697368e-03
 -7.8181557e-02
  7.7224813e-02
 -6.4571187e-02
  4.0690709e-02
  1.4357163e-01
  1.0380534e-01
  1.4778181e-02
  1.1923302e-01
  2.4425246e-01
  3.1955715e-02
 -1.4113507e-02
 -2.1320792e-02
  7.5452633e-02
 -2.6844999e-02
  5.4692518e-02
  1.8058151e+00
  2.6671308e-01
  3.4234680e-02
 -1.0497104e-01
 -7.3825778e-03
  7.4416674e-03
 -1.0977087e-01
 -6.6161357e-02
 -6.7060515e-02
 -1.6107491e-01
 -8.6977929e-02
  2.4099634e-03
  1.5386845e-01
 -6.4680800e-02
 -9.8605089e-02
 -6.6008508e-02
  1.5726760e-02
  1.3301505e-01
  4.3570429e-02
 -2.7301240e-01
 -7.9425462e-02
 -3.9843100e-01
  3.2641046e-02
  1.8776162e-02
 -9.7934837e-03
 -2.8903084e-03
 -2.6084460e-02
  1.0854755e-01
  3.0721614e-01
  3.3040748e-03
 -4.6709809e-02
  6.8652764e-02
  1.4128555e-01
  8.8252831e-01
  2.4197702e+00
 -6.6467631e-01
  1.6183946e+00
  1.9929264e-01
 -2.0858943e-01
 -2.9052632e+00
 -1.2921107e+00
 -1.5710417e+00
 -2.3531787e-01
  1.2328061e-01
 -7.3895466e-01
 -1.2191038e-01
 -2.4880061e+00
 -3.5524952e-01
 -9.9622048e-02
 -3.7103033e+00
 -5.3604901e-01
 -1.7596973e-01
  1.2598325e-01
  3.7161332e-02
 -7.9518050e-01
 -6.0508353e-01
  3.1043994e-03
 -2.2327002e-02
 -6.0126495e-02
  6.5372705e-01
  6.6900676e-01
 -3.0824414e-01
 -1.7192484e-01
  1.8717407e-01
 -1.8340959e-01
  6.0214931e-01
  6.5416104e-01
  5.2396487e-03
 -5.2828288e-01
 -2.8879136e-01
  1.9702256e+00
  4.3707243e-01
 -7.8979164e-02
 -8.8231064e-02
 -1.8579124e-01
  4.1632649e-02
 -5.6185603e-02
 -3.3106303e-01
  7.1843386e-02
  3.0594997e-02
 -2.7679048e-02
 -1.9120272e-02
  2.5877252e-01
 -3.4556195e-02
  5.3555783e-02
 -3.4840249e-02
 -1.1601442e+00
  2.8068576e-02
 -3.3288334e-02
 -2.2883092e-01
 -9.6466774e-01
 -1.0730870e-02
  6.9345936e-02
  1.2441513e-01
 -8.6859807e-02
 -3.9451034e-03
 -3.8958900e-02
 -1.0985200e-01
 -2.3267308e-01
  2.7334297e-03
  1.3885605e-01
  3.3472445e-02
  2.3823310e-02
 -4.5200881e-01
  8.1268355e-02
  1.2982038e+00
  6.4258009e-02
  2.4156468e-01
  2.6279879e-01
  2.1434399e-01
  7.2362497e-02
 -9.2438084e-01
 -6.7563042e-02
  4.3652747e-02
 -1.1230195e-01
  1.8504135e-02
 -1.5945759e-01
  5.1239606e-02
  6.0621083e-02
 -5.0516349e-01
 -3.2159802e-01
 -3.1348985e-01
  6.8544447e-01
 -1.5066417e-01
  1.2307379e-01
  1.1719398e-02
  1.7312953e-01
  2.2997985e-02
 -2.1533853e-01
  4.6885736e-02
  1.8119274e-01
 -2.9893574e-01
  8.2224689e-02
 -3.2479304e-01
 -3.9882049e-01
  1.5512881e-02
  1.8087230e+00
 -2.0076193e-01
  1.9749285e+00
  1.0387739e+00
 -1.4494963e+00
 -2.3074648e+00
 -3.2457571e+00
  8.3418739e-01
  4.3311465e-01
  3.0867165e-01
  1.9385746e+00
  4.5729378e-01
  1.1062232e-02
 -1.0547445e-01
 -1.6956833e-01
 -2.0686597e-01
  2.7958265e-02
  2.2978388e-01
  7.3121488e-02
 -9.7111613e-02
  6.3526340e-02
 -6.2776291e-01
  1.0358933e-01
 -1.3282137e-01
 -8.4215263e-03
  3.1314537e-01
  1.6418315e-01
  3.3133607e-02
 -6.1332554e-02
  7.3798234e-03
  1.2708377e-02
 -5.2098144e-02
 -1.1236878e-01
 -8.3876494e-03
  4.2340666e-02
  1.7379527e-03
  3.4512430e-02
  6.4364195e-01
  1.5414748e-01
 -2.0489917e+00
  2.0441473e-01
  1.7738199e+00
 -7.5640962e-02
  9.5881909e-02
 -8.0756828e-02
 -1.4345686e-01
  1.0035332e-01
 -1.5817285e-01
 -1.9443181e-01
  1.3378552e-02
 -1.3475309e-01
 -6.1610583e-02
 -3.1377651e-02
 -3.4706432e-01
 -2.1830519e-01
  8.8769913e-02
 -1.9035290e-01
 -3.1132715e-02
  2.0088507e-01
  1.2178210e-02
  7.9340125e-03
 -3.2923114e-02
 -2.0177597e-01
  2.4650843e-01
 -8.1416719e-02
 -8.3782533e-03
  1.5775647e-02
 -2.5899342e-01
  1.6879769e-01
  2.2999056e-01
 -1.5948161e-02
 -2.0444459e-01
  7.1896780e-01
  3.6296865e-01
 -1.8066742e+00
 -2.7187860e-01
 -3.3673313e-02
 -1.7287222e-01
 -3.6673120e-01
 -2.2316394e+00
 -1.5785977e-01
  1.1973231e-01
  1.9881067e-01
 -3.2686997e-02
 -1.3264941e-01
  5.6648202e-02
  9.1864355e-02
 -3.1078127e-01
  9.7548924e-02
 -3.0464870e-01
 -1.7212225e-01
  3.3049260e-03
  1.2347642e-01
 -7.8441836e-02
  6.9307917e-01
 -1.5789141e-01
 -8.2216049e-03
  5.6691293e-02
  2.1405400e-01
 -1.3967076e-01
  2.5648482e-02
  6.7877308e-02
 -7.8629851e-02
 -7.6655947e-02
  1.0367580e-01
  1.1431605e-01
 -4.6160769e-02
  2.3296651e-01
  2.8456220e-01
 -1.6969929e+00
  5.5345798e-01
 -2.9277432e-01
  5.8647070e-02
 -3.4882036e-01
 -9.9705541e-01
 -7.3731065e-01
  1.8976469e-01
 -1.6086708e-01
 -2.5108157e-02
  6.9563962e-03
  1.9894192e-01
  8.2263589e-02
  6.2125783e-02
  1.4828372e-02
 -1.1325955e-01
 -2.0530199e-01
 -2.3259006e-01
  1.0413714e-01
  8.4983386e-02
 -4.2332250e-01
  5.5663116e-02
  1.2575957e+00
  4.6847429e-02
  5.3788148e-02
 -4.4359379e-02
 -5.6544412e-02
  1.9602874e-02
  1.2518159e-01
  5.7972655e-02
 -2.0384265e-02
  1.7097831e-01
  8.3322711e-02
 -2.5843468e-02
  1.7934377e-01
  1.1836151e+00
  4.6866709e-01
 -6.1617337e-02
 -3.7038002e-02
  8.8624410e-02
  1.5592113e-02
 -1.6449741e-01
 -4.4867489e-02
  1.3466847e-01
  1.6783561e-01
 -1.4958458e-01
 -5.4257517e-03
 -1.5869595e-01
  1.3981090e-01
 -2.2461031e-02
  1.7420019e-01
 -5.1850691e-03
 -1.6272797e-01
 -1.4072065e-02
  1.0235929e-01
  2.5953534e-01
  6.6777892e-02
 -6.5769762e-02
 -7.9213694e-02
 -6.4486742e-02
 -1.9991671e-01
 -1.6286406e-01
 -1.3902938e-01
 -1.2988085e-01
  3.8527581e-01
 -1.7603490e-01
 -2.2675775e-01
  1.8400388e-02
 -7.5736982e-01
  3.8132839e-02
  1.7479748e+00
  3.4989786e-01
  4.7233205e-02
  1.6163707e-01
  1.3014705e-01
 -1.6593821e-01
 -2.9049905e-02
 -1.1346404e-01
  2.9015774e-02
  4.7997974e-02
 -1.3115931e-02
  1.0903754e+00
  2.0565802e-01
 -8.6000927e-02
 -4.1179472e-01
  9.0965301e-02
  4.3527156e-02
  2.3525065e-02
 -8.3130062e-02
  1.5176572e-01
  1.0638116e-01
  3.0127292e-02
  8.1068110e-03
  4.1267511e-02
 -6.9613956e-02
  7.7337019e-02
 -5.3024303e-02
 -1.9932298e-01
  3.7727494e-02
 -8.4797516e-02
  4.3862932e-03
 -4.7941213e+00
  4.3794326e-03
  5.2714401e-01
 -1.2320206e-02
 -1.9390677e+00
  1.3028729e-01
  5.9500132e-02
 -1.0127888e-01
  1.1809735e-01
 -1.4865011e-02
  2.9293934e-01
 -5.6806516e-02
 -4.9493361e-02
 -1.2828526e-01
 -6.6229388e-02
  5.3831577e-02
 -1.3805211e-01
 -2.0936885e-01
 -7.9968013e-03
 -7.1402624e-02
  5.9254553e-02
 -2.0043086e-01
  9.9977247e-02
  2.0634493e-01
  1.6982445e-02
 -1.7532910e-01
  3.6226591e-01
 -1.2206037e-01
  5.0215530e-01
 -1.7763831e-01
  2.5809398e-01
  2.4180149e-01
  2.4625887e-01
  8.1712633e-02
 -1.8344280e-01
  2.9533216e-01
  1.6798873e-02
 -7.7556860e-01
 -1.3343507e-01
  1.9044533e+00
  9.8310582e-02
  7.6334149e-02
  3.8419880e-02
  6.8422765e-02
  2.1248481e-01
  9.0069316e-02
 -5.0228041e-02
  7.7410035e-02
  1.0199977e-02
  3.5716298e-01
 -3.9477113e-01
 -9.4225667e-02
 -1.6294377e-01
  8.4646620e-02
  1.7402818e-02
  1.0997628e-01
 -2.5166729e-02
 -1.4194535e-01
 -4.7304511e-02
  6.7428865e-02
 -2.2480972e-01
 -3.0253982e-02
 -4.6317007e-02
 -3.8609777e-02
 -4.4681007e-01
  4.0275440e-02
 -1.6820569e-02
 -1.2437911e-01
  2.6192204e-03
 -1.6165780e-02
  1.9622838e-01
  6.4231209e-02
 -2.5571880e-01
  3.2029954e-01
  1.8772149e+00
  2.7335346e-01
 -3.0465433e-01
 -2.2653237e-01
  1.4582209e-01
  1.6362593e-01
  1.2304798e-02
  1.5787169e-02
  8.1936888e-02
 -5.4720324e-02
  6.3394696e-02
 -1.5489182e-01
  1.9288015e-01
 -8.8975849e-03
 -1.3241565e-02
  1.3762058e-02
 -4.5711566e-02
 -2.1372084e-03
 -1.0949248e-03
 -1.1090121e-01
  7.7790469e-02
 -6.4444996e-02
  2.4860168e-01
  3.3975452e-02
  3.5960682e-02
  8.6449713e-02
 -6.0001418e-02
 -1.3330857e-01
 -2.7195543e-01
 -6.9704703e-03
  4.3963011e-02
  5.8349859e-02
  5.5766445e-02
  7.2241145e-01
  1.5251255e-01
 -2.0700305e+00
 -1.9622338e-01
 -1.3680157e-01
 -1.2808211e-01
 -1.5439643e-01
  2.8385406e-02
 -1.0430110e-01
  1.1442092e-01
  1.5461728e-01
  2.2480823e-02
 -4.8121829e-02
  1.7414281e-02
  8.5710630e-02
 -1.4871135e-02
  5.8344500e-03
 -4.2446505e-02
 -2.2309821e-02
 -5.5273867e-01
  1.4463331e-01
  3.0809423e-01
 -8.6231986e-03
  3.6998537e-01
 -1.2351674e-01
  3.3013377e-02
 -5.2225512e-02
  1.8548205e-01
 -9.9988326e-02
 -9.2282575e-03
  2.2060998e-02
  3.2834446e-01
 -5.4240525e-03
  8.1136264e-03
 -8.9398623e-02
 -2.8473334e+00
  1.9974922e+00
  2.5375947e-01
  1.9960796e+00
  2.4927192e+00
 -1.7568643e+00
  1.9459660e+00
  1.8376231e+00
  4.1897268e+00
 -1.8753781e+00
 -3.3763077e+00
  2.2273412e+00
 -2.4416518e+00
 -1.8160264e+00
  2.2374046e+00
  2.9079158e+00
 -1.5634682e+00
 -2.4049509e+00
  2.3016045e+00
 -3.7476833e+00
  1.7295147e+00
 -1.8293446e+00
 -1.7867894e+00
  2.0071046e+00
 -1.8574009e+00
  1.6063057e+00
  1.6378251e+00
 -3.0316157e+00
 -9.9500668e-01
  2.0355337e+00
 -1.0836395e+00
 -1.7553753e+00
  2.0673137e+00
 -1.5994643e+00
  5.2213991e-01
 -2.0959563e+00
 -2.9183364e+00
 -3.6477253e-01
  2.8160398e+00
 -1.8743291e+00
 -2.8108253e+00
  2.2023971e+00
 -4.7122648e-01
  2.0204625e+00
  2.1710041e+00
 -2.0601785e+00
 -1.9061283e+00
 -1.7531966e+00
 -1.6353145e+00
 -2.1202197e+00
 -7.1272182e-01
  1.9531623e+00
  1.9867098e+00
 -5.1810918e+00
 -2.5144053e+00
 -1.4596633e+00
  2.0408664e+00
 -1.6149080e+00
 -2.0394750e+00
  1.9763930e+00
 -3.3962779e+00
  1.9675560e+00
  1.7648270e+00
  1.9736603e+00
  6.2690711e+00
 -9.0397179e-01
  3.1341107e+00
  7.0688355e-01
  8.2009673e-01
 -2.2226250e+00
 -2.0680716e+00
  3.0881884e+00
 -4.0925574e+00
 -2.3095942e+00
  2.3295126e+00
  5.0936656e+00
 -1.6988922e+00
 -2.2914727e+00
  3.0563076e+00
 -1.7745605e+00
  4.2003918e+00
 -1.7021685e+00
 -1.5204238e+00
  8.9603448e-01
 -2.1313047e+00
  3.0051324e+00
  1.1381475e+00
  3.8601962e-01
 -8.1490409e-01
  6.2775922e-01
 -4.1391540e+00
 -2.7686012e+00
  1.7288610e+00
 -1.2322046e+00
  3.4698813e+00
 -3.2967565e+00
 -8.0747592e-01
 -1.0602632e+00
  2.1465669e+00
 -1.8196441e+00
 -5.6359649e+00
  3.3004355e+00
 -4.2601767e+00
  2.7227037e+00
  1.8477410e+00
 -3.2778285e+00
 -1.6867205e+00
 -6.1765069e-01
 -2.7836540e+00
 -1.1777472e+00
  1.0460870e+00
  2.7387962e+00
  1.7474130e+00
 -2.8089278e+00
 -1.8992792e+00
 -1.3823385e+00
  1.7762332e+00
 -1.9413811e+00
 -2.8021116e+00
  3.1853027e+00
 -1.3458409e+02
  8.4843642e-01
 -1.4643155e+00
 -6.2054545e-01
 -9.1170359e-01
 -3.4383856e-02
  6.4163780e-01
 -6.5402716e-01
  2.8529558e+00
 -3.3496599e+00
 -2.8362734e+00
 -4.8581481e-02
 -6.0367793e-01
  8.8059610e-01
  4.4195218e+00
 -4.9519184e-01
  9.0050524e-01
 -3.5655875e-02
  5.6436461e-01
 -1.8046427e+00
 -4.3930549e-02
  1.1021219e+00
  1.3479508e+00
 -1.9506967e+00
 -3.1941133e+00
  7.2426587e-01
  9.6862614e-01
 -2.3550622e-01
 -2.2122214e+00
  1.4892062e+00
  1.4988905e+00
 -4.1803619e-01
 -1.6835228e+00
 -2.9280221e-01
 -1.2108200e+00
 -7.8441125e-01
 -5.1486725e-01
 -1.7847052e+00
  1.2194608e+00
 -3.5734370e-01
 -2.0407718e-01
 -6.7222315e-01
  7.2368473e-01
  4.2965121e+00
  1.0658047e+00
  8.3693303e-02
 -1.2083760e+00
  9.9441826e-01
  1.8856050e+00
  1.2653955e+00
  1.7207614e+00
  4.8080587e-01
 -2.1495121e+00
 -2.2347897e-01
 -2.2521672e-01
  1.1578795e+00
 -3.9259796e+00
 -2.4679080e-01
 -9.4699466e-01
 -2.7281619e-03
 -5.9497420e-02
  8.6842626e-01
 -2.0298645e+00
 -1.1494936e+00
  1.8005766e+00
 -1.3738444e-01
 -8.3196235e-01
 -2.1040344e+00
 -4.5444936e-01
  1.5961078e+00
  7.5037479e-01
 -9.3195820e-01
 -8.0304188e-01
 -3.7851900e-01
  2.1954606e+00
  2.9512706e-01
  1.8331000e+00
  8.0475932e-01
  4.5015171e-01
  2.2721484e+00
  1.2754074e+00
  6.3178402e-01
  1.4586845e-01
  5.1433554e+00
  2.7560146e+00
  2.0368876e+00
  1.9237697e+00
  2.0771627e+00
  2.0065794e+00
  2.4454186e+00
 -1.4747950e+00
  6.1685061e-01
  1.9364973e+00
 -4.5034733e-01
 -3.6758697e+00
  1.4049004e+00
  1.6056604e+00
  1.5674529e+00
  1.4681302e+00
  6.9686007e-01
  9.5393705e-01
 -1.6506734e-01
  1.8438272e+00
 -4.0608010e-01
  1.2075368e-01
  1.5189582e+00
  2.9878740e+00
 -1.0580229e+00
  9.3534428e-01
 -2.0502543e-02
 -5.0454581e-01
  1.3572123e+00
  8.9131959e-02
 -2.1784325e+00
  1.0904479e+00
  8.3162773e-01
  2.9152944e+00
  1.8838559e+00
  1.2312274e+00
 -2.2905686e+00
  2.9297636e+00
  1.9963213e+00
  1.0111737e+00
  3.9566019e-01
  1.2639915e+00
 -1.4485456e+00
  1.3735561e-01
  1.8617171e+00
 -6.5702897e-01
  9.7472996e-01
  3.9226658e+00
  8.4317875e-01
 -1.9355878e+00
  4.1141710e-01
  1.9481192e+00
 -9.3406752e-02
 -1.4341756e-02
  6.5136451e-01
 -9.8951310e-01
  3.9516428e-01
  1.0960343e+00
  2.7957842e-02
 -1.5621336e+00
  5.3937729e-02
  2.1918197e-01
  9.3275660e-01
  4.3525660e-01
  2.5220388e-01
 -1.3337219e+00
 -1.0415555e+00
 -4.0627420e-02
  3.6884391e+00
  5.9726137e-01
  7.5323367e-01
 -2.1333763e-01
 -2.8913109e+00
 -2.2894528e+00
  1.5957159e-01
 -2.5588450e+00
  1.3694258e-01
  3.3967714e+00
  2.6314013e+00
  3.2671621e-01
  2.8782635e+00
  7.7760227e-02
 -1.5371959e+00
 -2.1203426e-01
 -1.0907822e+00
 -2.5924249e+00
 -9.2208844e-01
  1.6582664e+00
 -5.5566341e-02
 -3.2253861e-01
 -1.4115782e+00
  8.3267480e-02
 -1.3244950e+00
 -3.0277681e-02
 -5.5817686e-02
  6.7994303e-01
  2.7262023e-01
  3.8575855e-01
  2.7444759e-01
 -1.6966598e+00
  3.2509211e-01
 -5.7720739e-01
  3.7883976e-01
  6.1909276e-01
  6.5550059e-03
 -1.4187313e+00
 -1.5701592e+00
 -2.7136567e-01
  7.7247739e-01
 -2.0049430e-02
  8.8648848e-02
  1.1900476e+00
  3.5198757e-01
 -1.2870016e+00
 -5.8538705e-01
 -4.5106995e-01
 -5.2419424e-02
  3.1045347e-01
  3.3847812e-01
  7.6803398e-01
 -1.5098490e-01
 -3.6500961e-02
  9.6698552e-01
  7.6372325e-01
 -1.2555493e+00
  9.8425734e-01
 -4.4177926e-01
 -2.5431439e-01
  3.7756193e-02
  2.8226476e+00
  1.2486602e-01
  2.1443427e-01
  5.5038631e-02
  1.0918732e+00
  8.1261224e-01
  7.9297721e-01
 -4.8911047e-01
  8.7142241e-01
 -2.1851668e+00
  2.6346421e-01
 -1.0808278e+00
  6.5425909e-01
 -1.5278982e+00
 -8.0969088e-02
 -3.2276235e+00
 -3.2314226e-01
  1.1576774e+00
 -6.9539005e-01
  4.5510623e-01
  1.1432846e+00
  4.0749499e-01
  2.6907918e-01
  1.7163672e+00
 -2.2337320e-01
  5.2796268e-01
  2.2185910e+00
 -7.1553625e-02
 -1.9125457e+00
  1.5103393e-02
  1.4495497e+00
  1.1333473e+00
 -2.6444152e-01
  1.1282113e+00
  1.3742569e-01
  2.2999864e+00
  8.7389582e-01
  3.9665812e-01
 -1.0319151e+00
  1.1993054e+00
  1.3795251e-01
 -6.1209190e-01
 -1.8177611e+00
  1.4745086e-01
  5.9655619e-01
 -5.8549660e-01
  1.5278604e+00
  1.2382921e+00
  2.4789387e-02
  1.9218146e+00
  1.7362329e+00
  6.8934307e-02
 -8.4449148e-01
  2.9037061e-01
 -5.2075481e-01
 -5.1516795e-01
  1.3346949e+00
 -4.2980608e-01
  9.6172385e-02
 -7.6193565e-01
  4.6872318e-01
 -1.1097981e-01
  3.5488683e-01
 -2.8935054e-01
 -1.4168977e+00
 -5.5279762e-01
  3.3498731e-02
  1.3950429e+00
  7.9236716e-02
 -7.7684832e-01
 -1.3430290e-01
  7.4665380e-01
  9.6191359e-01
 -4.6137530e-01
  2.6334855e-01
  1.0007215e-01
  7.4138427e-01
 -3.0869213e-01
  8.7304699e-01
  6.6974080e-01
  8.0476904e-01
 -5.0320399e-01
 -2.7649604e-02
  5.3026575e-01
 -3.6444836e+00
  7.3263621e-01
  1.0830783e-01
  1.4146878e+00
  1.6681378e+00
 -8.3661699e-01
 -1.4628123e+00
  1.4341225e-01
  2.7338040e+00
 -2.8263192e+00
 -2.0036881e+00
 -3.6363254e+00
 -2.1880035e+00
  3.3531931e-01
  3.3262295e-01
 -1.6056477e+00
 -1.3142152e+00
  1.0761760e+00
  7.7699184e-02
  8.6379576e-01
 -6.0706735e-01
  5.5803144e-01
 -9.4627850e-02
  8.5741371e-01
 -5.8013546e-01
  6.8566538e-02
  1.0687234e-01
  1.5715423e-01
 -7.3580033e-01
  1.0786768e+00
  2.1452874e-01
  1.6711273e+00
  3.5063851e+00
 -2.1274128e+00
  1.4820693e+00
  6.9449157e-02
  4.3193913e-01
 -1.3428763e+00
 -1.4780600e+00
 -1.3931975e+00
 -4.3139201e-01
  3.1899929e-01
 -1.1529101e-01
 -5.3208673e-01
 -2.6106303e+00
  4.9012062e-01
  6.0369837e-01
 -1.6183607e-01
 -1.1384697e-01
 -9.1554600e-01
  1.5757635e-02
 -1.3476857e+00
 -2.1468809e+00
  8.1409878e-01
  1.0361702e+00
 -1.5659111e+00
 -9.6447694e-01
  8.7318771e-02
  3.1920052e-01
 -6.1112750e-02
 -9.9197882e-01
  1.7333534e-01
  3.7424999e-01
  1.9109903e-02
 -9.8434842e-01
  2.9349174e-02
  2.9349174e-02
  2.9349174e-02
  2.9349174e-02
  2.9349174e-02
  2.0425856e-01
  2.0425856e-01
  2.0425856e-01
  2.0425856e-01
  2.0425856e-01
  1.6406114e-01
  1.6406114e-01
  1.6406114e-01
  1.6406114e-01
  1.6406114e-01
  5.0968606e-02
  5.0968606e-02
  5.0968606e-02
  5.0968606e-02
  5.0968606e-02
  2.4741443e-02
  2.4741443e-02
  2.4741443e-02
  2.4741443e-02
  2.4741443e-02
  1.6266836e-01
  1.6266836e-01
  1.6266836e-01
  1.6266836e-01
  1.6266836e-01
  8.9403339e-02
  8.9403339e-02
  8.9403339e-02
  8.9403339e-02
  8.9403339e-02
