nep4_zbl 2 Ga In 
zbl 1.25 2.5 0.7
cutoff 6 5 68 39
n_max 4 4
basis_size 8 8
l_max 4 2 1
ANN 60 0
 -9.6282512e-01
  3.4769025e-01
 -4.2453024e-01
  7.7040863e-01
  5.5590367e-01
 -1.3276027e-01
  1.9447862e-01
 -3.6642749e-02
  1.2642203e-02
  2.3343707e-04
 -5.1549301e-03
  1.4938278e-01
  7.4086925e-03
 -2.2152957e-02
  6.9176421e-02
 -1.8456001e-02
 -7.4206263e-02
  1.5355038e-02
 -1.8465493e-02
  7.3327310e-02
  2.1152418e-02
 -8.7411981e-03
  1.2467718e-02
 -2.7434064e-02
  2.3857212e-02
 -6.2233593e-02
 -4.4384789e-02
 -5.5429749e-03
 -1.5839143e-02
 -4.8753742e-02
 -7.0839204e-02
  1.7999898e-01
 -4.6839129e-02
 -7.5055405e-02
 -8.2074460e-03
 -6.8589699e-01
  2.3759051e-01
 -3.0384958e-01
  7.2982103e-01
  3.6466247e-01
 -1.4478909e-02
 -4.3117817e-02
  2.5973858e-02
  2.0813629e-02
  7.2694063e-02
 -3.7588339e-02
 -8.1122853e-02
  7.3102497e-02
  4.5908190e-02
 -5.4697290e-02
  3.4656987e-02
  9.3482755e-02
  5.3623945e-01
  6.1548140e-02
  6.0860676e-01
 -2.9141508e-02
  5.6558433e-03
  4.0880304e-02
  4.7219630e-02
 -9.9710852e-02
  7.1518128e-03
  7.6619131e-03
 -5.0205830e-02
 -1.7130643e-02
  3.8309578e-02
  4.4212434e-02
  1.4911865e-02
  2.2788070e-02
  3.7902526e-03
 -7.1941628e-03
 -3.1665781e-01
  1.4092907e-03
 -3.4430945e-01
  7.2000206e-01
  5.1008487e-01
 -5.0003950e-02
  3.8008215e-03
 -6.5448061e-02
  5.5279467e-02
  5.1932920e-02
  4.2471349e-02
  9.5237726e-03
 -1.2185633e-01
  1.3602564e-01
 -8.6632013e-02
 -8.7823290e-03
  3.5179082e-02
  8.6917154e-02
 -2.5560802e-03
  3.3559937e-02
 -3.2020500e-03
  6.3653961e-03
 -5.6432880e-02
  4.3936256e-02
  3.6502611e-02
 -3.6810830e-02
  6.1039329e-02
 -4.0513143e-02
 -2.7129573e-03
 -1.5463485e-01
 -8.2085259e-02
  7.2961904e-02
  1.3731982e-01
  3.0056406e-02
 -1.3339715e-01
 -5.9488976e-01
  7.6531225e-01
 -6.9372332e-01
 -9.8621792e-01
  9.8943305e-01
  5.3348155e-03
 -2.6868310e-02
 -1.2394186e-01
 -4.1617248e-03
  2.4946466e-02
  1.5854800e-02
  5.2501597e-02
  3.6847498e-02
 -1.2476417e-02
 -1.6209802e-02
  2.8736176e-02
  1.1931309e-02
  9.9858142e-02
  1.8893685e-02
 -5.2743899e-03
 -2.2236638e-02
  1.8814353e-02
  1.3856634e-02
  1.0686258e-03
 -1.2770041e-02
 -1.7318670e-01
 -1.9021263e-02
  1.0697137e-01
  8.4587540e-03
 -8.9103460e-01
 -7.5379526e-03
 -6.3660662e-03
  6.0958592e-03
 -6.6998950e-03
  8.4099218e-02
  5.1638913e-01
 -5.1505065e-01
  2.5910345e-01
 -1.0355779e+00
 -4.2271149e-01
  6.8217196e-02
 -3.8474966e-03
 -2.4227103e-02
 -4.3126941e-03
 -1.9612608e-02
  1.3318960e-01
 -1.3972008e-02
  2.3339538e-02
  1.0583794e-02
 -4.2727411e-02
 -1.2184567e-01
  1.9254489e-02
 -1.4038730e-02
  1.2031567e-01
 -2.5086012e-02
 -8.3325254e-03
 -8.3242413e-03
 -6.7517400e-02
  1.0429758e-03
 -4.1102264e-02
 -1.7352419e-02
  2.4875181e-02
  2.1142386e-02
  6.0577951e-02
  2.3782024e-02
 -3.9841883e-02
 -4.0510297e-02
  2.9957606e-03
  6.7385897e-02
 -6.3399980e-03
  2.5580576e-01
 -4.8413631e-01
  5.6410664e-01
 -8.8495415e-01
  1.1460525e+00
  7.2564431e-03
 -8.4965378e-02
 -2.1371807e-03
 -1.8841840e-02
  2.4663556e-02
 -7.6026455e-02
  2.1236047e-02
 -3.8101926e-02
  3.5262536e-02
 -8.5606960e-05
 -3.9730757e-02
  1.6882421e-02
  1.7361647e-02
  2.8195646e-02
 -2.1074278e-02
  3.2768801e-02
 -2.4256961e-02
 -2.5192806e-02
 -2.8842492e-02
 -2.7041059e-02
  2.4065785e-02
 -2.5018463e-01
  9.0011442e-03
 -2.0873960e-02
  1.7523825e-02
  5.4478869e-02
 -1.0040687e-01
  3.4589101e-02
  6.0892969e-01
  6.6946074e-02
 -5.2365309e-01
  2.5444475e-01
 -3.6375666e-01
  9.2016560e-01
  4.2530167e-01
 -6.7593865e-02
  2.5849578e-03
 -2.0233106e-03
 -1.7100593e-02
 -1.2421940e-02
 -9.0414479e-02
 -1.0743372e-02
  1.0366333e-02
 -8.8410594e-02
  4.2802911e-02
  1.3454452e-01
 -1.7693132e-03
  5.8608898e-03
  2.8264184e-02
  8.0561660e-02
 -2.7954889e-02
  3.8419366e-02
 -5.2738156e-02
 -2.9893028e-02
 -1.1353987e-01
 -1.1944989e-02
  2.3878613e-02
 -5.8700155e-02
 -7.5557359e-02
 -3.4710601e-02
 -2.2558032e-02
  2.4823107e-02
 -8.2202449e-02
  3.1940114e-02
  1.9954257e-02
 -2.0145032e+00
 -5.7321942e-01
  1.7036663e-02
 -3.4269676e-01
 -1.2714870e+00
  3.0985790e-01
 -5.5549353e-01
 -5.8287913e-01
  1.3341099e-01
 -1.5028714e-02
  1.3158825e-01
 -1.9957408e-01
 -1.1255047e+00
  3.1843480e-01
  2.3562683e-01
 -1.5539974e-02
 -9.9615830e-01
 -1.6841301e+00
  5.7430637e-01
 -2.3612450e-01
  1.3930480e-01
 -8.9491320e-01
 -4.5576144e-02
  2.1234743e-02
 -1.4583847e-01
  9.5893607e-02
 -2.7342740e-01
  6.2125316e-04
  2.3622867e-01
  8.5295374e-03
  1.2194828e-02
  7.7833652e-01
 -2.5533760e-02
  5.1174536e-02
  9.0028399e-01
  3.5485666e+00
 -2.0883375e-01
  1.3514018e+00
 -1.5666752e-01
  2.9085944e+00
 -3.3099726e-02
 -1.0974549e-01
 -4.8404861e-02
 -2.8879562e-02
 -4.5327846e-02
  8.7233242e-03
  3.0646004e-02
 -9.3788421e-03
  5.2699782e-03
  1.3080903e-02
 -4.9886402e-02
 -5.6341004e-02
  7.1599090e-04
  1.9653996e-02
 -2.0268776e-01
  4.3386281e-02
 -6.6049839e-03
 -1.7962415e-02
  5.6520640e-03
  1.9566288e-02
 -8.0278143e-02
 -1.7893212e-02
  5.4423860e-03
 -1.3333490e-01
  9.7326506e-03
  2.6056595e-02
  5.2344013e-04
  6.0732000e-02
  9.1280714e-03
 -6.0782162e-04
 -6.3949925e-01
  1.9333227e-01
 -2.7480465e-01
  8.9442658e-01
  6.2416047e-01
 -3.8709283e-02
  1.3747554e-02
  5.8582268e-04
 -4.4398601e-03
  1.3271688e-03
 -8.0466151e-02
  7.0172489e-02
  5.3712856e-02
  1.7518502e-02
 -2.4856180e-02
  9.9168494e-02
  1.0217921e-01
  4.2617223e-03
  4.2845000e-02
  9.8946253e-03
 -1.2474949e-02
  3.8024742e-02
  7.0698388e-02
  1.5095209e-02
 -1.1758346e-01
 -2.9534260e-02
  5.7501141e-02
  9.4675899e-02
 -9.3850933e-02
  6.2139001e-02
 -2.0017656e-02
 -1.3333870e-01
  7.8314254e-03
  2.4518602e-02
  2.2572860e-02
 -5.4636770e-01
  4.1607621e-01
 -5.3319293e-01
  9.2565954e-01
  4.7378001e-01
 -6.1375258e-04
  1.2545794e-01
 -2.5531210e-02
 -2.7199280e-02
  4.7322314e-02
 -7.0783459e-02
 -1.5288262e-01
  1.5941305e-02
  2.5477668e-02
  3.8607258e-02
 -3.6203686e-02
  1.3330886e-02
  5.6371279e-02
 -4.4521848e-03
 -1.0880822e-03
  9.6292337e-03
 -3.7111681e-02
 -1.1218129e-01
  8.4386751e-02
 -2.2950573e-02
  3.7956813e-03
  9.4261274e-02
  2.4474785e-03
  1.9148803e-01
 -2.3824329e-02
  6.9478147e-02
  3.3537250e-02
  6.4252660e-02
 -9.3844682e-03
 -1.1859485e-02
  2.7485624e-01
 -3.8052353e-01
  4.5941424e-01
 -1.0189720e+00
 -3.2354790e-01
 -9.4518840e-02
  2.1004068e-02
  1.7083696e-01
 -6.5643176e-02
  2.5856329e-02
  1.4167865e-01
  5.1402763e-02
 -9.1158338e-03
  8.4645214e-04
  4.8669625e-02
  5.8105398e-02
 -4.0918637e-02
  2.4776484e-03
  5.6375889e-03
  3.3321425e-02
 -3.0233528e-02
  1.2943894e-01
 -1.6027421e-02
  1.3700244e-02
  1.5580712e-02
 -2.4355913e-02
  4.7195211e-02
 -3.9020717e-02
  1.3798952e-02
 -5.0287105e-02
  1.0425095e-02
 -1.0584324e-01
  1.3372654e-02
  3.1441856e-02
 -9.1490559e-03
  1.1112860e+00
 -6.6940621e-02
  4.8593140e-01
 -9.5090532e-01
 -5.9247637e-01
  2.9863765e-02
  2.1280646e-03
 -2.9887615e-02
  1.7116504e-02
  1.0064702e-03
 -1.1892213e-02
 -1.3767472e-02
  6.3668683e-02
 -1.3349546e-02
  4.6797369e-02
 -2.3716917e-02
 -1.0950673e-01
 -6.3160390e-02
  1.0197455e-01
  6.4316824e-02
 -1.0337832e-01
 -2.4528654e-02
  6.3368477e-02
 -8.2394212e-02
 -6.7488481e-03
  6.2249228e-02
 -2.0689934e-01
  1.1540895e-02
  5.6053095e-02
  3.7925512e-02
  7.6714023e-03
 -8.9562438e-02
 -1.4056690e+00
  1.7392246e-02
  2.6103891e-02
 -5.6773949e-01
  4.1302511e-01
 -2.2368874e-01
  1.0416297e+00
  6.3636053e-01
  3.8117763e-02
 -3.1360351e-03
  1.2854066e-02
 -6.9801077e-02
  1.5627392e-02
  1.0266885e-01
 -1.1781101e-02
 -5.6450352e-02
 -1.4182815e-01
  3.8299434e-02
  6.7659996e-02
 -1.4863931e-02
  3.7596747e-02
  5.3531516e-02
 -2.8116968e-02
 -4.8054136e-02
  6.5070465e-02
 -5.0467178e-02
 -2.2894055e-02
  7.1255073e-02
 -1.5546230e-02
 -1.0388840e-01
 -3.4744695e-02
 -3.1344011e-02
 -3.8138982e-02
 -8.7496545e-03
  2.5888690e-01
  6.2427603e-02
 -8.0432333e-02
 -7.4233472e-02
 -3.0022845e-01
 -4.7111433e-02
  3.5880749e+00
  9.9777335e-01
 -2.9038811e-01
 -3.3226636e-01
 -3.1733632e-01
 -1.2899657e+00
 -1.0582871e-01
 -3.0476215e-01
  2.8547868e-01
 -1.7422250e-01
 -7.8974593e-01
 -2.2950129e-01
  8.5497677e-02
 -2.8608105e-01
 -5.4956722e-01
 -8.1332318e-02
 -1.9219662e-01
  6.4503223e-01
  5.7080489e-02
 -9.4139528e-01
 -2.1656671e-01
  1.0214919e+00
 -5.3747535e-01
  5.9928101e-02
 -1.9627170e-01
 -1.3464780e-02
  2.4345647e-01
  1.5469678e-01
  2.2108503e-02
  1.9937482e-02
 -2.8800799e-02
  1.0421816e-01
  3.3318630e-01
  6.8356442e-01
 -1.1156252e-01
  5.1302347e-02
 -9.6568853e-01
 -2.9975882e-01
 -2.7532324e-02
  1.5677016e-02
 -7.0608333e-02
 -8.1173523e-05
 -3.0870015e-02
  2.0790782e-03
  7.6342188e-02
  4.9886242e-03
  2.3165414e-02
  6.7443836e-01
 -2.2824332e-02
  3.2208577e-02
  1.1905408e-02
 -1.8959710e-02
 -3.1349640e-02
 -1.5450410e-02
 -3.1825647e-04
 -2.7938966e-02
 -1.6432452e-01
 -4.9314041e-02
 -6.1682452e-02
  6.3950263e-02
 -1.0613405e-02
 -3.3076774e-02
 -8.1877671e-02
  5.4590534e-03
  6.2616281e-02
 -1.2953983e-01
  1.2355288e-02
  2.1880865e-02
  6.2924564e-01
 -2.5492126e-01
  1.7943896e-01
 -8.0158770e-01
 -4.3321165e-01
  4.9027171e-02
 -6.6944933e-03
  9.5945142e-02
 -1.5113572e-02
 -1.4522931e-01
  6.7926310e-03
  7.8281336e-02
  2.9312031e-02
  6.0382102e-02
  4.5653682e-02
  2.0867195e-02
 -4.1995429e-02
  1.3236009e-03
  1.0332419e-02
  9.5394716e-02
 -3.1551622e-02
  2.6152048e-02
  2.8794754e-02
  4.1064352e-02
 -8.7590909e-01
 -3.0443503e-02
 -1.9273980e-02
  1.5381664e-02
  8.0100596e-02
 -9.3679436e-02
 -1.1381029e-01
 -7.2802715e-02
 -1.0817648e-03
 -8.2249574e-02
 -3.2883245e-02
  5.8390164e-01
 -3.2172152e-01
  4.8566356e-02
 -9.8627675e-01
 -9.7135401e-01
  9.3746558e-03
  3.2609548e-02
  6.2289711e-02
 -6.0876138e-03
 -7.6694661e-03
  3.7804742e-03
 -1.5225456e-02
 -1.4952566e-02
  1.3458128e-02
 -4.8123620e-02
  4.7924574e-02
  9.4415717e-02
  7.0227996e-02
 -1.2178860e-03
 -3.1171435e-02
  1.7607072e-02
 -4.3438435e-02
  5.9256818e-02
 -5.2628173e-03
  4.9829606e-02
 -3.3115149e-02
  1.0516150e-01
 -4.0287590e-03
  8.0377804e-03
 -3.6973655e-03
 -6.4594783e-02
  9.2179822e-03
  2.7343292e-02
 -7.2463970e-03
  8.9574540e-03
 -3.4092629e-01
  4.9933514e-01
 -5.6577802e-01
  1.0701787e+00
  6.4610291e-01
  3.1624341e-03
 -6.7802660e-02
 -2.6673989e-02
  4.2348452e-02
 -8.8590942e-02
  4.9663357e-02
  1.5502033e-02
 -1.6543829e-01
  4.3863105e-04
  1.6188309e-02
  4.9657710e-02
  5.3143537e-01
  1.0354277e-02
  8.2790896e-02
  8.7271836e-03
  2.7575206e-02
  3.0642960e-03
  3.5293244e-02
 -6.6873878e-01
  7.7105433e-02
 -7.7474341e-02
  2.4374961e-03
  3.5005037e-02
 -6.8175651e-02
  9.8512741e-03
  9.4802538e-03
 -1.0427321e-02
  2.8555451e-03
  1.5839355e-02
 -2.1491235e-02
 -9.2648929e-01
  6.6548154e-02
 -3.5356897e-01
  9.5673263e-01
  9.2001724e-01
 -1.0997989e-01
  2.9141076e-02
  3.8030200e-02
  8.7898493e-02
 -6.2919850e-03
  5.8133148e-02
 -5.3270474e-02
 -1.8300923e-02
  7.5955242e-02
 -2.2254873e-02
  4.5307954e-03
 -3.0017106e-03
 -2.1905599e-02
  1.3237159e-02
  1.7075814e-02
 -2.4064263e-02
 -7.1189068e-02
 -3.8688679e-04
  5.5002574e-02
 -9.5523492e-02
  1.1807928e-02
 -4.5056444e-02
 -6.2708154e-02
 -1.0406263e-02
 -1.2569579e-02
 -4.4178035e-02
  8.0583937e-02
 -2.5043730e-02
  2.8820024e-03
  4.1252200e-02
 -4.2893064e-01
 -1.1957539e+00
 -1.0656564e+00
  1.8177226e+00
  1.1700491e+00
  1.5540179e-03
  4.6787853e-03
  9.8796729e-03
 -1.5664374e-02
 -1.2128481e-01
 -8.7678187e-02
 -1.0772827e-02
  4.3317869e-02
 -7.1270205e-02
  9.5759153e-02
 -8.9339077e-02
 -8.5938759e-02
  4.1770145e-02
  4.5185812e-02
  1.1182874e-02
 -6.0692094e-02
  2.4036046e-02
 -4.5024477e-02
 -3.9598465e-02
 -3.5710547e-03
 -2.8478246e-02
  8.2747176e-02
 -2.1772380e-01
 -1.5728679e-02
  3.0828763e-02
  5.8678625e-04
 -3.1784464e-02
 -3.9712824e-03
 -1.0355022e-02
  3.3303347e-01
  7.0364058e-01
 -1.1442101e-01
  3.2820216e-01
 -7.0186800e-01
 -4.3142739e-01
 -7.1738020e-02
 -2.1351928e-02
  1.3396184e-01
  1.4237130e-02
  3.3074249e-02
 -6.9554076e-03
  4.8072301e-03
 -2.9207695e-02
 -4.6850890e-02
 -1.1955819e-02
  3.3232104e-02
 -1.7028643e-01
 -2.9423727e-02
  9.0260804e-03
 -1.0252600e-01
 -1.2053142e-01
  3.4009755e-02
 -2.7953070e-02
  9.5482580e-03
  3.7036013e-02
 -4.1479673e-02
 -4.8941292e-02
  1.0337081e-02
  3.7773769e-02
 -2.1726901e-02
 -6.1364990e-02
  5.6839172e-02
 -5.8856811e-02
  1.6176337e-02
  2.3492454e-02
 -1.1071301e+00
  1.2653711e-01
 -1.1791746e-01
  7.8988612e-01
  7.7416492e-01
  1.8102193e-01
  3.1054385e-02
  2.7582876e-02
  1.1117628e-02
 -3.8917102e-02
 -9.9022835e-03
 -1.1034681e-01
 -3.3948757e-02
  5.0402690e-02
  5.4466937e-02
  3.1428043e-02
 -2.8623419e-03
 -4.0012743e-02
 -1.3900840e-02
  1.5667619e-01
  1.3777119e-02
 -7.4333183e-02
 -2.1108675e-03
  4.5235008e-02
  1.0803320e-01
 -3.6164373e-02
  9.6308477e-03
  3.1664453e-02
  3.3166108e-03
  7.1318261e-02
  1.5541232e-01
 -1.6403463e+00
 -2.1749044e-02
 -5.7841100e-02
  2.0363556e-02
 -4.3692046e-01
  1.0906549e-01
 -1.4853698e-01
  8.9800948e-01
  1.7234153e-01
 -6.3521932e-03
  1.2424910e-01
  2.1002565e-02
  1.4369300e-02
  1.8129578e-02
 -7.9185534e-03
  5.0163910e-02
 -8.7618306e-03
  5.6736056e-02
 -1.3951828e-02
  1.3366877e-01
 -1.8288253e-02
 -3.3505068e-03
  4.4860378e-02
  1.8556719e-01
  1.0011774e-03
 -8.5531380e-03
 -3.0040037e-02
  2.7073201e-02
  2.8792340e-02
 -1.6311105e-02
  1.2728089e-02
 -2.7149955e-03
 -3.0005813e-02
  5.3566314e-02
 -1.1947191e-02
  1.4623294e-03
  3.8246553e-02
  1.0748963e-02
 -4.4798216e-01
  2.7565084e+00
 -4.2461693e-01
  7.4531740e-01
  2.6513140e+00
  7.0180136e-01
 -5.4778326e-02
 -3.0268595e-01
 -2.7616685e-02
 -2.5198564e-01
 -8.3551288e-01
 -4.1659977e-02
  1.4809773e-02
  7.5135730e-02
  4.3851909e-01
  6.7403331e-02
  1.4614309e+00
 -2.0332347e-01
 -2.7452167e-02
  3.8728118e-04
 -3.3007616e-01
 -1.8483898e-01
  1.4592789e-01
 -3.5025232e-02
 -1.8073471e-01
 -2.6797883e-02
  5.8642287e-02
  1.0015898e-02
 -2.1410637e-02
 -5.5394839e-02
 -5.4335594e-02
  1.0998191e-04
 -9.9708185e-02
 -1.7905623e-02
  1.5587332e-03
 -4.0442161e-02
 -3.3958560e-01
  1.1949182e+00
  1.1892782e+00
  4.8556262e-01
 -1.4166366e+00
  1.4231297e-01
  1.8250114e+00
  1.4830636e+00
  1.1449126e-01
  6.0929561e-01
  3.1321955e-01
 -5.6986593e-02
  9.3571174e-01
  2.6295142e-02
 -1.8663280e-01
 -9.0236984e-02
  1.8714371e-01
  1.0925612e+00
 -5.2595538e-01
  3.7945530e-01
  1.4658038e-01
  1.4247794e-01
 -7.6980679e-03
  1.2965389e-01
 -4.7281355e-02
  6.3223138e-02
  2.0377767e-01
  3.5577990e-02
 -3.3188891e-02
  3.1451102e-02
  4.8249435e-02
 -9.6411601e-02
 -1.0533187e-02
 -1.3122262e-01
 -7.8568852e-01
 -1.1196650e+00
  7.0064358e-02
 -3.6933440e-01
  9.9038243e-01
  4.7928348e-01
 -2.3399139e-02
 -3.2155950e-02
  3.0323325e-02
  6.0194753e-02
 -9.1361916e-03
  1.2501056e-02
  9.3897376e-03
 -4.8888557e-02
  9.6192835e-03
  3.1152500e-03
  1.6825389e-02
  3.1960767e-03
 -4.5445960e-02
  1.1760886e-02
  8.8212620e-03
 -4.5023505e-02
 -7.5428612e-03
  1.7677028e-02
 -5.3973071e-02
 -7.7292189e-02
  4.6829645e-02
  1.2095004e-02
  1.7606461e-02
 -5.4439143e-03
  1.9627234e-02
  1.6028042e-01
 -3.9560359e-02
  4.1605663e-02
  1.3400563e-02
  3.8108237e-02
  5.3239948e-01
 -3.2407072e-01
  4.8597279e-01
 -7.8624940e-01
 -1.5310656e-01
  1.3441065e-02
 -1.3263051e-01
 -2.5157517e-02
  2.2275075e-02
 -3.5820475e-03
  1.2086368e-02
  6.6245948e-03
  1.6858269e-02
  1.9577168e-02
  5.0715722e-02
  3.0501023e-02
  1.2422306e-02
  1.3832242e-03
 -2.9538799e-02
  1.4934040e-02
  5.5259671e-02
  5.5731782e-03
  1.5731979e-02
 -1.2129981e-01
  2.2792926e-03
  2.4626814e-02
  2.9795814e-02
 -3.9036546e-02
  2.2116421e-02
 -2.5572831e-02
  1.0981735e-02
 -7.6053091e-03
  1.5799860e-02
 -9.3516417e-02
  3.1160457e-02
  2.8423820e+00
 -3.2382019e+00
  4.6689767e-01
  1.0185457e-01
 -3.1729057e-02
  2.2585712e-02
 -3.4805890e-02
  2.2181917e-03
 -2.7449723e-02
 -4.6991834e-01
 -2.0273222e-02
 -5.5072960e-02
 -3.4529943e-02
  3.3604372e-02
  1.9156855e-01
  2.9907894e-01
 -8.1458852e-02
  5.0990460e-03
 -4.5922630e-02
 -1.1378242e-01
 -1.8422889e-02
 -2.0398026e-02
 -6.0127806e-02
 -3.1401392e-02
 -7.9994053e-02
 -4.7514122e-02
  6.9629125e-02
 -3.8063239e-02
  3.9733429e-02
  5.5272397e-02
  2.5816364e-02
 -3.5489228e-02
  3.7170280e-02
 -4.9232501e-01
 -3.4491226e-02
 -8.6218995e-01
  4.5331827e-01
 -4.7138348e-01
  1.0730621e+00
  3.7167761e-01
 -8.8552751e-02
 -7.4059598e-02
 -1.3790409e-01
 -9.1843039e-02
  3.3090319e-02
 -6.9581419e-02
 -1.9313593e-01
 -1.1790194e-02
 -8.0470778e-02
 -9.4619757e-03
  4.7320496e-02
 -1.0025606e-02
  7.5613069e-03
  6.3114733e-02
  4.6300083e-02
 -2.0731186e-02
 -3.3377895e-01
  7.4558929e-02
  8.8131420e-02
 -9.0058297e-02
 -6.2319869e-03
 -3.9435361e-02
 -5.6806814e-02
  9.7768903e-02
  3.2211892e-02
  4.5155395e-02
 -1.1654024e-02
  9.6807675e-03
  7.8511320e-02
  6.5875478e-02
 -6.6759217e-01
  1.5375347e-01
 -1.8378137e-01
  9.8374796e-01
  8.2453287e-01
 -1.5862338e-02
  4.7751017e-02
 -1.2767063e-02
 -7.6513357e-02
  1.8260084e-03
  1.9386154e-02
  3.1971809e-02
  2.2196276e-02
  1.4629343e-02
 -9.4005287e-02
 -2.5332386e-02
  4.9693495e-02
  3.2304002e-03
  2.7434459e-02
 -7.6047480e-02
 -2.6587149e-02
 -2.8440489e-02
  6.5787849e-03
  9.5077371e-03
 -3.5656113e-03
  3.5558892e-03
  5.3277905e-03
  6.7423970e-02
  1.1024319e-01
  2.7931591e-02
 -8.0917813e-02
 -1.8420326e-02
  1.7565858e-02
 -2.3156445e-02
  2.1764275e-03
  2.5906851e+00
  2.6844153e+00
 -1.1006812e+00
 -4.4150901e-01
  5.3065389e-01
  5.2956268e-02
 -1.8224746e-02
 -3.0577483e-02
  1.7509674e-01
  1.9664541e-02
 -3.8292259e-02
 -6.9785130e-04
 -1.6374392e-02
  2.5051016e-02
  3.9252403e-01
 -1.9924264e-02
 -2.1336008e-02
 -6.9654156e-03
 -8.5055925e-02
  8.0406833e-03
 -1.9343142e-01
  6.4973440e-03
  3.6174990e-02
 -2.1551901e-02
  5.0480466e-02
  7.4759230e-02
  5.5749979e-02
 -5.4783810e-02
 -2.9852949e-02
 -8.5791736e-04
  7.7296488e-02
 -2.9242490e-03
 -1.6932553e-02
  5.9482221e-02
 -1.2936774e-01
 -4.9477446e-01
  1.0593414e-01
 -5.6723750e-01
  6.0665804e-01
  1.0970498e+00
  6.1385404e-02
  8.1220921e-03
 -3.1100258e-02
 -1.3920258e-02
  2.5864020e-02
  1.6026407e-02
 -8.2607800e-03
  1.0371871e-01
 -1.8239584e-02
  4.3260410e-02
 -4.9596101e-02
 -1.2639294e-02
  1.5468851e-02
 -3.6160573e-02
 -2.5346650e-02
 -4.2695299e-02
  4.0306307e-02
 -1.0236408e-01
  2.8798634e-02
 -9.0245903e-03
  7.8618489e-03
  9.0222023e-02
 -2.8303515e-03
  3.6970310e-02
 -3.5503458e-02
 -4.9833745e-02
  1.4483218e-02
  3.1921092e-02
  1.1821570e-01
  3.6143228e-02
 -8.2547587e-01
  2.8461352e-01
 -3.2382390e-01
  6.5092516e-01
  5.1744252e-01
  1.0164879e-02
  1.4313775e-02
 -2.5748633e-02
 -5.9171515e-03
  5.4725569e-02
  2.8465802e-03
  7.8234971e-03
  3.2018956e-03
 -1.5512810e-02
 -8.7527297e-02
  1.1398403e-03
  2.7661022e-02
  8.3815940e-03
 -2.9094167e-02
 -5.9673309e-02
 -3.7458565e-02
 -2.2096597e-02
  2.4153955e-02
  3.8653776e-02
 -2.7680481e-03
  2.4783448e-03
 -5.6917932e-02
  3.9444696e-03
 -9.2512844e-03
  5.1656447e-02
  1.8584343e-02
 -5.8298025e-02
  1.8039985e-02
  1.1957577e-02
  9.0229675e-02
  7.2512478e-01
 -3.7114692e-01
  2.3354511e-01
 -1.0409906e+00
 -8.6774258e-03
  9.8135471e-03
  2.4708554e-01
 -3.3751982e-03
 -1.8661987e-02
 -2.9101975e-02
  9.8883444e-03
 -4.9685143e-02
  6.9099195e-02
  5.2167274e-02
 -1.5766665e-02
 -2.2379786e-02
  2.1812888e-02
 -3.1316292e-02
  2.4137264e-03
  3.2605607e-02
  9.7761871e-03
  6.3037395e-04
  8.1751473e-02
 -5.5567329e-03
 -3.2812629e-02
  3.1373594e-02
 -3.8079742e-02
  2.4588741e-02
 -1.2297494e-02
  8.7178750e-03
  5.2748546e-02
  3.2959644e-02
  1.1028896e-02
  1.6350947e-02
 -2.2466009e-02
 -4.6879598e-01
  1.1154860e-01
 -3.6882624e-01
  1.1306096e+00
  3.4627065e-01
 -6.1264120e-02
  3.2246962e-02
 -4.1738164e-04
  1.2890608e-02
 -1.7342879e-02
 -5.2410439e-03
 -1.1328553e-01
  3.8042653e-02
  2.2253525e-02
 -1.0162847e-01
 -2.1824993e-02
 -1.3767575e-01
 -9.9145353e-02
 -7.1528694e-03
 -2.4646781e-02
  8.5346892e-02
 -6.9587700e-02
 -1.9527638e-02
 -3.7490264e-02
 -1.0619225e-01
  2.1799887e-02
 -8.4858537e-02
 -1.0548169e-01
  2.0051519e-03
  5.1782664e-02
 -5.3324699e-02
 -6.0034012e-03
  2.4935054e-02
 -7.2126174e-03
  5.9071582e-02
  8.4133095e-01
 -1.8903400e-01
  4.4207951e-01
 -8.2068604e-01
 -3.0403709e-01
 -2.3335785e-02
  1.1605438e-02
  8.2664281e-02
 -1.2001368e-02
  2.6999708e-02
  4.8672281e-02
  7.3942624e-02
  1.6704305e-01
  8.5400818e-03
  4.1164279e-02
  5.1924456e-02
  1.1844894e-01
 -5.0890550e-02
 -2.3042794e-02
  7.4501082e-02
  5.6311902e-02
  2.2141241e-02
  1.0236810e-02
 -2.1662669e-02
  1.2732662e-01
  4.1654326e-02
 -5.6249257e-03
  4.6947870e-02
  8.4140098e-01
  2.0582820e-03
 -3.1324472e-02
 -3.4109310e-03
 -4.3381333e-02
  4.8363224e-02
  1.4673043e-02
 -1.0710332e+00
  1.6163494e-01
 -4.2128843e-01
  8.2751429e-01
  6.7997527e-01
  3.1182917e-03
 -3.6428966e-02
  6.5484062e-02
 -4.7679469e-02
  3.0639391e-02
 -1.5516001e-01
  4.0025521e-02
  5.3116117e-02
 -3.7400179e-02
  1.0073453e-01
  4.3700710e-02
 -1.5245982e-02
 -1.2107388e-01
  2.4168985e-02
  2.7844474e-02
  1.0393801e-01
 -2.0523222e-02
  6.7598731e-03
  2.2095583e-02
  9.3030743e-03
  1.7999196e-02
  2.9164772e-03
  2.8132873e-02
  7.2375243e-03
 -2.4747184e-02
 -2.6997922e-02
  3.6897745e-02
  7.5240232e-02
  1.3640319e-02
 -5.8429902e-03
 -1.5287483e+00
  6.6447392e-02
 -3.2561454e-01
  9.3744588e-01
  2.8748983e-01
  1.5544512e-02
  4.2568352e-02
 -6.4822002e-03
 -7.8824632e-02
  3.0734342e-02
 -2.6842333e-02
 -3.6544144e-02
  3.5340127e-02
 -4.3043457e-02
  2.5453594e-02
  3.5053105e-03
 -2.8795940e-01
  8.6710513e-02
 -8.4715292e-02
 -4.4006766e-03
 -3.3397187e-02
 -1.7456343e-02
 -4.1262630e-02
 -1.3968721e-03
 -9.4464906e-03
 -2.8943975e-02
  5.6954779e-02
  1.3880002e-02
 -2.0846130e-02
  2.4314342e-02
 -1.9588187e-01
 -5.0887056e-02
 -2.1775868e-02
 -1.3957723e-03
 -4.9615181e-03
 -7.4376029e-01
  1.2049760e-02
 -2.6161817e-01
  1.0750463e+00
  6.4690495e-01
 -2.4972405e-02
  3.5835568e-02
  2.3612943e-02
  9.2167079e-02
  2.4627438e-02
 -1.7077265e-02
 -5.4162382e-03
 -1.2592867e-02
 -1.2494148e-01
 -1.9165693e-02
 -2.3850123e-03
  1.3614632e-01
  1.1036240e-02
  8.4284898e-03
 -4.1211803e-02
  3.4757096e-02
  5.0012544e-02
  9.7809158e-02
  3.6524592e-03
 -5.4747220e-03
 -2.9331263e-02
  2.4271434e-02
 -4.7806039e-02
  3.7557803e-02
  1.9216506e-02
 -1.2524146e-02
 -1.1357342e-01
  5.7454411e-02
 -1.1694554e-01
 -2.0097334e-02
 -2.4890171e-01
 -1.9955411e+00
  1.2393936e+00
 -1.9047077e+00
 -3.1205336e-02
  8.3106697e-02
 -1.1860020e+00
 -5.9193146e-01
  1.2917341e-01
 -1.7521312e-02
  3.9843154e-01
  1.0661012e-01
 -2.8267628e-02
  4.0136391e-01
  2.5090000e-01
  5.3117049e-01
 -4.2933132e-02
 -4.6710432e-01
  3.8763214e-02
 -1.1893587e+00
  4.1243249e-01
 -1.1246785e+00
 -2.6455748e-01
 -2.1642181e-01
 -4.9997771e-01
 -3.6530057e-03
 -2.4368273e-01
  7.8527808e-02
  1.9940672e-02
  5.7525549e-04
 -4.2999601e-03
 -6.3947067e-02
 -4.5932006e-02
 -1.3950218e-01
  2.0553451e-02
  6.8767488e-01
 -2.6515403e-01
  4.8899323e-01
 -1.0343817e+00
 -3.6973891e-01
 -2.6784452e-02
  2.3972701e-02
 -2.6885814e-03
 -5.1499754e-03
  2.0354953e-02
  1.3662861e-02
 -1.9387236e-02
 -1.4588459e-02
 -1.4350203e-02
  9.8691545e-03
 -3.5562918e-03
 -7.9678759e-02
 -1.4113742e-02
 -1.5676742e-02
 -1.7401058e-02
  3.5488422e-04
 -3.9651532e-02
 -9.9513002e-02
  1.3392514e-01
  2.5378633e-02
 -1.6994964e-02
 -1.8980604e-02
  4.1708484e-02
  1.4241356e-02
  1.1759257e-02
 -1.9829312e-02
 -4.7592115e-02
  3.2599892e-02
 -3.1125661e-02
 -3.1660475e-02
 -4.3342227e-01
  1.6315154e+00
 -1.6918284e-01
  6.3749671e-01
  4.5378140e-01
  1.4789745e-03
 -1.6332163e-03
 -8.8570621e-03
 -3.2822151e-02
 -4.0796638e-02
  4.4645913e-02
 -1.0859612e-02
 -6.4720204e-03
 -4.0321080e-03
 -8.7430910e-04
  2.7968628e-02
 -2.9319940e-02
  4.0053848e-02
  6.6836521e-02
 -2.5182262e-02
  1.2196494e-02
  6.0193099e-02
 -1.9983361e-02
  5.5088408e-02
  1.0222947e-02
  6.0681760e-02
  6.0794041e-03
 -1.4022799e-01
  2.2269327e-02
 -2.4575872e-02
 -1.7090829e-03
  9.0201246e-03
  1.2998217e-01
  4.5276522e-03
 -5.9303865e-02
  1.8315712e+00
 -2.2490272e-01
 -2.4634390e-01
  1.2386101e+00
  4.1620126e-01
  9.1419771e-02
  1.4497015e-02
  1.3504156e-02
 -1.0300295e+00
 -2.8520837e-01
 -7.3950037e-02
  1.3438888e+00
  4.0115392e-01
  7.1886671e-01
 -1.5012464e-02
  2.6466489e-01
  1.8544891e+00
  1.2144538e-01
 -7.0316340e-03
 -1.0589412e-01
 -1.4191394e-01
  2.1196017e-02
 -1.3255609e-03
 -3.2903400e-01
  2.7935383e-01
 -1.2528048e-01
  4.1273586e-02
  4.3245245e-02
  9.7571844e-03
 -1.3469434e-01
  3.4520943e-02
  7.4085943e-02
 -2.4812101e-04
  1.1301789e-02
 -8.3971612e-02
 -5.2955711e-01
  2.8305280e-01
 -3.2615194e-01
  8.3064389e-01
  2.7901071e-01
 -1.2164819e-01
 -1.9622762e-03
 -9.8363897e-03
  4.1153312e-02
  1.4434990e-02
  1.7292639e-03
  6.2245075e-02
  6.0109418e-02
 -8.7820375e-03
 -5.5292014e-02
  8.1686579e-02
 -2.0731685e-01
  2.4267987e-03
  5.9250716e-02
  6.3286670e-02
 -1.9165400e-01
  1.1652674e-01
  3.9792219e-01
 -3.7886802e-02
  5.2362833e-02
 -1.5714714e-01
  4.0976938e-02
  1.0677091e-02
 -1.5429850e-03
  3.1998135e-02
  1.5036139e-02
 -3.2417044e-02
 -7.3955387e-02
 -4.9209320e-03
 -2.6767341e-02
 -5.2169240e-01
  2.2344849e-01
 -3.6856422e-01
  8.8521898e-01
  2.9780012e-01
  3.2060932e-02
 -1.9616494e-02
  6.3733466e-02
  4.2455390e-02
 -2.6029117e-02
  6.2855687e-03
 -5.0154116e-02
  2.9089598e-02
 -7.2502814e-02
 -9.7300068e-02
  1.0716029e-04
  2.9300451e-03
  1.4103472e-01
 -3.7874978e-02
 -9.8008318e-03
  8.2775559e-03
  5.8506045e-02
 -2.6555916e-02
 -6.6899817e-04
 -5.7266217e-02
 -7.4053975e-04
  1.2162475e-01
  9.1035031e-02
  6.4229490e-03
  1.9691013e-02
  5.3114183e-02
  9.3915500e-02
 -1.2892678e-02
 -3.8265765e-02
  1.5205072e-03
 -7.4274939e-01
 -2.1963792e-02
 -3.1568205e-01
  1.0308875e+00
  7.5209045e-01
 -5.1111124e-02
  1.3935242e-02
  4.2346735e-02
 -1.4881654e-01
 -2.2698520e-02
 -1.5382661e-02
 -8.5078357e-03
 -2.9295592e-02
 -1.0655754e-01
 -5.7247650e-02
 -2.9763352e-02
  1.4737024e-02
 -9.3887441e-02
 -3.0186757e-02
  1.5283748e-02
 -2.4085142e-02
 -1.2630886e-01
  1.3818172e-02
  2.3678806e-02
  8.1197046e-02
 -6.0237788e-02
 -4.7019895e-02
 -4.2445611e-02
 -5.9616357e-02
 -1.5093488e-02
 -4.3924153e-02
 -1.0598630e-01
 -9.0643968e-03
  1.1353881e-01
  2.7878568e-02
  3.3924776e-01
  9.5528847e-01
  2.6407579e-01
  2.0838048e+00
 -1.9129951e+00
  2.5511023e-01
 -2.7299863e-01
 -1.9532678e-01
  1.0953153e-01
 -2.8971430e-02
 -2.7063107e-01
  2.0917070e-01
 -2.6390892e-01
 -3.6026263e-01
  2.7114362e-01
  1.6769992e+00
 -8.9312503e-03
 -4.5771742e-01
  2.0478864e+00
  6.0193199e-01
 -8.1009910e-02
 -1.0543831e-01
  1.9055314e-02
 -9.2059784e-03
 -1.1130642e-02
  1.2725576e-02
 -9.8268032e-02
  7.9225218e-03
  2.5071602e-02
 -8.1712268e-03
  1.6152989e-02
  6.9879711e-02
 -1.5269202e-02
  5.2452751e-02
  5.9987977e-02
 -1.0500951e+00
  4.1217574e-01
 -6.3079941e-01
  8.1893939e-01
  7.7208608e-02
 -9.2401113e-03
  3.6071658e-02
 -2.3389138e-02
  7.6124090e-01
 -4.0683914e-03
  7.1203299e-02
 -1.4444974e-02
  7.8170158e-02
  5.8871154e-02
 -2.8367253e-02
 -1.1572914e-02
  2.6991913e-02
  2.8357169e-02
  7.2324306e-02
 -5.3900797e-02
 -3.7663363e-02
  9.3354313e-03
  1.7982960e-01
 -3.8359609e-02
  1.3608719e-02
 -1.2442508e-01
 -5.0120703e-03
 -7.9291321e-02
  8.0822736e-02
 -9.8686896e-02
  1.2775414e-01
  5.8805052e-02
  8.7036967e-02
 -7.2247095e-02
  2.0897225e-02
  8.4432048e-01
 -2.4253616e-01
  5.5316561e-01
 -8.5929620e-01
 -5.3445464e-01
  3.7049118e-02
 -7.4958406e-02
  7.9673648e-01
  3.3855375e-02
 -2.9105453e-02
  5.7911262e-02
  1.2389079e-01
 -4.3271083e-02
  9.4512224e-02
 -4.5980611e-03
  1.6394565e-02
  3.4535751e-02
  6.0842179e-02
 -3.5118230e-02
  4.6584755e-02
  8.1435069e-02
 -1.5947603e-02
 -8.8589735e-02
  5.3279024e-02
 -2.1910162e-03
 -4.9225111e-02
  6.7858197e-02
  2.6673565e-02
  7.6080739e-02
  2.1337068e-02
 -4.1524727e-02
  1.4747081e-02
  2.8015282e-02
  2.9289292e-02
  7.2496377e-02
  8.6092579e-01
 -1.4200275e-01
  2.8476289e-01
 -4.5719919e-01
 -5.2206665e-01
  1.4346727e-02
 -6.6970043e-02
 -8.4877267e-02
 -4.0332708e-03
  8.8670338e-03
  2.7303737e-02
  1.2413751e-02
  6.8748027e-02
  1.2380847e-01
 -5.1240874e-03
 -8.4297083e-02
 -1.7657485e-02
 -4.9614199e-03
  4.2584617e-02
 -3.4929845e-02
 -8.6044613e-03
  5.1405028e-02
  2.4432816e-02
 -2.7826998e-02
 -1.6056346e-02
  2.5000958e-02
 -1.7097432e-02
 -3.3759005e-02
  1.7834224e-02
  1.2193581e-02
  8.4499702e-02
 -6.0678009e-02
  4.7370836e-02
 -1.3568895e-02
  9.2714438e-03
  7.3525614e-01
 -3.1559434e-02
  2.6636693e-01
 -1.0023725e+00
 -1.7454894e-01
  2.0717867e-03
  4.7016889e-03
  3.3612633e-03
  3.7342086e-03
  4.2981636e-02
  6.1297122e-02
 -9.7428970e-03
  6.5555818e-02
 -2.8539188e-02
  1.1958750e-01
  5.6757955e-03
 -1.7280583e+00
  3.8657815e-03
 -5.3423181e-02
  3.5452105e-03
 -6.1559159e-01
  8.7585792e-02
  1.9845597e-02
 -2.1049308e-03
 -3.9057009e-02
  1.1701737e-01
 -3.6814388e-02
  3.0221071e-02
  1.8716106e-03
  3.6699820e-02
 -7.2231524e-02
 -3.5577226e-02
  4.8048690e-02
  3.8503567e-03
 -1.6257155e-04
  5.8061069e-01
 -2.7148390e-01
  3.6611408e-01
 -1.0370595e+00
 -2.7803272e-01
  3.9096650e-02
 -7.5277621e-03
  2.5380466e-02
  1.1046024e-01
  3.4504782e-02
  7.0822448e-02
 -3.1768769e-02
  2.9769674e-04
  1.6942356e-02
  1.7374178e-02
  3.5712529e-02
 -1.1090029e-01
  1.1262607e-02
 -2.9644907e-02
 -3.0474775e-03
  3.3296689e-02
  5.9764028e-02
 -2.8289970e-02
 -2.4002438e-02
  1.3725694e-03
 -1.2692770e-03
 -7.8327060e-03
  8.4595896e-02
 -1.1929217e-01
  1.4077719e-02
 -2.9731379e-04
 -8.1938587e-02
  5.4443210e-02
 -1.2071871e-02
 -1.6331010e-02
 -6.4310372e-01
  1.9971520e-01
 -2.5480497e-01
  9.0605146e-01
  6.2933356e-01
 -5.4404769e-02
 -2.4794972e-02
  7.5224914e-02
  3.9789010e-02
 -1.9300170e-04
  1.2882873e-02
 -3.1556483e-02
  5.7225380e-02
  3.9030094e-02
  4.7590896e-02
  1.4219227e-02
  1.1075923e+00
  5.5437986e-02
  7.9962417e-02
  6.9932612e-03
 -5.3318893e-03
 -2.6922617e-02
 -1.7969757e-02
  1.0085938e-02
  1.0367910e-02
 -5.6302927e-02
  4.2941462e-02
 -3.7463468e-02
 -7.3716365e-02
  1.5942550e-01
  9.7389659e-03
  8.2803883e-02
  4.1412223e-02
 -8.0920383e-02
 -1.6926198e-01
  6.9437158e-01
 -4.1197148e-01
  2.7875015e-01
 -8.1748486e-01
 -9.1567791e-01
  7.8292221e-02
  4.0160686e-02
  4.6829715e-02
  4.1625861e-02
 -1.3783657e-02
  1.0043499e-01
 -5.8015827e-02
 -9.0281710e-02
  1.3537373e-01
  2.1472932e-01
  5.1430684e-02
  2.2434622e-02
 -9.4342155e-05
  1.4594036e-02
 -8.0281869e-02
  8.4293000e-03
  5.9415251e-03
 -1.0351587e-02
 -8.8311983e-03
  5.5683441e-03
 -6.3238107e-02
  1.3914112e-02
 -5.8837865e-02
 -6.6305064e-02
  4.4639014e-02
  4.0441275e-02
  1.0209532e-02
 -6.7322768e-02
  3.2677542e-02
 -6.2173619e-03
  7.6904404e-01
 -1.2585159e-01
  9.2835122e-01
 -7.8162771e-01
 -7.3158914e-01
 -2.5601150e-02
 -1.8755522e-02
  8.4292620e-02
  4.3998927e-02
 -2.0238543e-03
  3.1657923e-02
  4.0917915e-01
  7.2639100e-02
  3.7877944e-03
 -6.7192689e-02
  1.1608347e-01
  3.9689331e-03
 -3.2594015e-03
 -9.4438516e-02
 -1.9904856e-02
  6.8512387e-03
 -3.3808589e-02
 -8.1134597e-03
  5.9539914e-02
  5.7399157e-03
 -2.8322645e-02
  6.4937635e-03
 -5.2215651e-02
 -5.5638019e-02
 -1.5983563e-02
 -1.3690583e-02
 -1.2893781e-02
 -3.2304499e-01
 -1.7500253e-01
  3.0963819e-03
 -2.5799114e-01
  1.9212678e-01
 -3.6203799e-01
  6.9908047e-01
  5.4221797e-01
 -5.6637798e-02
 -6.3436449e-02
 -5.8748025e-02
  5.8871079e-02
  4.3691783e-03
 -8.1992606e-03
 -6.2702008e-02
  2.0895168e-02
 -8.7397555e-03
 -1.9178297e-01
  2.5692135e-02
  4.3467164e-02
 -2.4443200e-02
 -5.4515772e-02
  7.1598411e-01
  1.0330651e-01
  1.6628224e+00
  2.2356939e-02
  1.7705323e-02
 -6.7794425e-03
  3.9920263e-02
 -3.1582542e-02
  1.5636021e-02
  1.8182470e-02
 -1.2305081e-03
  1.6545333e-02
 -1.1778259e-01
 -4.5568984e-02
 -8.8940926e-02
 -2.7881829e-02
 -8.9347422e-01
  3.2352111e-01
 -2.4795100e-01
  1.5328008e-01
  4.9895334e-01
  3.6199007e-02
  7.1198963e-02
 -4.9644761e-04
 -3.7348323e-02
  4.2185720e-02
 -9.3349498e-03
 -7.2177984e-02
 -6.9153029e-05
 -1.2060908e-01
 -4.9109474e-02
  1.2333144e-03
 -7.7346599e-01
  6.8262345e-03
  2.3217870e-02
 -2.1943519e-02
  6.4407662e-02
  2.1783857e-02
  1.1538359e-02
 -4.8303291e-02
  3.9210636e-02
 -3.2592990e-02
 -2.9615339e-04
  1.0532718e-02
  4.8816524e-02
 -1.7618822e-02
  4.0631212e-02
 -2.4033900e-02
  8.0897287e-03
 -7.5305015e-02
 -1.5260532e-02
 -4.5598951e-01
  2.0605001e-01
 -3.2942265e-01
  8.1995010e-01
  6.7823440e-01
 -2.7451057e-02
 -4.5206923e-02
 -2.3898105e-03
  4.9814135e-03
 -8.2875140e-02
 -5.3964414e-02
 -1.1046245e-01
  6.8331049e-03
 -4.7861625e-02
 -3.0631770e-03
  2.5415074e-04
 -3.3503991e-02
  5.7870420e-03
  1.0624036e-01
  8.6714298e-02
 -1.2916043e-01
  2.9172769e-02
 -5.5151749e-03
  3.3153657e-02
  3.1801872e-02
  4.5777461e-03
  2.8680539e-04
  1.1336093e-02
  1.0236131e-01
 -9.1266548e-03
  2.3062523e-02
 -5.5768274e-02
 -3.8759883e-02
 -9.0521723e-02
 -1.0129868e-01
 -1.2307950e-02
 -7.9884362e-01
  9.5823830e-01
 -1.5137209e+00
 -4.5368832e-01
  8.9800380e-02
  8.4459953e-02
  8.5684711e-01
 -1.6658809e-02
  1.1593637e-01
  1.3096420e-02
  4.4901360e-02
 -4.1400198e-02
  1.4082648e-02
  5.0349556e-02
 -2.0224998e-02
 -8.8129984e-03
 -9.5211379e-03
 -2.7121861e-02
 -2.3748625e-02
 -3.4582838e-02
 -8.8589102e-02
  6.7599826e-02
  1.0810615e-02
  6.3323125e-02
  8.9089118e-02
 -6.5775234e-03
 -1.7558943e-02
  3.4883667e-02
  4.7748413e-02
  4.4145789e-02
  1.0187228e-01
  2.0993650e-02
 -7.5396979e-03
  4.3141926e-03
  1.4533073e+00
  1.6426327e+00
  1.3749006e+00
  2.4031963e+00
 -1.8296900e+00
 -2.4028425e+00
  1.6264942e+00
 -1.2242346e+00
 -1.7751665e+00
  1.7889624e+00
  1.6599871e+00
 -1.8054321e+00
 -1.7123504e+00
  1.6614629e+00
  1.2496828e+00
 -1.4605052e+00
 -1.5488464e+00
 -1.6268977e+00
  1.8787241e+00
  1.7640917e+00
  7.4823076e-01
 -1.2875501e+00
  1.2584112e+00
  1.5168848e+00
  3.3430986e+00
  2.0149832e+00
  9.3572211e-01
 -1.6321073e+00
  4.2281227e+00
  1.5153253e+00
  1.3643653e+00
  2.7809870e+00
  1.3589451e+00
  1.5331488e+00
 -1.4685955e+00
  1.3760678e+00
 -1.3663874e+00
  1.5984616e+00
  1.7130859e+00
  1.4920419e+00
  6.4417213e-01
 -1.7176737e+00
  1.0855236e+00
  2.4930131e+00
  1.9758023e+00
  1.5689391e+00
  1.3169819e+00
  4.6695438e-01
  1.7082455e+00
 -1.3316433e+00
 -1.5112396e+00
 -1.3914831e+00
 -1.6070426e+00
  1.6861207e+00
 -1.6255137e+00
 -1.3121526e+00
  1.5294788e+00
  1.4157183e+00
  1.4332626e+00
 -3.6706081e-01
  2.6015980e+00
  8.9396095e-01
  3.9035466e-01
  2.2784214e+00
 -3.2450080e+00
 -1.4915826e+00
  1.1454448e+00
 -7.6765317e-01
 -3.0800772e+00
  2.3815186e+00
  2.2671301e+00
 -2.3008811e+00
 -3.8276894e+00
  2.2839375e+00
 -4.7573891e-01
 -9.4885480e-01
 -1.0460218e+00
 -2.4123662e+00
  4.2092957e+00
  3.7166760e+00
  7.9625165e-01
 -7.0035708e-01
  1.2568645e+00
  5.8842659e-01
  1.9962739e+00
  1.9390104e+00
  6.2357974e-01
 -1.2583702e+00
 -1.2057349e-02
  1.9731179e+00
  1.6078928e+00
  2.3858962e+00
  8.5744828e-01
  1.3696746e+00
 -9.5679176e-01
  9.6491045e-01
 -1.0011495e+00
  3.5166461e+00
  3.3855639e+00
  2.1768489e+00
 -1.5080211e+00
 -3.3386779e+00
  9.0659148e-01
  2.2555141e+00
  3.2484350e+00
  1.3286802e+00
  1.0185958e+00
 -2.6229343e-01
  3.5277269e+00
 -1.3754607e+00
 -1.3088529e+00
 -9.3527997e-01
 -1.3013999e+00
  2.4013758e+00
 -3.1197872e+00
 -2.2076254e+00
  7.5971782e-01
  7.2389883e-01
  8.1983089e-01
 -6.9999880e-01
  8.7597311e-02
  2.1321544e-01
  1.0173811e-02
 -1.4303950e+00
 -4.5795549e-02
  4.2172689e-02
  2.9996302e-02
 -2.2694400e-02
 -1.4740467e-01
  8.5328862e-02
  4.6669148e-02
  4.9421608e-01
  5.2432343e-02
 -7.4551022e-03
  5.6578670e-02
 -4.1043617e-02
  3.0580211e-02
  2.5408531e-03
 -8.8113815e-02
 -4.8955873e-02
  4.0892232e-02
  5.4306384e-02
 -2.8399585e-02
  5.3160429e-02
 -5.4126054e-02
  2.0491666e-01
  1.7499082e-03
  1.8098148e-02
 -9.1030203e-02
 -4.8658620e-03
 -8.6645754e-03
  5.4394275e-02
  2.1888269e-02
  5.6334015e-02
  5.7194833e-02
 -6.1491042e-02
 -4.1796061e-01
 -7.8799091e-02
 -1.8888488e+00
 -2.0792198e-01
  9.0255834e-02
  1.1987059e-01
  7.3985942e-02
 -3.0161504e-02
 -1.6991490e-01
 -9.6409945e-03
  1.0563638e-03
  5.8238637e-03
 -3.4515683e-02
  1.8878789e-03
  2.7069509e-02
  1.2242748e-02
 -1.1721729e-02
  1.4460434e-01
 -8.7316237e-02
 -1.6152952e-02
 -3.6100227e-02
  1.4312875e-01
  6.7150541e-02
 -1.9828279e-03
  3.1144459e-02
  5.0526258e-02
  3.3138201e-02
 -5.6712255e-02
 -1.5240816e+00
 -2.0021545e-02
  1.6665513e-02
 -8.8767454e-02
 -1.9801906e-01
  3.5692021e-02
 -7.0103809e-02
  1.0017561e+00
 -4.3109380e-02
  5.4705572e-01
  1.5997007e-02
 -2.0485817e-01
 -1.1325360e-02
 -3.6739707e-02
 -2.3644719e-02
 -2.7645119e-03
 -8.8245697e-02
  1.3301271e-03
 -9.2462525e-03
  3.1988371e-02
 -1.0823773e-01
  2.0595785e-04
  3.6753938e-02
 -2.4022949e-03
 -1.3497835e-02
  4.6493035e-02
 -1.4715399e-01
  3.0504754e-02
 -4.2360045e-02
  4.0880236e-01
  1.7669495e-02
 -1.8337592e-04
 -2.4080826e-02
 -5.4448701e-02
  1.5339153e-01
  2.6767706e-02
  4.9586189e-03
 -2.4456084e-02
  2.7195998e-02
  1.0356075e-01
 -5.8339838e-02
 -7.9487562e-02
  3.0738881e-03
 -2.4056884e-02
  1.8049338e+00
  1.2816015e-01
  9.4812900e-02
 -6.5215848e-02
  4.5455746e-02
 -2.4754709e-02
 -1.6443260e-02
 -9.1123229e-01
  2.3781620e-02
  4.1395426e-02
 -4.8992086e-02
 -6.5753482e-02
 -3.2714865e-04
 -2.5354812e-02
 -5.3662460e-02
 -6.5461718e-02
 -2.3543365e-02
  9.6745305e-02
 -3.1023435e-02
 -3.7181836e-02
 -7.1208544e-02
  6.1128479e-03
  1.9129721e-02
  3.8262483e-02
  2.4427818e-02
  3.8099412e-02
 -2.1502529e-01
 -8.8459954e-02
 -1.7788032e-02
  4.0353698e-01
  9.2136145e-02
 -5.5287715e-02
 -3.6219008e-02
 -6.6270125e-01
 -4.5334507e-02
 -1.4465529e-01
 -4.2665645e-02
 -5.6304657e-03
  4.3251809e-02
  7.9658935e-03
 -1.2259868e-02
 -2.3547168e-01
  3.3486632e-01
  1.2131350e-01
  3.1694770e-02
 -8.8237122e-02
  1.0117981e-01
  1.6863322e-02
 -3.3947479e-02
  1.1880641e-01
 -2.7815888e-02
  3.2581575e-02
  4.9109724e-03
  4.5273442e-02
  9.1474555e-02
  2.5564285e-02
 -7.7876307e-02
  5.3372990e-02
  1.3507906e-01
 -1.6396904e-02
  1.4325302e-02
  1.1732057e-01
 -7.6305576e-02
  1.7443305e-02
  2.6796488e-02
  7.5746812e-03
  4.9703497e-02
 -5.3970382e-02
  2.1642850e-01
  7.7157944e-02
  1.5604961e+00
 -1.4054117e-02
 -3.9338950e-02
 -2.3617025e-02
 -8.9581907e-02
 -1.1455350e-02
 -7.4838161e-02
 -2.9714748e-03
  9.3672536e-02
  6.7420654e-02
 -6.0291905e-03
 -4.9114912e-03
 -6.3379430e-03
 -3.5600464e-03
  1.6488681e-02
  1.0479143e-01
 -2.3634993e-02
 -1.8903150e-01
  1.3663180e-01
 -3.8272873e-03
 -6.6115350e-02
  2.0573484e-02
  7.6495022e-01
  1.5709533e-01
  2.2929410e-02
  1.4598540e-02
 -1.5516581e-02
 -6.3967532e-01
 -3.5290800e-02
  2.0136274e-02
 -1.4777225e-02
 -2.2317055e-01
  6.6796690e-02
 -1.9157192e-01
 -3.9259285e-02
 -1.9849604e+00
 -7.5786777e-02
  1.9355766e-02
 -6.0705781e-02
 -4.2884283e-02
 -9.3011362e-03
  1.0944217e-01
  3.6916744e-02
  1.0376439e-01
 -3.7837708e-03
 -1.4927651e-01
  3.8264293e-02
  3.2197714e-01
  2.9882652e-04
  8.9217508e-03
 -3.9187782e-03
 -1.2285193e-02
 -2.6988867e-03
 -3.1655744e-02
 -1.7336945e-03
  8.3587645e-03
  3.5244096e-03
  2.0670025e-03
 -1.2185269e-02
 -3.8577162e-03
 -4.3358519e-03
 -6.8807650e-01
  9.3823411e-02
  6.4702079e-02
  3.8738150e-02
  3.9235096e-02
  8.2759947e-02
  1.0240516e-01
  4.5256591e-03
 -2.5967984e-02
 -1.7750816e+00
 -3.8962014e-02
  3.9203230e-02
 -1.4231982e-02
 -1.4920371e-02
  5.6787878e-03
  7.0062801e-02
 -3.7454139e-02
 -3.3249182e-01
  5.5192083e-02
  6.9040835e-02
  3.1579506e-02
 -3.1074282e-02
 -5.3924486e-02
 -3.6410712e-02
  5.5552445e-02
  1.6438946e-01
 -3.2171920e-02
  1.5363994e-01
  5.9525218e-02
  2.8780965e-02
  6.3358501e-02
 -1.6862670e-02
 -4.3463029e-02
  9.2270203e-02
  2.2109614e-03
 -2.3725301e-02
  1.7915877e-02
 -6.8256356e-02
 -4.5716163e-02
  7.8980573e-02
  8.7816212e-03
  9.1475071e-03
 -3.4046486e-01
  2.3552174e-02
 -1.9591128e+00
 -3.7689019e-02
  2.4327042e-03
  8.2139447e-02
 -7.3146187e-02
  2.1034636e-02
 -6.8815551e-03
  1.4564375e-02
 -4.6768192e-02
 -9.0942876e-03
  1.8517705e-02
  3.9601505e-02
  3.8460720e-02
 -4.8645314e-02
 -2.2662865e-02
  3.4832831e-02
  9.0085596e-02
 -4.2950355e-02
 -1.5465792e-02
  4.9216640e-03
 -4.9030669e-02
  2.0409429e-02
 -3.6472801e-02
  9.3032978e-02
 -1.0966405e-01
 -1.1836849e-01
  4.9015082e-02
  6.3165702e-02
  2.3726870e-03
 -1.9942634e-02
 -8.5497074e-02
 -4.0806711e-02
 -1.0698029e-01
  1.5613200e-01
  2.2580260e-02
  1.6046323e+00
  1.6978978e-01
 -5.7942969e-01
 -1.4836304e-01
  3.5950527e-01
 -6.0956557e-03
 -1.1542738e-01
 -1.5797828e-01
 -1.1860829e-02
 -4.1661471e-02
  2.6433943e-02
  2.1082863e-02
 -1.6438371e-02
 -6.3883751e-03
  7.9902165e-02
 -5.3463344e-02
  1.4247219e-01
 -7.7994958e-02
 -7.3156948e-03
  6.8899520e-02
 -3.1603709e-02
  6.7243688e-02
 -3.6939226e-02
  2.3635652e-02
 -3.1720717e-02
  1.0526787e-01
 -7.7871704e-01
  1.0739995e-01
 -1.2324272e-02
 -1.4053307e-02
 -3.2297850e-02
 -3.1685117e-03
  2.8571904e-01
 -6.4732486e-01
  2.3030531e-01
  7.1057945e-01
 -1.1997947e+00
  1.5158038e-01
 -1.1703416e+00
  3.5014078e-02
 -7.4995828e-01
 -2.4708056e-01
  3.7276381e-01
 -6.6233051e-01
  7.5127286e-01
 -1.8022768e-01
  8.5099828e-01
  1.1210492e+00
 -3.1961337e-01
 -1.1446957e-01
 -9.8993343e-01
 -5.9256095e-02
  1.2281237e+00
 -1.1846862e+00
 -2.0241788e-01
 -4.2692047e-01
  2.1777958e-01
 -1.7147429e-01
 -4.4253532e-02
 -1.9760007e+00
 -1.7358217e-02
 -1.4174093e-03
 -4.1391202e-03
  3.4053534e-01
 -3.0720536e-02
  5.5916017e-01
  2.2609229e-01
  3.5897814e-02
  1.7419112e-01
  4.2346779e-02
  1.9550369e+00
  2.6733598e-02
  1.0064445e-02
  4.5543420e-03
 -3.5102288e-03
  3.9384969e-02
 -1.1726689e-02
 -1.6091377e-01
  6.1249275e-02
 -6.9201980e-03
  4.9701102e-02
 -5.8783811e-02
 -2.2458455e-01
  1.9060086e-02
  1.7301828e-02
  6.8213418e-02
 -7.1130984e-02
 -8.8073753e-02
 -6.2486809e-02
 -1.0303330e-01
 -1.3418454e-02
 -2.9827285e-01
 -1.2366394e-01
 -6.6303365e-02
  3.7986811e-02
  1.0813496e-02
 -4.0320889e-04
 -1.9300412e-01
  9.7089950e-03
 -1.5913717e-02
  5.1620789e-03
 -4.8382217e-03
 -2.4427831e+00
  1.4888496e+00
 -1.0112773e+00
  1.9094311e-02
 -2.7209461e+00
  2.5363576e-01
 -1.4249472e-01
 -7.0068866e-02
  9.2316329e-02
 -2.0436101e-01
  3.1484880e-02
 -6.9184393e-01
  3.3563805e-01
 -1.4913639e-01
 -8.5144633e-01
 -1.0500818e-01
 -1.2172428e+00
  4.7028802e-02
 -1.3891141e-01
 -7.6298423e-02
 -2.5715327e-01
 -1.7612071e-01
  7.0362531e-02
 -1.6438445e-01
 -5.8853048e-01
 -3.7852004e-02
  2.8129045e-02
 -7.0856265e-03
  2.8880481e-02
  3.7266091e-02
 -1.8863270e-02
 -6.1337605e-02
 -2.9810613e-02
  1.3636805e-01
  1.3358526e-01
 -9.5422395e-02
  6.7383134e-01
 -1.5777551e-01
  1.7230338e+00
  5.3060842e-03
 -9.3147503e-03
  8.1036195e-02
  5.7454634e-02
  2.3189740e-02
 -3.6556732e-02
 -1.6046621e-01
 -7.5944766e-02
 -2.7030615e-02
  8.5028745e-02
  2.0006645e-02
  1.3537396e-02
  1.4225386e-01
 -7.1458884e-02
 -8.7664224e-02
  4.6712752e-02
  5.7674076e-02
  9.9594101e-02
 -4.4592045e-02
  5.9762854e-02
  6.7331672e-02
 -3.5317216e-02
  4.4120759e-02
 -2.1563806e-02
  8.1020836e-03
 -6.4104401e-02
  1.0158691e-01
 -1.0079684e-02
  7.2021880e-03
 -1.5259191e-01
 -2.2604398e-02
  3.5452697e-02
 -6.7669851e-01
 -6.1623123e-02
 -1.6812811e+00
 -1.0718769e-01
  6.6856503e-02
 -6.9858074e-02
  6.4780056e-02
  2.1721093e-01
  2.9475307e-02
  2.0556187e-02
  4.1465804e-02
 -1.0553188e-02
  2.1141937e-02
 -5.3996022e-04
  1.1701255e-01
 -1.0682397e-01
  2.0723853e-02
  4.6288189e-02
  4.9833119e-02
  3.9590947e-02
  8.4855817e-03
  5.3999383e-02
  2.3915531e-02
 -2.3569644e-03
  9.7762808e-02
  2.8723337e-02
  1.7206170e-02
 -3.6044061e-02
  8.1080049e-02
  8.1196971e-02
  7.3514087e-03
  2.0796269e-02
  4.5974976e-03
 -1.6605545e-02
  6.6874385e-02
  3.6668435e-01
 -1.3158269e-02
  1.4376113e+00
  8.8695668e-02
  9.8338351e-04
 -2.7397417e-02
 -9.2137663e-05
  3.3032417e-02
  2.6384052e-02
 -1.2236292e-02
  1.1060738e-02
 -5.3327944e-02
  7.8823678e-02
  3.3061046e-02
  2.2785733e-03
  5.2603696e-02
  3.9464656e-02
 -3.0041801e-02
 -1.3009436e+00
  1.4579169e-02
 -3.2174747e-02
 -1.3470592e-02
 -8.3042033e-02
  5.2051067e-02
  3.7378721e-02
  4.2637255e-02
 -4.8609719e-02
 -8.4033124e-02
  4.3187030e-03
  4.3433413e-02
 -2.0145437e-02
  7.6026283e-02
 -1.1937930e-01
 -1.1471386e-01
  5.8159731e-02
 -2.6129046e-01
 -5.1158533e-02
 -1.5121288e+00
 -1.2009807e-01
 -9.1407374e-03
  1.9803932e-01
 -2.7765376e-02
 -6.6122480e-02
 -3.0527253e-02
  1.2581040e-01
 -1.1330236e-02
  4.6799317e-02
 -8.2413331e-02
  1.7376736e-02
  1.0422713e-01
  5.4819621e-03
 -3.3235918e-03
  2.6946228e-02
 -1.2718269e-02
  8.9490563e-02
  8.9193389e-02
  1.3908753e-01
  1.0610067e-02
 -2.9119778e-02
 -2.7169241e-02
  4.4341534e-02
  1.1962820e-02
 -8.7836813e-03
  3.4574389e-03
 -5.6963596e-03
 -7.3309285e-03
 -4.9880259e-03
  2.9595105e-02
  1.1792764e-01
 -2.4463752e-02
 -8.6288281e-02
 -5.9305385e-02
 -1.8016050e+00
  5.3666476e-02
  4.2508721e-02
  5.7104770e-03
 -4.3193094e-02
  1.5792811e-02
 -7.1764752e-02
 -2.5992256e-02
  1.6753283e-01
 -9.9965511e-03
  1.3689730e-01
 -5.2049351e-03
 -2.2848800e-02
 -5.4711893e-02
 -6.8702035e-02
 -1.0333295e-01
  2.3219427e-02
 -4.3456346e-02
 -2.2672556e-01
  2.6500834e-02
  2.2091754e-01
  3.2304313e-02
  6.5950476e-02
  9.5862143e-02
  6.1936826e-02
 -4.0780626e-02
 -1.4522202e-01
 -6.1020505e-02
  6.5110728e-02
 -3.5818022e-02
  1.0145673e-02
 -1.1419442e-01
 -5.2161656e-02
  5.3281206e-01
 -9.3879260e-02
  2.0030706e+00
 -2.3746030e+00
  9.6164845e-02
  1.8879878e-03
  6.4280755e-03
 -1.0189919e-02
 -1.5780365e-01
 -1.5628318e-03
  5.0079804e-03
 -1.8932793e-02
  3.2129701e-05
 -1.4439915e-02
 -6.9765761e-02
  9.5103029e-03
  1.5099228e-02
  8.0918685e-02
  1.1607063e-01
 -8.6315274e-03
 -1.2341565e-02
  6.1237410e-02
  2.7043737e-02
 -1.4500779e-01
  2.0878686e-02
 -1.8012688e-02
 -1.0561058e-01
  1.2097199e-01
  1.1513224e-01
 -9.0747438e-03
  4.7436312e-02
 -1.5542374e-02
  1.3845056e-02
  2.9422462e-02
  4.3781009e-02
 -9.3103498e-01
  1.9249655e-02
  1.8897898e-01
 -1.2898464e+00
 -3.4929672e-03
  5.3857327e-03
  1.1611325e-04
 -2.6539311e-02
 -1.8014137e-02
  1.0335798e-01
 -1.3498971e-01
 -1.2431997e-02
  1.7573403e-02
 -2.5804818e-02
  2.4398090e-01
 -8.2308806e-02
 -5.6148745e-02
 -1.7476471e-02
 -5.0965525e-02
  8.8845938e-02
  7.0498809e-02
 -2.8872766e-02
  4.7622852e-02
 -4.8674498e-02
 -7.3690362e-02
  2.6214018e-02
  1.5171201e-02
  1.0449340e-01
  1.0126271e-01
 -1.4891328e-02
 -4.1391071e-02
 -3.9765998e-03
  1.5293768e-01
  2.4756355e-02
  9.6560314e-02
  1.0289809e-01
  3.7237730e-02
  1.6088552e+00
  7.5750813e-02
  2.1876149e-02
 -6.7360812e-01
  5.1263724e-02
  7.1799508e-03
 -4.6830580e-02
  1.2524890e-02
 -2.9499387e-02
 -2.2020102e-02
  1.9586433e-02
  2.5451465e-02
  7.6993927e-03
 -4.7807891e-02
  7.2608003e-03
  2.3466252e-02
  5.1787868e-03
 -7.4973337e-02
  1.2285177e-01
 -1.2056729e-01
  7.2416894e-02
 -1.8536497e-02
 -6.0341738e-02
  3.9420612e-02
  2.6673675e-04
  2.4696536e-02
 -1.6187166e-01
  1.8429199e-02
  2.9036751e-02
  2.0263763e-01
 -2.6149359e-02
  4.0789522e-02
  4.7363155e-02
  4.5157668e-01
 -2.3500474e-02
  1.7860709e+00
  7.4770615e-02
 -4.2709708e-03
 -5.9952278e-02
  3.1144723e-02
  1.2915905e-02
 -8.2445055e-02
 -3.0479364e-02
  8.8898242e-03
  2.2089683e-02
 -4.7674928e-02
  5.9711337e-02
 -5.9439395e-02
 -1.5207829e-01
 -1.1977064e-02
 -2.6160313e-02
 -2.5429282e-02
 -5.2884314e-02
  5.0539733e-03
 -6.6030324e-02
 -2.2344012e-02
 -4.2108700e-02
 -1.0976285e-01
 -3.1805620e-02
 -6.7226358e-02
  1.0428055e-01
 -2.9159242e-02
 -1.9603949e-02
 -1.2540088e-02
 -9.2243403e-03
  1.5146480e-02
 -4.1602515e-02
  8.5959709e-01
  5.2309662e-01
  8.3631539e-01
  6.9422328e-01
  5.7622463e-01
 -5.9510902e-02
  5.8964878e-01
 -1.9975714e-01
 -1.5008613e-01
  2.1755300e-02
  4.6161830e-01
  3.1176603e-01
 -9.0887702e-01
  5.2202945e-03
  2.1350308e-01
 -8.2032084e-02
  8.1850237e-01
 -4.5061141e-01
 -5.1175964e-01
 -5.5357593e-01
  6.4391297e-01
  5.0934080e-02
 -1.2042900e-02
 -1.7910492e-02
  4.0863869e-03
 -5.6416750e-02
 -2.0026732e-02
  3.1802556e-03
 -3.9462708e-02
 -5.6798127e-03
  4.4301331e-02
 -2.0766529e-01
  1.4579247e-01
 -3.8387141e-01
  1.7493326e-02
 -2.2364233e-02
  9.8525190e-01
  2.4065061e-02
 -2.7653540e-02
  1.7933129e-01
  5.0199628e-01
 -1.1317017e-01
 -9.0450317e-02
  1.4469794e-02
  2.2632850e-02
  6.4291462e-02
 -1.1142117e-02
  1.1583526e-01
  4.0514439e-02
  1.7994799e-02
  2.3052357e-01
 -7.5167999e-02
  1.9814152e-01
 -1.1542643e-01
 -1.3504150e-02
  3.0621499e-02
 -1.9091381e-02
 -2.0008028e-02
  8.0793642e-02
 -1.9944225e-02
 -4.5191608e-02
 -6.5553732e-02
  2.7634822e-02
 -3.5371237e-02
  1.6095493e-02
  1.1279912e-01
  1.0492666e-02
 -7.4764997e-01
  8.1670210e-02
 -1.0875481e-01
  3.6761720e-02
 -7.5232096e-02
  1.0349845e-01
 -1.7273600e+00
  8.4845491e-02
  1.3407353e-01
  2.3661561e-02
  1.9073488e-02
  1.6678278e-01
  4.3938910e-03
  3.7255045e-02
  6.9069520e-02
  5.9633672e-02
  1.0806146e-02
  1.0210091e-02
  4.5983121e-02
 -2.2504136e-02
  1.5139632e-02
  8.5106283e-02
 -6.2947646e-02
  7.9960274e-03
 -1.6131770e-02
  2.4785019e-02
  4.2908177e-02
  8.9930864e-03
 -2.1245426e-02
 -2.8630221e-02
  2.8796706e-02
 -2.2630801e-02
  3.7546378e-02
  4.6077603e-03
  2.6310155e-02
  1.8440822e-02
  5.1403891e-02
 -6.8064436e-02
 -2.0172153e-02
  1.6539185e+00
 -3.1897444e-01
  9.2662889e-01
  2.6068436e-02
  4.2358651e-03
  3.8003046e-02
  1.9750385e-02
 -4.0573820e-02
 -4.5068324e-02
 -1.8837193e-01
 -1.4367371e-02
 -5.3715982e-02
 -8.0871694e-02
  9.3182800e-03
 -1.1446980e-03
 -6.9588862e-02
  2.0889633e-03
  1.1526394e-02
  4.8614521e-02
  2.8768962e-03
  7.0168548e-03
 -1.3297833e-02
 -1.6183414e-02
 -1.6030914e-01
 -1.6933050e-02
  5.2099890e-04
 -2.7297700e-02
  1.7034313e-02
 -3.5503417e-02
  1.5533701e-01
  7.7981122e-02
 -5.1428236e-02
 -2.2910334e-02
  4.6524584e-02
 -8.4226698e-02
  1.2111475e-01
 -3.3989143e-02
  1.3841784e+00
  9.2562795e-02
 -5.4638647e-02
  1.5545409e-02
 -6.7423910e-02
  2.4158228e-02
  1.8304117e-02
 -8.9493673e-03
 -5.4906197e-03
  2.2183890e-02
  6.1051499e-02
  4.0681750e-02
 -2.2719294e-01
 -4.1146018e-03
  1.9771839e-03
 -1.5074711e+00
  1.0495526e-01
  4.3406254e-03
  6.7301981e-02
  1.7789260e-02
  2.7137903e-02
 -5.2133403e-03
 -1.8148530e-02
  5.5828743e-02
  3.0423547e-03
 -6.9667515e-03
  1.2637472e-01
 -5.0402433e-02
 -2.2502204e-02
 -2.7011877e-02
 -7.1892597e-02
  6.3079796e-03
  1.5034376e-02
 -3.2782310e-01
  1.7171055e-02
 -1.5424918e+00
 -4.7804553e-02
 -3.5743956e-02
  3.6386054e-02
 -1.2840115e-01
  2.3788329e-02
  1.5582145e-02
  2.8482357e-02
  1.8674187e-02
 -5.7036120e-02
  2.2442054e-02
  3.9383627e-02
 -4.2001363e-02
  2.4889814e-02
  3.0550262e-02
  1.2095610e-01
 -2.4816019e-02
  1.3690921e-02
  7.7991434e-03
  6.2853396e-03
  4.8989613e-02
  7.3720455e-02
 -5.8170162e-02
 -4.6975195e-02
 -6.0398085e-04
  1.8753996e-02
 -1.8664848e-02
  5.6687091e-02
 -1.8845215e-02
 -1.2512654e-01
 -2.5053607e-02
  3.0971086e-02
  4.4103999e-02
 -2.2390029e+00
 -4.6686584e-01
 -8.5178547e-02
  1.4037241e+00
 -2.3072906e-02
 -1.0733641e-01
 -4.4122990e-02
 -1.5612230e-01
  8.1215307e-02
  3.4410141e-02
  3.5554349e-01
  1.0175984e-01
  1.9365236e-01
 -4.6342868e-02
  1.0006551e+00
  6.7297365e-03
 -3.9332718e-02
  3.8786066e-01
  1.0404070e-01
 -7.5491093e-02
 -1.9831914e-01
  6.7220658e-02
 -1.4792650e-02
 -2.5173476e-01
 -9.9847816e-02
 -3.7455317e-02
  5.1007304e-02
 -7.4291229e-02
 -3.6562257e-03
 -9.8551974e-02
  5.8613453e-02
 -2.3930021e-02
  2.1282945e-02
  1.6479397e-02
  5.2245858e-05
 -6.2279218e-01
 -1.0152346e-02
 -1.8907340e+00
 -4.3999102e-02
  4.6074320e-02
 -3.0736791e-02
  7.4117519e-02
 -5.8252881e-03
 -1.0398028e-01
 -5.0800700e-02
 -6.7618804e-04
  1.1436199e-02
  1.1388788e-01
  1.9374307e-02
  1.8116837e-02
  3.7652243e-02
  6.4799622e-02
  4.1567825e-02
 -2.4385884e-02
  9.8031908e-03
 -9.6248277e-02
  7.8090936e-02
 -2.1512492e-02
  1.9276371e-02
 -3.5940912e-02
 -1.8398862e-02
  6.9541313e-02
  4.1634087e-02
 -3.7136812e-02
 -3.2368623e-02
  2.5003206e-02
  4.4836689e-02
 -2.2741295e-02
 -3.9707180e-03
  7.5468555e-02
 -4.2057151e-01
 -6.2311225e-02
 -1.7372830e+00
 -6.0163192e-02
 -9.3103029e-02
  2.9858859e-02
  3.7414788e-03
 -5.6483664e-02
  3.7526410e-02
 -2.4756024e-02
 -6.5199792e-02
  7.2786666e-02
  2.7674304e-02
  5.6777161e-02
 -9.2024524e-03
  1.4302952e-02
  2.1109613e-02
 -2.8212719e-02
  5.7137408e-04
 -9.8266050e-02
  4.5059137e-03
  1.0365366e-01
 -6.2689587e-02
  2.3326326e-02
 -2.9234694e-02
  6.4695932e-02
  2.9198887e-02
 -2.3184776e-01
 -1.0906310e-02
  1.1026158e-02
  5.9035745e-02
  1.0069506e-01
 -2.8898479e-02
  3.0819071e-02
 -3.1895682e-02
  8.9668527e-02
 -2.9798048e-02
  1.3972442e+00
  3.1084359e-01
  1.0368762e-01
  7.1414933e-02
  7.8513898e-02
 -6.3635603e-02
  1.1312786e-02
 -2.9516034e-02
  6.2443037e-02
 -2.2527084e-02
  4.9419813e-02
  3.4541346e-02
 -4.5715757e-02
 -9.3174621e-02
  8.5349893e-03
 -6.8110414e-02
  3.3943534e-02
  3.8934641e-02
 -1.4944880e-01
 -4.5722164e-02
  1.1602644e-02
 -1.6693730e-02
 -2.4700569e-02
  5.2652620e-02
 -3.2457493e-02
 -9.5747210e-02
 -3.3705443e-02
 -4.4357788e-02
  2.4861104e-03
 -2.7706768e-02
 -2.7668457e-02
 -6.9483869e-02
  1.1995733e-02
 -1.9232680e-01
 -1.5288630e-01
 -1.4251887e+00
 -1.7153369e-01
  1.7170446e-02
 -2.1944806e-02
 -2.6399819e-02
 -1.4820097e-01
 -2.2226058e-02
 -3.0457973e-02
 -1.6591763e-02
 -2.7452338e-02
 -6.5513859e-03
 -4.8307199e-02
  4.2997483e-02
 -3.5695288e-02
  4.2289171e-02
  4.7035185e-03
 -1.7107032e-02
 -3.9652031e-02
 -4.0821519e-02
  3.0067075e-02
  1.0230546e-02
  1.7760659e-02
 -5.1647704e-02
 -5.7873596e-03
 -5.6564347e-03
  5.9681445e-02
 -7.4601762e-02
  1.2903412e-01
 -1.7322418e-03
 -6.4835504e-02
  2.0685365e-02
  1.4135013e-02
 -3.6615238e-02
  2.1806291e-01
  3.6215197e-02
  1.7604228e+00
  2.9064076e-02
  6.2223542e-02
  3.7793431e-02
 -5.5813439e-02
  2.9331977e-02
 -1.3136815e-01
 -1.4674529e-01
 -5.0929454e-03
 -4.4043879e-03
 -6.5624430e-03
  2.0649204e-02
 -9.2254663e-03
  3.8829762e-02
  5.3319760e-02
 -3.4465652e-02
  6.1573099e-02
  1.6500710e-02
  6.1986763e-02
 -6.1531637e-02
  8.3553143e-02
 -1.4168480e-01
  5.8756582e-03
  5.0405920e-02
 -5.3321153e-02
  9.2912471e-01
  1.4504570e-02
 -2.4061676e-02
  4.3067313e-03
  6.9291279e-02
  5.0708540e-02
  1.1110692e-01
 -1.0123083e-01
  1.0986667e+00
 -5.7417572e-02
  9.3087685e-01
 -2.3780048e-02
 -7.3034191e-03
 -1.3415670e-01
  8.2569830e-02
  1.1388497e-02
 -2.7841214e-02
 -2.5664946e-02
 -7.8652814e-02
  1.6895618e-02
 -4.0400438e-02
  1.3342675e-02
 -3.0036889e-02
 -4.2304173e-02
 -1.6111022e-01
  1.4113467e-02
  3.8759984e-02
 -1.6593704e-01
  3.3382777e-02
  2.1699065e-02
  3.8263857e-02
 -2.6761089e-02
  4.3900948e-02
  3.8571324e-02
  9.1989234e-02
 -1.6819187e-02
  1.2835146e-02
  7.5191824e-04
 -1.2250721e-02
 -5.9108969e-02
  1.5802549e-01
 -1.6073102e-02
 -1.9976823e-01
 -1.0506517e-01
 -1.3220179e-01
 -1.6569440e+00
 -3.3888154e-02
  2.5601357e-02
  1.1610118e-02
 -2.0061251e-02
  1.0466980e-01
 -7.6423357e-03
  3.1519197e-02
 -2.6576113e-02
 -2.8062363e-03
 -8.2862549e-02
  2.0718468e-02
 -4.6656828e-02
 -1.9838598e-02
  5.6260657e-02
  3.5515945e-02
 -4.1947565e-03
 -3.7272226e-02
 -2.9575916e-02
  2.1663740e-02
  1.9130579e-01
 -3.7481621e-02
 -8.3085209e-02
 -1.2732224e-02
 -8.0562718e-02
  4.8022378e-02
  9.2473151e-03
 -7.5712100e-02
 -1.2096825e-02
 -1.4485472e-02
  2.0179141e-02
 -9.3614059e-03
  5.7523884e-02
  4.9052832e-01
  1.0609307e-01
  1.3263559e+00
 -2.7950142e-02
 -6.1242916e-02
  4.0124157e-03
  7.8647777e-02
 -3.6707304e-02
  1.5172489e-01
  5.2740458e-02
 -4.3003485e-02
  1.7348662e-01
 -8.3040565e-02
 -8.5551739e-03
 -3.8880549e-02
 -1.1709116e-01
  1.0905653e-02
 -3.1330083e-02
 -1.3823727e-01
 -2.9663727e-02
 -4.6505492e-02
  6.3618734e-02
 -5.4055043e-03
  9.5806256e-02
  1.6502161e+00
 -2.0583233e-02
  5.1918656e-02
 -7.0702657e-03
 -5.8150414e-02
 -4.8391283e-02
  6.4945482e-03
 -1.5500447e-02
  1.9428391e-02
  1.2227547e-02
 -1.9142168e-02
  1.2764668e-01
 -4.5549460e-03
  2.0726199e+00
  1.7076129e-01
  1.1738888e-02
 -1.1656599e-01
  3.6176916e-02
  1.0440610e-01
  6.0443450e-02
  1.0735376e-03
 -8.4328242e-03
 -1.1734230e-01
  5.2506845e-02
 -2.5972115e-02
 -5.9110135e-02
  3.6928814e-02
  5.4237451e-02
 -4.2588573e-02
  1.1355037e-02
  1.5531622e-02
 -1.7606929e-02
 -2.7573550e-02
 -1.5947059e-02
 -4.4296399e-02
 -6.2781170e-02
  6.3108057e-02
  8.4858693e-02
  1.7402632e-02
  4.6890937e-02
 -4.5907940e-03
 -8.5907923e-03
  1.4520058e-02
 -2.4217146e-03
 -7.5325617e-03
 -3.9790042e-02
 -1.9345117e-01
  8.6377300e-02
 -1.6078173e+00
  3.9866418e-02
  1.8366382e-02
 -1.5751043e-01
 -1.3427816e-01
 -9.7198486e-03
 -7.9895735e-02
 -1.3487613e-01
 -3.4581173e-02
  2.0654574e-02
 -9.7889956e-03
  2.1602873e-02
  1.0697963e-01
 -1.4036044e-02
  1.4969469e-02
  2.9137703e-02
  6.1374601e-02
  1.4356922e-02
 -5.3660575e-02
 -3.1323884e-02
  5.9565779e-02
 -2.9816236e-02
  1.3713107e-01
 -3.0736605e-02
 -2.8248930e-02
 -1.9015042e-02
  1.0518769e-01
  9.0762541e-02
  7.9819076e-02
  1.5607063e-02
  8.0447745e-01
 -8.2996916e-03
 -2.4791656e-02
  6.1138672e-01
  1.9412778e-02
  1.3601766e+00
 -1.0194604e-01
 -3.8366016e-02
  9.2704883e-03
 -3.7047964e-02
 -1.5693067e-03
  1.9706164e-02
  1.2623165e+00
 -3.6498550e-02
  3.4429450e-02
  2.0880280e-01
 -4.8577372e-02
  1.6774410e-02
 -5.2172728e-03
  1.2794275e-02
  8.3359432e-01
  1.6029788e-02
 -3.5099011e-02
  7.2259672e-02
 -1.2643950e-02
  9.0735637e-02
 -1.8793977e-03
 -5.1591877e-02
 -3.0986844e-02
 -5.6854628e-02
 -2.3539469e-02
  8.7127030e-02
  7.3387553e-03
 -1.1033358e-02
 -1.3430204e-02
  4.1992150e-02
  2.2792675e-02
 -8.4144380e-03
 -7.9354279e-02
  8.7728240e-03
 -1.3988864e+00
 -4.4358689e-02
  8.9067761e-03
  4.5076445e-02
  1.3106726e-01
 -1.8800084e-02
 -1.9747572e-02
  1.1507937e-01
  3.7165191e-02
 -3.9280172e-02
 -3.7467629e-02
  4.0184453e-02
 -4.5780152e-02
  7.5446935e-03
  1.6273046e-01
 -6.2045924e-02
 -2.7182981e-02
  1.7525729e-02
  2.2476773e-01
 -9.8060572e-04
  1.4242706e-02
 -6.7384198e-02
  3.5607934e-03
 -5.2814540e-02
 -5.2976138e-03
  3.1846061e-02
 -3.3187792e-02
 -6.5840960e-02
 -6.4507192e-01
  1.7780807e-02
 -4.7783953e-01
 -2.6470209e-02
 -7.2762527e-02
  2.3344055e-01
 -6.1102938e-03
  1.4004716e+00
  3.2131318e-02
 -3.0420016e-02
 -8.1204191e-02
 -7.9713678e-03
  5.7389274e-02
  5.9104167e-02
  1.5482266e-02
 -6.2521324e-03
 -4.1319113e-04
  1.2092407e-01
  8.0110123e-03
  2.6770672e-02
  1.1650335e-01
  2.5132179e-02
 -2.2123355e-02
 -1.9240472e-02
 -1.3916790e-01
  2.6476746e-02
  1.1638247e-01
 -2.4806045e-02
 -1.9012250e-02
  1.2838773e-02
 -5.3110354e-02
  2.4717696e-02
  2.9330454e-03
  1.7137121e-02
 -4.1335192e-02
 -2.3008376e-02
  1.6551768e-02
 -1.5047405e-02
 -4.9088396e-02
  1.7684979e-02
  4.5100358e-01
 -1.1131517e-03
  1.4649189e+00
  3.7729062e-02
  1.4009949e+00
  7.4156076e-02
 -3.8854253e-02
  3.1091334e-04
  7.0606219e-03
  3.8717251e-02
 -4.7643133e-02
  1.0191063e-02
  4.5106784e-03
 -4.4328064e-02
 -7.5668424e-02
  3.2722834e-02
  9.5935360e-02
  1.2945823e-02
 -6.6650927e-02
  9.7475257e-03
 -5.1622246e-03
 -1.0810901e-01
 -1.3447565e-02
  5.3328197e-02
 -7.0771431e-03
 -7.7117749e-02
  2.4140498e-02
  6.4547718e-02
  7.7008225e-02
  3.7016943e-02
 -5.0254323e-02
  4.3576397e-03
  3.7166234e-02
  5.2343320e-02
  8.8171978e-03
 -5.2842307e-01
 -1.4122050e-01
 -1.7269119e+00
 -1.7037556e-01
 -1.1557514e-02
  3.3896917e-03
  2.4726618e-02
 -6.6806585e-02
 -1.1322131e-01
 -1.7717764e-02
 -4.3227807e-02
  7.6137014e-02
  4.8956728e-01
  4.8490628e-03
 -1.0336378e-01
  4.8541144e-02
  2.9912103e-02
  9.2416964e-02
  5.6542739e-02
 -1.8705819e-02
 -4.2475346e-02
  9.3114970e-04
  4.2482469e-02
  3.5582907e-03
 -1.1910623e-01
 -4.2671409e-02
 -5.3753957e-02
 -1.8125144e-01
  7.5336792e-02
 -3.6662165e-02
  3.6485881e-02
 -2.7594194e-02
 -1.3155912e-01
  4.8115928e-02
 -2.2501884e-02
 -2.9175967e-01
  1.4517804e+00
 -1.2985569e+00
 -1.3750912e-01
  2.4950132e-02
 -2.6432643e-02
 -1.9433698e-02
 -3.6225010e-02
 -2.2517011e-02
 -3.0759254e-02
  9.6298307e-02
  3.1240892e-02
  2.4418194e-02
  4.3176610e-02
  1.0527666e-01
 -1.5890042e-01
 -3.3723932e-02
  8.7408349e-02
  2.6936037e-02
  1.5978260e-02
 -4.0832400e-02
  5.5146370e-02
  3.8229086e-02
 -7.3064486e-03
 -6.8856992e-02
 -2.5494179e-02
 -7.3067159e-03
 -9.8233119e-02
 -8.0933496e-02
  8.6203650e-02
 -3.7140109e-02
 -2.2110268e-02
 -6.7989277e-03
 -1.0828931e-01
  4.5219958e-02
 -1.8805099e-01
  3.3529559e-03
 -1.3400488e+00
  2.9679203e-02
  8.4692426e-02
  2.5221871e-02
 -5.1506959e-02
 -3.1737700e-02
 -4.4328180e-01
 -1.9304395e-02
  2.5184192e-03
  5.3388357e-01
  5.8320958e-02
 -1.5388103e-02
 -2.1072164e-02
 -5.8509052e-02
  3.2060001e-02
  2.1981172e-02
  2.3083102e-03
 -2.3131638e-03
 -6.0056155e-03
  2.9744100e-02
  2.5779197e-02
 -3.3381749e-02
 -9.8462477e-02
  8.2421433e-03
  4.5608178e-02
  3.7417140e-02
  2.4998158e-02
 -4.7288788e-03
  2.3856940e-02
 -1.3820174e-02
  4.2422149e-02
  2.1871895e-02
  1.4747097e-02
  1.1511637e-01
  3.3175569e-02
  1.7931453e+00
  2.3088569e-02
 -2.6752377e-02
 -1.4694701e-03
 -3.8839675e-02
  1.2724753e-01
 -1.6092922e-01
 -5.5120304e-02
  5.4926602e-03
  3.5853971e-02
 -4.9466256e-02
 -9.3480788e-02
 -4.5247700e-02
  1.4224082e-03
  3.4562148e-02
  8.9540727e-02
  1.3644417e-01
  3.1857643e-02
  2.2411721e-02
 -8.0763046e-03
  5.3338739e-03
 -4.2774331e-02
  7.3897220e-02
 -7.1837299e-02
 -3.1895436e-02
  4.9023684e-02
  5.1566031e-02
 -3.8026836e-02
 -2.0296946e-02
  1.5212867e-03
  1.5564992e-01
 -1.9505132e-02
 -6.3649140e-02
  2.7071476e-01
  5.3342688e-03
  1.5952080e+00
  1.5983634e-01
 -7.9905950e-02
 -8.1853561e-02
  4.6695959e-02
 -6.5788053e-02
  4.0527940e-02
 -4.8452053e-02
  6.1980397e-02
 -1.7233887e-01
  8.4202886e-03
 -1.1638382e-01
  2.2369374e-02
  1.8787675e-02
  3.5708949e-03
  3.6810372e-02
  2.5783319e-03
 -5.3627375e-03
  7.8706905e-02
  4.8107985e-02
 -6.9391869e-02
 -1.3659577e-02
 -4.5127016e-02
 -1.3715975e-02
  2.2398750e-03
 -4.0038593e-02
  9.6192233e-02
  5.4598272e-02
 -1.3448358e-01
  1.0511392e-01
  1.0801584e-02
  9.1288136e-03
  1.3099861e-02
 -7.7425383e-02
 -5.2421048e-02
 -1.7683069e+00
 -2.9257947e-01
  6.8088830e-02
  9.3601294e-02
  1.8633749e-02
 -7.4115291e-02
 -4.3045912e-02
 -4.9171699e-03
  6.8623021e-02
 -1.0031276e-02
 -6.0039051e-02
 -5.6466740e-03
  4.1818763e-03
 -4.1158041e-03
  7.5402901e-02
  1.1330228e-01
  9.3966007e-02
  3.9463900e-02
  6.9705896e-02
  1.4563487e-02
 -5.3038169e-02
  2.0336038e-01
  8.0362400e-03
  4.1643213e-02
 -7.3205531e-02
  8.1810333e-02
  6.4543925e-02
  1.3742135e-02
  1.0804416e-01
 -1.3018157e-02
  2.3017688e-02
  1.7994341e-01
 -8.5312417e-03
  2.3614287e+00
  2.8786886e+00
  4.4472322e-01
  6.9214261e-01
  2.4165628e-02
 -1.6078535e-01
  1.7441601e-02
 -1.6818278e-01
 -1.0367466e-01
 -3.7905627e-01
 -2.8506075e-03
  1.6755290e-02
  6.1743636e-02
  5.5857196e-02
 -2.8180813e-02
  2.4325909e-02
 -4.9752612e-02
  3.6437552e-02
  1.5304002e-02
 -5.5193850e-03
 -8.5552111e-02
  1.6483046e-01
 -5.4504640e-02
  5.7999395e-02
 -1.4556617e-01
 -6.2705055e-02
 -5.4640271e-02
 -7.7385247e-02
 -3.8051717e-02
 -1.7372234e-01
  2.2535866e-02
  4.3197025e-02
  2.5355352e-02
 -1.2697776e-01
 -1.1437688e+00
  6.7315251e-02
 -1.8359431e+00
 -2.6682463e+00
  1.0299202e+00
  1.1043932e+00
 -4.1678563e-01
  1.5591951e-01
 -2.4724704e-01
 -3.5561186e-01
  2.9240459e-01
 -4.8468892e-02
  9.8840557e-02
  5.9146827e-01
  1.0337929e-01
  1.6185300e+00
 -1.0509135e-01
 -2.4550213e-02
  5.9097540e-01
 -1.6488315e-01
  5.4178900e-01
 -3.7841690e-01
  4.4860423e-02
 -3.0187272e-02
 -8.4713176e-02
 -3.5429371e-03
 -3.7400965e-02
 -1.5274499e-02
  1.6586924e-02
 -6.3138746e-02
  4.3700477e-01
  6.2380508e-03
 -5.0877351e-02
 -5.5747572e-02
  8.1854470e-02
  1.0171377e-01
  1.3789605e-01
  1.9243683e-01
  1.6408625e+00
 -2.5906559e-02
  6.3069058e-03
 -2.6930062e-02
  3.6364265e-02
  2.1691504e-03
 -3.9982023e-03
 -3.4678869e-02
  7.9356261e-02
  3.0293399e-02
 -3.8367685e-02
  6.4378254e-02
  1.1491740e-02
 -1.2066469e-03
  3.9125327e-02
 -1.9523461e-03
 -6.4216137e-02
 -2.1614628e-01
  1.2762807e-02
 -3.4221970e-02
 -7.5601645e-02
 -1.8464394e-02
  3.6883450e-01
  1.7900884e-02
 -1.5418680e-02
  6.2949188e-02
  9.5565960e-02
  1.8024983e-01
 -4.3133691e-02
 -3.9413213e-03
 -4.2489812e-02
  4.3868635e-02
  6.8947893e-01
  1.4190320e+00
 -3.5234535e-01
 -1.1937903e+00
 -2.5850105e+00
  6.6810879e-03
 -1.2568140e+00
  3.3598315e-02
 -1.3873254e-01
 -7.0000708e-02
  5.4051858e-01
 -2.2494128e-02
 -2.4636604e-02
  3.2656005e-01
 -1.0356975e+00
  7.1835524e-01
  1.7056150e-02
  3.0694934e-02
  6.7349277e-03
 -2.8114153e-02
  8.2822001e-01
  1.6013536e-01
  1.2372196e-01
 -6.0451657e-02
  1.1723123e-02
  1.1205318e-01
  4.4778502e-03
  4.2605843e-02
 -4.3538522e-02
 -7.1608119e-02
 -1.9347955e-02
 -6.5511703e-02
  3.3258338e-02
 -1.8384263e-03
 -3.6768995e-02
 -3.3555724e-02
  1.0077264e+00
  1.7855700e-02
  1.1925894e+00
  1.7506623e-01
 -2.4192054e-02
 -1.1365440e-01
 -1.9249506e-03
  1.1188240e-01
  1.7151533e-01
  3.0164203e-02
 -7.4316047e-02
 -1.5556536e-02
 -8.0312276e-03
  1.2766284e-01
 -3.0997213e-02
 -9.3091407e-04
 -8.8966355e-02
  5.6844051e-03
  1.3444389e-01
  6.5800548e-03
 -2.9189741e-02
  4.5122108e-03
 -1.6306395e-02
  2.1984479e-03
 -5.1127288e-02
  1.6904207e-02
  5.1081423e-02
 -6.3713272e-03
 -8.3653063e-02
  1.1048289e-01
 -9.9187195e-03
  4.0280711e-02
  4.5111507e-02
  1.5594843e-01
  9.8667547e-02
 -7.2654837e-01
  8.3960397e-03
 -1.4405997e+00
 -2.5800842e-01
  2.8739283e-02
  1.5360564e-02
 -4.7153782e-02
 -6.8535849e-02
  2.9061470e-02
  1.0249251e-02
 -4.2417113e-02
  1.5923824e-02
 -8.3008027e-03
 -3.1166207e-03
  6.6394702e-02
  5.0656032e-02
 -5.1399635e-04
  2.2412051e-01
 -4.5614198e-02
 -6.4551025e-03
  2.2547983e-03
 -6.0716096e-02
  2.4393275e-02
  1.0221135e-02
 -1.2975019e-02
  4.5890667e-02
 -2.8754320e-02
 -9.5063351e-02
 -3.3091314e-02
 -3.4379149e-03
  1.0495692e-01
  1.2118715e-02
  7.4976899e-02
 -4.4488255e-02
  9.7039975e-02
 -4.5115486e-01
  3.0767472e-02
 -1.6900890e+00
 -3.4728093e-04
 -3.4936767e-02
 -7.5233835e-03
 -1.5426728e-02
 -4.4404794e-03
 -2.0680549e-02
 -2.0774219e-02
  1.4776669e-02
 -3.4180325e-03
  4.3314315e-02
  3.0562155e-02
 -4.9558327e-02
 -5.5759609e-02
 -8.7918408e-02
 -2.3142740e-02
  2.8963726e-02
  4.0873163e-03
 -5.4325706e-01
  8.7591134e-02
  6.9898912e-03
 -1.3321192e-03
  2.8876582e-02
 -2.7478985e-02
  2.0078154e-01
 -7.1461755e-04
 -7.3144563e-02
  9.8760411e-02
  8.1991032e-03
  4.0959373e-02
 -1.5119107e-01
 -1.1297916e-01
  8.5423492e-02
  3.5402739e-01
 -6.6494487e-02
  1.7570682e+00
  1.8307228e-02
 -1.7142941e-03
  9.0562645e-03
  8.0075137e-02
  8.4056728e-02
  7.5586967e-02
  2.5009392e-02
 -8.0111034e-02
 -2.1808682e-01
 -2.1229684e-02
  7.4569032e-02
 -2.6186935e-03
  3.0733615e-03
  5.5933427e-02
  9.2258163e-02
 -2.2941889e-02
 -9.1692843e-03
  2.7711542e-02
  3.0432981e-02
  9.9718295e-02
 -3.8292255e-02
 -1.5712029e-01
  1.1132785e-02
  9.1068469e-02
 -8.4378682e-02
  7.6153435e-02
 -5.2794199e-02
  9.3673736e-02
  1.2212024e-02
 -1.4353204e-01
  9.9825434e-02
 -3.9014465e-01
  2.0319526e+00
  1.7508177e-02
 -8.6848247e-01
  5.6770694e-01
  8.0927886e-02
 -1.4240895e-02
 -2.4228845e-02
  1.2389331e-01
 -2.7117364e-02
 -5.6016883e-03
 -1.5543059e-02
  1.5510919e-02
 -4.8516426e-02
 -8.2994282e-02
 -9.6354879e-02
  2.0138074e-02
 -1.1829375e-01
 -3.3296321e-02
 -6.5001354e-02
 -3.2070661e-01
 -1.1016151e-01
  6.3147612e-02
 -2.9013894e-02
 -3.8430456e-02
  4.3010391e-02
 -1.0885964e-01
  1.3003133e-01
  4.0960420e-02
  5.3926937e-02
  1.2181104e-01
  2.9007170e-02
 -1.0962921e-01
  5.9477896e-03
  9.9363495e-03
  1.4778453e-01
 -1.7710026e-01
  6.4663496e-03
 -1.5356929e+00
 -1.2336523e-01
 -1.1510054e-02
  7.0398394e-04
  6.9057524e-02
  7.4747846e-02
 -6.8736476e-01
  4.2885918e-02
  1.1294364e-02
 -2.1102313e-02
 -1.8934341e-02
  1.1793428e-02
 -2.3735335e-02
  2.8670341e-02
 -1.7559278e-03
  1.3512812e-02
  3.4380477e-02
  2.0198464e-02
  3.5463177e-02
  1.5198463e-01
 -3.8387999e-04
 -4.0489033e-02
 -5.7513925e-04
 -4.8222975e-03
 -4.2152144e-02
 -5.3840108e-02
 -7.0880078e-02
  1.4940056e-02
 -7.7524230e-02
  1.7878929e-02
 -4.9078483e-02
  6.6268153e-02
 -1.8479198e-02
 -1.1406758e-01
  1.9990850e-02
 -1.7582878e+00
 -1.3746075e-01
 -1.0277875e-01
 -5.8967344e-02
 -4.5918174e-02
 -5.8715753e-02
  5.5097759e-02
  1.1613689e-01
 -6.8315700e-02
  7.1312129e-02
  6.8388777e-03
 -1.7450267e-02
  2.6345687e-02
  3.8159475e-02
 -3.9938197e-02
  8.2307741e-02
  2.8083432e-02
 -2.6248071e-02
 -1.5636295e-01
 -5.3510353e-02
 -2.4946552e-02
 -1.9965624e-02
  9.3867600e-02
 -9.0987936e-02
  3.5254918e-02
  5.5282400e-03
 -8.3432853e-04
 -3.2375313e-02
 -6.4078590e-04
 -2.9028039e-02
 -6.8374333e-04
 -4.0202942e-02
 -9.0512735e-01
 -1.1424755e+00
  2.2222722e+00
  7.5823796e-01
 -1.9628134e+00
  1.0470232e+00
 -7.2504491e-01
 -7.3840290e-01
 -6.7786491e-01
  9.3074024e-01
 -1.2719661e+00
  1.8613900e-01
 -2.3854907e+00
  1.0290275e+00
 -5.0784487e-01
  1.0865583e+00
 -1.0967458e+00
 -1.2526696e+00
  1.1559602e+00
 -2.3455541e+00
  1.0457808e+00
  8.5251546e-01
 -2.3954151e+00
 -2.1090434e+00
 -8.6428362e-01
  7.1472299e-01
  1.1615325e+00
 -5.1325619e-01
  3.4014974e+00
 -6.2317145e-01
 -9.7234547e-01
  9.5373708e-01
 -7.2667193e-01
  9.8442125e-01
  1.9739482e+00
 -5.9152389e-01
  7.5063860e-01
  6.0233068e-01
 -1.0120766e+00
  1.1854234e+00
 -6.0333437e-01
  9.5788097e-01
  7.9646134e-01
 -8.2351327e-01
 -1.2083825e+00
 -7.3268569e-01
  9.4661915e-01
  9.5137286e-01
 -8.9005113e-01
  1.0996005e-01
  6.5140524e+00
  1.0362978e+00
 -5.5780458e-01
  1.1459023e+00
 -3.0427161e-01
 -7.3834586e-01
  5.4917288e-01
  1.6984411e+00
 -1.0660779e+00
 -1.1982346e+00
 -3.1916982e-01
 -6.9588809e+00
  3.8326051e+00
  1.6849198e+00
 -4.2752099e-01
  1.3818769e+00
 -3.0995774e+00
 -1.5003929e+00
 -3.6979518e+00
  1.5599096e+00
 -1.5954754e+00
  5.6367612e-01
 -2.5639191e+00
  2.7930274e+00
 -1.9016128e+00
  1.2885327e+00
 -1.2363719e+00
 -2.7980196e+00
  2.9297769e+00
 -1.8484040e+00
  1.1768564e+00
  2.5643220e+00
  8.1096542e-01
 -6.3821882e-01
 -1.4342164e+00
  7.0791471e-01
  1.2440838e+00
 -7.3789811e-01
  1.4058760e+00
 -2.8068173e+00
 -3.1525984e+00
  7.8556967e-01
 -4.8763025e-01
  2.5365646e+00
  6.9250860e+00
 -7.0362955e-01
  4.8533016e-01
  2.3843281e+00
 -1.9953921e+00
  1.2659861e+00
 -2.7955672e-01
  8.1750250e-01
  8.4839845e-01
 -2.5977392e+00
 -1.4059151e+00
 -3.3490008e-01
  1.9564887e+00
  1.4626381e+00
 -2.0503101e+00
  7.3634177e-01
  4.7336078e-01
  1.8134754e+00
 -1.8941078e+00
  2.3818827e+00
 -1.0771415e+00
 -1.4710579e+00
  1.0708265e+00
  2.8214329e-01
 -1.2776878e+00
 -1.9762207e+00
 -9.9605499e+01
 -1.1986467e+00
  3.3360763e+00
  1.1786575e+00
  1.6240783e-01
  4.3249898e+00
  5.5221009e-01
  2.6917967e-01
  8.9947438e-01
  8.8422364e-01
 -1.4113278e+00
 -3.6321855e-01
 -4.4683566e+00
  1.3047740e+00
  9.2175329e-01
  1.4039886e+00
 -1.8373375e+00
  4.7691469e+00
  2.4220154e+00
 -7.9694852e-02
  3.3503680e+00
  5.5424935e-01
  2.1145552e-02
 -2.1061978e+00
  1.1020453e+00
  1.3037832e+00
  9.5010376e-01
 -2.7394542e-01
  2.5193186e+00
  1.1093653e+00
  9.3230939e-01
  1.3207906e+00
  5.5606443e-01
  6.9314206e-01
  4.5069510e-01
  2.1981864e-01
  4.2960573e-02
 -9.1904446e-02
 -2.3600986e+00
  2.0109482e+00
 -3.7581468e-01
 -1.1453379e+00
 -9.1190197e-02
 -4.9210924e-01
 -2.0684624e+00
 -1.6153378e+00
 -6.1432827e-01
 -5.8341187e-01
  5.0925601e-01
  1.1220744e-01
 -9.7505933e-01
 -7.7226120e-01
 -2.6814888e+00
 -2.3430996e+00
 -1.2662688e-01
 -2.2372577e+00
  4.8489672e-01
 -1.7475761e-01
  6.3050766e-03
 -4.3967390e-01
 -3.5994157e-01
 -1.5892407e+00
 -4.1940576e-01
 -3.8069549e+00
 -2.3747869e+00
 -5.2341419e-01
  7.9572037e-02
 -9.9267560e-01
 -4.0157416e-01
 -2.5905344e-01
  2.1391274e-01
 -1.3306119e-01
 -1.6311674e-01
  1.3769574e+00
  2.7213926e+00
 -3.0209243e-02
  6.2151623e-01
  2.9908076e-01
  1.7646927e+00
  3.1217327e-02
 -3.3706981e-01
  5.5851507e-01
  1.2563093e+00
 -2.7798852e-01
 -4.7593281e-01
  1.3474634e+00
  7.7439994e-02
  6.0575736e-01
 -8.5432512e-01
  9.2954785e-01
 -3.3986075e+00
  8.2329467e-02
  1.5507246e+00
 -5.5398130e-01
  1.2750007e+00
  3.7514222e-01
  8.7627143e-01
  7.6754734e-02
  1.4101869e+00
 -2.3161967e+00
 -8.5536981e-01
  9.3374416e-02
  3.5880622e-01
  1.7010653e-01
  1.3468108e+00
  2.6280302e-01
 -1.3266399e+00
 -1.4032036e-01
  2.9554900e-02
 -1.2361251e+00
 -3.0092361e+00
 -1.9170959e+00
 -4.3974485e+00
 -1.2061348e+00
 -1.9659577e-02
 -3.8569802e-01
 -1.8285377e-01
 -1.5998690e+00
 -1.9487885e+00
 -1.0267832e+00
 -1.6108865e+00
  9.8823756e-01
 -2.5177065e-01
 -2.2143166e+00
 -3.3749146e+00
 -1.0875525e+00
 -4.4378389e-02
 -1.4249388e+00
 -2.4898568e-01
 -2.6285011e-01
 -3.2608688e-01
 -1.7818990e+00
 -3.7498336e+00
 -2.1478591e+00
 -8.2109064e-01
 -2.0080152e+00
 -1.0121200e+00
 -1.1074511e-01
 -3.2034966e-01
 -1.2414837e+00
 -1.1813507e+00
 -2.5458086e+00
 -9.5609057e-01
 -1.6249079e+00
 -8.8923883e-01
 -1.1477283e+00
 -2.3888874e-01
  6.9077170e-01
  1.2741640e+00
 -1.9438767e+00
 -2.0541571e-01
 -1.3453106e-02
 -1.9529693e+00
 -3.0212164e+00
 -2.1109033e+00
 -3.0527349e+00
 -4.2019968e+00
 -4.7459784e-01
 -7.1931523e-01
 -9.0579563e-01
 -8.0636358e-01
  4.5839114e+00
 -9.7847089e-02
  1.2079398e-01
 -7.7640665e-01
 -1.0743452e+00
 -1.6774542e+00
 -6.8155700e-01
 -1.4835910e+00
 -9.1277951e-01
 -2.0132921e+00
 -1.7543760e-01
 -3.8333899e-01
 -2.1746006e+00
 -1.1831143e+00
 -1.4921249e-01
  7.1799719e-01
  8.9105904e-01
 -6.5436655e-01
  5.7930488e-02
  6.1203063e-01
 -1.6976097e-01
 -1.2998655e+00
  2.2398887e+00
  2.2125578e+00
 -1.3160722e-01
 -1.6500058e-02
  3.2794520e-02
  5.4408538e-01
 -1.1778473e+00
 -7.6281726e-01
  3.4544867e-01
 -1.2239081e-01
 -4.5327151e-01
 -5.6525785e-01
  1.8155168e-01
 -1.1463695e+00
 -1.4569512e-01
 -7.7018790e-02
 -1.1758946e-01
 -1.0991440e+00
 -3.9090243e-01
 -1.0411813e+00
  1.2062489e-02
  1.3216858e+00
 -1.5090775e+00
 -9.8471351e-02
  4.9202044e-02
  8.0520165e-01
 -7.2552264e-01
 -4.8292544e-01
 -5.6006485e-01
  1.1369385e-02
 -8.3181828e-01
 -5.7624483e-01
  7.3592879e-02
  5.4500610e-01
 -1.2450499e-01
 -1.6114329e-01
  7.7109993e-01
  8.2444631e-02
 -1.1071820e+00
 -9.8043782e-01
  8.2887661e-01
 -3.5595345e-01
  1.9106535e+00
 -9.5219576e-01
  1.8694140e-01
  1.6697286e+00
 -4.3448314e-01
 -5.4329574e-01
 -2.4393382e+00
 -4.0386901e+00
 -2.7706416e+00
 -3.9376017e-01
  1.0685077e+00
 -2.2628913e+00
  7.2154886e-01
 -2.1583186e-01
  5.7066238e-01
  1.1491021e+00
  2.1930866e-01
  1.0725974e-01
 -9.6912551e-01
  1.2200675e+00
 -3.1974125e-01
  1.5662739e+00
 -1.4111323e+00
 -4.6881291e-01
 -7.6711756e-01
  1.0510683e+00
  4.2957336e-01
 -1.9243199e-01
 -6.0679823e-01
  1.7024164e+00
 -1.4028413e+00
 -8.3840793e-01
 -1.0499909e+00
  3.2041306e+00
 -3.3205364e-02
 -5.0760198e-01
 -2.3238332e+00
 -2.8405848e+00
 -6.4004868e-02
 -1.1370705e+00
  1.0428534e+00
  1.9166505e+00
 -2.7865544e-03
 -2.4702333e-01
  1.0903969e+00
  2.6493855e+00
 -2.6635599e-01
 -2.5241864e-01
  9.8963302e-01
 -1.4811987e+00
 -2.7434748e-01
  5.4019350e-01
  6.4648473e-01
 -2.2648032e+00
 -9.5919468e-02
  3.6399305e-01
  5.5639124e-01
 -6.0793548e-03
  1.1233869e-01
  1.4450539e-02
  2.8720291e-02
  4.6250421e-01
  5.0558162e-01
 -4.7078958e-01
  2.1241224e-01
  1.1139536e+00
  8.3447434e-02
  3.8044858e-01
  3.9566355e+00
 -3.2284402e-04
 -2.5794040e-02
  4.3241358e-01
  6.7295194e-02
 -6.7595303e-01
  3.0534685e+00
  3.4015009e-01
 -6.4028162e-01
 -8.0251253e-01
  1.6440898e+00
 -5.0717109e-01
 -2.1357327e+00
 -5.8422941e-01
 -3.7216762e-01
 -2.1909884e-01
 -1.3111296e+00
  4.9163397e-02
 -3.8465779e+00
  7.9979366e-01
  1.5465076e+00
  1.0111244e+00
 -2.6976618e-01
  2.3346410e+00
  7.6470721e-01
 -2.2657737e-01
  2.5109616e-01
  4.5359316e-01
  6.7745638e-01
  4.2563042e-01
  1.4717411e+00
  2.5982955e-01
 -8.0657732e-01
 -2.0699506e+00
 -2.4630003e-01
  8.2129514e-01
 -3.5540581e-01
  4.9564795e+00
  1.4670467e-01
 -5.4594707e-02
  1.6336793e-01
 -8.0667417e-03
  9.7730160e-01
 -5.1745057e-02
 -1.0762585e+00
 -1.0110461e+00
  4.4868824e-01
 -4.8804045e-01
 -1.0322676e+00
 -1.2285379e-01
 -1.1643555e-01
  1.3754718e-01
  1.6545179e+00
  1.6933247e+00
  2.4714163e-02
  3.5947970e-01
 -2.2237028e-01
 -6.4836061e-01
 -2.1785223e+00
 -1.6357100e+00
 -4.8425332e-01
  3.2203574e-02
 -1.4970189e-01
  6.0883872e-02
 -1.8121685e-01
  1.6605361e-01
  6.1753402e-05
 -4.9542496e-01
  2.9616835e-02
  2.9616835e-02
  2.9616835e-02
  2.9616835e-02
  2.9616835e-02
  2.0425856e-01
  2.0425856e-01
  2.0425856e-01
  2.0425856e-01
  2.0425856e-01
  1.6406114e-01
  1.6406114e-01
  1.6406114e-01
  1.6406114e-01
  1.6406114e-01
  5.0968606e-02
  5.0968606e-02
  5.0968606e-02
  5.0968606e-02
  5.0968606e-02
  2.4840077e-02
  2.4840077e-02
  2.4840077e-02
  2.4840077e-02
  2.4840077e-02
  1.8215278e-01
  1.8215278e-01
  1.8215278e-01
  1.8215278e-01
  1.8215278e-01
  8.9403339e-02
  8.9403339e-02
  8.9403339e-02
  8.9403339e-02
  8.9403339e-02
