nep4_zbl 2 Ga In 
zbl 1.25 2.5 0.7
cutoff 6 5 68 39
n_max 4 4
basis_size 8 8
l_max 4 2 1
ANN 60 0
 -6.5081626e-02
  1.7004201e+00
 -1.0369650e-01
 -2.7875301e-01
  1.4496386e-01
  9.7251840e-02
  1.4010823e-01
 -4.9654013e-01
 -5.8898184e-02
 -1.1087116e+00
  5.7030970e-01
 -2.7232262e-04
 -9.8659232e-02
 -1.7265812e-02
  1.6154352e-01
  1.3659348e-01
 -4.7866896e-01
  3.4680402e-01
  9.4045743e-02
 -3.6514613e-01
 -6.2036121e-01
 -2.7826086e-01
 -1.8636779e+00
  1.8101069e-01
 -3.3437699e-02
  4.1350761e-01
 -3.2221285e-01
  3.8319451e-01
  4.9320477e-01
 -1.7596084e-01
 -6.9408900e-01
 -9.6720932e-03
  7.3809594e-01
 -2.6572046e-01
 -7.1521306e-01
  4.7463098e-01
 -2.3391535e+00
 -2.1973163e-01
 -2.0749535e-01
  2.6837817e-01
 -6.5116704e-01
  2.5233103e-02
 -1.0121465e-01
  3.5114235e-03
  2.3359802e-02
 -3.3661601e-01
  5.0144124e-01
  8.2080507e-01
 -4.1094199e-01
  4.5428929e-01
 -2.5279811e-01
 -2.9254943e-01
  4.8744911e-01
  2.0609562e-01
  7.2672926e-02
 -5.2932307e-02
  3.9983947e-02
 -3.2467899e-01
 -1.3605683e-01
 -7.6603436e-01
 -4.5175537e-01
  2.4036025e-01
  2.7732927e-01
 -9.9011868e-02
  2.6183286e-01
 -3.8053259e-01
  2.0141852e-01
 -1.3924614e-01
 -1.4182241e-01
  1.0132100e-01
 -2.1487753e-01
 -5.2810836e-01
 -1.3968371e-01
  1.5101898e-01
 -1.8948844e-01
 -5.5183333e-01
  6.0663509e-01
 -3.5875130e-01
 -2.7916407e-02
  4.4440213e-01
  5.5626047e-01
  7.1463388e-01
  1.3241874e-01
 -4.2292923e-01
 -5.9667599e-01
 -8.8881612e-02
  2.5868851e-01
  1.0858020e-01
 -2.3042655e-02
  1.6219862e-01
 -5.6035724e-03
  1.4816850e-01
  8.2021981e-02
 -4.6664283e-01
  3.4115657e-02
  6.7360908e-02
  4.7794584e-02
 -1.6486581e-02
 -3.3183348e-01
  1.8152858e-01
 -2.6102817e-01
  7.7912098e-01
  3.6655083e-01
  5.2469152e-01
 -9.7506307e-03
 -7.6547705e-02
  1.4798280e+00
  1.2449099e+00
  1.4187251e-01
  7.3701137e-01
 -1.8476877e-01
  8.9696610e-01
 -8.9026652e-02
  6.0388470e-01
  5.7539129e-01
 -9.5481241e-01
 -9.2279717e-02
 -3.9909250e-01
  2.5872791e-01
 -2.4310705e-01
  3.2028112e-01
  7.4864812e-02
 -2.5878450e-01
  7.7635044e-01
  3.0572737e-02
  4.3730515e-01
  2.2897390e-01
  1.1206146e-01
 -6.9675636e-01
  1.5001297e-01
 -3.5023692e-01
 -1.4446245e-01
  6.6698593e-01
  3.0017087e-01
 -6.2361106e-02
 -4.2439908e-02
  3.7121558e-01
  1.7300299e-01
  3.7769064e-02
 -3.0897951e-01
  2.9266021e-01
 -1.5680259e+00
 -6.6718858e-01
 -2.1914102e-02
 -1.2445215e-01
  7.4365765e-02
 -4.7187120e-02
  7.7808964e-01
 -3.3036238e-01
  2.2743918e-01
 -1.5557343e-01
 -1.1454166e-01
 -2.8352058e-01
  6.7517415e-02
  4.0547544e-01
  4.8811597e-01
 -1.8793362e+00
 -1.6645800e-01
 -1.1094808e-01
 -1.9234365e+00
 -5.0220454e-01
  1.1426109e-01
 -7.8281456e-01
 -2.8011510e-01
 -5.6108143e-03
  4.0398985e-01
 -3.5644239e-01
 -1.4237460e-01
  9.2495434e-02
 -2.2060835e-01
 -7.5766005e-02
  8.5712808e-01
 -1.2024533e-01
 -4.4376722e-01
 -6.7746557e-02
  1.8025126e-02
  1.2407452e+00
 -2.5256556e-01
  2.1734022e-02
  2.0212609e-01
 -2.7131522e-01
  2.0695205e+00
 -4.6085626e-02
  3.1007084e-01
  5.7732236e-01
 -6.8671161e-01
  5.4954404e-01
 -8.5582934e-02
  6.1332148e-01
 -1.0576908e-01
 -1.3066372e-01
 -2.2918440e-01
  6.8193215e-01
  9.2100777e-02
  3.1582680e-01
  6.3062882e-01
  1.1112580e-01
  2.6732957e-01
  1.9159551e-01
  6.4712204e-03
  9.1742396e-02
  2.2899698e-01
  2.1111171e+00
 -1.4376603e-01
 -3.6330861e-01
  1.6715465e-01
 -2.0749426e-01
 -1.0138021e-01
  3.7668616e-01
 -3.1696153e-01
 -2.6634493e-01
  1.7391855e+00
 -9.8910201e-01
 -1.3275750e-01
 -6.0454953e-01
 -5.9355867e-01
  5.2526700e-01
  3.1390920e-01
 -4.2324948e-01
 -4.8904985e-02
 -1.5778013e-01
  4.3711647e-01
  6.5379962e-04
  1.3595265e+00
  6.0421211e-01
 -1.8604584e-01
 -2.6203912e-01
 -2.2904940e-01
 -1.9033450e-01
 -9.1349506e-01
 -3.7328419e-01
  8.4797877e-01
  1.2745667e+00
 -5.5752480e-01
 -6.9895998e-02
 -1.7844924e-01
  5.8356625e-01
 -3.9783040e-01
  7.1478814e-01
 -3.0707881e-01
 -6.4049411e-01
  2.1003751e-01
  5.1750880e-02
 -3.7312794e-01
 -1.3159886e-01
 -3.0072808e+00
 -1.7937763e+00
 -5.1425326e-01
 -9.0468121e-01
 -1.3351983e+00
  8.9743011e-02
 -3.4018183e-01
 -2.5687772e-01
  7.2953850e-02
  2.3306720e-01
  7.3650140e-01
  1.3793305e-01
 -1.3003992e-02
 -4.1647550e-01
  7.3337233e-01
  7.9654917e-02
 -7.2459537e-01
  2.4418798e-01
  8.7355159e-02
 -2.3961985e-01
 -2.3791757e-01
  1.3053411e-02
  2.3437792e-01
 -3.6219147e-01
  2.8175271e-01
  9.1195300e-02
  6.5023802e-02
  8.3533220e-02
  5.0552554e-02
  3.2741047e-02
 -6.7894332e-02
 -7.8001773e-01
  4.0089992e-01
 -1.8557680e-01
 -8.5160218e-02
 -1.0107948e+00
 -1.0200011e+00
 -1.5269494e-01
 -3.3628061e-02
 -1.5993381e-01
  9.2010796e-02
  1.6477083e-01
 -3.0616066e-01
  6.8325996e-02
  5.6706679e-01
 -4.2936057e-01
  1.7448960e-01
  3.4340274e-02
  2.4643712e-01
  1.5353429e-01
 -2.9738745e-01
  9.0421420e-03
  5.4724807e-01
 -1.7727464e-01
 -6.5164514e-02
 -2.5815101e-02
  3.1786665e-01
  4.8421022e-01
  2.0547840e-01
  4.1425788e-01
  5.3481739e-02
 -4.6142519e-01
 -7.4388854e-02
  5.5091359e-02
  8.4382486e-01
 -1.1728463e-01
  3.4605509e-01
  1.8038862e+00
 -1.1126267e-01
  7.4364692e-02
 -2.2619537e-01
  1.6535335e+00
 -1.4647937e+00
 -7.2552525e-02
  4.7987881e-01
 -5.8300853e-01
  2.1370059e-01
 -6.5320355e-01
  1.2211595e-01
 -2.1108852e-01
 -7.4958545e-01
 -2.8640863e-01
  9.3326437e-01
 -7.9417992e-03
 -9.7481934e-03
  3.7554938e-01
 -5.6734097e-01
  1.2349744e+00
 -2.1199779e-01
 -3.0581373e-01
 -4.3420839e-01
 -5.6884593e-01
 -9.7148672e-02
  5.4757044e-02
  1.3011412e-02
 -4.4120127e-01
  2.2834212e-01
 -4.0296085e-02
  2.1029671e-01
  1.4897622e-01
 -9.8510154e-02
  1.1501527e+00
 -2.1459267e-01
 -2.8259242e-01
 -4.7240597e-01
 -5.1366663e-01
 -1.2869622e+00
 -1.0334611e+00
  2.2950177e-01
 -1.0548811e+00
  2.0866691e-01
 -4.1199207e-02
 -5.2166499e-02
  7.5640637e-01
  5.2703857e-02
  1.0690712e+00
  2.1343444e-01
  2.9022276e-01
 -1.7320943e-01
  1.4045461e-02
  1.4093748e-01
 -1.5437618e-01
  7.7711225e-02
  3.3454012e-02
  3.7083912e-01
 -4.7437202e-02
 -3.5676414e-01
  2.6226556e-01
 -5.0178683e-01
  2.1654615e-01
  4.4107121e-01
  3.1423599e-01
  6.1245525e-01
  6.9190502e-02
 -9.8683625e-02
 -1.6421214e+00
 -8.9244932e-02
 -1.2124938e-01
  4.5477045e-01
  4.3874466e-01
 -2.3445694e+00
 -6.0425553e-02
  1.6024505e+00
 -2.1118345e+00
  8.0515116e-02
 -5.7098813e-02
  3.3820589e+00
 -5.3797591e-01
  2.3588288e+00
  6.0110629e-01
 -2.9059923e-01
  1.1476219e+00
 -7.1841812e-01
  2.8529618e+00
  1.4369615e+00
  3.6922650e+00
 -2.1957083e+00
 -7.0755243e-01
  2.8487000e+00
 -4.2957788e+00
 -2.4366572e+00
  3.0383375e+00
  2.0209224e+00
  5.8624167e-02
 -4.7536869e+00
  8.3607107e-01
 -7.9076594e-01
 -2.3336805e-01
  2.0991108e-01
  3.0220464e-01
  2.7509338e-01
  9.3318420e-03
 -5.8091700e-01
  2.5370866e-01
 -2.4517267e-03
 -3.0902525e-02
 -5.9027678e-01
  1.7907875e+00
  4.6690267e-01
  3.5626069e-01
  8.0955900e-02
 -2.3029468e+00
  2.6810331e+00
 -6.2455416e+00
  3.6366849e+00
  4.6100691e-01
  2.6083307e+00
  2.4720180e+00
 -1.7153116e+00
 -9.8257327e-01
  2.9177792e-02
 -9.8366611e-02
 -2.9418898e-01
  2.4236453e+00
  4.4637245e-01
 -5.6889046e-02
  5.6526130e-01
  8.5405633e-02
  8.0964112e-01
  4.8552710e-01
  1.3014364e-01
  1.1982799e-01
  2.6314533e-01
 -1.3209675e-01
 -9.0217435e-01
 -4.7831807e-01
  4.3448448e-01
 -6.5207273e-02
  1.7589967e+00
 -2.0821081e-02
 -7.2092420e-01
 -2.2988181e+00
 -6.5993744e-01
  3.9507315e+00
 -2.8373706e-01
 -1.4023803e+00
 -2.6097009e+00
 -1.2615209e+00
 -1.3658611e+00
  9.0217732e-02
  6.5349627e-01
  5.7003099e-01
  1.4770176e+00
 -1.3592656e+00
  2.2898238e+00
 -4.9975076e+00
 -5.4242511e+00
 -2.3854821e+00
  1.3847926e+00
 -1.4300846e+00
 -8.3250195e-02
  1.4855240e-01
  4.4496399e-01
 -1.7695551e+00
 -5.9911484e-01
 -3.6446491e-01
  1.2073939e+00
  2.4863304e-01
 -4.9223505e-02
 -3.2577169e-01
  3.4606445e-01
  8.3437246e-01
 -5.3181356e-01
 -7.5159930e-02
  2.3562403e-02
  6.1835930e-02
 -4.7667417e-01
  1.9365696e+00
 -1.4006481e+00
  3.3454344e-01
 -1.5687895e-01
 -1.1264215e-01
  8.1717461e-01
  1.3136341e-02
  5.8171225e-01
  4.2382321e-01
  1.2664186e+00
 -1.3143049e-01
 -2.1118083e+00
  2.2140872e-03
 -1.0224010e+00
  1.9558404e-01
 -3.4539685e+00
  1.1631372e+00
  1.6561307e-02
  1.3882376e-01
  1.5974775e-01
 -1.1429068e+00
  9.8777479e-01
  2.7652967e-01
 -3.9972000e-02
  6.7217559e-02
  2.0917168e+00
 -1.6203111e-01
  1.5713556e-01
  3.0755915e-02
 -6.9396907e-01
  7.1367151e-01
  4.2535156e-02
  1.9009021e-01
  4.2722481e-03
 -1.0583562e+00
  1.2559931e-02
  1.1034150e-01
  1.2284509e-01
 -3.7537608e-01
  2.6543212e-01
  2.8168640e-01
 -1.7567182e-01
 -7.6432861e-02
 -5.9562031e-02
  5.3910476e-01
 -2.5759098e-01
  8.5012719e-02
  3.9391105e+00
 -1.0315266e-01
 -2.3638435e-02
  3.8139131e-02
 -1.7506041e-01
  1.3212013e-01
  3.7458293e-02
 -1.6069730e-01
 -1.0296763e-01
  8.6916104e-02
 -1.5308206e-01
 -1.4901167e-01
 -9.7174495e-01
 -5.7427365e-02
  2.9928198e-02
 -2.5736380e-01
  6.0314298e-01
  6.0682738e-01
 -7.5134021e-01
 -8.6281288e-01
 -2.5491845e-02
  1.1569630e-01
 -1.3022017e+00
 -1.5350915e+00
 -2.7298275e-02
 -4.3944204e-01
 -7.8775078e-02
  4.4808480e-01
 -2.3956083e-01
  1.1255238e-01
 -2.4976550e-01
 -9.0106120e-03
 -6.2181133e-01
 -3.8425991e-01
  3.6104038e-01
 -1.0332900e-01
 -6.1656630e-01
 -2.3122975e-01
 -3.1771117e-01
  1.1280949e-01
  2.1655695e-01
 -3.8942474e-01
  6.1013705e-01
  1.5682966e-01
  3.6020628e-01
  3.6481094e-01
  1.8562540e-01
 -2.7439545e-03
  5.3251117e-02
  9.7685270e-02
 -1.3931745e-01
 -6.2217677e-01
 -3.2869336e-01
  4.8348364e-01
  2.9606612e-02
 -1.8463859e-01
 -4.1308272e-01
  1.5496831e-01
  4.4056898e-01
  4.3464768e-01
 -1.4069842e-01
  9.4812684e-02
 -1.1274714e+00
 -1.7489967e-04
 -1.2613279e-01
 -3.9187527e-01
 -1.2770252e-01
  2.5562170e-01
 -4.9767327e-02
  6.6437528e-02
 -2.5322836e-02
 -9.5815398e-03
  2.1235010e-01
 -1.9110218e-01
 -6.4169303e-02
 -3.4081864e-01
 -6.5106130e-01
  3.6392978e-01
 -1.5309257e-02
  5.1553434e-01
 -1.2805563e-01
 -1.4714015e-01
 -6.6455847e-01
 -4.4361496e-01
 -3.6481407e-01
  1.0973155e-01
 -2.2707294e-01
  1.1693677e+00
 -4.4823933e-01
 -6.0786116e-01
  2.4066076e-01
 -1.8983734e+00
 -1.1367890e+00
 -2.6128981e-01
  3.2916298e+00
 -2.3435380e+00
  4.1305876e+00
 -8.9484578e-01
  6.6271788e-01
 -2.1368013e-01
 -6.1025512e-01
 -4.6332236e-02
  4.1472605e-01
 -1.2548003e+00
 -7.4294376e-01
 -2.1098614e+00
  4.7544093e+00
 -7.9646391e-01
  2.3569389e-01
  3.0144415e+00
 -1.1632656e+00
 -1.2556289e-01
  1.2330894e+00
 -7.9406895e-02
 -1.0448647e+00
 -1.0677146e+00
  4.5533142e+00
  2.0959686e-01
 -1.1657436e-01
  7.8247523e-01
  2.8958744e-01
  7.0431843e-02
 -1.4595526e-01
 -3.9175889e-01
  3.5909724e-01
  9.0394594e-02
  3.9949745e-01
 -5.6947833e-01
 -3.0385378e-01
 -3.3066282e-01
 -3.0869445e-01
  1.5144947e-01
  1.0907341e-02
 -1.1918623e-02
  1.4894849e+00
 -1.8150564e-01
 -9.3086129e-01
 -2.8766045e-01
  3.9952031e-01
 -7.7807732e-02
  1.4495498e-01
 -3.2540169e-01
  4.2528051e-01
 -9.1051824e-02
  1.3846542e-01
  7.3164501e-03
  3.0821016e-01
 -1.9012444e-01
  1.2837382e-01
 -1.0227984e-03
 -1.1513715e+00
  6.8485296e-01
 -5.4687554e-01
 -2.3605391e-01
  1.2400666e-01
  1.7632495e-01
 -2.2552380e-01
  1.8595292e-01
  2.9829410e-01
  1.2645659e-01
 -9.4011843e-02
 -6.7499536e-01
  1.4590745e-01
 -6.6601738e-02
  9.2967749e-02
 -1.9232775e-01
 -5.1087886e-01
  1.1734477e-01
 -2.2970527e-01
 -9.4633147e-02
  3.3803891e-02
 -2.9735368e-01
 -4.8241013e-01
  1.9255675e-01
 -2.1842685e-01
  1.9064723e-01
  1.0137011e+00
 -2.3698318e-01
  4.9914047e-02
 -1.6685743e+00
  3.0268574e-01
  2.3655060e-01
  8.2273275e-02
 -1.8158337e+00
 -5.1480705e-01
  5.3294724e-01
 -4.0072638e-01
  1.7737837e-01
 -9.6219969e-01
 -9.0759084e-02
  2.8333023e-01
  3.6223716e-01
 -2.5072247e-01
  2.4235016e-01
 -5.2282149e-01
 -2.8990427e-01
  3.6689024e+00
 -5.0770140e-01
  3.0911384e+00
  2.3965602e+00
  5.3073235e+00
 -1.5301698e+00
  2.4995013e-01
 -1.5851593e+00
  1.0179851e+00
 -2.4348690e-01
 -2.6685417e+00
 -3.0872899e-01
 -3.2278052e-01
  1.1042703e-01
 -2.3246506e-01
  1.2382662e-02
  1.2702058e-01
 -1.5140249e+00
 -3.3714536e-01
  5.3446633e-01
  5.4701672e+00
 -9.6970093e-01
  4.3901706e+00
  1.3543196e+00
  2.4032816e-01
  8.4635913e-02
 -2.0071781e-01
 -3.0498531e-01
  9.2552081e-02
  4.4185680e-01
 -6.9998175e-02
 -4.1980267e-01
 -3.3704434e-02
  4.7937793e-01
  1.1742203e-01
 -1.6195291e-01
 -1.1482730e+00
  3.5300523e-01
  2.2709303e-01
  2.6104605e-02
 -3.7802622e-01
  7.2092509e-01
  8.0145553e-02
 -3.6113408e-01
 -1.9397436e+00
  1.3351402e-01
 -5.9680367e-01
 -2.3274982e-02
 -6.5165663e-01
 -2.7398568e-01
  4.1185014e-02
 -9.6411711e-01
 -1.3293542e-01
 -6.1929458e-01
 -8.9717008e-02
  5.2953607e-01
 -2.3278525e-01
 -8.9739613e-02
  1.9130573e-01
  3.5185400e-02
  1.5126693e+00
 -2.5820896e-01
  9.1795988e-02
  3.5319963e-01
 -5.2216534e-02
  1.4780578e-01
 -2.3751681e-01
  4.8431702e-02
 -2.0491989e-02
  1.5219618e-01
  1.4720742e-01
 -2.2083175e+00
 -1.9687641e-01
  3.4660208e-01
 -1.2565424e-01
  4.9438435e-01
  1.5183702e-01
 -2.1074797e-01
 -4.5080411e-01
 -2.2974074e-01
 -6.8137757e-02
  1.6144772e-01
 -3.6731750e-01
 -4.0557036e-01
 -4.6492875e-02
 -1.1912505e-01
 -3.1125176e-01
  5.0466238e-03
  2.9676718e-01
 -4.2888099e-01
  2.9808035e-01
  2.6655218e-01
 -7.0833343e-01
 -5.7132405e-01
  4.5435441e-01
 -4.4068705e-02
  4.4507542e-01
  4.8727587e-01
 -7.6792926e-01
 -3.0169960e-03
 -2.1810472e-02
  6.8063349e-01
 -2.2706787e-01
  3.6679547e-02
  1.5562904e-01
  2.3267157e-01
  7.2445965e-01
 -9.4053334e-01
 -2.6250407e-01
 -1.1977079e+00
  1.4195697e+00
 -6.5521401e-01
 -2.2373916e-01
  1.5133186e-01
 -1.1797018e-01
  1.1827495e+00
  7.1894622e-01
  1.5476701e-01
 -3.8291287e-01
  1.6420490e-01
  9.6312845e-01
  3.9491954e-01
 -6.9232094e-01
  5.0729918e-01
 -2.7115515e-01
  1.5229489e-01
 -2.3946799e-01
  2.5301179e-02
  6.8799597e-01
 -6.8053979e-01
  1.1413008e-01
  7.4394864e-01
  5.6654489e-01
 -7.1364671e-02
 -1.7707774e-01
 -6.5742058e-01
 -9.2146412e-02
 -1.4408132e-01
 -3.3613157e-02
 -2.5173000e-01
 -1.3878597e+00
  1.8015088e-01
  5.8082962e-01
  1.6791854e+00
  2.1738632e-01
  4.3170351e-01
  1.6094607e-01
  4.5551339e-01
  2.2895248e+00
 -5.8378863e-01
  4.7621349e-01
  2.5061026e+00
 -1.3247019e+00
 -9.0495855e-02
 -2.7364352e+00
 -2.4404876e+00
  1.9631042e+00
 -9.4424123e-01
 -2.6483533e-01
  1.3083613e-01
 -1.7792920e+00
  1.4935297e+00
 -3.4546659e+00
  7.9814374e-01
  9.7610068e-01
  3.2745543e-01
 -1.4403476e-01
 -2.1800028e-01
 -5.7933617e-02
 -1.3802913e-01
  2.5863945e-01
 -5.5702502e-01
  3.7544197e-01
  2.4901529e-01
  6.9970566e-01
  6.1462069e-01
 -1.0851839e+00
 -1.9638591e-01
 -7.5665422e-02
 -2.0575744e-01
 -7.0488222e-02
 -1.6774893e-01
  5.3064711e-02
 -3.8937911e-01
  1.4236951e-01
  3.2046713e-02
  3.7372801e-01
 -2.7748308e-01
  3.2195792e-02
 -8.3132589e-01
 -2.3150977e-01
  1.4106585e-01
 -7.1271265e-01
  5.6423284e-02
 -3.2868877e-01
  2.5878113e-02
 -1.2947138e-02
  3.3279720e-01
 -4.5693046e-01
  1.0357442e-01
 -2.7148890e-01
  4.5022583e-03
 -5.4992956e-01
 -3.7493744e-01
 -3.3629325e-01
  4.0649417e-01
  7.9889697e-01
  2.3076963e-01
 -6.1562890e-01
  9.0646565e-01
 -2.5615840e+00
 -1.3473659e+00
  2.0981725e-01
  2.1054499e+00
 -6.0165670e-02
  5.2693522e-01
  5.0429982e-01
 -1.2966575e-01
  1.8206099e+00
  2.3587434e-01
 -1.7058372e+00
  2.8083231e+00
 -2.8698463e+00
 -4.1685719e+00
  9.7244805e-01
  1.5547491e+00
  1.4325103e-01
  5.3515690e-03
  3.8835302e-01
 -2.2265130e-01
  2.8767505e+00
  6.8746577e-03
 -5.7609934e-01
  8.4489268e-01
  1.3529910e+00
 -1.4173067e+00
  3.0389267e-01
 -5.2446812e-01
  6.8903393e-01
  5.8636546e-01
  2.7870402e-01
  1.4718014e-01
  1.0234179e-01
 -1.9913818e-01
  1.5234669e-01
  2.1838356e-02
 -1.7168491e-01
 -3.7107745e-01
 -1.1266161e-01
  1.5762694e-01
  6.6477135e-02
 -8.9675087e-01
  1.5546541e-01
 -9.7363837e-02
 -3.4290828e-02
  3.0942652e-01
 -3.8123614e-01
  5.2941114e-01
  1.0844211e-01
  5.7377905e-01
 -2.4310778e-01
  6.3318813e-01
  2.4052888e-01
 -1.5767103e-01
 -4.2672314e-02
  2.3743159e-01
 -4.1327593e-01
  5.0544536e-01
 -2.4415228e-01
  1.9590184e-01
 -6.4126194e-01
  3.4071124e-01
 -7.1632698e-02
 -2.8671467e-01
  4.6882447e-02
  1.5330947e-02
  3.0409303e-01
  9.0817869e-02
  1.8769692e-01
 -2.0989642e-01
  1.0394868e+00
 -7.9875708e-01
  1.3748461e+00
 -6.2126976e-01
  4.5901399e+00
  2.4987634e-01
  1.3197261e+00
 -7.2705593e+00
  1.8003231e+00
 -7.4139917e-01
  1.8764585e+00
  9.0640265e-01
 -1.3532331e+00
  3.3800652e+00
 -3.1988184e+00
 -2.7461936e+00
 -2.3893263e+00
 -7.5647898e+00
  2.7872127e-01
  5.7003611e-01
 -3.3685737e+00
 -1.3208385e+00
  1.2601367e-01
  2.4195282e-01
  2.8350377e+00
 -3.9787881e-02
 -5.5415046e-01
  7.0349202e-02
  3.6270028e-01
  2.9526470e+00
 -2.1758841e-01
 -2.1910577e-01
  5.2165645e-01
 -6.4651525e-01
  1.5885447e-01
  4.1747723e-02
 -3.8761246e-01
 -2.4076691e-01
 -1.9006427e-02
 -1.9903478e-01
  2.2973926e-01
  1.3192764e-02
 -8.4883988e-01
  1.9836098e-01
  1.5227075e-01
 -3.2070972e-02
  1.6476677e-01
  6.7514431e-01
 -3.1968743e-01
 -2.1053918e-01
  2.2797702e-01
  6.3855529e-02
 -1.3415872e-01
  1.1703500e-01
  4.0122911e-01
 -4.2822370e-01
 -4.3319337e-02
  5.7639759e-02
 -6.5222049e-01
 -5.2051288e-01
  3.5504669e-02
  3.6752000e-01
 -2.2761187e-02
  2.4576265e-01
 -1.0102962e+00
  3.1098936e-02
  2.5727627e-01
  1.0761432e-01
 -5.5992715e-02
  2.0276729e-02
 -4.8470998e-01
 -1.2181519e-01
  4.5615312e-01
 -9.9407667e-01
  4.5932791e-01
 -3.0005178e-01
  3.3206627e-01
 -3.8485658e-01
 -3.6664528e-01
 -1.7418857e+00
 -7.5725131e-02
 -2.4208514e-01
  2.2068861e-01
 -1.1373173e+00
  1.8159097e-02
 -2.1062385e-01
 -1.5799687e+00
 -1.5640715e+00
 -1.1976269e-02
 -4.6692111e-02
 -2.0893818e-01
 -2.0893064e-01
  7.5011455e-02
 -3.4300917e-01
 -2.7005163e-01
  2.1429412e-01
  3.9387236e+00
  4.4165131e-01
 -1.5787151e-01
  1.3481955e-01
 -2.2093333e-01
  4.6347466e-01
 -1.6387659e-01
  1.7749256e-01
 -6.9345796e-01
 -1.0109915e+00
  6.2613654e-01
  1.9326015e-01
 -2.6712213e+00
  2.0611362e+00
 -5.5641490e-01
  1.1275661e+00
 -3.8122360e-02
 -3.2905442e-01
 -4.6461844e-01
  5.9344053e-01
 -1.0675514e+00
  3.6563084e-01
  2.0184877e+00
 -1.6405768e+00
  3.1747502e-01
 -1.7555140e+00
  1.6201913e+00
  3.1233720e-02
  2.2984855e+00
 -9.3254499e-02
  1.4053763e-01
 -1.2574403e+00
  7.2551239e-01
  9.1974515e-01
 -4.1979840e-01
 -1.3564438e+00
 -1.9152810e-01
  1.1812098e-01
 -6.3769048e-01
  6.7144468e-02
  5.8491945e-01
  2.3262407e-01
  9.9416664e-03
 -5.0790435e-01
  2.2167306e-02
 -7.5290108e-01
 -2.3980910e-01
 -6.6084862e-01
 -3.0510029e-01
  2.9326150e-01
  3.1766531e-01
  2.6424640e-01
  2.1269369e-01
 -1.5733082e-02
  8.4452376e-02
 -1.7675929e-01
  1.6778575e-01
 -9.0098357e-01
 -8.6530983e-02
 -6.1145023e-02
  1.7992133e+00
  9.5851749e-02
  5.9204288e-02
 -3.3171517e-01
 -1.1285990e-01
 -8.4983312e-02
  1.8664308e-01
  2.6007086e-01
  4.9229452e-01
 -1.7358281e-01
  3.9905753e+00
  5.1732972e-02
 -2.7274981e-01
 -3.5187051e-02
 -2.5232333e-01
 -2.7264211e-01
 -9.5820439e-01
  1.6544454e-01
 -1.0908688e-01
 -2.0211369e-01
  1.5903269e+00
 -1.1289504e+00
  5.1472418e-02
  1.7857010e+00
  8.8791329e-01
  2.5335401e-01
  2.2645245e-01
 -1.4797376e-01
  1.3353907e-01
  1.4166719e-01
 -1.0498466e+00
 -7.9861307e-01
  8.9843102e-02
 -1.0155257e-01
 -5.3752001e-02
 -1.9006641e-01
 -2.0536342e-01
 -7.7273034e-02
 -1.1680108e-01
  1.7802955e-01
 -9.2563674e-02
 -2.0986316e-01
 -2.0411187e-01
  2.2711702e-01
 -1.0489563e+00
 -6.5025765e-01
  5.1108229e-01
  4.3885544e-01
  3.6942814e-02
  2.5688502e-01
 -1.7419277e-01
 -8.4390843e-01
 -1.7211610e-01
  4.6168700e-01
  4.6704474e-01
  6.7898780e-01
 -5.9399020e-02
  2.9128757e-01
 -7.6602215e-01
 -7.2304225e-01
 -1.4647689e-01
 -8.2405612e-02
 -2.6959971e-01
  9.7659789e-02
  2.8637284e-01
  3.9215866e-02
 -1.2441298e-01
 -4.0536246e-01
 -1.0455225e-01
 -2.8498583e-03
  2.5826352e+00
 -4.1836783e-01
 -5.4873443e-01
  8.6482450e-02
 -1.7967987e-01
 -2.0875964e-01
  1.6776210e-01
 -5.1441457e-02
  7.7367071e-03
 -3.2313746e-01
 -2.2707257e-02
 -9.7596660e-02
 -2.8096074e-01
 -9.6696220e-02
  2.5224495e-01
 -5.4581821e-01
  1.8564509e-01
 -7.1101815e-01
 -4.4674838e-01
  4.7969370e+00
  2.0246730e+00
  8.5752004e-01
  3.1105793e+00
 -2.5499873e+00
  9.1981500e-01
 -5.3217816e+00
 -2.1058066e+00
 -4.3661938e+00
 -1.6737071e+00
 -2.0082368e-01
  1.0777594e+00
  9.8915303e-01
 -1.2386667e+00
  2.2083424e-02
  2.3913860e+00
 -2.7392781e+00
 -1.1682079e+00
 -3.2520466e+00
 -1.9129628e-01
 -1.6754446e+00
 -1.4873598e+00
 -2.4673152e+00
 -1.9391867e+00
  8.9375710e-01
 -3.2655132e-01
 -1.2901033e-01
  1.6795509e-01
  7.4442887e-01
 -6.7392522e-01
 -7.7824742e-01
  1.0753365e-01
 -3.1824226e+00
 -2.2631656e-01
  4.4824252e-01
  9.4931670e-02
  1.7945668e+00
  2.4097039e-01
  1.8789764e-02
  3.8055921e-01
  1.8175317e-01
  5.3426214e-03
 -7.2952050e-01
 -1.3829021e-01
  2.5587365e-01
 -1.1427061e-01
  5.4078674e-01
 -1.8854690e-01
  2.9243296e-01
 -3.9147684e-01
 -1.7723770e-01
 -3.0239596e+00
 -5.7209140e-01
 -3.5764730e-01
  3.2222904e-02
  1.0009277e-01
  5.1823145e-01
  1.1556903e-01
 -6.6301495e-01
  1.4701045e-01
  1.3410190e-01
 -1.0537525e-01
  6.2956743e-02
 -2.4930485e-01
  8.4106284e-01
  1.2586204e+00
  6.6140592e-02
  2.6835015e-01
  2.0295915e-03
  1.3556711e-01
  1.1392792e-01
  1.3424758e+00
  6.7364727e-04
 -1.0006341e-01
 -8.3269132e-03
  2.2195773e-01
 -5.2102268e-01
  1.7388672e-01
  3.3791080e-02
 -4.4915152e-01
 -4.8985210e-01
  1.1711058e-02
 -8.6870116e-01
  1.3824466e+00
 -1.7058581e-01
  1.2052704e-02
 -1.3752347e-01
 -1.0855356e-01
 -2.3189354e-01
  3.4988049e-01
  1.3291489e-01
 -1.0150167e-01
  9.8266637e-01
 -7.3378071e-02
 -2.6814550e-01
  2.4932829e-01
  4.2557469e-01
  1.1374760e-01
  1.4559333e-01
  6.2692732e-02
 -8.1065945e-02
  1.6109626e-01
  5.2061313e-01
 -1.9420350e-01
  2.9395416e-01
 -2.1325721e-01
 -3.8821796e-01
  8.2534082e-02
  8.8063516e-02
  9.4926667e-01
 -3.5195327e-01
 -3.9196837e-01
 -2.9644448e-01
  6.2080830e-01
 -5.8993787e-01
 -5.1244152e-01
 -1.0743465e-01
  4.2251599e-01
  4.7484654e-01
 -1.9187522e-01
 -4.2423647e-02
  3.2663205e-01
  1.0337305e+00
  4.3055186e-01
 -5.3345913e-01
  4.4986433e-01
  7.9493052e-01
 -9.1644466e-01
  9.7465038e-02
 -2.8226364e-01
  2.1975277e-01
 -1.2607108e-01
 -2.3027343e-01
  1.1775246e-01
 -3.7844688e-01
 -1.0732904e-01
  1.3284291e-01
  3.4235483e-01
 -9.2757210e-02
 -9.9564448e-02
 -6.2443244e-01
 -1.6632771e+00
  4.2005494e-01
  6.8938869e-01
 -6.5720879e-02
  1.2754595e-01
  7.3636338e-02
  4.3062562e-01
 -4.2773947e-01
  5.8969688e-03
 -2.4732505e-01
  4.3291476e-01
  1.1516885e-01
 -1.6210340e-02
 -9.2064939e-02
  2.8292140e-01
 -4.8375614e-02
  3.4500870e-01
  5.0782628e-02
  2.0083491e-02
  2.9273855e-02
  1.0341916e+00
  9.1264319e-01
  7.5728518e-01
 -2.3522714e-02
  4.1057166e-01
  8.0817975e-02
  1.4435713e-02
 -4.1698743e-02
  2.9494426e-01
 -4.6376330e-01
  9.5342785e-02
 -5.5993664e-01
 -9.8508880e-02
  4.7700942e-04
  4.4967395e-01
 -2.2074394e+00
  9.3830276e-01
  1.6110128e-01
 -1.6523957e+00
  5.9456098e-01
 -3.1851560e-01
 -2.5574198e-01
  5.8742493e-01
 -1.5903954e-01
 -4.4041404e-01
  9.4156235e-02
  2.6136589e-01
 -3.1518620e-01
  3.9515853e-02
 -4.6541846e-01
 -1.4176430e-01
  9.5010616e-02
  9.6375257e-01
 -4.0836260e-01
 -1.0101860e-01
 -1.1153842e-01
  1.1470745e-01
  1.8185340e-01
  1.4420851e-01
 -1.4388621e-01
 -1.6743511e-01
 -6.4073318e-01
 -2.2311833e-02
  1.0490049e-01
  2.0839005e+00
 -1.2485921e+00
 -7.3480308e-01
 -1.0186741e-01
 -5.2508239e-02
  3.7860438e-02
 -9.6363682e-01
  8.2985449e-01
 -3.4207493e-01
 -4.7536630e-02
  8.3151871e-01
  1.0573632e-01
  3.2266504e-01
  4.6073027e-02
 -5.4921031e-02
  7.4652565e-01
 -3.8410011e-01
  1.4680815e-01
 -9.1020489e-01
  1.1175357e+00
  6.2651634e-02
  4.1941565e-01
  1.5021406e+00
  1.5513351e+00
 -5.0235999e-01
  1.4286135e-01
 -1.8029985e-01
 -3.7467498e-01
  7.3797375e-02
 -6.6774350e-01
  4.4349983e-01
 -1.5215044e+00
 -1.0844363e-01
 -3.7930120e-02
  2.0379460e-01
 -4.5660633e-01
  1.2808442e-01
  4.5435533e-01
 -1.1403900e-02
  5.6182837e-01
  2.0530605e+00
  4.4681180e-01
 -7.5190282e-01
  4.1655903e+00
  2.4725285e-01
 -2.8426499e+00
 -5.2915508e-01
 -1.1700791e+00
 -6.7338300e-01
 -2.6685045e+00
  2.8337765e+00
  2.9123194e+00
  3.5198729e+00
 -4.1844165e-01
 -1.3044491e-01
 -8.6690121e+00
 -3.5711473e-01
 -1.7337041e-02
 -6.9566803e+00
  1.0068827e+00
 -1.9830097e+00
  2.5072566e-01
 -7.4360085e-01
 -2.8742881e+00
  6.2307968e+00
  7.7608556e-01
  1.0230446e+00
 -6.2636353e-02
  1.5525422e-01
  6.2185410e-02
  1.4015830e-01
  1.2452400e-01
 -5.0512493e-01
  7.3145732e-02
  2.3492454e-01
  2.0957918e-01
 -1.6423317e+00
  1.2771858e-01
  5.2342910e-01
  1.5841237e-01
  8.1031275e-01
  1.5929684e-01
 -4.6370032e-01
 -2.6384264e-01
 -4.4170815e-01
  8.7636834e-01
 -3.0518547e-01
  2.6264623e-01
  1.1452280e-01
  7.0825517e-01
  4.7973919e-01
 -3.8758513e-01
  2.2171250e-01
 -5.9776807e-01
  1.5876342e-01
  2.9849324e-01
 -1.2672144e-01
 -9.9257030e-02
  4.7822288e-01
  1.1644761e-01
  1.9887953e-01
 -8.9680729e-03
 -1.5834373e-01
 -6.4287871e-02
 -3.5854200e-01
 -2.0993355e-01
 -4.6928176e-01
  1.0086875e-01
 -3.8958585e-01
 -4.3988746e-01
  2.9400754e-01
 -1.8287537e+00
 -8.8270438e-01
  1.5685250e-01
 -2.9323623e-01
  1.6176365e-01
 -8.1984574e-01
  3.5476647e-02
 -2.6362824e-01
 -1.7283533e+00
  9.7760326e-01
 -2.6381320e-01
  6.7190462e-01
  2.7672173e-02
  1.6805570e-01
  1.6973687e-02
  4.1753960e-01
  5.5932862e-01
 -2.1533149e-01
  6.0683429e-02
 -1.9638030e-01
  5.0944909e-02
 -2.0556139e-02
 -6.6274476e-01
 -6.7291552e-01
  5.2602053e-01
 -4.8342219e-01
 -1.6093546e+00
  3.1107618e-03
 -2.0998703e-01
 -6.3480794e-02
  2.3157153e+00
  2.2758165e-01
  2.4675167e-01
 -2.2936170e-01
 -1.6682787e+00
  4.3316998e+00
  1.4441626e+00
 -3.9881369e-01
  4.9412420e-01
 -4.8711875e-01
 -2.2205365e-01
  3.4627950e-01
  3.7642696e-01
  2.2864775e-01
  2.1557963e+00
 -2.9168087e-01
 -4.1019091e-01
  2.2074444e-02
  7.6895046e-01
 -1.2401889e-01
  1.3675917e-02
  3.6704153e-02
 -6.5754212e-02
  3.6300492e-02
 -2.7426979e-01
  5.6756520e-01
  1.8989745e-01
 -3.8781129e-03
 -4.3427952e-02
  5.5018909e-02
 -1.1215641e-01
  5.7323915e-01
  3.4813259e-02
  9.1475539e-02
  1.8352559e-01
  3.9668862e-02
 -2.7506471e-01
 -6.3761815e-02
 -2.0901868e-02
  1.1750282e+00
 -5.9709537e-01
  1.5743848e+00
  3.4193347e+00
  1.8559279e+00
 -9.4797796e-01
  1.5658989e+00
  5.7127845e-01
  1.0709323e+00
  1.2417940e+00
  2.4090331e+00
  5.5238289e-01
 -1.7089741e+00
 -2.6390615e-01
 -1.1915361e+00
  2.8560770e+00
  1.7531812e+00
 -4.2869167e+00
 -8.2002717e-01
 -2.6601902e-01
  1.7087850e-01
  3.6159041e+00
 -3.1353071e+00
  2.2018247e+00
 -1.0711948e+00
 -5.5439442e-01
 -6.6580892e-02
 -4.6812546e-01
 -4.5636404e-02
 -3.0974286e+00
 -4.8780221e-01
 -6.4301863e-02
  2.4632544e-03
 -7.1964288e-01
 -7.3587067e-02
  3.3434083e+00
 -6.3537878e-01
  6.4630038e-01
  6.7109978e-01
  1.0104189e+00
  6.6537642e-01
  1.6615485e+00
  1.7469536e+00
  1.4051639e-02
  2.9732995e+00
  4.1065583e+00
  1.3655220e+00
  3.2241061e+00
  6.7411816e-01
  5.5574310e-01
  3.0352852e+00
  1.7212428e-01
 -9.7934830e-01
 -4.8838096e+00
  3.1646430e-02
 -1.7272706e+00
 -9.7980332e-01
 -2.8175464e+00
  2.3043771e-01
  2.4398463e+00
  2.1337590e-01
 -3.4334674e-01
 -4.0531348e-02
  3.5469744e-01
 -1.2788031e-01
  6.1697429e-01
 -3.8379672e-01
  4.0969115e-01
  4.7847870e-01
 -4.7953373e-01
  1.3750148e-01
 -9.4409084e-01
 -6.1269063e-01
  6.2386066e-01
  9.5998921e-02
 -8.3697945e-02
  2.6156056e-01
 -2.5249550e-01
  1.1900439e-01
  4.0367071e-02
 -2.5671966e-02
 -4.6734208e-01
 -8.0947891e-02
 -2.2816555e-01
  9.1477469e-02
  2.5553387e-02
 -1.8187201e-01
 -1.7977558e-01
  1.1381725e+00
  8.7585859e-02
 -2.4755049e-01
 -5.4762584e-01
  6.1016750e-01
  2.0718241e-01
  3.4435692e-01
 -9.4502926e-01
 -9.3465202e-02
 -7.0070326e-02
  3.8529408e-01
  3.6168766e-01
  6.1903256e-01
 -3.1935167e-01
  3.4321558e-01
  2.8075111e-01
 -3.0888310e-01
 -5.0695235e-01
 -1.3715719e+00
 -2.8535169e-01
 -1.2903463e+00
  2.2203050e+00
 -6.2914526e-01
  1.9432405e-01
  2.5921625e-01
 -1.0097315e+00
 -3.1323600e-01
  1.6082723e+00
  2.5424683e+00
 -2.5698686e-01
 -1.3281611e+00
 -5.2859724e-01
  3.5106642e+00
  1.4474324e+00
  9.2286341e-02
  7.2746835e+00
  8.9408390e-02
  2.5443060e+00
  1.0186483e-01
 -1.0277100e+00
 -1.1850296e+00
 -7.0555735e-01
  1.5040662e+00
 -3.0441430e-01
 -7.4040249e-02
  4.8944399e-01
 -1.5689530e+00
  2.9379374e-01
 -6.1194092e-01
  3.1959555e-01
  8.1696653e-01
 -2.6478472e-01
  8.7267435e-01
 -2.6146834e+00
 -6.3229471e-01
  5.9416413e-01
 -5.4688919e-01
  1.1404427e-01
  5.7769680e-01
 -1.2497905e-01
 -2.3022152e-01
 -5.4969114e-01
  1.7781194e-02
  1.5482715e-01
  1.2657802e+00
 -4.2542237e-01
 -9.4689511e-02
 -4.5723695e-01
 -1.5774587e-01
  1.1219000e-02
  1.6260681e-01
  3.4772057e-02
  7.6632476e-01
 -9.7492909e-01
 -1.4885955e-02
  4.4101480e-01
  9.1013217e-01
 -2.9561293e-01
  2.1472206e-02
  9.9711113e-02
  1.0684423e-01
 -1.8889159e-01
 -2.9061425e-01
  1.4418171e-01
  1.0513899e+00
 -4.5075509e-01
  1.2867933e-02
  1.5345009e-01
 -8.6503780e-01
 -3.3798449e-02
  3.0526754e-01
 -8.5540706e-01
  3.5091710e-01
  8.1541426e-02
 -2.5335979e-01
 -2.8690711e-01
  1.8649411e-01
 -9.1349252e-02
 -8.6040646e-03
 -2.1278308e-01
 -7.2414285e-01
 -4.8889333e-01
 -1.2112720e-01
  4.9045396e-01
 -1.4727207e-01
  4.6025649e-02
  2.5103492e-01
 -1.4051674e-01
  1.7699447e-01
 -2.5909671e-01
 -3.0449864e-01
  8.9282021e-02
  3.3571818e-01
  2.4038321e-01
  3.2249606e-01
  1.4363066e+00
 -2.1604881e-01
 -2.8063199e-01
  6.3409269e-02
 -8.5524984e-02
  3.4293270e-01
  9.0150827e-01
  2.3792364e-01
  1.9243801e+00
  2.0026933e-01
  4.8062867e-01
  7.3751062e-02
 -2.1778326e-02
  9.1515213e-01
  9.9454261e-02
  5.7633340e-01
  3.0888787e-01
 -1.9884619e-01
 -4.1192442e-01
 -5.3521134e-02
  3.3653937e-02
  8.3973475e-02
  7.8554326e-01
  5.9638000e-01
 -5.1877558e-01
 -3.1121337e-01
  2.0338137e-01
 -5.6163144e-01
  9.0299688e-02
  5.7198691e-01
  2.6177245e-01
  7.6979160e-02
  6.6854469e-03
  4.4991171e-01
 -7.5557470e-02
  2.1642958e-01
 -1.3368709e-01
  2.1839644e-01
 -4.5723772e-01
  8.3976977e-02
 -3.3086252e-01
 -4.4599843e-01
 -2.2670875e+00
  9.5565349e-01
 -1.3566123e+00
  1.6637066e-01
  6.1698157e-01
 -1.3870471e+00
 -3.2800806e+00
  1.6574687e+00
  4.3389875e-01
  2.5500600e+00
 -1.7569628e+00
 -1.6013801e+00
 -3.0570521e+00
 -1.3619663e+00
  3.2262828e+00
 -1.2866015e+00
 -2.4182398e+00
  1.2564218e+00
  3.6789069e-01
  2.4167414e+00
 -1.1239582e-01
  4.4040516e-02
 -3.5721788e-01
  4.4241112e-01
 -9.7571772e-01
  1.5440989e-01
 -1.2145147e-01
  2.8630590e+00
 -5.4689825e-01
 -2.9078648e+00
 -1.3831626e+00
  9.1467053e-01
 -8.9023817e-01
  1.0400242e-01
 -2.0181229e+00
  1.7734365e+00
  1.4660130e+00
 -7.5854170e-01
  4.2900882e+00
  1.5636954e+00
 -2.7113476e+00
 -2.2204986e-01
 -1.8215165e+00
  1.7272456e+00
  9.1246164e-01
 -2.1907496e+00
  1.4904661e+00
 -6.3556176e-01
  1.4007168e+00
  3.6777091e-01
 -3.4968979e+00
  3.5815480e-01
 -3.8301053e+00
 -5.3182912e+00
  8.6879790e-02
  4.0003181e+00
  2.6541514e+00
  1.9277440e+00
  6.1991711e+00
  1.8590033e+00
  1.4087628e-01
 -4.3992272e-01
 -3.5932678e-01
  3.0522987e-01
  1.3971183e-01
  3.9839152e-01
 -2.2350276e-01
  2.7903533e-01
 -5.0910366e-01
 -3.5406336e-01
  1.5621124e-01
  2.3486600e+00
 -3.0848652e-01
  1.4826754e-01
 -2.1882544e+00
  1.8421146e+00
  6.9741344e-01
  1.7760850e-01
  1.2034626e+00
 -1.1645073e+00
 -3.8140578e+00
  7.0409787e-01
 -7.9173185e-02
 -9.7523624e-01
  1.0702001e+00
 -1.6884041e-01
 -3.9958575e+00
 -1.7082644e+00
 -1.5138352e+00
 -2.6979315e-01
 -2.3499538e-01
 -1.4489751e+00
 -6.4194953e-01
  5.4530364e-02
  2.9029638e-01
  1.3131415e+00
  3.6036689e-02
  8.9346878e-02
  3.1489813e-01
 -4.0019614e-01
 -2.7797204e-01
 -1.9148177e-01
  3.1690446e-01
 -2.3682948e-02
  9.4327593e-01
  9.9843401e-01
 -2.4607503e+00
  1.5196583e+00
 -2.7877245e+00
  1.1858889e+00
 -1.2368605e+00
 -1.8519737e+00
  6.9544882e-01
 -2.0270464e+00
  2.5891657e+00
 -1.5633136e+00
  1.5407577e+00
  1.2976842e+00
 -5.1332837e-01
 -2.4199544e-01
  2.8782043e+00
  1.6686364e+00
  6.0659170e-01
 -4.3936167e+00
 -1.2738028e+00
 -4.7282779e-01
 -7.0736986e-01
  6.7895669e-01
 -8.3191848e-01
  3.7503189e-01
  1.2369007e+00
  3.2904122e+00
  4.0920183e-01
  2.9230186e-01
  8.3506966e-01
 -1.0290498e+00
  1.2070749e+00
 -1.0813588e+00
 -7.4705780e-01
 -4.5558047e-01
  2.5815861e+00
  1.9714807e+00
  1.7652610e-01
 -2.2786927e+00
 -1.1363282e+00
  1.3327211e+00
  2.7687387e+00
  5.5105335e-01
  5.1138496e-01
 -2.0794723e+00
  1.0331188e+00
 -1.2973130e+00
 -2.8414574e+00
 -5.5149418e-01
 -5.3895074e-01
  5.0880259e-01
 -1.1327405e+00
 -1.1071680e+00
 -5.4685169e-01
 -3.7834084e+00
 -5.0207210e-01
  8.6758518e-01
  3.0304093e+00
 -1.1844062e+00
 -3.3397589e+00
 -1.7980072e+00
 -8.0814308e-01
  3.3008590e-01
 -9.6055728e-01
  1.3339586e+00
  1.2646663e-01
 -2.3025654e-01
 -1.6640572e-01
 -8.2831001e-01
 -6.4163417e-01
  3.4161630e-01
 -1.4028345e+00
 -1.7340750e+00
  1.8478130e-01
 -3.6094454e-01
 -1.0771890e+00
 -4.1991558e-02
  7.6187432e-02
  4.2998859e-01
 -7.9180285e-02
 -2.0376097e-01
  6.2531084e-02
 -2.9936582e-01
  1.0881691e-01
 -6.7725599e-02
 -4.9028456e-02
 -3.1128666e-01
  4.7251429e-02
 -1.1931235e-01
 -3.4445655e-01
  2.0483769e-02
 -5.7138115e-02
  5.3907698e-01
 -3.8521734e-01
 -3.4645256e-01
 -1.8300702e-01
 -6.2983948e-01
 -1.9498792e-01
  4.7936937e-01
 -1.4812262e-01
 -1.5873587e-01
  2.2628008e-01
  2.6330432e-01
  2.2549503e+00
 -1.2589508e+00
  3.2166345e+00
 -2.1922317e+00
 -3.7541995e+00
  3.4513485e+00
 -3.7557044e+00
  3.7981677e+00
  3.8078580e+00
  4.7812802e-01
 -3.7747579e+00
  3.4056611e+00
 -3.1155093e+00
 -1.4991739e+00
 -2.3445876e+00
 -5.9451407e-01
  2.8076048e+00
 -3.4397385e+00
 -3.6289661e+00
  5.0187387e+00
  3.9119909e+00
 -3.1345999e+00
  4.4732089e+00
  2.4876268e+00
 -3.7362487e+00
 -2.8649428e+00
 -4.1672201e+00
  1.3930418e+00
 -3.2541678e+00
  3.4937479e+00
 -4.0841556e+00
 -1.9144958e+00
 -3.8280060e+00
  4.4189448e+00
 -3.7408059e+00
 -3.7061534e+00
  2.9396584e+00
  3.5153065e+00
  7.2716868e-01
  3.3971558e+00
  3.5735409e+00
 -4.2552567e+00
 -3.6336415e+00
 -2.4921494e+00
 -3.8467629e+00
  3.4543133e-01
 -3.2819743e+00
 -3.2578912e+00
  1.3296446e+00
  7.7485836e-01
  1.6418855e-01
 -3.7956288e+00
  2.6110139e+00
 -2.1771531e+00
 -4.0509920e+00
  3.7051947e+00
 -1.0597682e+00
 -1.1072173e+00
 -1.9104154e+00
 -7.0955491e-01
 -1.8009709e+00
 -2.8303130e+00
  2.9268892e+00
 -4.4621119e-01
 -2.0393114e+00
  4.3123202e+00
 -3.8112299e+00
  4.7419758e+00
  2.6888263e+00
 -6.1016019e-02
 -2.8660245e+00
  2.2356780e+00
 -2.7849798e+00
  2.6435101e-01
 -2.4804440e+00
 -1.4864392e+00
  1.8256540e+00
 -1.4715550e+00
 -1.4819568e+00
  2.2803330e+00
  5.3698187e+00
 -3.1844559e-01
  1.3690246e+00
  5.3354473e+00
 -1.6596973e+00
 -5.6331377e+00
 -2.7569838e+00
  3.1031018e-01
 -1.9349618e+00
  3.3265414e+00
 -2.5797162e+00
  3.4237432e-01
 -2.3425715e+00
  2.9665158e+00
 -2.2357163e+00
 -2.4740365e+00
  1.3623919e+00
  7.1937770e-01
 -1.4158766e-01
  3.2244062e+00
  1.5378166e+00
 -1.4599341e+00
 -2.1855891e+00
 -9.4512331e-01
 -3.4468048e+00
 -1.7236091e-01
 -1.8016591e+00
 -5.2673206e+00
  2.9345925e+00
  2.1297774e-01
  1.6903418e-01
 -2.1081626e+00
  1.2355548e+00
 -1.2824039e+00
 -3.1680014e+00
  5.0445681e+00
 -5.3387153e-01
  1.2785989e-01
  2.9662231e-01
 -3.1123378e+00
 -6.7408365e-01
 -2.4710147e+00
  1.7614462e+00
 -1.2232932e+00
 -4.8210457e-01
 -2.7203816e-01
 -8.1926626e-01
 -2.4501874e-01
 -2.6234937e-01
 -5.6680202e-01
 -6.5967065e-01
 -3.1310710e-01
  1.6875163e-01
 -3.2313815e-01
  6.1129409e-01
 -4.4284418e-02
  3.8601300e-01
  1.1695258e-01
 -2.8459498e-01
 -6.1545587e-01
 -1.3876528e+00
  3.8938826e-01
 -3.6094648e-01
 -4.0363673e-02
  8.5975237e-02
  2.3352657e-01
 -1.2417396e-01
 -1.6505148e-02
 -2.0526785e-01
 -1.0863102e-01
  2.5752318e-01
  1.1760132e+00
  5.4334182e-02
 -6.9824350e-01
  1.0497926e-01
 -1.4211717e-01
  4.7391844e-01
 -6.7775565e-01
  1.2337415e+00
  3.7081473e+00
  2.6019661e+00
  4.7936729e-01
  4.3867338e-02
  5.6760365e-01
 -6.0168803e-03
 -2.5544686e+00
  3.7728551e-01
 -2.1657188e-01
 -1.0116777e+00
  2.8416300e-01
 -7.9775453e-02
  3.5212955e-01
 -4.0780610e-01
 -5.7147015e-02
  2.6673695e-01
  5.1055223e-01
  3.8564861e-01
 -4.1519096e-01
  4.9354929e-01
 -1.3288392e+00
 -3.7281805e-01
 -4.3220448e+00
 -4.6548927e-01
  8.1172302e-02
 -4.1005269e-01
 -1.7201969e-03
 -2.4903180e-01
 -1.0299058e+00
 -6.1204386e-01
  1.3602947e-02
 -1.8133618e-01
 -1.0078588e+00
 -2.4560124e-02
  3.5861304e+00
  7.5464302e-01
 -2.7942183e+00
  4.3071318e-01
 -1.1985897e+00
 -1.7220318e+00
  3.7690934e-02
 -2.5452945e-01
  1.0725901e+00
 -3.1662005e-01
 -3.3918533e+00
 -3.8486087e+00
 -1.5658902e+00
 -5.2423358e+00
 -2.8355892e+00
 -1.6518636e+00
  1.5039352e-01
 -1.4807283e+00
  1.6184441e+00
 -1.3919815e+00
 -1.5805858e+00
  1.3052426e-01
  2.6229021e-01
  1.6277046e+00
  7.7389485e-01
  9.3229932e-01
  4.4190359e-01
  2.5018242e-01
  7.7833420e-01
 -4.1698927e-01
  4.3205592e-01
  3.3905017e-01
  7.2706463e-03
  4.0907130e-01
  8.8008267e-01
  5.7427216e-01
  1.0406054e+00
  1.0378360e+00
  5.4856831e-01
 -2.1690379e-01
  1.5487850e-01
 -6.7946367e-02
 -1.6113850e-01
  2.8217286e-01
  1.4008531e-01
 -9.8835874e-01
  6.4549929e-01
 -1.1012950e+00
 -6.9175047e-01
  1.6229893e+00
  1.1014036e-02
 -6.7622828e-01
 -4.5478216e-01
 -5.4957718e-01
 -2.2753166e-01
 -6.8489432e-02
  1.8579108e-01
 -1.2010428e-01
  5.6865054e-01
  4.2131525e-01
  6.0633355e-01
  5.1456523e-01
 -2.9655901e-01
  9.2371322e-02
  3.2143828e-02
  1.1616234e+00
  5.3355122e-01
  4.2830935e-01
  3.0808535e-01
  7.0764679e-01
 -1.1866980e+00
 -1.0485275e+00
 -1.0432531e-01
 -1.3870295e+00
 -1.4808600e+00
  1.6160299e-01
  7.3938370e-01
  1.6044767e-01
  1.7692836e-02
 -3.2966819e-02
 -4.1955006e-01
 -7.5076111e-02
  8.7949419e-01
 -1.8580872e-01
 -6.6922522e-01
  3.5121542e-01
 -2.2791852e-01
 -2.1798100e-01
 -9.8539196e-02
 -2.4364929e-01
 -5.6093055e-01
 -3.7153566e-01
  8.7340675e-02
 -1.6893432e-03
  2.0750046e-01
 -5.1094276e-01
 -1.7844947e-01
  1.7047097e-01
 -2.4000233e-01
 -2.5550810e-01
  2.3604260e-01
  7.7673413e-02
  1.1692140e-01
  1.3445856e-01
  1.0525020e+00
 -7.0795536e-01
 -1.5936060e-01
 -1.7885240e+00
 -1.9601895e+00
 -3.5195741e-01
 -9.5408595e-01
  8.8264889e-01
 -1.6403618e-01
  2.5215921e-01
 -2.4990399e+00
 -2.4559422e+00
  4.6958143e-01
  7.0308432e-02
  5.1618971e-02
 -1.7740986e-01
 -3.0677420e-01
 -3.3834282e-01
  3.7406346e-01
 -6.2894827e-01
 -7.2850466e-02
 -5.2675372e-01
  1.3420808e-01
  2.6147503e-01
  1.3637367e-01
 -2.1719998e-01
 -5.0642057e-03
  1.8504858e-01
  5.4388009e-02
 -2.0836327e-02
  3.0491763e-01
  1.0783970e-01
 -1.2301071e-01
 -9.3880571e-02
  3.3613750e-01
  2.0056666e-01
 -2.0523455e+00
 -8.1867415e-01
 -4.0963020e+00
  3.8511906e+00
  1.4249169e+00
 -2.1333683e+00
  1.8096539e-01
 -4.6003912e-02
  7.2868767e+00
  3.5723548e+00
  1.1225187e+00
  1.3608489e+00
  5.6798667e-01
 -1.8700379e+00
  3.3899304e-01
  3.4051771e+00
 -2.4744129e+00
  4.7449102e+00
 -8.6675219e-02
 -2.8276405e+00
 -3.8145643e-02
 -2.8197366e-01
 -1.8030766e+00
  1.7403951e+00
 -4.7211787e-01
  7.2780943e-01
 -6.7048454e-01
 -1.0216354e+00
 -4.0364555e-01
  2.5045443e-01
 -6.4781100e-01
 -9.3836591e-02
  1.3038047e-01
 -5.3529084e-01
  7.6118574e-02
 -2.3577906e-01
  1.0021363e+00
 -5.7715237e-02
  2.9750118e-01
  7.5403780e-01
  4.2087209e-01
  4.1456369e-01
  5.7672209e-01
  1.7658085e-02
  9.4030416e-01
  8.3385274e-02
 -1.2590539e+00
 -4.4034404e-01
  2.4131589e-02
  5.1660307e-02
  4.7093546e-01
 -5.1009619e-01
 -8.6871982e-02
  2.5330803e-01
 -1.5834335e-02
  3.3221233e-01
  6.7374162e-02
  5.1060498e-01
  1.9117019e-01
  3.9273781e-01
 -4.9998170e-01
 -3.6005658e-01
 -1.5678403e-01
 -2.3862702e-01
 -5.2954476e-02
  2.7909991e-01
  5.7279050e-01
 -6.8192892e-02
  4.6119559e-01
  6.5927613e-01
  6.9416374e-01
 -2.0455222e+00
 -8.6797786e-01
 -6.4167872e-02
  5.5949694e-01
 -3.1635150e-01
  4.7230646e-02
 -3.7776709e-01
 -4.6601523e-02
  2.6377190e-02
  4.4731063e-01
  3.9104247e-01
 -3.0453989e-01
  1.4547217e-01
  3.6844444e-01
  1.0182471e+00
 -1.5786877e-01
  1.3045266e-01
 -1.2424361e-01
  5.2508837e-01
 -1.4967803e-02
  3.5068851e+00
  9.2536235e-01
 -6.0930014e-01
 -1.0570240e+00
  4.9715024e-01
 -9.1625229e-02
 -4.9118233e-01
  7.7976751e-01
 -9.9404693e-02
  3.1825826e-01
  3.2341340e-01
 -4.8632108e-02
 -8.3022749e-01
 -6.9961905e-01
  6.3098192e-01
  3.2841060e+00
  1.6010629e+00
 -1.4773554e-01
  4.4193022e-02
 -5.1145339e-01
 -5.9276575e-01
 -8.8946247e-01
 -5.1817673e-01
 -1.7919627e-01
 -2.8022850e-01
 -3.4682316e-01
 -2.9363167e-01
 -6.5352929e-01
 -1.2172617e+00
  2.7089220e-01
 -6.7962050e-01
 -1.0839663e-01
  1.2931097e-01
  2.5251848e-01
  4.7016224e-01
  4.1154984e-01
 -7.6936257e-01
  3.1738231e-01
  6.7794263e-01
  7.1006052e-02
  4.7109064e-01
 -3.8806420e-02
 -1.5730311e-01
  8.4961466e-03
  1.3828572e-02
  2.0342331e+00
  1.3391201e-01
  6.3146901e-01
  2.7459004e+00
  4.4992971e+00
 -1.3664880e-01
 -3.6801599e-04
 -1.1143289e+00
 -2.5943575e+00
 -2.1368673e+00
 -3.5936387e+00
  1.9695745e+00
  5.4317027e-01
 -3.2426950e-01
  2.2180600e-01
 -1.6771772e+00
  1.4181155e-01
 -1.3461217e+00
 -5.5845386e-01
 -3.2567647e+00
  5.6986291e-02
 -4.0394959e+00
  2.8409402e+00
 -8.2745969e-01
 -2.7499626e+00
 -6.4415425e-01
  2.0521135e+00
  3.0279157e+00
  8.7668204e-01
 -3.8787338e-01
 -5.3863281e-01
 -8.6250353e-01
 -2.1855567e-02
  1.5099084e-01
 -2.4400352e-01
  2.0660906e-01
  2.1772279e-01
  5.4475921e-01
 -5.6590565e-02
 -8.7266797e-01
 -4.1619182e+00
  1.6303575e+00
 -8.3004612e-01
 -1.7276071e-01
 -2.7095568e-01
 -7.6078403e-01
 -1.6627542e-03
  7.2288722e-01
 -9.8116109e-03
 -2.2437470e+00
 -5.0266224e-01
  6.8486631e-02
  4.1609031e-01
  4.3349844e-01
 -7.4355841e-02
 -3.5109487e-01
  1.1784696e-02
 -4.6029460e-01
 -1.1191095e+00
 -6.8717222e-03
  6.0969132e-01
 -3.2144945e-02
 -4.8459205e-03
 -3.6830160e-01
 -1.4294967e-01
 -6.6966757e-02
 -6.6255638e-03
 -3.3482438e-01
 -3.8162068e-01
  4.5306221e-01
 -1.1155298e+00
  2.0779875e-01
  4.3326039e+00
 -1.0453123e+00
 -3.6430004e+00
 -8.4418440e-01
  1.5352041e+00
 -3.4691720e+00
 -1.1713835e+00
  8.3320608e+00
  1.5938964e-01
 -1.4579499e+00
 -4.7096300e+00
  3.8377863e-01
 -9.8365122e-01
  1.9569112e-01
  1.4671794e+00
  1.8211634e+00
 -9.4276476e-01
 -4.2447358e-01
  6.9817930e-02
  5.8323145e-01
 -2.1246770e-02
  2.2525470e-01
 -9.6972805e-01
 -4.7927198e-01
  6.9415003e-02
 -2.1194372e+00
 -1.6542766e+00
 -3.0766058e-01
 -1.0379146e+00
 -3.7365991e-01
 -1.3441013e-01
  8.8561010e-01
 -3.6593544e+00
 -9.2974138e-01
  8.8252372e-01
  9.0583187e-01
  5.5709419e+00
 -8.5922945e-01
 -2.6723425e+00
 -1.7704935e+00
  2.3033968e-01
  3.5355499e-01
  1.3987045e-01
  1.7346703e-02
 -3.0269128e-01
  3.5565147e+00
  4.3249350e-02
 -3.3094406e-02
  4.2236466e-02
  2.6646628e+00
 -2.0693262e+00
  7.2376972e-01
 -1.6755190e-01
 -6.6428137e-01
 -5.2565539e-01
  1.7312579e-01
  6.9133681e-03
  1.3664559e-01
  3.1549680e-01
 -3.8813785e-01
 -2.1490722e+00
  8.8294931e-03
 -2.0178452e-01
 -1.1541495e-01
  7.7775517e-03
  1.3445875e-01
  3.2282796e-02
  2.4290990e-02
  7.3491329e-01
  9.1103172e-01
 -9.6298131e-04
  6.0875636e-01
 -9.7985840e-01
 -2.8434661e-01
 -9.7289585e-02
 -1.9457392e-01
  2.2691624e-01
  2.0123245e-01
  6.0629331e-02
  9.7187601e-02
 -1.0568221e-01
 -2.2488809e-01
  3.1806443e+00
 -1.8335471e-01
 -1.7586169e-01
 -6.0662019e-01
 -3.4873122e-01
  8.1539273e-02
  1.0339025e-01
  9.4729298e-01
  1.1068806e-01
 -3.8647640e-01
  3.7116542e-01
  6.0626771e-02
  4.1610119e-01
  3.5111603e-01
 -1.4855374e+00
  1.3303041e-01
  5.3864104e-01
 -2.4143569e-01
 -1.3646144e-01
 -7.6617414e-01
  3.2165593e-01
 -2.0136560e-01
 -1.5196882e-01
  8.8037133e-01
 -2.8661413e+00
  3.6192904e+00
  1.6461244e+00
 -3.1054619e-01
 -2.1217721e+00
 -3.7907332e-01
  2.2263618e+00
 -1.1183072e-01
 -6.3178653e-01
 -5.8766078e-02
 -1.4305731e+00
  3.8179018e+00
  1.3508651e-01
  3.4607202e-01
  4.3881842e-01
  4.1702029e-01
 -3.4993351e-01
  1.9962353e+00
 -3.9802182e-01
  8.9350931e-02
  1.3224083e+00
  3.7462759e-01
 -2.0485678e+00
  1.1494527e+00
 -6.0585272e-01
 -8.5087949e-01
 -1.0571901e+00
 -2.1244253e-01
 -1.8082141e+00
  2.0506261e-01
  5.2311671e-01
 -6.8980944e-01
  3.6421588e-01
 -8.0012508e-02
 -2.9465613e-01
 -8.8075483e-01
  8.9421585e-02
  7.3753548e-01
 -2.4909504e-01
  1.3297502e+00
 -3.0426186e-02
  5.5914849e-01
  2.5054657e-01
 -2.7748227e-01
  2.0619590e+00
 -5.9422743e-01
  1.8625559e-01
  2.3955634e+00
  3.9395082e-01
 -1.6487330e-02
 -5.6733195e-02
  1.2905698e-01
  1.0324996e-01
 -1.6544299e-01
  2.1669620e-01
 -3.6306065e-01
 -3.4384272e-01
 -1.7824835e-01
 -2.8522983e-01
  8.4449612e-02
 -6.1666799e-01
 -1.7857482e-01
 -9.1757119e-02
  8.9471859e-01
  9.2063081e-03
  7.5055107e-02
  4.5717269e-01
  3.4980759e-01
 -3.6042231e-01
 -1.9059427e-01
  2.0504607e-01
 -6.4545774e-01
 -4.9561300e+00
 -1.2434140e+00
 -5.1790679e-01
  1.5677202e-03
  2.6918361e-01
 -5.6331629e-01
 -3.9060661e-01
  1.8108043e-01
 -1.4411686e-01
 -1.1595687e-01
  2.6781735e-01
  1.8867303e-01
  1.8542287e-01
  1.1693633e-01
 -1.1765472e-02
 -3.4887705e-02
  3.3166423e-01
 -1.3039936e-01
 -6.8623596e-01
 -1.9720696e-01
  3.5055766e-01
 -1.1187516e+00
  9.2549451e-02
  2.6253831e-01
  1.1194730e-01
  2.2366552e-01
  1.0233847e+00
  3.8697799e-03
  1.3525512e-02
 -2.5029585e-01
  1.1893915e-01
  3.9687288e-01
 -5.4059452e-01
 -1.7431726e+00
  2.2107770e+00
  1.1121151e+00
  1.5109916e+00
 -5.4876465e-01
  1.5175371e+00
  1.5031464e+00
  9.3156986e-02
 -2.7216060e+00
  3.3894694e+00
 -1.1671388e-01
  7.3661572e-01
 -5.3848606e-01
 -7.6557940e-01
  7.9411936e-01
 -6.2186077e-02
  2.1364460e+00
  1.7089707e-01
  2.6219402e-02
 -9.7806937e-01
 -1.2821007e+00
  2.0050672e-01
  1.4218472e-01
 -2.4074516e-01
  3.7904224e-01
  4.0869588e-01
  2.0661731e-01
  2.3156819e-01
  2.0230852e-01
 -3.6011776e-01
  3.0621058e-01
 -2.9926869e-01
  2.5827020e-01
 -6.2615430e-01
  1.4329478e-01
  4.4847611e-01
 -8.3589739e-01
  3.6215112e-01
 -2.4705083e+00
  3.3407056e-01
  1.3178523e-01
 -4.4961804e-01
 -2.4745902e-01
  5.2719390e-01
 -1.9310458e+00
  5.2317244e-01
 -1.0288043e-01
  1.6523676e-02
  3.1933501e+00
 -1.3239526e+00
  5.5232269e-01
  7.2052866e-01
  2.8490388e-01
 -7.3450178e-01
 -9.0999022e-02
  1.9452116e-01
  2.0733814e-01
  2.5978929e-01
  2.6706794e-01
 -8.2219803e-01
 -3.4327302e-02
  3.1366131e-01
 -1.6056685e+00
  2.3520404e-02
  9.2423499e-01
  2.4026608e-01
  2.3855958e+00
 -1.7581570e-01
 -1.3457128e-01
  3.7244579e-01
 -3.7130883e-01
  2.4629195e+00
  3.6738703e-01
 -1.9251637e-01
  5.1573807e-01
  3.8490248e-01
 -1.9771580e-01
 -7.4965072e-01
 -2.0687515e-01
  4.0929738e-01
  5.1456356e-01
 -2.1221490e-01
 -6.0355002e-01
 -2.1619353e-01
  4.5197444e+00
  1.5733370e-01
  3.4049783e-02
  1.4651511e-02
 -3.5940963e-01
 -4.3235576e-01
  4.1386396e-01
  3.1760034e-01
  6.2329841e-01
  4.4302043e-01
  2.7387145e-01
  3.2227931e+00
 -2.7075854e-01
 -3.5560614e-01
 -2.7195008e-02
 -1.0774412e+00
 -1.3106401e-02
 -7.1676731e-02
 -1.3933134e-01
 -4.5338124e-01
  8.5580230e-02
 -3.9289110e+00
  4.2004132e-01
  5.8890426e-01
  4.4966453e-01
  3.9734378e-01
  3.0811571e-02
  3.5480830e-01
 -4.9140716e-01
  2.4585280e-01
 -2.4164015e-01
  2.5633726e-01
  3.7900978e-01
  5.6348115e-02
 -1.5378614e-01
 -4.8306772e-01
 -1.9713017e-01
 -8.4197540e-03
  2.0138568e-01
  3.4884419e-02
  3.5770664e-01
 -6.1282935e-03
  5.6778032e-01
  4.0930283e-01
 -3.2053281e-02
  5.5104923e-01
  3.2759035e-01
  2.3340671e-01
 -3.5102022e-01
  3.4296288e+00
 -6.6237763e-02
 -9.5379636e-02
  1.9019915e-01
  5.4309922e-01
 -1.3220137e+00
 -5.3070998e-01
  1.5326060e-01
  5.5388904e-01
 -7.9280603e-01
 -3.3377945e+00
 -5.6749785e-01
  8.1383032e-01
  3.0668214e-01
 -3.0922711e-01
  3.3611849e-01
 -2.7295586e-01
 -3.2943991e-01
  1.4373202e+00
 -2.9920849e-01
 -1.6312906e+00
  1.9878229e-01
 -5.2390017e-02
 -4.6909768e-02
 -1.9129665e-01
 -1.6732579e+00
 -5.6139696e-01
  9.9078357e-01
 -7.6540709e-02
  3.0203039e-02
  7.6765135e-02
  7.2618967e-01
 -3.0515966e-04
  7.2775888e-01
  2.2779513e-02
  3.4952512e-01
  2.5316060e-01
 -2.2740935e-01
  1.2726209e-01
  6.1276931e-02
 -1.1509753e-01
  1.3735774e+00
 -9.8006263e-02
  1.1153279e-02
  9.2788786e-01
  5.1658237e-01
  4.1262594e-01
  1.6264365e+00
  8.4825331e-01
 -3.9681754e-01
 -3.6957988e-01
  2.2521408e-01
 -2.8165254e-01
  4.5863781e-02
  8.3697057e-01
  1.3146044e-01
 -2.2519588e-01
  1.8887547e-01
  7.0461214e-02
 -3.5841328e-01
  2.6612547e-01
 -8.4869945e-01
  4.5145530e-01
  1.0632851e+00
  6.5700412e-02
  1.2888982e+00
  5.4720360e-01
 -9.7579598e-01
  3.7447017e-02
  7.5253248e-01
  7.7963680e-02
  3.7548825e-01
 -2.2356126e-01
  1.2969345e-01
  5.2167233e-02
  7.7595723e-01
 -1.2440918e-01
  3.1643122e-02
 -2.9023325e-02
  4.7136909e-01
  1.7592566e+00
  1.2290078e-01
  1.3466798e-03
  3.8915409e-03
 -1.9124375e-01
 -1.0359665e+00
  1.5953054e-01
  2.8699544e-01
 -1.0170574e-01
  2.1516176e-01
  2.8175074e-01
  3.1661335e-02
 -3.6315233e-01
 -9.9374585e-02
  7.8069903e-02
  2.6377720e-01
 -2.2716180e-03
  2.8058818e-01
 -2.6582393e-01
 -1.4039719e-01
 -4.3869430e-01
  6.1827749e-01
  6.1736207e-02
 -6.3319109e-02
  1.4640843e-02
 -7.3543578e-01
  8.9948036e-02
  2.1914157e-01
  2.2750200e-01
 -2.1999486e-01
 -2.4195540e-01
  1.5743920e-01
  2.6345435e-01
 -5.6994158e-01
 -1.6209215e+00
 -9.6016377e-02
 -4.3681383e-01
 -5.7360560e-01
 -4.3872499e-01
 -1.6885418e-01
  3.7139159e-01
 -8.4920955e-01
  5.1582462e-01
 -5.9914976e-01
 -1.0208011e+00
 -5.3954661e-01
 -1.5619308e+00
  2.2918878e+00
 -5.8226194e-02
 -9.1011412e-02
  5.0008523e-01
  7.7961111e-01
 -7.7183169e-01
 -1.0076782e+00
 -4.6711299e-01
 -5.7337075e-01
  2.5761691e-01
  4.3499267e-01
 -1.9613494e-01
 -1.1126349e+00
  3.2934693e-01
 -4.7159318e-02
  5.7766503e-01
  2.0376486e-01
  2.1995515e-01
  4.8147466e-02
 -2.1356492e-01
  4.1319504e-01
 -1.3355935e-01
 -8.8116229e-02
  4.0531877e-01
 -1.7697787e+00
 -1.6191852e-01
 -8.1667227e-01
 -5.3465682e-01
 -8.3970666e-01
  2.3096899e-02
 -2.4047147e-01
 -3.1522712e-01
 -1.0410829e-01
 -1.4011493e-01
  7.4264270e-01
  2.3375511e+00
  9.4208980e-01
  9.4124168e-01
  4.0759340e-01
 -2.5955328e-01
  2.0799021e-01
  2.3255453e-01
 -7.1533823e-01
 -5.0861418e-01
 -3.0637303e-01
 -1.3924247e+00
  7.1771061e-01
  2.0466347e-01
  1.9342679e-01
  1.8414244e-01
  2.4817893e-01
 -2.7394375e-01
 -3.1619862e-02
 -6.7035604e-01
  4.3585342e-01
 -4.2670527e+00
 -8.7329316e-01
  2.5487421e+00
  1.7598249e+00
 -1.1138573e+00
  8.9163609e-02
  8.7783545e-02
  6.4614004e-01
 -8.3370551e-02
  6.4429504e-01
 -8.9344734e-01
  1.3434722e-01
 -8.6481519e-02
 -2.4802807e-01
 -2.4221053e-02
 -3.1972590e-01
  5.8784463e-02
  5.9383744e-01
 -1.3666888e-02
 -1.0459396e+00
  4.2153433e-01
  6.4963919e-01
 -3.0153051e-01
 -3.3852232e-01
  2.4232140e-01
 -4.1334948e-01
  9.6303388e-02
  3.0419031e-01
  1.0035769e-03
  4.4965118e-01
  4.9014634e-01
  2.0596695e-01
 -2.6733157e-01
 -4.9303155e-02
 -2.4147159e-01
  1.9977677e+00
 -7.1805125e-01
  8.5941099e-02
 -1.8305051e-01
  3.8220694e+00
 -3.9087672e+00
 -4.8223764e-01
 -1.4036006e-01
 -5.0086908e+00
 -5.0198383e+00
 -2.0703380e-01
 -2.1896434e+00
 -1.2595127e-02
  3.3534698e+00
 -3.8902783e+00
 -1.0224528e+00
  7.5441402e-01
  4.3157893e-01
 -8.2064039e-01
 -1.7231885e+00
 -1.7442900e-01
  1.5921903e-01
  1.7768830e-01
 -2.5492158e-02
 -2.7382059e+00
 -4.0215376e-01
 -3.3989063e-01
 -2.0084757e-01
 -1.2796440e+00
 -1.8129629e+00
  3.0668777e-01
  7.2143966e-01
  6.1147153e-01
 -2.2548875e-01
  7.6918364e-02
 -7.1680123e-01
  5.1897798e-02
  4.1263673e-02
  3.7289841e+00
 -2.3176834e-01
  4.8861918e-01
 -9.6337423e-02
  6.4569825e-01
  1.2402145e-01
 -3.2679218e-01
  6.0405391e-01
  4.5052683e-01
  2.5771620e+00
 -9.4261575e-01
 -1.9384530e-01
  5.6004447e-01
 -8.3320570e-01
  1.8531854e-01
 -2.1983905e-01
  3.3135226e-01
 -8.0480605e-01
  2.7853626e-01
 -6.6457456e-01
 -2.1897794e-01
  3.6649187e-03
  4.1033983e-01
 -3.2729166e+00
 -3.5072967e-01
  1.6723090e-01
 -2.2163127e-01
 -6.5993488e-01
 -2.2872797e-01
  2.2755565e-01
 -1.2907927e-01
 -3.9936450e-01
  8.5010022e-01
 -4.7950825e-01
 -6.5157902e-01
 -5.4185259e-01
 -1.1316273e-01
 -7.4031511e-03
  8.7285286e-01
  9.6374720e-01
 -4.2084511e-02
  1.5692000e-01
 -2.4089742e-01
 -4.8014489e-01
 -3.3837449e-02
 -3.1111756e-01
 -9.4359880e-03
  2.3588657e-01
 -2.0272393e-02
  4.3543056e-01
 -3.4764263e-01
  6.0974181e-01
  1.1610125e-02
 -2.8971389e-01
  1.1632389e-02
 -4.7333521e-01
  4.9457717e-01
 -5.2854050e-02
  2.1758364e-01
 -4.5697241e+00
 -3.8742289e-02
  4.9227998e-01
 -2.3565938e-01
  1.8650706e+00
 -6.7930773e-02
 -7.7375345e-02
 -1.1792153e+00
 -1.2208239e+00
  2.6555219e-01
  7.3691744e-01
  1.3017377e-01
  1.5659097e+00
  4.9086645e-01
 -7.9951048e-01
 -4.5934245e-01
  2.2631530e-01
  1.1749470e-01
 -1.1687002e-01
 -5.5421805e-01
  8.7653130e-01
  4.3501076e-01
  3.1868035e-01
  3.9899208e-02
  1.3420773e+00
 -3.5422632e-01
  5.0840145e-01
 -3.6714226e-01
 -3.9644408e-01
  9.0912861e-01
  8.3236344e-02
  6.7320102e-01
  2.6048088e-01
  1.6272835e+00
 -4.8571758e-02
 -6.7673513e-04
 -9.5650330e-02
 -3.4995708e-01
 -7.0467465e-02
 -1.1804601e-01
 -9.1155760e-02
 -5.0526869e-01
 -1.0303136e-01
  5.0516479e-02
  3.0783939e-01
 -1.1675125e+00
  1.8449718e-01
  3.9233908e-01
  5.6035197e-01
  1.0640945e+00
 -9.9617290e-01
  3.7057406e-01
 -1.3624887e-01
 -1.2849571e+00
 -4.0614018e-01
  1.3008153e-01
  2.0295411e-01
 -1.7981267e-01
 -6.3872075e-01
  1.7123068e-02
 -6.1867032e-03
  2.0252776e-01
  3.4124678e-01
 -2.7640477e-01
  4.1219383e-01
 -8.8132232e-01
  2.0144918e+00
  6.9504254e-02
  7.6874584e-02
  9.3337528e-02
 -4.3898350e-01
 -1.3669540e-01
  6.8618554e-01
 -1.5327373e-01
  7.9630482e-01
 -4.4082817e-01
  7.9697597e-01
 -7.9213992e-02
 -2.7981418e-01
  1.1425670e+00
  1.2381220e-02
  5.5412138e-01
  2.0965159e-01
  3.2133642e-01
  8.9080775e-01
  2.7906945e-01
  2.0650715e-02
  2.1506503e-01
 -5.4739361e+00
  1.1651808e-01
  7.9422116e-01
 -3.1349009e-01
 -5.7234418e-01
  8.8102683e-02
  3.0700178e+00
 -1.4671884e-01
  2.8901681e-01
  2.9868776e-01
 -2.4586601e-02
 -4.5999046e-02
 -3.8509706e-01
 -7.6796338e-02
 -2.7729490e-01
 -1.6444370e-01
 -3.0823550e-01
  7.1278697e-01
  1.6306024e-02
  4.2214647e-01
  1.4759777e+00
  3.9714187e-01
  1.2746727e-01
 -6.6934928e-02
  3.7615865e-02
 -1.4508060e-01
 -2.3531880e+00
  9.7356373e-01
  2.7528117e+00
 -4.2474375e+00
  2.0959044e+00
  2.3842671e+00
 -6.7000940e-02
  3.8897965e+00
  7.8880038e+00
  4.1351147e+00
  8.1182992e-01
  2.4158518e+00
 -1.4043674e-01
  2.9997416e+00
  3.4337003e+00
  5.6941606e-02
 -1.4150816e+00
 -1.4730261e-01
 -2.0241039e+00
 -3.6962283e-01
  2.2516029e+00
 -9.9779345e-02
 -4.8480937e-03
  4.9546633e+00
  3.4494254e-01
 -4.4660573e-03
  7.1686864e-02
  4.4216892e-01
  1.4790103e-01
  1.0062592e+00
  7.8735209e-01
 -1.3417223e-01
  4.2767203e-01
 -2.5908235e-01
  2.8154549e-01
  3.0967334e-01
 -1.9040860e+00
 -6.4780128e-01
 -1.4760969e+00
  1.2108698e-01
 -9.3190655e-02
  2.9383829e-01
  1.4551945e+00
  6.5951759e-01
  3.0567694e-01
  8.3510733e-01
  1.7879280e-03
 -2.5632957e-01
 -1.6514306e+00
  9.5147304e-02
 -2.5707692e-01
 -2.1949348e-01
 -2.5804791e-01
 -1.7943370e-01
  8.7803870e-01
 -3.7198496e-01
 -2.6952488e-02
 -1.8700975e-01
 -1.3290370e-01
  2.2537971e-01
 -1.9962020e-01
 -5.1634896e-01
 -1.4585230e-01
 -7.9678071e-01
  3.6909741e-01
 -3.8796103e-01
 -2.5753003e-01
 -2.7366135e-01
  9.9266088e-01
 -2.9216069e-01
 -5.9568167e-01
 -2.5864976e-02
  4.9980201e-02
  6.4289355e-01
  2.7001998e-01
  2.1284613e-01
 -2.4938293e+00
 -1.0816233e-01
  4.8130065e-01
  4.7849581e-01
  3.6393031e-01
  2.3856478e+00
 -3.0469927e-01
 -2.5049305e-01
 -8.7930280e-01
 -2.9801139e-01
 -3.2969764e-01
 -5.5523157e-01
 -2.0116010e-01
  9.7853243e-01
 -4.6889499e-01
  3.6389980e-01
 -1.7317893e-01
  6.0781884e-01
 -1.8726410e-01
 -2.0873708e-01
  4.9311772e-01
  2.4210338e-01
  1.2988728e-01
 -2.0253861e-01
 -2.2741312e-01
 -9.7447258e-01
  2.9301202e-01
  3.3473152e-01
 -1.4548855e-01
  8.1210482e-01
 -7.2896767e-01
 -6.1300653e-01
  3.3138868e-01
 -7.1368408e-01
  1.8179101e-01
 -2.2246729e-01
 -1.2190910e-01
 -6.3702452e-01
  3.6613390e-01
 -1.8560797e-01
 -2.8503716e-01
 -2.6141089e-01
 -1.4472347e-01
 -1.6023371e-01
  2.9906323e-02
 -1.4966737e-01
 -6.2894213e-01
 -8.3641745e-02
 -6.6793218e-02
 -9.2517817e-01
 -5.3834891e-01
 -3.4301799e-02
 -4.6573363e-02
  2.4575394e-01
 -9.7306782e-01
  2.3815113e-01
 -7.3293775e-01
  1.5839155e-01
 -4.2732555e-02
 -6.0248110e-03
 -1.5232062e-01
 -1.3551377e-01
 -4.1458625e-01
 -5.4709899e-01
  1.9379851e-01
  1.9985137e+00
  2.0050781e+00
  5.2359444e-01
 -1.8471612e-01
 -1.3145057e+00
  7.3751390e-02
 -1.9333440e-01
  6.3657904e-01
  2.5414065e-01
  5.6162876e-01
  5.8092719e-01
  2.9464692e-01
 -1.4085358e-01
  5.5579227e-01
  5.9050020e-02
  2.1551752e-01
  3.0149016e-01
 -1.0945009e+00
  8.3429836e-02
  3.3770725e-01
  9.4343019e-01
  5.8387709e-01
 -1.2116477e+00
 -3.7922591e-01
  2.6831383e-01
 -6.6363519e-01
  1.8843120e-01
 -1.6886884e-01
 -2.0263878e-01
  5.6917090e-02
 -6.2905222e-01
 -2.4089760e-01
  1.1237722e-01
  7.6745057e+00
  1.1331962e+00
  3.6041875e+00
 -2.5522110e+00
  2.1263919e+00
  4.7292048e-01
  1.5803958e+00
  4.5566246e-02
  1.1195879e-03
  2.7170711e+00
  1.8404231e+00
  8.8054556e-01
  2.1068492e+00
 -3.6063547e+00
  1.9521287e-02
  1.9181602e+00
  4.1385915e-02
 -1.1435564e+00
 -7.8319743e-02
 -8.1990588e-01
 -1.8958825e+00
  2.3400099e+00
  7.7207685e-01
  8.8605696e-01
  1.1368972e+00
 -3.0873740e-01
 -2.4642656e+00
 -5.6068492e-01
  2.4529076e-01
  1.1267249e-02
 -1.6973993e-02
 -4.4722551e-01
 -3.7371072e-01
  5.8908291e-02
 -4.5163635e-02
 -1.0468341e+00
  1.0386739e-01
  3.1938899e+00
  1.4264896e+00
  4.6139124e-01
  1.5039121e-01
  8.6395413e-01
  4.4896610e-02
  5.0449867e-02
 -1.4334658e+00
  1.2030665e+00
  1.4170790e-01
  1.0590542e-01
 -2.8171322e-01
 -8.1029885e-02
 -1.9022693e-01
 -1.5131518e-01
 -4.9190986e-01
  3.4366723e-02
  3.5317233e-01
 -5.7419950e-01
 -8.6674213e-01
 -6.3518053e-01
  7.0552576e-01
 -1.4002143e-01
 -1.5971476e-01
  6.5814823e-02
  4.2732841e-01
 -7.6858568e-01
  7.7287994e-02
  1.1685764e-02
  2.3021577e-02
 -1.9057091e-01
  3.2248724e-01
  1.6530754e-01
 -6.2966269e-01
 -5.5352819e-01
 -3.0885798e-01
 -1.8800768e-01
 -9.0625530e-01
  1.5566833e-01
  2.7146113e-01
  3.7507617e-01
 -9.0420738e-02
 -8.1697237e-01
  3.1654236e-01
  5.6336242e-01
  2.7498996e-01
 -3.9055818e-01
 -1.0000321e+00
  4.1853049e-01
  9.4377533e-02
 -2.1202248e-01
  5.8464283e-01
  1.7561483e-01
  1.4096981e-01
 -1.4283606e+00
  7.8553003e-01
 -2.3622707e-01
 -2.6738869e-02
 -7.8400362e-01
 -8.8015240e-01
 -2.3491770e-01
 -7.1435086e-02
  1.9780502e-01
 -5.5882746e-01
 -1.0840655e-01
  3.3991656e-01
  3.9009035e-02
 -6.3918036e-01
 -5.7657313e-01
 -5.1089513e-01
 -5.0533551e-01
 -1.4697454e+00
 -1.0549391e-01
  1.5310758e-01
 -6.5489954e-01
 -2.7038994e-01
 -1.7510109e-01
 -7.0441741e-01
 -7.7902444e-02
  7.8473322e-02
 -3.6127523e-01
 -4.6623923e-02
  1.0113347e-01
 -1.0809582e-01
  7.3557323e-01
  1.2723462e-01
 -1.7031820e-02
 -2.4650991e-01
  6.1672848e-01
 -6.3731082e-02
 -7.9792157e-02
  6.8898553e-01
 -1.8069445e-01
  2.6862270e-01
  6.9159038e-02
  7.9604909e-02
 -2.8344637e-01
  2.2054389e-01
  1.2937944e-02
  4.9825463e-01
  1.0138355e-01
  1.9840838e+00
 -5.1468968e-01
 -4.2261657e-01
  9.2882192e-01
  1.1286280e+00
 -4.8122054e-01
  5.2844411e-01
 -1.3702867e+00
 -1.6749178e+00
  1.0663713e-01
 -9.1237760e-01
 -3.7376387e+00
  2.2875645e+00
 -1.2374552e+00
 -1.5775429e+00
  3.8111489e-02
 -1.2267207e-01
 -1.2567191e+00
 -2.4581156e+00
 -4.2149115e-01
  9.7737366e-01
  4.6958858e-01
 -4.3551064e+00
 -1.8682673e+00
 -1.3621079e+00
 -3.5580859e+00
 -2.4308187e-01
  3.0534439e+00
 -1.2812642e+00
 -1.0338323e-01
 -1.9822220e+00
 -1.5731232e-01
  1.3380607e+00
  1.3609084e+00
  2.5437880e-01
  1.4348801e+00
  1.8447199e+00
 -2.6466405e+00
  1.6603676e+00
  1.1535033e+00
 -6.5367091e-01
 -2.1570199e+00
 -3.8650316e-01
 -3.4070602e-01
 -2.7755287e-01
  1.7048273e+00
 -1.2518973e+00
 -1.9389498e+00
 -5.0163347e-01
 -1.5551132e+00
  1.3939493e+00
  9.9635702e-01
  1.9712850e+00
  1.9104961e+00
  4.3725820e+00
 -1.4415078e+00
 -1.4752057e+00
  1.2802838e+00
  1.3730731e+00
  1.9950719e-01
 -2.2795246e+00
  1.3916449e-02
 -2.4591510e+00
 -3.6975291e-01
  5.9111971e-01
  6.1964378e-02
  4.2741224e-01
 -1.6804226e-01
 -1.0415622e+00
 -8.3119720e-02
 -6.5198773e-01
 -1.6771001e+00
  1.1872139e+00
 -9.2279434e-01
 -6.4907312e-01
 -1.1333055e+00
 -9.6062595e-01
  1.0714473e-01
 -4.9761447e-01
 -7.6981050e-01
  8.1140071e-01
 -6.2243623e-01
 -8.7076640e-01
 -1.1044409e+00
 -9.0380140e-02
 -1.5193647e+00
 -3.0994180e-01
  1.0955037e-01
 -2.7450415e-01
  2.1265772e-01
  3.0806622e-01
  2.0699084e-01
 -4.3774197e-01
  2.7207932e-01
 -2.1705779e-03
 -1.8651110e-01
 -2.6113277e-02
 -5.5563998e-01
 -2.6274896e-01
  3.0927238e+00
 -3.9748421e-01
 -7.9262048e-01
 -1.3936837e-01
  5.3460538e-01
 -2.1492025e-01
 -9.3991047e-01
  3.1312194e-01
 -6.4055389e-01
  8.0726677e-01
  4.7954544e-02
 -7.5648522e-01
  1.1674861e+00
  2.8684316e+00
 -9.3950599e-01
 -4.1943505e-01
 -3.4899259e+00
 -1.7696186e+00
  2.6338370e+00
  2.5803695e+00
 -1.4814618e+00
  1.8779343e+00
 -2.5758622e+00
 -1.6795647e+00
 -3.4234867e+00
  5.3867555e-01
 -4.6984696e-01
 -3.6960609e+00
  1.1716068e+00
 -1.9745312e+00
 -4.6683940e-01
 -7.0210904e-02
 -4.8543867e-01
  2.5577860e+00
 -5.8896714e-01
 -3.1462976e-01
 -1.8186180e-01
  2.6279585e+00
  1.4368559e-01
  9.4743663e-01
 -6.0196686e-01
  1.6592209e-01
  1.4134507e+00
  2.0666885e+00
 -1.2897997e+00
 -7.8813040e-01
 -3.2438529e+00
 -1.8722434e-01
 -1.0260475e-01
  5.4674879e-02
  1.1704963e-01
  9.2238945e-01
  6.1135584e-01
  2.3068232e-02
  7.0429310e-02
  7.7849656e-01
  2.9991502e-01
 -1.1680745e+00
  1.7896107e-01
  1.9145010e-01
 -1.7440167e-01
 -3.3666384e-01
  4.4464549e-01
 -2.3789641e-01
  1.0983102e+00
 -4.9585843e-01
  6.3170314e-01
  3.2115813e-02
  1.7973067e-03
 -2.0024107e-01
 -5.6093961e-02
  3.8587829e-01
  3.5878983e-01
 -4.9838087e-01
 -2.1047647e-01
  1.5042128e-01
  2.3470397e-01
 -1.8822001e-02
  4.8339468e-01
 -1.2034267e+00
 -1.5095094e+00
 -9.6669376e-01
  8.4477151e-03
  3.3570957e-01
 -5.2240551e-01
 -9.2162561e-01
 -1.5539713e-01
  2.2753192e-02
  1.2818098e-01
  1.0623141e-01
  3.2855448e-01
  8.4611416e-02
  2.2988600e-01
 -2.1276599e-01
 -4.1078457e-01
 -1.0084866e+00
 -2.1629295e+00
 -2.8825495e-02
  1.8457761e-01
 -1.4853835e-01
 -6.5867767e-02
  2.8951687e-01
 -5.7790402e-02
  1.1058919e+00
 -6.3105501e-02
  4.3471339e-01
 -4.2802382e-01
 -1.6831304e-03
  4.1829887e-01
 -2.1354297e-01
 -5.7088333e-01
 -1.0098149e+00
 -3.2209039e-01
 -1.0235312e+00
  8.1848644e-02
  3.6137685e-01
  1.1060067e-01
  2.6453304e-01
  1.3347448e-01
  4.0987635e-01
 -1.1432374e-01
  4.9012759e-01
  5.3026813e-01
  3.9004600e-01
  1.0192000e-01
 -4.3770739e-01
 -1.6751993e-01
 -1.0695693e+00
  4.1584322e-01
 -1.1127514e-01
  1.8578203e-01
  6.8581915e-01
  3.1780595e-01
 -6.1497915e-01
  5.3864563e-01
  2.5125128e-01
 -4.1767544e-01
 -3.9855525e-02
 -1.6868014e-02
 -2.6537025e-01
  7.9716444e-01
  2.3773924e-02
 -1.0060022e-01
  8.9323953e-02
 -2.1257938e-01
  1.2962770e+00
 -1.7427441e-01
 -1.2351372e+00
 -2.4016395e-01
 -1.0022756e+00
 -1.4479614e+00
 -4.3944073e-01
  2.6022717e-02
  1.6229290e-03
  1.8154941e-03
  6.4409129e-02
 -3.3057436e-01
  2.3555683e-01
 -1.1792367e+00
 -1.5311778e-02
 -4.4125298e-01
 -2.1875304e-01
  4.2915642e-01
  2.1228309e-01
  2.2182480e-01
 -5.6711892e-03
 -1.2246606e+00
  2.2692645e-01
 -2.8766119e-01
  5.3618836e-01
  2.4351965e-01
 -1.9664672e-01
  3.3388102e-01
  6.9553114e-02
 -6.3522898e-02
  2.2408918e-01
 -1.3540640e-01
 -5.7894397e-01
  4.1403535e-01
  3.8449705e-01
 -1.2638254e-01
 -1.7958091e-01
  7.1411081e-02
  1.3017699e+00
 -2.6575500e-01
 -1.3195547e+00
 -8.1940562e-01
  4.7533754e-01
 -1.5052602e+00
 -2.4069030e+00
 -3.2584071e-01
 -1.8725426e-01
 -5.0853783e-01
 -2.4556379e-01
 -1.7198764e-01
 -1.2259492e-01
  4.9678653e-01
  1.1787271e-01
  3.3362070e-01
  2.1678239e-01
  2.4203061e-01
  1.2686403e-02
 -2.0841254e-01
 -1.3382131e-01
 -1.1332539e-01
 -1.1671203e-01
 -6.4375216e-01
 -7.8940475e-01
 -7.3935442e-02
 -8.0888602e-04
  2.0828569e-01
  8.9256656e-01
  1.8697610e-01
  7.3893413e-02
 -1.2374684e+00
 -1.6476595e+00
  1.5668919e-02
  3.3049357e-01
 -1.5630143e+00
  2.3881238e+00
 -1.8677933e+00
  5.5091256e-01
  6.0295826e-01
  7.2875035e-01
 -4.7865376e-01
  2.8299871e-01
  2.0125625e+00
 -2.0278013e-01
 -6.0661221e-01
 -2.2324853e+00
 -3.7427932e-01
  1.7492715e+00
 -9.1652023e-03
  6.5017962e-01
 -3.6845133e-01
  9.4292915e-01
  2.9804986e+00
  5.1680315e-01
  6.7717153e-01
 -2.8350571e-01
  1.0127522e+00
 -1.6376871e-01
  9.8051006e-01
  1.5672641e-01
 -7.3318994e-01
 -1.7747106e-01
  5.9860904e-02
 -4.8725256e-01
  1.0288314e+00
 -7.4489385e-02
  4.2087585e-02
  5.4348928e-01
  3.2747117e-01
  6.4818436e-01
 -6.1067450e-01
 -2.0528517e+00
 -2.9466579e+00
 -5.4088408e-01
 -3.4920609e-01
 -5.8109993e-01
 -8.2524216e-01
 -1.4925145e-01
  3.8424205e-02
 -6.1146814e-01
  2.2413330e-01
 -3.1991139e-01
 -3.0034882e-01
  1.2195477e-01
 -3.9584035e-01
 -7.7571166e-01
 -3.6521074e-01
 -2.1406993e-01
 -2.6132318e-01
 -1.0753780e-02
 -1.4163131e-01
 -1.7656268e-01
 -3.6862767e-01
 -2.6599073e-01
  2.3160929e-02
  4.3870717e-01
 -1.7985445e-01
 -2.7989742e-01
 -1.8386578e-02
 -6.0648388e-01
  2.5975361e-01
  1.1674113e-02
  9.8772189e-03
  5.6740809e-02
  7.2866410e-01
  4.2926248e-02
 -2.3643859e-01
 -5.2172649e-01
 -1.0607257e+00
 -1.4776435e-01
 -1.7377695e+00
  2.4041441e-01
 -7.0869368e-01
 -6.8332799e-02
 -1.2825322e-01
 -4.8957726e-01
 -2.0836862e-02
 -7.6729202e-01
 -4.3077782e-01
 -2.6443597e-02
  1.3816048e+00
  2.2848214e-01
  1.9106099e-01
 -2.2186196e-01
 -2.8262330e-02
  3.3784261e-01
  4.3696892e-01
  3.9835474e-01
 -4.8115703e-01
 -1.2569097e-01
 -5.2047664e-01
  1.0890010e-01
  9.5173568e-01
 -3.7244067e-01
 -9.6916276e-01
 -2.1516158e-01
  1.1993867e+00
 -4.2202797e-02
 -2.0918761e-01
  4.2002905e-02
 -3.0354244e-01
  1.1414671e+00
 -1.1636603e+00
 -8.6052191e-01
 -5.7114595e-01
 -1.1390819e-01
  9.9979743e-02
 -7.7400339e-01
  8.3259428e-01
  2.9655209e-01
  1.1843670e-01
  1.6286331e-01
 -2.9442298e-01
  7.9235822e-02
  3.3981410e-01
 -5.7530031e-02
  1.6093592e-01
 -6.3694704e-01
 -1.1162701e-01
  3.0667463e-01
  8.8369983e-01
  4.1892543e-01
  1.5965020e-02
  4.7432521e-01
 -8.8546592e-01
  4.2422897e-01
  4.2698342e-02
  1.0754901e+00
 -3.2780353e-02
 -4.6398902e-01
  4.3624902e-01
 -2.8334787e-01
  7.2219320e-02
  4.7534917e-02
 -1.3636412e-01
 -6.8808615e-01
 -2.0283556e+00
 -9.0734497e-02
 -6.9953956e-02
  4.1211069e-01
 -2.3050719e-01
  5.5212593e-01
 -9.4869524e-01
  2.3549946e-01
  6.2847781e-01
 -3.2831666e-01
  1.0595821e-02
  3.3568069e-01
 -3.0680245e-01
  2.2453001e-01
  3.7745118e-01
 -8.2540143e-01
 -8.8457894e-01
 -1.9784349e+00
 -1.2278659e+00
  2.0992398e-01
  7.9995173e-01
  6.4356869e-01
  1.1815280e+00
 -2.2564068e-01
 -8.0337679e-01
 -5.8519930e-02
 -8.1785017e-01
 -3.4202838e-01
  1.7775550e-01
 -1.9543834e-01
 -5.0340348e-01
  2.1822026e-01
  2.5679117e-01
  4.9598986e-01
  1.2432625e+00
  6.5464813e-01
  2.0203145e+00
 -8.6785662e-01
  1.3547222e-01
 -5.6492966e-01
 -2.8893086e-01
  1.0644296e+00
 -1.4453764e-01
 -1.3591178e-01
 -4.6832114e-01
 -1.0262432e+00
 -6.5489256e-01
 -8.0574954e-01
  3.0368206e-01
  7.6291281e-01
  3.1385106e-01
 -3.6610949e-01
 -4.7872218e-01
  5.4854059e-01
 -5.4345047e-01
 -3.0155075e-01
  3.5967457e-01
 -1.0134149e-01
 -1.4615687e-02
 -2.9457971e-01
  8.9962167e-01
 -7.7334231e-01
 -5.2390307e-02
  5.9706974e-01
  7.1870738e-01
  1.9838951e+00
  1.1167292e-01
 -3.6453342e-01
 -4.0404117e-01
 -9.0492904e-02
  3.4768063e-01
 -5.7535607e-01
  7.4581522e-01
 -3.5873851e-01
 -1.4597377e-01
  1.0876210e+00
  1.7343855e-01
  4.8676875e-01
  6.8979281e-01
 -5.4671901e-01
 -2.1565916e-01
 -3.4448138e-01
  1.8025422e-01
 -4.4442332e-01
  1.8138677e-01
  5.0834113e-01
 -2.2116898e-01
 -1.9542724e-02
 -1.6746837e-01
 -2.2689745e+00
 -5.6077635e-01
 -7.7691555e-01
  7.7856416e-01
  3.3980478e-02
 -3.5676217e-01
 -1.6100276e+00
 -4.0898267e-02
 -2.6610804e+00
  1.3037892e-01
 -7.9746681e-01
 -7.0177776e-01
 -5.0310636e-01
 -3.6809951e-01
  5.6434351e-01
 -6.0281372e-01
 -5.3469753e-01
 -1.0551976e-01
 -1.9479796e-01
 -8.1547147e-01
  6.5156324e-03
 -5.3701037e-01
 -3.9909315e-01
 -1.6773561e-01
  1.9109559e-01
  5.2141458e-01
 -5.9103805e-01
  9.5619760e-02
  7.5942332e-01
  1.4620173e-01
 -9.8519742e-01
 -9.2278406e-02
  2.1258380e-01
 -2.2608608e-01
  1.0259259e-01
 -1.5284349e-01
 -1.1557891e+00
 -9.2941634e-02
  3.4328628e-01
  2.0422022e-01
 -2.1156777e-01
 -1.4029349e+00
 -1.6788514e-01
  2.4002668e-02
  4.5480270e-02
  5.5951649e-01
  1.2477821e-01
  6.2408072e-01
  9.9535364e-01
  3.6022429e+00
 -1.9016453e+00
 -3.0449921e-01
 -3.3306508e+00
  3.5544186e+00
  1.6079329e+00
  1.3563218e+00
 -3.3581116e+00
  3.2286494e+00
 -2.2839503e+00
 -1.5635303e+00
  1.8345481e+00
  1.8060998e+00
  6.0022092e-01
  3.6276886e+00
  2.2171566e+00
 -3.6740649e+00
  2.5370197e+00
  4.6651659e+00
  4.0335093e+00
 -4.1235099e+00
 -3.2722909e+00
  3.5734162e+00
 -4.0188050e+00
 -4.6306796e+00
  3.0872386e+00
  3.7503202e+00
 -2.4829755e+00
 -3.2638404e-01
 -2.9152005e+00
  3.9635355e+00
 -3.8226919e+00
  4.2464871e+00
 -3.9127598e+00
  1.2192353e-02
  3.4220536e+00
 -4.5062842e+00
  4.2366962e+00
 -3.0196319e+00
  2.9490888e+00
 -1.1686687e+00
  3.8579652e+00
  4.0494680e+00
 -2.3590906e-01
  2.5184860e+00
  2.9841223e+00
 -3.1059715e-01
  1.8765471e+00
  3.4104202e+00
 -3.8407948e+00
  3.6937826e+00
  3.1098680e+00
 -3.2326729e+00
  3.2958603e+00
  3.1584892e+00
  4.0702338e+00
  3.1752927e+00
 -3.2533514e+00
  4.4151096e+00
  3.9291863e+00
  1.5722142e+00
 -2.6640933e+00
 -1.8565035e-01
 -1.3338108e+00
  2.9204624e+00
  1.9823961e-01
  2.8728530e+00
 -8.0740750e-01
  3.2127581e+00
 -1.7119632e+00
 -7.4046105e-01
  8.1990409e-01
  2.5829394e+00
  1.7265091e+00
  1.0266024e+00
  4.8472476e-01
 -2.1684966e+00
  4.9297209e+00
  2.9348106e+00
  3.4889646e+00
 -1.8329453e+00
 -3.1151607e+00
  4.0870242e+00
 -3.0596273e+00
 -4.3867841e+00
  1.8252288e+00
  2.8544943e+00
 -4.8799453e+00
  9.7520120e-02
 -1.5153712e+00
  3.5449541e+00
 -1.6451962e+00
  3.1176243e+00
 -1.5799254e+00
  1.0364007e-01
  2.9690483e+00
 -3.2348497e+00
  3.2318957e+00
 -3.0000505e+00
  3.2731068e+00
 -4.8726517e-01
  2.4918337e+00
  2.2995625e+00
 -8.4938437e-01
  1.6267550e+00
  2.3797357e+00
 -3.8463479e-01
  1.5399005e+00
  2.0081005e+00
 -1.3815634e+00
  2.4544933e+00
  5.4210824e-01
 -2.9703391e+00
  2.4254808e+00
  1.2569078e+00
  1.5982093e+00
  1.2733240e+00
 -1.3973813e+00
  1.2850403e+00
  1.7331527e+00
 -1.2062310e+02
  1.0272175e+00
  5.9313303e-01
  4.8322108e-01
 -9.9447048e-01
  1.1726540e-01
  2.1550386e+00
 -2.3980134e+00
  8.8421500e-01
 -3.2313865e-02
 -2.5735860e+00
 -2.4514128e-01
 -3.9617524e-01
 -1.3945754e+00
 -1.3022804e+00
 -1.1652431e+00
 -1.7782068e+00
 -2.7040548e+00
  1.3235291e+00
 -2.4763889e+00
 -1.0617296e+00
 -6.7598802e-01
  3.2858217e+00
 -3.8807729e-01
  3.3433228e+00
  1.8704283e+00
  6.1382592e-01
  8.9117908e-01
  1.5219755e+00
  3.0674958e-01
 -1.6461506e+00
  8.5704619e-01
 -1.1624022e+00
  1.2810947e+00
  4.0376869e-01
  2.4156733e-01
 -1.7408030e+00
 -8.4590721e-01
 -9.4022930e-01
  1.1027263e+00
 -1.2754643e+00
 -3.5723662e+00
 -4.3471339e-01
  1.0355544e-02
  2.2699416e-01
  9.5776200e-01
  1.6253617e+00
  1.5149388e-01
  1.7464526e+00
  1.1190002e+00
 -6.6381681e-01
  9.6120059e-01
  9.3485916e-01
 -3.8634541e+00
 -2.5346825e+00
  1.2863885e+00
  2.9198679e-03
 -5.2018547e-01
 -3.3400211e-01
 -1.5566840e+00
 -5.7185626e-01
 -1.5563128e+00
 -1.5524094e+00
 -1.1780267e+00
  6.2559098e-01
  7.4328721e-02
 -6.1879516e-01
 -7.4508339e-01
  3.5836744e-01
 -5.5901009e-01
 -8.1479800e-01
  5.7145649e-01
  5.1176697e-01
 -5.2831370e-01
  6.9922119e-01
  3.1664979e+00
  8.9595777e-01
  1.7215592e+00
  3.1625184e-01
 -1.7417482e+00
  3.0178773e+00
 -3.0208514e+00
 -3.1239362e+00
  8.3957624e-01
  6.5558612e-01
  9.4470417e-01
  1.2037153e-01
  8.8350898e-01
  1.8614497e+00
 -8.5729516e-01
  1.4055651e+00
 -1.4777439e+00
  5.8026278e-01
 -7.2288960e-01
 -2.2551146e+00
 -4.1768599e+00
 -1.5787003e+00
 -6.4185363e-01
 -1.0943918e+00
 -6.0250485e-01
  3.4909109e-03
  3.6660716e-01
  2.6432914e-01
  1.5522950e+00
  9.0069336e-01
  4.1983503e-01
  5.2059972e-01
  1.2184000e+00
  5.8709270e-01
  1.1473571e+00
  6.8469703e-02
  7.9543278e-02
  1.3397956e+00
 -1.0419773e+00
  2.9665477e+00
  1.4746488e+00
 -1.0001795e+00
 -1.6389830e+00
 -1.8779801e+00
 -3.1443772e+00
 -2.8476202e+00
  1.5848497e+00
  1.0801392e+00
  1.7737250e+00
  1.7365302e+00
  1.8934478e+00
  9.3285471e-01
  4.7581112e-01
  1.4919466e+00
  7.9223834e-02
  3.4844059e-01
  1.4320520e-01
 -3.0735973e-01
 -1.2349380e+00
 -8.3162141e-01
 -1.8284057e-01
 -1.0035192e+00
 -1.9931535e+00
 -8.6357039e-01
  1.5553840e+00
  1.3917012e+00
 -3.1420419e-01
  1.4990145e-01
  1.2071587e+00
  1.5144603e+00
  5.0563848e-01
 -4.3761745e-01
  3.8164365e-01
  1.8071551e+00
  1.9025966e+00
  4.4157717e-01
 -1.4558196e+00
 -9.5995373e-01
 -1.9922523e-01
 -1.4658047e+00
  3.8473394e+00
  1.7759556e+00
 -2.8211349e-01
 -1.1460495e+00
  6.0536921e-01
 -2.8545635e+00
 -1.2584141e+00
  3.5977098e-01
 -1.0916234e+00
  6.5501785e-01
 -2.1199639e+00
 -5.3527230e-01
  5.9696591e-01
  2.5924127e+00
 -8.1845456e-01
  3.1275198e-01
 -8.7074912e-01
  2.4485481e-01
 -4.5394532e-02
  3.1040224e-01
 -1.2105920e+00
 -8.6004156e-01
  1.0350336e+00
  1.3114126e+00
 -1.4671341e+00
 -2.7514800e-01
 -1.3951150e-02
  3.3569255e-01
  1.6248764e-01
 -1.0392988e+00
  2.6386909e+00
 -2.0778732e+00
 -2.7562957e+00
  1.1544335e-01
 -6.9334829e-01
  1.9058765e-01
  5.9824741e-01
  2.6365677e-03
 -9.1204211e-02
  3.4206006e-01
  4.8769391e-01
 -6.6994435e-01
 -2.1866820e+00
 -3.2979045e+00
 -1.9994944e+00
 -1.6386272e+00
  7.0225167e-01
 -1.5192963e+00
 -1.9984663e+00
  2.9084530e-01
  8.0663216e-01
  1.1465948e+00
 -5.2876550e-01
  5.8223736e-01
  3.5346469e-01
  1.8573893e+00
  1.0525699e+00
  1.0131210e+00
 -2.4256326e-01
  9.8337060e-01
  8.6336410e-01
  1.6199096e-01
  7.7551496e-01
  5.8137661e-01
 -8.1955475e-01
 -4.5269296e-01
  3.1401205e+00
  8.3672576e-02
 -8.0274183e-01
 -1.3220760e+00
 -1.3707190e+00
 -6.1106074e-01
  1.8477039e+00
  2.2543638e+00
  2.1069899e-01
 -4.4264111e-01
 -9.9880958e-01
  4.6536201e-01
  2.4163871e+00
 -4.6075156e-01
 -8.9831704e-01
  3.4702234e-02
  1.1402676e-01
  7.9181686e-02
  1.4105471e+00
 -9.9960631e-01
 -9.9100852e-01
  9.6850830e-01
  6.6416281e-01
 -1.2774251e+00
 -1.0153729e+00
  1.8349179e-03
 -9.5190960e-01
 -7.2882539e-01
 -2.2555204e-01
 -3.4338716e-01
 -7.2825515e-01
  4.2586985e-01
 -3.6600471e-01
  4.6921003e-01
 -7.1346444e-01
 -1.1829310e-01
  1.8635787e+00
 -1.5111083e+00
 -1.9768503e+00
 -4.4727101e+00
 -5.0324595e-01
 -1.2295333e+00
  1.0218586e+00
 -6.0408711e-01
  6.6313940e-01
  1.0100986e+00
  1.1712672e+00
 -1.8111829e+00
 -4.9522758e-01
 -2.9272333e-01
 -7.2792190e-01
 -1.9454162e+00
  4.0283623e-01
 -1.0084558e-01
 -6.4246428e-01
  2.9006166e+00
  2.2457755e-01
 -4.6845619e-02
  5.0828863e-02
  2.5953386e+00
 -3.7923607e-01
 -1.3490075e-01
  1.2490531e-01
 -4.7230326e-02
 -2.2984010e-01
  1.4569801e-01
  2.3303193e-01
 -7.4541646e-01
 -1.9270904e-01
 -7.5239557e-01
 -8.3594821e-02
 -6.5068126e-02
  1.7158917e+00
  2.9514997e+00
 -9.5629734e-01
  1.7680268e-01
 -2.5119096e-01
 -2.8465241e-01
  2.7365935e-01
  3.1293406e+00
  3.0449602e-01
  6.7063344e-01
  4.3547854e-01
 -8.3848804e-01
  5.8815755e-02
  4.6376717e-01
 -8.0291909e-01
 -1.1867323e+00
 -5.1109034e-01
  4.3731064e-01
 -9.8356354e-01
 -3.9843872e-02
  2.4013358e-01
  3.6794293e-01
 -6.2528110e-01
 -4.3825465e-01
  8.4503627e-01
  4.8906082e-01
  1.3743273e+00
 -4.4292387e-01
  5.1731879e-01
 -1.3745756e-01
  9.9142534e-01
 -4.4004697e-01
 -1.6050384e+00
 -5.4014301e-01
  1.0634611e+00
  1.5484380e+00
 -2.1010292e+00
 -2.1791146e+00
  3.1537452e-01
  1.2572961e+00
 -1.5298954e+00
 -5.9102803e-01
 -8.3969766e-01
 -2.4887452e-01
  9.7842589e-02
 -1.0287333e-02
  7.4781328e-01
 -2.1849580e-01
  3.6034920e+00
  1.9775031e+00
  2.7554241e-01
 -9.9206316e-01
  1.6332409e+00
  1.7323701e+00
 -1.3122782e-01
 -6.6696268e-01
  1.2514530e+00
  1.0382315e+00
 -1.2908806e-01
  4.1778761e-01
  3.3901310e-01
 -9.9129897e-01
 -2.4298646e-01
  1.5358396e-01
  7.8636281e-02
 -1.0536146e+00
 -3.7145293e-01
 -2.9813161e-02
  3.0086923e-02
  3.0086923e-02
  3.0086923e-02
  3.0086923e-02
  3.0086923e-02
  2.0425856e-01
  2.0425856e-01
  2.0425856e-01
  2.0425856e-01
  2.0425856e-01
  1.6406114e-01
  1.6406114e-01
  1.6406114e-01
  1.6406114e-01
  1.6406114e-01
  5.0968606e-02
  5.0968606e-02
  5.0968606e-02
  5.0968606e-02
  5.0968606e-02
  2.4792863e-02
  2.4792863e-02
  2.4792863e-02
  2.4792863e-02
  2.4792863e-02
  1.7113474e-01
  1.7113474e-01
  1.7113474e-01
  1.7113474e-01
  1.7113474e-01
  8.9403339e-02
  8.9403339e-02
  8.9403339e-02
  8.9403339e-02
  8.9403339e-02
