nep4_zbl 2 Ga In 
zbl 1.25 2.5 0.7
cutoff 6 5 68 39
n_max 4 4
basis_size 8 8
l_max 4 2 1
ANN 60 0
 -1.7131542e+00
 -1.7972097e+00
 -3.7120292e-01
 -3.4495687e-01
 -1.5454741e-01
 -3.1069458e-01
 -1.0157558e-01
 -2.0836394e-01
  3.6336151e-01
  3.8003510e-01
  7.6208465e-02
  3.4757581e-02
  3.4854192e-02
  1.5931625e-02
 -6.5453969e-02
  1.0241027e-01
  3.4642700e-02
  8.7061191e-01
 -1.6200684e-01
  1.6888048e-01
 -4.2822875e-02
  2.0249341e-01
  9.9466302e-02
  1.4081943e-01
 -3.4769240e-01
 -3.3766576e-03
 -4.8347849e-02
  1.8499089e-02
  5.1426273e-03
  1.9098295e-01
 -1.8980205e-02
 -9.5829628e-02
 -2.0039652e-01
 -1.6074131e-01
  1.0013332e+00
  9.4477457e-01
  2.4278191e-01
  3.0730882e+00
 -3.1797066e-01
 -1.8985002e+00
 -4.2130911e-01
 -4.5986351e-01
  6.3966498e-02
  7.5709963e-01
  2.0916270e-01
  1.0963317e+00
 -3.0059826e-01
 -9.5201455e-02
  6.3598949e-01
 -1.7797682e-01
 -1.0022820e+00
  1.9245937e+00
  5.7592398e-01
  1.1499172e+00
  1.3205342e+00
  5.6643856e-01
 -1.2168447e+00
 -1.6240891e+00
  1.8303978e+00
  2.7933164e-02
  3.4118287e-02
 -9.3061335e-02
  1.9923320e-02
 -2.8701097e-01
 -1.5282494e+00
  4.2939782e-02
  6.0205378e-02
  1.4437519e-01
  1.4540651e-01
 -1.1035734e-01
  2.6426604e+00
 -3.0172949e+00
 -2.6058456e-01
  1.9858623e-01
 -5.5033016e+00
  1.3446056e+00
 -3.6355302e-01
  1.6963263e+00
  1.1102109e-02
 -3.2080528e-01
  1.7703396e-01
 -1.2284981e+00
 -1.4020791e+00
 -9.3783617e-01
 -2.1498582e-01
 -1.4894795e+00
  2.0579584e+00
  2.9278531e+00
  4.4728279e+00
  2.2624159e+00
 -2.4546146e+00
  1.3532925e-01
 -3.2086588e-02
  7.3180355e-02
 -3.5054627e-01
 -3.5483066e-02
 -7.2926414e-01
 -1.1454841e-01
 -1.3826856e-01
  1.9344389e-01
  9.7359553e-02
 -4.0721919e-02
  2.3716457e-02
 -7.6944403e-02
 -4.5664746e-02
  2.1366519e-01
  1.5157838e-01
 -7.3383660e-03
 -1.1075940e+00
  8.5982822e-02
 -1.6506704e-02
 -7.7988803e-02
  2.0002379e-01
  2.0837462e-01
  3.7012745e-02
  1.0016116e-03
 -6.9785476e-02
  4.6099402e-02
 -6.5678310e-01
 -1.1280348e-01
 -1.1960521e-02
 -1.3629267e-02
  1.4822365e-01
 -1.7963152e-01
 -1.7317359e-01
  7.6607935e-02
 -5.9837356e-02
 -7.1182087e-02
 -1.3671745e-01
 -5.4524131e-02
 -6.9330618e-02
  2.0654464e-01
  6.9477791e-03
  7.5598182e-03
  1.8431821e-01
  4.3145437e-02
  2.7151498e-01
  1.4183728e-01
 -1.4652340e-01
  1.1904486e-01
 -1.7068388e-01
  2.9622707e+00
  3.8421791e+00
  3.5692868e+00
  3.0166718e-01
  6.3291645e-01
 -6.3524447e-02
  1.8029844e-02
 -2.3254336e-01
 -1.2253641e+00
 -5.9804535e-01
  2.4650428e-01
  3.0995098e-01
  5.4114991e-01
 -1.0326149e+00
 -1.2427388e+00
  2.0364729e-01
  7.4903119e-01
  1.7722341e+00
  1.9574389e-01
  4.3978196e-01
  3.8353413e-01
 -2.8129044e-01
  4.4518954e-01
  5.0403405e-02
  1.9949180e-01
  2.5564438e-02
  1.4010867e-01
 -3.6526093e-01
  9.1664359e-02
 -5.1105097e-02
 -4.9336951e-02
 -4.3663166e-02
 -1.0850471e-01
 -6.8484500e-02
 -7.1073079e-01
 -3.9069384e-01
 -9.6111856e-02
  4.9800342e-01
 -1.7699909e-01
  2.6916862e-02
 -6.6634364e-02
 -9.7602248e-02
  1.5209298e+00
 -5.5214441e-03
  1.1247534e-01
 -4.5201194e-02
  4.7357466e-02
  5.8283586e-02
 -9.5149711e-02
 -1.5735473e-01
 -7.0238665e-02
 -1.0260862e-01
  2.7700063e-02
  6.6109575e-02
  1.4367417e-02
  3.6941860e-02
  5.9962191e-02
  3.5123050e-02
 -1.9061336e-01
  5.0909938e-03
  4.6700310e-02
 -1.0631567e-02
 -3.0593369e-02
 -1.4634722e-02
  1.8508341e-02
  2.6993481e-02
  7.5659975e-02
  3.5806626e-02
  2.5278151e-01
  1.6440810e+00
  2.4953248e-01
 -4.2201150e-02
 -9.4893962e-01
  1.3349386e-01
  3.2713335e-02
  5.7245761e-02
  1.3659343e+00
 -1.0352356e-01
  7.7608554e-03
  1.5688695e-01
  2.8723371e-03
 -1.7886853e-01
 -4.9735550e-02
 -2.6404379e-02
  1.9844179e-01
  1.6454831e-01
 -2.3455810e-02
 -1.3252495e-02
 -6.1726499e-02
 -8.0983229e-02
  1.2072444e-01
 -8.6177662e-03
 -2.2154609e-02
 -1.6468896e-01
 -1.1652843e-02
  2.7618882e-01
  5.3975940e-02
  4.7445126e-02
  4.3718509e-02
 -5.8290400e-03
  6.1228657e-03
 -2.7482221e-01
 -1.7458342e-02
 -2.4805084e-02
 -1.6179610e+00
  3.9772346e+00
  1.3717951e+00
 -1.0615102e-01
  9.4502884e-01
 -1.3941691e+00
 -2.6294713e+00
  2.6334843e-01
 -1.0685261e+00
  1.1483176e-01
  1.7759609e+00
  4.4768298e-01
  9.9467742e-01
 -1.1135749e+00
 -3.9678669e-01
 -3.0839872e+00
  1.4537406e+00
  5.7246786e-01
 -5.0722557e-01
 -7.5987950e-02
  6.9188237e-01
  2.5294135e+00
  2.0299916e-01
  1.8697075e+00
 -4.5442399e-01
 -2.5415602e-01
 -8.8809693e-01
 -3.1908134e-01
 -8.7083690e-03
 -1.8769445e-01
  3.2831994e-01
  3.0812997e-02
  2.8810029e+00
  2.3552212e-01
  1.0039677e-01
 -6.8138969e-01
 -3.4444451e-01
 -5.3783285e-04
  1.2410322e+00
  1.4260106e-01
  6.4608699e-01
 -4.3899659e-02
 -3.4789540e-02
 -1.4193368e-01
 -1.3014559e-01
 -3.1895466e-02
 -1.6361684e-01
  7.7170514e-02
 -7.7409267e-02
 -2.7738622e-01
 -2.7523778e-02
  1.2657097e-02
  2.6156548e-01
  5.5968136e-02
 -1.8877288e-02
  2.5201554e-03
  1.6791341e-01
  9.5854387e-02
 -5.2875467e-02
 -1.7502733e-01
  1.4543971e-01
  9.0687066e-02
 -1.8671630e-02
  1.3914587e-01
 -2.3060928e-01
 -2.3761025e-02
 -1.2499422e-01
  2.7878992e-02
 -1.0300028e-01
  6.6082589e-02
 -1.6816285e+00
 -1.2106231e+00
 -4.8782733e-01
 -2.1150956e+00
 -5.3296447e-01
 -8.4505737e-01
  4.0017676e-01
  1.7575161e-01
 -1.9108316e+00
 -6.0027283e-01
 -7.2466671e-01
 -1.9107523e+00
 -1.0017066e+00
 -1.8937875e+00
 -3.2722652e-01
 -5.4808553e-02
 -1.1591619e+00
 -3.5857973e-01
 -1.8798052e+00
  1.5020427e-01
 -8.7640703e-01
  8.8952368e-01
 -1.1652010e-02
 -1.7078141e+00
 -9.4053209e-01
 -5.0121141e-03
 -4.0093780e-02
 -2.8176272e-01
  1.8109965e-01
 -6.6264614e-02
  5.8227217e-01
  1.9785696e-01
  2.0129277e-01
  2.0168780e-01
 -8.0779739e-02
 -6.4971137e-01
 -1.1484784e+00
  1.9202348e-03
  4.9981692e-01
  1.4991872e-03
  9.1705546e-02
 -1.0773595e-01
  3.3205543e-02
  1.0903276e-01
  3.7197497e-02
  2.0512121e-03
  2.8861782e-01
 -9.1396913e-02
  1.0742553e-01
  3.5392445e-02
  1.1052734e-02
 -3.2981731e-02
  2.1726796e-01
 -7.6299640e-03
 -3.6158167e-02
  1.4113134e-01
  5.7729986e-02
  5.2221489e-01
 -5.0796187e-03
 -4.6148431e-02
 -3.6598504e-02
 -8.2273342e-02
  3.4519047e-01
  2.3463392e-01
  9.5873535e-02
 -1.9967993e-01
  2.7301682e-02
 -1.4010684e-01
 -6.7261353e-02
  3.4170724e-02
 -3.9592390e+00
 -7.8796315e+00
 -2.6043892e+00
 -4.2833538e+00
 -6.6701525e-01
  1.1342816e-01
  4.9580744e-01
  6.3736850e-01
  2.4543672e+00
  1.6150933e-02
 -3.8094845e-01
 -2.7236429e-01
 -1.4943262e+00
 -9.7194776e-02
 -2.5449690e-01
  5.0771916e-01
 -3.2093167e-02
  6.5505825e-02
  4.3016460e-02
 -1.9393513e-01
 -1.5712234e-01
  1.1246183e-01
 -9.1136277e-02
  1.4200532e-02
 -1.0593079e+00
 -5.7664692e-02
  6.1313294e-02
 -6.7226827e-02
  8.0300070e-02
 -1.8165492e-02
  4.2338405e-02
 -1.8459138e-02
  1.0876257e-01
  2.0284573e-02
  2.9817201e-02
 -7.5972003e-01
 -7.9273677e-01
 -2.7644899e-02
  7.9550183e-01
 -2.0166945e-02
  1.9362995e-01
 -7.5980507e-02
 -2.3028171e-01
  1.2105449e-01
  8.4626898e-02
  9.2985749e-02
 -8.9167997e-02
 -2.3925111e-02
  1.7123290e+00
 -1.3597970e-01
  4.5486484e-02
 -1.1962040e-01
  2.0978838e-02
 -1.0093078e-01
  9.0836257e-02
 -2.6809689e-01
  8.7894112e-02
 -7.6106340e-02
 -2.1448372e-02
  5.9043661e-02
  7.3196627e-02
 -1.4253852e-01
 -9.8607562e-02
  1.1476272e-02
 -1.5028221e-02
  5.6292068e-02
  2.4918452e-02
 -5.6426268e-02
 -2.2868817e-01
 -3.2065310e-02
  7.8074443e-01
  1.1691384e-01
 -1.3967752e-02
 -1.0496527e+00
  1.1606705e-01
 -1.5282524e-01
  1.5125677e-01
 -6.9953635e-02
  3.3481058e-01
 -2.5849666e-03
  3.6743976e-02
  8.6157667e-03
 -2.6008843e-02
  3.1568810e-02
  9.7739533e-02
 -1.0032307e-01
 -1.4879839e-02
 -9.4848070e-03
 -1.7708710e-01
  1.0013039e-01
  1.0273460e-01
  4.3846387e-02
  8.3030894e-02
 -4.2470172e-02
  9.5273793e-02
 -4.2543951e-02
 -6.1947428e-02
 -2.6969117e-01
 -7.0519380e-02
  4.1133862e-02
 -1.1459678e-01
  7.7405956e-04
  1.0427436e-01
  8.6382972e-03
 -1.4171942e-01
 -1.5708157e-01
  1.6510298e+00
 -4.4107383e-01
  4.1996579e+00
  1.6191432e+00
 -1.7388953e-01
 -1.1623063e-01
  9.2494264e-02
 -1.4978014e+00
 -7.2636721e-03
  8.0416036e-01
  1.7238551e-01
  4.8512228e-02
  2.6624578e-01
 -1.2346281e-01
  1.4249073e-01
 -4.8950851e-02
 -1.3081111e-01
 -2.6495194e-01
  3.0236924e-01
 -2.8009644e-01
 -4.5142260e-01
 -1.1263154e+00
  2.4233350e-01
 -4.4936198e-01
  1.0335089e-01
 -6.8784408e-02
  1.9491443e-02
  2.9622632e-01
  2.3674553e-02
 -1.6174097e-02
  7.1944664e-03
 -1.4837676e-01
  3.9294086e-02
 -8.8264853e-02
 -3.2987708e-01
 -3.2796809e-01
 -7.1568169e-02
  1.0370716e+00
  4.0978651e-02
 -9.8769046e-02
 -1.0540880e-01
 -1.1730538e-01
 -2.8142016e-02
  3.5630338e-02
 -7.4434385e-02
 -1.8311700e-02
  4.0499996e-02
 -8.4970927e-01
 -6.8629846e-02
  4.3867966e-03
 -2.7308973e-02
 -2.4587840e-02
 -1.5141042e-01
 -1.9854955e-02
 -3.5930414e-02
  7.0831515e-02
  5.2313533e-02
 -1.4229148e-03
  5.2437261e-02
  1.9451463e-01
  1.7479613e-01
  1.3817039e-01
 -2.2995372e-03
  2.4187824e-04
 -4.3454283e-01
 -2.9271376e-01
  8.4382467e-02
 -1.1876714e-04
  6.6182226e-02
 -1.3307152e+00
 -1.1797502e+00
 -4.1522071e-01
  2.6707911e+00
 -4.0246233e-02
  1.4899549e-01
 -3.2375328e-02
 -9.1683187e-02
  3.6843278e-02
 -5.2144033e-01
 -2.8483324e-02
  3.8266264e-02
  9.9465959e-02
  2.9661039e-02
  9.9669866e-02
 -2.1010956e-02
 -4.2969607e-02
 -1.3141246e-01
  9.2651464e-02
 -7.8293579e-03
 -3.4782961e-03
 -2.5952855e-02
  1.8792721e-02
  1.0789283e-01
  3.8579281e-02
 -4.6580311e-02
 -7.5452507e-02
  1.4741868e-01
  6.9288611e-02
  5.8434606e-03
  7.1277447e-02
 -9.8329291e-02
  2.3703082e-02
  1.1588293e-01
  1.1570172e-02
 -8.8407606e-01
 -9.9033135e-01
  1.7283343e-01
  1.6387417e+00
 -3.3380754e-02
  2.7317272e-02
  9.2262891e-04
  7.2985417e-03
 -2.3099415e-02
 -1.0504476e-01
  2.0219097e-02
 -1.5003343e-01
 -3.2613479e-02
  3.0688981e-02
  3.6303647e-02
 -1.3745264e-02
 -7.4879695e-03
 -1.1104760e-01
  1.1556445e-01
 -1.2743347e-03
 -5.4955552e-03
  4.6414334e-02
 -1.9684966e-01
  7.3667444e-02
  9.1444217e-02
 -4.8852641e-02
 -2.4814785e+00
  2.5477104e-02
 -5.7257846e-02
 -1.0191747e-02
  1.6140676e-01
 -1.8717961e-02
  3.5533166e-01
  8.1535608e-02
  4.3910258e-03
 -3.1340170e-01
 -1.1020484e+00
  2.5636658e-01
  7.5837851e-01
  3.2492810e-01
 -2.6311317e-01
 -1.2188825e-01
  2.7891529e-01
 -1.4570846e-01
 -6.8557046e-02
  1.2264078e-01
 -5.0225794e-02
  1.7242502e-01
  9.0717837e-02
  3.7997257e-02
 -7.5424343e-02
  1.1393384e-01
 -5.5892922e-02
 -4.7865149e-01
  5.7554454e-02
  5.2741967e-02
 -3.7911642e-02
  1.4355241e-02
 -8.7148234e-02
  7.4491955e-02
 -2.1095359e-01
 -8.7114006e-02
 -7.3928341e-02
  7.7859305e-02
  9.4001308e-02
  1.0400624e-01
 -2.0074511e-02
  1.8211578e-01
  1.5669164e-01
  1.1198605e-01
  9.6112365e-01
 -2.4389833e-02
 -1.1068114e-01
 -1.0244789e+00
 -7.6561503e-02
 -1.0140651e+00
 -7.3390640e-02
 -6.2279869e-02
 -5.5693004e-02
  5.7021856e-01
  1.6103725e-01
 -3.8998041e-02
 -5.2221306e-02
 -1.8173277e-01
  1.0060149e-01
  3.8421888e-02
  4.6416380e-02
  1.1951388e-01
  6.8955682e-02
 -1.3095002e+00
  3.0636596e-02
  9.7447164e-02
 -2.3499809e-02
  5.4076815e-01
 -2.8471081e-02
 -2.1505022e-01
  1.9580657e-02
 -4.6764888e-02
  3.4849722e-02
  8.0001252e-03
  5.9401006e-02
 -3.4240853e-02
 -1.8594423e-01
  2.1665597e-02
  9.4043113e-02
  3.5375613e-01
  6.6670901e-01
  6.6420034e-02
 -1.3255917e+00
 -9.2298023e-02
  1.4363027e-01
 -1.0262558e-02
  1.0352052e-02
 -1.5011768e-01
 -7.8161925e-02
  3.0879425e-02
 -4.1805480e-02
  2.4653524e-02
 -1.2205023e-01
 -4.4442661e-02
  4.9015703e-03
  6.1980847e-02
  5.7143457e-02
  6.0663842e-02
  1.8817803e-01
 -1.1544277e-02
  1.4985729e-02
  7.3660858e-02
  3.4678061e-02
 -1.8793678e-02
  1.0943966e-01
 -4.9298290e-02
  2.6043791e-01
 -4.4175100e-02
  1.8163007e-02
 -4.8334417e-01
  1.1252226e-01
  3.7228890e-02
  6.3865796e-02
 -2.0444168e-01
  3.2280779e-01
  4.5538223e-01
 -8.7605774e-02
 -1.3059088e+00
 -2.7718754e-02
 -2.5699890e-01
  5.0088555e-02
 -2.2612372e-02
 -2.1494877e-02
 -6.6433005e-02
  9.8679161e-01
 -1.3957201e-01
 -3.2143310e-02
 -5.3982101e-02
  4.9266282e-02
 -3.4807631e-01
 -2.7500471e-02
 -2.1078581e-02
 -1.1534445e-01
 -1.3315709e-01
  1.8785338e-01
  4.0508807e-03
  5.2778453e-02
  1.2311383e-01
  9.4032593e-02
  4.9236263e-03
 -7.7992328e-02
  1.3761108e-01
  8.6666616e-05
  3.1365121e-03
  1.3522066e-01
  1.5292431e-01
  1.3821256e-01
 -3.1513534e-03
  9.0112291e-02
  1.2635346e-01
  2.2183230e+00
 -1.9774415e+00
  4.7597295e-01
 -1.2089571e-01
 -4.6859914e-01
  5.3840101e-01
 -3.6135039e-01
  3.6362190e+00
  5.7577121e-01
 -1.1803572e+00
 -4.0292618e-01
 -6.5419537e-01
  2.1235271e+00
  1.1396168e-01
 -3.2998905e-01
  6.6374848e-03
 -1.1337290e+00
  2.8447127e+00
  6.9392908e-01
  5.1141816e-01
 -5.5908758e-02
  7.2035179e-02
  1.7245929e-01
 -2.6272777e-01
  2.2400060e-01
  7.4833371e-02
  3.8696161e-01
 -5.0509763e-01
  1.3154215e-02
 -3.1885311e-01
  4.4470560e-02
  2.4384618e-02
 -3.0765355e-01
 -3.4191635e-02
  1.4725457e+00
  1.0731946e+00
 -8.8557176e-02
 -2.6910779e+00
 -2.2445012e-02
 -1.0821067e-01
 -4.5892581e-02
  8.4883258e-02
  1.4431371e-01
 -3.4844667e-02
 -6.0886003e-02
  1.9623507e-02
  6.7699857e-02
  4.7548749e-02
 -1.8677546e-01
 -1.7764745e-02
 -1.0214458e-02
 -4.8078639e-03
  9.2821307e-03
  6.5248802e-02
 -8.8730389e-03
  1.8860933e-01
  5.5721086e-02
  3.3005124e-01
 -9.7441301e-03
  7.9344667e-02
 -1.4639865e-02
  6.5170877e-02
 -1.9599284e-01
 -1.7536178e-02
  1.8310057e-01
  4.9127497e-02
  1.0971250e-01
  7.9300264e-03
  3.8602558e-04
 -1.0837113e+00
 -2.6326168e-01
 -2.9797710e-02
  7.5148839e-01
 -3.7796381e-01
  4.8958340e-01
  7.6528683e-02
  3.3356138e-02
 -9.7191427e-03
  3.8577784e-02
 -1.3961206e-04
 -8.8421553e-02
  6.8060579e-03
  6.2841848e-02
  3.4050289e-01
  7.9037622e-02
 -6.0273547e-02
  6.6297852e-02
 -1.3637403e-01
  5.6276027e-02
  1.5287371e-01
 -2.9676744e-01
  2.1181267e-02
 -2.3493120e-01
  1.3935137e-02
 -2.2363831e-01
 -9.8057769e-02
 -1.1078377e-02
  1.3530676e-03
  2.2801936e-03
 -3.0850260e-02
  1.4649159e-01
  4.6493635e-03
 -1.7408996e-03
 -1.4684395e-01
 -1.3891362e+00
 -7.9311883e-01
  1.1529287e-01
  2.1541798e+00
  5.8666794e-03
 -5.7349447e-02
  1.5898952e-01
 -3.8446948e-02
  1.7846046e-01
  1.0741847e-02
 -1.4665727e-01
 -1.4645961e-01
  3.5428800e-02
 -1.5912741e-02
  4.2565946e-02
  9.0391681e-02
  5.9016302e-02
  3.5074857e-01
 -4.3978833e-02
  6.1637491e-02
  1.3823865e-01
  1.3255897e-01
  8.1474207e-02
 -3.1457271e-02
  1.4412513e-02
 -6.0298648e-02
 -1.6088319e-01
 -2.5441704e+00
 -1.6264472e-04
  2.8069004e-01
  1.1783382e-01
 -1.5525590e-01
 -1.1722442e-01
  8.5549586e-02
  1.8532332e-02
 -5.1898026e-01
  1.4962703e+00
  1.9223965e+00
  2.3277910e+00
 -8.0066276e-01
 -1.4532574e-02
 -1.2991658e+00
 -2.0083699e+00
  8.2017779e-02
 -4.0833634e-01
 -8.5735041e-01
 -2.6934907e-01
  4.5913562e-02
  1.8919769e-01
 -5.8255869e-01
 -2.0871403e+00
 -2.3807284e-01
 -1.1258763e-02
 -7.3726267e-01
 -2.4372408e+00
  7.9771698e-01
 -1.5908314e+00
 -6.6329993e-02
  1.1101623e+00
 -1.0178801e+00
 -1.5150812e-02
  1.6328815e-01
 -2.7378744e-02
 -1.2000638e-01
 -1.0157526e-01
  2.8968336e-02
  1.7556110e-01
  4.2419121e-02
  5.0547451e-02
 -3.0166460e-02
  7.3265570e-01
 -1.0216951e-02
 -1.9105263e-02
 -1.4481280e+00
  1.3399638e-01
  2.2135943e-02
 -1.3694672e-01
 -4.6630107e-02
 -4.3882164e-01
 -1.5913901e-01
 -5.9363399e-02
 -8.3034486e-02
 -1.5388662e-01
  9.9843740e-03
 -1.8278383e-02
  6.0788235e-03
  1.8246596e-01
 -1.5528079e-02
  4.2474318e-02
  3.8019905e-03
  9.1354698e-02
 -3.0912561e-02
  1.2918021e-01
  1.8008081e-02
  4.3839131e-02
 -9.6597046e-02
  7.8675926e-02
 -2.5486827e-02
 -1.1051471e-01
 -4.5294814e-02
 -1.1536621e-01
  6.6343799e-02
  4.8920490e-02
  2.4077019e-01
  4.9512263e-02
  1.2813563e+00
 -2.5848384e+00
 -1.2274963e+00
  3.5316403e+00
  1.8259530e+00
 -2.5301215e-01
  6.3642338e-02
 -6.3137174e-02
  1.0582334e+00
  1.1010963e-02
 -1.1043575e+00
 -1.4105380e-01
 -2.6601252e-01
 -8.7410176e-01
  7.2777766e-01
  3.9724725e-01
 -1.5553692e-01
  3.8856357e-02
  1.4865570e-01
 -1.0801488e-01
 -5.2379061e-02
  1.4960521e-01
  9.0731704e-01
  1.2269021e-02
  5.0623238e-01
  6.9131918e-02
  1.7179315e-01
  1.6417626e-02
 -2.9082394e-01
 -3.9547067e-02
 -4.8570186e-02
  8.9516658e-03
  2.9092327e-02
  5.2311216e-02
  3.9957415e-02
 -4.1447988e-01
 -1.5389867e+00
  1.8879000e+00
 -2.1557499e-02
  9.0220332e-01
  5.9972510e-02
 -7.6329809e-01
 -5.5503678e-01
  9.8969579e-01
  8.8292527e-01
 -1.9180672e-01
 -3.3167988e-02
 -6.3888766e-02
  6.5983677e-01
 -6.7179181e-02
 -1.3101919e+00
 -7.6535565e-01
 -2.5193744e+00
  1.7722038e+00
 -6.8350220e-01
 -5.3662412e-02
 -1.4243377e+00
 -1.2091573e-01
  8.9317387e-01
  9.3928147e-03
 -1.6188625e-01
  1.6003141e-01
 -7.2017655e-02
 -1.5124737e-01
  6.5965943e-02
 -3.7135135e-02
  1.5144667e-01
 -1.6600063e-02
 -3.5775301e-01
 -1.2437479e-02
  9.4517291e-01
 -1.1019306e-02
 -2.0018055e-01
 -3.7609226e-01
  1.3545890e-02
 -7.3604896e-03
  1.3305844e-01
  4.0781982e-02
 -3.4614038e-02
 -2.4111587e-01
  1.7832911e+00
 -1.7258017e+00
  8.0255136e-02
  4.8111107e-02
  4.8449613e-02
  1.2032858e-01
 -7.5087398e-03
  3.0844467e-02
  1.8034168e-01
 -7.4306764e-02
  2.0695798e-02
  7.1986884e-02
  1.0128673e-02
 -2.1764711e-01
  1.3152246e-01
 -6.5201789e-02
  1.8620218e-01
 -1.4547080e-02
 -2.0375140e-02
  1.9956999e-02
  1.9645047e-01
 -5.2982569e-02
  4.1604750e-03
  3.2172838e-01
 -3.0516457e-02
 -6.4385980e-01
 -2.3346165e-01
 -3.6294815e-01
  1.0715053e+00
  6.8884105e-03
  9.9829890e-02
  9.9941175e-03
  1.1285276e-01
  1.7787285e-01
 -2.7557431e-02
 -6.7127988e-02
  2.1631327e-02
 -7.1380742e-02
 -2.0460153e-02
 -6.1820112e-02
  1.8922980e-01
  9.9105738e-02
 -7.6272212e-02
 -1.2662807e-02
 -1.1346187e-02
 -8.2796067e-02
 -3.9566785e-02
 -4.6273530e-02
  6.7214392e-02
  3.2497647e-01
  1.1144022e-01
 -1.6506734e-01
  1.0557621e-01
  1.1960459e-01
 -8.5453177e-03
  9.6411601e-02
 -1.8972202e-01
  5.1027011e-02
 -1.8977107e-01
 -1.2600461e-01
 -2.3693640e+00
 -1.3467128e+00
  2.7893962e-02
  1.1336361e+00
 -1.8403466e-01
 -1.9434046e-02
  1.8277702e-01
  2.2810027e-01
  1.9863227e-02
 -5.3376246e-02
  1.3873796e-01
 -1.6130297e-02
 -1.0870769e-02
  8.7392330e-02
 -1.9128981e-01
  6.7672335e-02
 -1.5495698e-01
 -1.8049866e-02
  2.1899708e-01
 -1.5228903e-02
 -7.8756034e-02
  1.8099889e-02
 -1.9241312e-01
 -1.6365105e-02
  1.0901264e-01
  7.3959930e-03
  3.4051344e-03
 -1.6220255e-01
  4.6449196e-02
  2.7331783e-02
 -6.4909145e-02
  2.9512197e-03
 -4.2677592e-02
 -7.9555444e-02
 -9.5408954e-02
  5.8512264e-01
 -7.8677706e-02
 -5.4924130e-02
 -1.2689602e+00
  1.0843731e-02
  1.7064765e-01
 -2.3226025e-02
  5.2646138e-02
 -1.2805229e-01
 -5.7223763e-02
 -4.8731230e-02
  4.7266494e-02
 -1.0801158e-01
  2.0798559e-01
 -1.9626139e-01
  8.9949928e-02
 -1.7679242e-02
 -1.1455410e-01
 -6.5749153e-02
  1.5217046e-01
  1.0962630e-01
  1.3867085e-02
  1.4182168e-01
  2.6202404e-01
 -3.0848002e-01
  7.3008724e-02
  3.5881091e-02
 -1.1574129e-02
  1.2518166e-01
 -5.4979526e-02
  8.5716300e-02
  2.2254849e-02
  5.5109613e-02
  1.8746297e-01
 -1.0433646e-02
 -8.2496071e-01
 -5.8590412e-01
 -2.2870605e-01
  3.4580621e-01
 -9.6762158e-02
  1.5293856e-01
  2.5606456e-01
 -2.8814916e-02
  5.0142352e-02
 -6.3894674e-02
  5.2979672e-03
 -1.9026688e-01
 -1.4726995e-01
 -5.3616114e-02
 -1.2141360e-02
 -2.1437614e-01
  1.2839891e-01
 -4.0959392e-02
 -8.5078509e-06
 -6.4725436e-02
  4.6351161e-02
 -2.7936465e-01
  1.2942486e-01
 -4.8895698e-02
 -1.9464695e-03
 -2.6540142e-01
 -3.4353226e-02
 -8.9355789e-02
 -1.7451154e-02
 -4.6954546e-02
  1.0093355e-01
 -3.6320243e-02
 -1.3673222e-02
  3.5583805e-02
 -2.2369236e-02
  3.4784266e-01
  8.1489336e-01
  5.9804223e-02
 -6.0881543e-01
  2.1069182e-01
  1.1917502e-01
 -9.6028466e-03
  2.2739036e-01
  1.9773692e-02
 -2.8893119e-02
 -6.1020166e-01
 -1.1138521e-03
  9.9594451e-02
 -3.0017007e-02
  1.9586121e-01
  3.1606149e-02
  1.5201411e-01
  6.2066368e-03
 -3.6744114e-02
  2.2317143e-02
 -1.5667495e-01
  2.2159556e-01
 -1.6422980e-01
  6.7971959e-03
  3.2529514e-02
  8.8561945e-02
 -6.4998053e-02
 -9.8342471e-02
 -3.8310595e-02
 -9.2028799e-03
 -3.2336801e-02
  1.7853121e-01
 -7.5289905e-02
  6.7932755e-02
 -7.5419098e-02
  4.8965031e-01
  3.6137378e-01
  1.0433147e-01
 -6.2591881e-01
  3.1448421e-01
  2.3951855e-02
 -9.5000982e-02
  9.1252252e-02
  1.7179716e-02
  6.6269420e-02
  1.3145165e-01
 -6.3988548e-03
  5.6188535e-02
  3.1056420e-03
 -1.1700129e-01
 -1.1225983e-02
 -4.5537107e-02
 -1.4387107e-01
 -9.1835663e-02
  8.4665874e-03
  2.5446583e-02
 -1.5655261e-01
 -1.8329574e-01
 -3.6631203e-01
  1.8508086e-02
 -3.5188042e-02
 -7.2790504e-02
 -3.6690354e-02
 -8.0700822e-02
 -5.1993191e-01
  2.0490080e-01
  8.4613804e-03
  7.0183203e-02
 -1.7710097e-01
 -3.9672252e-02
 -5.6337243e-01
  2.0856638e-01
  5.0879836e+00
  5.9378499e-01
 -1.6350628e+00
  2.0633848e+00
  2.8035605e-01
 -3.1663632e-01
  6.3604007e+00
  8.7115228e-01
 -6.5511517e-02
  2.6471479e+00
  1.0169996e+00
  3.6452401e+00
  3.6831653e-01
  1.5986901e-02
 -1.5708789e-01
 -8.8566601e-01
  5.9522295e-01
  1.0651708e+00
  6.1052728e-01
 -4.4327293e-02
  6.4928412e-01
  1.0964733e-01
 -5.0547016e-01
 -1.2051751e-01
  4.6996120e-01
  4.4448990e-01
  1.7536338e-01
 -1.3752957e-01
  3.3186842e-02
  2.1867385e-02
 -8.9433175e-03
 -7.1186222e-02
 -2.3608260e-01
  2.4984327e-01
  6.7112285e-01
  3.8596690e-03
 -1.2721783e+00
  1.0355539e-01
 -8.9050112e-03
 -1.3526126e+00
 -1.6750434e-02
 -7.0870027e-02
  2.6900733e-03
 -1.4752638e-02
 -5.2480198e-02
  3.7671193e-01
  1.0470974e-01
  3.7473989e-01
 -1.0950220e-01
 -2.5971083e-02
 -3.1136354e-02
  3.0225297e-02
 -3.4339356e-01
  6.6534802e-02
 -2.6050534e-02
  5.5823447e-03
  4.1953381e-02
 -6.0636252e-02
 -3.4122427e-03
 -2.8666559e-01
  5.5544764e-02
 -2.3943435e-03
 -1.2669448e-02
 -2.6341304e-02
  2.7190818e-02
 -1.1243228e-02
 -2.9141916e-02
  6.3519105e-02
 -1.0787921e+00
 -5.6322348e-01
  9.0244822e-02
  9.5682007e-01
 -6.6926129e-02
 -8.4012941e-02
  1.4210152e-02
  7.1035095e-02
 -4.4035916e-03
  5.8608530e-03
  1.1771411e-01
  8.0756672e-02
 -1.3576142e-01
  4.9200382e-02
 -9.8958716e-02
  4.0205401e-01
  6.7332514e-02
 -4.8909832e-02
 -1.3776426e-01
 -4.1566122e-02
 -4.4842120e-03
  1.1107101e-02
  1.8194580e-01
 -1.0722657e-01
  5.3141218e-02
  4.9863520e-01
  5.9686597e-02
 -5.7947859e-02
  3.6928229e-02
  1.0575023e-02
 -4.6378306e-01
  1.0750809e-01
  1.0090168e-01
  1.4147341e-01
 -6.6681863e-03
  3.0047706e-01
  1.8205436e-02
 -9.1624498e-02
 -1.2969400e+00
  6.4063773e-02
 -1.6955502e-01
 -5.0197482e-02
 -3.9488044e-02
 -9.6339412e-04
  2.8895376e-02
  2.7222064e-01
  4.3618688e-01
 -2.8481042e-01
  1.7864051e-01
 -1.0215325e-01
  2.2076232e-02
  3.0302493e-02
  2.6263425e-01
  3.9122835e-02
  2.0902012e-02
  4.3373983e-02
  1.3828693e-01
  5.7150006e-01
 -6.7945323e-03
  2.8126150e-02
  3.0789450e-03
 -5.9957476e-03
 -1.7995192e-01
  5.3788189e-02
  5.6285174e-03
 -2.6982708e-02
 -2.1324510e-02
  5.7022944e-02
 -4.3105173e-01
  1.8041773e-01
 -8.4044017e-02
 -1.6597024e-01
 -1.4209824e+00
 -7.0585346e-01
  2.5640614e+00
  1.3996480e+00
  6.8095871e-03
 -8.1026429e-01
  8.3446681e-01
  4.8748630e-01
  1.1678376e+00
 -7.5105107e-01
 -8.4327871e-01
 -1.2314150e+00
 -9.1739243e-01
 -2.2745681e-01
  6.4885759e-01
 -1.5435536e-01
 -4.8916903e+00
 -4.7124505e-01
 -3.5483927e-02
  2.1653006e+00
  5.9850854e-01
 -7.7741420e-01
  6.2030536e-01
  4.2067371e-02
  5.3426020e-02
 -2.6313884e-02
 -9.5520949e-01
  1.3182949e-01
 -2.4081184e-02
 -5.9079528e-03
 -4.5095216e-02
 -1.0161614e-02
  1.5581273e-01
 -9.2634821e-01
  4.8832095e-01
  1.4737426e-01
 -1.4823002e+00
  3.2499991e-02
  9.2519544e-02
  2.5629805e-02
  1.1136322e-01
  2.2801150e-02
  2.2237351e-02
  1.7202662e-01
  1.7808634e-01
  1.7625709e-01
 -2.7803648e-01
  1.0247804e-02
  8.9924294e-04
 -2.7486669e-02
  1.0946707e-01
 -4.0890753e-02
 -6.6636600e-02
  6.7270763e-02
  1.4650223e+00
 -1.5052319e-01
  1.0697518e-02
  4.0409146e-03
 -1.5213242e-01
  3.0237177e-01
 -8.3148656e-03
 -2.1683899e-01
 -7.1394868e-02
  1.2050994e-01
  1.3623899e-01
 -1.4714155e-01
  7.1571700e-02
 -9.1517143e-02
  1.3846008e+00
  2.7339894e-01
  8.8732608e-02
 -2.7038494e-01
 -1.4693272e-01
  9.2351884e-02
 -3.4286700e-02
  8.4606055e-03
  1.1092769e+00
 -6.4450420e-02
 -4.5053646e-02
 -3.8571255e-03
 -1.0095017e-01
  5.5767667e-02
 -4.1145451e-02
 -6.9378093e-02
  1.8700326e-02
 -3.7913534e-03
 -3.3912069e-01
  7.8193635e-02
  1.8412613e-03
  1.2719262e-02
 -4.7510568e-02
 -1.7493939e-02
  1.4484923e-01
  4.5346685e-02
  2.0335503e-02
  6.7769259e-02
 -3.5314385e-02
 -4.4283479e-02
  2.0417121e-01
 -3.8454901e-02
  5.1650000e-03
 -1.8554914e-01
 -3.5802681e-02
 -7.1363765e-01
 -8.1918174e-01
  2.3079033e-01
  1.4169968e+00
  2.3598284e-01
  2.0743964e-02
  1.0193443e-01
 -5.5859968e-02
  1.1965541e-02
  9.1386408e-02
  1.2864197e-02
  1.5526988e-01
 -6.5588437e-02
  4.0974896e-02
 -1.2114228e-01
 -5.5018414e-02
 -4.7505617e-02
 -1.4150249e-02
 -1.6729622e-01
 -9.6952848e-02
  6.8514580e-03
 -2.5862718e-01
 -1.0133707e-01
 -8.5025378e-02
  1.3344015e-01
  5.7325538e-02
  4.6163611e-02
 -6.8886593e-02
  1.7614959e-02
  6.8523668e-02
  2.6202819e-01
 -1.0153208e-01
  1.0369857e-01
  2.3572540e-02
  1.6963845e-01
 -7.9469520e-01
 -3.4385344e-01
  1.8252353e-01
  1.0785687e+00
  6.4283736e-02
  2.9451057e-02
 -2.5073996e-01
 -2.8541228e-01
 -5.8169762e-04
 -2.8649045e-03
 -1.3237943e-01
 -6.3277714e-02
 -6.8547770e-02
  2.9064241e-01
  7.9905123e-02
 -8.6402716e-03
  3.8759563e-02
 -1.8797474e-01
  6.7737490e-02
  2.0578721e-01
  5.5896241e-02
  4.1991495e-02
  8.0227368e-03
  2.6638260e-02
 -4.0930954e-01
  2.4461880e-01
  1.0911072e-01
  7.0922583e-02
  1.7350632e-01
  1.4054456e-02
 -1.0663626e-01
  1.9210616e+00
 -2.9442993e-01
  1.8245174e-01
 -1.8539216e-02
 -1.6128348e+00
 -1.1000928e+00
 -4.7857517e-01
  2.4748964e+00
 -2.2959881e-01
 -5.1683437e-02
 -1.4814050e-01
 -2.8767639e-01
 -3.5329290e-02
 -3.1625256e-02
  8.6351149e-02
 -7.2588301e-01
 -1.5990111e-01
  3.1494964e-02
 -2.0949021e-02
 -1.1402336e-01
  5.3706482e-02
  1.2102889e-01
 -1.1507619e-01
 -1.2704641e-01
 -6.7275977e-03
 -9.6280649e-03
 -1.7936969e-02
  7.0979826e-02
 -3.4536783e-02
 -2.6993887e-02
  8.8588327e-02
  6.1438937e-02
  9.3892157e-02
 -3.2119982e-02
  5.1266167e-02
 -1.1128731e-01
 -2.7850319e-02
 -5.5326808e-02
 -1.8606123e-03
  9.5514530e-01
  3.0093837e+00
  1.7478132e+00
  2.9502556e+00
 -2.3921316e+00
 -4.7021100e-01
 -3.4641397e-01
 -3.6034644e-01
 -3.0141938e-01
 -9.4210677e-02
 -1.6937408e-01
 -4.2845127e-01
  4.4816956e-01
  4.8483318e-01
 -1.3470377e-03
 -2.2126126e-01
 -8.6186752e-02
 -4.3135867e-01
 -4.3817647e-02
 -1.4756688e-01
 -1.2124445e-01
 -8.2132030e-01
 -1.1731526e+00
  6.0198814e-01
  3.6240053e-01
  3.3553079e-04
  2.2732122e-02
  4.9201008e-02
 -2.4373987e-01
 -1.5783058e-02
  1.7588234e-02
 -7.5155005e-02
  1.7913867e+00
 -1.7157689e-01
 -5.1629182e-02
 -5.9816152e-01
 -7.0344007e-01
 -3.4202710e-02
  9.4111097e-01
  9.1172978e-03
  9.8221347e-02
 -6.1357697e-03
  1.9827079e-02
  9.4430514e-02
  4.7529735e-02
 -5.0751109e-02
 -9.0538822e-02
 -2.3944407e+00
  5.6179259e-02
 -2.6873000e-02
 -2.7239293e-01
 -3.0555740e-01
 -3.4328982e-02
  1.7663602e-02
  1.3672861e-01
  5.7776455e-02
 -2.4390351e-02
  6.5941148e-02
 -1.1521079e-01
 -1.9164731e-01
 -1.5088008e-01
 -1.2316784e-01
  1.2442880e-02
 -2.5223019e-02
 -3.0655978e-02
 -3.1539347e-02
 -7.8606933e-02
  2.3119412e-01
 -1.0410178e-01
  9.0219727e-04
 -2.3353057e+00
  1.6223540e+00
 -5.1754427e-01
  2.0646966e+00
 -1.7378719e-01
 -3.6659348e-01
  5.1630251e-02
 -2.4540205e-02
  1.7609777e-01
 -3.7473578e-03
 -9.9203557e-02
  1.5989956e-01
  1.0113139e-02
  1.6913877e+00
 -7.1950620e-03
  8.7780379e-02
  9.1597444e-01
 -1.0144285e-01
  3.8289309e-02
 -1.9592518e-01
  2.1724494e-01
 -4.5006793e-02
  6.6583961e-02
  7.9181224e-02
  7.1288265e-02
  7.2318800e-02
 -1.6629960e-01
  4.0751655e-02
 -1.2788494e-01
  4.4952862e-02
 -4.2791832e-02
  1.4730958e-02
  4.1060704e-03
 -9.3432307e-02
  3.9481771e-01
  9.4765073e-01
  8.7147228e-02
  4.1183554e-02
 -1.1650357e+00
  1.0464536e-01
 -7.2666422e-02
 -3.5294209e-02
  2.0306835e-02
  3.9590333e-02
  4.8606419e-03
  8.6136768e-03
  6.2290993e-02
  1.7105246e-01
  2.7371967e-02
  1.8467857e-02
  3.0600354e-01
 -4.7192503e-02
  3.6285780e-02
  1.0785434e-01
 -7.0878118e-02
 -2.4956157e-02
 -8.7559290e-02
 -1.1627012e-01
  4.8440558e-01
 -1.1364131e-02
  1.4323091e-02
  5.4586265e-02
  6.1770011e-02
  4.7606923e-02
  3.1728372e-02
  2.3216352e-01
  7.3350690e-02
 -7.3709530e-03
  3.0438051e-02
 -6.0661491e-02
 -8.1433964e-01
  3.3035495e+00
 -7.0748997e-01
  5.2694213e-01
  7.8855234e-01
  6.1022091e-01
  4.2408898e-01
  1.4004189e-01
  1.1566012e+00
  1.4786329e+00
  9.8620379e-01
 -5.9146434e-02
 -1.2001332e-01
  3.6609151e+00
 -9.8619163e-02
  3.3163372e-01
 -7.5315081e-02
 -2.5092524e-01
 -2.0900204e+00
  1.2259463e-01
 -2.3121116e-01
  1.7338067e-01
  2.3866585e-01
 -3.8200611e-01
 -9.1558397e-02
 -8.7312154e-02
 -3.5309874e-02
 -1.3490480e-01
  9.8993955e-03
 -6.5425813e-02
  1.9615171e-02
 -5.4181382e-02
 -4.0817130e-03
  9.9363603e-02
 -3.1833261e-01
  5.8424139e-01
  9.4331942e-02
 -1.4327830e-01
 -2.8793260e-01
  8.9998927e-04
 -6.7780949e-02
  4.4442460e-02
 -1.9161919e-01
 -6.1084550e-02
 -2.1744433e-01
 -3.3971768e-02
  2.0148124e-01
 -5.8785081e-02
  2.3674105e-01
 -3.3859819e-01
 -1.0099095e-02
 -5.8351044e-02
 -9.8866634e-03
  1.8839801e-02
 -8.6335994e-02
 -1.1870368e-01
  8.3616629e-02
 -1.8584420e-01
 -8.1942774e-02
 -2.1143241e-01
  8.6185113e-02
  2.2867216e-02
  7.8736790e-02
  2.9204553e-01
 -5.8273323e-02
 -7.0120841e-02
  2.8725835e-02
  5.7330873e-02
 -1.1963638e-02
 -8.8784434e-02
 -8.8136691e-01
 -3.4708950e-01
 -6.4330034e-02
  1.2699808e+00
 -4.8928306e-02
 -1.0481571e-01
 -1.6119020e-01
 -1.7967738e-01
 -2.6073435e-03
 -2.2857396e-02
  9.8486960e-02
  1.9256021e-01
  1.3468698e-01
 -1.3598403e-01
  3.3604208e-01
  8.9914474e-04
 -6.7817010e-02
 -6.7304145e-03
  2.2657393e-02
  5.9474518e-05
  3.4814615e-02
 -1.2565462e-01
  3.5261297e-01
  4.4169370e-02
 -1.3532205e-01
  1.3478833e-01
  6.7677297e-02
  9.5544681e-02
 -9.6353618e-03
  1.6847973e-01
  2.4080671e-02
 -5.5286624e-02
  3.4103397e-01
 -3.3472296e-02
  4.6240056e-01
 -2.1947896e+00
 -4.4223666e-01
 -1.7187786e-01
  4.9305528e-01
 -2.9665103e+00
 -1.6043432e+00
  5.7689216e-02
  3.9725479e-01
 -2.7984102e+00
 -6.6239637e-01
 -3.0312886e-02
 -1.9799049e+00
 -4.9993342e-01
 -1.6135967e-01
  2.6795805e-01
  7.4301407e-02
  6.2460774e-01
  6.6446942e-01
 -1.3160813e+00
 -6.5754360e-01
 -4.2796442e-01
 -7.7703729e-02
  1.3700360e-01
 -1.3640805e+00
  4.5952667e-02
  2.8289375e-01
 -3.5725680e-01
 -7.2482103e-01
  4.2675591e-01
 -1.5360665e-01
  1.2288623e-01
 -2.6488170e-01
 -4.1399062e-02
 -3.3100281e-02
 -6.3548572e-02
  2.1804108e-01
  4.5718366e-01
  6.5688528e-02
 -1.1267231e+00
  1.0832185e-01
 -2.6166562e-02
  9.6929081e-02
 -9.4018944e-02
  6.1712749e-02
 -4.3926850e-01
  2.6411986e-01
  5.2548151e-02
  1.0612339e-02
 -7.6695539e-02
  5.4150682e-02
  1.0777154e-02
 -3.0222045e-02
  1.1444695e-01
  1.8354218e-02
  1.5088710e-01
  8.2409978e-02
  3.7773389e-02
 -1.7285831e-01
  1.5969244e-01
  8.5867330e-02
 -5.8009628e-02
 -1.2738152e-01
 -2.2242753e-02
  1.6918113e-02
 -3.1652343e-02
  3.2297846e-02
 -1.8952863e-01
 -1.9500628e-01
 -5.5909410e-02
  8.3758116e-02
 -8.9494556e-01
 -1.8396053e-01
  7.6565952e-03
  1.1235585e+00
  1.2281246e-01
 -7.1953535e-02
 -1.2924825e-01
 -9.8524898e-02
  1.3941254e-01
  6.4662015e-03
 -1.1448679e-01
  9.6524499e-02
  3.3832446e-02
 -3.9798282e-02
 -1.3062783e-01
  2.6803456e-02
  7.6356702e-02
  2.5141987e-01
  1.1991455e-01
 -7.7722371e-03
 -4.8903726e-02
  7.5928576e-02
 -5.6551326e-02
  1.6079759e-02
  1.5003040e-01
  7.7558570e-02
  4.4917908e-02
 -1.5417612e-01
 -4.1021317e-02
 -6.9086976e-02
 -1.1597529e-02
  6.9389798e-02
  8.5418917e-02
 -9.0004511e-02
  5.3459924e-02
  4.4739240e-01
  6.4091605e-01
  4.1680310e-02
 -1.2178718e+00
  2.9730555e-01
 -2.1071240e-02
 -1.2336220e-02
  1.7812598e-02
  2.7965598e-02
  1.7145218e-02
 -1.2236874e-01
 -1.7441159e-01
 -1.7233338e+00
  5.9931558e-03
 -3.1220121e-02
 -6.2408149e-02
 -2.6192825e-02
 -6.9951721e-02
  9.5346935e-02
  1.6029811e-02
 -6.3025348e-02
  1.9026004e-01
  1.3596659e-02
  5.9256092e-02
 -3.3047932e-01
 -1.5308720e-02
  3.3262342e-02
  2.7394507e-02
  5.8840908e-02
  1.0485228e-01
 -1.4597225e-01
 -1.1095794e-01
 -1.9468255e-02
  6.0059402e-02
  1.8548761e-01
  3.6049271e-01
  2.5440767e-01
  1.8111299e-01
 -1.2630407e+00
 -6.0460836e-02
  2.3972752e-02
 -2.8766360e-02
 -4.2378057e-02
  3.6627090e-01
 -2.6457703e-02
 -1.9956285e-01
 -9.9425033e-02
 -3.0525042e-02
 -5.4525141e-02
 -1.7858166e-02
 -3.1122655e-01
 -2.0733401e-02
  7.2532333e-02
  1.0126927e-01
  3.9503943e-02
 -1.0069707e-01
 -5.7313502e-02
  1.5368388e-02
  8.6360514e-02
  4.7418527e-02
 -1.1986713e-01
  3.1850297e-02
 -9.9158548e-03
  2.3845260e-01
  2.5297105e-01
 -7.4767672e-02
 -1.0316406e-01
 -1.9620696e-01
  1.4272077e-01
 -8.0542646e-02
 -4.9511999e-01
 -7.2883934e-01
 -1.1059920e-01
  1.8211600e+00
  1.3767647e-02
  4.0537905e-02
  5.7141528e-02
  1.3106096e-01
 -4.8390869e-03
 -1.3289641e-01
  1.0860081e-01
 -2.5958714e-01
  1.1797418e-01
 -2.4278124e-01
  1.7366849e-01
 -3.8322907e-02
 -8.3532147e-02
 -4.9635053e-02
 -2.2330824e-02
  3.9844941e-02
 -2.9908014e-02
 -1.5964875e-01
 -1.1455026e-01
 -9.9237770e-02
 -1.5429917e-02
  2.5320571e-02
 -6.9145791e-02
 -2.9706778e-02
 -5.1899642e-02
 -1.9147547e-01
 -2.6661465e-01
  1.3008389e-01
  2.6509377e-01
  2.2780282e-02
 -2.0481762e-01
  2.2740059e+00
  3.3238044e+00
  1.2838361e+00
 -2.9516547e+00
 -2.7217835e-01
  3.6978421e+00
 -3.1003885e+00
 -1.7730967e+00
  2.9050083e+00
 -8.8894182e-01
  2.5298071e+00
  4.2495272e-01
  2.8062444e+00
 -2.4049158e+00
 -2.3022811e+00
  2.8877027e+00
  1.2240943e+00
  2.7997346e+00
  2.7859688e+00
 -2.1590064e+00
 -2.8568573e+00
 -2.4861927e+00
  1.6844550e+00
 -1.2701135e+00
  2.9978590e+00
  1.5859557e+00
  1.2105962e+00
 -2.9263098e+00
 -2.8510735e+00
  1.6333323e+00
 -2.6192753e+00
  2.8869128e+00
  1.3126777e+00
 -2.9694064e+00
  3.0835235e+00
 -2.8879578e+00
 -2.7744188e+00
 -2.5724533e-01
 -2.6001382e+00
  3.1280496e+00
 -3.1507359e+00
 -2.6999409e+00
 -3.2398908e+00
 -2.8706427e+00
  2.4461007e+00
  2.9018645e+00
  1.2212374e+00
  2.0288088e+00
  2.7533100e+00
  1.3825083e+00
 -2.7632313e+00
 -1.0439245e-01
 -3.5084121e+00
  2.6039565e+00
 -2.3752079e+00
 -2.9274495e+00
  2.7263072e+00
 -3.0058987e+00
 -2.9710207e+00
  1.7807937e+00
  3.3376248e+00
  1.0671217e+00
 -2.4394383e-01
 -2.4616835e+00
  2.7272046e-01
  1.1795508e+01
 -8.8061590e+00
 -9.3314743e+00
  6.7973709e+00
 -1.9912541e-01
  4.1626563e+00
  6.9455509e+00
  3.9459481e+00
 -1.3399650e+00
 -9.7618774e-02
  2.2091842e+00
  4.0193305e+00
  1.1652507e+01
  3.6903312e+00
 -9.8028839e-01
 -5.3390036e+00
 -1.7052894e+00
  1.0154831e+00
 -4.6690025e+00
  3.8020294e+00
  3.8858976e+00
  2.4147079e+00
 -5.5693498e+00
  1.7903757e-01
  2.8374391e+00
 -2.1859396e+00
  3.2248535e+00
  2.8465030e+00
 -4.8874269e+00
  3.4004290e+00
 -2.8942528e+00
 -1.9608176e+00
  1.5990165e-01
 -2.8460810e+00
  1.1215384e+01
 -7.3313193e+00
 -5.3720293e+00
 -5.2158375e+00
 -3.3933964e+00
  3.6204655e+00
  4.9629741e+00
  3.2482824e+00
  3.5799253e+00
  3.2092385e+00
  1.4942083e+00
 -4.5019341e+00
 -1.7417310e-01
 -3.4980719e+00
  2.1948671e+00
 -2.4060692e-01
 -4.2868338e+00
  3.4825563e+00
 -5.0318766e+00
 -5.8137069e+00
  2.6154580e+00
  1.1575044e-01
 -2.9936171e-01
  1.3969877e-01
 -2.4221559e-01
 -2.2224488e+00
  6.6056386e-02
  8.0133192e-02
  8.3953641e-02
 -1.5418288e-01
 -2.3032870e-02
  2.3443136e-01
 -1.3640825e-01
  3.7412861e-01
 -9.0980671e-02
  2.6740812e-02
 -6.8562098e-02
 -9.0398723e-03
 -2.8625694e-01
 -3.0649822e-02
 -3.5211660e-02
  1.0622953e-02
 -9.6085295e-02
  2.0796332e-01
  1.6417125e-01
 -1.0943525e-01
  6.2150005e-02
  3.6792360e-02
 -3.3907497e-03
  2.4529146e-01
 -2.9964857e-02
  8.2863569e-02
 -2.9191673e-01
 -3.2505386e-02
  2.2663480e-01
 -1.9892693e-01
 -4.0670180e-01
 -2.6171800e-01
  9.1812208e-02
  8.6037087e-01
  1.6041719e+00
 -3.5708418e-01
  4.8358727e-02
  1.2922864e-01
  1.1377434e-01
 -2.7371269e-01
 -5.9772350e-02
 -1.2200999e-01
  8.1454165e-02
  1.3557252e-01
 -9.4322627e-03
  2.9004803e-01
  1.6235729e+00
  3.5984457e-02
 -1.4251925e-02
  1.3566726e-03
  1.0097838e-01
 -2.9546833e-01
 -2.6000312e-01
  1.4730469e-02
 -1.6325106e-01
 -2.3804300e-02
 -2.1789601e-02
  4.2163357e-03
  1.0244671e-01
 -5.1728112e-04
 -1.0642651e-01
  1.0465679e-01
  5.1376279e-02
 -2.0699525e-01
 -1.3286655e-01
  1.0220411e-01
 -2.7896875e-01
  1.4984337e-02
 -6.3945985e-01
 -1.9343804e+00
  3.5178208e-01
  1.3062741e-01
 -1.3649233e-02
 -2.3175322e-01
 -2.2859581e-02
 -1.9333276e-01
 -1.9844789e-02
  2.4610069e-02
  3.0493056e-02
 -1.9601388e-02
  3.7538362e-01
  9.7804606e-02
  1.3339955e-02
 -1.9431375e-01
 -2.5270790e-02
  1.8274561e-01
  2.8310424e-01
  1.5129465e-01
  4.1611075e-01
 -1.3336012e-02
  2.1074198e-01
  1.9388011e-01
 -1.0165748e-01
  4.3936811e-02
  1.8742912e-01
  4.5175161e-02
 -3.6686406e-01
  3.2230891e-02
 -1.1980549e-01
 -3.1117760e-02
  5.5228108e-01
 -8.0236427e-02
  8.1037000e-02
  7.5025067e-02
 -1.0367109e+00
  2.8815395e-01
 -3.3420775e-02
 -2.8104087e-02
  2.2935998e-01
  6.7805350e-02
 -1.4572773e-03
  2.7173042e-02
  9.2009380e-02
 -1.1278035e-01
  8.4020421e-02
  4.0646523e-02
  2.1093233e-02
 -1.5425566e-01
  4.9374387e-02
 -1.7057645e-01
 -3.7315413e-02
  6.1767548e-01
 -5.4937180e-02
  8.9503653e-02
  1.2267974e-01
  1.2964669e-01
  1.4712526e-01
  3.5476187e-01
 -1.0065044e-01
 -3.2889009e-01
 -7.3530348e-03
 -6.9912657e-02
 -3.4105110e-01
 -1.3259645e-01
 -4.7471500e-03
  6.4678824e-01
  6.6623978e-02
  2.3227805e-01
 -1.0889756e-02
 -1.6711394e+00
  4.5216179e-01
  1.3993295e-02
  1.4226954e-02
  3.3095520e-02
 -2.0117849e-01
  2.3897151e-03
  1.1870649e-01
 -1.5403515e-01
  1.0874110e-02
 -2.0876665e-01
 -6.6879928e-02
 -8.0656506e-02
  2.5970122e-01
 -2.5615707e-01
 -7.1523085e-02
 -2.1505170e-02
  2.9871695e-02
 -1.7216291e-02
 -4.0960945e-03
  4.6503905e-02
  1.1531163e-01
 -6.2297654e-01
  1.4090872e-01
  4.4711116e-01
 -2.5597382e-01
 -2.9924884e-01
 -3.8881460e-03
 -2.2426274e-01
  6.7715950e-02
 -1.3384631e-01
  5.4633647e-01
 -5.0323194e-01
 -1.1550307e-01
 -6.5852977e-02
 -1.5331759e+00
  6.1175800e-03
 -4.4290397e-02
 -1.6878158e-01
 -3.0873838e-01
  1.7200500e-01
  1.4024922e-01
  8.4000407e-03
  3.4749281e-02
  2.9832628e-02
 -1.7020543e-01
 -4.9289431e-02
  2.4493775e-01
 -1.0015818e-02
 -6.9872722e-02
  1.7585082e-01
  3.9424829e-02
  5.1391661e-02
  2.2038105e-01
  1.0509814e-01
 -2.3364802e-01
  7.7446434e-03
  4.5877382e-02
  4.8629053e-02
 -4.4709880e-02
  1.9099100e-01
  1.7001753e-01
  2.7205548e-01
  3.5199985e-01
  1.3702649e-01
 -8.5435174e-02
 -7.9973269e-01
  3.5402089e-01
 -1.5404625e-01
 -1.2025482e-01
  1.8049885e+00
  1.6395488e-01
 -4.9475441e-03
 -2.5061724e-01
 -5.7370961e-01
 -1.6664356e-01
 -5.7138787e-03
  1.7226510e-02
  2.4288215e-02
 -2.6862177e-01
  1.6051762e-01
 -5.2936614e-02
  2.5836110e-01
 -8.1525587e-02
 -1.0005296e-01
 -5.6133438e-02
  2.3735147e-03
  1.9959663e-01
 -1.1182944e-01
  7.2006881e-02
  4.1440806e-01
  3.4467533e-01
 -5.6378446e-03
 -2.8551677e-01
  4.1608822e-01
 -1.0061863e-01
 -1.5726021e-02
  6.1468948e-02
 -2.2393309e-02
 -2.9892749e-01
  1.0999180e-01
  7.6415592e-01
  2.2398396e-01
  7.2042574e-03
 -1.6971056e-01
 -1.6240832e+00
  4.8187923e-02
  9.1510467e-02
  2.6129663e-01
 -7.1762237e-03
  1.2481894e-01
 -1.5265389e-01
 -6.0788445e-02
  3.2594427e-02
 -9.5639937e-02
 -1.5291545e-01
  7.4052592e-03
 -6.0411030e-01
  1.1763970e-01
  8.2389708e-04
  2.2578311e-01
 -1.5586270e-01
  4.5974810e-02
  2.2781566e-01
  5.6289635e-03
 -1.3532318e-01
  1.5577860e-01
 -9.5488220e-02
 -9.9788673e-02
  2.0075543e-01
 -1.2448643e-01
  8.4745847e-03
 -1.3471313e-02
  1.0343022e-01
  8.3170958e-02
  5.4035254e-02
  1.9554174e+00
 -2.9856485e-01
  2.9393813e-01
 -5.9525214e-02
 -8.0186111e-01
 -1.6467676e-02
 -2.6314400e-02
 -3.8529697e-01
  3.3671726e-02
  1.1536981e-01
  1.9998226e-01
 -1.2569168e-01
  4.4124685e-02
 -8.5870005e-02
 -1.8513538e-01
 -1.9815893e-01
  1.3660695e-01
 -2.9307136e-01
  1.9631314e-03
  9.8829538e-02
  4.4574555e-02
 -4.5200013e-02
 -1.1036391e-01
 -3.3908773e-02
  2.3790516e-01
 -3.7246716e-01
 -1.2080219e-01
  1.8527348e-01
  7.1670495e-02
  1.4315474e-01
  3.0582789e-02
  1.9437122e-01
 -1.8039317e-01
 -6.3452236e-02
 -1.9103631e-01
 -2.9070854e-01
  9.1907211e-02
 -1.0130278e-01
 -5.8057129e-02
  1.9009798e+00
 -1.0556159e-01
 -2.1527721e-02
 -4.7080252e-02
 -2.7987920e-02
 -2.7915215e-01
 -5.1790919e-02
 -1.2108466e-01
 -4.0391815e-01
  7.3261864e-02
 -8.9262493e-02
 -4.5324019e-01
 -4.2534404e-02
  9.6723355e-02
  1.5852337e-01
  1.8592341e-01
  9.2363492e-02
  1.1656190e-01
  7.8481294e-02
  8.7180160e-02
  8.7363057e-02
  7.8171805e-02
  1.9378753e-01
 -8.3536364e-02
  1.3237663e-01
  5.1764909e-02
 -6.1011676e-02
  1.1091927e-01
 -1.8912864e-01
 -2.3259515e-01
  5.3365201e-02
  3.0320674e-01
 -2.0760857e-01
 -2.6837164e-01
 -6.2914503e-01
 -1.7131134e+00
 -1.2171645e-01
 -5.2308328e-02
  1.7194059e-01
  2.8127271e-03
  1.5869465e-01
  4.5219755e-01
 -9.0409853e-02
  1.3019939e-01
  2.0250204e-01
 -5.7451282e-02
 -2.4931480e-01
  1.5953258e-01
  2.8503481e-01
 -9.9388874e-01
 -6.5312378e-02
 -1.3448754e-01
  4.9632039e-02
  3.1674046e-02
 -4.5005590e-01
  1.0593937e-01
  3.8577661e-02
  6.4265020e-02
  3.6996178e-02
  1.5660045e-01
  1.3414809e-01
 -2.0626523e-03
 -1.5942040e-01
  5.8886085e-02
 -8.8318223e-03
 -1.9180316e-01
 -9.6749622e-01
  1.9998918e-01
 -1.0162377e-01
 -2.0523569e-01
  1.8671126e+00
 -1.0687213e-02
 -1.9273737e-01
 -1.3825515e-01
  1.4399864e-02
  5.9984230e-02
 -2.7066490e-01
  2.3309256e-01
  1.2473605e-01
  1.7163278e-01
 -1.0304488e-01
 -6.0186706e-02
  4.6497919e-02
  6.8613882e-03
 -1.4464203e-01
 -1.4563605e-01
 -3.3361110e-01
  2.0837185e-01
 -4.0358424e-02
 -1.1691352e-01
 -4.9666367e-02
 -1.7688610e-01
  1.1527807e-01
 -7.2800815e-02
 -3.7714627e-03
 -1.2793164e-01
  1.8925871e-01
 -4.2305195e-01
  1.5669115e-01
  1.1194980e-02
  3.6132863e-01
 -9.9863893e-01
  2.1860415e-01
 -4.3616346e-01
  5.1224864e-01
  1.6743181e+00
 -3.5365826e-01
 -1.8016575e-01
  1.1764328e-02
  1.8005241e-02
 -1.0676911e-02
 -1.4125293e-02
 -1.2893546e-01
  3.3758231e-02
 -6.9893442e-02
 -3.1166458e-01
  1.6608498e-01
  8.3362855e-02
  1.7028356e-02
 -3.9873723e-02
  2.2799383e-01
 -2.0961514e-01
 -1.6061727e-02
  2.1245030e-01
  2.1633415e-01
  6.8086423e-02
 -2.1618697e-01
  1.5023150e-02
  4.2932313e-02
 -1.9967349e-01
  1.3837300e-02
 -1.3078907e-01
  1.4063489e-01
 -5.3184831e-01
  1.8489790e-01
  2.8732048e-02
  2.1033666e-01
  1.2587435e+00
  2.9614470e+00
  1.0559610e+00
  1.1137728e-01
 -1.4580865e+00
 -3.7445161e-01
  3.4531704e-01
 -4.5808392e+00
  2.4832795e+00
 -1.9689224e+00
 -4.2351460e-01
  5.0938815e-02
 -1.5586086e-01
 -7.3775387e-01
 -2.4061570e+00
 -4.6060413e-01
  4.9294370e-01
 -1.2904004e+00
 -9.7434074e-01
 -7.4724048e-01
 -9.4765174e-01
  9.2754632e-02
 -7.7303076e-01
  1.3236031e-01
  5.0695676e-01
  2.0838095e-01
  3.2182902e-01
  2.4377397e-01
  2.6885360e-01
 -8.1072701e-03
 -6.5385169e-01
  4.2323950e-01
 -1.6873110e-02
  8.1178755e-02
 -2.9360948e-02
 -4.8830248e-03
  2.3141075e-02
 -1.8362235e-01
 -1.3633565e+00
  2.9282333e-02
 -5.6064218e-02
  1.2467490e-02
  3.0871272e-01
 -4.9111594e-02
 -1.3644800e-01
  5.0121188e-02
 -5.4302871e-01
  5.5913240e-02
 -1.1857523e-02
 -2.0491071e-01
 -5.4376416e-02
  4.5670353e-02
  8.2911104e-02
  1.5906680e-01
  7.8830749e-02
 -1.7874785e-01
 -1.6826184e-02
 -2.7720246e-01
 -1.8231234e-01
 -3.4305549e-01
  6.1403722e-02
 -4.0423840e-02
  8.3137490e-03
 -2.1621798e-01
 -7.5854339e-02
  6.4494632e-02
  3.4493856e-02
 -2.3095415e-03
  5.8831733e-01
 -1.4415116e+00
 -9.1137314e+00
 -7.4215017e-02
 -1.7599713e-02
 -3.0652443e-01
  2.0493664e-02
  1.5843651e-01
 -5.3825688e-01
 -1.2490965e-01
 -1.2846872e-01
 -8.3684705e-02
  2.2276001e-02
 -2.8490679e-02
  3.9015749e-01
 -1.0206165e-01
 -1.6617373e-01
  7.7064954e-02
 -2.9642096e-02
 -1.9936731e+00
  8.2676530e-01
  8.3842203e-02
  1.6969670e-02
  4.7958940e-03
  8.5289180e-02
 -9.8421790e-02
  4.2808570e-02
  1.0258614e-01
  3.3225077e-03
 -8.8186532e-02
 -3.5778094e-02
  1.2937981e+00
  1.5145471e-02
  1.8301705e-02
 -1.2339552e-01
 -8.1068836e-02
 -6.9449419e-01
  1.8783420e-01
 -9.4458401e-01
  3.1390363e-01
  1.9254659e+00
 -1.7612296e-01
 -1.0100656e-01
  8.3808735e-02
  9.9605478e-02
  2.1810165e-01
 -8.7561850e-03
  6.7927718e-02
 -9.1306619e-02
 -9.4797522e-02
 -2.2498587e-01
  2.0483807e-01
 -6.5186366e-02
  8.2160033e-02
 -9.2715792e-02
 -1.0530207e-01
  1.2177397e-01
 -7.0311829e-02
  8.3826728e-02
 -1.5926109e-01
  7.8485809e-02
  1.7783059e-01
 -1.1625107e-01
  2.8150083e-02
 -2.4255748e-01
 -3.5773680e-01
  2.7841839e-01
 -8.8834353e-02
  1.4452063e-01
  1.4868464e-01
  4.6618063e-02
  1.0631887e-01
  5.8916025e-02
  5.8482128e-01
 -4.4309273e-01
 -1.2773815e+00
  2.1593216e-01
  5.7679260e-01
  1.0451758e-01
 -1.9244312e-01
 -1.5638924e-01
 -2.0362379e-02
  2.0400070e-02
  3.2281362e-02
 -1.6302127e-01
 -5.2285653e-01
 -5.9078056e-03
 -3.0812013e-01
  5.4694019e-02
 -2.4780814e-01
  2.5495529e-01
  5.6684382e-02
 -1.8543820e-01
  2.2945309e-01
  4.8245564e-02
 -1.1296313e-01
  9.2408992e-02
 -8.7917345e-03
  2.2695338e-02
  1.5247934e-01
 -1.2947817e-01
  1.8365681e-01
  3.7379381e-01
  3.3593094e-01
  1.2702619e+00
 -2.2702639e+00
 -2.4217801e-01
  7.1362436e-01
 -2.9886550e-01
  1.3240075e-01
  2.0640731e+00
 -3.9807700e-02
  3.9019965e-02
  4.7528334e-02
 -2.8219230e-02
  3.3767858e-01
 -2.2129121e-01
  4.3006130e-02
  4.3310389e-01
  1.1677699e-01
  1.5064788e-01
 -2.0724277e-01
  1.1880764e-01
  2.7967209e-01
 -1.9290325e-01
 -5.5569373e-03
  1.0330622e-02
  2.3259319e-02
  5.0706536e-02
 -1.4269534e-02
 -5.9848405e-02
 -1.6199733e-01
  3.5556041e-02
  9.1303520e-02
 -1.7042880e-01
 -2.8774676e-01
  3.5414934e-01
  1.5360013e-01
  8.7897792e-02
  1.5279327e-01
  8.9430630e-02
  7.3887664e-01
  1.7710389e-01
 -3.1673905e-02
  3.4217820e-02
 -2.2287977e+00
  6.0616728e-02
 -1.4731106e-01
 -1.2996055e-01
 -1.3147825e-01
  1.6755138e-01
  6.8229325e-02
 -3.6496022e-01
 -5.7104886e-02
 -4.6782842e-01
 -3.8126677e-02
 -1.2443031e-01
  2.2423218e-01
  2.1370648e-01
 -3.2370108e-01
 -8.4089197e-02
  4.1407622e-02
  4.9354311e-02
  7.3154494e-02
  4.2779393e+00
  7.7726491e-02
  4.9489867e-02
 -9.8685242e-02
 -2.8282216e-01
  7.4222043e-02
 -2.0721532e-01
  1.2967366e-02
 -1.3366151e-02
 -4.9161229e-02
 -1.7589261e-01
  8.1653289e-02
  1.1994214e+00
  1.4470708e+00
 -5.8710533e-01
  1.0007226e+00
  1.3754842e+00
  1.4193684e-02
 -7.0312345e-01
  2.1932039e-01
  5.6165850e-01
 -3.4160349e-01
 -1.9736098e-01
  1.6247519e+00
 -1.1047533e-01
  1.9169419e-01
  1.1843327e-01
 -1.1694062e-02
  6.8318099e-02
  1.0023460e-01
  5.3856101e-02
  5.0176591e-02
  7.0176810e-01
 -1.4393957e-01
  1.6169695e-02
  1.3401077e-02
  1.9986611e-02
  3.2508605e+00
  2.8930253e-01
 -5.4605648e-02
  2.3720665e-01
 -2.1171443e-01
 -2.5432569e-01
  6.8285383e-02
 -2.3557314e-01
  2.2503678e-02
  8.6681731e-02
  5.1742637e-01
 -3.6379084e-01
  7.6639169e-01
 -5.1075351e-01
 -1.2651049e+00
 -1.3737635e-01
  5.6136195e-02
 -2.1006836e-01
  2.7472547e-01
 -7.9368807e-02
  3.6699228e-02
  5.4144248e-02
 -1.3406120e-01
  3.0446205e-01
  3.3504999e-01
 -4.3620884e-02
  1.3151193e-01
  2.3979348e-01
 -8.7760091e-02
 -2.5851157e-02
  2.4766694e-01
  1.4574809e-02
  5.8137015e-02
 -1.9818377e-01
  1.3080552e-01
 -1.8501177e-02
  3.7564758e-02
  4.2231023e-01
 -1.3272315e-01
 -2.1160078e-01
  9.4516315e-02
 -3.1859320e-01
  2.2147594e-01
  1.5163049e-01
  1.8738344e-02
 -5.6072003e-01
  2.1747291e-01
 -1.8263113e-02
 -7.4775651e-02
  1.1416527e+00
  1.1885643e-01
 -2.4693772e-01
 -5.4531295e-02
  2.0216019e-01
 -4.7424320e-02
 -1.0764355e-01
  1.6732050e+00
  1.0202773e-01
 -8.6464964e-02
 -3.3599529e-01
 -4.7955853e-01
 -5.6973651e-02
  1.9743884e-01
  1.1627048e-01
  3.3742189e-02
 -6.4159639e-02
 -1.0423078e-01
 -9.8020449e-02
 -3.7768739e-01
  1.3192132e-01
 -2.0306544e-01
 -4.9048077e-02
  5.8073673e-02
 -4.5042932e-01
  1.8895367e-01
  1.2250182e-01
  2.0016992e-01
  3.7768092e-02
  5.6894157e-02
 -4.8115537e-02
 -4.0779215e-01
  5.9117181e-03
 -5.4286104e-02
  2.0207909e-01
  1.5415732e+00
  2.6414990e-02
 -4.3249249e-01
  2.7714989e-01
 -1.9504717e-02
  1.4186065e-02
  7.7988923e-02
 -1.0478889e-02
 -1.2903139e-01
 -1.3181556e-02
 -1.6176464e-02
  1.0238684e-01
  2.8597860e-02
 -1.0221634e-01
 -2.3636719e-02
  1.2572071e-01
 -6.6711016e-02
 -2.4115023e-01
  1.1056067e-01
  1.0396322e-01
  4.3294802e-02
 -4.5401128e-03
 -1.0045678e-01
 -7.9378828e-02
  8.8448875e-02
  1.0579250e-01
 -1.6574574e-01
 -1.7561273e-03
 -1.1358238e-01
 -1.3997951e-01
 -2.9768628e-01
  1.6795969e-01
  1.4857809e-01
  9.2932016e-01
  4.2497292e-03
 -8.1913024e-01
  8.8592373e-02
  1.5102217e-01
 -1.9796973e-01
 -1.5144931e-01
 -2.2994721e-02
 -1.2863410e-01
  5.1718969e-02
  2.0779321e-01
  1.0078231e-01
 -4.8893131e-02
 -1.8046683e-01
  4.4530101e-02
 -9.9078730e-02
 -4.6421774e-02
  2.0892264e-01
  1.1196128e-01
 -2.8228271e-01
  4.1365832e-01
 -1.6120490e-01
 -1.2134456e-01
  7.8930445e-02
 -6.3205540e-01
  2.7751249e-01
  3.8078588e-02
 -1.4372511e-01
  5.6660116e-02
  1.6689885e-01
 -2.1784585e-02
  3.1442951e-02
  3.2252267e-02
 -3.1848982e-02
 -2.2403069e-02
  1.8589766e-01
  4.9653131e-01
  8.5401523e-01
 -3.2328272e-03
  3.5969511e-02
  8.3999306e-02
  1.0664100e-01
 -1.4476174e-01
  1.1839205e-01
 -1.5271279e-01
  6.9041111e-02
  2.4883166e-02
 -9.9653797e-03
 -9.3108773e-01
 -2.2156041e-02
  7.5980470e-02
 -1.3398044e-01
 -2.5310045e-01
  4.6980190e-03
  4.6554964e-02
 -2.1932274e-01
 -4.5381680e-01
 -1.0707554e-02
 -3.8466740e-02
 -2.7409201e-02
 -1.4433135e-01
 -4.7636278e-02
  2.0543936e-01
 -1.0301983e-01
 -2.6499370e-01
 -9.2092894e-02
 -2.6461375e-01
  2.3909959e-01
 -1.6908932e+00
  3.9603487e-01
 -3.2018067e-03
  5.5218005e-01
  1.6867039e+00
  1.6637616e-01
  5.4687732e-01
 -9.5986895e-02
  1.5925923e-02
  1.1454271e-01
  6.5267813e-01
  6.2506482e-02
  3.6870115e-02
  2.3269346e-01
 -1.2712990e-01
  1.0983203e-01
 -2.6293233e-01
 -2.8056037e-03
 -1.6773228e-01
  1.0018298e-02
 -2.0524445e-01
 -6.4750053e-02
  2.8308022e-01
  4.7279093e-01
 -2.7564511e-01
  1.4239261e-01
  2.0345984e-02
  1.5311530e-01
 -1.6672070e-01
  4.4330228e-02
 -4.3673467e-02
  2.9971302e-01
 -1.1289516e-01
  7.2054632e-02
 -3.7905341e-01
  3.4817785e-01
 -6.0361572e-02
 -1.1307584e-01
 -1.8258302e-02
 -2.5585239e+00
  5.6239162e-02
 -1.6904762e-01
 -3.2212693e-02
 -3.6011344e-01
  1.4568180e-01
 -7.3773243e-02
  8.8460147e-02
 -4.8042638e-03
 -1.1098837e-02
  5.4111175e-02
 -1.7925903e-01
 -5.9829857e-02
 -1.1283015e-02
  6.7385131e-01
  2.3470356e-03
  2.4472575e-01
 -2.3395416e-01
 -5.9063057e-03
  1.4686802e-01
  7.3626749e-02
 -7.6129730e-03
  8.2198218e-02
 -5.5063297e-03
  5.8764175e-02
  1.5209733e-01
 -6.1024997e-02
 -1.1321832e-01
  2.0795916e-01
 -9.6439168e-02
  2.0516366e-02
 -6.1965138e-01
 -6.5620571e-02
  2.0524067e-01
  1.9004986e-01
  1.3229367e+00
 -1.5180872e-01
  4.5292413e-01
  2.2379923e-01
 -1.6520804e-01
 -8.1561729e-02
 -2.7080160e-01
  2.2182248e+00
  9.1143213e-02
 -6.7407981e-02
  5.4315563e-02
 -1.3173303e-01
  3.5689415e-03
  1.3052398e-01
  1.0919688e-01
  1.3066962e-01
 -1.0542130e-01
 -7.1697623e-02
 -6.5198779e-02
  1.7237616e-01
  1.1416483e-01
  1.3544066e-02
 -3.0874258e-02
 -5.6770992e-02
  4.8437044e-02
  9.0239525e-02
 -2.4277845e-02
 -2.6424583e-02
 -8.7562382e-02
  7.1866050e-02
  1.6344932e-01
  6.3939798e-01
 -2.9156024e-02
  6.8913615e-01
 -2.4221599e-01
 -1.4747909e+00
  1.9824752e-01
 -2.2982539e-01
 -1.3376468e-01
 -7.8864889e-03
  4.9137142e-02
  1.1403924e-01
  3.3953227e-02
 -1.0367242e-01
 -1.8095890e-01
  4.9204540e-02
  2.3308748e-01
 -1.0768625e-01
 -4.5554888e-02
  9.1114752e-02
  9.9144727e-02
 -2.1262546e-01
 -1.3611130e-01
  1.1679544e-01
  1.0911012e-01
  4.2223096e-02
  1.1190256e-02
  1.6269062e-01
  7.2988449e-03
  2.4830380e-01
  2.7516046e-01
 -2.5152108e-01
  1.2758918e-01
  2.1482008e-02
  6.0408920e-02
 -3.9204471e-02
  8.8406973e-02
 -3.2403031e-01
 -1.2110240e-01
 -2.0026579e-02
 -1.3138795e+00
 -3.5211232e-02
  1.2511559e-01
  3.2475397e-02
 -3.0535507e-01
  3.3819567e-02
  1.6548134e-02
 -1.8791993e-01
  2.2800248e-02
 -1.2075887e-01
 -1.4422629e-02
  2.5079924e-01
 -2.8624067e-01
  2.2351453e-01
  9.3032256e-02
 -4.6066862e-02
  2.3470423e+00
 -8.8263132e-02
 -2.0842600e-01
 -7.3098026e-02
  4.3793982e-01
  4.0191084e-01
  5.1769070e-02
  7.8552283e-02
  1.3397317e-02
 -1.2847470e-01
  1.6777939e-01
  1.7623807e-01
 -5.0612874e-02
 -1.0041510e-01
  6.9426005e-03
 -3.9379790e-01
  7.6051764e-02
  8.5454315e-02
  6.9517136e-02
  2.3195877e+00
 -2.7973124e-01
  1.7236389e-01
 -9.2006713e-01
  4.1912507e-02
  3.2367535e-02
  1.2285105e-01
 -1.3967547e+00
 -7.0495553e-02
  7.6241270e-02
  1.6498490e-01
 -5.7908839e-01
  6.5710075e-02
  1.4152095e-02
 -1.1525399e-01
  1.2153160e-01
 -2.2395739e-01
 -7.3748618e-02
 -1.1687446e-01
 -9.5840186e-02
 -2.2473684e-01
 -3.9743677e-01
 -1.3104419e-01
  1.1347826e-01
 -1.2429798e-03
  1.9891745e-01
  1.0810985e-01
 -2.1552639e-01
 -3.0828124e-02
 -1.0035392e-01
  1.1691462e-01
 -4.9280950e-01
 -6.8232551e-02
 -1.9271739e-01
  1.0030419e-01
  1.4273823e+00
 -1.0037468e-01
  8.8641360e-02
  5.4403201e-02
  8.6964324e-02
 -1.1227843e-02
 -4.5562369e-01
 -1.6429116e-01
 -4.3035176e-02
 -3.3317381e-01
  1.8135870e-01
 -7.0094354e-02
  4.1931936e-01
 -4.6268381e-02
 -2.9228321e-01
 -1.3382894e-01
 -1.5989549e-03
 -3.8562611e-02
  1.0465809e-02
  1.1352709e-01
  9.4685152e-02
 -1.3058184e-01
  3.7985288e-02
  1.7407745e-01
  3.7375630e-03
  2.4503833e-01
  3.2266143e-01
  8.4244722e-01
  2.9168394e-01
 -7.3390536e-02
  1.7700946e-01
  4.8400826e+00
  1.0246478e+00
  2.8637316e+00
 -2.0264496e-01
  1.6787407e+00
  6.7926121e-01
  6.5267050e-01
 -8.4552251e-02
  4.2439075e+00
  2.8070710e+00
  1.2632713e+00
  2.9093438e-01
 -5.9840608e-01
  2.2630878e-02
 -3.8512718e-02
  9.9631268e-01
  2.8172028e+00
 -1.6672157e+00
  2.6735002e-01
  5.0372976e-01
  1.0018697e-01
  3.6530101e-01
  2.9055181e-01
  8.2125497e-01
 -1.8589881e-01
 -1.8964061e-03
 -7.1098916e-02
 -2.3090979e-02
 -1.6161157e-01
  2.5616444e-04
 -5.5198755e-02
 -2.8788954e-01
  1.7592049e+00
 -1.2989159e-01
 -6.4805232e-02
 -1.2690163e+00
 -1.0331554e+00
 -2.2712946e+00
  7.6501560e-01
 -1.5615427e+00
  1.6329238e+00
  3.6622050e+00
  2.4963338e+00
  5.1600461e+00
  1.7862519e+00
  8.1590360e-01
 -4.4987658e-01
  1.3812734e+00
  4.2224073e+00
 -2.3594592e+00
  1.8510488e+00
  1.8234816e+00
 -3.0877407e+00
  3.3987453e+00
 -1.3238955e+00
  1.5325979e+00
  2.6283183e+00
 -8.1554890e-01
  2.1244400e+00
 -3.0844212e-01
  1.0776539e-02
 -1.9422458e-02
 -8.2411247e-01
 -4.5315033e-01
 -5.0786167e-01
 -1.5881987e-02
 -7.6567583e-02
  8.2146294e-02
 -3.5272661e-01
 -1.2517543e-01
  1.0599096e+00
 -4.4206133e-01
  9.0584561e-02
 -1.1590780e-01
 -1.8452950e+00
  3.3098508e-02
 -9.0825073e-02
 -5.1921617e-02
  1.9129778e-01
  2.2697810e-02
  1.6828982e-02
  3.8381022e-01
  4.2170610e-02
 -3.0629266e-02
 -2.6442984e-01
 -8.2111247e-02
 -7.3090219e-03
 -3.4418717e-01
 -1.0367461e-02
  1.3855059e-01
  1.1006193e-01
  3.9013091e-01
  2.4012813e-01
 -1.5184678e-01
  1.2291967e-01
  8.2424454e-02
 -2.7744582e-02
  1.3386489e-01
  1.7902553e-01
  7.5884022e-02
 -3.9858427e-02
  2.1902676e-01
  5.4974556e-02
 -1.3301404e-01
 -1.6378264e-01
 -1.0600114e+00
 -1.2750299e-01
 -6.0819912e-01
  4.6724021e-01
  1.6834103e+00
  2.3310249e-01
  5.8662556e-02
  1.2130774e-01
 -1.3131939e-01
  3.1366367e-02
 -5.6000751e-02
 -2.5001574e-01
  7.1775295e-02
 -6.9829419e-02
 -7.1866155e-02
  1.1374943e-02
 -4.4179526e-03
 -1.0397319e-01
  7.0549205e-02
 -1.4446723e-01
 -2.8765691e-02
 -4.9533091e-02
  8.4795475e-02
  6.2312163e-02
 -3.6620924e-01
 -4.1221876e-02
  1.3363677e-01
  2.3194580e-01
 -3.5681868e-01
  1.0565015e-02
  5.2821323e-02
 -1.0461029e-01
 -2.8785574e-01
  5.3525406e-01
  1.2644265e-02
 -2.0076754e+00
 -7.0876718e-02
 -2.5706953e-01
 -5.6979869e-02
  3.4270740e-01
 -5.0261199e-02
 -8.8164136e-02
 -1.9844116e-01
 -9.2343483e-03
 -6.4476675e-01
 -4.5108091e-02
  1.7147025e-01
  8.1003547e-02
  2.2962067e-01
 -2.0708088e-02
  1.0026153e-01
  3.4526730e-01
 -5.7800100e-03
  1.2469149e-01
  4.0783778e-01
 -9.3322977e-02
 -8.0671266e-02
 -7.8706421e-02
 -1.0596394e-01
  3.3238864e-01
  1.1605452e-01
 -1.5059786e-01
 -5.6251083e-02
  1.3118733e-01
  3.3289397e-01
  1.9138287e-03
 -7.9351455e-02
 -1.8947610e-01
 -4.3148157e-01
 -2.7991688e-01
  1.6479547e-01
 -2.2915715e-01
  6.0309625e-01
 -6.4802092e-01
 -1.5890239e+00
  1.1206185e-01
 -3.4076393e-02
  1.3013749e-01
  5.2366547e-02
 -6.7122556e-02
  5.0774265e-02
 -8.7275647e-02
  5.3201932e-01
  1.4761375e-01
 -1.4464501e-02
  4.2299390e-01
  6.9610327e-02
  1.5454777e-01
  7.7821694e-02
 -9.2165172e-02
 -1.9735854e-02
  5.5633038e-01
  9.4857410e-02
  6.8916142e-02
 -3.8382269e-02
 -3.6635873e-01
  3.4925900e-02
 -1.2781245e-01
 -1.6943289e-01
 -2.1684473e-02
  2.0864551e-01
  1.8362190e-01
 -2.7149996e-02
  4.8535541e-03
  5.5318106e-02
 -7.6948148e-01
  2.6078120e-01
 -2.1370804e-01
  7.3010877e-02
  1.0248560e+00
 -1.2653846e-01
  2.7798679e-01
 -4.1026443e-01
 -4.2521957e-02
 -1.0980193e-01
 -2.4758010e-01
  1.3975191e-01
 -1.7269842e-01
  1.1118179e-01
 -2.7185531e+00
 -8.7581463e-02
 -1.6228952e-02
  1.8315911e-02
  4.2208541e-02
  6.9804877e-02
 -2.1968530e-01
  9.9576451e-02
 -9.4953693e-02
  6.3002724e-03
 -7.8235187e-02
 -1.6032469e-01
  8.0869332e-02
 -2.9780135e-01
  6.8194330e-02
  6.7602299e-02
  3.9868474e-02
  1.7274040e-01
  8.7816827e-02
  5.3652085e-02
 -3.2474914e-01
 -1.1151266e+00
 -2.4166115e-01
 -6.0738635e-01
 -4.2417377e-02
  1.3294740e+00
  1.6589511e-02
  2.9962709e-02
 -4.9331121e-02
  1.7318122e-01
  1.8209112e-01
 -4.7038916e-02
 -1.6856220e-02
  1.0634941e-01
  4.4886675e-01
 -3.2895094e-01
 -2.9343686e-01
 -1.3672471e-01
 -2.5605628e-01
 -2.9634896e-01
 -1.7896178e-01
 -3.0807826e-01
 -8.3883084e-02
  9.3254801e-03
  7.8191584e-01
 -1.9760662e-01
 -1.0055674e-02
 -4.7370691e-02
 -6.5746278e-02
 -3.1317521e-02
  3.4987845e-02
 -7.2195515e-02
 -9.5510870e-02
  1.0192736e-01
 -1.0522396e-03
  6.0208976e-02
  4.9331701e-01
 -8.2108654e-02
  4.9729124e-01
 -7.8402348e-02
 -2.5462296e+00
 -4.2746797e-01
 -4.0486374e-01
 -2.6312390e-01
 -3.6984388e-02
 -5.6199348e-03
  2.4234758e-01
  1.9197987e-02
 -1.6198221e-01
  6.0863807e-03
 -3.6342454e-01
 -1.0635159e-01
  1.3413639e-01
 -2.3257273e-01
  9.5955864e-02
  1.3991812e-02
  1.0579733e-01
  3.2715461e-01
  5.6535106e-02
  2.3995604e-01
 -9.3773879e-02
 -1.3627669e-01
  3.8170916e-01
 -6.1831325e-02
 -2.8343067e-01
  6.7542225e-02
 -1.2754610e-01
 -4.4531785e-02
  3.1742766e-02
 -1.1404476e-01
 -2.0336734e-01
  1.3075495e+00
 -1.2913375e-01
  1.0975008e+00
 -2.1139671e-01
 -2.7353277e+00
  2.4884870e-02
 -9.1529965e-02
  8.6278521e-02
  4.9506864e-01
 -6.4826649e-01
 -1.5055512e-01
  1.3904278e-01
  3.7749376e-02
  1.1576258e-01
 -2.0226993e-01
 -3.8968310e-02
 -3.1678617e-02
  3.6994302e-01
  2.9987223e+00
  7.7615798e-02
  1.7721515e-02
 -1.2649545e-02
 -3.2473028e-01
  2.9696998e-01
 -3.0135795e-01
 -9.5872767e-03
  2.8707477e-01
 -1.7209399e-01
  4.5236537e-01
  1.7225075e-01
 -2.8089941e-01
  7.1293287e-02
  4.1455677e-01
  1.9313541e-01
  2.6780174e-03
  3.4390381e-01
 -1.2296485e-02
  8.0656749e-01
 -3.2430425e-01
 -2.5145102e+00
  1.0436182e-01
 -1.7257543e-02
  6.1784185e-02
  1.5206978e-02
 -1.6993687e-01
  3.4516105e-01
  2.3881817e-02
 -7.0883073e-03
 -1.9408248e-01
 -1.3831374e-01
 -2.9980142e-02
  9.3798190e-02
 -3.7507221e-01
 -2.7816081e-02
 -2.2201908e-01
  6.7167930e-02
 -1.2244960e-01
  1.4502683e-01
 -5.0462985e-01
  2.7720580e-02
  3.4039509e-01
  2.1326609e-01
 -1.4147613e-03
  1.3189000e-01
  3.9198488e-01
  6.5836143e-03
 -2.6974276e-02
 -2.9663384e-01
  2.8199911e-01
  3.4329493e-02
 -1.7938161e-01
  6.6112325e-02
  1.5530211e-02
  9.1990374e-02
  1.6932544e+00
 -4.7327903e-01
 -1.6436939e-01
  4.0297911e-02
 -1.4861473e-01
  1.4973843e-01
 -2.2546239e-01
  2.8701618e-01
  1.2325583e-01
 -2.2628803e-02
 -1.8277223e-01
  2.1371305e-02
 -2.0247939e-01
 -4.9154207e-02
  2.9073703e-01
  3.9568794e-01
 -1.5612265e-01
 -7.4702911e-02
  3.1272551e-01
  8.9120388e-02
 -1.6586557e-01
  1.3708883e-02
 -1.3404457e-04
 -4.5890085e-02
  1.1540538e-01
 -1.7783479e-01
  8.1916697e-02
  9.1476627e-02
 -6.2467344e-02
  3.5110730e-01
 -2.7647325e-01
  1.9018582e-01
 -2.0256805e-01
  2.5111508e-01
 -3.9153430e-03
 -1.9691042e+00
 -1.0070729e-01
 -4.8797756e-02
  2.7808411e-02
  1.9313214e-02
  2.7786346e-02
 -1.6049516e-01
 -8.7005444e-02
 -4.3648943e-01
  3.1709041e-02
 -2.1226370e-01
  1.6338728e-01
  2.8438875e-01
  3.9460611e-01
 -4.0843222e-02
 -3.5586718e-01
 -5.1032066e-02
 -5.2009923e-03
 -9.5670015e-02
  5.3374350e-02
  1.8118811e-01
 -1.0736609e-01
  6.8320516e-03
  5.0977524e-02
  4.4182558e-02
 -9.5336042e-02
 -2.1547349e-01
  1.6014795e-01
  3.3700362e-01
 -3.8565155e-02
 -8.7330900e-02
  2.1514313e+00
 -5.0754178e-01
  1.0251919e+00
 -1.7775737e+00
  1.7704358e+00
 -1.3294871e+00
  8.3303148e-01
  2.8283677e+00
  8.2498360e-01
  4.1303929e-02
 -6.2757170e-01
 -7.8630698e-01
 -5.0018936e-01
 -7.5774044e-01
  1.7584474e-01
 -1.0131541e+00
  4.0669340e-01
 -7.5210583e-01
 -2.6633852e+00
  2.6356156e+00
 -2.1030000e-01
  7.9920220e-01
  2.4610965e+00
 -2.7914448e+00
  5.1901424e-01
  4.0673283e-01
  2.5946361e-01
  2.4942511e-01
  5.2005523e-01
  1.8310258e-01
  4.9078379e-02
  4.2088651e-03
 -1.1779084e-01
  1.0195135e-01
  1.2267156e-02
 -8.0933714e-01
 -7.0274346e-02
  1.2907895e-02
  2.0701844e-01
  1.6261734e+00
 -9.1323927e-02
 -3.3338536e-02
 -1.8120037e-01
 -9.7412966e-02
 -1.5378623e-01
 -1.6252844e-01
 -3.2169753e-01
  1.3311529e-01
 -5.8122858e-02
  6.5201171e-02
 -4.6140049e-02
 -1.9562235e-02
  4.0883139e-02
  1.1022245e-01
 -5.8815371e-02
  1.4125891e-01
 -2.5981984e-01
 -1.3815953e-02
  1.1737312e-01
 -6.3945450e-02
 -1.7215997e+00
 -3.5023587e-03
 -7.3284067e-02
  1.6111793e-01
  1.8134238e-01
  2.0814002e-01
 -5.1579200e-02
  3.3599176e-03
  3.7022006e-02
  3.1445637e-01
  2.9534122e-01
 -1.7619015e-01
  3.4846932e-01
 -2.3490348e-01
 -1.6051017e+00
 -4.6252612e-02
  1.3886088e-01
 -1.9366331e-01
 -1.0638586e-01
 -4.3199523e-04
 -1.6278942e-01
  9.4842978e-02
  2.8245931e-03
  1.3383987e-02
  1.4776852e-02
  1.1123597e-01
  2.1598587e+00
  2.0363219e-02
 -3.9310582e-02
  5.4074962e-02
 -8.3729133e-02
 -3.4823027e-02
 -2.5061515e-01
  2.4813682e-02
 -1.1996206e-01
  2.4126318e-01
 -8.4389634e-02
 -1.0873988e-01
 -8.0737874e-02
 -8.2142696e-02
  4.1963305e-02
 -1.9078152e-01
 -2.6030725e-01
 -3.6567889e-02
 -2.4558015e-01
 -5.0091511e-01
 -1.1653130e-01
  9.3521148e-02
  9.8242611e-01
  1.0486444e+00
  2.2517781e-01
 -1.0148205e-01
 -3.4330714e-02
  2.8273880e-02
  8.2472131e-02
 -7.3327571e-03
  1.0520681e-01
 -1.2210344e-01
 -5.5705017e-01
  6.0918510e-02
  4.4445865e-02
  2.6632512e-02
 -2.7120933e-01
 -7.9869002e-02
  4.3690944e-01
  1.4767688e-02
 -2.8215747e-02
 -1.3050017e-01
  1.7737025e-01
 -2.2479381e-01
  3.2777384e-02
  4.3357190e-02
 -1.4148019e-01
 -4.5248736e-02
 -3.8526569e-02
 -2.4585854e-02
  8.4978007e-03
 -2.6306248e+00
 -2.7140859e-01
 -1.4815417e-01
 -8.7642103e-01
  1.0750928e-01
 -1.7510308e-01
  1.2071852e-01
  1.3460931e+00
 -3.8919947e-01
 -1.6276923e-01
  2.2735891e-01
  1.8564969e-01
 -1.4056441e-01
 -1.9913583e-01
  1.0063145e-01
  3.7954651e-02
  1.5907730e-01
  5.4110903e-02
 -4.3875432e-01
 -1.1185162e-01
  1.5854231e-01
  7.3112421e-02
  3.6652935e-01
 -3.3562195e-02
  3.3203002e-02
  1.4021239e-01
  6.6585571e-02
  8.5726507e-02
 -9.1428228e-02
  2.3977950e-01
  1.6478391e-01
  2.4432491e-01
  1.9793257e-02
  6.4571887e-02
 -3.1908754e-01
  3.9410108e-01
  4.4489035e-01
 -8.7876767e-02
  1.0775387e+00
 -6.4389125e-02
  6.7103885e-02
 -2.4147999e-01
 -2.5717385e+00
  3.3379129e-01
  3.9686542e-02
  6.2872112e-02
 -6.1643481e-01
  2.7486101e-02
  1.1420488e-01
  1.8684644e-01
 -1.7043118e-01
  3.8947966e-02
 -1.2274223e-01
  1.4793523e-01
  1.3051109e-01
  1.6111497e-02
  7.8964736e-03
  1.2949805e-01
  1.5926845e-01
  7.6892190e-02
  1.5298481e-02
  2.6355324e-02
  8.2456455e-02
  6.5764196e-02
  1.2587525e-01
  3.7913423e-02
 -3.5894550e-02
  2.7890892e+00
  2.0159180e-01
 -1.9877176e-01
  3.0742824e-01
  4.0141825e-02
  2.8111115e-01
 -4.0680867e-01
  6.6221833e-02
 -2.0480014e-02
  2.4784328e-01
  2.1106493e+00
 -1.0431902e-01
  9.9481009e-03
  9.3763642e-02
 -3.1821385e-02
 -1.9371826e-02
 -2.5354344e-01
  4.1192922e-01
  1.0081361e-01
  5.6972835e-02
  1.2437928e-02
  4.2389464e-01
  7.6984808e-02
 -3.6265515e-02
 -2.8890807e-02
 -1.2473177e-01
  1.4948216e-01
 -1.8418989e-01
  1.1202985e-01
 -2.5870386e-01
  4.9366448e-02
 -2.6373193e-03
  9.9384397e-02
  1.0910358e-02
 -1.0592108e+00
  4.9440777e-01
  7.4853174e-02
 -8.5388005e-02
 -1.3795519e-01
  1.8886818e-01
 -4.9361917e-03
 -6.2535667e-01
 -1.3533229e-04
 -3.2052231e-01
  8.5546009e-02
  1.5905430e+00
  2.4088746e-01
  1.3412903e-01
  9.0809475e-04
  1.9928917e-02
 -1.2860079e-01
  1.0227059e-01
 -5.4104081e-03
 -3.5195570e-02
 -6.5131210e-02
 -2.1112141e-01
 -4.3680359e-02
 -1.0794322e+00
 -1.3841929e-02
  1.2581301e-01
 -4.3597367e-02
 -3.6960161e-01
  8.3827451e-03
 -1.4088272e-01
  2.0426393e-01
 -2.3818739e-02
 -1.0327580e-01
 -1.0921678e-01
 -1.4011114e-02
  1.4290020e-02
 -4.1639909e-02
  4.3382473e-02
  1.5095058e-01
 -1.9784069e-02
  3.6236051e-02
 -1.2230079e-01
 -7.8202325e-01
  2.3964187e-02
 -3.6981207e-01
  4.8623204e-02
  1.1572341e+00
 -1.7275876e-01
 -1.5720646e-01
  2.0875763e-02
  9.6147545e-02
  2.4607542e-01
 -8.9974746e-02
  1.0647516e-02
  9.7468488e-02
  1.2298862e-01
  1.6319022e-01
 -3.0214292e-01
 -1.0647345e-01
  8.3455481e-02
 -5.0931102e-01
  7.3219970e-02
  4.4417217e-02
 -1.3810720e-01
 -7.3563427e-02
  3.1747252e-01
 -5.8748707e-02
  5.3479973e-02
  8.5682496e-02
 -2.1527934e-01
 -1.5017413e-01
 -2.9547688e-02
 -7.8746893e-02
  1.3354032e-01
  1.3593452e-01
  9.7126998e-03
  3.8904989e-01
  6.7951894e-01
 -1.1635932e+00
  2.4581146e+00
  3.4934688e-01
  1.0556714e-01
 -2.4357287e-02
  1.0711260e+00
 -2.3048848e-02
  2.0976088e+00
  5.1025319e-01
  1.2724837e+00
  2.3363741e-01
  1.7670944e-01
 -5.8378350e-02
 -9.0796165e-02
  6.3123658e-02
  1.0328726e-01
 -2.5745910e-01
  1.7237146e-01
 -1.8157601e-02
 -1.9356783e-01
  1.1047484e+00
  1.8438458e-01
  3.8385490e-01
 -1.5899798e-02
 -2.5601310e-01
  1.6485704e-02
 -3.3347998e-02
  2.0375879e-01
 -5.7142701e-02
 -7.7234465e-03
  7.0945695e-02
  8.1918128e-02
 -2.0623806e-01
  5.0543834e-02
  8.2961154e-01
  2.7169049e-01
  3.1659283e-02
 -5.0175775e-02
  2.3451664e+00
  7.9917923e-02
 -1.6358507e-01
  4.1304684e-01
  2.0209892e-02
 -1.2024806e-01
 -6.9275349e-03
 -1.7470928e-02
  2.0783335e-01
 -1.2301861e-01
 -6.8024524e-02
 -8.1355162e-02
  1.8927029e-01
 -5.3334732e-02
 -4.9860397e-01
 -2.0373596e-01
 -1.6504557e-01
  1.5771146e-01
  2.7030993e-03
 -7.6996845e-01
  8.2427584e-02
 -3.6372871e-03
 -8.2181312e-02
 -9.6514738e-01
 -2.9750119e-03
  2.6307714e-01
  3.8084872e-02
 -8.0664538e-02
  1.8975891e-02
  1.7405298e-01
 -1.2494877e-01
  1.0354922e+00
 -1.1626728e-02
  4.7720268e-01
  4.8272163e-02
 -1.8554933e+00
  7.7271156e-02
  1.4826347e-01
  6.2914871e-02
 -3.6910978e-01
 -9.9830039e-02
 -2.0999176e-02
 -1.4724730e-01
  3.6274098e-02
  4.1104919e-01
  3.1936482e-01
  1.4653635e-01
  2.9140481e-01
 -2.3639264e+00
  1.6790926e-01
  8.3226906e-03
 -1.7671160e-03
 -1.4386746e-01
 -3.0264485e-01
  6.1569426e-02
  9.9806078e-02
 -7.6174110e-02
  1.3046272e-02
 -9.5983930e-02
  1.1890470e-01
 -6.5898843e-02
 -1.6601765e+00
 -8.7833144e-02
  1.3527663e-01
 -1.2483065e-01
  1.2953753e+00
 -4.2602760e-01
  1.7250389e-01
 -4.4999874e-01
  1.8085150e-02
  2.0238812e+00
  1.8008067e-03
 -3.1293017e-01
  9.4125859e-02
 -2.0417550e-01
 -2.7482705e-02
 -2.7049484e-02
  3.5474446e-02
 -5.0343336e-03
  1.4112377e-01
 -1.6041669e-01
 -4.2724617e-02
  4.6499223e-02
 -5.5450100e-01
  1.4023021e-02
  6.3915685e-02
 -6.9132447e-02
 -7.7695228e-02
  5.1282477e-02
 -2.3206395e-01
  1.7409074e-01
 -7.4240282e-02
  9.8693445e-02
  1.2374018e-01
  2.6971463e-02
  1.3128807e-01
 -4.8677926e-03
  1.0340130e-01
 -5.9158664e-02
 -1.1664550e-02
 -7.2183907e-02
  2.9378715e-01
 -3.9167118e-01
 -8.0923879e-01
 -2.8742064e-02
 -2.1070628e+00
  4.5899838e-02
  2.2635649e-01
 -2.3654355e-02
  4.2697766e-01
 -2.0777148e-01
  1.1674028e-02
 -2.9235624e-02
  1.1389443e-01
  1.0267704e-01
 -1.1385056e-01
  3.6872312e-01
  9.2404559e-02
  8.2185440e-02
 -8.8585354e-02
 -8.2097478e-02
  1.1180797e-01
 -5.3558607e-02
 -7.6159626e-01
  8.5064799e-02
  3.1756294e-01
  2.2950722e-01
 -6.5790102e-02
  1.0750435e-02
  5.4472536e-01
 -4.2734407e-02
 -6.6715825e-01
  2.5799593e-01
  1.3805601e-01
  2.8584876e+00
 -1.8389525e-03
  2.7157872e+00
 -2.3893580e+00
  2.5188448e+00
  3.0155315e+00
  3.2022736e+00
  2.8373642e+00
 -2.1510787e+00
  2.7560863e+00
  2.3529246e+00
 -2.3689675e+00
  2.5189548e+00
 -2.2252393e+00
 -2.8851948e+00
 -1.3025037e+00
  2.9499555e+00
 -3.9320507e+00
 -2.1214912e+00
  2.8921599e+00
 -2.5461016e+00
  2.0975006e+00
 -2.3092384e+00
  2.5719471e+00
 -2.4132981e+00
 -1.9279208e+00
  3.0455673e+00
 -2.9034905e+00
 -2.3811982e+00
  1.9596334e+00
 -2.9200404e+00
  2.6942301e+00
  3.1724839e+00
 -1.9693320e+00
 -2.3377628e+00
 -5.1854640e-01
  2.1289201e-01
  2.5164044e+00
 -1.6508052e+00
 -2.8480482e+00
  2.2544599e+00
 -3.0908370e+00
 -2.6580000e+00
  1.9040728e+00
  1.4012116e+00
  2.0107203e+00
 -2.3131442e+00
  2.2186613e+00
 -2.2509820e+00
 -2.3192925e+00
  2.5118964e+00
 -3.1203914e+00
 -2.6289372e+00
  1.6612021e+00
 -2.1528764e+00
 -2.1581736e+00
 -3.1850941e+00
 -3.8973453e+00
 -2.5687373e+00
  2.0968184e+00
 -2.2509453e+00
  2.4711242e+00
  8.6013203e+00
 -3.1990764e+00
  4.4740977e+00
  1.8678457e+00
  9.7323217e+00
  4.8149014e+00
 -2.3259561e+00
  5.9078765e+00
  2.2952156e+00
 -2.1270211e+00
  3.5094287e+00
 -2.4803016e+00
 -1.1940403e+01
 -7.0881724e-01
  3.2742095e+00
 -3.5470104e+00
 -5.5131145e+00
  3.5893533e+00
 -5.6140475e+00
  6.3077531e+00
 -2.4466605e+00
  4.8355541e+00
 -8.8439435e-01
 -9.8958701e-01
  2.7207839e+00
 -1.4606274e+00
 -1.0724911e+01
  2.7027974e+00
 -3.5989254e+00
  4.3219409e+00
  2.6983759e+00
 -2.5225072e+00
 -1.6503756e+00
  4.3012550e-01
  4.0072083e-01
  3.9834402e+00
 -2.3083832e+00
 -2.8777606e+00
  2.3914070e+00
 -5.5516186e+00
 -3.0533125e+00
  4.6755204e+00
  4.5591941e+00
  5.8892674e+00
 -1.8326049e+00
  2.4636991e+00
 -2.0670357e+00
 -1.1716930e+00
  3.0996189e+00
 -4.6369061e+00
 -3.5967164e+00
  3.5506573e+00
 -2.9514599e+00
 -1.8144069e+00
 -8.1253901e+00
 -4.1046495e+00
 -3.4252861e+00
  2.9967790e+00
 -3.4844012e+00
  3.4100597e+00
 -2.1919643e+02
  1.2326182e+00
  3.1977222e+00
  1.7241197e+00
 -1.3881471e+00
  1.6415963e+00
  9.3734252e-01
 -3.7326651e+00
 -3.9317482e+00
  1.5321664e+00
  6.3434809e-01
  3.4899345e-01
  7.4261117e-01
  8.4778577e-02
 -2.8902888e-01
 -2.1796715e+00
 -3.3243290e-01
  5.1186627e-01
  5.7561463e-01
 -1.6617118e+00
 -2.1055567e+00
  2.5041544e+00
  1.5193217e+00
 -9.3800688e-01
 -3.4509331e-01
 -2.0370312e-01
 -3.2151920e-01
 -1.0112511e+00
 -8.2110864e-01
 -2.7619216e-01
  1.5388279e-01
 -9.8665416e-01
  6.1790931e-01
 -1.2088246e+00
 -9.4424412e-02
 -8.4921998e-01
 -3.9583257e-01
  1.7359369e+00
  1.1288806e+00
  5.6254995e-01
  2.4057524e+00
  2.8739114e+00
 -1.5589657e+00
  2.8135908e-01
  1.7089874e-01
  8.9239305e-01
 -2.4402103e-01
 -5.3946280e-01
  1.6628141e+00
 -1.6918394e-01
  3.0058289e-01
 -7.7953303e-01
 -2.5858300e+00
  1.2088180e+00
  1.2412587e+00
  9.9870747e-01
  3.4103661e+00
 -1.6024438e+00
 -7.0013976e-01
  1.4339694e-01
 -7.0913625e-01
  4.6477970e-02
  1.4194858e+00
  3.9618820e-01
 -3.4466568e-01
 -6.6864550e-01
  4.7885600e-01
  6.8556434e-01
 -1.5548960e+00
  4.2355880e-01
  6.9691873e-01
  2.2859550e-01
  1.8812160e-01
  1.7143425e+00
  6.7289233e-01
  3.3305146e-02
 -1.4144164e+00
  2.4377057e-01
 -6.8890470e-01
 -1.0642350e+00
 -2.9816751e+00
 -3.0236347e+00
 -1.1800200e+00
  5.2975190e-01
  2.1429632e+00
 -6.4717954e-01
  1.2868946e+00
 -5.3185403e-01
 -8.3186246e-02
  1.3472089e+00
 -6.3447231e-01
 -3.7927318e+00
 -2.0347359e+00
 -1.0784392e+00
 -1.6843390e+00
  1.7942853e+00
  4.0855083e-01
  2.2284018e-01
 -7.5191152e-03
  1.0917413e-01
  6.6349220e-01
  4.2024070e-01
  1.2852274e+00
 -3.6464170e-01
 -1.1593819e+00
  8.2824206e-01
  3.0178818e-01
 -1.7899637e+00
 -1.1237500e+00
 -2.7340078e-01
 -3.7173221e-01
 -3.2798663e-01
  4.0759525e-01
  2.5964010e+00
 -1.0687357e+00
  1.9497253e-01
 -8.9869303e-01
 -4.4313469e+00
 -5.1151376e+00
 -1.4554811e-01
 -3.2559505e+00
 -1.3825656e+00
 -1.1852484e+00
  1.3072183e+00
  1.8778918e+00
  1.1723516e+00
 -1.7747110e+00
  4.0192499e+00
 -1.3772259e-02
  2.7803822e+00
 -6.3090402e-01
 -1.4276113e-01
  9.5936149e-01
 -1.2982578e+00
 -9.9407530e-01
  8.6701769e-01
  1.7088782e+00
 -2.4084651e+00
  7.0887363e-01
 -1.7361425e+00
  1.3720841e+00
 -1.0635880e+00
  9.7916746e-01
 -7.4656546e-01
 -2.3856550e-02
  2.8226936e-01
  2.1721239e+00
 -8.2184976e-01
  1.7896338e+00
 -1.8556963e+00
  6.6187179e-01
  1.7821481e+00
  3.3991184e+00
 -2.6514727e-01
 -7.8799888e-02
  4.8975368e+00
  4.1848841e+00
 -1.4833237e-02
 -9.1818410e-01
  1.8501480e-01
  1.1712562e+00
 -1.0054671e+00
 -2.4005096e+00
 -1.4863686e-01
  5.2491981e-01
 -6.5892601e-01
 -3.0204245e-01
 -2.1742656e+00
  1.2151229e+00
  9.5193934e-01
 -5.5561644e-01
  2.8744719e+00
  1.0952285e-01
 -2.2812110e-01
 -6.1086470e-01
  1.7874610e+00
 -1.0461595e+00
  1.0555789e+00
  1.6491903e-01
  2.1406448e+00
 -3.2422915e-01
 -5.5214101e-01
  3.3026874e-01
 -4.2304373e-01
 -1.3959457e+00
 -5.5527908e-01
 -2.2152193e+00
  2.8765842e-01
 -4.3582935e+00
  5.9568942e-01
  1.5662529e-01
  2.8524103e+00
  2.8010972e+00
 -2.2778569e-01
  4.8886034e-01
 -7.8681612e-01
  1.3981700e+00
 -1.8431342e+00
  1.4317434e-01
 -1.3358341e+00
  3.1033272e-01
  2.2587934e-01
 -5.1865727e-01
  8.1167608e-01
  1.5427104e+00
 -1.9261926e-01
 -1.4816985e+00
  3.0398689e-02
 -2.2283545e-01
  7.4139816e-01
  3.6328968e-02
 -1.4161543e+00
 -2.1137075e+00
  3.2793283e-01
  2.8975469e-01
 -8.2062584e-01
 -1.3434328e+00
  4.2360795e-01
  6.0798258e-01
  1.0005581e-02
  5.6666410e-01
 -3.5241780e+00
  3.3664760e-01
 -1.0750823e+00
  1.6510849e+00
  5.3385866e-01
  6.4222914e-01
 -1.1671703e+00
 -2.7378276e-01
 -1.4433522e+00
 -2.2570839e+00
  5.3682542e-01
  8.1217986e-01
 -1.0005599e+00
 -4.1802129e-01
 -3.8780425e-02
 -1.2284820e+00
 -5.6636274e-01
 -4.8649296e-01
 -1.7290893e+00
 -2.5336757e+00
  6.2463307e-01
  2.9120114e-01
  6.7447436e-01
 -1.2523848e-01
  1.2311075e+00
  8.3188230e-01
  1.3392411e+00
  7.7162969e-01
  8.0501574e-01
  4.5896289e-01
  9.9446875e-01
  8.3709151e-01
  2.7824441e-01
 -3.1831926e-01
  9.4657165e-01
  1.9335114e+00
 -2.5487623e+00
 -3.8437972e+00
  9.2668420e-01
 -4.4956902e-01
  8.1757292e-02
 -3.4574453e-02
 -1.0932240e+00
 -1.9341797e+00
  3.3940822e-01
  1.7383745e+00
  5.0412422e-01
 -1.9995672e-01
 -5.6046829e-02
  2.2252169e+00
 -2.6243293e-01
 -1.2193620e+00
  5.1511520e-01
 -2.7673802e-01
  6.6326952e-01
  1.4379425e+00
 -9.7730267e-01
 -1.8041030e+00
 -4.7139415e-01
 -2.2839530e-01
 -1.9737220e-01
 -4.7745970e-01
 -1.0751994e+00
 -1.1276213e+00
 -7.0306283e-01
  1.2335694e-02
 -4.8037937e-01
 -7.6971322e-01
 -1.9865727e-01
 -7.6301265e-01
 -9.6897274e-01
  3.4345460e-01
  1.1304775e-01
 -3.8519725e-01
  7.8832060e-01
  6.8046737e-01
  1.8515178e+00
  1.6310996e+00
  1.9049948e-01
  2.5834733e-01
 -9.0228468e-01
  5.6271690e-01
  1.4916551e+00
  1.2886366e+00
 -1.6430070e+00
  2.8373173e-01
  5.5852509e-01
 -3.8822681e-01
  4.3961581e-02
 -8.2641661e-01
 -4.5598751e-01
 -7.2386700e-01
  1.4187396e-01
 -1.2002503e+00
  1.6760820e-01
 -1.0407084e-03
 -3.0917558e-01
 -3.0597422e-01
  6.3199240e-01
  1.2262950e-01
 -3.8811854e-01
  4.3170360e-01
  2.7087128e-01
 -3.0379969e-01
  7.7627301e-01
 -1.1144322e+00
 -1.0733421e+00
  1.7000153e+00
  1.1431159e+00
  1.2283762e-01
 -1.7875696e+00
  4.6693146e-01
 -6.3919857e-02
  4.9083483e-01
 -1.2633559e+00
 -5.2076203e-01
 -1.3451951e+00
 -1.3139944e-01
  1.2798744e+00
 -1.3391557e+00
 -2.2076765e-01
  1.8650859e-03
  6.4118314e-01
 -1.0756429e+00
 -2.9005568e+00
 -2.4675899e+00
  1.2703402e+00
  1.0627859e+00
 -1.0204511e+00
  6.2487074e-03
 -9.4502062e-01
 -8.8328272e-01
  4.9477318e-01
  1.6743825e-01
 -1.9500990e-01
 -1.2821921e+00
  9.6353251e-01
  7.0714647e-01
 -2.2923964e-01
 -1.4379107e+00
  3.0086923e-02
  3.0086923e-02
  3.0086923e-02
  3.0086923e-02
  3.0086923e-02
  2.0425856e-01
  2.0425856e-01
  2.0425856e-01
  2.0425856e-01
  2.0425856e-01
  1.6406114e-01
  1.6406114e-01
  1.6406114e-01
  1.6406114e-01
  1.6406114e-01
  5.0968606e-02
  5.0968606e-02
  5.0968606e-02
  5.0968606e-02
  5.0968606e-02
  2.4792863e-02
  2.4792863e-02
  2.4792863e-02
  2.4792863e-02
  2.4792863e-02
  1.7113474e-01
  1.7113474e-01
  1.7113474e-01
  1.7113474e-01
  1.7113474e-01
  8.9403339e-02
  8.9403339e-02
  8.9403339e-02
  8.9403339e-02
  8.9403339e-02
