nep4_zbl 2 Ga In 
zbl 1.25 2.5 0.7
cutoff 6 5 68 39
n_max 4 4
basis_size 8 8
l_max 4 2 1
ANN 60 0
  1.9664589e-01
 -1.1029639e+00
 -5.1343463e-02
 -1.9605616e-01
  1.5176119e+00
 -1.4286604e-02
 -8.2163937e-02
  1.7702248e-05
 -1.2639850e-01
 -5.5967994e-02
  2.3475578e-02
  4.3337725e-02
  7.2389700e-02
  1.2680442e-03
  1.3161173e-01
  3.4512192e-02
  1.1855192e-02
 -9.8898299e-03
  1.7419711e-01
  8.9957323e-03
  8.3067223e-02
 -1.3684512e-03
  6.6732690e-02
 -2.0673115e-02
 -1.0518129e-01
  1.3450070e-01
 -2.0977303e-01
 -7.0412457e-02
 -1.4327866e-01
 -1.1982431e-01
 -4.5178086e-03
  1.2602294e-02
 -1.0372985e-03
  5.2591804e-02
  7.2640285e-02
 -1.5418701e-02
  1.0624095e+00
  5.2803483e-02
 -1.1457733e-01
 -4.3224698e-01
  7.1594366e-03
  9.4721474e-02
 -7.8074401e-03
 -1.7310850e-02
  2.5659356e-02
  1.1194593e-02
  4.1024808e-02
  4.7828583e-03
  9.5859952e-02
 -3.2321500e-04
 -1.0072494e-02
  4.3485895e-02
  6.8110332e-02
 -4.3009605e-02
  2.8943842e-02
  2.0943640e-02
 -6.4426243e-02
  1.4391807e-01
 -3.8432237e-02
 -1.4534748e-01
 -3.1023514e-02
  3.4923788e-02
  5.6021098e-02
 -1.0579495e-01
  1.0716015e-01
 -4.4750874e-03
 -1.3856521e-01
 -2.5757942e-02
  3.7678704e-02
  2.9818151e-02
  1.0592988e-01
 -9.8670155e-01
  5.6449184e-03
  4.3588527e-02
  6.9684732e-01
 -6.7649886e-02
  5.8288062e-03
 -9.1655187e-02
  3.5536688e-02
  1.1322954e-02
  4.2638537e-02
  2.2391602e-02
 -1.6004810e-02
  4.9596757e-02
  4.8068296e-02
 -3.9649205e-03
 -8.3929084e-02
  1.5170939e-01
 -4.3769144e-02
  6.8393625e-02
 -9.6973278e-02
  3.2298259e-02
 -4.5670461e-02
 -1.5576154e-01
 -5.7479665e-02
  2.1746460e-02
 -5.6572026e-05
  1.8362174e-02
  3.8924553e-02
  1.6623629e-02
  7.3781587e-02
 -1.8425412e-02
  4.7406178e-02
 -1.5857371e-02
 -1.0007229e-01
 -2.2600156e-01
  1.1356758e+00
  7.5563699e-02
  1.8299721e-02
 -5.0013107e-01
 -1.4231200e-03
  7.6938443e-02
  1.7077809e-02
 -9.5612742e-02
 -3.2524440e-02
 -4.4958172e-03
  1.1145040e-01
 -2.4246352e-02
  3.2169592e-02
 -2.3758540e-02
  2.9669711e-01
 -7.6291032e-02
 -6.8398602e-02
 -2.9545475e-02
  3.2294898e-03
 -1.0099927e-03
  2.8023047e-02
 -1.5773090e-02
 -1.1225908e-02
  7.1645938e-02
 -3.0357998e-02
 -2.9405763e-03
 -2.3739839e-02
  7.0421293e-02
  5.6264415e-02
 -1.7991530e-02
 -1.4762538e-02
 -1.9749336e-02
  9.7810142e-02
 -2.1214113e-02
  1.9951751e-03
 -1.0592047e+00
 -1.5192601e-01
 -8.7629609e-02
  2.6030731e-01
 -1.8924337e-03
 -8.9089377e-03
 -1.1693826e-01
  1.4086352e-01
 -3.0064549e-02
  3.4768272e-02
  4.9935538e-02
  4.6639372e-02
  1.6241446e-01
  2.4584876e-02
  3.5143770e-02
 -1.1263479e-02
  6.5008014e-02
  8.1325702e-02
  2.0230582e-01
 -3.4222472e-02
  4.3943513e-02
 -1.0471517e-02
  2.2575757e-02
 -2.6714426e-04
 -1.9331822e-02
 -1.0189866e-01
 -1.8991565e-02
 -4.1023392e-02
  4.7764387e-02
 -8.4544539e-02
  5.6038048e-02
  2.6007891e-02
  4.4195123e-02
  4.9044858e-03
  2.8518921e-01
 -1.1854001e+00
  2.1263057e-02
  2.9320009e-03
  1.3645245e+00
 -2.8234411e-02
  2.2814535e-01
  4.9436525e-02
 -4.8415165e-02
  7.9653971e-03
  7.9270795e-02
  6.2090559e-03
  8.0438830e-02
 -1.1814393e-01
 -1.8009553e-02
 -2.1431452e-01
  2.3327257e-02
 -9.8884366e-02
 -3.6341451e-02
 -1.1964947e-01
 -2.1638054e-02
 -2.4204178e-01
 -7.0601815e-01
  4.6615391e-03
  3.0683022e-02
  6.5573879e-02
  2.5637602e-02
  4.5658682e-02
 -2.8385280e-03
 -4.6675574e-02
 -6.4636409e-02
  2.6583254e-02
  3.4397274e-02
 -1.7221458e-02
 -2.8117523e-02
 -2.6306364e-01
  1.7801162e+00
  1.0389981e-01
  1.4308210e-01
 -2.5371844e-01
  1.8553572e-02
  1.3969009e-01
 -9.9960275e-02
 -7.3174402e-02
 -3.9469935e-03
 -3.7046310e-02
  4.9450345e-02
 -8.6398989e-02
 -1.5902998e-02
 -3.1093159e-03
 -5.2603129e-02
  3.0818032e-02
  4.8964567e-02
 -7.3992610e-01
 -3.1766865e-02
 -1.3895220e-02
  1.3444069e-02
  1.0178769e-02
  8.4441407e-03
 -4.0270936e-02
  8.7836176e-02
  1.6423170e-02
 -2.9898254e-02
 -2.3829188e-02
 -6.7258880e-02
 -6.0614161e-03
  1.6896622e-02
  2.0916626e-02
  6.1022472e-02
  8.6971276e-02
 -1.7746015e+00
 -3.9782706e-01
 -1.8772589e+00
  2.2276349e+00
  2.2908690e+00
  4.9375847e-01
 -1.4843022e+00
 -3.4692898e-01
  1.1538824e-01
 -5.4198080e-01
 -2.6202288e-01
 -1.2423432e+00
 -1.3122240e+00
  1.5237343e-01
  5.3862917e-01
  4.3182060e-02
 -4.9191859e-02
  1.1885680e-01
 -1.4669449e+00
 -1.1657161e-01
  1.0491289e-01
  1.2507664e-01
 -9.0084061e-02
 -1.8496840e-01
  9.3956729e-03
 -1.3546319e-01
  4.2931441e-02
 -3.1241521e-03
  1.1600493e-02
 -2.3101194e-02
 -3.1572732e-01
  1.8199688e-02
 -9.1174021e-03
  5.8575864e-03
 -7.0892163e-03
  1.4341437e+00
  2.9764447e+00
 -5.2073982e-02
  5.8066410e-01
  1.5317681e-01
  8.9231648e-02
  3.2115918e-02
  1.1103370e-01
  1.4302635e-01
  9.9583782e-02
  5.8661881e-03
  2.6390219e-01
 -9.6182145e-02
  6.0394336e-03
  7.2709136e-02
 -1.7052728e-03
 -8.4747083e-04
 -1.0693973e-01
 -1.4041374e-02
  1.0561997e-03
 -9.3896508e-02
 -7.6639265e-02
  8.9413159e-02
  6.4077631e-02
 -6.4972490e-02
  2.6823671e-03
 -2.9256995e-05
  1.2076463e-01
 -4.5834802e-02
  1.3233724e-01
  8.4515512e-02
  6.3052744e-02
  4.3390680e-02
 -5.1555879e-02
  1.3324472e-01
  5.9686225e-02
  2.9000896e-01
 -1.7621045e+00
  4.2540804e-02
 -1.0261116e+00
  3.5643969e-02
 -1.1338291e+00
 -1.7424612e-01
 -7.9221748e-02
  9.5135327e-03
  4.3219167e-01
 -7.6113141e-01
  2.0132402e-01
  5.8754671e-01
 -7.8761452e-01
  1.1048540e-01
  2.3298252e-01
  2.1376134e-01
  5.6585766e-02
  3.2283750e-01
  2.4458672e-01
  9.9194497e-02
 -5.3970462e-01
 -4.0754244e-02
  7.0709802e-02
  1.0888457e-02
  3.6088053e-02
  3.3625036e-01
  1.6771503e-02
 -3.2904325e-03
 -8.7327935e-02
  1.3964017e-02
 -1.0222694e-02
 -4.1269388e-02
 -3.2194234e-02
 -3.7599932e-02
  1.3348240e+00
  9.1374151e-02
 -9.2629120e-03
 -5.2881688e-01
  6.6709183e-02
  1.8992035e-01
  6.4822726e-02
  1.4952032e-02
  6.6680568e-03
 -1.7018554e-04
  3.9405417e-02
  1.0995638e-02
  8.0743444e-01
 -4.5581531e-02
  8.6149819e-02
 -9.6025236e-02
  1.9183561e-02
 -3.5328303e-02
  5.6429606e-02
  6.7549296e-02
  2.4427885e-02
 -7.7163421e-02
 -1.0093318e-02
 -1.8061480e-01
  2.2558598e-02
 -9.4292462e-02
 -1.5697320e-01
 -4.8786323e-03
 -6.0967203e-02
  1.6222687e-02
  2.1683177e-02
 -7.5335294e-02
 -2.5308132e-02
  7.8416809e-02
 -1.8541833e+00
 -5.0409740e-01
  2.4819109e+00
 -5.1459068e-01
  4.4436818e-01
 -8.0933744e-01
  4.3824467e-01
 -1.7885505e+00
  1.1588986e+00
  3.0370227e-01
 -1.7785925e-02
  7.9372698e-01
 -2.1008572e-01
  7.9191607e-01
  3.4489369e-01
 -4.6445414e-02
 -4.0581272e-04
 -1.2019136e-01
  2.0800628e-01
  1.5715301e-01
 -1.4520133e+00
  1.4026223e-02
  4.1349399e-01
  7.1709549e-01
  4.5270884e-01
  3.3014260e-02
  1.9564133e-02
 -1.7822843e-02
  5.9008021e-02
 -2.6144007e-01
 -1.3984212e-01
 -8.5404329e-02
 -1.9398788e-01
 -1.3778835e-03
 -6.4972818e-02
 -2.6128745e-01
  1.4143308e+00
  6.8234093e-02
 -4.4678867e-02
 -8.6745560e-01
 -4.8533995e-02
 -3.0000496e-03
  6.6001259e-02
 -5.1227547e-02
 -3.0467482e-02
  4.5759194e-02
  2.9881410e-02
  5.9911493e-02
 -6.3598879e-02
 -2.3612596e-02
  1.2892865e-01
 -2.2426071e-02
  1.3088363e-02
  4.4120476e-02
 -1.1326869e-01
  4.8054829e-02
 -7.1265013e-03
 -1.5275149e-02
  6.9398805e-02
 -3.1762499e-02
 -4.6016257e-03
 -6.3478746e-02
 -3.5421737e-02
 -7.4717472e-03
  1.0609332e-01
 -9.3812265e-02
 -1.7503911e-01
 -1.6336086e-01
 -2.3731112e-02
  9.9302396e-02
 -1.6304751e-01
  1.2811881e+00
 -3.9386577e-03
  3.7777264e-02
 -2.3746929e-01
  2.9012432e-02
  7.5038791e-02
  2.6179260e-02
 -1.5881268e-02
 -4.8738558e-02
  1.0874635e-01
  3.3229806e-02
  3.9163861e-02
 -1.2637123e-02
  1.6266869e-02
  2.8972971e-01
  8.2750387e-02
 -1.8339455e-02
  7.7770717e-02
 -1.3615699e-01
  6.6913798e-02
  7.2072470e-03
 -1.4584354e-01
  7.3811221e-03
 -1.3493223e-01
 -7.1276546e-02
  4.5500815e-02
  4.7290076e-02
  4.8149716e-02
  2.6227236e-03
  9.1826931e-02
  1.3034854e-03
 -1.3019450e-01
  9.8225608e-02
  2.4237189e-01
 -3.5148926e-02
  1.1435174e+00
  5.4589681e-02
  1.0263083e-02
 -9.4222367e-01
 -9.4013894e-03
 -3.0041138e-02
  6.1568464e-03
  3.0289428e-02
 -1.2924038e-01
 -7.2930343e-02
 -9.8293409e-02
 -4.1240305e-02
 -7.3078431e-02
  4.6257399e-02
  1.0652530e-01
 -1.1359416e-01
 -2.0163151e-02
  7.1964554e-02
  2.8836193e-02
 -4.5899933e-04
 -4.7185600e-02
 -3.0493891e-02
  5.3634856e-02
  1.7446125e-02
 -1.2909052e-01
  6.1544705e-02
 -1.5238747e-02
 -1.7068159e-03
 -1.4136447e-02
  1.7999358e-02
 -6.8604566e-02
  1.0279979e-01
  2.3240820e-02
  3.2300632e-02
 -4.3680093e-01
  9.2663914e-01
 -8.3027765e-02
 -2.5511575e-03
 -1.0466050e+00
  1.7205775e-01
  1.0725473e-02
  6.8297483e-02
 -3.1766463e-02
  1.4131049e-02
  8.0984578e-02
 -7.2634339e-02
 -1.5765406e-01
  5.8661349e-02
  6.5381639e-03
  1.0569828e-02
  1.8121907e-02
  8.8718804e-03
  1.6088683e-02
  3.9329745e-02
  9.7313061e-02
  8.7522179e-02
  3.8794417e-02
  1.4302929e-01
 -5.7793893e-02
 -1.6985942e-02
 -1.4671038e-01
 -1.4646425e-02
  4.4591706e-03
  3.2496899e-02
  1.0957290e-02
  1.2267140e-01
  1.6636708e-01
  1.2518929e-01
 -9.4500780e-02
  1.2822331e-01
 -1.2476695e+00
  9.0303384e-02
 -7.7064127e-02
  6.9139612e-01
  8.4397977e-04
  3.8571738e-02
 -1.3274886e-01
  1.7466804e-01
  2.0175846e-02
 -3.9971594e-02
  1.6705341e-04
 -9.3107708e-03
 -1.3421713e-01
 -8.0451250e-02
 -5.9161924e-02
 -1.1731510e-01
 -3.1839125e-02
  4.4216231e-02
 -5.9552472e-03
  6.3810058e-02
 -4.2806813e-03
  1.4099333e-01
 -1.7995344e-03
 -3.5082570e-03
 -1.3420897e-02
  1.1706447e-01
 -4.9581308e-02
  5.0349060e-02
  9.7655609e-02
  1.3041060e-01
 -9.0112491e-03
  2.1153890e-01
  5.7440586e-02
 -4.3162815e-02
  1.8890838e-01
 -1.1955744e+00
  2.1232642e-01
  6.6950875e-03
  7.5725442e-01
  9.6280396e-02
  7.6811038e-02
  1.6383696e-01
  5.4514684e-02
  2.7481036e-02
 -2.3184069e-03
 -3.6632087e-02
  7.0468308e-03
 -3.1908616e-02
  1.5303841e-01
  2.8919628e-02
 -1.2952837e-01
  3.8010571e-02
 -1.9033065e-03
 -2.3569843e-02
 -4.3152198e-02
 -2.7733499e-02
  8.4266654e-04
  8.8149689e-02
  7.4623376e-02
  1.4428852e-01
  7.5656340e-02
 -1.5954649e-02
  7.0172909e-04
  1.0093526e-01
  5.4380756e-02
  2.5305219e-02
 -3.2162449e-01
 -2.6409918e-02
 -3.2534841e-02
  2.1899962e-01
 -9.9433351e-01
  7.4122995e-03
  7.3386393e-02
  6.5525550e-01
  2.6385970e-02
  5.2967131e-02
  1.3339386e-02
 -3.6375034e-03
  5.3797629e-02
  7.7254977e-03
 -5.9687138e-02
  2.2733681e-02
 -1.8571906e-02
  1.1679307e-01
  4.1697796e-02
 -6.4687483e-02
 -2.2688074e-02
  1.9789077e-02
  1.2294329e-01
  6.7467820e-03
 -3.0443607e-02
  8.6398497e-02
  1.7038470e-02
  3.7526660e-02
 -1.5854850e-01
 -6.3747101e-02
  3.0562488e-02
  7.6315687e-03
  3.1409029e-02
 -1.6676070e-01
 -6.0590114e-02
  7.2289288e-02
 -8.5139379e-02
 -1.7597649e-01
  9.5397025e-02
 -1.2778128e+00
  7.6102816e-02
  1.1156073e-01
  4.8090369e-01
 -5.7622593e-02
  1.7786460e-02
  1.2249690e-02
 -6.8364300e-02
 -2.5406878e-02
 -4.4465489e-03
 -1.4894508e-01
  1.5442081e-01
 -4.3872979e-02
  4.8041690e-02
  1.6323302e-02
 -5.1809661e-03
 -1.6920306e-03
  2.4048153e-01
 -6.6392007e-03
  4.5575779e-02
  2.5679825e-02
 -5.9420142e-02
  4.0330193e-03
  5.9004087e-02
 -1.2826657e-01
 -2.6350543e-01
 -3.6433622e-02
 -4.2412072e-02
  3.7277516e-02
  5.7739612e-02
  6.3235857e-02
 -3.5335682e-02
 -7.1993113e-02
  7.1974858e-03
  3.5752738e-01
 -1.5421774e+00
  7.8071980e-03
  6.0821481e-02
  4.3326163e-01
  4.2584285e-02
  2.2413121e-03
 -1.0647944e-02
  2.5458571e-02
 -1.5969604e-02
  1.0822386e-02
  4.2485878e-02
  2.3310410e-03
 -7.3287062e-02
  2.0366916e-02
 -1.6607657e-01
  9.4175756e-02
 -6.6669434e-03
  6.8409339e-02
  6.3581914e-02
  8.1260065e-03
 -8.3557740e-02
 -1.6706459e-01
 -9.7074145e-03
 -1.7216960e-02
 -3.0259160e-02
  5.9762437e-02
 -1.4106892e-02
  1.5744564e-01
  1.6849216e-02
  8.6719304e-02
 -1.0390971e-01
 -3.1682819e-02
 -1.0154689e-02
  1.6806824e-02
 -2.0212930e-02
 -1.5183114e+00
 -1.3610400e-01
  8.7099426e-05
  6.7193508e-01
 -2.0845974e-02
 -8.2379924e-03
 -9.7110315e-04
 -3.2505635e-02
  3.4355193e-02
 -3.8425612e+00
 -3.1775534e-02
 -3.8885237e-03
  6.1358195e-02
 -5.5982274e-01
 -3.4156516e-02
 -1.2584022e-02
  3.1382933e-01
 -5.6938096e-03
 -6.1627898e-02
  1.5619565e-02
 -6.8634464e-03
 -3.0303946e-02
 -6.7827508e-02
  3.3157375e-01
 -1.3947473e-01
  3.1838468e-01
 -7.4487537e-02
 -2.4633810e-02
  2.3543311e-03
 -6.0761463e-02
 -7.8664068e-03
 -4.9729901e-04
 -8.2919132e-03
 -8.4342554e-02
 -6.1295968e-02
  8.9343542e-01
 -4.0011844e-03
  1.1517739e-01
 -9.9863547e-01
  4.5172084e-02
 -7.5615413e-02
  5.4435842e-02
 -4.8615895e-02
  1.5117250e-02
 -2.1157535e-02
 -5.6846723e-02
  1.1558304e-02
  4.6122521e-02
 -9.3361042e-02
 -7.0575809e-01
 -4.0839117e-02
  1.0084795e-02
 -2.0306351e-02
  4.1513806e-04
  2.9541783e-02
 -1.2620669e-02
  1.4277648e-02
 -1.4780544e-02
  1.4509875e-01
  5.1666778e-02
 -6.3719265e-02
 -5.0547950e-02
 -6.1788023e-02
  3.0682422e-02
  7.7460501e-03
  2.0573946e-02
 -7.4138552e-02
  5.3787805e-02
  8.9618467e-02
 -2.6716357e-02
  9.9005538e-01
  9.8560993e-03
  1.5234685e-02
 -7.9557770e-01
 -9.0323394e-04
  5.5384911e-03
  3.4556093e-03
 -2.3253750e-02
 -8.4208427e-03
 -3.5484903e-02
  1.1183222e-02
  1.1300981e-02
 -8.9204401e-02
 -8.3439946e-02
 -5.0584972e-02
 -1.4663345e-01
 -3.6373774e-03
 -1.0085206e-01
 -8.3185345e-02
 -1.3720189e-02
 -1.2007602e-02
  5.5820387e-02
  5.2438207e-02
 -1.0011239e-01
  7.5853445e-02
 -3.9404828e-02
  2.8491799e-02
  1.5792454e-02
  2.0558819e-01
 -2.1986494e-02
  7.9081453e-02
  2.0468952e-03
 -7.9152353e-02
 -5.4039950e-03
 -7.3426199e-01
 -1.1982028e+00
 -1.3654759e+00
  4.8595405e-01
 -1.5505494e+00
 -4.2516273e-03
 -4.4477218e-01
  1.3315412e+00
 -4.7227249e-01
 -1.6690688e-01
  2.1875028e-02
 -8.5815936e-01
  8.2801908e-01
 -2.7454504e-01
 -6.4395791e-01
 -3.6607704e-01
 -1.1616962e-01
  2.2918338e-01
  7.2271369e-02
 -3.9019930e-01
 -4.2332977e-02
  1.0023478e-01
 -8.4503257e-01
 -6.8447269e-02
  9.3681358e-02
 -5.2206822e-02
 -6.1393738e-02
  2.0821532e-02
 -4.5333121e-02
 -1.5171424e-02
 -2.2281248e-02
 -8.0499088e-04
  2.5441095e-02
  1.3007905e-03
 -1.9679898e-01
  4.2291221e-01
 -1.3933557e+00
  1.5800465e-02
 -8.3781488e-02
  1.2724737e+00
  1.2230600e-02
 -6.9416881e-02
  2.6425971e-02
  1.7041671e-03
 -3.8693190e-02
 -6.8477611e-03
  1.8574579e-02
 -3.4523445e-01
 -3.4008961e-02
  1.0331632e-01
 -4.5785163e-02
  1.8648358e-02
  3.9700899e-02
  4.6545345e-02
  2.6831452e-02
  6.4548023e-02
 -5.7693874e-03
 -3.4404851e-02
 -1.3551451e-01
  5.8055151e-02
  8.8724434e-02
  9.5987625e-02
 -1.0820097e-01
  2.7222764e-02
 -5.0424947e-03
 -1.3117521e-02
 -5.9337664e-02
 -2.8466381e-02
  9.4350457e-02
  4.6163723e-02
  6.3615745e-01
  9.2908031e-01
 -2.0091403e+00
  1.3301142e-01
  9.1908351e-02
 -3.3418664e-01
 -3.7086117e-01
 -5.3390223e-01
  1.6748010e-01
  5.4340094e-01
 -9.6390945e-01
 -1.5045398e+00
  3.2431456e-01
  5.6914830e-01
  5.7944704e-02
 -1.0817600e+00
 -2.4205247e-01
 -1.1712183e+00
 -6.2793511e-01
  2.0980330e-01
  1.5364608e+00
  5.9864336e-01
  2.9180339e-01
 -3.2029275e-02
 -8.9183056e-01
 -4.0544537e-01
 -1.5095589e-01
  2.8193614e-01
  1.5095529e-01
  1.6270094e-03
 -8.4101118e-02
 -1.8417709e-02
 -1.3582270e-02
 -1.1936796e-01
 -5.5770087e-03
  5.7258256e-02
 -1.0991486e+00
 -1.1177296e-02
 -1.0624248e-01
  6.1333585e-01
 -1.9555962e-02
  5.1645216e-02
 -5.6189317e-03
 -1.1576634e-02
  6.0364220e-02
  2.5100616e-04
  4.7295444e-02
 -4.6679150e-02
  9.6911602e-03
  1.9224169e-02
 -8.5879974e-03
 -7.2928034e-03
 -1.7588481e-02
  3.3562984e-02
 -3.2399733e-02
 -7.4675363e-03
 -1.4868018e-01
  6.1124936e-02
  1.5150204e-02
  4.1926369e-02
  3.6027856e-02
 -1.2843143e-02
 -2.3749110e-01
 -1.7773364e-02
 -5.1794569e-03
 -2.4602089e-02
  1.4157453e-01
 -1.4843015e-03
 -3.1874500e-02
  1.8233506e-02
  8.7352581e-03
 -1.4383657e+00
 -2.8742854e-02
 -1.3490906e-01
  7.8367174e-01
 -2.1375425e-02
  2.9232454e-02
  9.2852645e-02
  4.3932285e-02
 -1.9315559e-02
  1.0295920e-03
 -2.0167597e-02
  8.7683266e-03
 -2.9753223e-02
  3.7023358e-02
  5.2565853e-03
  6.4145990e-02
  3.1689495e-01
  1.3056088e-02
  3.7662312e-02
  3.9335970e-02
 -7.9909489e-03
 -1.2766771e-01
 -1.8331563e-01
  5.3973742e-02
 -3.3581965e-02
 -1.5472492e-02
  9.7634152e-02
 -5.1773552e-02
 -9.1398738e-02
  1.3408247e-01
 -1.4733076e-02
 -3.1819068e-02
 -2.4768939e-02
 -1.1100540e-01
 -1.0238584e+00
  5.8821672e-01
  2.1475167e+00
 -1.1112387e+00
  2.9720933e+00
 -4.4886199e-01
 -3.8406701e+00
 -6.5057361e-01
  1.5091214e-01
 -2.8278805e-02
  2.7414441e-01
  9.6048385e-02
 -1.6393681e-01
 -8.2662803e-01
  3.8886738e-01
  8.3969608e-02
  8.1773365e-01
  6.3582754e-01
 -1.7861708e+00
 -1.6554164e+00
 -5.4706228e-01
  6.6692281e-01
  2.0721988e-01
  1.7294593e-01
  3.0256277e-01
 -1.1845066e-01
  6.0062889e-02
  5.4966696e-02
 -8.0583714e-02
  1.2611285e-01
 -1.3679136e-02
  3.7753087e-02
  1.1205331e+00
 -4.0884700e-02
  9.7495608e-04
 -2.0358738e-01
  1.0744053e+00
 -1.3316576e-01
  1.0267751e-02
 -2.2953881e-01
  1.8067587e-02
  4.6428633e-03
 -7.0507824e-02
 -3.5956615e-04
 -1.0771365e-01
 -1.6132750e-03
 -2.2313023e-02
 -2.1100280e-01
  1.9101848e-01
  7.2353799e-04
  2.2269554e-02
 -3.8346209e-02
 -1.3529363e-02
 -1.3592139e-02
 -2.4457047e-02
 -1.9616190e-02
  4.7109433e-02
 -7.1759764e-03
 -4.3743150e-03
 -4.8571296e-02
  4.5045334e-04
  1.5976220e-02
 -2.3278221e-02
 -3.8338728e-02
  5.8083637e-03
 -1.8041904e-01
 -1.6065708e-03
  1.3084820e-03
  2.4069317e-02
  6.0696639e-02
 -1.9440670e-01
 -5.1591694e-01
  4.6321001e-02
  6.5791512e-01
 -4.8627031e-01
 -3.7410223e-01
  6.3255183e-02
  6.9635034e-02
  1.2439333e-01
  1.6146762e-02
  2.1713831e-02
  2.7833614e-02
  8.1591941e-02
  3.0023091e-02
 -7.4233741e-02
  7.3342666e-02
  5.7379453e-04
 -1.1091400e-02
  5.0432399e-02
  6.3978814e-02
 -5.9216075e-02
 -2.5502359e-02
 -2.2398038e-02
  1.4975213e-02
 -8.0465684e-03
 -2.0601057e-02
 -3.1718601e-02
 -7.8178048e-02
 -4.7773030e-03
 -2.8415915e-02
 -7.9236617e-03
 -4.0749289e-02
 -2.0691957e-02
  9.0074517e-02
 -4.8779763e-02
  2.2686112e-01
 -1.2334222e+00
 -5.4494474e-02
 -1.2692965e-02
  3.6641404e-01
  2.7466798e-02
 -2.5211307e-03
  2.5271151e-02
 -8.1471475e-03
 -7.1585618e-02
  2.0202059e-01
  1.3520262e-01
 -6.6021442e-02
 -6.6997908e-02
 -1.0421840e-02
 -9.4046131e-02
 -7.3294081e-02
 -2.6491703e-02
 -9.0108164e-02
 -1.1788789e-02
 -5.2612841e-02
 -4.4674843e-04
  8.9515656e-02
  7.8060769e-02
  4.4775110e-02
 -8.8767007e-02
 -3.2252118e-02
  9.7760011e-04
  8.2338803e-02
  5.0898388e-02
  2.5681835e-02
  1.5258470e-02
  2.5662291e-03
 -2.0904653e-01
 -9.0986118e-02
 -4.2960680e-01
  1.4922605e+00
  1.1960580e-01
  7.4136923e-03
 -7.7747971e-01
  7.2891433e-03
  2.9363334e-03
 -9.4143458e-02
 -6.1733037e-02
 -5.4566171e-02
 -9.7186953e-02
  4.9169980e-02
  1.6398838e-02
 -1.1280341e-01
  4.6473023e-02
  5.1912665e-02
 -2.2965848e-02
  1.2798468e-03
 -8.9677818e-02
 -9.1909900e-02
  1.4913624e-02
 -3.6398705e-02
  4.9800240e-02
  7.3939092e-02
  4.8266299e-02
 -1.5785752e-02
  2.3747811e-03
  2.3052169e-02
  5.3203325e-03
 -1.0698646e-02
  2.8411428e-02
  2.0096396e-01
  2.1486288e-02
 -3.4004699e-02
 -8.8865660e-02
 -4.5401301e-02
  1.2519916e+00
  8.8332169e-02
  7.5297706e-02
 -7.9926896e-01
 -6.0476914e-02
 -8.0032445e-02
 -1.1222259e-01
 -3.9803427e-02
  1.9184332e-02
  3.1143129e-02
  9.5519371e-04
  1.4912348e-02
  4.0462978e-02
 -4.3453514e-03
 -7.1824238e-02
 -1.3638705e-01
  6.4258337e-02
 -1.0393762e-02
  1.2318731e-01
  1.1929040e-01
  6.9933091e-03
  7.8692457e-05
 -1.1050428e-01
  1.4327352e-02
 -3.8419303e-02
  3.7550963e-02
 -1.3920985e-01
 -8.7340003e-01
 -7.1800812e-03
 -7.8382537e-02
 -7.7467412e-02
 -2.4976719e-02
 -3.7023164e-02
  1.3710523e-01
  2.0709279e-01
 -1.0040379e+00
 -3.4976672e-02
 -2.3479534e-03
  6.0655850e-01
 -3.1914352e-03
 -1.3415192e-02
  5.3822063e-02
 -2.3336294e-04
  1.5185608e-02
 -1.1076854e-02
  4.8004135e-02
  2.3750963e-02
  7.0854779e-03
 -1.8015685e-02
 -8.6890664e-03
 -1.0674670e-02
 -1.6337121e-01
  3.2596201e-02
 -1.1948225e-02
  1.4956929e-02
  2.9058412e-02
  2.6842183e-02
  3.3589631e-02
 -1.3718580e-02
  6.0544141e-02
  7.2112188e-02
 -3.0159960e-02
  1.4547640e-03
  6.5238468e-02
 -2.2618007e-03
  1.2325384e-02
  7.0751116e-02
  4.7394997e-03
  4.4596571e-02
  6.2301282e-02
  1.1307503e+00
  4.8834238e-02
  2.9403744e-02
 -4.1105685e-01
 -3.1827938e-02
 -6.7812622e-02
 -7.3518820e-02
 -1.5471193e-02
  5.5793929e-03
  6.6632763e-02
 -2.9120699e-03
 -3.3635687e-02
  1.0903943e-02
  3.7457775e-02
 -1.8812507e-02
  4.0378049e-02
  4.2615857e-02
 -5.1029231e-02
 -3.2074663e-03
  2.5481898e-02
  1.0507150e-01
 -4.5839559e-02
  4.1253332e-02
  1.0250767e-01
 -7.2535239e-03
  1.2664284e-03
  1.1202735e-01
 -9.3536451e-04
 -4.6266522e-02
  1.1254064e-01
  3.4712601e-02
 -2.7939877e-02
  3.1272992e-02
  3.5250779e-02
  1.6466166e-01
 -1.3063256e+00
 -2.0988306e-02
 -1.6356066e-01
  4.1666549e-01
  4.3996166e-02
 -1.1128866e-01
  4.2442679e-02
 -6.2815088e-04
 -3.0934813e-02
 -1.6355235e-02
  1.4369731e-01
  4.2032208e-02
  3.3848338e-02
  1.5043669e-02
 -1.5621571e-02
  1.1624727e-01
 -5.2193757e-03
  8.5210092e-02
 -8.4326699e-02
 -1.5546879e-01
  1.1077448e-01
 -3.2052957e-03
 -7.7392437e-02
 -9.9552348e-02
 -7.9610236e-02
 -2.7461687e-02
 -5.4469850e-02
 -6.2402725e-02
  2.1142853e-02
  2.9079847e-02
 -1.2167951e-01
  3.0163586e-02
  2.1595692e-02
  2.2746721e-02
  3.6560494e-01
 -1.3449235e+00
  2.2738190e-02
  1.5661510e-02
  2.6552179e-01
 -1.3041710e-02
 -3.0380476e-02
  9.6811518e-02
  2.3829644e-03
 -2.1597226e-01
 -3.5784591e-02
  5.9655227e-02
 -1.1409795e-02
  3.9835069e-02
 -4.0504333e-02
 -7.5199299e-02
  1.4589404e-01
  2.0917227e-02
 -2.1709832e-03
  1.4496951e-02
 -1.8162841e-02
  2.3339285e-02
  3.2717556e-02
 -5.7014446e-03
 -3.0549355e-02
  1.1617281e-01
 -4.3779116e-02
  1.2056679e-02
  2.8329654e-02
 -4.3680139e-02
 -1.0315296e-01
  5.1926248e-02
 -4.6764124e-02
 -4.3298788e-02
  3.6170542e-02
 -2.8641385e-01
  1.0782799e+00
  6.6030443e-02
  2.2981890e-02
 -6.6712976e-01
  5.2221347e-02
  4.2419275e-04
  3.0109612e-02
  1.7778605e-02
  1.4491940e-03
  5.8354856e-03
 -4.8189495e-02
 -2.6441947e-02
  1.0820062e-02
 -1.8219834e-02
  1.8886521e-01
 -2.6531409e-02
 -7.4767888e-02
 -7.6305622e-04
 -6.2249105e-02
  3.4974869e-02
  2.1510528e-01
 -2.7000245e-02
 -3.1892244e-02
  2.3536187e-02
 -1.5480863e-02
  4.6841791e-03
 -2.6578711e-02
 -3.4367915e-02
  4.5261156e-02
  1.4510740e-03
 -1.1364435e-01
  2.4128854e-03
  7.5883992e-02
 -9.1742896e-02
  1.0321844e-01
 -9.2904991e-01
 -4.2662758e-02
 -1.1934241e-01
  1.1033908e+00
  1.4541563e-01
 -4.0473115e-02
  1.6985669e-03
 -1.9982159e-01
  1.0072512e-01
  4.3231517e-02
 -7.9680816e-04
  4.1213926e-02
 -6.4010814e-02
  8.4524103e-02
  2.5010591e-02
  7.7477835e-02
  2.4056381e-03
  6.8524845e-02
 -5.7741445e-02
 -4.2167623e-02
  6.9965951e-02
 -4.3275625e-02
  3.7160229e-02
  4.9336012e-03
 -1.5821154e-01
 -1.0461531e-02
 -3.4905832e-02
 -4.4200826e-02
 -7.7033564e-03
 -7.5756900e-02
  4.2285614e-02
 -3.3474278e-02
  4.2157155e-02
  2.6633570e-02
 -5.2936471e-01
 -6.7177355e-01
 -5.9873867e-01
 -2.8808093e+00
 -2.3308933e+00
  8.7974656e-01
 -2.6556785e+00
 -1.3182404e+00
 -3.9308777e-01
  3.0730300e-02
 -3.8080972e-01
 -8.2330285e-03
 -4.6838656e-01
 -1.8572374e-01
  8.8444060e-01
  1.3958553e+00
 -1.2379404e+00
 -9.8535508e-01
 -4.1900608e-01
  7.0829317e-02
  7.5915568e-02
 -2.3269889e+00
  8.3781075e-01
 -1.1549495e+00
 -5.1331705e-01
 -9.0918356e-01
 -1.6992177e-01
  1.0251266e-01
 -1.1693881e-01
 -1.2805483e-02
 -9.0330295e-02
 -1.0769038e-01
  1.9877519e-02
  3.8912147e-02
  4.6513081e-01
 -3.7015828e-01
  1.3479569e+00
 -7.4362889e-02
  4.3317426e-02
 -5.8171719e-01
  2.5624860e-02
  3.9632928e-02
  3.8551781e-02
 -2.8756845e-01
 -2.2092968e-02
 -1.3357420e-02
  5.7411836e-03
  7.2635855e-03
 -5.4225828e-03
 -3.9994032e-03
 -1.4478591e-02
 -2.2238031e-02
  1.2368891e-01
  1.7835613e-03
 -3.7808359e-02
 -5.2476242e-02
 -2.1316586e-01
 -3.3651173e-02
 -4.7839894e-03
  2.1906042e-01
  9.3626482e-03
  8.3442420e-02
  2.7053922e-02
 -5.9987184e-02
  4.0714391e-02
 -1.8150171e-02
  1.9473022e-02
  7.3188357e-02
  8.9262668e-03
  1.7098860e-01
  2.8748536e-01
 -1.5887933e+00
 -2.6890989e-02
  2.5557952e-03
  3.5960937e-01
 -6.0632378e-02
  3.6343526e-02
  2.6658015e-02
 -8.4531911e-02
  7.6296516e-02
  1.7836154e-02
 -2.8921571e-02
 -2.9065995e-02
 -3.8709242e-02
  1.0065814e-02
 -1.6209409e-01
  5.9980538e-02
 -9.2583029e-03
 -8.3499320e-02
  4.1055768e-03
  7.8629136e-02
 -2.5581941e-03
 -2.5520315e-02
 -4.3250863e-02
 -9.5029421e-02
  2.3626050e-02
 -2.1438774e-04
 -3.5976589e-02
  5.0973795e-02
 -3.4525259e-03
  4.7498230e-02
  5.4246306e-02
  1.2453782e-01
 -1.7755499e-02
 -5.4881405e-02
 -2.9087329e-02
  1.3484482e+00
  3.2345679e-02
  6.9732264e-02
 -9.7760266e-01
 -1.6151163e-03
 -2.1304287e-02
  3.0883173e-02
 -9.0727165e-02
  1.9017937e-02
 -6.6517256e-02
  2.4112675e-02
  4.6488818e-02
  4.1243613e-02
 -6.6148207e-02
 -2.2277014e-02
  5.0985990e-03
  3.7024640e-02
  1.0971586e-02
 -1.3540733e-02
  1.9232266e-01
  5.9392177e-02
 -2.1045985e-02
  1.0871483e-01
 -2.3522198e-02
 -1.6289353e-02
 -2.3774870e-02
  1.3559095e-02
  5.1125754e-02
 -3.0300345e-02
  1.0319891e-03
 -2.6613703e-02
  1.1063118e-02
 -1.1600721e-02
 -1.6457129e-02
  1.2724657e-01
 -1.1183701e+00
  7.6078032e-03
  2.9508805e-02
  8.6212027e-01
  6.9607697e-02
 -1.6421147e-02
  2.1452589e-02
  6.4547933e-03
  5.3908173e-02
 -2.1178956e-01
 -7.6851617e-03
  1.0211153e-01
 -1.9171651e-01
 -3.5247896e-02
  7.6346926e-02
  1.4725052e-01
 -3.1867612e-02
  6.1649960e-02
 -1.3833385e-02
  4.5040581e-02
  3.5640843e-02
 -4.5339321e-03
 -1.6222334e-02
  1.5889835e-01
 -2.2915830e-01
  1.4617352e-01
  5.1886603e-02
  9.8276250e-02
 -4.7025606e-02
  2.0244680e-03
 -4.3193419e-02
 -8.4108599e-03
  3.3302188e-03
 -5.9833699e-03
 -7.0209026e-02
  1.0174174e+00
 -3.2872828e-03
 -3.4521505e-02
 -5.5055821e-01
 -5.3310674e-02
  2.2801436e-02
  5.2961442e-03
 -6.2228455e-03
 -6.1917365e-02
  1.1661994e-01
  1.7535569e-01
  1.4497447e-02
 -6.2095974e-02
 -2.1693501e-01
  1.8119279e-02
  5.0518118e-02
  2.0730738e-02
 -1.9087873e-02
  1.4464263e-02
  7.3729013e-03
  9.2621278e-03
  1.8480040e-02
  3.3825135e-04
  1.6338494e-02
 -1.8352108e-02
 -5.2251760e-02
 -1.4191661e-02
 -3.7859440e-02
  1.7073603e-02
  2.2096906e-02
  4.2137640e-04
  1.4996705e-02
 -4.1876037e-02
  7.3642589e-02
  2.9269651e-01
 -1.2432450e+00
  8.7896583e-04
  6.5944523e-02
  3.6736104e-01
  7.1840100e-02
 -6.8224214e-02
  4.8958077e-03
  3.1605944e-02
  2.6018474e-02
 -3.7649456e-02
  2.0515583e-02
  3.6774492e-03
  9.4209619e-02
 -3.2772778e-03
 -3.0316772e-02
  2.2683324e-02
 -5.5565082e-02
 -9.5117167e-02
 -1.1783156e-01
 -1.7754718e-03
 -6.8230808e-02
  2.5667509e-02
 -1.9516685e-03
  1.0813326e-02
 -4.6612434e-02
  6.0182214e-02
 -8.2584940e-02
  1.6845159e-02
  9.9644307e-03
 -9.3207151e-02
  5.5113632e-02
  3.1796034e-02
  8.6782947e-02
  1.5254438e-01
 -7.0711114e-02
  1.0554405e+00
 -3.8580589e-02
  3.8342588e-02
 -8.6496782e-01
  9.8568149e-02
 -4.8381448e-02
  1.1081545e-02
  7.1391776e-02
  1.1378672e-01
  5.2418556e-02
 -5.8474313e-02
 -1.2867354e-01
  8.2470775e-03
 -1.0331425e-02
 -2.4548741e-02
  5.9888542e-02
  4.0179867e-02
  3.0331995e-02
 -1.1292620e-01
 -3.3111300e-02
 -9.7243041e-03
  1.6881876e-02
  2.2114152e-02
  2.9127568e-03
  1.0977444e-02
 -1.4101329e-01
 -1.2353545e-01
 -1.9362690e-01
 -1.1354107e-01
 -1.2400912e-01
  5.2323509e-02
  1.0166948e-02
 -4.6771928e-03
 -4.7754250e-02
 -3.1646839e-01
  1.3586427e+00
 -2.9574174e-02
 -1.0069527e-01
 -2.0531218e-01
  9.0504847e-02
 -6.5906987e-02
  5.5646822e-02
 -2.6808674e-03
  6.4953580e-02
 -8.9424394e-02
 -1.4713839e-02
 -6.9253785e-03
 -2.4014993e-02
 -6.5093413e-02
 -3.4310598e-02
 -1.9300963e-03
 -1.0768522e-01
  1.3498981e-02
 -6.8705529e-02
 -5.4812700e-02
 -7.0195645e-02
 -2.7428145e-02
 -4.3065543e-03
 -3.8281009e-02
 -4.3631089e-03
  3.7846897e-02
  4.8341226e-02
 -7.5500987e-02
 -7.0739957e-03
  4.4149812e-02
  2.1484172e-02
  1.2826504e-01
  1.4924787e-01
 -7.2618112e-02
  1.9506278e-02
 -1.0706896e+00
 -7.4664146e-02
  7.4304633e-02
  8.8626081e-01
 -3.8628805e-02
  8.0531295e-03
  1.8931627e-01
 -1.2053188e-01
 -2.4010185e-03
  6.0261256e-01
  3.7035342e-02
 -1.4248770e-02
  4.4977158e-02
  1.7517529e-02
 -4.1558776e-02
  3.6461163e-02
  1.1873510e-01
  7.9310857e-02
  2.0213177e-02
  3.8973901e-02
  2.9444141e-02
  8.7737334e-01
 -6.2988549e-02
 -1.8245097e-02
 -5.9230868e-02
 -2.9990330e-02
  1.7061481e-01
  3.7114460e-02
 -1.8714222e-01
 -6.6790350e-02
  1.6517822e-03
 -2.5482513e-02
 -1.1541804e-02
  3.8332453e-03
 -6.2776648e-02
  1.1778855e+00
 -1.2700391e-02
  7.2035618e-02
 -7.5939608e-01
 -3.5673052e-02
  3.5923250e-02
  3.0082144e-02
 -1.2661763e-01
 -5.0610641e-04
 -1.4607311e-02
  1.0920297e-02
 -7.7277794e-02
  1.0281496e-01
 -2.4469027e-02
  5.6936756e-02
 -1.4384002e-02
  6.7652300e-02
 -3.7017029e-02
  8.4191263e-03
 -3.5470117e-02
  1.5026812e-02
  2.3337128e-02
 -7.7481546e-02
  3.9173150e-01
  2.0556387e-02
 -3.2842252e-02
 -2.7642792e-04
  6.1944956e-03
  1.8222971e-02
  8.7404929e-02
 -3.6893480e-02
 -6.4715140e-02
 -9.5019117e-02
 -2.1211699e-02
 -3.3643825e+00
 -1.5114415e+00
  2.2947342e+00
  8.6280799e-01
 -9.6012586e-01
  9.7371799e-01
  1.5834488e+00
  1.2229228e+00
  3.0008987e-01
  2.1093006e+00
  1.6765980e-01
  2.8399611e+00
  6.1194587e-01
  4.0800163e-01
  4.1049561e-01
 -8.2919705e-01
  2.8931679e-02
  2.3596442e+00
  1.0183302e-01
 -3.6428943e-01
  4.7649264e-02
 -9.5117815e-02
  1.1924319e+00
  9.3462414e-01
  1.8343042e-01
  3.2063919e-01
  2.7929017e-02
 -1.0405546e-01
 -1.6370665e-02
  4.8536258e-03
  1.0437755e-02
 -2.8384905e-03
 -3.8009997e-02
 -1.2404936e-01
 -3.8873412e-02
  1.4427059e+00
  2.2936854e+00
  1.4995615e-01
 -7.2976790e-02
  3.5147731e+00
 -1.9971275e+00
  3.2450357e-01
 -2.0606549e-02
 -9.0312701e-01
  9.6144670e-01
  2.8534418e-01
  1.6576574e+00
  8.0958515e-01
  2.1292795e-01
 -3.4244958e-01
 -3.4716532e+00
 -2.7719891e+00
 -3.6631522e+00
  1.6003139e+00
  1.1437387e+00
  4.9042039e-02
  1.6705783e-01
 -6.6671692e-02
  4.8954677e-02
  1.5447208e+00
 -6.1644618e-03
 -6.3652154e-03
 -1.9949649e-01
  8.7040178e-02
 -1.7812686e-01
 -3.1498915e-03
 -1.0809870e-01
  1.2064575e-01
  6.1311360e-02
 -1.8774999e-03
  2.1425691e-02
 -1.3277689e+00
 -5.6752533e-02
  3.0534696e-02
  3.4307674e-01
 -1.1738676e-02
  6.7297831e-02
 -1.2465066e-02
  4.4641122e-02
 -1.7627325e-02
  2.2561183e-02
 -9.3681561e-03
 -7.1953945e-02
 -2.6722375e-04
 -8.3612293e-02
 -6.8858393e-02
  1.4504276e-03
  1.2601315e-02
  4.5416985e-02
 -8.9305803e-02
  5.4842006e-02
 -9.5295802e-02
  1.4057424e-02
  4.5744851e-02
 -1.6654208e-02
  1.3827629e-02
 -4.1171178e-02
 -2.2594731e-02
 -1.6439095e-02
  1.0400070e-03
  5.0563239e-02
 -1.3075858e-01
  1.5863795e-02
 -1.1266273e-01
 -1.5129322e-01
 -3.5826108e-01
  1.4455357e+00
  1.6147388e-02
 -1.4751281e-01
 -8.4006077e-01
  2.5475573e-02
 -1.1732467e-02
 -2.9353363e-02
 -9.9488823e-03
  3.5922430e-02
  3.3345636e-02
  5.2412607e-02
 -3.3338800e-02
  7.7922031e-02
  7.2158717e-02
  3.2573564e-03
  7.9008015e-03
  5.6342237e-02
 -6.0066250e-03
  2.5547748e-02
  1.1535569e-02
  6.2940031e-02
  2.4842937e-02
  7.1222760e-02
  1.3569713e-02
  7.9812676e-02
  2.4391020e-02
  2.4865249e-02
 -1.0783478e-01
 -1.4389725e-01
  1.2763403e-01
 -9.1822058e-02
 -1.0796292e-01
 -6.8383873e-02
  1.0608395e-02
 -6.9811586e-03
 -1.2573689e+00
 -2.1592857e-02
  8.7104090e-02
  6.4692712e-01
 -3.1938113e-02
  6.1700944e-02
  8.8176824e-02
  1.5677532e-02
 -3.6548927e-02
  2.6432715e-02
 -7.2063217e-03
  9.1163725e-02
  4.8776385e-03
 -2.4363620e-02
  2.8216705e-02
  1.9278696e-02
  1.3355121e-02
  1.2767812e-02
  3.5314951e-02
  1.0971400e-01
 -1.9652224e-01
 -3.6952365e-02
  2.2881245e-02
  1.1994492e-02
  7.2424556e-03
 -2.7980098e-01
 -3.7100464e-02
 -2.2129310e-02
  8.5872456e-02
  2.0969978e-02
  4.1014008e-02
  3.8192514e-02
  5.0237890e-02
 -1.6042338e-03
 -2.1404973e-01
  1.9345443e+00
  2.2222141e-02
  3.2272458e-03
 -2.2942707e-01
 -6.6243216e-02
 -1.8927936e-02
  2.6695568e-02
 -1.2644564e-01
 -7.4453756e-02
  1.0784653e-01
  1.6330188e-02
  7.9322299e-03
 -1.4692305e-02
  5.5001077e-04
 -2.0841489e-02
  6.7745060e-02
  3.4553237e-02
  1.7589203e-01
 -9.1352789e-03
 -1.2771540e-02
  2.0468008e-02
  7.5589297e-03
  2.3789106e-02
  3.0217990e-02
 -6.6542089e-02
  6.1893489e-02
 -2.4318168e-02
  4.0729582e-02
  4.6706989e-02
  7.5449064e-02
 -2.2038776e-02
 -4.4395987e-02
 -1.1613968e-01
 -1.3559270e-03
 -1.0954810e-01
  1.1607090e+00
 -1.1080075e-01
  4.2766843e-02
 -6.0148948e-01
 -6.2194113e-02
  3.0491333e-02
 -8.6239852e-02
 -1.5442522e-02
 -4.3150298e-02
 -7.4319132e-02
 -5.9671327e-02
 -6.9900140e-02
  1.1968401e-01
  1.3511503e-02
 -4.4658147e-02
 -1.4510674e-02
  1.6608030e-02
 -4.6489700e-03
  1.0216101e-01
 -1.2823142e-02
 -5.4324642e-02
 -2.8377809e-02
  3.0979242e-03
  4.1628886e-02
 -6.9917619e-02
 -1.7289318e-01
 -9.7569134e-03
  5.1986765e-02
 -3.0270483e-02
 -3.5839237e-02
 -1.5907679e-02
 -3.4333996e-02
  1.3806692e-02
 -7.3413804e-02
 -9.6540838e-02
  1.2739165e+00
 -1.8233028e-01
  7.7185817e-03
 -7.0459229e-01
  6.4206086e-02
  1.7943393e-02
  5.2467743e-03
 -5.4069632e-03
  4.4461627e-02
  6.7549939e-03
 -2.2597859e-02
 -6.1073679e-02
  5.2280568e-02
 -8.8012286e-02
  4.2379376e-02
  2.3679353e-02
  1.5714290e-02
 -4.0543368e-03
 -2.0376665e-03
  1.1220223e-01
 -1.8363519e-02
 -2.6868116e-02
 -8.8697448e-03
 -1.1031143e-01
 -2.4412218e-02
  1.2489471e-01
 -4.2057328e-02
 -1.4508149e-01
 -3.4009032e-02
  2.5207165e-03
 -2.4533544e-03
 -6.4242892e-02
 -1.5711378e-01
 -5.8356117e-02
 -2.1116190e+00
  2.4928300e+00
 -1.7695417e+00
  2.3534884e+00
 -2.4125013e+00
 -2.1954036e+00
  1.9411721e+00
  1.1247727e-01
 -1.8361655e+00
 -3.6889203e+00
  2.3177779e+00
  2.1835301e+00
  2.1616886e+00
  2.0506091e+00
  2.0716238e+00
  2.3579185e+00
 -2.4350054e+00
 -1.7418591e+00
 -2.0847721e+00
 -2.2351220e+00
 -1.8780439e+00
 -2.2420447e+00
  2.1166675e+00
  2.2210863e+00
 -1.9462639e+00
 -1.2632103e+00
 -3.2565913e+00
 -2.2669041e+00
 -1.8571726e+00
 -1.2531649e+00
  2.6602149e+00
  3.6008861e+00
 -2.3645959e+00
  1.6703020e+00
  2.3349023e+00
 -2.2813890e+00
  2.1815114e+00
 -2.6859031e+00
 -2.1547174e+00
  2.2454736e+00
 -1.7210180e+00
 -5.8063370e-01
  2.4211724e+00
 -2.2779520e+00
  2.1553516e+00
 -1.9785219e+00
  2.4784076e+00
 -2.2758734e+00
  1.9966085e+00
  2.2444117e+00
 -2.3783529e+00
  2.2121561e+00
 -9.9568166e-02
 -1.1771804e+00
 -2.4367130e+00
  2.4558570e+00
 -2.0325291e+00
  1.8891549e+00
  2.4975052e+00
  2.2036040e+00
 -3.6402841e+00
  3.3757882e+00
 -9.0603405e-01
  3.1552916e+00
 -2.0846274e+00
 -7.6070733e+00
  2.0613756e+00
 -2.1543618e-01
 -4.1766759e-02
 -3.2741730e+00
  3.0492380e+00
  1.3115790e+00
  4.4673824e+00
  1.7410511e+00
  2.5904331e+00
  4.5859613e+00
 -4.8152561e+00
 -1.7131441e+00
 -2.3130529e+00
 -3.0775764e+00
 -2.5007656e+00
 -3.6757770e+00
  2.8902359e+00
  2.2262304e+00
 -1.1633561e+00
 -1.5295116e+00
 -5.9387856e+00
 -3.1006436e+00
 -2.1391294e+00
 -5.4834633e+00
  4.0755405e+00
  1.8096178e+00
 -3.3621953e+00
  2.1256206e+00
  5.1866741e+00
 -2.2766387e+00
  1.8715456e+00
 -8.4850359e+00
 -2.3957064e+00
  3.2417510e+00
 -9.7302991e-01
 -4.7259971e-01
  8.0383625e+00
 -5.4876003e+00
  3.6108806e+00
 -2.4130812e+00
  2.8864586e+00
 -3.8027971e+00
  1.2788265e+00
  2.6102290e+00
 -3.3580749e+00
  3.2520862e+00
  2.0693351e-01
  2.3578785e-01
 -3.7901015e+00
  8.4859133e+00
 -2.3507836e+00
  3.6260343e+00
  4.1167846e+00
  3.6192970e+00
  1.5881152e+00
 -1.6398101e-01
 -5.5878574e-01
 -2.0995699e-01
  2.5375748e-01
  2.9714713e-01
  2.8379061e-03
  5.2593793e-03
 -3.3358358e-02
  1.3602066e-01
 -7.3180407e-02
  7.2845198e-02
 -7.9929128e-02
 -1.9741238e+00
 -7.9400383e-02
 -1.2558453e-01
  4.1381806e-02
  1.4332031e-02
 -6.8308175e-02
 -2.0841675e-01
  4.0825862e-02
 -6.1381347e-02
  7.9525687e-02
  7.6962158e-02
  1.7251204e-01
 -5.4349985e-02
 -2.8013855e-02
 -3.7090711e-02
  1.2414013e-02
  1.3830506e-02
  8.1666715e-02
  1.0780173e-01
  4.3538380e-02
 -3.3311510e-01
 -4.4160046e-02
  1.8356915e+00
  1.0424716e-01
 -6.3295972e-01
 -1.0694839e-01
  4.0998259e-01
  1.3311175e-01
 -7.5694568e-02
  3.3233557e-02
  1.0550576e-01
 -2.1532051e-01
 -1.3160205e-02
 -1.2006736e-01
  8.4659411e-03
 -7.4738003e-02
  7.1134232e-02
  7.4309395e-03
  2.8164458e-01
  2.4577368e-02
  8.9704931e-02
 -5.6727149e-02
 -2.5899464e-02
 -2.2377342e-02
 -1.0202631e-01
 -1.1508718e-01
 -2.3242534e-04
 -6.4986770e-04
 -2.9159490e-02
 -4.0648893e-01
 -1.5436150e-01
  2.0157026e-01
 -3.8235307e-02
  6.9347590e-02
 -1.3313033e-02
  9.5006540e-02
 -9.6849456e-02
  2.1427977e+00
 -1.6519988e-01
 -2.0687670e-01
  7.5872742e-02
  1.5310787e-02
  2.0851089e-02
 -4.2504583e-02
 -1.1791295e-01
 -4.3313820e-02
  2.8197568e-02
 -9.7364753e-02
 -1.0111069e-01
  6.7418423e-03
 -2.1215167e-02
  1.7636513e-02
  4.9525876e-02
 -1.7931743e-02
 -4.1019474e-03
  7.1674496e-02
 -2.2906888e-02
 -1.1274203e-01
 -1.1274456e-01
  8.2065664e-02
  1.5854846e-01
 -4.2022727e-02
 -1.0537197e-01
  2.4983112e-02
 -1.2845065e-01
  2.1251141e-01
 -5.1583827e-02
  6.7672342e-02
 -2.1460593e-02
  4.4437598e-02
 -4.4113804e-02
  2.9049266e-02
 -1.7798716e+00
 -5.9308761e-01
  1.7686950e-02
 -2.2421834e+00
 -3.7343478e-01
  7.9536676e-01
  2.4028466e+00
  1.1496611e+00
  8.0423139e-02
  3.3866854e+00
 -1.4281242e-01
  2.8298130e+00
 -1.2599605e+00
  1.7678466e+00
 -2.8487623e-01
  1.0879875e+00
 -1.5575976e+00
  2.5917237e+00
  1.6766832e+00
  9.3666422e-01
  7.5972605e-01
  5.6246167e-01
  1.3058345e+00
  4.9883312e-01
  3.1558260e-01
 -1.2879470e-01
  3.4517946e-03
 -6.7183211e-02
 -1.5421344e-01
 -7.3341265e-02
 -4.7916945e-02
 -1.4540215e+00
 -4.1705351e-02
 -3.8752150e-02
 -3.1544459e-01
 -1.3364271e+00
  5.9189875e-02
  2.4381170e-01
  2.8694179e-02
 -5.8335626e-01
 -1.1207218e-01
  2.2813886e-02
 -3.9787881e-02
 -4.7569487e-02
  2.0312448e-01
 -5.7585485e-02
 -1.4171593e-02
  1.3772760e-01
  4.5189720e-02
  4.0856980e-02
  1.0649635e-01
 -8.4505998e-02
 -4.1023590e-02
  1.8120101e-02
 -2.4251675e-02
 -2.8679958e-02
  6.3126117e-02
  6.7471676e-02
  3.6414295e-02
 -5.8754187e-02
 -1.2809521e-01
  2.1166697e-01
  4.0213682e-02
 -5.6210086e-03
  1.6292978e-02
 -1.0564230e-01
 -4.1535683e-02
  6.0398676e-03
  7.9897288e-03
 -1.4427394e-01
  1.6971318e+00
 -8.7390346e-03
 -1.4327747e-01
 -4.3966031e-01
  1.4983334e-01
 -9.3880013e-02
 -1.2201495e-01
 -2.3035543e-01
 -5.6124184e-02
 -1.0051885e-01
  5.3536598e-02
 -4.6788510e-02
  8.2165159e-02
 -2.9177267e-02
  2.1157336e-01
 -3.9547231e-02
  2.0079413e-02
  1.2077929e-02
 -4.6036760e-03
 -1.3041565e-01
 -9.7583808e-02
 -1.0985161e-01
 -2.6062345e-02
 -4.7334274e-03
  1.6080160e-02
  1.3467079e-02
  7.8364812e-02
 -4.3648094e-02
  9.5052555e-02
 -3.1718533e-02
  1.0994299e-01
  3.4498435e-02
  5.1548168e-02
  5.2336883e-02
 -3.3541348e-02
  1.7044712e+00
 -2.3044201e-02
 -3.3703706e-01
 -3.1181782e-01
  4.2480472e-01
 -1.6294274e-02
  1.5871322e-02
  2.8095990e-03
 -1.3817240e-01
  1.4150819e-01
  4.0034018e-04
 -5.9232607e-02
  5.7031978e-02
 -4.9983971e-03
 -9.1082111e-02
  8.7824784e-02
  7.9114281e-02
 -9.1076076e-02
  2.5107162e-02
  8.9975357e-02
  2.9240677e-01
  6.5991685e-02
  6.5812215e-02
  5.4179933e-02
 -1.7280324e-01
 -1.3565783e-01
 -6.8775922e-02
  1.1073723e-01
 -3.5013814e-02
 -7.0941485e-02
 -1.0820813e-02
 -3.9929095e-01
 -7.6704018e-02
 -2.2807534e-01
 -6.5994866e-02
  1.0241703e+00
 -8.7948523e-02
 -1.0483436e-01
  1.2607384e-02
  3.3044180e-01
  6.5763652e-02
  1.2215003e-01
 -3.9685838e-02
 -3.1507026e-02
 -1.0160150e-01
  1.7146809e-01
  5.8451533e-02
 -2.9559599e-02
  3.4231029e-02
  1.1610354e-01
 -4.5727424e-02
  1.2129798e-01
  9.1112144e-02
  3.6557671e-01
 -2.6918994e-02
 -5.7528041e-02
  1.4107683e-01
 -1.1894078e-01
  9.2038758e-02
  3.1609742e-03
 -2.0908196e-02
  1.4203328e-01
 -4.3928046e-02
 -1.6134077e-01
 -2.7134322e-02
 -4.9761742e-01
 -1.3066685e-02
 -5.9238434e-02
 -1.8967744e-02
  1.6411604e-02
  8.3215356e-01
 -6.9297743e-01
  3.9167249e+00
 -8.5701936e-01
  3.9159632e-01
 -7.8882217e-02
 -2.8872925e-01
 -7.7818036e-02
  3.2287203e-02
 -7.7085183e-03
  5.4611939e-01
  7.8732468e-04
 -4.7215629e-02
 -1.2875115e-02
  1.0807978e-01
  3.5856377e-02
  5.3169698e-02
 -8.8373196e-01
 -3.4603736e-01
 -1.9712412e-01
 -1.7259185e-01
 -2.2997743e-02
 -4.4321686e-01
 -5.2078079e-02
  6.7997314e-02
  5.2251987e-02
  7.5885924e-03
 -1.1736491e-02
 -8.8687479e-02
 -4.5446246e-03
  2.3453441e-02
 -3.0878551e-02
 -4.4975370e-02
  3.9647508e-02
  8.8037744e-02
  1.1009343e+00
 -1.6641159e-01
 -3.6543119e-01
 -3.7052870e-02
  4.0230167e-01
 -2.2219869e-03
 -2.9002553e-02
 -9.6227080e-02
 -2.4465054e-02
 -5.1515397e-02
  8.5210957e-02
 -1.7841958e-02
  2.9650995e-01
 -3.5628804e-03
 -1.7807138e-01
 -1.5949443e-02
  7.0348077e-02
 -8.1214376e-02
  6.5553546e-02
 -2.1990230e-02
 -2.7755421e-02
  1.2402178e-01
  3.3535419e-03
  2.7499054e-02
  2.2139846e-01
  1.0338706e-01
 -2.9918684e-02
  6.4775079e-02
  6.3842319e-02
 -3.6414690e-02
 -7.6932591e-01
  8.6266976e-03
 -1.1140957e-01
 -4.3377563e-02
 -8.2851447e-02
 -1.1493222e+00
  5.0478030e-02
  2.5985408e-01
  6.4202346e-02
 -4.1316432e-01
 -4.1070826e-02
  2.1669629e+00
 -2.8237507e-03
 -2.6052091e-02
 -1.6155575e-01
 -1.3601683e-01
 -3.4186498e-03
 -1.0944040e-02
  2.3410451e-01
 -8.1486665e-02
 -1.0701772e-01
 -5.3044967e-02
  1.8449938e-02
 -1.2114602e-02
 -2.4915563e-02
 -1.9325435e-01
  6.6498980e-02
  2.7733629e-03
  3.4843951e-02
 -3.6671624e-01
  5.4687202e-02
 -4.5488860e-02
 -1.5366493e-01
  1.5046099e-01
  1.0089382e-01
  1.4124645e-01
 -6.8182766e-02
  2.1310851e-02
 -2.5921844e-02
 -3.9269678e-02
 -1.1294873e+00
  1.1543596e+00
 -9.3773031e-01
  7.7721837e-04
  2.7762887e+00
 -3.0296076e-02
 -2.2766358e-01
  8.6025834e-02
 -1.2003357e-02
 -3.9662954e-01
  1.1400838e-01
 -9.6032634e-02
  1.6822872e-01
  8.5313551e-02
 -3.5035554e-02
 -8.0194585e-02
 -1.5142682e-02
  3.1361285e-01
 -1.2808235e+00
  7.1245939e-02
  1.0886686e-01
 -1.4283517e-01
  2.6680648e-01
  6.8093479e-02
  4.4058453e-02
 -5.8684971e-02
  3.7941057e-02
 -4.6838298e-02
  4.2179483e-01
 -1.1317296e-01
 -5.2319065e-02
 -1.1476418e-01
 -9.8421484e-02
 -1.1485968e-02
 -3.9812285e-02
  9.7996914e-01
 -7.5584248e-02
 -8.2545899e-02
 -1.3647874e-01
  3.7001485e-01
  2.5394937e-02
 -7.9542920e-02
  3.5247110e-02
  1.0443495e-01
 -1.7413860e-02
  3.6637306e-02
 -9.4041795e-02
  5.9228491e-02
 -2.3166619e-01
 -8.3457083e-03
 -3.5085812e-02
 -1.1008389e-01
 -2.2728628e-02
  2.3235576e-01
 -3.6599275e-02
  6.6676505e-02
  7.8527868e-02
  3.5580035e-02
  9.2900611e-02
  3.3036955e-02
 -3.3781468e-03
  6.8910114e-02
  1.4773204e-02
  8.9732468e-02
 -1.5296113e-02
 -3.9573107e-02
  8.6671719e-03
 -1.1746629e-01
  1.7665643e-02
 -8.8909961e-02
  1.5731617e+00
 -1.1339658e-01
 -5.3467095e-01
 -4.6200562e-01
  3.8756561e-01
  7.8335330e-02
  8.1635781e-02
 -1.5585423e-02
 -1.8323904e-02
  1.8059395e-01
  1.8488612e-02
 -6.2482644e-02
  5.5481624e-02
  1.9439586e-02
 -4.1608423e-02
 -1.1549577e-02
  2.0079701e-01
 -7.1927808e-02
 -7.7598825e-02
 -7.0797616e-01
 -1.1930740e-02
  6.4923622e-02
 -5.1504921e-02
 -1.9443745e-02
 -6.4399123e-02
 -7.1510249e-03
  1.2909758e-01
  5.8051492e-03
 -3.5602041e-02
  2.7662065e-02
  1.8316887e-01
  7.3510088e-02
  2.6864182e-02
 -5.8185733e-03
 -8.7245852e-02
  1.7499967e+00
 -5.3436183e-03
 -3.2219699e-01
 -4.9724597e-02
  5.4652965e-01
 -3.4405023e-02
 -3.6583126e-02
 -8.3949059e-02
 -4.6923425e-02
 -1.5234577e-02
 -1.4857815e-01
 -4.6948362e-03
 -1.3052693e-01
 -1.7824757e-01
 -1.0463472e-01
 -4.3461237e-02
  3.1112317e-02
 -4.5633040e-02
  1.1208657e-02
  2.5251698e-01
  7.9418339e-02
  1.3695558e-03
  1.3554815e-02
  9.7330436e-02
  5.1382497e-02
 -2.0281732e-01
  1.4988941e-01
 -7.4971229e-02
 -1.0054585e-01
 -2.5289181e-01
  2.1102722e-01
 -9.3064867e-02
 -7.4139655e-02
 -1.2145627e-02
 -1.2649471e-01
  1.2873423e+00
  3.6060713e-02
 -6.0407310e-03
 -3.7153146e-01
  8.5449409e-01
 -6.4142600e-02
 -1.5442592e-02
  4.3702882e-02
  3.1906456e-01
  2.9563833e-02
 -5.4643277e-02
 -8.3704814e-02
  2.3384234e-01
 -2.8282201e-02
  3.3108022e-03
  1.2683551e-01
  5.0827749e-02
  5.7413443e-03
 -1.2143320e-01
 -1.3078986e-03
  3.0503517e-02
 -2.5289401e-01
  2.5786880e-01
  2.4022084e-02
 -7.3150508e-03
  1.0132349e-01
 -3.1555992e-02
  5.1637493e-02
 -8.2809016e-02
  1.8412406e-02
 -1.5690628e-02
 -3.4634238e-03
  2.6190432e-02
 -6.0898677e-02
 -1.2798080e-01
 -2.1643245e+00
  6.7588501e-02
  4.3758056e-01
  2.9577622e-01
 -3.8418400e-01
  9.7977206e-02
  1.5096313e-01
  1.5000305e-01
  1.9214426e-01
  1.6512295e-02
 -6.6283971e-02
  2.1682125e-01
 -5.0377879e-02
  2.0525323e-01
 -1.3980311e-01
 -1.2228476e-01
 -9.8189749e-02
 -1.1652862e-02
 -1.1612903e-02
 -3.2279268e-02
  2.2703538e-02
 -3.9858263e-02
  1.0545582e-01
 -1.1993970e-01
  5.7861406e-02
  1.7924727e-01
  1.3891034e-01
  1.3304024e-02
 -3.1751685e-02
 -1.1764876e-01
  5.3081308e-03
 -1.5286812e-01
 -6.7437507e-02
  9.8199144e-02
 -5.7250544e-02
 -1.7000657e+00
 -1.9017410e-01
  2.3447789e-01
  1.9928437e-02
 -6.4956188e-01
  1.6794080e-02
 -1.0175783e-02
 -2.0510226e-01
 -1.6363360e-01
  3.0672075e-02
  2.1865247e-02
  3.2175273e-02
 -3.0749448e-02
 -4.8544016e-02
  8.5150346e-02
  1.2945108e-02
  1.1733391e-02
 -1.5995073e-01
 -5.4374341e-02
 -2.1303488e-02
  1.6674817e-01
  7.0677966e-02
  1.7259935e-01
  7.2180942e-02
  1.2019637e-02
 -7.7957049e-02
  2.4244112e-01
 -1.5110980e-01
  2.3088710e-02
 -4.5288309e-02
  3.7020635e-02
 -7.1087882e-02
 -1.1574984e-01
  2.3467632e-02
  1.1449969e-02
 -9.2561650e-01
  6.3634351e-02
  6.3239958e-04
  6.3739821e-02
 -3.7132290e-01
 -6.4585149e-02
  4.0921979e-02
 -1.0001407e-02
  4.1266177e-02
 -1.5990022e-01
  2.7931539e-02
  3.3332059e-01
 -1.3829590e-01
 -1.4924729e-02
 -3.8978022e-01
 -3.6774639e-02
 -1.6954057e-03
  7.4129991e-02
  1.1463564e-01
  1.3987264e-01
 -7.7426083e-02
  6.6995388e-03
 -4.1312270e-02
 -2.9849980e-02
 -2.6403680e-01
  2.1443469e-03
 -2.1905209e-01
 -4.4074733e-02
  1.1073662e-01
  3.3673592e-02
  7.0958212e-02
  4.8340820e-03
  2.4144155e-01
 -5.9589639e-02
 -1.6555058e-02
  2.4451013e+00
 -1.5114008e-01
 -2.9906577e-01
  7.4214645e-02
  4.4624862e-01
  7.6216757e-02
  5.0347645e-02
  5.1721543e-02
 -4.9550924e-02
  5.5108931e-02
  8.4446497e-02
  9.0351719e-03
  3.2253444e-01
  3.9435346e-02
  5.6487985e-02
  3.3173241e-02
 -1.4134844e-01
 -8.0657387e-03
  2.0372579e-01
 -6.7661912e-03
 -1.0295413e-01
 -8.5835299e-03
  1.9274347e-02
 -1.5562949e-02
 -1.3634960e-01
 -1.8085565e-01
  9.3776852e-02
  1.0149068e-02
 -4.0609222e-02
 -1.5826783e-01
  3.9515331e-02
 -1.8064719e-01
  3.3396695e-02
  2.9303795e-02
  5.1333308e-02
  1.5311534e+00
  9.5924204e-03
 -6.2634099e-01
 -4.2353040e-01
  2.1595514e-01
  2.1431340e-02
  1.1667296e-01
  9.8840013e-02
  6.5611631e-02
 -4.9268417e-02
 -1.5994320e+00
 -4.6171839e-03
  1.8793237e-01
 -1.5579626e-02
  1.4058327e-02
  1.2019453e-01
  7.9468995e-02
 -5.3644408e-03
  4.3112457e-02
  8.9036345e-02
  1.3325730e-01
 -3.6292318e-01
 -2.5925738e-01
  2.0527834e-02
 -2.4599428e-01
  4.7458768e-02
 -5.8722209e-02
  2.2532265e-03
  4.2456143e-02
  1.5477343e-01
  6.8472765e-02
  1.4352655e-01
 -6.7938395e-02
  8.2217529e-02
  6.3389647e-03
 -1.2879087e+00
  1.0120262e-01
  4.2561866e-02
 -5.0270177e-02
 -6.1559319e-01
 -1.4483414e-02
  1.0867074e-01
  1.8108281e-01
  1.2994312e-01
 -7.5362945e-01
  2.2797491e-02
 -4.1288918e-01
  2.0989628e-01
 -8.0222245e-03
  1.4498367e-02
  6.3104227e-02
  1.6955560e-01
 -6.3724585e-02
  7.8373730e-02
 -6.3938126e-02
 -7.3574625e-02
 -1.0553126e-01
 -9.4991855e-02
 -1.6987525e-02
  4.1491278e-02
  2.3711447e-02
  1.9349666e-01
  2.4562880e-01
 -3.2196425e-02
  4.2850912e-02
 -6.4664908e-02
  3.7353002e-02
 -7.6884381e-02
  1.1070221e-01
 -1.2772712e-01
  1.6803613e+00
  5.0190263e-03
 -2.1198370e-01
 -3.6403108e-02
  5.3603494e-01
 -6.1963361e-02
 -7.3231938e-03
  2.8913230e-01
  1.3324471e-01
 -8.9523345e-02
  1.2438279e-01
  5.4437045e-02
  6.1997358e-02
 -9.1901921e-02
 -4.6359070e-02
 -1.5640587e-01
 -5.6784239e-02
  5.1534854e-02
 -8.8222846e-02
  3.5627525e-02
 -3.8937233e-02
  1.0279678e-02
 -6.0113417e-03
 -6.7013353e-02
 -1.9336577e-01
  6.7950346e-02
 -3.4278396e-01
 -2.5541341e-02
  2.6700061e-02
 -3.9801463e-03
 -5.2125532e-02
  5.7963883e-03
 -6.4255935e-01
  8.8276546e-03
 -7.7542248e-03
 -1.7896399e+00
 -1.4672297e-01
  2.2350246e-01
  2.0005492e-02
 -5.3208983e-01
 -1.8599755e-01
 -1.8527050e-01
  3.4551851e-02
 -2.1668102e-01
 -8.8454755e-03
  4.9348321e-02
 -2.1221422e-02
  8.5887752e-02
 -3.0713566e-03
 -5.8957338e-02
 -5.5880707e-02
 -4.2363289e-03
 -2.6665948e-02
 -1.6286169e-01
 -6.5015763e-02
 -1.9415973e-01
 -6.3047055e-03
  5.9908312e-02
  1.2142392e-01
 -1.4224984e-01
  3.3684108e-02
 -9.9593148e-02
 -5.4751053e-03
  1.7481671e-01
  4.3344032e-02
  5.9045903e-02
 -4.6966184e-02
 -4.0240880e-02
  2.0188540e-02
 -2.1769548e-02
  1.2421263e+00
 -4.8293870e-02
 -9.7139284e-02
 -6.0068797e-02
  4.0440559e-01
 -5.1605418e-02
 -1.0109895e-01
 -3.4457511e-01
 -2.2408031e-02
 -7.4951105e-02
 -1.5579882e-01
  6.0043581e-02
  4.3809548e-02
  3.1409372e-02
 -4.0359382e-02
  8.2769185e-02
 -9.0308174e-02
  1.3955940e-02
  1.1410762e-01
 -1.9093040e-02
 -2.8832730e-02
 -1.8746160e-02
  2.2113374e-02
 -2.9306542e-02
  1.2295270e-02
  8.7829009e-02
  1.0731679e-01
  7.1317874e-02
  5.7798862e-02
 -1.4035392e-01
  5.9807301e-02
 -1.3754787e-02
  1.3146825e-02
 -3.7798765e-03
 -3.7977811e-02
 -1.1916699e+00
  6.4697981e-02
  2.5327390e-01
  3.2756075e-01
 -1.0450734e+00
 -3.6982551e-02
 -1.1404968e-01
 -5.1769256e-03
  2.4428733e-03
  1.1599261e-01
  1.7846247e-02
  9.6883057e-03
 -9.8788694e-02
  2.4526153e-02
 -3.4003545e-02
  9.7167976e-02
 -1.0124033e-02
 -1.8040132e-02
 -8.8371048e-03
  5.6688033e-02
 -1.1128946e-01
  1.0431128e-01
 -6.5229870e-02
 -7.5669065e-02
  1.0087159e-02
 -6.6519752e-03
 -9.0599678e-02
 -1.3283181e-01
  2.0899270e-01
 -2.6506913e-01
  5.4089189e-02
 -2.8402597e-01
  3.6975823e-02
  2.5958512e-02
  2.3332789e+00
 -1.6633983e+00
  2.7167255e-01
  2.3432745e-02
 -1.8188881e-02
 -7.6680279e-01
 -1.8508874e-02
  2.4716659e-02
 -6.8131894e-02
  1.3881317e-01
  4.8912853e-02
 -7.6520238e-03
 -5.8646921e-02
  1.4564708e-01
  4.5718778e-02
 -3.0636566e-02
  3.9890204e-02
 -2.7145714e-02
 -8.3888814e-02
  3.8684580e-02
  1.7712863e-01
 -2.9751837e-02
 -4.6899401e-02
  6.1131470e-02
 -1.5082203e-01
  1.2779419e-01
  6.5361179e-02
  2.4272231e-02
 -4.1465439e-02
  8.9541581e-03
  2.9629188e-02
 -9.7856931e-02
 -4.9097422e-03
 -1.1284030e-01
 -3.2612830e-02
  3.8922711e-03
 -1.3676903e+00
  5.1631380e-02
  3.9207280e-01
  1.9063413e-02
 -2.7505866e-01
  7.1070977e-02
  3.4842554e-02
 -2.2440087e-02
 -4.1297133e-04
  5.4195230e-03
 -9.1480166e-02
 -3.5618208e-03
 -8.8871635e-02
  9.3357041e-03
 -5.9539694e-02
  4.8702415e-02
  2.8719723e-02
  4.7341704e-02
 -3.6201328e-02
  8.1883147e-02
 -2.8462398e-03
  1.4246105e-02
  3.3189390e-02
  7.4533687e-04
 -2.5408451e-02
 -1.1408375e-01
  1.2580878e-01
 -1.1641035e-03
  2.7853939e-01
 -3.7014484e-02
 -2.1362053e-02
 -1.1998191e-02
 -6.1844452e-03
  3.1857792e-02
 -5.2422874e-02
 -1.1085575e+00
  1.5641008e-01
  1.8498112e-01
  1.7662676e-01
 -3.0269238e-01
  2.4467129e-02
  1.5012306e-01
 -1.6988259e-02
 -5.3302716e-02
  2.2504513e-01
 -1.0705458e-01
  4.4266306e-02
 -2.7522750e-03
 -2.8859612e-02
  7.6829061e-02
 -1.0064822e-02
 -9.8896630e-02
  1.1482533e-02
  1.1217725e-02
 -2.5612360e-01
 -2.0740088e-02
  7.0610315e-02
  2.9323585e-02
 -2.8036458e-02
 -6.7938887e-02
 -8.4126834e-03
  6.7208465e-03
 -3.2605950e-02
  1.0159136e-01
  2.0412453e-01
 -5.4045949e-02
  9.5736288e-02
  4.9009304e-03
 -2.1199244e-03
  1.1098351e-01
  1.2608910e+00
 -3.0878335e-01
 -5.6167319e-02
 -1.4662048e+00
  7.8234106e-01
  7.2069452e-03
  6.0057424e-02
 -7.6257007e-04
 -6.8068422e-02
  6.7141652e-02
 -7.8783870e-02
  3.2431972e-01
 -3.8039200e-02
  4.8886690e-02
 -3.4930173e-02
 -2.1499025e-02
 -2.7457053e-02
  1.9942647e-02
 -2.5494019e-02
 -1.3720806e-01
  2.3793051e-02
  7.9101525e-02
 -1.0362743e-01
 -1.1042391e-01
  3.4605584e-01
  2.5096115e-02
 -5.8122236e-02
  8.7624498e-02
 -1.1665217e-01
  1.3047643e-01
  9.6902363e-02
  2.7948648e-02
 -1.3213673e-01
  2.5685374e-02
  1.4825754e+00
  1.0604436e+00
 -2.1143591e-01
 -4.8109987e-01
  1.1031996e-01
  1.0185813e+00
 -6.4377531e-02
  1.7132286e-02
 -9.4651394e-02
 -1.1221707e-02
 -7.7675083e-03
 -2.6061712e-02
 -1.5032442e-03
 -2.5770320e-02
  6.0628705e-02
 -3.3057522e-02
  4.7520380e-03
 -1.9556433e-02
  5.6020882e-02
 -2.7328980e-01
  5.7527404e-02
 -6.7497179e-02
 -3.5698265e-02
 -2.9859203e-01
  9.3675200e-03
  6.2808178e-02
 -2.0929907e-01
 -1.4476459e-01
  9.7912794e-04
  1.8718977e-01
 -1.5686061e-04
 -1.4182061e-03
 -5.7331111e-02
 -6.6054001e-02
  2.5195494e-02
  5.1742874e-02
 -1.5754327e+00
  1.2476366e-01
  3.7680757e-01
  2.6800629e-01
 -9.9469602e-01
  6.1292809e-02
  2.5162304e-02
  1.1721298e-01
 -3.0106506e-01
  1.0031047e-01
  1.1033405e-01
  1.3330892e-01
 -1.1060257e-01
  1.1025158e-01
  5.5477124e-02
  1.2680213e-01
  1.9421244e-02
  4.5247871e-02
 -3.9674371e-02
 -3.5467479e-01
  1.0632303e-01
 -1.1784007e-01
  3.0108085e-02
  1.0737268e-01
  4.7833186e-02
 -6.7066313e-03
  5.4097489e-02
  4.4321218e-03
 -6.2930271e-02
 -9.8017290e-02
 -1.3963860e-01
 -1.3686515e-01
 -4.1182566e-02
 -1.2153802e-02
  3.4603611e-02
  1.1203554e+00
 -6.8576956e-01
 -2.2257841e+00
  3.2373395e+00
 -1.4545728e+00
  1.1873666e-01
  1.1538643e+00
 -7.3870510e-02
 -2.7857743e-02
  1.1327655e-02
 -6.4442167e-03
 -3.5080113e-02
  1.1595948e-01
  6.4780667e-02
  1.6080553e-02
  2.2815065e-01
 -6.2734775e-02
 -2.8701819e-02
 -5.4714050e-02
 -9.0138270e-03
  1.1275665e-02
 -1.2694813e-02
 -4.4474518e-03
  1.5320183e-01
  3.1434793e-02
  2.0558146e-01
  1.1104246e-01
 -3.8483217e-02
 -3.8695402e-02
  3.4011047e-02
 -2.6204357e-01
 -2.8691041e-01
  8.3109587e-02
  4.8624065e-02
 -8.3877914e-02
  1.8956764e-01
  3.3553705e+00
 -6.0410285e-01
 -1.8628621e+00
 -8.3991185e-02
  5.2594906e-01
  5.8373851e-01
  5.0000209e-01
  2.3405805e+00
 -1.1573586e+00
  6.5339841e-02
  7.7138871e-01
  1.9649055e+00
  1.1540990e+00
 -6.5795076e-01
 -8.0817711e-01
  1.4795247e-01
  2.8248021e-01
  1.7933260e+00
  1.0768397e+00
  3.8334006e-01
 -2.3102088e-01
  1.2609552e+00
  5.0793660e-01
  1.3314747e+00
 -6.6371322e-02
  1.7231309e-01
  9.8206019e-03
  1.2522508e-01
  2.5863251e-01
 -7.1089312e-02
 -2.0455457e-01
  7.7023238e-02
 -5.6233001e-03
 -1.4200759e-01
  2.6275930e+00
 -2.5354025e-01
 -6.5970719e-01
 -3.0888999e-01
  1.1525825e+00
 -1.4156284e-02
  2.9998492e-02
 -3.8257312e-02
  1.1861952e-02
  9.8600619e-02
  4.8981901e-02
  4.0458661e-02
 -1.9983087e-02
  9.1118686e-02
  2.4159634e-01
 -1.8733999e-01
 -5.2605020e-03
 -2.6355281e-02
 -1.2632987e-01
 -8.5225940e-01
 -6.9962785e-02
 -5.5004437e-02
 -7.1681418e-02
  3.2021210e-02
 -3.7482370e-02
  4.3885101e-02
 -8.6765531e-03
  4.4192038e-02
  5.7614304e-02
 -7.8020771e-03
  1.1777117e-02
 -2.2310354e-02
  2.4523750e-02
  3.2129916e-03
  4.0870339e-02
 -3.4176239e-01
  6.6483997e-02
 -2.3219448e-01
 -2.7529194e+00
  9.8577589e-01
  1.0620034e-01
 -6.0908318e+00
 -2.1107903e+00
 -7.1365035e-01
 -2.7929654e-02
  1.3926433e-01
 -1.3695526e-01
 -3.8944697e-01
 -1.2025700e+00
  3.7353623e-01
 -2.1325958e-01
  6.2992208e-02
 -1.2668973e+00
 -8.6712861e-01
 -1.0511569e+00
 -1.2875627e-02
 -1.9742988e-01
 -5.4316545e-01
 -4.8703044e-03
  6.3775405e-03
  7.2861224e-02
 -2.7469352e-01
 -2.2632843e-02
  1.5418480e-01
  5.2958939e-02
 -5.3129934e-02
  7.9644434e-02
 -1.0521668e-01
  2.2892643e-02
  6.9383897e-02
  1.9217498e+00
  3.7808113e-02
 -8.4177963e-02
 -3.1417590e-01
  1.2921931e-01
 -5.1317763e-02
  4.1474361e-02
  1.4112701e-02
 -7.1006171e-02
  1.7706309e-02
 -2.1813918e-02
 -1.4807353e-03
  1.9528614e-02
 -3.7222812e-03
 -6.0229577e-02
  6.9231294e-02
 -8.4422655e-02
  1.9503112e-01
  6.1591342e-02
  8.2252361e-02
 -5.0872777e-02
  9.7373929e-03
 -1.2037109e-02
  1.6646554e-01
 -3.2304283e-02
  7.2597958e-02
  5.2917250e-02
 -3.5340391e-02
  5.8547403e-03
  1.3015629e-01
  4.3020912e-02
 -7.5661279e-02
 -1.6011693e-02
 -1.1658701e-01
 -1.0110237e-02
 -1.9473391e+00
 -1.8425985e-01
  2.0970443e-01
  3.1507528e-01
 -1.0737880e-01
  4.1253023e-02
  1.6421916e-01
 -3.1870145e-02
  5.6861248e-02
  5.3730477e-03
 -2.5911137e-01
  2.0607090e-02
  5.2247610e-02
 -4.0617092e-03
  6.5085232e-02
  3.3299331e-02
  1.1029768e-01
 -5.2372999e-02
 -4.1932099e-02
  1.3090120e-01
  5.5514928e-03
  2.0420283e-02
  2.3299935e-01
 -2.9529620e-02
 -5.1924683e-02
 -6.2336322e-02
 -1.4691717e-02
 -8.7447360e-02
  3.1507460e-03
  2.1071531e-02
 -1.1827730e-02
 -1.3655730e-01
  1.6763952e-02
 -1.0129094e-01
 -1.6304520e-01
  5.4185104e-01
 -2.1362518e-01
 -1.4403722e+00
  3.1960523e-01
  1.9699845e+00
 -8.3381366e-03
 -1.4187869e-01
  2.7917882e-02
  1.1803821e-01
 -4.7998846e-02
  8.0320477e-02
  5.6730568e-02
  7.8121096e-02
 -2.0015020e-02
 -5.3263526e-02
 -1.1637681e-01
  5.8153637e-02
  1.5311699e-01
  1.4437718e-02
 -2.5648581e-02
 -2.5243061e-02
 -2.9738791e-02
  5.1120199e-02
  1.6563784e-02
 -1.0668887e-01
 -8.3613299e-02
  6.6367080e-03
  1.8495123e-01
 -9.5191956e-02
 -4.5534778e-01
  3.1195319e-01
 -1.8357458e-02
 -7.2296797e-03
  8.4092061e-04
  1.6414968e-02
 -1.1715446e+00
 -7.4891672e-02
 -1.6561199e-02
  3.1761932e-01
 -6.0301211e-02
 -4.0139686e-02
  1.1935008e-01
  1.5683928e-01
  2.6847145e-01
  2.3609739e-02
 -1.4540008e-01
  6.1749496e-02
 -4.8567832e-02
  2.6550414e-02
 -1.8811251e-01
 -4.1753459e-03
 -3.6372843e-03
  8.0838710e-02
 -6.0709892e-03
  2.2539626e-01
  6.1009262e-02
 -3.7498001e-02
  1.6181864e-02
  5.2923104e-03
 -7.7176616e-02
 -3.4133844e-02
  4.1611709e-02
 -2.5300844e-02
 -2.3171576e-03
  2.4661109e-02
 -1.3316120e-02
 -4.2205039e-02
  4.6237703e-02
 -2.6293975e-01
  4.9989945e-03
  1.6173340e+00
 -1.1287711e-01
 -7.0293374e-02
 -1.4650480e-01
  3.7553704e-01
 -2.4043467e-02
 -3.9030150e-02
 -7.0702493e-02
  1.8948591e-01
 -1.4257711e-01
  1.4004511e-01
 -3.1306393e-02
  3.0259369e-02
  1.6851893e-02
 -3.1518906e-01
  3.5318329e-03
  1.4573345e-01
  3.3804551e-02
  1.4837676e-01
  5.4465823e-02
  7.9876810e-02
  1.8089386e-02
 -2.5129741e-01
 -1.5535805e-01
 -1.7410066e-02
  1.2757279e-01
 -4.6763297e-02
 -2.8277773e-03
  7.0643775e-02
 -2.1207452e-02
  1.9043509e-02
  1.5992640e-02
 -4.2823918e-02
 -6.1343196e-03
  1.0205815e-02
  1.8636591e+00
 -9.4300665e-02
 -5.6783724e-01
 -5.8321238e-01
  6.8970293e-01
 -1.0403777e-02
 -1.0426678e-02
  3.1369593e-02
 -8.6121224e-02
 -9.6105253e-03
 -3.3924598e-02
 -8.1191370e-03
  2.4720598e-02
 -2.2770964e-02
  1.3237434e-02
  5.2249316e-02
  1.3628544e-01
 -1.0879580e-01
 -1.8061019e-03
 -7.2855599e-02
  1.4269888e-01
 -4.0967693e-03
 -4.8758481e-02
 -4.4983685e-02
  7.8649543e-02
  5.6343123e-02
  2.0724550e-01
 -4.0716971e-03
  4.2671364e-02
  1.5498055e-02
  1.2784737e-01
 -7.3711783e-02
 -2.2186253e-02
  2.2307249e-02
 -3.3881338e-03
 -2.0421264e+00
  4.6470329e-02
  6.8478525e-02
  2.7047852e-01
 -1.5356235e-03
  6.3326657e-02
 -3.6709670e-02
  2.1904748e-02
 -9.1157639e-03
  1.0047214e-01
 -6.2551289e-03
  3.1072935e-03
 -9.7582694e-03
  1.5464395e-01
 -2.1581112e-01
 -1.6748399e-01
  2.3054793e-02
  2.6594507e-02
 -1.2255179e-04
  2.7056325e-02
 -8.4162585e-02
 -1.7740186e-01
  2.2624099e-01
  7.3118262e-02
 -8.0158234e-02
 -1.2424533e-01
 -1.0624139e-01
 -1.0000924e-02
  6.9113253e-03
  4.6346538e-02
  1.6834860e-01
 -1.2081692e-03
 -2.6136188e-02
 -1.9145450e-01
 -2.8485310e-01
 -1.5910320e+00
  1.3537514e-01
  2.7375342e-02
  1.6226946e-01
 -5.4951584e-01
  5.5818424e-02
  5.8003582e-02
 -1.8673423e-01
 -9.5314197e-02
  5.4219589e-02
 -3.8130630e-02
  8.0083713e-02
 -1.6101521e-02
 -8.7455370e-02
 -9.7568828e-04
  1.1398324e-01
 -2.2973119e-01
  1.6819732e-01
  3.2139435e-02
 -1.5974188e-02
  1.9932094e-01
  1.4867562e-01
 -7.9138957e-02
 -1.1170348e-01
  1.1700402e-02
  6.3176458e-03
  1.7721545e-02
  8.6298540e-02
  1.1582980e-01
  1.1907355e-01
  5.9188348e-03
  5.9194434e-03
 -2.5442980e-02
 -5.2529529e-02
  1.1253424e-02
  2.4026744e+00
  1.6784382e-01
 -1.7731965e-01
 -2.9355261e-01
  4.1662779e-01
 -4.4725076e-03
 -3.5914108e-02
 -5.8867685e-02
 -2.1746588e+00
  2.8638296e-02
 -1.1732439e+00
  1.3849652e-01
  1.5695298e-01
 -2.4943175e-02
  9.0786070e-03
 -1.5149390e-02
  4.3181527e-02
 -6.9153301e-02
 -1.6449712e-01
 -2.6641708e-02
 -6.8119885e-03
 -4.6602387e-02
 -1.1917654e-01
 -4.8584267e-02
  7.5426348e-02
  5.9464842e-02
 -1.5065235e-02
 -6.8326175e-02
  1.5432064e-02
  6.6358142e-02
  1.1729008e-01
 -2.0820496e-03
 -1.4809550e-01
 -2.5670625e-02
  2.2106703e-01
 -1.7218245e+00
  1.9478644e-01
  2.6319134e-01
 -1.2213446e-02
 -2.9052198e-01
  2.0495596e+00
  2.1197352e-01
  1.9672010e-02
 -4.1723706e-02
  3.1215739e-02
  7.5227618e-02
  2.1094626e-02
  3.8652327e-02
  1.6164439e-02
 -2.4596112e-02
 -8.6174756e-02
 -1.9062921e-02
 -2.7453655e-02
 -2.8543210e-02
  3.9651277e+00
 -7.3631238e-03
 -2.4583463e-02
  4.4011980e-02
 -1.2750824e-01
  1.7704737e-01
  3.9266702e-02
 -3.8910691e-02
 -5.3349499e-02
 -1.7594616e+00
  1.0360684e-05
 -1.4110544e-01
 -1.5596431e-01
  2.4913368e-01
 -1.1289983e-01
  1.0464768e-01
  9.8885798e-01
  1.9966980e-02
 -2.3751551e-01
 -8.5294798e-02
  5.0770104e-01
  6.5507427e-02
 -9.6387779e-03
 -4.3613967e-03
 -2.5616135e-03
  4.9505726e-02
  6.9580309e-02
  1.2722542e-02
  2.4202912e-01
 -1.5725043e-02
  1.3193393e-01
  5.1996376e-02
 -2.6375443e-01
 -1.7986208e-01
  2.3452425e-01
 -2.5862327e-02
 -5.8990754e-02
 -3.2498498e-02
 -1.8279782e-01
  6.9299929e-02
  3.7211571e-02
 -4.7101535e-02
 -1.0219798e-01
 -5.2911039e-02
  9.1287202e-01
 -1.1019299e-04
 -6.2512971e-02
  1.0208523e-02
 -1.3342078e-01
 -4.3688323e-03
 -3.4453306e-02
  1.4152160e+00
 -4.1934486e-02
 -8.9734934e-02
  7.4168280e-02
  1.1024613e-01
  2.0422062e-02
  3.8769267e-02
  1.7113498e-01
  9.0694569e-02
 -8.0871426e-02
  3.0249860e-02
  9.7702727e-02
  1.8514447e-02
 -6.2361490e-02
  5.7131442e-04
  2.2249250e-03
 -1.9580156e-02
  6.6202588e-02
 -2.7938263e-02
 -1.1222375e-03
  1.7785364e-01
  1.3856022e-01
 -1.9174583e-02
  2.3614027e-01
  1.6785230e-02
 -8.4517926e-02
  9.2204735e-02
 -3.0711184e-03
 -5.7017539e-02
  4.4578429e-02
 -9.1936678e-02
  2.1431567e-02
 -2.0755338e-02
  8.0214918e-02
  8.8255212e-02
 -1.3841157e+00
  4.3176007e-03
  1.5742542e-01
  1.8346477e-01
 -7.5774616e-01
  3.3980008e-02
  6.6496983e-02
 -4.9249828e-01
  3.6855549e-02
  4.5554914e-02
  1.2163918e-01
 -2.4184173e-01
  1.4556041e-01
  1.3661075e-02
 -1.4896913e-02
 -2.7054632e-02
  3.6682136e-02
  2.1023214e-02
 -8.3211690e-02
  2.5056081e-02
 -1.3247041e-01
 -1.2580009e-01
 -6.7689821e-02
 -1.3500661e-01
  1.3639934e-02
  5.1823441e-02
  1.4487079e-01
 -6.9435023e-02
  1.1328550e-01
  7.2354883e-02
  1.2791094e-01
 -1.5572666e-01
 -6.2486939e-02
 -2.0685395e-02
 -5.0859101e-02
 -1.6719137e+00
  6.7811251e-02
  3.0907986e-01
  1.2269738e-01
 -5.1685047e-01
 -6.2419567e-02
  1.3390872e-01
 -1.0807132e-02
  2.7858153e-02
 -1.3006953e+00
  2.4843562e-02
 -4.1762683e-01
 -1.2240385e-01
  3.8110863e-03
 -8.5449398e-02
 -2.2196454e-01
  1.4890414e-01
 -8.4314741e-02
 -9.4118379e-02
 -1.0446467e-02
 -5.2959289e-02
  3.4131077e-01
  2.4111690e-02
 -1.4129042e-03
 -5.2102566e-02
 -1.1099662e-01
 -1.3179731e-02
  1.6997051e+00
 -1.9323617e-02
 -2.4159387e-02
  6.6985739e-03
 -7.4184135e-02
 -1.6904132e-01
  3.6903456e-02
  1.5492592e-02
  1.5967277e+00
 -1.3604245e-01
 -3.1403804e-01
 -2.2757101e-01
  1.8982977e-01
 -2.1989744e-02
 -4.4912737e-02
  8.6719513e-02
 -1.5823552e-02
  2.0874517e-01
  1.7421222e-01
  9.7779773e-02
 -4.2110492e-02
  5.8406182e-03
 -8.0254018e-02
  7.0729572e-03
  1.7290714e-01
 -3.4453109e-02
 -4.8633702e-02
 -5.4206807e-02
  1.2648137e-01
  9.4865344e-02
 -1.2504166e-01
  3.7863184e-02
 -7.7560320e-02
  7.7034920e-02
  4.4285644e-02
 -1.6086359e-02
 -1.2246201e-02
  8.1913332e-03
  1.8260490e-02
 -4.3967560e-02
  7.4289655e-03
  1.0744829e-01
  5.6563519e-02
 -1.4175098e+00
  2.5440627e-01
  4.3024087e-01
  7.5024419e-02
 -4.8755881e-01
 -1.2131004e-02
 -1.3798529e-02
  3.8182068e-01
  1.7414600e-01
 -1.4916359e-02
 -1.7887953e-01
  2.2626179e-01
 -8.1306785e-02
  6.6985660e-03
  3.0259181e-02
  5.9167068e-02
  1.5556257e-02
 -8.6007021e-02
 -1.6653623e-02
  3.7926957e-02
 -2.1151727e-02
 -6.3618682e-02
  2.7015451e-02
 -5.0054109e-01
 -1.6230801e-01
 -3.1010263e-02
 -2.0961424e-02
 -2.3397127e-02
 -3.2267150e-02
 -1.8667789e-02
  8.1885681e-02
 -1.2117392e-02
 -9.4686493e-02
  8.0723539e-02
 -3.2020431e-02
 -5.8204913e-01
 -8.1985816e-02
  1.4079770e-01
  2.6454490e-01
  3.2668848e+00
 -8.3950669e-02
 -2.4014086e-02
  4.4609807e-02
  5.9428599e-02
  5.2682370e-02
  1.0453848e-01
 -6.7741014e-02
 -5.9129200e-03
  1.1505474e-01
  4.1815251e-02
  1.7835212e-01
  1.7400874e-01
 -6.1553881e-02
  3.0097000e-02
  5.1228624e-02
  8.8713628e-01
  1.2390190e-01
  1.5174633e-01
 -6.7970671e-02
 -3.2331415e-02
 -3.8144488e-02
  6.7876517e-03
 -1.0333525e-01
 -3.5991825e-02
  2.7954539e-02
  5.2189052e-02
 -4.7582321e-02
  2.0939668e-01
 -2.7572189e-02
  1.7622502e-01
 -2.0174365e+00
  1.1005329e-01
  1.4276813e-01
  7.2917834e-02
 -4.5734322e-01
  1.9910569e-01
  3.4458006e-03
 -6.8239230e-03
 -1.2502751e-01
  7.9550449e-04
  2.5437137e-02
 -5.3191662e-02
  9.7357297e-01
  1.8397051e-01
 -3.9607156e-02
 -7.1909837e-02
 -1.1609650e-01
 -7.2357282e-02
  7.6851629e-02
 -1.8538325e-01
  1.3720746e-01
 -1.5563822e-01
  9.4572157e-02
  6.6908747e-02
 -7.5222705e-03
 -3.5741627e-02
 -3.5157833e-02
 -4.7259722e-02
  1.1325466e-02
 -2.2872998e-03
 -1.2304375e-02
 -6.0504355e-02
 -3.6712841e-04
  7.4494034e-03
  1.3537290e-02
  1.8367332e+00
  6.2605813e-02
 -2.2645539e-01
 -2.0496018e-01
  5.1513159e-01
  5.1986922e-02
  2.8002732e-03
  6.7722313e-02
  3.0997496e-02
  2.8034948e-02
 -4.4008065e-02
  4.9661618e-02
 -1.4511931e-01
 -2.8995905e-02
  1.2490067e-02
 -1.2317916e-01
  7.3368903e-03
 -2.3870209e-02
  1.6034006e+00
  5.0388422e-04
 -9.3407357e-01
  1.2020441e-01
  1.6265117e-02
 -1.7130376e-01
 -2.1381088e-02
  2.3647600e-01
 -2.7727043e-02
 -6.8615906e-02
 -6.0467746e-02
  3.3348687e-02
  1.0233399e-02
 -1.6693096e-01
  1.4933294e-02
 -8.7098904e-02
  4.7914259e-02
  2.1651995e+00
 -2.6280876e-02
 -6.9273329e-01
 -9.0591013e-02
  5.1858902e-01
  1.3518564e-01
  7.1207166e-02
 -8.9518413e-02
  3.1171169e-02
 -1.8643621e-01
 -5.2680552e-02
  4.4949736e-02
  2.1161202e-03
 -7.1232900e-02
 -1.3687139e-02
 -8.1525026e-03
  2.1602351e-02
  3.6029682e-02
  7.0826351e-03
  9.3677163e-02
 -1.0203673e-01
  7.5656623e-02
 -6.5779448e-02
  1.1173369e-01
  5.1340163e-02
  8.5494176e-02
 -2.6814366e-02
 -1.3536845e-01
  3.2295842e-02
 -7.8855822e-04
 -8.8742726e-02
 -9.0751171e-02
 -7.5486027e-02
  3.1014193e-02
  1.4511770e-01
 -2.0031123e+00
 -1.2551057e+00
 -2.1148911e+00
  1.2144978e+00
 -1.4382136e-01
 -2.2854658e-02
 -5.2907282e-01
 -3.9513797e-02
  3.3941340e-01
  7.5581157e-01
 -5.9351498e-01
 -1.7042429e+00
  1.0843874e+00
  3.9605790e-01
  3.2958838e-01
  6.0214180e-01
 -1.3188869e+00
  1.6689350e-04
 -1.5755183e-01
  6.4250237e-01
  4.2638662e-01
  9.5547742e-01
  3.9883520e-02
  5.8067995e-03
  1.6586155e-01
  2.3031972e-02
 -1.4019206e-02
  1.1565267e-01
 -4.1247576e-02
 -8.4830709e-02
  3.1518340e-02
 -8.4746546e-01
 -6.1658412e-02
  2.6214463e-01
  1.3742800e-01
  1.3917899e+00
 -3.2489855e-02
 -1.8941149e-01
 -1.3483458e+00
  8.8380665e-02
 -1.3997189e-02
 -5.2624814e-02
 -2.5398539e-02
 -1.2231849e-02
  1.0602100e-01
  1.3976976e-01
  4.8639655e-02
 -4.8184913e-02
 -2.5718173e-01
 -4.7501521e-03
  3.4986917e-02
  5.3436211e-03
  3.4999896e-02
 -6.5116845e-02
 -4.1264933e-02
  2.5519878e-02
  1.3565961e-01
 -1.7015429e-02
  6.0473882e-02
  1.7625745e-02
  2.7085366e-02
 -1.3356389e-02
 -9.2794523e-03
 -1.1978471e-01
 -1.0346374e-01
  4.9365602e-02
  5.6919889e-03
 -5.4314040e-02
  3.3565655e-02
  1.0465693e-01
  1.4869986e+00
 -4.6907190e-02
 -1.3485892e-01
 -7.9640970e-02
  3.5734245e-01
  1.0302597e-02
 -1.8703453e-01
 -1.7536156e-02
 -8.1950389e-03
  1.0659595e-01
  4.6949729e-01
  3.5939690e-02
 -2.6700428e-02
  6.3022589e-03
 -5.4008400e-01
 -1.7310107e-01
  1.2162258e-01
 -4.6377983e-02
 -7.6490283e-02
  1.6613013e-01
  7.8051850e-02
  4.0801167e-03
  7.8456372e-02
 -1.1132810e-01
 -2.5602473e-02
 -7.2722785e-02
 -4.8905246e-02
 -5.6518864e-02
  2.1109961e-02
 -1.1593054e-01
  2.0492507e-02
 -6.1305524e-03
 -7.3880471e-02
 -2.5040326e-03
 -1.0496187e-01
  1.6234030e+00
  1.2781441e-02
 -7.9217434e-01
 -1.0980406e-01
  4.5230570e-01
  1.3117775e-01
  3.8275167e-02
 -2.0889775e-01
 -1.3383713e-02
 -3.8449897e-04
  5.6248520e-02
  1.0960908e-01
 -5.7688005e-02
 -8.7686054e-02
  1.4225954e-01
 -2.3313638e-02
 -4.2134695e-02
  1.4007612e-01
  1.7675746e-02
  2.3607079e-02
  1.5075558e-02
 -4.6112932e-02
 -7.3227443e-02
  7.1763285e-02
  1.9030213e-02
  7.2044708e-02
  4.8226018e-02
  3.3903725e-02
  3.9448131e-02
 -4.3567471e-02
 -2.3678862e-02
 -7.7213071e-02
 -7.5173564e-02
  1.9288031e-02
  1.2924382e-01
 -2.8885911e+00
 -2.5161617e+00
 -2.1264400e+00
 -1.1564695e+00
  2.3627126e+00
 -2.4918749e+00
 -2.5436528e+00
 -2.7360890e+00
 -1.8543040e+00
 -2.9977350e+00
  2.4607568e+00
  2.6307609e+00
 -2.8765023e+00
 -2.0732837e+00
 -2.3621101e+00
 -2.5969596e+00
  2.1510055e+00
  2.1993134e+00
  1.9720484e+00
 -1.3545482e+00
 -2.2452343e+00
  2.3012898e+00
 -2.2644489e+00
  2.7669256e+00
 -2.2303030e+00
  2.6354740e+00
  2.2545259e+00
  2.6660731e+00
  2.6793532e+00
 -2.0229232e+00
 -2.0890958e+00
  2.5647011e+00
 -2.6382821e+00
  1.3312826e+00
 -9.1557568e-01
 -1.3599778e+00
 -2.5759292e+00
  2.4152877e+00
 -1.3480605e+00
  2.5065126e+00
 -2.5801463e+00
 -2.5827591e+00
  2.2837064e+00
  2.4457045e+00
 -2.0873327e+00
  2.4690666e+00
 -2.3230712e+00
 -2.4821894e+00
  2.1995928e+00
  2.0648794e+00
 -2.1844580e+00
  2.5207958e+00
  3.8680677e+00
  2.3211923e+00
 -2.4044108e+00
 -1.6969886e+00
 -3.3522007e+00
 -2.4498916e+00
 -2.6869788e+00
 -2.6241498e+00
 -6.2686758e+00
 -5.7399588e+00
 -3.2412133e+00
  2.8705889e-01
  1.9281790e+00
 -3.0771124e+00
 -3.3685615e+00
 -1.7407533e+00
 -4.1659233e-01
 -3.7501888e+00
  1.8643460e+00
  1.9501717e+00
 -3.1021552e+00
 -2.1833858e+00
 -3.4356437e+00
 -2.4021907e+00
  4.5806556e+00
  2.0837142e+00
  4.8132765e-01
 -1.0936085e+00
 -2.4798996e+00
  1.2925613e+00
 -2.1586943e+00
  9.2408762e+00
 -9.3478364e-01
  2.7889552e+00
  2.2847605e+00
  3.1595576e+00
  1.9882220e+00
 -2.4383876e+00
 -1.0750048e+00
  7.9362378e+00
 -1.8027599e+00
  7.1004587e-01
 -2.2434905e+00
 -3.3463035e+00
 -5.3575997e+00
  4.4780636e+00
 -1.0465391e+00
  1.7560917e+00
 -4.0059099e+00
 -1.0142890e+01
  3.3260126e+00
  2.6894391e+00
 -5.9757614e+00
  3.2307820e+00
 -1.3450788e+00
 -1.7109572e+00
  1.7714207e+00
  2.4768410e+00
 -2.2161183e+00
  3.1975346e+00
  4.6969652e+00
  4.4612308e+00
 -3.5037789e+00
 -2.4983697e+00
 -2.9198155e+00
 -2.2679937e+00
 -3.7918229e+00
 -7.3190603e+00
 -1.8196661e+02
  1.1638335e-01
  1.8565254e+00
  1.5561399e+00
  7.1067184e-01
  1.2783029e+00
  5.4130828e-01
 -1.3147007e-02
  1.0352259e+00
  1.0429739e+00
 -7.2834480e-01
  2.8259051e+00
  1.2891769e+00
 -4.0105477e-01
  5.8357793e-01
  1.0206102e+00
  6.8222158e-02
 -6.3922149e-01
 -3.2704207e-01
  7.3732686e-01
  2.4464724e+00
 -3.4283292e-01
  4.1583937e-01
  4.2255864e-01
  3.0827773e+00
  8.9221799e-01
 -9.5940399e-01
  1.0972152e+00
  2.9718721e+00
  2.3520286e-01
 -5.9607947e-01
  3.2144842e-01
  2.7753901e-01
  1.6066854e+00
  2.7892643e-01
  1.4855096e-01
  1.8902223e-01
 -3.2088318e+00
 -1.4416195e+00
  7.3926133e-01
 -1.6287019e+00
 -4.7806779e-01
 -6.3048613e-01
 -2.1536591e+00
  1.4461952e+00
 -2.9702828e+00
 -1.9321385e-01
 -2.5603213e+00
 -1.0006921e+00
 -1.3756521e+00
 -1.1038938e+00
  3.0670054e+00
  1.6114967e+00
 -2.4642529e+00
 -8.0637205e-01
  2.9631560e+00
  4.4780037e-01
 -3.9186275e-01
 -1.3096452e+00
 -8.5783029e-01
 -1.0802952e+00
  1.2735397e+00
 -2.6818066e+00
 -3.4257357e+00
 -9.4607073e-01
 -1.4258509e-02
 -2.2424371e+00
 -2.0006084e+00
  8.7528187e-01
  9.2804027e-01
 -3.9672580e-02
  3.1244162e-01
  8.3576077e-01
 -7.8937739e-01
  8.0775374e-01
  8.5254097e-01
  3.9444929e-01
  6.4011919e-01
 -1.6281468e-01
  3.7861351e-02
 -8.8041551e-02
 -2.3984337e+00
 -2.6299872e+00
  1.4404443e-01
  1.1404308e+00
  5.8378512e-01
 -2.3340221e-01
 -3.3199646e+00
 -3.5404730e+00
  1.5653298e+00
  3.1733425e+00
  8.7748557e-01
 -3.7602101e-02
  5.6326926e-01
 -6.8450145e-02
 -3.5763019e-01
 -2.1664388e+00
  3.5926047e-01
 -2.7400681e-01
 -1.0933904e-01
 -1.2476483e-01
  3.0994242e-01
 -2.1833694e-02
 -8.3504719e-01
  1.3129681e-01
  1.5978523e-01
  3.2757035e-01
 -4.6253339e-03
  1.0322888e+00
 -2.8932331e+00
  5.5151814e-01
 -6.3976467e-01
  1.0785817e+00
 -1.0551516e+00
 -7.0258480e-01
 -2.3724100e-01
 -4.2844853e+00
  8.8522625e-01
 -2.6759858e+00
  4.3728304e+00
  1.8138528e+00
  1.0685091e+00
 -2.5064865e-01
  2.3259264e-01
 -1.0433726e+00
 -7.8151721e-01
 -3.9444122e-01
 -8.6453475e-02
 -1.7445786e+00
  1.1356251e+00
  6.7205077e-01
 -1.2977188e+00
  4.0651974e-01
  3.0761665e-01
 -1.1200230e+00
 -2.4320476e+00
 -1.4855020e+00
  5.3768253e-01
  7.8348023e-01
 -1.7946181e+00
 -1.9135991e+00
  3.3692920e-01
  4.0853024e-01
 -3.9391469e-02
 -8.4808224e-01
 -4.9704444e-02
 -2.4351116e-01
  6.8091756e-01
  2.5012975e+00
  1.1297882e+00
  9.0451723e-01
  4.3844391e-02
  3.6055651e+00
  4.6667439e-01
 -2.2639554e+00
  1.5413789e+00
 -2.9287255e+00
  1.1505743e+00
  1.3389585e+00
  1.7056717e+00
  9.2124623e-01
  4.4114847e+00
 -1.6305255e-02
  7.0779443e-01
  3.1681365e-01
 -1.2386416e+00
 -2.0159807e+00
 -2.9119897e+00
 -7.8885758e-01
  6.0831112e-01
  1.7796398e+00
  6.7408133e-01
  6.4858294e-01
 -8.2976496e-01
  3.2569144e+00
  4.7039944e-01
 -4.4048253e-01
  2.0700734e+00
  3.7377062e+00
 -1.2948045e-01
  1.8318455e-01
  1.1636299e+00
  4.6249217e-01
  1.7653398e-02
 -2.6796541e-01
 -1.1270399e+00
 -5.4878789e-01
 -4.7356211e-02
 -6.3990569e-01
  1.1631453e+00
  4.9946424e-01
  2.4216868e-01
  1.3569084e+00
 -9.6091974e-01
  4.1771367e-01
 -3.0717000e-01
 -1.7168195e+00
 -9.7685683e-01
  1.7165774e+00
 -5.1653236e-01
 -2.0743769e-01
 -7.4172035e-02
  6.6910349e-02
  1.5095656e+00
  1.5503015e-01
 -8.6845070e-01
 -1.8700992e+00
 -6.9772863e-01
  6.7850673e-01
  1.1736304e-02
 -5.3985250e-01
 -2.5683925e-01
  1.2582022e+00
 -4.7826755e-01
 -4.1820124e-01
 -3.6220425e-01
  7.9448175e-01
 -1.1886399e+00
 -8.9521062e-01
  1.0625695e-01
  3.4178215e-01
 -1.1014915e+00
 -1.0701303e+00
  1.2687504e+00
  2.4957819e+00
  1.3992586e+00
  2.2401986e+00
  1.1162331e+00
  1.3914120e+00
  2.2593676e-01
 -2.6135984e-01
 -1.0434892e+00
 -1.5892758e+00
 -2.1584982e-01
 -1.6012951e+00
 -1.3284771e-01
 -9.0595484e-01
  8.8158238e-01
 -7.5327456e-01
  5.6524225e-02
 -1.1769630e+00
  2.0342877e-02
 -6.4424939e-02
 -8.4151250e-01
 -1.0658146e+00
 -6.3070524e-01
  2.4433883e-01
 -7.5367105e-01
 -4.4804953e-02
 -5.4021794e-01
  3.0966771e-01
 -2.6258436e-01
  3.4911516e-01
  6.8756604e-01
 -7.2578859e-01
 -2.5203266e+00
 -4.5959237e-01
 -2.8290572e+00
  1.7013507e-03
  8.4249455e-01
  4.7699718e+00
  3.2424498e-02
  1.5535592e+00
  2.8031471e+00
 -1.1593847e-01
 -1.8797723e+00
 -1.8259203e+00
  1.5268356e+00
  2.5693462e+00
  1.1100490e+00
 -2.8635788e-01
  2.3016250e-01
  1.1581641e+00
 -4.8256282e-02
 -4.8186439e-01
  2.8803933e-01
 -2.1935711e+00
  1.4816090e-02
  4.0200540e-01
  2.5988802e-01
 -1.2208397e+00
 -5.4245478e-01
  5.4164589e-03
 -4.8192111e-01
  9.8371887e-01
  3.9396942e-01
  4.7012088e-01
 -3.6946151e-01
  3.5518995e-01
  8.1033772e-01
 -2.8030844e+00
 -4.8276675e-01
 -2.4000451e-01
 -2.1288045e-01
  1.0969908e+00
  6.4082211e-01
 -4.7570059e-01
  4.5249274e-01
  2.3190377e+00
 -1.9196824e+00
 -1.2582755e+00
 -2.6920202e+00
  1.9624873e-01
  2.8889675e+00
  1.2001289e+00
 -3.7577899e+00
 -1.7615694e+00
  2.3412826e+00
  1.4908303e+00
  1.0152578e-01
  1.6558337e-01
 -1.0960571e+00
  1.8786912e-01
  1.9062245e+00
  3.5197496e-01
 -1.4149595e+00
  4.1862532e-01
  1.8778968e-01
  2.0514524e-02
  8.5364926e-01
  9.7850479e-02
 -2.0789334e-01
  4.9014094e-01
  3.7128717e-01
 -2.9986906e-01
 -1.3827340e-01
  1.0394905e-01
  7.0878118e-01
  9.2300612e-01
 -3.5036163e+00
 -9.4751942e-01
  2.4138369e-01
  2.1921301e+00
  6.7933309e-01
  1.3248515e+00
 -5.6649494e-01
  5.4449058e-01
  1.0231395e+00
  1.7946562e+00
  2.6264620e-01
  1.7855166e-01
 -1.5294167e+00
 -6.5228528e-01
  6.6359162e-01
 -1.4817208e-01
  6.0413879e-01
 -1.9597170e+00
  3.5494116e-01
 -1.3383845e+00
 -1.0711466e+00
 -2.7210562e+00
  7.9637659e-01
  6.3768893e-01
 -5.9051212e-02
  6.1452460e-01
 -4.6777424e-01
 -8.2288310e-02
 -2.2979830e-01
  8.0163527e-01
 -8.8521695e-01
  7.8240864e-02
  3.0086923e-02
  3.0086923e-02
  3.0086923e-02
  3.0086923e-02
  3.0086923e-02
  2.0425856e-01
  2.0425856e-01
  2.0425856e-01
  2.0425856e-01
  2.0425856e-01
  1.6406114e-01
  1.6406114e-01
  1.6406114e-01
  1.6406114e-01
  1.6406114e-01
  5.0968606e-02
  5.0968606e-02
  5.0968606e-02
  5.0968606e-02
  5.0968606e-02
  2.4792863e-02
  2.4792863e-02
  2.4792863e-02
  2.4792863e-02
  2.4792863e-02
  1.7113474e-01
  1.7113474e-01
  1.7113474e-01
  1.7113474e-01
  1.7113474e-01
  8.9403339e-02
  8.9403339e-02
  8.9403339e-02
  8.9403339e-02
  8.9403339e-02
