nep4_zbl 2 Ga In 
zbl 1.25 2.5 0.7
cutoff 6 5 68 39
n_max 4 4
basis_size 8 8
l_max 4 2 1
ANN 60 0
 -5.0236487e-01
  2.7669652e+00
  1.5772576e+00
  1.5576661e+00
 -2.6551468e+00
 -1.8969920e+00
 -2.5114620e-01
  4.4992766e+00
 -6.2227345e-01
 -3.8378575e+00
 -2.7756900e-01
 -2.1099438e-01
  3.0283201e+00
 -1.9250772e+00
 -1.9128256e+00
 -2.1820052e-01
  1.5037487e+00
  3.7547872e+00
 -3.8192561e+00
  3.5792966e+00
 -4.2736226e-01
 -1.9975681e+00
  8.2463217e-01
  4.3647671e-01
  1.2628955e+00
 -4.7340232e-01
 -2.2549560e-02
 -6.1976012e-02
 -2.3334131e-01
  9.3364716e-01
  5.7731032e-02
  5.3699630e-01
  1.2971240e-01
 -1.2009057e-01
 -1.0751370e+00
  1.3804295e+00
 -1.6521485e+00
  1.2282848e+00
  8.8856977e-01
 -3.6795187e-01
 -1.0830626e+00
  5.3603745e-01
  8.1880264e-02
  5.5847752e-01
  3.3790283e-02
  3.7303513e-01
 -4.3867585e-01
  2.0666558e-01
  2.2415328e+00
 -1.1244797e-01
 -1.6906674e-01
 -3.9205873e-01
 -3.2988688e-01
 -4.7368863e-01
 -3.9477992e-01
  4.1845419e-02
 -3.8975760e-01
  8.8660008e-01
  1.8417913e-01
 -7.7117264e-01
  2.9921830e-01
  1.2048800e-01
 -1.1124896e-01
  5.8973360e-01
 -6.5951365e-01
  2.1553221e+00
  2.6038975e-01
  1.1487007e+00
 -5.2404898e-01
 -4.8445359e-01
 -1.0508462e+00
  1.0309666e+00
 -3.1296486e-01
  1.3961992e-01
  1.2670296e+00
  7.0572597e-01
 -9.8531431e-01
  3.6284217e-01
  8.6960340e-01
 -1.9164205e-01
 -4.4926727e-01
 -4.8379388e-01
 -3.8550442e-01
 -7.6526940e-01
  3.8511330e-01
 -4.9214208e-01
  1.2759651e-01
  1.0660371e-01
  5.7225996e-01
  4.8972261e-01
  2.9220122e-01
 -2.4229038e-01
  7.0668644e-01
 -2.0067506e-01
 -4.7365427e-01
  1.4846906e-01
 -2.4281152e-01
  8.3492860e-02
  4.3260732e-01
  4.4108775e-01
  6.7816943e-02
  3.0915695e-01
  1.7210798e-01
  2.5731391e-01
  7.8388995e-01
  4.9893707e-01
 -3.7737384e-01
  3.8783234e-01
  1.2275597e-01
 -1.1178017e+00
  5.0564736e-01
 -1.3221745e-01
  5.4865146e-01
 -7.2946581e-03
 -1.4222822e-01
 -1.6756600e-02
 -1.6433775e-02
 -1.0129647e-01
 -1.9700219e-01
 -2.7728721e-01
  6.9483168e-02
 -2.4160203e-01
  3.4601149e-01
  5.1207256e-02
  8.1071371e-01
 -8.6721158e-01
 -4.3031344e-01
  1.0799885e-01
 -3.2211319e-01
 -6.1046356e-01
 -1.8597166e-01
 -5.1216397e-02
  2.0312175e-01
 -1.0212364e+00
  2.2123250e-01
  7.5114226e-01
 -4.7869593e-01
 -2.1653134e-02
  7.2910184e-01
 -2.7066308e-01
 -1.0198103e+00
  4.6767345e-01
  9.2671943e-01
 -9.3786292e-02
  5.5358416e-01
  2.8435855e+00
  1.2355161e+00
  4.0378847e+00
  1.6688923e+00
 -1.6534395e+00
 -1.9069724e+00
  2.5937598e+00
  3.5923672e+00
  5.5680007e-01
  8.1034917e-01
  2.0158648e-01
 -1.3253284e+00
 -1.9832060e+00
  3.8459909e+00
 -1.0218902e+00
  2.9895973e+00
  1.3614384e+00
  3.7395605e-01
 -2.1621947e+00
  3.6296225e-01
  4.7183862e-01
 -9.4887334e-01
  4.1361851e-01
 -2.7719154e+00
  5.7426465e-01
 -2.0035729e+00
 -3.8837485e+00
 -5.0840122e-01
  4.2165540e-02
  1.3246103e-01
  9.7514379e-01
 -6.6804665e-01
 -7.5212792e-02
  1.1756729e+00
  1.9586353e-01
 -4.2779918e+00
 -1.4827918e-01
 -1.7927079e+00
  2.7294281e+00
  1.9603333e-01
  1.1727105e+00
  1.9600904e-01
  1.6548512e+00
  3.7488506e+00
  1.5853980e-01
  6.7919165e-01
  2.6344073e-01
 -2.5277793e+00
 -1.3975502e+00
 -2.2053435e+00
  7.5963199e-02
 -1.5806369e+00
  2.2935374e-01
  2.4121892e-01
  1.0051157e+00
  3.5582265e-01
 -5.8423585e-01
 -6.9893491e-01
  1.9549528e-01
 -2.9347575e-01
  7.5365704e-01
  1.3434191e-01
 -2.8828639e-01
 -7.3680896e-01
 -4.2176315e-01
  7.0121008e-01
 -5.9008060e+00
  4.8387617e-01
 -2.0401850e+00
  2.4408228e+00
 -1.7924343e-01
 -2.1914463e+00
 -4.9412468e-01
  5.0068021e+00
 -3.9599770e-01
  3.4929341e-01
  1.0393839e+00
 -1.2202060e+00
  2.9429600e+00
 -1.5652171e+00
  2.6185317e+00
  1.5610541e+00
 -2.0258970e+00
 -1.6243175e-01
 -1.9718462e+00
 -6.9426048e-01
  4.1688066e+00
 -5.1154733e+00
 -8.0189222e-01
 -3.7646422e-01
 -1.0825234e-01
  6.3080353e-01
  1.0486816e-01
  2.5216591e-01
  6.2452406e-01
 -7.3820180e-01
 -8.2043779e-01
  2.9535981e-02
  6.9832027e-02
 -2.7573957e+00
  1.6391624e+00
 -1.0346180e+00
 -2.7285818e-02
 -1.4155972e+00
 -3.0196438e+00
 -4.3595195e-01
 -1.0006762e+00
  1.9366898e-01
  3.1081316e-01
  6.4492628e-02
 -9.4643843e-01
  6.0017407e-01
  6.1338454e-01
 -9.2641902e-01
 -4.9062669e-02
  1.6834228e-01
  1.9399573e+00
 -4.8468158e-01
  1.6330499e-02
  3.1554466e-01
  3.5966220e-01
 -4.4248196e-01
  9.1589272e-01
 -2.3365764e-01
  1.3369781e-01
  2.5958747e-01
  4.7407925e-02
 -3.3494934e-01
 -2.5406429e-01
  8.6019792e-02
 -1.0323498e+00
 -5.8703363e-01
  5.5113643e-01
 -4.7433797e-01
  3.1320736e-01
  9.1134399e-01
  2.2423176e-01
 -1.0055692e-01
 -5.0847824e-03
 -1.2490081e+00
 -3.0244446e-01
 -7.9543740e-02
 -8.3226100e-02
  3.8055619e-03
 -2.5579163e-01
  1.1831248e+00
 -3.1637412e-01
  2.1661701e+00
 -4.1354351e-02
  1.0677624e+00
 -6.1650860e-01
  9.5931776e-02
  1.8101609e-01
  1.4491926e+00
  8.4624046e-01
 -5.3723001e-01
  1.3322827e-01
 -7.0421509e-02
 -1.2239848e+00
 -4.9253932e-01
  1.4145586e-01
 -2.2623208e+00
  1.5504402e+00
  4.8210001e-01
  7.4665710e-02
 -9.4417185e-01
 -7.0221978e-01
  4.9761581e-01
 -2.6070889e-02
 -4.1411117e-01
  8.5089743e-01
 -1.7304212e+00
  5.2155393e-01
  4.2521842e-02
 -5.6044966e-01
 -1.7677332e-01
  8.4950113e-01
  7.2992265e-02
 -7.2167569e-01
 -7.3614484e-01
 -1.8877256e-01
 -5.7326555e-01
  5.9261298e-01
  4.9665862e-01
  4.2253488e-01
 -8.3754808e-02
  2.4000145e-04
  8.9142077e-02
  3.7093171e-01
 -7.0868932e-02
  4.4057122e-01
 -1.0555357e-01
 -1.7373510e-01
 -5.3801972e-01
  4.2588145e-01
  2.8495360e-02
  2.0188701e-01
 -7.1407661e-02
  3.1325585e-01
  9.5145829e-02
  4.0715393e-01
 -8.8007025e-02
  8.4078416e-02
 -6.8522535e-02
 -1.5171506e-01
  1.1985854e+00
  8.2185827e-02
 -2.5208773e-02
 -5.8596343e-01
 -9.2000341e-01
 -4.6473905e-01
 -2.8266590e-02
 -3.0795732e-01
  4.5899418e-01
  2.8019431e-01
 -2.4175856e-02
  4.0261440e-02
  1.5928529e-01
  2.7545062e-01
  4.1916847e-01
  8.5301667e-01
  2.5896395e-02
 -1.1063510e+00
  5.3658104e-01
 -1.2964453e+00
 -1.0644831e-01
  2.3556976e-01
  9.7998440e-02
  2.6252985e-01
 -2.3014048e-01
 -4.6871763e-01
  6.3085461e-01
 -7.2376236e-02
  1.5967207e-01
  8.4688473e-01
  2.2684444e-02
 -1.0946714e-01
 -1.2277249e+00
 -3.8503382e-01
  5.0095099e-01
 -2.1324096e+00
 -2.7064319e+00
 -2.8264740e-01
 -3.9993944e+00
 -1.1107532e+00
 -1.8286510e+00
 -3.0364907e+00
 -8.4912050e-01
 -1.4623796e+00
 -7.8881055e-01
 -1.2780256e+00
  2.1352212e+00
  7.7970767e-01
  5.5090600e-01
  1.6511325e+00
  4.8876393e-01
 -3.6853304e+00
 -3.0040963e+00
 -1.3215897e+00
  7.3548377e-01
  3.4378984e+00
 -1.8979275e+00
 -8.2726359e-01
  2.8110456e+00
  1.1805279e+00
  1.7208117e+00
 -6.1221486e-01
  9.5522243e-01
 -2.0251469e-01
  1.9321673e-02
 -3.1823844e-01
  3.8804916e-01
 -6.8245417e-01
  3.9591229e-01
 -1.5297601e-01
 -1.1484027e+00
  7.1420312e-01
 -1.9428161e+00
  5.3647617e-03
 -5.9721464e-01
  2.9113877e+00
  3.0879840e-01
  1.4642620e+00
  4.0403455e-01
  2.5328007e-01
 -1.1441348e+00
  1.3990651e+00
 -8.3819139e-01
  4.3311958e+00
 -3.9877957e-01
 -1.3438843e+00
  3.2193187e-01
  3.2843316e+00
 -1.8119251e+00
 -5.6856227e-01
 -2.4928391e-01
 -3.5030395e-01
  3.0925224e+00
  9.7957981e-01
 -2.5117533e+00
  1.5463614e-01
 -2.3122177e+00
  2.7865937e-01
 -4.5285597e-01
 -1.9845068e-01
 -5.9906757e-01
 -5.5271995e-01
 -8.7846154e-01
  1.9587885e+00
  1.8004569e-03
  4.1834774e+00
  9.3015708e-02
 -1.0574627e+00
  2.6943417e+00
  1.5941746e+00
 -7.8536862e-01
  3.1027281e+00
  2.7388799e+00
  2.1686966e+00
  1.8570527e+00
 -1.2236147e+00
 -4.8452288e-01
 -4.5272872e-01
  2.6193637e-01
 -9.4530678e-01
 -8.3599472e-01
  3.1724322e+00
  5.4477587e+00
  2.2229695e+00
  2.0314136e+00
  4.2151704e-02
  1.0010955e+00
 -2.6083413e-01
  1.6460404e+00
 -4.9623957e+00
 -6.2537766e-01
 -6.4049321e-01
  7.3742199e-01
  1.2586021e+00
 -5.8680618e-01
 -1.5153062e-01
  2.8568310e-01
  1.9612278e-01
  5.6091958e-01
  3.6760443e-01
  3.5453394e-01
 -2.1406744e+00
  3.0581381e+00
 -1.4439408e+00
  1.1652997e+00
 -1.6901834e+00
  3.0671901e-01
 -8.9813489e-01
  3.4774479e-01
 -3.4532869e+00
  5.8812636e-01
  3.9391580e+00
  3.6114273e+00
 -5.9033805e-01
  5.1118918e-02
 -3.7554637e-02
  8.5143065e-01
 -2.9714459e-01
 -4.3777066e-01
 -2.0643990e+00
 -6.0238528e-01
 -8.4657207e-02
 -2.6794586e-01
  5.1220536e-01
 -7.7234417e-01
  2.0672382e-01
  2.4386941e-01
 -2.0642294e-01
 -1.3564318e-02
  5.2018964e-01
  8.5436009e-02
 -6.4928919e-01
  4.4447151e-01
  4.7957726e-02
 -3.1668343e-02
 -1.7098694e+00
 -4.1003296e-01
 -2.8693983e-01
  1.0102952e+00
  1.6954880e+00
  1.3095817e-01
 -6.7207888e-02
  2.4615651e-02
 -2.2187026e-01
  1.7600223e-01
  1.4464012e-01
  9.6667320e-02
 -1.2163398e-01
  8.8535595e-01
  5.2349728e-01
 -1.7637022e-01
 -3.2985559e-01
 -5.7937216e-02
  7.6785409e-01
  1.4458534e-01
 -4.7883901e-01
  2.0202343e-01
 -1.3449967e+00
 -8.6575121e-01
 -2.9936746e-01
  5.8790499e-01
 -8.2801628e-01
  7.5139540e-01
  1.9129257e-03
  2.1794859e-01
  4.6582505e-01
 -1.2277974e-01
 -7.8860698e-03
  3.3471110e-01
 -4.5665585e-02
  3.9360428e-01
 -5.2018464e-01
  1.9354653e-01
 -1.1373647e+00
 -1.7464592e+00
  1.6052225e-01
  2.4355156e-02
  1.6509837e-02
 -8.4873930e-02
  3.2320544e-01
  1.0232373e-01
  3.5960823e-01
 -9.8511457e-02
 -2.0069529e-01
 -1.4884943e-01
 -6.4944440e-01
 -4.1787839e-01
  3.5527492e+00
 -3.8020957e-02
 -7.7656120e-01
  2.1902597e-01
  2.7439314e-01
 -4.3151689e-01
 -8.2932049e-03
  5.3076106e-01
  6.1869603e-02
  4.7436050e-01
  3.4409007e-01
  7.7338278e-01
  3.0781290e-01
 -2.5859153e-01
 -7.0510679e-01
  9.5542353e-01
  3.2528588e-01
 -1.1522456e+00
  4.7013583e+00
  3.7790031e+00
 -1.1255740e-01
  1.4845906e+00
 -1.7052181e+00
  3.2815743e-02
 -2.2334878e+00
  2.8915569e-01
 -3.2640478e-01
  1.8354545e+00
  3.0459964e+00
 -2.2437685e+00
 -6.9980657e-01
 -3.8649863e-01
  2.0528862e+00
  1.6795675e-01
  1.7988684e+00
  2.0650721e+00
 -6.0140979e-01
 -6.6151327e-01
  3.8665637e-01
  4.2257008e-01
  1.5846459e+00
 -2.9883838e-01
  1.2150264e-01
  6.2529862e-01
  2.7342001e-01
  8.4140277e-01
  3.6583847e-01
 -2.8046098e-01
 -1.5000753e+00
  6.6249281e-01
  2.2429372e-01
  2.1549782e-01
  2.0445469e-01
  3.4577534e-01
  1.2552316e+00
  2.0119296e-01
 -3.5319380e-02
  7.6173013e-01
  4.7097272e-01
 -2.6837778e-01
 -1.6051562e-01
  2.0771873e-01
  3.4206271e-01
  4.6613447e-02
 -3.6854137e-02
 -5.5886220e-02
  1.8076833e+00
 -2.5777772e-01
 -1.5215856e-01
  2.4950764e-01
 -3.3164802e-01
 -2.5253141e-01
 -4.9759611e-02
  6.8071020e-01
 -7.5669572e-02
 -1.3265288e-03
 -7.1150762e-01
  2.5941420e-01
  5.5735737e-02
  1.2314807e+00
  3.7216091e-01
 -1.4194934e-01
  3.8116029e-01
  3.0464274e-01
  9.5332474e-02
 -5.0072569e-02
  2.3016299e-01
  6.8324769e-01
 -3.1662221e+00
 -3.9895601e+00
  4.1604981e+00
  5.2846270e+00
 -9.0139264e-01
  5.3303736e-01
 -5.8637357e-01
 -1.9670744e-01
  1.5586475e-01
 -1.3964134e+00
  2.2329935e-01
 -4.6142602e+00
  2.1056712e+00
  5.1810199e-01
 -1.4276371e+00
 -8.5847750e-02
  1.0378215e-01
  9.5825684e-01
  2.3497406e-01
 -2.2277033e+00
 -7.8460491e-01
  2.3618138e+00
  1.0873733e+00
  2.7369065e+00
  9.2503540e-02
 -3.9973017e-02
  8.1267411e-01
  4.1230474e+00
  9.9323440e-01
  5.0236806e-02
 -6.9546765e-01
 -1.1438528e-01
  1.8668240e-02
 -1.2706894e-01
 -6.1711329e-01
 -1.0561572e+00
 -2.6955250e-01
 -7.0466030e-01
 -4.8468275e+00
  4.8693028e-01
  2.9966113e-01
 -5.3817973e+00
 -1.4737381e+00
 -1.2216904e-01
 -4.7763620e-02
  2.0936375e+00
  2.8895962e+00
 -2.1215322e+00
 -4.4899974e+00
 -3.9455906e-01
 -1.4775561e+00
 -6.1515675e+00
 -6.1356068e-01
 -1.9406829e+00
  3.4458047e-01
 -1.7568276e+00
  2.8942142e+00
  5.9169823e-01
  5.3961148e+00
  4.9235139e+00
  3.6461067e-01
 -1.6692798e+00
 -5.2345679e-03
  1.0634570e-01
  1.8756618e+00
  3.4574115e-01
  8.9869745e-02
 -5.8808237e-01
  2.3255748e-01
  6.2334138e-01
 -5.1603752e-01
  1.8797857e+00
  9.5099109e-01
 -7.9378441e-02
  9.6591407e-01
 -5.9921645e-02
 -7.1602154e-01
 -2.7908148e-02
 -5.0737119e-01
  4.8335582e-01
 -1.4574405e+00
  1.0820552e-01
 -1.5554552e+00
 -3.8069904e-01
  6.6653055e-01
 -1.8198065e-01
  3.5401785e-01
  6.8149304e-01
 -5.5432871e-02
  2.1734472e-01
  5.4246837e-01
 -3.2762673e-02
  1.7855918e-01
  1.5988016e-01
  6.4344847e-01
 -2.8840272e-02
  1.9677375e-02
 -2.9287818e-01
  6.9386101e-01
  3.2906428e-01
 -7.2423726e-01
 -3.0039623e-01
  2.0934963e-01
  2.4446723e-01
  2.4800318e-01
  1.7119191e+00
  1.9810371e-02
  3.1249356e-01
  9.0343308e-01
 -1.9184709e+00
 -2.3772442e-01
 -2.2390125e-02
  4.1420367e-01
  9.6717191e-01
  8.0023050e-01
 -3.9221477e-02
 -5.8573103e-01
  2.2375448e-01
 -3.0935097e-01
 -1.1439253e+00
  1.0584686e-01
  4.7821960e-01
  1.3920035e+00
  1.8951002e-01
  6.4735353e-01
  3.8495180e-01
  7.0129400e-01
 -5.3741342e-01
  1.8442994e-02
  5.7523191e-01
  1.9914153e-01
  2.7311558e-01
  5.6513882e-01
 -4.8586780e-01
  1.5055964e+00
  6.0535491e-01
 -5.3603643e-01
 -4.3016627e-01
 -4.9446934e-01
  9.6819751e-02
 -1.4848132e+00
  8.8061176e-02
 -3.0838147e-01
  1.6174606e+00
 -2.9158936e+00
 -1.7351005e+00
  4.0348056e-01
 -7.5880992e-01
 -9.4980806e-01
  2.4857271e+00
  1.5465593e+00
  1.1001270e+00
 -3.6372069e-01
 -2.4658287e-01
 -3.0615470e+00
 -1.3294913e+00
  7.6781195e-01
  2.6267214e+00
  6.2354809e-01
  1.2391496e+00
  2.5556355e+00
 -1.6802024e+00
  2.4830084e+00
  1.6504300e+00
 -4.1945514e-01
  5.6672162e-01
 -3.1892335e-01
  1.2386651e-01
 -1.6840687e+00
 -5.0118756e+00
  1.3374325e-02
 -9.2276788e-01
 -4.5896357e-01
  1.1630316e-01
 -1.5839124e+00
  8.2213208e-02
  3.9897751e-02
 -1.3767751e+00
 -5.2683819e-03
  9.1965365e-01
 -5.6924611e-01
 -5.2757102e-01
 -6.2319118e-01
  5.3357869e-01
  7.5752962e-01
 -3.9141682e-01
 -2.9057243e-01
 -6.8049692e-02
 -5.4220843e-01
 -3.9545783e-01
  2.7446961e-01
  3.4733512e-02
 -1.6926067e-01
  8.0148828e-01
 -4.3259960e-01
  2.8546858e-01
  2.9401237e-01
 -3.8859636e-01
 -5.9215158e-02
  5.6578469e-01
 -7.3410833e-01
  3.1195870e-01
 -7.8391194e-02
  5.4691863e-01
  7.9627979e-01
  3.9537731e-01
 -5.7971853e-01
  2.8923905e-01
  6.3225043e-01
 -3.2742456e-01
  4.9865958e-01
 -7.5191563e-01
 -6.7564392e-01
  2.6312855e-01
 -1.4969478e+00
 -2.2084723e-01
  9.8497051e-01
  3.6366999e-02
 -8.4015137e-01
 -1.8043599e-01
  2.6046500e-02
 -3.7327829e-01
 -1.1302894e+00
  1.8355042e+00
 -3.9067021e-01
 -6.2088716e-01
  3.3917028e-01
 -6.9405156e-01
 -7.1494108e-01
  4.1772798e-02
  5.7994431e-01
  3.8315707e-01
  3.3075467e-01
 -2.5526455e-01
  3.7904361e-01
  4.2446393e-01
  4.3071771e-01
  2.3446746e-01
 -2.4186237e+00
  9.4710970e-03
  1.4864567e-02
  2.8768375e+00
 -1.9245594e+00
  7.3968387e-01
 -5.4055411e-01
 -1.2424868e+00
  3.7785462e-01
 -1.0621068e-02
  1.4429978e-01
 -1.0997958e-02
  1.2484443e-01
 -3.0672178e-01
  3.0429976e-02
  1.1768111e-01
 -2.1073751e-01
 -2.3977213e-01
  7.1521515e-01
 -7.1580052e-01
 -2.8653747e-01
  4.4885454e-01
  4.5404965e-01
  1.0770276e+00
 -2.1317168e-01
 -5.8224034e-01
 -5.0309598e-02
  1.9804563e-01
  6.9051981e-01
  2.1139099e-01
 -2.7776235e-01
  1.5798285e+00
  3.8991681e-01
 -1.2605965e+00
 -4.2148661e-02
  8.3157605e-01
  7.6782918e-01
 -5.9965041e-02
  3.6505041e-01
 -2.3401178e-01
  2.2509769e-01
  1.3048172e-01
 -9.0973282e-01
  3.4867618e+00
  5.8124089e-01
  4.2383489e-01
  2.2380717e+00
  2.9197549e-02
  1.8054132e-01
  6.8060237e-01
 -2.4416595e+00
 -5.7198459e-01
  2.4006534e-01
  1.5026237e-01
  8.4900773e-01
  3.7076628e-01
  3.4900758e-02
  1.4121322e-01
  2.2266097e+00
  1.9345531e+00
  6.0902383e-02
 -2.7578667e-01
 -8.0843318e-01
  5.7633406e-01
 -6.1108398e-01
  4.0778715e-02
 -3.1277901e-01
 -8.4626280e-02
  1.6179818e+00
 -1.0453994e+00
  1.4136134e+00
 -2.0418701e-01
  3.2902038e-01
 -1.7456800e-01
  5.6836545e-01
  7.3984288e-02
 -7.9151437e-02
 -4.1005129e-01
  6.9660646e-01
  7.4121423e-02
 -1.1468797e-02
  6.1719096e-01
  2.8547916e-01
 -2.3275988e-01
 -4.8599634e-01
  1.2617730e-01
  4.1829124e-01
  5.4474998e-01
 -5.0048061e-02
 -7.7437258e-01
 -2.0741151e-01
 -3.3920592e-01
  2.0437183e+00
 -1.8114570e-01
 -6.4302540e-01
  2.7727058e-02
 -2.9209480e-01
  2.2692649e-01
 -4.8210239e-01
 -6.0153116e-02
 -9.2954695e-02
  4.5426667e-01
  1.1471878e-01
 -7.1121210e-01
  2.2141407e-01
  4.2133778e-01
  2.4139172e-01
 -5.3194743e-01
  1.6151083e-01
  1.9823758e-01
 -2.0553525e-01
  1.1777529e+00
 -6.6548640e-01
 -1.2853616e-01
 -4.8504505e-02
  4.5616451e-01
  1.0580486e+00
  7.9680735e-01
  2.3503830e+00
  1.0129315e+00
 -7.1214056e-01
  1.5583022e-01
 -2.0745832e-01
 -1.2913482e-01
  5.8663368e-01
 -3.3922735e-01
 -1.6662093e-01
  5.3554380e-01
 -1.1072640e+00
  1.7621842e-01
  2.4421158e-01
  5.7527460e-02
 -1.7710954e-01
  8.9470041e-01
 -7.2708482e-01
 -5.6879336e-01
 -3.0306765e-01
  2.7370524e-01
  9.4167434e-02
 -1.0108492e+00
  1.9761407e-01
 -6.9522396e-02
 -7.8152239e-01
  5.0105953e-01
  2.0578122e+00
  1.4945237e-01
  2.3960462e+00
  3.0000156e-01
 -1.7871437e+00
 -5.7509559e-01
 -1.0994189e-01
 -9.9332362e-01
 -3.5136629e-02
 -8.2642114e-01
 -5.1387250e-03
 -3.5620227e-01
 -1.1727201e+00
  8.9939857e-01
 -8.1887639e-01
  8.2761872e-01
 -7.7673429e-01
 -2.0669946e-01
  2.8415065e-02
 -3.3178376e-03
 -2.7141254e-02
  1.4472230e-01
  9.8315972e-01
 -2.3219675e-01
  5.7539664e-02
 -4.7133523e-01
 -8.0759406e-01
 -1.0208281e+00
 -2.5506726e-01
  4.1378582e-01
  7.8275675e-01
  9.1636454e-04
  1.3534707e-01
  2.4509136e-01
  1.0787821e+00
  7.6421916e-01
  5.9073722e-01
 -1.2613337e+00
 -2.4366722e+00
  1.1334351e-01
  8.1568390e-01
 -2.0200999e+00
 -7.9602897e-01
  4.3551168e+00
  9.1165566e-01
  5.3592938e-01
 -1.6538671e+00
 -5.0669545e-01
  1.3984503e-01
 -1.4963045e+00
 -2.2957952e+00
 -5.6218129e-01
 -7.3609680e-01
  7.3413372e-02
  1.6662170e+00
 -3.5486215e-01
 -5.0200123e-02
  1.4639242e+00
  4.1097373e-01
  7.4818212e-01
  4.0019941e-01
  1.3895604e-01
  4.4219880e-03
  4.9829859e-02
 -3.7985766e-01
  3.4355545e-01
 -6.4261508e-01
 -1.4333867e-01
  9.9995446e-01
  5.3290069e-01
 -4.1886172e-01
  4.3233328e-02
  2.2183393e-01
 -5.5785072e-01
  3.0898291e-01
  1.9739603e+00
 -1.3046422e+00
 -1.9490830e+00
  1.3171374e+00
 -1.7113212e+00
 -2.3103235e+00
 -3.2049232e+00
  2.0649047e+00
  5.6107008e-01
  3.1880572e+00
  1.0388515e+00
 -1.8921264e+00
 -2.7241296e-01
  1.2817457e+00
 -9.6968248e-02
  4.4220361e-01
  1.0030252e+00
  1.2162035e+00
  2.2139049e+00
 -1.9127131e-01
  2.3158226e+00
 -2.3836820e+00
  9.1801596e-01
 -7.2906131e-01
  1.2374136e+00
  6.0600060e-01
  1.6053468e-02
 -9.7630948e-01
  1.1008934e+00
  9.1130745e-01
  1.9729948e-03
  4.8170495e-01
  9.3199760e-02
 -4.0350035e-01
 -2.2519531e+00
  2.7138722e+00
 -1.2781202e+00
 -1.0288520e+00
 -9.2033052e-01
 -1.5601376e+00
 -5.5635583e-01
 -1.9763825e+00
 -1.6283715e-01
  2.9485736e+00
 -1.0349252e+00
 -2.9728144e-02
 -1.2951213e+00
  1.0908942e+00
 -1.0241258e+00
 -4.2479607e-01
 -4.0032396e+00
 -2.2670588e+00
  4.2722061e-01
  1.8942364e+00
 -1.9990847e+00
  8.1539130e-01
 -8.0856836e-01
 -5.0536317e-01
  7.8077233e-01
  2.8048623e-01
 -2.5318732e+00
  1.1718465e+00
 -3.2818097e-01
  8.1847638e-01
  2.9298751e-02
  6.5438710e-02
  5.8176007e-02
 -2.7014396e-01
  6.3813066e-01
 -1.5787856e-01
  1.5069929e+00
 -4.6728057e-01
 -3.8717222e-01
 -1.4807824e+00
  1.1599422e-01
  2.0235851e-01
  6.0303873e-01
 -8.8107997e-01
  1.1998921e-01
 -3.1379557e-01
 -1.0969833e-01
 -5.9744495e-01
  2.8678155e-01
  7.1232960e-02
 -6.3696688e-01
  2.4140503e-01
 -1.6977328e-01
 -3.2823782e-02
  2.1223235e-03
 -2.0801871e-01
  4.3164417e-01
 -1.3136128e-01
 -2.3581967e-01
 -6.1914647e-01
  8.4656608e-01
 -2.2042963e-01
 -1.2911510e+00
 -3.5408953e-01
  2.2924054e-01
 -1.8474483e+00
  2.8780106e-02
 -9.4139695e-01
  1.8261501e-01
 -6.2726450e-01
 -2.7975154e-01
 -3.7449455e-01
  2.8862196e-01
 -9.5538032e-01
 -3.4728351e-01
  5.0365704e-01
 -9.9557555e-01
 -3.7175596e-01
 -9.0907529e-02
  8.8632733e-01
 -1.1571363e-01
 -1.8820223e-01
 -1.1192074e+00
 -1.5837314e+00
 -1.1863568e+00
 -1.1115760e-01
 -7.7847469e-01
 -6.2798691e-01
 -3.2104319e-01
  7.8334653e-01
  2.8137252e-01
  5.2668661e-01
  1.6960495e+00
 -1.0136791e-01
  4.1407213e-01
 -7.9858959e-01
  6.7699331e-01
  2.0302498e-01
  5.3435232e-02
  3.5061091e-01
 -2.3483120e-01
  3.9547104e-02
 -9.1877468e-02
  8.2784176e-01
  2.0595317e+00
  7.1804643e-01
  1.4821510e-01
 -7.3496854e-01
  5.7543612e-01
 -2.4116664e+00
  1.8092315e+00
  3.0405378e+00
  3.0207443e+00
 -3.2429013e-01
 -1.0320439e+00
 -3.1828489e+00
  1.3706269e+00
  1.2837614e+00
  3.7334102e-01
 -4.8384956e-01
 -3.3293767e+00
  2.2550695e+00
  1.5290164e+00
 -1.5848267e+00
  8.9275503e-01
 -2.0091548e+00
  1.2298857e-01
 -2.2755113e+00
  4.8245640e+00
 -4.7187686e-01
  5.6506163e-01
 -2.0857954e+00
  6.9545382e-01
  2.6386982e-01
 -1.3207190e+00
 -2.9098424e-01
 -4.5647781e-02
  5.6609666e-01
 -9.3697625e-01
 -1.5125045e+00
  8.9712340e-01
  1.2784865e-01
  4.5361409e-01
  2.7769890e+00
 -6.6069818e-01
 -1.0108676e+00
 -1.1482549e-01
 -1.0573523e-01
 -4.4113326e-01
 -1.6618129e-02
 -5.5536556e-01
 -4.0274498e-01
  7.4742429e-02
  3.0041349e-01
 -5.4100758e-01
  8.3837259e-01
 -7.9091024e-01
  4.8888918e-02
 -3.0785298e-01
 -1.3517711e-01
 -1.0572737e-01
  8.0739319e-01
 -8.7643743e-02
  2.8880006e-01
 -8.1061155e-01
  1.8887654e-01
  7.6675040e-01
  5.6383401e-02
  5.8860004e-01
 -1.6548617e-01
  6.0151935e-01
 -4.1936442e-01
  2.4024981e-01
 -2.8934485e-01
 -1.8676893e+00
  1.5652418e-01
  1.3148123e-01
 -5.6729394e-01
 -8.5393637e-02
 -2.9371589e-01
  2.6580942e-01
  3.6167839e+00
 -3.0200664e-02
 -3.2969814e-02
 -4.1599926e-01
  2.1260872e-01
  3.0386908e+00
 -1.0403295e-01
  3.4452048e-01
 -7.4613810e-02
 -3.3426321e-01
  1.4848340e+00
 -9.6947379e-02
  8.4154022e-01
  7.5664783e-01
  3.0509682e-02
  8.5711545e-01
  5.7462841e-01
  7.9514194e-01
 -3.5639174e-02
 -6.1275375e-01
 -4.6287827e-02
  3.6879721e-01
  5.0587583e-01
  3.4829944e-01
 -6.5874167e-02
  4.3274161e-01
 -9.2637217e-01
 -6.9749457e-01
 -2.2536881e+00
  2.3650658e+00
 -1.7125274e-01
  3.8787541e-01
  1.0952112e-01
  1.3930763e+00
  3.3307540e-01
  1.1942356e+00
 -1.2296131e+00
  8.0032223e-01
 -8.6485960e-02
 -6.0639697e-01
 -2.6380500e-01
 -2.0093283e-01
 -5.2863854e-01
  4.1499552e-01
 -6.2068170e-01
 -1.8155695e-01
  1.7361544e+00
  3.5953040e+00
  2.1815540e-01
 -1.4399375e-01
  7.4657559e-01
 -9.3849391e-02
  8.3848912e-01
 -8.6254336e-02
  2.3298366e-01
  8.0491960e-01
  1.4756407e+00
  1.5933431e+00
  5.3498811e-01
 -2.3406184e-01
  7.4023467e-01
  7.8683287e-01
  2.2526336e-01
 -1.6656096e+00
  1.8361186e+00
  2.7581224e-01
 -5.6753818e-02
 -1.9282258e-01
  6.4514540e-02
  2.8966029e+00
  1.5136470e+00
  2.0005519e+00
  1.7642163e+00
 -6.9849467e-01
  2.5630696e+00
  6.9217432e-01
 -1.7223531e-01
  1.2135382e+00
  8.9157760e-02
 -9.5011359e-01
  4.2212892e+00
 -1.2178392e+00
  9.1285276e-01
 -2.2785756e-01
  2.4737424e-01
  8.0152452e-01
  4.7240064e-01
  1.4769135e-01
 -2.0261993e-01
  3.5362440e-01
  1.3236589e+00
  2.6903397e-01
 -3.1334630e-01
  1.6028678e-01
  1.5717852e-01
  1.4806298e-02
 -4.0753981e-01
  2.4176311e-01
 -8.8897502e-01
  7.7944809e-01
  3.6787024e+00
 -3.4384785e+00
 -6.2518820e-02
  4.6113569e-02
 -3.1329348e+00
  1.9076970e-01
  2.0218976e+00
 -1.3869020e-01
 -8.1470066e-01
  9.6603620e-01
 -1.1922611e+00
  2.3066475e+00
 -1.3222430e+00
 -4.0192252e-01
  1.7301924e+00
  3.1208029e-01
  2.4400361e+00
 -1.7412355e+00
 -4.9177077e-02
 -8.7169224e-01
 -4.8928156e+00
 -6.2810874e+00
 -8.9137421e+00
 -8.6248565e-01
 -1.0893323e+00
 -1.1751930e+00
 -1.1557943e-01
  6.4366353e-01
  3.2368359e-01
 -3.7165955e-01
 -5.6746656e-01
 -4.1865224e-01
 -1.5511887e-01
 -1.1210741e+00
 -3.9362671e+00
  9.7706658e-01
 -4.9481004e-01
 -1.6104341e-01
 -5.1648569e-01
 -3.3157262e-01
 -4.4664508e-01
  3.0484018e-03
 -1.2211891e+00
 -2.8642654e-01
  1.2773470e+00
 -2.1045905e-01
  1.8158960e-01
 -3.7281930e-02
  4.1876251e-01
 -6.2449396e-01
  1.3352227e-01
  9.3249507e-02
  1.7690886e+00
 -5.6496435e-01
  1.3482624e-01
 -3.6726806e-01
 -1.0737467e+00
 -5.4881817e-01
  4.3329391e-01
 -7.0017302e-01
  6.0843784e-02
 -9.9817002e-01
  5.2215524e-02
  3.7442133e-01
  4.9678141e-01
  4.9161923e-01
 -4.0702563e-02
 -9.3174517e-02
 -1.7461395e+00
  8.1466609e-01
 -4.0963721e-01
  3.1488636e-01
  1.0902442e+00
  1.3356727e+00
 -1.9987559e-02
 -2.1561216e-01
 -4.8782250e-01
  2.1941715e-01
  2.0184331e+00
 -2.2545792e-01
 -1.9605910e+00
 -1.2082103e+00
  1.8629258e+00
  5.5916750e-01
  4.0947381e-01
  2.4815164e+00
 -6.1613345e-01
  1.1711574e+00
  7.0872194e-01
  2.4470410e+00
 -3.2288033e-01
 -1.4488695e+00
  5.9366584e-01
 -7.5675420e-02
 -5.1952487e-01
  1.0898365e+00
  4.8302978e-02
 -4.0784848e-01
  1.0029352e+00
 -2.1195577e-01
 -1.5512860e-01
 -8.0654848e-01
  1.0570261e+00
  8.6038214e-01
 -6.2938851e-01
 -2.3917814e-01
 -1.9514567e-01
 -1.1688453e+00
  3.6981347e-01
 -4.9486947e-01
  2.7316353e-01
  4.5362959e+00
  1.5134056e+00
  1.1306815e-01
  3.2736227e-01
  5.4728341e-01
  2.2019739e-01
  4.7772801e-01
 -7.0457834e-01
 -3.5230711e-01
 -6.1232513e-01
 -5.9143335e-01
 -3.7376794e-01
 -5.7619685e-01
  3.8223833e-01
  1.6759977e-02
  4.6697736e-01
 -4.7174716e-01
 -4.1727829e-01
 -6.0748374e-01
 -3.7261397e-01
 -3.7872425e-01
  1.1128964e+00
  3.0500448e-01
 -8.2685530e-01
  4.8435125e-01
 -1.5741305e-02
 -3.8415411e-01
  3.2629941e+00
 -2.4451840e+00
 -1.6674221e-01
  2.1866367e+00
  1.0342796e+00
 -4.4542432e-01
 -1.4196751e+00
 -2.6994613e-01
  7.6328653e-01
  9.3035400e-01
 -1.3475546e-01
  6.5031284e-01
  6.6742349e-01
 -4.1282567e-01
 -2.1592243e+00
 -7.7222967e-01
 -6.6364586e-02
 -2.0595599e-02
 -6.5796785e-02
  4.7564987e-02
  4.5114139e-01
 -9.1645062e-01
  1.0035814e-01
 -4.3027100e-01
 -7.7891999e-01
  2.5621322e-01
 -6.7833018e-01
  6.2247044e-01
 -3.3840811e-01
  2.9903585e-03
  2.5281966e-01
 -1.1324636e-01
  5.4828382e-01
  1.9722794e-01
 -4.8816851e-01
 -2.5387313e+00
  2.5178621e+00
  5.8442795e-01
  2.5923899e-01
  1.3089298e+00
 -3.7486139e-01
  8.9083117e-01
 -1.4259442e+00
  3.2877403e-01
  3.3081388e-01
  7.9852957e-01
 -6.1569822e-01
 -8.9798701e-01
 -3.4100492e-03
  3.9354926e-01
  2.2492944e-01
  4.5720243e-01
 -5.5690122e-01
 -2.6398221e-01
 -1.6583657e-01
 -9.9568351e-05
 -5.9622604e-01
 -1.0231525e+00
 -1.1453014e-01
  6.8390667e-02
  9.6415526e-01
 -1.8776962e-01
 -7.8014797e-01
 -8.1659548e-02
 -5.9077388e-01
 -1.2593520e+00
 -1.3296551e-01
  6.3238278e-02
 -7.5888234e-01
 -8.3790058e-01
  7.2906238e-01
  1.3994038e-01
  4.1732603e-01
  4.4016808e-01
 -1.3280385e+00
  1.4234337e-01
  2.8531814e-01
 -3.3394604e+00
 -3.2760993e-01
  1.4736245e+00
 -2.4357219e-01
  3.3393025e-01
  1.2367978e+00
 -3.7145510e-01
 -6.0109144e-01
 -2.5427768e-01
  7.8196269e-01
 -7.0017368e-01
 -4.9509369e-02
  1.4005842e+00
  3.9083314e-01
  3.4802765e-01
 -7.2584254e-01
  6.2156534e-01
 -1.3867191e+00
  2.2631273e-01
 -6.6853218e-02
  2.9152539e-03
  8.2748771e-02
 -3.8833776e-01
 -2.2078846e+00
  9.7203505e-01
 -1.5511513e-01
  9.2218620e-01
  2.6888528e-01
  1.3554484e-01
  3.5252184e-01
 -9.4301766e-01
 -7.8344816e-01
  1.6941780e-02
  6.6302830e-01
 -9.9429628e-04
  1.1901803e-01
  3.5489008e-01
 -1.7120224e-01
 -1.0078803e-01
  4.8461922e-02
  1.3111480e+00
  1.0005082e+00
  1.8670842e-01
 -4.5234349e-01
 -1.1725077e-01
  7.9605073e-02
 -6.5455461e-01
 -5.1910732e-02
 -1.3952950e+00
  1.2362894e-01
  9.0099171e-02
 -5.5293179e-01
 -3.5626939e-01
  9.8595247e-02
  1.7305656e-01
 -1.1398013e+00
  6.0091352e-01
  1.8910140e+00
 -9.8508701e-02
  9.8125651e-02
  9.8054759e-02
 -6.0192895e-01
  9.4806802e-01
 -2.0469112e+00
  7.9797524e-01
 -8.0182888e-02
 -5.2678086e-02
  2.9807779e-01
 -3.1612787e-01
  4.6923283e-01
 -2.4956200e+00
  3.1113026e-01
 -6.1257418e-02
 -2.5492616e+00
 -4.8277059e-01
 -3.5761324e-01
 -4.4753051e-01
  5.6660759e-01
 -1.2758659e-03
 -7.6067862e-03
  5.5482918e-01
 -2.0942014e-01
 -1.7689830e+00
 -3.4874773e-01
 -7.6098627e-01
  5.2487157e-02
  1.4098566e+00
  6.5619260e-01
 -8.1629194e-02
 -3.6111429e-01
  2.8321651e-01
 -3.2994014e-01
  2.7973197e+00
  2.3395570e-01
 -5.7496417e-01
  2.5387031e-01
  1.6052838e-01
 -5.5080071e-02
  3.6104098e-01
 -1.0520785e+00
  7.4466926e-01
 -1.0072352e+00
 -2.2839482e+00
  4.2299601e-01
  3.1017411e-01
  3.1022802e-01
  5.5459231e-01
 -6.8874061e-01
  5.0659314e-02
 -2.6372358e-01
  4.2754222e-02
 -8.8336426e-01
  1.2703167e-02
 -5.5471867e-01
  1.6480273e-01
  1.0981970e+00
  1.0909151e-01
 -2.9662335e-01
  8.8149780e-01
  3.1500041e-01
 -2.5168252e-01
 -3.4787209e+00
 -3.3556795e-01
 -3.7854755e-01
 -2.2330852e+00
 -4.3325686e-01
 -6.3272709e-01
 -1.7182197e-01
  2.5904861e-01
 -7.8982390e-02
  5.1343165e-02
 -1.9585329e-01
  1.6422528e+00
  1.9245504e+00
  3.3378676e-02
 -9.0681791e-01
 -2.2044428e-01
 -1.9524463e+00
 -4.6573125e-02
 -1.9211875e-02
  8.6627662e-01
  8.0289489e-01
  4.4659996e-01
 -2.6973769e-01
  6.1975789e-01
 -7.7909648e-02
 -9.4847304e-01
  4.6547577e-01
 -3.6807513e-01
  1.0363173e+00
 -2.3626225e-01
 -3.4124869e-01
  1.1648618e-01
 -1.7134149e+00
 -3.4906426e-01
 -3.5246196e-01
 -5.9454039e-02
  1.1050215e+00
 -2.6251134e-01
  1.0935285e+00
  5.6942928e-01
  4.1327290e-02
  3.9965403e-01
  2.8852341e-01
 -4.1052756e-01
  5.0933663e-02
 -6.6827029e-01
 -1.0105265e+00
  1.4792297e+00
  2.0587811e+00
 -4.3905109e-02
  2.6352966e-01
  4.2582816e-01
 -1.5423688e+00
  3.9986873e+00
 -2.3322530e+00
 -6.2543738e-01
 -3.4794593e-01
  6.0711271e-01
  2.2796455e-01
 -3.3512390e+00
  1.4825134e+00
 -1.0594999e+00
 -1.2570481e-01
  2.9104090e+00
 -8.3834034e-01
 -1.9028616e+00
 -1.7999710e+00
  1.0494418e+00
  8.7419736e-01
  1.2228696e+00
 -2.5241756e+00
  3.2351965e-01
 -4.9080381e-01
 -9.0755320e-01
 -8.2392043e-01
  3.3061734e-01
 -9.6471059e-01
  9.7632587e-01
 -4.7085074e-01
 -7.5352341e-01
 -1.3215606e+00
  1.1995487e+00
 -8.3432776e-01
  2.1213920e+00
  7.1536678e-01
 -6.8152326e-01
  4.2417425e-01
  1.9765192e-01
 -1.0455018e+00
  8.7468944e-02
  1.7347092e-02
 -5.8157307e-01
  8.7564820e-01
 -1.1513755e-01
 -3.7129465e-01
 -5.8107771e-02
  9.4754294e-02
 -4.1090843e-01
  2.4192309e-01
  1.1203800e-01
 -1.1540017e-02
 -4.5798460e-01
  1.1698231e-02
  4.8716494e-01
  3.2077640e-01
  5.3456229e-01
  4.2085451e-01
 -6.3130498e-01
  7.8527980e-02
 -8.3911073e-01
 -2.0065346e-01
  7.2429138e-01
  3.4610841e-01
 -6.4734221e-02
  1.9542095e-01
  6.1340991e-02
  2.6449609e-01
  1.5250942e+00
 -2.3565888e-03
  2.5690290e-01
 -4.4288915e-01
 -6.4210421e-01
 -1.5324199e-01
 -6.0159922e+00
 -3.6948735e-03
 -1.0136615e-01
 -5.1209772e-01
 -1.2385273e-02
 -7.4658906e-01
 -6.8027788e-01
 -1.4625611e+00
  7.9366428e-01
  6.4833607e-03
  4.4785884e-01
 -3.9417592e-01
 -1.1823525e-01
  2.8481835e-01
  9.1559976e-01
 -2.2617280e-03
 -2.4534991e-01
  4.1261771e-01
 -4.7999513e-01
 -4.1505298e-01
 -3.4519035e-02
  7.5884140e-01
  1.0907148e+00
  5.7645701e-02
  1.0284646e-01
  7.6386207e-01
 -4.2433465e-01
 -8.5673623e-02
 -1.1090010e+00
  1.6000116e+00
 -3.0454948e+00
 -1.2614392e-01
 -1.3384589e+00
  2.3731905e-01
 -1.4948916e-01
  1.9019060e-01
 -9.4067973e-01
 -4.5672140e-01
  7.2318524e-01
  6.1529934e-01
 -3.4538981e-02
  4.7378457e-01
  2.6113132e-01
 -9.5456088e-01
 -1.2409743e+00
  4.1704214e-01
  6.2022704e-01
  1.5838422e-01
  1.3924558e+00
 -4.9890557e-01
  3.7380427e-01
  7.1228975e-01
  1.2109475e-01
  1.3147521e-01
 -7.0689887e-01
  4.5422740e-02
  1.7974719e-02
 -5.8509928e-01
  6.4503545e-01
 -6.4652637e-02
  2.7150127e-01
 -1.6190399e-01
 -3.9629087e-01
 -4.5160064e-01
 -1.4046468e+00
  4.7358513e-01
 -4.0528736e-01
  6.9049501e-01
  4.4071546e-01
  5.2415651e-01
  8.0678418e-02
 -6.7923027e-03
 -6.3725531e-01
  4.6314433e-01
 -5.5038857e-01
  4.9710259e-01
 -1.5078589e-01
  5.8332080e-01
  3.3445445e-01
 -4.3035311e-01
 -2.6395812e+00
  1.6425799e-01
 -2.6422483e-03
 -2.2529396e-01
  5.5813152e-01
 -6.1593997e-01
 -2.0629917e-01
 -3.2634202e-01
  3.1733105e-01
  2.2288486e-01
  5.0179273e-01
 -1.7449704e-01
 -4.9587691e-01
  2.0874867e-01
 -2.3366392e-01
  9.7400444e-03
 -4.6948437e-02
  3.1028485e-01
 -4.7279477e-02
 -6.3937742e-01
  4.5400077e-01
  2.8440714e-01
  7.8673728e-02
  1.9569665e+00
 -2.8306931e-01
 -7.6815441e-02
  9.7945589e-01
  3.6615172e-01
 -6.1375159e-01
  1.3661465e-01
  7.6211751e-02
  2.9560485e-01
 -7.1864223e-01
 -4.6015758e-02
 -2.7338010e-01
 -2.3658398e-01
 -2.3362681e-01
 -2.2551732e-01
 -2.6237097e-01
 -9.3265432e-01
 -1.2561843e-01
  1.1944062e-01
  5.7392222e-01
 -1.0619366e+00
  5.5974948e-01
  1.0520034e-01
 -6.3455500e-02
  3.1425048e-02
  5.2879196e-01
  1.7804818e-01
  5.9626751e-02
  3.6470193e-01
  2.2525224e-01
 -6.7956902e-02
 -1.7639020e-01
  3.0858400e+00
  5.0362027e-01
  1.0777760e-01
  2.2592945e+00
  3.2347137e-01
  6.9095023e-02
  7.7800140e-02
 -6.7548916e-02
  4.6217510e-01
 -5.1464158e-01
  4.3905038e-01
  4.0835121e-01
 -1.2268269e+00
  7.6904392e-01
 -4.6743339e-01
 -1.7357757e-02
  4.1384503e-01
  2.9926762e-01
  4.7498938e-01
  1.0321333e-01
  7.4161954e-02
  1.6813090e+00
  3.8074890e-01
  9.5464982e-02
  1.0858028e+00
  6.4680725e-01
 -1.6384986e-01
  1.7082924e-01
  6.1486065e-01
 -2.4827957e+00
  3.5883471e-01
 -3.4474733e-01
 -6.2270451e-01
 -4.7852725e-02
 -3.0786052e-01
 -8.4759307e-01
 -1.6962951e-01
 -1.5070784e-01
  6.3320225e-01
  4.8840070e-01
  1.0644515e-01
  4.3692985e-01
  4.8541331e-01
 -2.5845366e+00
  6.7519307e-01
  2.6053968e-01
  2.6865530e-01
  2.6914912e-01
  4.8014164e-01
  5.0510991e-01
 -5.9828341e-01
 -1.1244621e-01
 -2.1428457e-01
  9.0477240e-01
  5.9801441e-01
 -6.6026539e-02
 -1.4363915e+00
 -1.2547542e-01
  8.9932099e-02
  3.2264493e-02
  2.4554940e-01
 -8.7188005e-02
  1.4552796e-01
  4.2439508e-01
 -9.6723557e-02
  1.9395867e-01
 -1.5060318e+00
  5.3618038e-01
 -2.9685193e-01
  3.1130662e+00
 -3.7188368e+00
  3.5023608e+00
 -3.5410931e+00
 -1.4051754e+00
 -1.3800331e+00
  5.1860418e+00
 -1.1487235e+00
 -3.3510599e+00
 -3.5236781e+00
 -3.4050481e+00
  4.0710849e-01
  5.2159762e-01
  6.8913805e-01
 -2.5502031e+00
  3.7123182e+00
 -3.4871740e+00
  4.3491607e+00
  3.8936801e+00
 -2.3137429e-01
 -3.5386043e+00
  3.5788095e+00
 -3.9550753e+00
  2.8408208e+00
  3.9579794e+00
 -3.4822297e+00
  3.5520694e+00
  1.1877656e+00
  3.6482630e+00
  3.3517509e+00
 -2.6456108e+00
  2.8723526e+00
 -9.5734614e-01
 -6.0951591e-01
 -4.4333358e+00
 -4.1553831e+00
  2.2236402e+00
  1.9732163e+00
  3.0258393e+00
  2.9198318e+00
  1.4375538e+00
 -1.2048090e+00
 -2.7589190e+00
  1.6404179e+00
 -3.4715338e+00
 -2.2211261e+00
  1.5718387e+00
 -3.9843843e+00
  4.3441372e+00
  2.9692483e+00
 -3.1205058e+00
 -4.6712260e+00
 -2.0829296e+00
  3.7014413e+00
 -3.8418841e+00
 -2.6442237e+00
  3.5283709e+00
  2.4486637e+00
  1.8232163e+00
  4.1659579e+00
  3.7352903e+00
 -2.8837135e+00
  3.5009272e+00
 -2.1793394e+00
  4.1003838e-01
 -1.0119964e+00
  5.1701145e+00
 -1.3189130e+00
 -2.6215479e+00
 -2.6960921e+00
 -2.9230986e+00
  3.4763357e-01
  5.3953248e-01
  6.4187139e-02
 -3.1937206e+00
  4.0126791e+00
 -3.7208607e+00
  1.7190905e+00
  2.6806104e+00
  1.9902816e-02
 -1.7809479e+00
  2.8003962e+00
 -3.0897000e+00
  1.7151148e+00
  3.6716516e+00
 -2.7717876e+00
  3.9978483e+00
  2.8285909e+00
  3.2923560e+00
  2.5057030e+00
 -1.2905428e+00
  4.1478515e+00
 -2.9557569e+00
 -4.5688305e+00
 -3.7213686e+00
 -1.6959647e+00
  1.6952831e+00
  3.3318207e+00
  4.7842278e+00
  4.0955887e+00
  2.8888206e+00
  5.2808624e-02
 -2.8959482e+00
  3.2745442e+00
 -5.4344497e+00
 -4.2153263e+00
  3.1348433e+00
 -3.4671142e+00
  2.8883185e+00
  2.4192245e+00
 -2.2924469e+00
 -2.7064364e+00
 -1.3947611e+00
  6.4763155e+00
 -1.5906856e+00
 -3.2465641e+00
  2.8024225e+00
  5.9857208e-01
  2.2878113e+00
  3.1746361e+00
 -9.7600603e-01
 -6.3370037e-01
  1.6864327e-01
  1.1571203e+00
 -3.5771317e+00
 -4.2057618e-02
 -4.3997598e+00
 -5.3674018e-01
 -2.0990338e+00
  2.1162288e+00
  2.2057455e+00
 -5.2100068e-01
 -1.4764880e+00
  2.0234509e+00
  1.2494372e+00
  5.4002056e+00
 -9.4440764e-01
  1.5517737e+00
 -1.1889050e+00
  6.0120481e-01
  1.5039237e+00
 -6.2082440e-01
 -1.0682438e-01
 -6.6779979e-02
  1.0586926e+00
  2.8774571e-01
  2.5495997e-01
 -2.6710916e+00
 -9.0808439e-01
  2.9949307e-01
  5.7953173e-01
 -1.0962360e-01
 -1.1903653e+00
  9.9940592e-01
 -8.0328640e-03
  1.0301683e+00
  2.3972549e+00
  1.9629388e-01
 -3.6977804e-01
 -3.0962116e-01
 -2.3118146e-01
  9.7532772e-02
 -1.6098597e+00
 -1.4644042e-01
  7.3489353e-02
  2.7019572e-01
  5.9438735e-01
 -3.7791151e-01
 -3.5402539e-01
  3.2680410e-01
 -1.7767274e-01
 -8.3588511e-01
  8.2989323e-01
 -2.0587904e+00
  2.1023281e+00
 -1.0427767e-02
 -9.6191347e-01
 -1.7920513e-01
 -4.2067990e-01
 -5.5806524e-01
 -8.4761521e-03
 -3.6669645e-01
 -1.1028095e-01
  1.0586371e-02
  1.2512726e+00
  6.4450312e-01
 -3.1799826e-01
 -2.7571294e-01
 -5.2896280e-02
  6.8284917e-01
  1.4689754e+00
  1.7367858e+00
 -2.6492205e+00
 -1.0714973e+00
  5.1180226e-01
  4.2399451e-01
 -1.3814162e+00
  8.9645967e-02
  1.8981217e-01
 -7.7389383e-01
  7.8590643e-01
 -1.4152136e-01
  3.5971001e-01
 -1.3770394e-01
  3.2001081e-01
  7.4778038e-01
 -3.8023034e-01
 -4.3544224e-01
 -1.9717388e-01
  1.6928107e-01
  6.6110575e-01
 -6.1180758e-01
 -3.1592381e-01
 -1.0187770e+00
  1.0521461e-01
  4.3425867e-01
  1.5276034e-01
  1.7238414e-01
  4.1713071e-01
 -5.9164345e-02
  3.4444675e-01
 -8.9436752e-01
  2.7298179e-01
  4.6801087e-01
  3.6846304e-01
 -1.5327805e+00
 -6.8825448e-01
  1.8678565e-01
  3.4493762e-01
 -9.5580876e-01
  6.0631156e-01
 -1.1118126e-01
  2.1220614e-01
 -1.6235739e-02
 -2.4122642e-01
  5.7743269e-01
 -4.3859246e-01
  8.9766487e-02
 -6.9840050e-01
  3.9478225e-01
 -1.4834045e-01
 -2.9811248e-01
  1.2019023e-01
  4.5030203e-02
  1.1416081e+00
 -3.7887946e-01
  1.8230911e-01
  1.8034086e-01
 -1.2254374e-01
 -3.5767099e-01
  3.5930619e-01
  8.9345151e-01
 -8.1755799e-01
  8.1055379e-01
  6.6497588e-01
 -5.8305436e-01
 -6.5842077e-02
 -2.6250488e-01
  3.6140624e-01
 -5.1474279e-01
  2.2431409e+00
  1.2034083e-01
  1.1354429e-01
  1.4153719e-01
 -4.9063396e-01
  4.2890225e-02
 -4.8487940e-01
  3.5824567e-01
 -2.3630607e-01
  1.6292927e-01
  1.7409272e-01
 -3.5393101e-01
 -1.4304056e+00
 -6.7031682e-01
 -2.3442855e-01
 -3.4141913e-01
  3.1606063e-01
  2.6614082e-01
  9.5043294e-02
 -6.5907127e-01
  2.9681903e-01
 -9.7944629e-01
 -3.5785884e-01
  1.4852182e+00
 -1.9300714e-02
 -1.1534560e-01
  1.4298406e-01
  4.1086599e-02
 -1.0671201e-01
  5.4730588e-01
  3.1690028e-01
  2.7429697e-01
 -2.1138135e-01
  3.4368661e-01
  9.1629103e-02
  1.2597975e+00
 -2.7388793e-01
 -2.1539918e-01
 -4.4927359e-01
  1.6560823e-01
  6.2689340e-01
  4.4651449e-01
  5.9639368e-02
 -3.5642786e+00
 -1.9885458e-02
  3.6392719e-02
  2.7860073e-02
 -3.7331277e-01
  2.1603606e+00
 -7.4128199e-01
  2.7709290e-01
  6.6947097e-01
  2.7536994e-02
 -6.6683012e-01
  1.5539421e+00
 -8.0242711e-01
  1.8381035e-01
  6.5833783e-01
 -7.4909860e-01
  1.9882040e-01
  3.9195034e-01
  6.5653391e-02
 -2.0842782e-01
 -1.0451248e+00
 -5.1274842e-01
 -3.3222243e-01
 -9.0793744e-02
 -7.3250729e-01
 -2.5030273e-01
  8.8942170e-02
  2.9679890e+00
  3.6935625e+00
 -1.5693228e+00
 -2.5980227e+00
  2.2926991e+00
  4.9741086e-02
 -1.1044838e-02
 -1.2624939e-01
  1.4980470e-01
 -4.9726591e-01
 -3.6401370e-01
  2.7275297e-01
  3.6251089e-01
 -8.0636346e-01
  2.2118226e-01
 -2.5189856e-01
  4.3296608e-01
 -8.8460498e-02
  8.4282249e-01
  1.1307603e-01
  4.1711581e-01
 -7.6700580e-01
  6.5011042e-01
 -3.4149598e-02
 -2.7177304e-01
  3.1725445e-01
 -1.1367524e-01
  1.2487532e-01
  5.5443376e-02
 -5.9998059e-01
 -3.4273151e-01
  2.1644311e-01
  2.8790936e-02
 -3.7340531e-01
  2.3690669e-01
  2.6232820e+00
 -1.8382124e+00
  9.1177143e-02
  2.5822079e+00
 -1.3919535e+00
  3.2098952e-01
  4.3263945e-01
 -1.3937277e-01
  6.1302406e-01
  9.7751886e-01
 -2.0652361e+00
 -4.9337517e-02
 -1.4253037e-01
  7.9889363e-01
  1.4954956e-01
 -6.0588765e-01
 -7.2495162e-01
 -9.4909303e-02
  3.1268826e-01
 -2.0899951e-01
  1.0322237e-01
 -1.7547761e-01
 -6.1068892e-01
 -6.7021362e-02
 -3.8888833e-01
  3.2558036e-01
  4.4217813e-01
  4.0187955e-02
 -2.5241318e-01
  3.5123897e-01
  3.0752283e-01
 -5.3251171e-01
 -1.1364751e-01
 -1.0534477e+00
 -1.5980062e+00
 -2.0304763e+00
 -5.4269934e-01
  2.3156907e-01
  1.7437372e+00
 -1.0858537e-01
 -3.3109331e-01
 -2.4998999e-01
 -2.8558785e-01
  4.4754410e-01
 -2.2020787e-01
 -2.1597493e-01
  1.3991566e-01
 -3.9557219e-01
 -3.2749516e-01
  4.5191783e-01
  2.5702739e-01
  3.1859556e-01
  2.7467093e-01
 -1.4559881e-01
  1.2348168e+00
 -7.0010149e-01
  1.2929809e-01
  1.9788177e-01
 -1.9963067e-03
 -7.6095027e-01
 -1.2571089e+00
  6.5946072e-01
 -2.3185137e-01
  2.3015708e-01
 -3.9874405e-01
  1.0947045e-01
  4.2297982e-02
 -2.0458926e-01
 -1.7043890e-02
  1.1815246e+00
 -5.3421301e-01
  3.5171798e-01
 -1.3102431e+00
  4.4787607e-01
  1.1365238e-01
 -2.5687560e-01
 -1.6353817e-01
  6.9872551e-02
  2.3459074e-01
 -5.0509387e-01
  3.1046676e-02
 -3.0375916e-01
 -4.7593898e-01
 -1.0697718e-01
  4.3931586e-01
 -1.5510197e+00
  5.8643389e-01
 -7.3058540e-01
 -7.9263240e-02
 -2.5789943e-01
  1.9088639e-01
  7.7776784e-01
 -8.8418052e-02
  6.4989942e-01
 -1.2835001e+00
  1.1203024e+00
  2.9044241e-01
 -1.4070532e+00
 -8.3779740e-01
  1.7740302e+00
 -9.2546260e-01
 -1.9808233e+00
  2.4908474e-01
 -6.3156806e-02
 -1.0780818e-01
  8.8606024e-01
 -3.4269512e-02
 -2.3575735e-01
 -2.0610446e-01
  9.3061912e-01
 -9.7747457e-01
  6.4135498e-01
 -1.0003018e-02
 -3.1822696e-01
  2.6932797e-01
  1.0281466e+00
  4.6830478e-01
 -1.7610699e+00
  2.4118930e-01
 -3.2708131e-02
  3.5915509e-01
  4.0834842e+00
 -7.4749607e-01
  4.2507410e-01
 -8.2257032e-02
 -3.0699080e-01
  5.9015286e-01
  6.9952142e-01
 -8.6305314e-01
 -5.6837314e-01
  3.1007674e-01
  2.2740015e-01
  6.0496449e-01
  6.2384987e-01
 -3.4523565e-02
  4.1231790e-01
  1.0862609e+00
  3.9376792e-01
 -1.1095858e+00
 -5.7074994e-01
 -1.1788797e+00
 -2.0786735e-01
  3.0927807e-01
  3.3682728e-01
  5.5217636e-01
 -8.9626741e-01
 -4.8675033e-01
  7.3123688e-01
 -2.5922707e-01
 -2.8800505e-01
  1.0958594e+00
  2.0464917e-01
  3.1414592e-01
  5.1750737e-01
 -3.3427142e-02
 -6.6843110e-01
 -3.0502750e-02
 -4.7521147e-01
 -1.4072908e+00
 -1.4641107e+00
  1.5208736e-01
 -3.0376220e-01
  1.7160664e-01
 -4.3998045e-01
  5.5059552e-01
  3.9837542e-01
 -2.2557128e-02
 -4.8408587e-02
 -2.9825681e-01
 -2.5157312e-01
 -4.0282878e-01
  2.0527548e-01
 -6.4856723e-02
  1.4529969e+00
  8.7819248e-02
 -2.0755029e+00
 -4.4713289e-01
 -1.6225620e-01
  9.7564411e-01
  9.0485364e-01
  2.9301444e-02
 -3.2380798e-01
 -2.0251532e-01
  7.6408638e-03
  7.2088277e-01
 -1.8623453e-01
 -7.7970460e-02
 -9.3768615e-01
  1.0616553e-01
  1.9180541e-01
 -8.4414279e-01
  1.1731075e-01
  2.2261844e+00
  2.3301992e-01
 -4.4810691e-01
  5.0020891e-01
 -1.0815754e+00
  5.8246398e-01
  4.3053386e-01
  1.4947793e-01
 -1.0577257e+00
  1.2539223e-01
 -8.1213939e-01
 -3.6769548e-01
 -6.8372600e-02
 -9.3112521e-02
 -1.3552910e+00
 -2.1221735e+00
  1.0891662e+00
 -4.4036466e-01
  1.9276025e+00
  1.0681566e+00
 -2.2987425e-01
 -6.9516951e-01
 -1.6421132e-01
  1.4295147e-01
  4.3974671e-01
 -1.5180555e-01
 -6.0786051e-01
  4.1239556e-02
  3.2960504e-02
 -1.4201247e-02
  1.2359901e-01
 -7.6041681e-01
 -5.6741599e-02
 -1.0062412e+00
 -4.7309509e-01
 -4.4716835e-01
 -1.8230492e-01
 -7.7376115e-01
  1.6789126e+00
  2.3325032e-02
 -8.6863172e-01
  5.6657624e-01
 -1.8756093e+00
 -8.2675058e-01
  1.8201289e+00
 -5.4537666e-01
 -1.6389082e-01
  3.5259873e-01
 -2.1305591e-02
  6.4986151e-01
  2.1466287e-02
  8.9639133e-01
  3.4123376e-01
 -6.3460487e-01
 -1.1566436e+00
  1.5500426e+00
  2.3550262e+00
 -3.5758054e-01
  2.8586084e-01
  4.5643210e-02
  6.8466866e-01
 -3.2264358e-01
 -2.5093979e-01
  2.7549484e-01
 -1.2366904e-01
  1.8773479e-02
 -4.5405243e-02
  3.3025005e-01
  6.4959472e-01
 -1.4023483e-01
 -1.2249763e-01
 -4.9143800e-01
 -2.6833141e+00
 -8.4934026e-01
 -2.3438492e+00
 -9.9255644e-02
 -6.6302091e-02
 -2.6520513e-02
  2.3521060e-01
  3.4498280e-01
  3.5765272e-01
 -2.2515637e-01
  3.7457213e-01
 -6.1824578e-01
 -4.2925820e-01
  6.4813565e-03
  1.2401576e-01
 -1.0392177e+00
 -1.7655040e+00
  8.4260678e-01
  2.7713478e-01
  1.3816919e+00
 -7.3209727e-01
  2.1772954e-01
 -6.3324058e-01
 -4.1231382e-01
  4.1163963e-01
 -2.1038136e-01
  1.5222599e-01
  3.0621475e-01
  2.5061035e-01
  3.5885364e-02
  3.8266476e-02
 -2.5981802e-02
  2.2899967e-02
  5.4535866e-01
 -6.4417318e-02
 -2.5147736e-01
 -2.3102061e-01
 -2.4344630e+00
 -4.8918098e-01
  7.7158695e-01
 -1.0861566e+00
 -2.4891733e-01
  5.5228621e-01
  1.2563729e+00
  1.6103632e+00
  2.8308728e+00
  3.3826908e-01
  7.8510910e-02
  4.3029632e-02
  9.0585724e-02
 -3.0108824e+00
 -3.8332462e-01
 -4.3295458e-01
  1.1496402e+00
  8.9251035e-01
 -3.1483871e-01
 -3.5698795e-01
 -2.2819739e-02
  7.9775095e-01
  5.7213467e-01
  2.1361116e-01
 -5.5538952e-01
  6.1915988e-01
 -6.4747846e-01
  4.9000171e-01
 -1.0491588e+00
 -4.9378157e-02
 -5.2890439e-02
  1.5225928e-01
 -4.7764340e-01
  3.5435028e-02
 -2.8746113e-01
 -1.1841959e-02
  1.6633862e-01
 -1.5159264e-01
 -1.2263818e+00
  9.2509139e-01
  4.7423431e-01
  2.4639773e-01
  3.7511867e-02
  3.8701624e-01
 -4.3185356e-01
  2.5083280e-01
  4.4156483e-01
  3.0625546e-01
  4.6540204e-01
  1.3364906e+00
 -6.1826897e-01
  6.1174846e-01
 -3.9750597e-01
  8.0272955e-01
  3.4012264e-01
  4.6137512e-01
  5.0816846e-01
  5.5823964e-01
 -1.8367587e-01
 -4.3370593e-02
 -1.1660616e-01
 -8.7004960e-01
  3.2176414e-01
  1.4830670e-01
 -4.6077511e-01
  4.7316310e-01
 -4.5460555e-01
 -2.9803427e-02
  5.0971878e-01
 -5.8274692e-01
  3.6414140e-01
  5.1938516e-01
 -6.4311974e-02
 -7.3466724e-01
  8.5508734e-02
  1.1959388e+00
 -3.3063582e-01
 -2.8761607e-01
 -8.0600746e-02
  1.1466160e-01
  9.5363611e-01
 -3.3131391e-01
  1.1859996e+00
 -1.1490312e-01
 -1.1925031e+00
  5.2373171e-02
 -4.1833103e-02
 -1.0522799e+00
 -1.9769773e+00
  3.6531947e+00
  1.7895366e+00
 -2.2365842e+00
  1.1062634e+00
 -3.5160830e+00
 -3.8496971e-02
  3.8308496e+00
 -8.3492643e-01
  9.3283582e-01
 -3.6884775e+00
 -1.5669364e+00
  1.4286523e+00
 -3.1223261e-01
  4.3115344e+00
 -4.0336771e+00
 -1.1969769e+00
  4.5725279e+00
  1.0593466e+00
 -2.7366831e+00
 -2.3658663e-01
 -5.1158357e-01
 -1.3408265e-01
 -8.7690711e-02
 -5.4209131e-01
  1.3889320e+00
 -1.3779298e+00
  2.5845686e-02
  9.2308134e-02
 -1.0381522e+00
 -1.0637980e+00
  2.7157919e+00
  3.1371263e-01
 -1.0695318e+00
 -8.7659854e-01
 -4.3415430e-01
 -3.5178280e-01
 -7.5907743e-01
 -4.6918091e-01
  5.7239521e-01
 -3.2751861e-01
  1.4878475e-02
  9.6446663e-01
  2.6103052e-01
 -5.1620770e-01
 -6.8819344e-01
  5.3329641e-01
 -7.2653785e-02
  4.2238653e-01
 -9.6729940e-01
 -1.6398300e+00
 -2.2243866e-01
  1.9075966e-01
 -1.4605393e-01
 -3.5452887e-01
 -8.2767665e-01
 -6.5189594e-01
  1.8631523e+00
 -8.5703957e-01
 -3.9290088e-01
 -3.4695259e-01
  4.8048958e-01
  1.2381574e+00
  1.3298912e-02
  2.2603938e-01
  1.0786002e-01
  2.2703609e+00
  3.8879764e-01
  5.7987273e-01
 -6.3680357e-01
  1.4461567e-01
 -3.3948791e-01
 -4.1208756e-01
  9.9330053e-02
 -1.9317514e-01
 -4.7777271e-01
  7.7784859e-02
 -4.0826727e-02
 -6.8782252e-01
 -3.9276978e-01
  3.8684380e-01
 -5.6537443e-01
  3.2487220e-01
  6.9998658e-01
  8.8558353e-02
  1.1210818e-01
  1.7007186e-01
  4.9246112e-01
 -5.2606809e-01
 -6.7460620e-01
  7.4866730e-01
  1.6590422e-02
 -6.0849309e-01
 -2.1918315e-01
 -1.8767749e-01
 -9.5649630e-01
 -7.1443044e-02
 -6.6515917e-01
 -2.2383912e-02
 -4.5132285e-01
 -8.6215049e-02
  4.4649357e-01
 -1.4931130e+00
  3.9874080e-01
  2.0957346e+00
 -9.8055743e-02
  9.3172389e-01
  4.3259871e-01
  1.4538975e-01
  5.5205237e-02
 -5.8431983e-01
  3.1889442e-02
 -7.6709650e-02
  4.7844961e-01
 -1.2181994e-01
 -1.3278058e-01
 -1.7526937e-01
  8.0024743e-01
 -2.9908088e-01
 -1.2574197e+00
 -1.1239559e-01
  3.1392741e-01
  3.1721532e-01
  6.4120120e-01
 -2.9577929e-01
  1.7195447e-01
  6.2873292e-01
 -6.9694120e-01
  1.0853209e-01
  3.2072759e-01
  8.9934677e-02
 -2.3337090e-01
 -3.4712601e-01
 -1.2589432e-01
  1.1888727e+00
 -2.6088315e-01
 -1.1850927e+00
  7.8680062e-01
  8.7081742e-01
  1.1369070e+00
  4.6983367e-01
  9.0836003e-02
  9.7424753e-02
 -6.4009595e-01
 -8.1850719e-01
 -1.3589327e-01
  1.1805744e+00
 -7.0532136e-02
 -5.7576025e-01
  1.1033760e+00
 -2.5809798e-01
 -1.4385171e-01
  3.7845162e-01
  2.5941417e-01
 -6.1915344e-01
  3.2240331e-01
  3.0660492e-01
 -1.0548129e+00
  7.8958333e-02
  1.2006102e+00
 -4.4467863e-02
  4.7458567e-02
 -1.3512242e+00
 -5.5442619e-01
 -4.0597495e-02
  4.6073911e-01
  2.6956165e-01
 -8.6400354e-01
 -1.3998367e+00
 -2.9339011e+00
 -1.6205581e-01
 -3.1674571e+00
  2.2254732e-01
  6.5291065e-01
  6.1066908e-01
  4.2489380e-01
  5.5737246e-02
 -4.5417875e-01
  1.3613096e-01
 -2.7741456e-01
 -5.6265593e-01
  3.0733917e-02
 -8.1012201e-01
 -1.8626954e-01
 -5.8255047e-01
 -1.9194323e-01
  3.3008417e-01
  4.3694475e-01
  2.3636600e-01
  8.1181133e-01
  1.9810343e+00
  5.9501630e-01
 -5.1241033e-02
 -7.6866370e-01
  3.2213950e-01
  5.9526706e-01
 -4.2871034e-01
 -6.8611091e-01
  7.2256505e-01
  1.7442085e-01
  1.7342030e-01
 -3.4759603e-02
  2.1468137e-01
 -1.7070411e-01
  1.2138935e-01
 -2.5731173e-01
  2.3486199e+00
 -7.3242444e-03
 -3.3043268e-01
 -1.2063230e+00
  8.0844241e-01
 -2.7781613e-02
  1.4796504e-01
 -8.1189376e-01
 -3.9125192e-01
 -1.8490030e+00
  3.9064842e-01
 -2.4679312e-01
  1.6278144e-02
  8.0708539e-01
 -6.7455679e-01
 -1.3796535e-01
 -5.8673799e-01
 -5.1888986e-03
 -8.0108690e-01
 -4.9467844e-01
  2.1796776e-01
  1.3260497e+00
 -2.8640321e-01
  1.4445363e+00
 -2.5217110e-01
 -3.5919538e-01
  2.5328591e-01
 -1.1846682e+00
  1.3003372e+00
  4.3845317e-01
 -2.4675032e-01
 -7.0317876e-01
  1.4564781e-01
 -5.0868368e-01
  2.3807538e+00
  3.4464645e+00
 -3.2647741e-01
 -5.5477494e-01
 -1.5691827e-01
 -5.0117022e-01
  5.2853024e-01
  9.2050952e-01
 -4.5627454e-01
  2.6562011e-01
  1.0121908e+00
 -4.2450586e-01
 -4.7579682e-01
  4.1250584e-01
  4.9748018e-01
 -3.7472740e-01
 -9.6096253e-01
  4.1916141e-01
  1.2573704e+00
  5.0517613e-01
 -3.9237168e-01
  8.9128214e-01
 -2.4320278e-01
  1.2741484e-01
 -2.6811436e-02
  2.8497046e-01
 -1.6053970e-01
 -3.6157799e-01
 -1.0127942e-01
 -3.1510484e-01
  7.3076141e-01
 -4.7340778e-01
  3.0812159e-01
 -8.8322824e-01
 -4.2388538e-01
  7.3696178e-01
  1.8670130e+00
 -3.6774558e-01
 -7.7051836e-01
 -7.4646902e-01
 -3.9948702e-01
  1.0232374e-02
  7.2974473e-01
 -4.5441782e-01
  1.0276213e-01
 -4.6780747e-01
 -5.1894158e-01
  1.5126200e+00
 -5.5886245e-01
  1.1967878e-02
 -7.5511009e-02
  3.8472247e-01
 -1.8859607e-01
  6.5040462e-02
  3.8332742e-02
 -8.5807122e-02
  2.7438130e-02
  4.3411785e-01
 -4.8739177e-01
  5.5140150e-01
 -3.0209336e-01
  1.4702140e+00
  5.6848460e-01
 -1.9742589e+00
  4.1273066e-01
 -6.6042614e-01
  6.8470764e-01
  6.6834587e-01
  2.5105771e-01
  3.5827374e-01
 -5.9351665e-01
 -3.4005189e+00
 -8.4110910e-01
  2.6622415e-01
  7.8095353e-01
 -2.4874333e-02
 -1.6317078e-01
 -3.7737074e-01
  4.2989364e-01
  1.1064024e-01
  1.8568949e-01
  2.5516376e-01
  3.9802471e-01
  4.2111266e-01
  3.5194825e-02
  2.2862041e-01
 -6.7667550e-01
  5.3422642e-01
 -3.8078618e-01
  3.1731993e-01
  1.0899652e-01
  2.3079927e-01
 -8.1501639e-01
 -1.1724126e-01
  2.5126836e-01
  9.7751182e-01
 -3.5541832e-02
  2.1683691e-01
 -5.2359086e-01
  6.0866028e-01
 -9.8653799e-01
  1.4998515e+00
 -1.4643982e-01
 -9.8229802e-01
 -1.7372903e-01
 -6.0408044e-01
 -2.6221325e+00
 -3.2194862e-01
 -3.8928589e-01
  7.4757415e-01
  1.3768187e-01
  1.0330609e+00
  1.4936810e+00
  6.7591894e-01
 -2.0965738e+00
 -4.3630236e-01
  1.3577815e+00
 -8.3311671e-01
  4.3933553e-01
 -5.2065611e-01
  4.0481365e-01
  4.3288046e-01
  5.1994771e-01
 -4.0270922e-01
 -2.1758088e-01
  9.6467741e-02
 -1.2857573e+00
 -2.1378443e-01
 -1.0168484e+00
  1.0615958e+00
 -6.4885408e-02
 -1.0585719e-01
 -4.9368703e-01
 -1.9657315e+00
 -6.9761366e-01
  5.8978904e-02
 -5.0519514e-01
  7.6810992e-01
  3.2581508e-01
  1.0032865e+00
 -1.0049039e+00
 -7.3549479e-01
  2.7781132e-01
 -1.4114964e-01
  1.1484247e+00
  6.2082839e-01
  5.0071406e-01
 -7.5791144e-01
 -6.4663701e-02
 -2.6088898e+00
  4.0712461e-01
 -2.3188515e-01
 -3.3589199e-01
 -4.5174599e-02
  5.4863177e-02
 -9.2272031e-01
 -5.0538945e-01
  2.2459637e-01
 -2.1332586e-01
  5.7948709e-01
  9.2295051e-01
  4.1305280e+00
 -5.9412116e-01
 -9.0000868e-01
 -4.6655992e-01
  8.1161946e-02
 -6.6760921e-01
 -7.2904623e-01
  7.7510411e-01
  9.9407005e-01
  6.9226187e-01
 -1.8703724e-01
  3.4155750e-01
 -5.4144579e-01
  1.7714636e+00
 -5.2275634e-01
  5.5342454e-01
 -1.7424423e+00
 -1.0302202e+00
 -9.0980166e-01
 -9.7511619e-01
 -1.0586936e+00
  2.8411045e+00
 -5.5830404e-02
  1.1435319e+00
  4.0966508e-01
 -9.6992336e-02
  1.0016817e+00
  1.8954686e+00
 -3.4155050e-01
  3.1851072e+00
  8.9792746e-01
  7.4535990e-01
  2.5166944e-01
  1.7313845e+00
  2.1877847e+00
  2.0456743e+00
  2.8390589e+00
 -7.5778687e-01
  2.5990418e-01
 -2.2266795e-01
  4.9088338e-01
  6.4109987e-01
 -8.4419698e-01
 -6.3968050e-01
  8.6806852e-01
  6.4851634e-02
  6.0767464e-02
  2.2055462e-03
  4.0770188e-01
 -5.4774858e-02
 -1.5226938e+00
 -8.3670229e-01
  8.4328074e-03
  2.3253675e+00
  2.3266779e-01
  2.9924297e-01
 -5.9959936e-01
 -7.9508340e-01
  1.0624639e+00
  4.5562921e+00
  2.1461123e-01
  7.0759958e-01
 -1.6861113e-02
  3.6803409e-02
  1.0594305e+00
  2.2265828e-01
 -1.0458046e+00
 -2.6279607e-01
  5.1296771e-01
  1.9221203e-02
 -1.3380438e+00
 -1.0173050e+00
  1.4240272e-01
 -2.2178819e+00
 -9.2404611e-02
 -8.1201625e-01
 -1.2028015e-01
  1.3486573e-01
 -1.8017270e-01
 -4.3516672e-01
  2.1868206e-04
 -7.1667558e-01
 -1.3374682e-01
 -8.1352329e-01
  4.6741661e-01
 -2.8752676e-01
 -1.4284797e-01
  1.2385684e+00
  3.9949390e-01
  1.7331453e-01
 -1.0846623e-01
 -1.8077258e-02
  2.7125697e+00
  8.2299244e-03
  1.4837416e-01
  1.0382890e-01
 -6.1583650e-01
 -2.0295222e-01
 -2.0219673e-01
  7.9055774e-01
  3.0112880e-01
  2.1651973e-01
  7.8273818e-02
 -3.2357672e-01
  2.1900259e-01
  1.5365334e+00
  1.9196771e-01
  8.3201349e-01
  1.7531073e-02
  8.9374423e-02
 -4.7201967e-01
 -1.8861686e-01
  7.1134686e-02
  3.5053775e-01
  2.2859894e-01
  8.3518106e-01
  4.8779699e-01
 -3.3139634e-01
  2.0820513e+00
 -1.2273787e+00
  2.7158663e+00
  1.4767773e-01
 -8.7982334e-02
 -7.3317146e-01
  4.8012730e-01
 -2.0554863e-02
  1.1257294e-01
  7.5339429e-02
 -2.6321206e-03
 -8.6631721e-01
 -2.8343120e+00
  6.5979399e-02
 -1.1363144e-01
 -1.3523561e+00
 -7.3390138e-01
  3.0357501e-02
  1.3835236e-01
  1.8369645e-01
  5.1809732e-02
 -8.4853244e-01
 -2.3906454e-01
 -6.5097497e-03
  1.8123986e-01
 -3.9885578e-01
  1.0987183e-01
  4.9468353e-01
 -1.2179510e-01
 -3.3109507e-01
 -1.0055201e+00
  3.4955800e-01
  1.7423986e-02
 -7.1871984e-01
  9.0283132e-01
 -4.1244289e-01
  4.4989112e-01
  7.5380331e-01
  6.6920471e-01
  1.3483547e-01
 -1.4580696e+00
 -8.8806488e-02
 -5.1126093e-01
 -4.5760792e-01
  3.8739291e-03
 -6.6863889e-01
 -9.4303375e-01
 -6.2939870e-01
  9.9895075e-03
  9.5783013e-01
 -8.6027142e-03
  5.7543290e-01
  1.2637921e-01
  2.1854909e-01
  6.5064842e-01
  1.2382388e-01
  6.5573728e-01
  6.0124779e-01
 -9.0612876e-01
 -6.1234081e-01
 -1.8722774e-01
 -4.2144629e-01
  1.5206698e-01
  1.8436098e-02
  2.1399313e-01
  3.4403110e-01
  2.6046574e-01
 -4.5897296e-01
  5.7060701e-01
 -2.1881305e-01
  7.1633674e-02
 -1.4930996e+00
  4.7351596e-01
  8.0734736e-01
 -3.6543724e-01
  1.4562987e+00
 -2.0706873e+00
  6.7253637e-01
  2.9007478e+00
  1.6670813e-01
  2.4985662e+00
  2.0695817e+00
  9.5846593e-01
  3.1132524e+00
  1.8320235e+00
  2.7523863e+00
 -1.7209029e+00
 -1.3769782e+00
  7.8328532e-01
  4.1160293e+00
  2.1453030e+00
  5.5223522e+00
 -2.5888038e-01
 -6.7079492e-02
  1.0269982e+00
  4.5889267e-01
  2.9738789e+00
 -8.5424435e-01
  3.1518228e-02
 -3.7239692e-01
 -3.4773210e-01
  3.2934064e-01
 -1.9623545e+00
 -9.7398680e-01
  7.7996349e-01
  6.0184181e-02
 -2.1629527e+00
  1.1638322e+00
 -2.5332465e+00
  2.3936977e+00
 -1.5500927e+00
 -1.7789092e+00
 -1.9727477e+00
  1.0814874e-01
  8.1609297e-01
  7.1010151e+00
  3.9267273e+00
  1.2963654e+00
  1.3706164e+00
  3.6224931e-01
  3.3681216e+00
 -2.3961279e+00
 -4.5227327e+00
 -2.4838858e+00
 -9.9416554e-02
  5.7347105e-03
 -8.1021309e-01
 -4.6342740e+00
  6.7608638e+00
  1.0469812e+00
 -7.2331047e-01
  4.6469307e-01
 -8.3404362e-01
 -5.1661845e-02
 -1.0677626e+00
  6.1267900e-01
  4.8762006e-01
 -1.2444732e+00
  5.2900851e-01
 -8.1495047e-01
  2.6276615e-01
 -3.8488002e+00
 -1.1822914e+00
 -2.9029694e-01
 -2.0776983e-01
 -7.6608604e-04
 -4.3290563e-02
  2.9769173e-01
  7.1772444e-01
 -3.4369603e-01
  3.9508015e-01
  4.7807254e-02
  9.2215204e-01
 -9.2950732e-01
 -7.8893721e-01
  1.2174539e-01
  6.8765104e-02
 -7.4075542e-02
  3.0022421e-01
  1.1124707e+00
 -8.2204014e-01
  3.7884060e-01
 -8.6367148e-01
 -3.3012369e-01
 -6.2094373e-01
 -4.7446354e-03
  3.8436625e-02
  5.3679287e-01
  6.5723628e-01
  3.4663272e-01
  3.1722403e-01
 -4.9731532e-01
  8.2080853e-01
 -4.1193545e-02
 -7.4620023e-02
  4.1761473e-01
 -8.1839627e-01
 -1.6665621e-01
  3.1665128e-01
 -3.0324790e-01
 -2.8976762e+00
 -3.7503329e-01
 -6.6887945e-02
  1.7510666e-01
 -9.8819479e-02
 -1.6557175e-01
 -6.1434275e-01
  6.4068452e-02
 -2.0608135e-01
  6.8529648e-01
 -2.1716526e-01
  7.6340944e-01
  3.7930948e-01
  6.1044353e-01
 -9.1028726e-01
  2.4935418e-01
 -6.6048008e-01
 -5.6195319e-01
  2.8784959e-02
 -8.3246779e-01
 -4.1400886e-01
 -1.1140552e+00
 -4.1003168e-01
 -9.4709975e-01
 -2.1063352e-01
 -8.1165180e-02
  6.7006655e-02
  6.5766782e-01
 -2.2921070e-01
  3.9505597e-02
  2.9218811e-01
  1.5869965e-01
 -1.8340617e+00
  7.6581497e+00
 -5.6399411e-01
  5.3967199e+00
  4.2645633e-01
 -4.1013780e-01
  1.5517765e+00
 -9.7190869e-01
  9.1465211e-01
  8.5014719e-01
 -1.5082421e+00
 -1.8099310e-01
 -1.8691508e+00
 -5.9131116e-01
  7.6497681e-02
 -4.7456053e-01
 -9.2445537e-02
 -1.3185103e-01
 -2.5056186e-01
 -5.9356749e-01
  2.6724277e+00
  4.3981284e-01
 -1.6920200e-01
  5.9262097e-01
 -4.1301540e-01
  7.4786270e-01
 -3.0089762e-02
 -1.1563407e-01
  6.2372261e-01
  9.2709884e-02
  9.4571844e-02
 -3.2858664e-01
  4.6492882e-02
  2.4562880e-01
 -3.6862978e-01
 -3.4775901e+00
  2.0209800e-01
 -1.8571683e+00
  2.3310485e-01
 -5.0061334e-02
 -1.8151394e-01
  4.7673613e-02
  4.6945849e-01
 -5.6668019e-01
 -9.4481936e-04
  3.3273683e+00
  4.3070734e-02
  1.2536660e+00
 -2.5448260e-01
 -4.7592008e-01
 -1.2522303e+00
  2.4332406e-01
  1.9431566e-01
 -7.2061345e-02
  2.6631722e-01
  1.5604994e-01
 -6.5036252e-02
 -2.1440135e-01
 -4.8425654e-01
  9.4672787e-01
 -1.9705116e+00
  2.5231364e-01
  9.4989248e-02
 -3.4150773e-01
  1.4501923e-01
 -5.4630272e-02
  2.2218420e-01
 -7.3679280e-01
  1.3140836e-01
 -8.1175703e-01
 -8.2277930e-01
  7.1490705e-01
  1.1104432e+00
 -2.0897406e-01
 -1.1281087e+00
 -3.8248632e+00
  2.0472953e+00
  6.2046415e-01
 -5.1443022e-01
  2.0243677e-01
 -2.5245695e+00
 -5.0683320e-01
  8.1897736e-02
  3.0864573e+00
  2.0492251e+00
  3.3754387e+00
  2.9173710e+00
 -8.3406940e-02
 -3.2643753e-01
 -5.1839414e+00
 -3.2462358e+00
 -1.5059060e+00
  6.0304074e+00
 -2.6295810e+00
 -5.4011184e-01
 -7.8275329e-01
  8.3964652e-01
 -2.3208337e+00
 -1.8699910e-01
  1.9354770e-02
 -8.6407918e-01
  9.3518980e-02
 -3.6461061e-01
  1.1698390e+00
 -3.3714899e-01
 -1.0365825e+00
  2.0434171e-01
  1.2069552e+00
  2.5521623e-02
 -5.1194960e-01
  3.2115278e-01
  8.4254372e-01
 -5.6436539e-02
  1.1354601e-01
  1.3674884e-01
  1.5617777e-01
  6.8434596e-01
  7.9859096e-01
  1.7109554e-01
  3.4297675e-01
 -5.8330446e-02
  7.0996559e-01
  4.1107781e-02
 -8.1866157e-01
 -3.6112961e-01
  1.9504005e-02
  1.7357744e-02
 -5.7761884e-01
 -1.4612043e-01
 -1.6127081e+00
  7.2678882e-01
 -4.9329701e-01
 -1.0012811e-01
  1.0182041e-03
 -2.5301382e-01
  4.4818494e-01
 -5.8978117e-01
 -8.4834337e-02
 -6.2304284e-02
 -4.8923630e-01
  8.0555296e-01
 -5.8086199e-01
  1.7402117e+00
  1.6793038e+00
  7.3098999e-01
 -1.7345983e-01
  4.6629314e+00
  1.2764081e+00
 -1.8645140e+00
  2.4415824e+00
  5.8602667e-01
 -9.6608388e-01
 -4.3594226e-01
  2.3181221e+00
 -2.0746069e-01
  1.3982081e+00
  5.4364958e+00
  6.4071547e-03
  2.1322952e-01
 -1.9126537e+00
  2.6656446e+00
  1.0045557e+00
 -5.0893331e+00
  1.1954331e+00
  1.5667554e+00
 -2.8297797e-01
 -2.0101421e+00
 -2.6242611e-01
  7.4467070e-02
  2.0418254e-01
 -3.1919892e+00
  6.9234675e-01
  1.8005094e-01
  4.0576082e-02
 -3.0649703e+00
 -9.6671563e-01
  2.5081675e+00
 -5.1052064e-02
 -1.5014012e+00
 -9.1263115e-01
 -1.0803523e+00
  2.9094297e-02
  2.6137194e-01
 -3.0956647e-01
 -9.6836370e-01
  2.2095747e+00
 -9.3216103e-01
 -1.4334768e+00
  2.1519862e-01
  7.0570827e-01
 -7.3034078e-01
  5.1087242e-01
 -4.6184734e-01
 -3.0063537e-01
  2.9606042e+00
 -1.0841237e-01
  2.1816199e+00
 -7.3440200e-01
 -1.2646104e+00
 -4.1629800e-01
  1.7592998e-01
  3.1315678e-01
 -1.3180592e+00
  4.2163432e-01
  6.8028651e-02
 -8.2430834e-01
 -3.2189876e-01
 -2.7422985e-01
  1.4259759e-02
 -1.6648630e+00
 -2.9837718e+00
  1.0059034e+00
  1.2189392e+00
 -2.6717982e+00
 -3.2170555e-01
  3.3272433e-01
  3.0260083e-01
  4.1044366e-01
 -1.7635603e-01
 -2.5174437e+00
  1.2283903e+00
 -5.7834524e-01
  2.2109710e-02
 -1.2450238e-01
 -1.0179721e+00
  1.4238656e+00
 -4.0956098e-01
 -3.8340768e-01
 -1.0092184e-01
 -6.2016349e-02
 -4.8295289e-01
  4.6552446e-01
 -1.8276244e-01
 -8.3357535e-02
 -1.5389378e-02
 -5.1725543e-01
  1.6960416e+00
 -4.6929854e-01
  3.3909315e-01
  6.4561866e-02
 -4.7232118e-02
 -6.3405555e-01
 -6.6525382e-01
  5.0827390e-01
  8.0979079e-01
 -1.2120403e+00
 -1.2338889e+00
  1.2831086e+00
  3.7483400e-01
  9.6766520e-01
  2.8961536e-01
 -1.3930106e+00
  3.7239342e+00
  1.1950584e-01
  1.7470766e+00
  1.5118537e+00
 -3.5221498e+00
  7.5035059e-01
 -5.8836025e-01
  3.8975513e+00
  1.5106218e+00
 -1.4615109e+00
  7.4081534e-01
 -5.0958651e-01
  1.9167405e+00
  6.6045314e-01
 -8.1821799e-02
  1.2414142e+00
  6.6004105e-02
  2.7019560e+00
  4.5504126e-01
 -3.7287566e-01
  5.1064092e-01
  6.4611250e-01
 -1.0974009e-01
 -6.6966534e-01
  2.0287389e-02
 -5.7692528e-01
 -3.7160724e-01
 -2.5837069e+00
 -2.7264330e+00
 -8.0055702e-01
  3.7865263e-01
  1.4768170e+00
 -9.8456311e-01
  1.4149026e+00
 -2.2070904e+00
 -2.1609089e-01
 -6.6053855e-01
  3.9858741e-01
  2.1053185e-01
  5.3785449e-01
 -8.4983951e-01
 -3.2029882e-01
  1.3561583e-01
 -4.5743564e-01
  6.0066879e-01
  8.6938567e-02
 -1.5199935e-01
  4.4215143e-01
 -1.7641510e-01
  2.2235228e-01
 -2.2830679e-01
  2.3397589e-01
  1.0862472e+00
  8.7638479e-01
 -6.0924274e-01
  2.0652504e-01
  2.4454629e+00
 -9.3690658e-01
  4.3692151e-01
  6.6516154e-02
 -5.4895267e-02
  2.9677972e-01
 -5.6957501e-01
 -4.1034877e-02
  9.1923684e-01
  7.6832838e+00
 -4.4941452e-01
 -4.5720181e+00
 -3.3044651e-02
 -1.7877123e+00
 -3.8907347e+00
 -3.9244089e+00
 -1.9615806e+00
 -4.4735438e-01
  9.3310493e-01
 -3.2563357e+00
 -1.4653027e+00
 -9.8728931e-01
  6.8926042e-01
 -1.9165856e+00
  2.3902881e+00
 -2.4322814e-01
 -7.0891190e+00
 -3.1717987e+00
 -1.8799896e+00
  2.4426708e+00
 -2.0975173e-01
  8.1938839e-01
  7.0931059e-01
  1.3146096e+00
 -7.3585115e-02
 -3.2989133e-02
 -1.3855492e-01
  8.8379115e-01
  1.2806085e-01
 -7.6748872e-01
 -1.0068753e+00
  3.6042523e-01
 -1.9369980e+00
  9.1053146e-01
  8.6940831e-01
  2.0604153e+00
 -3.3984470e+00
 -5.2676219e-01
 -1.2095677e+00
  9.9543244e-01
 -5.4306493e+00
 -1.2609174e+00
  8.6736286e-01
 -1.5229571e+00
  1.4803377e+00
  2.6514018e-01
  3.9565326e-03
 -1.3659383e+00
 -2.0589993e+00
  6.5663266e-01
 -2.1011214e+00
 -9.6225008e-02
 -1.9705468e+00
  1.4549803e-02
 -2.6706336e+00
  2.0251828e-01
  2.2564847e+00
  5.1152188e-01
  3.4454119e-01
  2.9897138e-01
 -3.4645924e-01
  3.5494030e-01
 -1.6423117e-01
 -4.5338851e-01
  7.6638007e-01
  4.5040032e-01
  1.4404938e+00
 -2.7414448e+00
 -7.2034270e-02
 -3.8108179e-01
  2.2312627e+00
  6.1438829e-01
  3.8335390e-02
 -2.7020249e-01
  1.3994091e+00
 -1.0458492e-01
  2.5786409e-01
 -1.0904320e+00
 -9.6103825e-02
 -7.3689210e-01
  2.5869226e-01
 -5.1574028e-01
  7.4904859e-01
  2.4147359e-01
 -1.1292388e-01
  1.3757545e+00
 -1.6201692e-02
  3.5985324e+00
  3.4788862e-01
 -1.3115945e-01
 -4.4519556e-01
  6.3917689e-02
  5.8999057e-03
 -6.5666831e-01
 -4.1595611e-01
 -5.0239909e-01
  6.4274526e-01
 -1.4210918e+00
  2.1227644e-01
  4.5688468e-01
  6.3577160e-02
 -1.4645988e-01
 -1.0462384e+00
 -6.3522899e-01
  1.0287628e+00
  6.8293411e-01
 -1.1001637e-01
  7.3607087e-02
 -2.8398604e+00
  9.3751025e-01
  4.1069347e-02
 -2.5000758e-02
 -3.5702139e-01
  1.0506786e+00
 -2.3687406e-01
  5.9830415e-01
  1.4239637e+00
  1.4368823e-01
 -2.0294449e-01
 -6.1091220e-01
  3.8651463e-01
 -4.5531079e-01
  8.1868954e-02
  1.9829544e-01
  6.0330704e-02
 -2.6967293e-02
 -6.7512400e-02
  7.7123153e-01
 -2.8006133e-01
 -1.1470200e+00
 -6.2949920e-01
  1.9508089e-01
  7.4758095e-01
 -1.2614464e+00
  4.6366164e-01
  4.5647976e-01
  1.1583072e+00
 -2.8835455e-01
 -1.1464806e+00
 -3.9972596e+00
  1.9599565e+00
  2.0969265e+00
 -1.0726558e+00
  4.6983585e-01
  4.5913544e-01
  3.9570311e-01
  3.0315019e-02
 -2.8369245e-01
  1.4013730e+00
  2.5175498e+00
  3.5842416e-01
  5.1912200e-01
 -5.6283824e-02
 -4.1361175e-02
 -1.1707095e+00
 -2.0692670e+00
 -1.6602772e+00
 -3.3971176e+00
  5.9573883e-03
  1.1010829e+00
  2.3929779e-01
 -3.8637257e+00
 -2.4499741e-01
  1.6587347e+00
  3.5985014e-01
  2.8357440e-01
  7.7065207e-02
 -5.1262617e-01
  2.0645729e-01
  1.9094247e-01
  1.2380373e+00
 -3.5010552e-01
 -1.1992066e+00
 -1.9903291e+00
  3.3929205e-01
  1.2475188e+00
 -5.5397868e-01
  1.0218699e+00
 -2.0227252e-01
  1.6067052e-01
 -2.5381556e+00
  1.9427555e+00
 -8.8106912e-01
  1.4559379e+00
 -1.3922238e-01
 -2.4367771e+00
  3.4335821e+00
  1.4018618e-01
 -2.5200117e-01
 -9.2815431e-03
 -4.7823435e-01
 -1.0746845e+00
 -2.3789714e-01
  2.2287314e-01
  7.1196878e-01
 -1.1393603e-01
 -1.5267004e-01
  6.3324612e-01
 -8.6399174e-01
 -1.4414850e+00
 -2.5994521e-01
  5.4630584e-01
  4.3839020e-01
  1.2768501e+00
  8.9124084e-01
 -8.3431937e-02
  4.3032080e-01
  1.8692189e+00
 -2.2975789e-01
  2.9758677e-01
 -1.5662137e+00
 -1.4489979e-01
  4.8660037e-01
 -1.3984437e+00
  4.4368979e-02
  2.6767421e-01
 -1.2655619e+00
  9.8641884e-01
  1.1656383e-01
 -3.7725314e-01
 -1.2408366e+00
  2.1903563e+00
 -7.7480376e-01
 -1.2652422e-01
  1.5499260e-01
 -1.4163060e-01
 -1.3370755e-01
  3.0485886e-01
  7.1628475e-01
  8.0085993e-02
 -2.3584969e-02
 -1.2217878e+00
 -9.9626815e-01
  6.1015338e-01
  1.4272092e-01
  1.1304628e-01
  6.3777292e-01
 -1.6765097e-01
 -5.4231161e-01
 -1.7440255e-01
 -1.5192755e-01
  5.7142828e-02
 -6.6424441e-01
 -2.0730233e-01
  2.7049863e+00
  1.3729565e+00
 -1.9282258e-01
  1.0551468e+00
 -4.1750249e-01
  2.2818117e-01
 -9.0965754e-01
 -9.5064193e-01
  1.0768787e-01
  2.5212619e-02
  5.8661240e-01
 -6.7103958e-01
  2.7573276e-01
 -4.4972101e-01
  2.8413212e-01
  1.8275747e-01
 -9.5350778e-01
  1.6079892e-01
  6.1395681e-01
  2.3945898e-02
 -1.0201929e+00
 -3.9581265e-02
  2.1851519e-01
 -1.1043802e-01
 -4.5583329e-01
 -6.0640704e-03
  6.8203229e-01
 -1.5177009e+00
 -9.0281248e-01
 -9.6713346e-01
 -2.5564531e-02
  9.4158396e-02
  3.0096328e-01
  1.8919528e+00
  8.5593969e-01
 -9.8803443e-01
 -2.7167046e-01
  1.2387457e+00
 -1.0345454e+00
  2.5667363e-01
 -5.6125218e-01
 -5.6474224e-02
  2.7471587e-01
 -3.5840502e-01
 -6.9902080e-01
 -3.3967951e-01
  7.5037050e-01
 -6.0873240e-01
  1.4430770e-01
  5.3531241e-01
 -8.1878370e-01
 -2.1305923e-01
 -6.6174287e-01
  3.0812708e-01
 -1.5436274e-02
 -1.4083686e-01
  3.6689219e-01
  1.8200780e+00
 -4.1611654e-01
  2.6989918e-02
 -3.5824472e-01
 -1.3698792e+00
  1.5828162e-01
  1.5883446e-01
 -4.3059686e-01
 -5.9349525e-01
  6.5362203e-01
 -3.0646366e-01
 -1.0297229e+00
 -1.7029221e-01
  1.2957846e+00
  1.0544305e-01
  2.0142178e-01
  7.5765091e-01
  8.5552901e-01
  2.6297233e-01
  6.9992197e-01
  2.7018338e-01
 -4.5197785e-01
  2.6887706e-01
  1.8276087e+00
 -7.1073025e-02
 -1.3446452e-01
 -1.7965795e-01
 -1.2101123e-02
 -1.7146669e-01
  4.0146607e-01
  2.6781970e-01
  3.5194576e-01
  1.3734049e-01
  4.3224177e-01
  9.1091073e-01
  5.5751604e-01
 -2.3802078e-01
  7.2903919e-01
  7.7575453e-02
  6.1085159e-01
 -2.9347378e-01
  1.2241521e-01
  1.3001835e+00
  6.4602435e-01
 -4.4329995e-01
  3.6111015e-01
  3.2140129e+00
  8.3901465e-01
 -8.5784209e-01
 -6.1746573e-01
  1.2164526e+00
 -1.3625412e+00
 -2.2310543e-01
 -6.7696595e-01
  8.5093789e-03
  2.5267377e-01
  1.7623802e-01
 -1.0813566e-01
 -1.3352755e-01
  6.0653657e-04
  4.3604881e-01
  1.9810005e-01
 -1.4173587e-01
 -5.5690581e-01
 -4.7865641e-01
 -1.0158063e-01
  1.1099225e-01
 -7.5825773e-02
 -3.4357846e-01
  7.3429728e-01
  5.0090779e-02
 -3.2326883e-01
  1.7999920e-01
  8.3029997e-01
 -1.2621419e-01
  1.2990326e+00
  3.9905790e-02
  4.4078100e-01
  1.6841528e-01
 -6.3903660e-02
  7.6904738e-01
  1.6025877e+00
  3.4821486e-01
  1.9746144e-01
 -1.0654975e-01
  2.6720765e-01
  6.3271606e-01
  1.3637918e-01
  3.0354929e-01
 -5.7809174e-01
 -1.0799866e+00
 -4.5298681e-01
 -2.4907397e-01
 -5.4262333e-02
  4.3228871e-01
 -1.7090411e-01
 -3.4062603e-01
  2.6882529e-01
 -2.6632512e+00
  1.6428574e+00
  7.3553544e-01
 -3.1493860e-01
  2.2597095e-01
  2.7652037e+00
 -3.0873653e-02
  5.3792274e-01
 -2.9077408e-01
 -1.7842597e-01
 -1.9045078e+00
 -6.8196170e-02
  8.6059488e-02
 -2.0533004e-01
 -6.2281924e-01
 -2.6691443e-01
 -9.1106787e-02
  1.1144292e+00
 -9.7921401e-01
  3.5884979e+00
  3.0339265e+00
 -2.6767156e+00
  3.6862090e+00
  3.4411879e+00
  2.4466011e-01
  3.8499157e+00
 -2.4071212e+00
  3.9541876e+00
  3.5001941e+00
 -3.1547618e+00
 -2.1486261e+00
  3.7114756e+00
 -2.6244910e+00
 -3.8318512e+00
 -2.9231989e+00
  3.9263144e+00
  2.7320063e+00
  2.1337824e+00
  2.4691615e+00
 -3.4969141e+00
 -3.5865438e+00
 -2.1110704e+00
  1.6361176e+00
  2.0771413e+00
  3.1029391e+00
 -2.1634271e+00
 -2.3519220e+00
 -3.5424259e+00
  2.4924712e+00
 -1.7660408e+00
 -3.4915996e+00
  1.7746463e+00
  3.4711368e+00
 -3.4967024e-02
 -1.1936697e+00
 -2.6966894e+00
  3.4619877e+00
  9.4623977e-01
 -1.8692712e+00
  2.9881139e+00
 -3.8480980e+00
  1.7001266e+00
  1.7479873e+00
 -2.1257243e+00
  4.2316718e+00
 -2.3945627e+00
 -1.6588444e+00
  1.0737588e+00
 -1.7805572e+00
 -3.4178958e+00
 -1.5898327e+00
 -2.5773098e+00
  2.6785216e+00
 -2.5835478e+00
  2.7579989e+00
 -3.0003853e+00
  1.9726999e+00
  3.4808390e+00
 -1.2187334e+00
  3.4608901e+00
  1.8884517e+00
 -1.5572853e+00
  2.9233279e+00
  3.2846582e+00
  2.4613094e+00
  2.8448400e+00
 -6.3046975e+00
  1.7435271e+00
  2.0568459e+00
 -2.6494739e+00
 -1.9072948e+00
  3.8671570e+00
 -3.2823582e+00
 -4.5352612e+00
 -7.4402595e-01
  4.6202631e+00
  4.1520491e+00
  3.1916142e+00
  4.3165035e+00
 -1.5450218e+00
 -3.2795720e+00
 -2.7687562e+00
  1.2336838e+00
  2.7685516e+00
  3.2135029e+00
 -5.1873145e+00
 -3.3370574e+00
 -3.1164603e+00
  4.5973678e+00
 -8.2667226e-01
 -2.1398928e+00
  4.9593563e+00
  3.2968116e+00
  2.8902763e-01
  2.1013263e-01
 -1.5780090e+00
  2.4066560e+00
  5.4433096e-02
 -3.3277771e+00
  4.0490370e+00
 -2.4660516e+00
  1.1109959e+00
  1.4129626e+00
 -9.5317310e-01
  2.2752473e+00
 -4.3881273e+00
 -3.9990587e+00
 -3.3409587e-01
 -8.7673551e-01
 -2.6911960e+00
 -1.0688132e+00
 -2.6841733e+00
  3.9318345e+00
 -4.2201886e+00
  3.6930127e+00
 -1.3534948e+00
  3.3941360e+00
  3.4737041e+00
 -1.5730217e+02
  1.8904526e+00
 -6.6826940e-01
 -9.9546432e-01
 -2.8784806e-01
 -5.4142463e-01
  1.8188301e+00
 -1.6958961e+00
 -7.7630973e+00
  2.5128455e+00
  3.2780359e+00
 -8.0260015e-01
 -3.1147554e+00
 -1.1230513e+00
 -4.8386398e-01
 -2.0949533e+00
 -1.1441443e+00
 -1.4238118e+00
 -1.8669065e-02
 -2.5417843e+00
 -3.0469580e+00
 -7.0254403e-01
  2.2577107e+00
  2.3779359e+00
  9.6014231e-01
  5.7776815e-01
  1.9640980e+00
 -6.1438268e-01
 -1.5321480e+00
  1.1047114e+00
 -2.8140160e-01
 -1.0734663e+00
 -3.2844633e-01
 -6.4359494e-02
 -1.4825660e+00
 -1.4971300e+00
 -1.0736436e+00
  9.2012435e-01
 -1.2323627e+00
 -8.3805627e-01
 -5.1787275e-01
  2.0319064e+00
 -2.5766189e+00
 -1.7496549e+00
  3.0645194e+00
  7.7403885e-01
  1.2775807e+00
 -3.0135186e+00
 -1.9738824e+00
 -1.8372163e+00
  3.0960521e-01
  9.7638059e-01
  1.8511768e-02
 -3.6947539e-01
  1.5152899e+00
  2.3319619e+00
  1.7192465e+00
 -1.0562097e+00
 -5.9506901e-02
 -7.5199783e-02
 -1.8537520e+00
 -1.5163633e+00
 -1.7397155e+00
  8.8627577e-01
  4.6658659e-01
 -1.3496828e+00
 -1.5088677e+00
  9.0698034e-01
  6.1552155e-01
 -5.6984884e-01
 -1.1930215e+00
 -6.1905119e-03
  6.1529315e-01
 -2.3833360e-01
  9.4661272e-01
  6.3375366e-01
 -7.5766468e-01
  6.7429924e-01
 -3.6600924e-01
 -1.6340782e-01
 -1.4136953e+00
 -1.5219401e+00
 -2.4369144e+00
 -3.4492207e+00
 -4.8490518e-01
  4.7792217e-01
 -1.5836823e+00
  8.3782959e-01
  1.4414793e+00
  2.6993465e+00
  3.7899327e+00
  1.9942744e+00
  2.0763677e-01
 -8.6448330e-01
 -8.6427653e-01
  6.6560960e-01
 -1.3522155e+00
 -6.2287986e-01
  1.1333483e-01
 -2.1213473e-01
  5.1644713e-01
  4.5344299e-01
  9.7643924e-01
  9.0394691e-02
  1.8668041e+00
  6.5424776e-01
  1.3415198e+00
  7.8899056e-01
  1.5640837e+00
  7.9961681e-01
 -7.9412991e-01
  1.8883789e+00
 -5.6749500e-02
  5.8547682e-01
  5.6127896e+00
  1.1678779e+00
  1.0325828e+00
 -1.2716541e+00
  1.0687172e-01
  1.0601194e+00
  2.1303067e+00
  7.0408002e-02
 -7.1117526e-01
  1.5194182e+00
  7.0209640e-01
 -1.9894695e-01
 -3.2885885e-01
 -1.1058826e+00
  1.2964463e+00
  6.4337146e-01
 -2.7216721e-01
 -9.8491895e-01
 -2.5786570e-01
 -1.5132179e+00
 -8.8759447e-03
 -4.7690737e-01
  1.0321738e+00
  1.0586462e+00
  1.3554661e+00
 -2.9420862e-02
  4.0849528e-01
 -1.7343581e+00
 -9.4990712e-01
 -1.6030163e+00
 -6.3715667e-01
 -1.5645046e+00
 -1.2569748e+00
 -9.4265157e-01
 -5.4607785e-01
 -4.5322779e-01
 -6.0226399e-01
  3.6707413e+00
  3.2274208e+00
 -1.4156483e-01
  8.1342451e-02
  3.4970975e+00
  3.5776381e+00
 -1.5399663e-01
 -9.5025361e-01
 -2.2646838e-01
 -2.4284666e+00
 -1.8475242e+00
  9.5059466e-01
 -2.1767750e+00
 -3.8420698e-01
  1.3703842e+00
  8.6097616e-01
 -1.3658137e+00
  6.3261431e-01
 -1.3054610e+00
 -2.1763399e+00
 -1.6358489e-01
  9.6222115e-01
 -1.2574807e-01
 -7.7270865e-01
  3.6408469e-01
 -5.7125837e-01
 -5.5593824e-01
 -1.3827947e-01
  4.1517851e-01
 -1.9781676e-01
 -4.6810219e-01
 -7.1059388e-01
  5.6107026e-01
 -1.9029222e+00
 -2.4088452e+00
  3.2038155e-01
  2.4258294e+00
 -1.7089158e-01
  1.4636873e-01
  9.0521187e-02
 -1.0839926e+00
  1.8735382e-01
  9.9782205e-01
  7.0849729e-01
 -8.4755093e-01
  1.2212881e+00
  1.1321367e+00
  9.1890240e-01
 -1.8505311e-01
 -1.7147173e+00
 -7.0521235e-01
 -3.9096621e-01
  1.2662879e+00
  1.6843364e+00
  3.2441577e-01
  2.9578787e-01
  7.0235366e-01
  1.3903500e+00
  1.1583044e-01
  1.0911724e-02
 -7.7639717e-01
  3.5476588e-02
  8.4308520e-02
  8.1857309e-02
 -2.7027479e-01
 -3.4698972e-01
 -2.2052829e-01
  5.0767106e-01
 -5.4722071e-01
 -1.3978468e+00
  8.0026895e-01
  3.6293111e+00
  2.8211894e+00
  5.2055740e-01
 -5.2923203e-01
 -4.5716727e-01
  6.2375987e-01
 -1.0645560e+00
  4.0339771e-01
  4.1331148e-01
  1.0996048e+00
  1.1350038e+00
 -5.7982516e-01
 -7.3592436e-01
  4.1295934e-01
  7.6167774e-01
 -4.7624737e-01
 -3.1975243e-02
 -1.1595823e+00
  4.9551511e-01
  8.0138505e-01
 -3.0962393e-01
 -2.8453481e-01
  1.1911677e+00
  1.7247519e-01
 -8.6426759e-01
  4.5099303e-01
  1.3131742e+00
  3.4533206e-01
 -3.5937628e-01
  2.8177661e-01
  2.3373021e-01
 -2.9810932e-01
 -1.1330776e+00
 -8.5015863e-01
  9.8355442e-01
 -1.0531608e+00
 -6.6096210e-01
  4.4531614e-01
 -1.5294763e+00
  1.0492413e+00
  2.1764905e+00
  2.9088175e-01
 -1.2347282e+00
 -6.4350146e-01
  3.6267924e-01
 -9.2116356e-01
 -1.4026835e+00
 -6.5913719e-01
  1.0210617e-02
 -1.4533812e+00
 -2.8485007e+00
  6.1254817e-01
 -3.6054939e-01
 -1.3400757e+00
 -1.2063750e+00
  2.1043256e-01
 -6.1195695e-01
  8.1129044e-01
  6.3296485e-01
 -4.5815355e-01
 -5.5450684e-01
  1.1886717e+00
  9.5821834e-01
 -4.4346327e-01
 -1.0521975e-02
  7.2385162e-01
  2.3119763e-01
  2.5860615e-02
 -5.9273511e-01
 -8.0290097e-01
 -8.8195205e-01
 -3.5242538e+00
 -4.7584796e-01
 -2.2614348e+00
  7.2453660e-01
  1.8605635e-01
  1.6957561e+00
  1.1667691e+00
  2.5439696e+00
 -7.1156830e-01
 -1.0418174e+00
 -1.6270207e-01
  1.8979144e-01
 -9.0627527e-01
 -2.7151840e+00
  1.9464922e-01
 -6.4506924e-01
 -7.6515347e-01
 -6.1547655e-01
  5.0299191e-01
 -6.6451925e-01
  6.0640031e-01
  7.2231328e-01
  1.1413343e-01
 -9.6423149e-01
  5.7120991e-01
  1.6693962e-01
 -4.1325378e-01
 -6.8521500e-01
  3.9701080e-01
 -1.9531551e-01
 -2.5221592e-01
 -2.2722127e-01
  1.2589419e-02
  5.8807564e-01
  8.9198589e-01
  3.0520847e-01
 -6.0673076e-01
 -2.6567299e+00
  9.0825796e-01
  3.2649252e+00
  2.3271618e+00
 -1.3854198e+00
  1.0389456e+00
  1.7528722e-01
  4.1511589e-01
 -1.7067380e+00
  1.2284174e+00
  3.9059341e-01
  1.7986418e+00
  2.8269126e+00
 -1.0075938e-01
 -9.6532792e-02
 -6.9464004e-01
 -1.8961023e-01
 -1.7399909e+00
  5.0748177e-02
 -1.3194559e+00
  7.1071279e-01
 -9.8318350e-01
 -2.4875094e-01
 -8.6968017e-01
  1.0446244e+00
 -1.0144180e+00
 -1.2540711e+00
 -7.1116132e-01
  9.5480019e-01
 -1.8399209e-01
 -4.0664244e-01
  2.9616835e-02
  2.9616835e-02
  2.9616835e-02
  2.9616835e-02
  2.9616835e-02
  2.0425856e-01
  2.0425856e-01
  2.0425856e-01
  2.0425856e-01
  2.0425856e-01
  1.6406114e-01
  1.6406114e-01
  1.6406114e-01
  1.6406114e-01
  1.6406114e-01
  5.0968606e-02
  5.0968606e-02
  5.0968606e-02
  5.0968606e-02
  5.0968606e-02
  2.4840077e-02
  2.4840077e-02
  2.4840077e-02
  2.4840077e-02
  2.4840077e-02
  1.8215278e-01
  1.8215278e-01
  1.8215278e-01
  1.8215278e-01
  1.8215278e-01
  8.9403339e-02
  8.9403339e-02
  8.9403339e-02
  8.9403339e-02
  8.9403339e-02
