nep4_zbl 2 Ga In 
zbl 1.25 2.5 0.7
cutoff 6 5 68 39
n_max 4 4
basis_size 8 8
l_max 4 2 1
ANN 60 0
  4.3433043e-01
  4.8784789e-02
 -7.7568895e-01
  1.4917678e+00
 -6.3883951e-03
  1.0311489e+00
 -2.3780376e-02
  8.4192771e-03
 -3.3118296e-01
  2.8853330e-01
 -2.5083846e-01
  3.3005691e-01
 -1.8875138e-01
 -1.7900690e-01
  2.7386543e-01
  3.7260228e-01
  4.1532099e-02
 -1.0927078e+00
  6.7833759e-02
 -9.1492914e-02
  3.8731866e-02
  5.0641045e-02
  3.1174982e-02
 -4.1101854e-02
  7.1750563e-03
  1.1836013e-02
  1.6375335e-01
 -2.1302332e-01
  9.9598832e-02
 -1.1206844e-01
 -1.7780431e-01
  1.2688072e-02
  5.5218711e-02
  3.5099115e-02
 -1.5006790e-01
 -1.5645738e-01
  2.0599137e-01
  2.0079377e+00
 -1.3381937e+00
  8.3399177e-02
  4.9433779e-02
 -4.7556166e-02
  1.5477385e-02
  1.5793225e-02
 -1.9957538e-01
 -3.5768807e-01
 -5.8271192e-02
 -1.5560773e-01
  3.6847314e-01
 -1.4443804e-01
  5.3719994e-02
 -1.5497814e-01
 -2.0179453e-01
 -3.9632183e-02
  7.5582311e-02
  4.2308331e-02
 -3.3379671e-01
  1.8258460e-01
  2.3336600e-01
  2.7652827e-01
  1.4500277e-01
  4.7841421e-01
  7.9113111e-02
 -2.9651532e-01
  1.3865657e-01
  1.1888579e-01
 -1.3507245e-01
  6.7881304e-01
  6.7384154e-02
  1.1918662e-01
  1.8170382e-01
 -2.2237003e-01
 -1.1037306e+00
  1.2692865e+00
 -3.5611767e-01
 -3.3296201e-01
  2.1979798e-01
 -1.2272174e-01
 -8.8517360e-02
  4.5248769e-02
  2.7144605e-01
  4.3120671e-02
  3.5941876e-02
 -3.4641591e-01
  2.9377294e-01
 -1.4842254e-01
 -3.6113775e-01
  2.0038107e-01
  2.0053819e-01
 -2.2541659e-01
 -2.8448090e-01
 -1.9760320e-01
 -3.7390471e-02
  1.1478218e-01
 -4.1763593e-02
 -6.0960475e-02
  2.9760018e-01
 -3.1806076e-01
  1.3925715e-01
 -3.1370708e-01
  1.7640409e-01
  5.8801547e-02
 -4.3493185e-02
 -3.9820578e-02
  7.0263304e-02
  4.6152940e+00
  3.0521963e+00
  1.6957959e+00
 -8.6516887e-02
  2.9220113e-01
 -6.1020172e-01
  3.8096551e-02
 -6.2558943e-01
  2.5798681e-01
 -2.8222947e+00
 -1.6818572e+00
  1.2968409e+00
  6.5392062e-02
  4.6327031e-01
 -4.2844585e-01
 -1.4443365e+00
 -8.1067413e-01
 -1.0064014e+00
  2.0157367e-01
 -1.7500565e+00
 -8.5934079e-01
 -1.8688555e-01
 -2.6990402e-01
  1.3424219e-01
  1.0994832e-01
 -9.2933320e-02
 -3.3428681e-01
 -2.1196115e-01
  1.0781866e-01
  1.3898873e-01
 -2.8302333e-01
 -6.1159555e-02
  2.2354703e-01
  3.4404024e-01
  3.9970994e-02
 -2.0093782e+00
  4.6797350e-02
 -8.4556431e-01
  6.5652683e-02
 -7.4215740e-01
  5.0383508e-01
 -3.4826058e-01
  3.5324138e-01
 -6.0444617e-01
  2.6383218e-01
  3.8355267e-01
 -1.2549320e+00
  7.9388148e-01
  4.5105100e-01
  9.9626482e-01
  5.6659883e-01
  3.8814276e-01
  8.7514991e-01
 -1.5329795e+00
  1.1737307e+00
  8.8677645e-01
  5.3210455e-01
 -3.6309791e-01
 -2.9942367e+00
  2.4270701e+00
  2.4617143e-01
 -8.8625289e-02
  8.6985417e-03
 -1.1619399e+00
 -2.7329546e-01
 -1.5336606e-01
 -6.0007221e-01
  8.4667987e-01
 -3.5146761e-01
  2.2731380e-01
  1.8807885e-01
 -1.2559590e-01
 -9.2985630e-01
  1.6161159e+00
  7.2510839e-02
 -2.1791783e-01
  7.1731545e-02
  1.0413880e-01
 -1.2526292e-03
 -1.5275018e-01
 -1.2613170e-02
  4.9158476e-02
 -2.0002902e-01
  3.8235869e-02
  5.6806421e-01
 -9.1522858e-02
  8.4462628e-02
  1.4209476e-01
  4.7858991e-02
  1.0352677e-01
 -1.1469463e-01
 -6.6866852e-02
 -2.2270733e-01
  6.3469045e-02
  4.3202251e-01
  5.7263285e-02
  1.0495444e-01
 -6.8138057e-01
 -6.2943478e-03
 -2.1364672e-02
  2.6060823e-02
 -3.5814849e-01
 -1.8089873e-01
  3.2894693e-02
 -1.8788461e-02
 -1.8579769e-01
 -3.1146199e-02
 -1.6375518e+00
  6.2885630e-01
  5.5139959e-02
 -2.9435405e-01
 -2.1666028e-03
  4.6203230e-02
 -7.9521435e-01
  3.3645183e-02
  2.6927429e-01
 -2.4795858e-02
  8.2534075e-02
  8.8532396e-02
  3.1791404e-01
 -7.2421059e-02
 -2.6241068e-02
  2.3825927e-01
  1.3135582e-01
 -1.8535088e-01
  2.3470815e-01
 -3.3411393e-01
 -1.8225272e-01
 -5.9076929e-01
  1.5470739e-01
 -3.3196193e-01
 -3.1618029e-03
 -7.3805906e-02
  2.3442635e-01
  8.9936264e-02
  4.2627653e-01
 -6.8553023e-02
 -3.4504992e-01
  2.2197530e-01
 -2.5494477e-01
  1.7310444e+00
  6.3227944e-02
  2.9999611e+00
 -1.3877369e+00
 -3.6951959e-02
  2.9002063e-02
 -2.4694867e-02
  1.4206125e-01
 -1.5508518e-01
  1.8472873e-01
 -3.6724994e-01
  4.0516996e-01
 -4.4287512e-01
 -3.8741991e-01
 -4.0755123e-02
 -4.4194076e-02
  4.2329526e-01
 -7.5087070e-02
  2.6130378e-01
 -5.2801698e-01
 -1.7567658e-01
  3.7640044e-01
  2.3783028e-01
  1.7812574e-01
  2.2393358e-01
  1.7787820e-02
  4.1020408e-01
 -5.9552902e-01
 -3.0772853e-01
  3.3402008e-01
 -1.5386130e-01
 -6.7064059e-01
  3.6336333e-02
  1.3702409e-03
 -9.2921264e-02
 -1.7228526e-01
  5.0714558e-01
  1.1577523e+00
 -2.1754560e+00
  1.8538941e-01
  7.5736836e-02
 -3.1782588e-01
 -1.6113414e-01
  6.4665671e-03
  1.2161699e-01
  8.5999757e-02
 -3.0608106e-01
 -1.1623321e-01
 -1.0617200e-01
  3.4570139e-02
  1.5223479e-01
  3.3856719e-03
  3.2724354e-01
  2.4057224e-01
  3.5994492e-02
 -2.0184849e-01
  5.7224196e-01
 -3.5734653e-02
 -1.4998841e-01
 -1.2695356e-01
 -4.3309963e-01
  1.3827060e-01
 -4.4733083e-01
  1.6458966e-01
 -1.5264313e-01
  1.1803605e-01
  5.1780012e-02
 -1.6842076e-01
 -4.7053888e-02
  6.0925722e-01
 -5.8816063e-01
  8.0007154e-01
  1.5993085e+00
  1.3298458e+00
  1.7977525e+00
 -9.8242491e-01
  1.8340050e+00
  1.5086345e-01
 -2.5109068e-01
 -6.1420172e-01
  7.5977007e-03
  2.5705800e+00
 -7.3986316e-01
  9.2932081e-01
 -1.8249421e-01
 -3.1160086e-01
  5.8292478e-01
 -2.6073179e-01
  1.9871222e+00
  3.4027088e-01
  3.7679487e-01
  2.0036723e-01
  8.3633266e-02
  1.1072757e+00
  5.2452844e-02
 -9.2902236e-02
  6.1443141e-03
 -2.6444789e-02
  3.8740012e-01
  1.1578742e-01
 -5.6098288e-01
  1.7681237e-01
  2.0054442e-01
 -4.1934970e-01
 -2.6569518e-01
 -9.6466474e-02
 -3.0541134e-01
  1.7064666e+00
 -1.2625632e+00
  2.1048543e-01
 -2.8620347e-02
  1.8652628e-01
  3.1182912e-01
  1.8344572e-01
  1.1629672e-01
 -2.9636866e-01
  3.9178377e-01
 -2.4369559e-01
 -3.0365625e-02
  1.0462407e-01
  4.6933740e-02
  6.6095807e-02
 -2.1631184e-01
 -7.8922659e-02
  3.7140932e-04
  5.7195220e-02
  4.0912721e-02
 -1.0132253e-01
  1.5555823e-01
 -1.0643671e-01
  1.1169431e-01
  3.3909693e-01
 -1.4070778e-01
  3.0197008e-02
  5.2207533e-02
 -3.8798848e-01
  7.6501437e-02
  2.3814665e-02
 -7.8383321e-01
  1.0512022e-01
  2.0872027e-01
 -6.6288477e-01
 -3.9463096e+00
 -3.2502468e+00
 -7.3316755e+00
  5.3840178e-01
  1.4461839e+00
 -4.3354619e-02
  1.3538562e-01
  5.7784602e-02
  8.3185285e-03
  1.7212224e+00
 -7.8824860e-01
 -2.2924376e+00
 -1.9812438e+00
 -1.1535866e+00
  2.6537856e-01
  4.4401226e+00
  4.6190548e+00
  3.7986591e-01
 -2.5886336e-01
  2.5355515e-01
 -9.4498563e-01
  7.2613686e-01
  8.7584925e-01
 -1.5190190e-01
 -5.1382940e-02
  7.0178092e-01
  2.9993491e-02
  1.4788471e-01
  1.1953134e-01
  5.5202045e-02
 -2.0118494e-02
  1.8078980e-01
 -4.0790632e-01
 -1.9798645e-01
  1.0475931e-01
  5.8228070e-01
 -7.7288049e-01
  2.9673094e-01
 -1.2478265e-01
  2.3349498e-01
 -1.2774773e-01
  5.1981095e-02
  6.1612751e-02
  1.1260960e-01
  1.5541431e-01
  2.2774874e-01
  1.6017766e-01
 -7.4435614e-02
 -1.7864424e-01
  4.5616090e-01
  5.4132327e-02
 -8.5960127e-02
  1.8442357e-01
  1.0738119e-02
 -2.7788842e-02
 -1.5240312e-01
 -1.3429368e-01
 -4.6661231e-01
  2.4797115e-01
  2.5140166e-01
  3.6492210e-02
  3.6149364e-02
 -1.8869971e-01
  2.5862409e-02
 -5.7109219e-01
  9.5573790e-02
 -1.7500180e-01
  2.0715315e-03
 -2.0087208e-01
  2.6363292e-01
  7.1855390e-01
 -2.3859837e+00
  4.8592981e-02
 -3.8026877e-02
  1.1822312e-02
 -4.9796474e-01
 -9.9602662e-02
 -2.7853587e-01
  1.7196262e-01
  2.0705078e-02
  5.6336138e-02
  5.8784414e-02
  9.8773330e-02
 -8.7423337e-01
 -5.1170254e-01
 -8.7787682e-01
  2.0132804e-01
  1.1070216e-02
  1.0328827e+00
 -2.2776833e-02
  9.7864985e-02
 -4.9903382e-02
 -9.0236016e-02
 -9.6759990e-02
  1.0777862e-01
 -1.6811639e-01
 -4.0220973e-01
  1.4314525e-01
 -2.0817654e-01
  6.8912499e-02
  1.5844346e+00
 -1.5326907e-01
  9.9639043e-02
 -6.5229082e-01
 -1.0653143e+00
 -1.5154288e+00
  1.9672357e+00
 -4.4841850e-03
  4.5501333e-02
  1.1404729e-01
 -6.8760473e-01
  2.0933987e-01
 -1.4763059e-01
  1.3724536e-01
  4.1922280e-03
  2.1665469e-02
 -2.7400313e-02
 -1.2274559e-01
 -4.6671465e-02
  2.9779020e-01
 -5.0307609e-02
  2.0728347e-01
 -7.8989729e-02
 -2.2279063e-01
  2.6885951e-01
 -1.7170544e-01
 -1.8000433e-01
  1.3962801e-01
  8.6775078e-03
 -2.7294743e-01
 -1.6405830e-01
  1.2640840e-01
  9.0401776e-02
  7.9510450e-01
 -1.0058475e-01
  1.0770278e-01
 -3.8579430e-02
 -4.5347881e-02
  3.1354102e-01
 -7.8181088e-01
  1.5861012e-02
  1.6590647e+00
  1.3316542e-01
 -8.5947789e-02
 -1.6401073e-01
  1.9256216e-01
 -2.6973357e-02
  4.6192354e-01
 -7.3500150e-01
 -5.9414089e-02
  2.8988963e-01
  2.3149906e-01
  1.3346718e-01
 -4.0563613e-01
 -2.4332298e-02
  3.7322823e-02
 -8.5305814e-03
 -1.9068211e-01
  3.5057542e-01
  3.3612916e-01
 -3.1332929e-02
  6.1758988e-02
 -3.8018000e-01
 -1.1569367e-01
  4.8999026e-02
 -4.3355173e-01
  1.6130884e-01
  1.4888097e-01
 -1.8498194e-01
 -2.4723423e-01
  2.6910465e-02
  2.0898621e-01
  3.9140373e-02
 -2.0847058e-01
  3.4993598e+00
 -1.4455341e+00
 -2.7667677e+00
 -7.9201716e-01
 -1.8685193e-01
  3.9263603e-01
  5.8656156e-02
 -1.5203928e-02
 -3.1697670e-01
  4.1618603e-01
 -1.7420916e-01
 -2.3227310e-01
 -5.6306943e-02
 -3.0143468e-02
  1.8384226e-02
 -1.7592470e-01
  3.9682266e-01
 -1.4068651e-03
 -4.6926531e-01
  1.9318607e-01
 -1.0157738e-01
  3.0275866e-01
  8.4788419e-02
 -1.2015570e-01
 -7.9523899e-02
 -3.8715786e-01
  2.4377233e-01
  4.5999386e-03
  2.4568897e-01
 -1.1926380e-01
 -2.7629671e-01
 -1.9468603e-01
  2.4238941e-01
  1.3691580e-01
 -1.2232159e+00
  1.0193657e-01
  1.7680203e+00
 -7.5399840e-01
  1.2778977e-01
 -3.8152069e-01
 -5.7890024e-02
 -2.3758451e-02
 -1.9467928e-02
 -3.7232778e-04
 -1.3385276e-01
  5.6443995e-01
  4.2727834e-01
 -2.7777520e-01
 -4.3779373e-01
  3.7775677e-02
  1.7872979e-01
 -1.3791643e-01
 -3.3827543e-01
 -2.4502207e-02
  3.4848914e-02
 -4.1782735e-03
  2.3332415e-02
  1.3493086e-01
 -9.3725973e-01
  6.4930327e-02
  3.0891920e-02
  4.3498734e-03
  5.8014322e-02
 -6.8425965e-01
 -1.3356705e+00
  1.3975441e-01
  9.5222183e-02
 -1.3990965e-01
  5.5592602e-01
 -2.9342577e-01
  1.7997034e-01
  1.6244705e+00
 -9.4396794e-01
  1.2276744e-01
  5.9353933e-02
 -9.7422741e-02
  1.8739286e-01
 -1.5343848e-01
 -1.6709337e-01
 -2.0112321e-01
 -3.3420944e-01
 -3.3461693e-01
 -1.4098005e-02
 -1.4318603e-01
  4.8641231e-02
 -3.1449050e-02
 -1.5120265e-01
 -3.7886363e-01
  9.0946889e-01
  3.0192262e-01
 -1.5965261e-01
 -2.6848489e-01
 -1.8497345e-01
  3.4809881e-01
  5.7161670e-02
 -2.0515651e-01
 -3.3679628e-01
  6.3154243e-02
 -3.4267175e-01
  2.9632393e-01
  1.1927318e-01
 -6.5258771e-02
 -2.6920739e-01
  4.2598661e-02
 -1.1974256e-01
 -3.5942817e-01
 -1.2612808e+00
  1.2432917e+00
  1.1986638e-02
  8.4495544e-03
 -1.1912059e-01
  1.2448584e-01
  2.0782691e-01
 -7.2296757e-01
  2.5897159e-03
 -4.9305752e-01
 -2.2325884e-03
 -2.6282993e-01
 -2.5846231e-01
 -8.2217671e-02
  1.5481181e-02
 -1.7796868e-01
 -6.8405516e-02
 -2.6196277e-02
 -1.4382048e-01
  6.9116503e-02
 -2.7257904e-01
  4.1579837e-01
 -1.6098978e-02
 -2.2967902e-01
  5.7876074e-01
  1.7106092e-01
  1.7734104e-01
 -2.0165920e-01
  3.1985122e-01
 -2.7587476e-01
 -4.7902730e-01
 -1.6420138e-01
 -1.0776751e-01
 -1.3096342e+00
 -1.1401695e+00
  2.6842353e+00
  3.9973965e-01
 -1.3590612e+00
  3.8347197e-01
 -1.4460362e-01
 -4.8274729e-01
 -1.1836432e+00
 -3.8776643e+00
  6.8343121e-01
  2.5527875e+00
 -2.2483814e-01
  5.7438368e-01
  6.6819817e-01
 -4.9850466e-03
 -2.0577867e+00
 -7.0289230e-01
  3.0399188e-01
 -1.7025018e+00
 -4.7593349e-01
  1.5680367e+00
 -3.6289343e-01
 -8.4704423e-01
  3.9274836e-01
  2.1449739e-01
 -1.0912215e-01
 -2.6410149e-02
  1.0935686e+00
  5.5068146e-02
  4.0439717e-02
  1.3451014e-01
  9.4220817e-02
  1.6526650e-01
 -4.5426179e-02
 -7.6680112e-01
  2.4868409e-01
  1.0407968e-01
 -1.2423006e+00
  2.5524147e-02
 -1.8837240e-01
 -4.6142888e-01
 -2.9807510e-02
 -1.4419030e-01
 -7.9901412e-02
  1.2364674e-01
 -5.0135279e-01
  1.3733032e-01
 -1.2965661e-01
  2.4346258e-01
 -4.3545154e-01
 -1.8242407e-01
  2.0493837e-02
 -2.5527421e-01
  1.2540320e-01
 -4.8570988e-01
  1.4071505e-01
  1.1298209e-01
  6.6692859e-02
 -2.2988936e-01
  8.9996740e-02
 -2.5584099e-01
  5.1451522e-01
  1.0332543e+00
  1.2626800e-01
 -1.4152993e-01
 -9.1913559e-02
 -7.5254425e-02
  6.1476428e-02
 -7.9198360e-02
 -1.0437168e+00
 -2.3259310e-01
  1.2911369e+00
 -2.0797029e-01
 -3.7267151e-01
  2.3956263e-02
 -2.8420052e-01
 -2.4562939e-03
  2.5023437e-01
 -9.3480786e-03
  7.6446556e-02
 -3.7915191e-01
 -1.3147858e-01
  1.8363945e-01
  2.9353464e-02
 -2.7214345e-01
 -5.4675734e-01
  1.6354300e-01
  1.2500092e-01
  2.4532522e-01
 -4.4830486e-01
 -6.4005531e-02
 -1.1892147e-01
  2.5353558e-02
  1.1371292e-02
  1.0501259e-02
  1.6004577e-02
  2.1419214e-01
  1.1066236e-01
 -1.6703595e-01
  4.0094879e-01
 -1.5011984e-01
 -1.0889514e-01
  5.5323150e-02
  2.5075483e-01
 -1.6122206e+00
 -1.1804652e+00
  5.8732796e-01
  3.3243296e+00
 -2.0572245e+00
  1.3777050e-01
  3.2738035e+00
  8.8257766e-01
 -6.7568356e-01
  5.3635168e+00
 -6.8334587e-02
  8.0657685e-01
 -1.3741305e-01
  2.2679651e-01
  1.9025704e+00
  5.7490045e-01
  7.1349925e-01
 -1.5873395e-01
 -1.6403259e+00
  1.6766911e+00
  1.3518652e+00
  1.1308661e+00
  6.2120718e-01
  1.8406971e-01
 -2.9521155e-01
  6.1106853e-02
  1.6847640e-01
  3.6410469e-01
 -7.5941622e-01
 -2.6806161e-01
 -4.8713717e-01
  5.6594577e-02
 -3.5632980e-01
  6.2074807e-02
  2.8210506e-02
  6.5779209e-01
 -3.3943072e-01
 -3.7234936e+00
  5.5965394e-01
 -8.6624518e-02
 -1.1799734e-01
  2.2424711e-02
 -1.3506404e-01
 -3.3101410e-01
  2.1621948e-01
  5.6059130e-02
  2.7778072e-02
  3.1339273e-01
  3.3630839e-01
 -5.2088927e-02
 -7.4670292e-02
 -3.5970810e-01
  3.4284014e-01
  1.3484506e-01
  2.6633450e-01
 -1.1378250e-01
  3.0230847e-01
 -1.5181653e-01
 -4.6589914e-01
 -5.4100811e-01
 -3.4372026e-01
 -2.4952154e-01
  1.0259879e-01
 -8.3248474e-02
  6.9336854e-02
 -3.2452185e-02
  1.0195040e-01
 -4.9671512e-02
 -2.0097862e-01
  6.2759459e-02
  6.8509871e-01
 -5.1961291e-01
 -4.9422485e-01
  8.7822205e-01
  2.7287146e-01
 -5.5428728e-02
  1.4220598e-01
  3.5414478e-01
  9.2023676e-03
 -3.9339259e-01
 -3.3500740e-01
 -4.1140655e-01
  3.2015538e-01
  5.7217367e-02
  4.1171614e-02
 -1.5551576e-01
 -3.2456726e-01
  2.7106810e-01
 -1.9934015e-01
 -1.3402888e-01
 -9.7538717e-02
  2.3471594e-01
  3.3459626e-02
 -1.9790351e-01
  1.0231532e-01
 -1.3931178e-02
  6.5471657e-02
  2.7247444e-01
  6.5924637e-02
  1.8641917e-01
 -2.0347218e-01
  2.0138487e-01
 -2.0422758e-01
  2.1980830e-01
 -3.6788300e-01
  7.4893706e-02
  4.7544692e-02
  1.3884528e+00
 -1.4527863e+00
  1.7357203e-01
  1.5809361e+00
  2.0957905e-01
 -1.1367404e-01
 -4.9483493e-02
 -2.1238121e-01
  8.5514307e-02
  1.5405538e-02
  2.3777556e-01
  3.8602802e-01
 -3.6283106e-02
  7.9152353e-02
  4.0067559e-01
 -3.6236486e-01
  1.4689091e-02
 -4.7156420e-01
  1.7266893e-01
 -1.9281130e+00
  2.6085079e-02
 -1.8171874e-01
  3.9881837e-01
 -2.3625229e-01
  8.6351611e-02
 -2.8535754e-03
  2.0613683e-02
  2.1831772e-01
 -4.4123280e-01
  4.2691049e-01
  1.5767241e-01
  3.5714082e-02
  1.3076596e-01
 -1.1608773e+00
  2.1297066e+00
  4.4592515e-02
 -9.9665779e-01
 -1.0808742e-01
 -1.4686590e-01
  1.5265910e-01
 -1.8314086e-01
 -1.1047599e-01
  3.0387050e-01
  4.3748611e-01
  2.2297335e-01
  9.0286732e-02
 -7.1415029e-02
  1.4650573e-01
 -2.0379749e-01
  6.1036091e-02
 -3.6817333e-01
  8.0414020e-02
  4.1748673e-01
  2.7646631e-01
 -8.2174562e-02
 -1.3200589e-02
  8.5951471e-01
  6.2911622e-02
 -3.9910367e-01
 -5.1085865e-01
 -3.4893206e-01
 -1.1364417e-02
 -2.9847774e-01
  6.9370633e-01
  3.9880618e-02
 -4.7233069e-01
 -4.9051794e-01
  3.4079066e-01
  1.0048395e+00
  1.6598140e-01
 -1.0572162e+00
  4.1937089e-01
  6.7732596e-01
  1.7681338e-01
 -2.5605723e-01
  1.6820481e-01
 -4.6322820e-01
 -1.6301148e-02
 -1.7459567e-01
 -1.4979476e-01
  5.7106924e-01
 -2.4629551e-01
 -7.5286619e-02
  1.7310554e-01
  3.1642877e-02
  6.1307743e-02
 -1.0179148e-01
  1.5118698e+00
 -2.8119540e-01
  2.0236929e-01
 -2.4001688e-01
  1.5063669e-01
 -3.0966777e-02
  3.6057793e-02
  2.9213080e-02
  1.6954251e-01
  3.1149771e-02
 -1.6681549e-01
 -5.3199309e-01
 -3.2728562e-01
 -2.3559639e+00
 -3.7740073e-03
  5.6212205e-01
  2.4426932e+00
 -2.2479632e+00
  6.2987357e-01
 -9.5747240e-02
 -3.6665696e-01
 -3.2972547e-01
  6.6372830e-01
  1.4510312e+00
 -1.2583389e+00
  1.6901172e+00
  9.6925390e-01
 -1.3393879e+00
 -1.0094917e-01
  3.4773245e-02
  2.6547372e+00
 -4.1242757e-01
  8.9613989e-02
 -1.0170203e+00
 -9.0104288e-01
  2.0795484e+00
 -7.3319875e-02
  1.4805710e-01
 -3.4576210e-01
  2.3110680e-01
  4.2134356e-01
  3.7586324e-02
  2.0149656e-01
  6.0732607e-02
 -1.9594841e-01
 -5.9099253e-02
  3.1488901e-01
  7.8312896e-02
  2.0715141e-01
 -3.9870957e-01
  3.1830585e-01
  1.6813987e+00
  2.1572163e+00
 -1.9126043e+00
 -2.4412994e+00
  9.1415387e-01
 -1.0444103e+00
  2.4626838e-01
  4.8892036e-01
  4.8451558e-02
 -2.2942325e-01
 -1.8022989e-01
  7.7084476e-01
  1.3598716e+00
 -3.7405351e-01
 -1.3023846e+00
 -8.9991671e-01
  1.5467448e+00
  8.7732637e-01
  8.6902276e-02
 -1.0548035e+00
 -1.6139915e+00
 -1.1927639e-01
 -1.3821052e-01
  1.3689003e+00
 -1.9926350e+00
 -4.9460322e-01
 -2.0693457e-01
  6.0989030e-02
  2.2784831e-01
  5.7174164e-01
  2.6347923e-01
 -2.1259935e-01
  2.6205721e-01
 -6.1531890e-02
 -4.4904453e-01
 -3.7379600e-02
 -1.0109728e-01
 -1.4213610e+00
  1.2368342e+00
  2.3855060e-01
  2.7990130e-01
 -3.6549356e-02
 -3.3054277e-02
  5.1793978e-02
 -1.4985305e-01
 -2.2745065e-01
 -1.2375256e-01
 -4.5589292e-01
  2.4952898e-02
  1.1305699e-01
  2.8002772e-01
  2.4724960e-01
  5.3541690e-02
 -1.3189296e-01
 -3.5231945e-01
 -1.2422179e-01
 -3.4010935e-01
  4.8677109e-02
  8.9860119e-02
  1.0899703e-01
  1.9834885e-02
 -1.5672699e-01
  4.6404389e-01
 -3.2952940e-01
  2.4967697e-01
  1.2740542e-01
 -2.4743804e-01
 -3.3445258e-02
 -1.8520673e-01
 -3.0089786e-02
  8.9940852e-01
 -9.8476358e-02
 -1.3382126e+00
  6.5021282e-01
 -3.6128145e-01
 -2.9584467e-01
  4.1092973e-02
 -3.9420876e-01
 -5.7577485e-01
  2.5333539e-01
 -3.6755788e-01
  8.8382319e-02
  8.4189586e-02
 -1.5057335e+00
  5.9281725e-02
 -1.5995434e-01
 -4.5149672e-01
 -2.5503656e-01
 -4.4989374e-02
  1.5071257e-02
  1.3495928e-01
 -9.0584204e-02
  2.1539611e-01
  8.4267151e-01
 -1.4463485e-02
 -2.2443065e-01
  1.9985676e-01
 -2.1360376e-01
  7.8660572e-01
 -2.7307433e-01
 -1.7019269e+00
 -4.8614303e-03
 -7.7243382e-01
  1.1152302e-02
  1.4057423e-01
  4.6052808e-01
 -1.0852553e-01
 -9.9480611e-01
  7.7608705e-01
 -1.4071428e-02
  2.0941085e-01
  1.1840796e-01
 -6.7813843e-02
  3.6638054e-01
  3.1913523e-02
 -1.3049504e-01
 -4.0065687e-02
  8.5817128e-03
  2.4883755e-01
 -1.6301954e-02
  3.8840577e-02
  1.4527811e-01
 -3.2023215e-01
  9.0780884e-02
  1.6183700e-01
 -6.3185291e-03
  3.1082755e-02
  5.1464524e-02
  2.7812257e-01
 -1.2962788e-01
  7.4641812e-01
  3.4158608e-01
 -3.5833830e-01
  1.7850213e-02
  2.7606681e-01
  1.0253969e-01
  1.9410033e-02
 -2.1016602e-01
  5.8565333e-02
  7.4303460e-01
 -3.0584345e+00
  4.6911353e-01
  4.9853557e-01
 -1.4890075e+00
 -3.1601685e-01
 -3.0376716e-02
  7.1253106e-02
 -1.4009607e-01
  1.1342444e-01
  2.4188740e-02
 -1.1572848e-02
  2.2923164e-01
  2.5661674e-01
 -7.6207256e-01
  3.9462838e-02
 -1.3555954e-01
  4.4301562e-03
 -7.8266896e-02
 -3.0015409e-01
  7.4389808e-02
  4.6441966e-01
  1.2760724e-02
 -5.0449159e-02
 -1.0879709e-01
  1.3105993e-01
 -3.6841631e-01
  2.9457204e-02
 -1.7960524e-02
  2.9352712e-02
  2.3281848e-01
 -1.3788424e-02
 -2.3199119e-02
  1.0154846e+00
  2.4200383e-01
 -5.5508718e-02
  7.5168157e-01
 -4.2784521e-01
 -1.2111616e+00
  3.0727100e-01
 -1.0685905e-01
  2.1216007e-01
  2.1193694e-01
  9.2917562e-02
  3.3155259e-02
 -1.4202050e-02
  3.8246077e-02
  1.4103094e-01
  3.1518838e-01
  1.3534033e-02
 -4.9121848e-01
 -4.5737568e-02
  9.3817562e-02
  1.2694590e-01
 -6.7473203e-01
 -3.3842227e-01
  1.1994056e-01
 -1.2555487e-01
  2.0494035e-01
 -2.6960212e-01
  3.4434462e-01
  2.1689183e-01
 -2.7174443e-01
 -1.3104302e-01
  1.2355655e-02
  2.0276290e-01
 -3.0869890e-02
  1.4579062e-01
 -4.4678193e-02
 -4.3594569e-02
 -2.6113689e-01
 -5.3848863e-01
 -3.2910001e-01
  1.7071865e+00
  1.4882028e+00
 -8.9031732e-01
 -5.2105314e-01
 -5.1080579e-01
  1.0299246e+00
 -2.7961822e-03
 -3.1776783e+00
 -1.2142528e+00
  7.7566135e-01
  4.2971332e-02
 -1.0255475e+00
 -2.0556970e+00
 -1.1474274e+00
  4.6818256e-01
  1.1711057e+00
  6.6019964e-01
 -8.3484429e-01
 -1.7057732e+00
 -1.1865766e+00
  1.3914335e+00
 -3.8428846e-01
 -8.4490561e-01
 -1.8583503e-01
 -3.2074702e-01
  1.5341710e+00
  4.1880456e-01
 -3.1086719e-01
 -1.2397804e-02
  8.7375671e-01
  8.6121544e-02
  2.2309782e-02
 -4.8277712e-01
 -9.2564595e-01
 -2.7312323e-01
  2.9774639e-01
 -7.7574086e-01
  4.8043787e-01
 -5.6007034e-01
  7.6397628e-02
  2.7293233e-02
 -1.3248785e-01
  6.9001526e-02
  3.4132469e-01
  5.1845270e-01
  1.6556731e-01
  1.0529270e-01
  2.5733936e-01
  6.9589031e-01
  1.6254784e-01
  4.9907722e-02
 -1.1302257e-01
 -1.4573371e-01
  3.9549801e-02
 -6.7422912e-02
  7.4166410e-02
 -1.4238867e+00
 -8.3211929e-02
  2.2857086e-01
 -9.7185001e-02
  1.3340048e-02
  7.7393997e-01
 -2.5919479e-01
  4.3453116e-02
 -2.2249228e-01
 -1.0383500e-01
  4.3050934e-02
 -1.7346886e+00
 -1.0970333e-01
  7.6681030e-01
  1.3261999e+00
 -6.9886094e-01
  3.2761785e-01
  1.4032027e-02
 -5.3263912e-03
  2.3536621e-01
  7.9572611e-02
  9.6031420e-02
  1.2363593e-01
  1.0662267e-01
  6.6355020e-01
 -3.2464880e-03
  1.8802366e-01
  5.4018639e-02
 -2.0109484e-01
  1.4356026e-01
  8.0234170e-02
  2.2305338e-01
  1.1792356e-01
  3.2273042e-01
  1.4330526e-01
  1.8673179e-01
  2.7334178e-02
  4.9963266e-01
 -1.4627600e-01
 -8.3961099e-02
 -3.2998031e-01
 -3.5980248e-01
  2.4894570e-01
 -1.7527740e-01
 -1.7858645e-01
  4.4092696e-02
  3.3022929e-02
  1.3826580e+00
 -3.4360039e-01
 -1.5750329e+00
  9.3683249e-01
 -3.3574570e-02
 -6.6517740e-02
  1.2488003e-01
 -5.4392815e-01
  8.1218503e-02
 -2.1141143e-01
  1.0813406e-01
 -1.6397208e-01
 -4.2244697e-01
  1.3538058e-01
  1.5833133e-01
  1.9621873e-01
 -4.5137617e-01
  1.5585887e-01
 -6.0998734e-02
 -2.3853774e-01
 -1.7581333e-01
  1.5281270e-01
  4.5852456e-03
 -2.7234656e-01
  9.6091464e-02
  2.8895238e-01
 -9.7934619e-02
  1.6777107e-01
  1.6518743e-01
  7.0325203e-02
  9.6490882e-02
 -5.7234328e-02
 -2.8254294e-01
 -7.8903034e-02
 -1.4484146e-01
  1.2477102e+00
 -5.6218153e-01
 -8.6688858e-01
  3.7499982e-01
  1.0477041e+00
 -8.3811951e-01
 -2.2890395e-01
 -5.4873679e-02
  2.5029647e-01
 -5.7492070e-02
  2.0592627e-01
  8.4186785e-02
 -8.4744012e-03
  1.5466310e-01
 -1.4576127e-01
  8.1727035e-02
 -7.6415888e-03
  9.1834202e-02
 -7.3486120e-03
 -6.8815582e-02
  2.3421351e-02
  3.9924401e-01
 -2.0229770e-01
 -7.9375714e-02
 -7.5794652e-02
 -2.4975708e-02
 -8.8141732e-02
 -2.2729939e-01
 -5.7627618e-02
  3.0151432e-02
 -2.2580217e-01
  8.7173775e-02
 -2.4254175e-01
 -1.8720117e-01
 -1.0816421e-01
  6.7207897e-01
 -8.7653345e-01
 -1.1869860e+00
  3.9635095e-01
 -4.0087901e-02
  5.0383461e-01
 -1.7580067e-01
  1.3837457e-02
 -1.6164562e-01
  3.3811274e-01
 -2.3430099e-03
  4.8596513e-01
 -1.8666509e-01
  3.3175015e-01
 -1.5999201e-01
  6.5856266e-01
 -5.4413131e-03
  1.8925208e-01
  1.6655155e-01
 -4.9067117e-02
 -2.4415056e-01
 -2.2944106e-01
  1.5015511e-01
 -4.7808502e-02
 -9.8191828e-02
 -3.1319603e-01
  8.8512503e-02
 -1.6895735e-01
  1.2472556e-01
 -3.0878451e-01
 -1.6433698e-01
 -6.8483800e-02
 -2.8505898e-01
 -4.1989872e-01
  2.2124563e-01
  3.4020770e-02
 -6.2379453e-02
 -1.6254833e+00
  7.3634386e-01
  1.4281076e-01
 -3.9182354e-02
  2.5736552e-01
  1.3000199e-01
  2.9946440e-01
 -1.3640878e-01
 -4.1361179e-04
  2.6367956e-01
  7.3914282e-02
 -8.8852100e-02
 -5.2391481e-02
  3.7831429e-02
  2.7090055e-01
 -1.8216071e-01
 -1.4216389e-01
  2.2877175e-01
 -1.4219329e-02
 -2.0669948e-01
 -1.3318391e-01
 -1.7015737e-02
 -2.8753552e-01
  1.2787658e-01
 -4.0383330e-01
  2.4814624e-01
  1.3085371e-01
  5.4517198e-01
  2.1652137e-01
  5.0069201e-01
 -1.4561294e-01
  1.1220112e-02
 -3.2577130e-01
 -3.5955033e-01
  8.3002508e-01
  1.2706152e+00
 -1.1794388e+00
 -2.0087181e-01
 -3.7707269e-01
  1.4915507e-01
 -2.8344551e-01
  3.6729593e-02
 -2.0020503e-01
 -6.3847609e-02
 -2.4803710e-01
 -2.9729430e-02
  1.9524997e-02
  6.7424369e-03
 -4.4725306e-02
  1.1229825e-01
  4.6447152e-01
  3.0449352e-01
 -2.2970691e-01
 -1.7164420e-01
 -1.1677217e-01
 -1.8019353e-01
 -4.4698864e-02
 -1.7654750e-01
  1.0183419e-02
  1.3373014e-01
  1.0866761e-01
  2.0548716e-01
  5.5146753e-03
 -1.8295352e-01
 -1.8603872e-01
  1.4403185e-01
  1.2408429e-01
  2.3301086e-01
 -1.6795553e+00
  2.5794849e-01
  7.1654624e-01
 -1.2576419e+00
  4.5211393e-02
 -7.2751842e-02
  4.5539573e-01
  3.1833705e-02
 -1.5743116e-01
 -5.3763187e-01
 -7.3019522e-03
  3.9032575e-01
 -7.5884964e-03
  6.0465347e-02
  9.0225026e-02
  1.1192486e-01
  3.0767512e-01
  1.0889402e-01
 -1.1266916e-01
  2.0987977e-01
  2.1486277e-02
  9.1521487e-02
  6.9908738e-02
  1.3985426e-02
  3.6552933e-01
  2.8538594e-01
  5.8841801e-01
 -1.2466948e-01
 -7.1607150e-02
 -9.6790828e-02
 -1.5277038e+00
 -2.3711872e-01
  3.2532635e-01
 -2.2647996e-01
  1.4729664e-01
 -2.8434220e-01
 -5.3677750e-03
  1.7093896e+00
 -8.1075722e-01
  4.7474056e-01
 -1.8966043e-01
  1.1573887e-01
 -1.4484318e-01
 -6.4744733e-02
  1.6991325e-01
 -3.4985453e-02
  6.2323637e-02
  1.2493924e-01
 -4.4219613e-02
  1.6457263e-01
 -7.0315092e-03
 -7.4546629e-01
  4.8285308e-01
 -1.0925233e-01
  2.9402222e-02
  1.0396244e-01
 -6.9109306e-02
  4.2448089e-01
 -7.3893994e-02
 -2.0087057e-01
 -1.0078255e+00
  4.5492247e-01
  2.1890523e-01
 -8.9170611e-01
 -2.2298811e-02
  1.1227404e-01
  6.1829978e-01
  5.0174928e-01
  6.9417477e-02
  9.6268259e-02
  1.1064255e+00
 -4.0374762e-01
 -2.0669676e-01
  1.2515228e+00
  3.3958587e-01
 -5.7650320e-02
 -1.4647189e-01
  1.9516540e-01
 -3.6684994e-02
 -1.0015699e-01
 -1.2526686e-01
  1.1564989e-01
  3.2291479e-02
 -3.1570229e-01
 -2.7775802e-02
 -8.9379616e-02
 -2.1770829e-01
  8.2127887e-01
 -6.3718572e-02
  1.0549711e-01
  8.5072272e-02
  1.8054500e-01
 -3.1957838e-01
 -4.2170435e-02
  1.9676800e-01
  4.8106128e-01
  1.2293990e-02
 -8.1923991e-02
 -1.3306354e-01
  4.8132917e-01
  2.7879559e-02
 -3.1846344e-02
 -3.7915224e-01
  2.4212708e-01
 -2.6518741e-01
 -1.1295030e+00
  6.1083537e-01
  4.4730929e-01
 -1.2499319e+00
  4.1264672e-02
  2.2160375e-01
  6.8625800e-02
  1.1923242e-02
  2.2328545e-01
 -5.4665376e-02
 -1.5566482e-01
 -2.4959184e-02
  4.4560425e-02
  2.2980763e-01
  3.4744644e-01
 -3.3760259e-01
 -6.3540968e-03
 -2.1567942e-01
 -1.9170623e-01
  6.3011110e-01
 -7.1587704e-02
  3.6248703e-02
 -7.1341820e-02
 -3.1498662e-01
  2.6861688e-03
 -1.4016619e-01
 -1.0927250e-01
 -8.5544571e-02
 -2.6156616e-01
  1.7896499e-01
 -1.9771430e-01
 -1.9224894e+00
 -9.8783687e-02
  3.1988102e-01
  1.0390490e-01
  2.7843449e-01
  6.5553203e-02
 -1.0317813e+00
  4.2254716e-01
 -2.3348418e-03
 -7.4796870e-02
  1.2561794e-01
  8.8108234e-02
  6.7738607e-03
 -2.5013727e-01
 -1.7363918e-01
  1.9083473e-01
  4.8811559e-02
 -1.9954427e-01
  1.5415041e+00
 -2.0574214e-02
  1.2476467e-01
 -3.0822340e-02
  1.4717714e-01
 -5.9319127e-02
  4.9156147e-01
 -3.1094944e-01
 -6.0803100e-02
  1.2274803e-01
  2.4787672e-01
 -6.2227607e-02
  4.4525135e-02
 -3.4862682e-02
  1.1273825e-01
  6.0191190e-01
  4.2173490e-01
 -1.3282225e-01
  4.7809073e-01
  2.3407124e-01
 -3.2443977e-03
  2.6022625e-01
 -5.4744160e-01
 -7.4797046e-01
  1.3295337e+00
 -1.0363177e-02
 -1.8098878e-02
 -1.4896449e-01
  1.0313603e-01
 -1.0086313e-01
 -2.4728416e-02
  1.3751258e-01
 -1.8501724e-01
 -1.5601955e-01
  1.4309263e-01
  3.7537212e-03
  1.5668808e-01
 -4.6860804e-03
  2.1657364e-02
 -9.3991518e-02
 -2.2255160e-01
 -3.9486933e-01
  1.1684320e-01
  1.1053908e-01
  3.8827598e-01
 -3.2143500e-01
 -3.4544477e-01
 -5.2021734e-02
 -1.8189687e-01
 -1.6999803e-02
 -1.5050311e-01
  1.7097980e-01
 -1.0436123e-01
  3.5065585e-01
 -3.8137224e-02
 -2.6223991e-02
  3.0603403e-01
 -4.2496312e-02
 -1.5582548e+00
  2.2198293e+00
 -3.8360376e-02
  6.3807853e-02
  6.4643538e-01
  3.3624254e-02
 -9.7547621e-03
  2.6197898e-01
 -1.4246342e-01
  4.8566875e-03
 -2.9559666e-01
 -2.0033984e-02
  1.3952570e-01
 -1.1216258e-01
 -3.3772019e-01
 -1.1904279e-01
  6.9394052e-01
  2.0523062e-01
 -1.2147928e+00
  8.9869693e-02
 -2.5912008e-01
  2.3223253e-01
  2.4825124e-01
 -3.2744455e-01
 -1.3152681e-01
  2.1525094e-01
 -1.1362611e-01
 -9.5373958e-02
  1.4080878e-01
  3.4042358e-02
  9.0120636e-02
 -3.3602834e-02
  5.2736354e-01
 -6.6475403e-01
  3.9791861e-01
  1.6915913e+00
 -7.1315348e-01
 -6.4393044e-02
 -3.1168832e-02
  1.0508136e-01
  4.1073716e-01
  1.8739416e-01
 -3.0376827e-02
  2.7108213e-01
  7.6909888e-01
  1.0248081e-01
  7.3903194e-03
  3.8675934e-02
 -1.0232800e-01
  5.4986078e-01
  7.0904958e-01
 -2.0616982e-02
  1.7424966e-01
  3.1883436e-01
 -6.3391894e-02
  1.0144787e-01
  3.8360201e-02
  9.5055580e-02
  4.3995362e-02
 -1.8772189e-02
 -1.1945360e-01
 -1.7327815e-01
  7.0275635e-02
  7.6564938e-02
 -5.2105117e-01
  4.8664510e-02
  1.5842049e-01
 -1.2961331e-01
 -6.8612272e-01
 -3.1644785e-01
  4.1313085e-01
  6.8457842e-01
  1.2891631e+00
  9.6721756e-01
  6.7929137e-01
  1.0211111e-01
 -6.0476607e-01
  2.5661654e+00
  1.5130438e-01
  8.3354139e-01
 -3.0475023e-01
 -5.4597080e-01
  7.1967328e-01
  1.1349291e+00
 -1.0085250e+00
 -1.6762397e+00
  4.6696436e-01
  3.8468890e+00
  9.9363908e-02
  9.4340241e-01
 -3.4559909e-01
 -2.6610580e-01
  1.7563282e+00
  1.2966002e-02
  3.5380706e-02
  1.7964870e-02
  1.8469265e-01
  1.2106411e-02
 -2.7715948e-01
  1.9643245e-02
  2.2556186e-01
  6.5540634e-02
 -6.0714211e-02
  7.7703500e-01
 -6.7278065e-02
 -7.3634571e-01
  6.9418125e-02
  1.7254996e-01
 -8.4100403e-02
  2.7827942e-01
 -1.8095101e-01
 -9.2042252e-02
 -4.1006923e-02
 -1.2246869e-01
 -9.6387975e-02
  4.7563892e-02
 -5.7204343e-02
  1.9174410e-01
 -1.4931990e-01
 -1.3940322e-01
  1.8050298e-01
 -1.4261505e-01
 -5.2733409e-01
 -1.1106414e-01
 -1.6638356e-01
 -1.6930896e-01
  2.8790608e-01
 -3.3565110e-01
 -2.5617871e-01
 -4.7131866e-02
  1.4305174e-01
 -1.9753224e-01
  4.0508437e-01
 -5.0077325e-01
  7.7879772e-02
 -3.7405973e-03
 -1.4785355e-01
 -4.4502148e-01
 -7.3314333e-01
  3.0353895e-01
  2.0738795e-02
 -1.6091087e+00
  1.0039110e-01
  3.1984236e-02
 -3.0860761e-01
  1.5359790e-02
 -1.7785351e-01
 -5.8810733e-02
 -2.2395832e-02
 -1.3324508e-02
 -5.0516236e-01
  4.4971701e-02
  2.0177208e-01
  1.9106392e-02
 -5.5467241e-02
 -3.8388616e-01
 -1.9279392e-02
 -3.1751387e-02
  7.1535043e-02
 -7.4410141e-01
 -2.0136340e-01
  1.2238560e-01
 -1.5069535e-01
 -1.3927098e-01
  1.8135306e-01
  2.5442964e-01
 -5.3369369e-02
 -1.0998086e-01
 -1.5330715e-01
 -7.7404216e-02
 -1.7191291e-01
 -4.6313959e-01
  7.3104806e-02
 -1.5223053e+00
  2.6439626e+00
  2.7723606e+00
 -2.1832902e-02
 -4.6535158e+00
  2.0001739e-01
  7.7545255e-02
 -2.2823291e+00
  5.2384973e-01
  5.0027663e-01
 -1.7204612e-02
  1.5082576e-02
 -1.5000731e-01
  1.0196495e-01
 -3.4659076e-01
 -1.7580070e-01
  4.2400610e-01
 -8.6742334e-02
  1.4027019e-03
  2.2332564e-01
  5.1863402e-01
 -1.7390326e-01
  2.9912651e-01
  1.4216480e+00
  4.0968180e-02
  5.0517559e-01
  4.0974367e-02
 -3.3528316e-01
 -1.7271740e-02
 -6.8633556e-02
 -2.3971589e-02
 -2.8434679e-01
 -1.2742619e-01
 -4.1120827e-01
 -3.3854181e-01
  8.0472457e-01
 -1.0179220e-01
 -1.0706787e+00
  3.8564315e-01
  1.1347178e-01
 -6.8418793e-02
  9.8194206e-01
 -1.7139916e-01
 -3.9215371e-01
  2.7326918e-01
 -8.5000098e-02
 -2.4268527e-01
  3.9875156e-01
  1.9526480e-01
 -1.5703575e-01
 -2.4791282e-02
  1.9139884e-01
  3.4357464e-01
  1.5795897e-01
 -1.5246069e-01
  2.2866525e-01
 -2.0680967e-01
 -3.2404974e-02
 -2.2612390e-01
  4.2367685e-01
  1.7726588e-01
  2.3472457e-01
 -9.9778242e-02
 -4.6098538e-02
  9.0702765e-02
  1.0896732e-01
 -8.9448944e-02
  1.2989260e-01
  1.3260834e-01
  2.2209255e-01
 -7.2297812e-01
  1.5952602e-01
  1.7968694e+00
 -8.2197106e-01
  2.6739588e-01
 -1.9355761e-02
 -1.5045175e-02
 -4.4503007e-02
  3.0054087e-02
 -3.1139526e-01
 -1.3852468e-01
 -6.6841911e-03
 -1.1074273e-01
  6.1324816e-02
  1.8278569e-01
  1.0539007e-01
  2.2144333e-02
  3.3131656e-01
  8.4765144e-02
  3.2631093e-01
  7.9146338e-01
  1.3937005e-01
 -1.9813119e-02
 -1.1386349e-02
 -5.9700005e-02
 -1.0203289e-01
  1.5002428e-01
 -7.0265897e-02
  2.5020769e-01
  3.6019292e-01
 -3.7877362e-02
 -2.5830621e-02
 -6.8390146e-02
  3.8415171e-02
  1.0147779e-01
  4.7508997e-01
  2.6031871e+00
 -1.1944577e+00
  5.9680688e-01
  1.7238928e+00
 -2.1094337e-01
  1.7015872e+00
  1.0358051e+00
 -1.6628188e-01
  1.7272369e+00
  2.5532678e-01
 -1.8485639e+00
  2.9604426e-01
 -4.7937325e-01
  1.0655335e+00
 -4.4701731e-01
  4.6575837e-02
 -2.1037996e+00
 -2.4250338e+00
  2.0191318e-01
 -2.2899513e-01
 -2.3042874e-01
 -2.2299203e-01
 -2.2717172e-02
  6.4502782e-01
 -1.8313522e-02
 -3.2361308e-01
  5.4775345e-01
 -1.9339933e-01
  4.1262549e-01
  3.0848813e-01
  2.9955167e-01
  3.7937552e-01
  1.1329652e-01
 -3.8169691e-01
 -2.9842153e-02
 -3.0825883e-01
 -1.5179199e+00
  9.0843105e-01
 -8.5989580e-02
 -1.5202844e-01
 -9.7149514e-02
  6.5249786e-02
  2.2251973e-01
 -2.8157026e-01
  7.2523072e-02
  1.0244367e+00
  2.4079227e-01
  2.3125696e-01
  1.9592440e-01
  3.6952928e-02
 -7.3980898e-02
  3.7193958e-02
  1.6594163e-01
  4.8854956e-03
 -7.5166084e-02
 -3.6983233e-02
 -9.8497622e-02
  7.3831774e-02
  5.3919185e-02
 -6.1683130e-01
 -3.0625263e-02
 -1.4361390e-01
 -1.3344184e-01
 -3.0486146e-01
  4.2224422e-01
  8.9135775e-03
 -1.2984420e-01
 -4.5405769e-01
 -2.0468277e-01
  2.4675462e+00
 -1.7622550e+00
  1.5505061e+00
 -6.4066893e-01
  2.1784971e+00
  2.6572595e+00
  2.6044748e+00
 -1.6686367e+00
 -2.1074746e+00
 -2.0884242e+00
 -2.7312474e+00
  7.5284302e-01
 -3.2012208e+00
 -2.3031387e+00
  1.4914827e+00
  3.3173716e+00
 -1.9280279e+00
 -1.6978489e+00
 -2.2807267e+00
  2.0819712e+00
  4.2035100e-01
 -2.2501476e+00
 -2.1633093e+00
 -1.3929348e+00
  1.6428739e+00
  2.8818228e+00
 -2.3976641e+00
 -1.7509519e+00
  2.3162041e+00
  4.2900100e-01
 -2.0361028e+00
  2.7729955e+00
  2.3654065e+00
  3.0432744e+00
 -1.9246013e+00
  2.6779642e+00
  5.4266155e-01
 -3.1998022e+00
 -2.0471783e+00
  1.6026458e+00
  2.5914326e+00
  2.3813605e+00
  2.5179913e+00
 -2.1920700e+00
 -2.2247801e+00
 -2.5952361e+00
  2.6713498e+00
 -3.1456635e+00
  2.8809605e+00
  1.6664362e+00
  1.2387257e+00
 -2.2076554e+00
  1.9213347e+00
  2.5551403e+00
 -2.9196355e+00
  1.7624183e+00
  3.3030729e+00
 -2.7575369e+00
 -2.9722860e+00
  3.0912461e+00
  2.0210681e+00
 -3.3775113e+00
  3.3904475e-01
 -3.3328006e-01
  2.4340513e+00
  3.6165006e+00
  2.5461245e+00
 -1.8950368e+00
 -2.5250139e+00
 -3.8838546e+00
 -3.9154813e+00
 -1.8999207e-01
 -1.6313539e+00
 -4.7367549e+00
  1.1056492e+00
  2.8940351e+00
 -7.1101028e-01
 -2.1150193e+00
 -2.1139905e+00
  1.6189764e+00
 -1.1868322e+00
 -8.1087631e-01
 -6.0820192e-01
  3.5701793e-01
  2.8599849e+00
  3.0212264e+00
 -3.4205606e+00
 -1.1968225e+00
  1.7448053e+00
  5.6650072e-01
 -2.8404698e+00
  4.2917862e+00
  2.1077764e+00
  6.8616662e+00
 -4.3410358e+00
  1.5600704e+00
 -3.2644901e-01
 -3.4713571e+00
 -6.1471587e-01
  3.5710025e+00
  2.2354968e+00
  1.2941111e+00
  1.5982946e+00
 -3.9547267e+00
 -2.3027344e+00
 -2.4581573e+00
  1.4283793e+00
 -2.7223592e+00
  1.2766875e+00
  3.4768215e-01
  1.9436426e+00
 -2.4845629e+00
  1.9861227e+00
  7.8037614e-01
 -3.6757872e+00
  5.0467193e-01
  2.9710178e+00
 -3.9448113e+00
 -1.5367154e+00
  3.8004725e+00
 -3.1261724e-01
 -2.8172603e-01
  7.2078839e-02
  1.2481450e+00
  5.5316424e-01
 -2.3276798e-01
  1.1725923e-01
 -2.1997780e-01
 -4.1871646e-01
 -3.3837207e-02
  1.5272799e-01
  5.5857934e-02
  3.9673540e-01
 -5.5263644e-01
 -1.9797853e-01
  3.5803416e-01
 -1.6117725e-01
  5.5060238e-01
  9.8256372e-02
 -1.8346224e-02
  6.2157687e-02
  2.6882625e-01
  2.3712717e-01
  1.6231664e-01
 -7.7457988e-01
 -2.9551989e-01
 -3.9172754e-02
  2.5932610e-01
  5.1414651e-01
 -2.1658575e-02
 -1.5159661e-01
 -4.4702984e-02
 -3.3568051e-02
 -1.9567649e-01
 -1.5185255e-01
  2.8284961e-01
 -5.5686045e-01
  5.3431046e-01
 -1.8636858e+00
 -2.9772213e-01
 -4.6835527e-01
 -1.3763130e-01
 -2.3757045e-01
  5.5332672e-02
 -1.7661975e-01
  3.4844998e-02
 -2.2276397e-01
 -3.2600766e-01
 -3.9427280e-01
  1.5503027e-01
  4.9336666e-01
  1.6431035e-01
  9.3032706e-01
 -1.1319388e-01
 -5.3393471e-01
 -2.0826396e-01
  2.6740124e+00
 -1.6983500e-01
  3.6426920e-03
  5.7403155e-02
  5.2132525e-02
 -7.4279822e-02
  1.0059483e-02
 -4.6082573e+00
  2.2561544e-01
 -7.5178243e-02
 -4.3773127e-01
 -4.0422291e-01
 -3.7507889e-01
  9.7345404e-02
 -5.6922013e-01
  4.7334969e-01
 -3.7622643e-01
  1.6265692e+00
  4.0362861e-02
 -1.1443033e+00
 -7.8921746e-03
  1.2228980e-01
  8.7103598e-02
 -3.2536587e-01
 -4.4578114e-01
  1.2450977e-01
  4.2716417e-01
  1.1252149e-02
 -8.3757579e-02
 -3.3707596e-02
  2.6489958e-01
  9.5289372e-02
  3.2472914e-01
  5.2839935e-01
 -3.0973917e-01
  1.3222064e+00
  1.1216515e-01
 -6.2817670e-02
 -3.2616094e-01
  4.5626286e-02
  3.1389770e-01
 -1.5949281e-02
 -1.4918497e-01
  6.3131553e-01
 -3.7636709e-01
  3.2305494e-02
  4.1874877e-01
 -9.5191240e-02
  3.3927917e-01
  1.2369876e+00
 -2.9903066e-01
  5.3780967e-01
 -7.3619539e-01
 -1.5883075e-01
  9.1381706e-02
  1.1911180e-01
 -1.0678431e+00
 -2.6470391e-02
  6.0771525e-02
 -6.1163973e-02
 -3.2145608e-02
  3.9594930e-01
  8.4420145e-01
 -1.2680726e-01
 -2.9719132e-01
 -4.4701196e-02
 -2.9544553e-01
 -6.5080053e-01
  4.9625590e-01
  4.6812972e-01
 -8.7445647e-02
 -2.4092196e-01
  1.1580999e-01
 -7.7929974e-02
  1.3752140e-01
 -2.6640505e-01
 -1.2024406e-01
  5.2770317e-01
 -2.7643368e-01
  2.0072639e-01
 -1.3447687e-01
  4.2987692e-01
  5.4884911e-01
 -1.6581029e-02
  2.1635923e-01
  1.0288565e-01
  2.5407332e-01
 -1.2435598e+00
  7.8848459e-02
  2.4583568e-01
 -1.1588468e-01
 -3.5859201e-02
  1.0083228e-01
 -6.4587241e-01
  2.0215012e-01
  2.6126483e-01
  5.6076840e-02
 -2.0196751e-01
 -5.3415185e-01
 -3.7884329e-02
  4.2281356e-01
  3.7370238e-02
 -8.4401734e-02
  5.1153939e-02
 -3.4312159e-02
  2.6424533e-01
  2.1015003e-01
  4.4468407e-02
 -2.0181932e-01
 -1.6549522e-01
  7.7973819e-01
  6.4953819e-02
 -2.7260995e-01
  2.3866335e-01
 -1.1022964e+00
  3.7643182e-01
  1.2365026e-01
 -1.5157372e-01
  3.8695267e-01
 -2.0006080e+00
  1.1319839e+00
 -3.7879090e+00
  1.5198001e+00
  2.4811096e+00
  2.4808147e+00
  8.7585710e-02
  2.7998161e+00
  1.7964934e+00
  1.9587924e-01
  2.5336485e+00
  5.5724806e-01
  8.4074217e-01
  1.6999692e+00
  7.8048751e-02
  2.2956531e+00
  2.5085720e-01
 -7.1784353e-01
  4.9580991e-01
 -2.5652695e-01
  6.5130293e-01
 -3.7025797e-01
  1.4274015e-01
  3.5120255e-01
  1.9323846e-02
  4.0705085e-01
 -7.1869098e-02
 -3.7204481e-03
  1.8770616e-01
 -2.8707376e-01
 -3.7432951e-01
  1.5568854e-01
 -5.3566337e-01
  5.3925800e-01
  1.1390659e-01
  8.1570554e-01
  2.0883341e-01
  1.9407386e-01
 -1.0504073e+00
 -1.5210794e-02
  1.6305107e-01
 -3.3626789e-01
  1.6523626e-01
 -1.0441912e-01
  4.5504631e-03
  2.5668693e-01
  1.5115719e-01
  3.2688877e-01
  2.0515317e-01
 -1.3690256e-01
  2.3355508e-01
  2.6158446e-01
  2.4859373e-02
  5.0563376e-02
  3.1343940e-01
 -1.5583038e-01
  2.3117341e-01
 -1.8177404e-01
 -7.5188741e-02
  3.4500924e-01
  1.4479924e-02
 -1.0975165e-01
  1.0146108e+00
 -3.4540391e-01
 -5.7518172e-01
 -2.4294602e-02
  6.3549155e-01
  4.8307338e-01
  7.9269707e-02
 -1.4151135e-01
 -1.0029902e+00
  4.5918643e-02
 -1.3784862e-01
  1.4446598e+00
  6.2994039e-01
 -3.5828972e-01
 -2.6833117e-01
  5.1871407e-01
  7.5951181e-02
 -7.1758904e-02
  6.8758470e-03
  7.1133532e-02
  2.7492806e-01
 -4.4828495e-01
  2.8721178e-01
 -9.5911312e-01
 -1.6455503e-01
  1.0719205e-01
  1.8314507e+00
 -9.7882234e-02
  3.6065824e-02
 -1.0361067e-01
 -3.6448365e-01
 -1.4014180e-02
 -6.2198800e-01
 -4.2077643e-01
  3.8558537e-01
 -1.2481296e-01
  2.6813179e-02
  5.1597215e-02
  2.6740582e+00
  1.4116459e-01
 -1.2004422e+00
 -3.1272229e-02
 -2.4631032e-01
  9.1387331e-01
 -1.8690431e+00
  1.1689969e+00
  3.9592203e-02
 -2.5256751e+00
  1.2311577e+00
 -1.7046044e+00
  6.5272242e-01
 -2.4392831e+00
  5.0876433e-01
  1.0295696e-01
 -1.5727683e+00
 -2.5018733e+00
  9.8423237e-01
 -4.8052385e-01
  7.9161441e-01
 -3.0511024e+00
  2.1698744e+00
 -1.9558432e+00
 -2.3541732e+00
  1.4180399e+00
 -9.2924643e-01
 -8.8866073e-01
 -1.3671887e+00
 -4.9840391e-01
 -1.2539554e-01
 -5.7671968e-02
 -3.5645357e-01
  2.0666839e-01
  2.8518718e-01
  3.9022392e-01
 -1.9649167e-01
  3.2287839e-01
  1.5321428e-01
 -9.0616323e-02
 -2.6035866e-01
 -1.2633361e-01
  8.8353336e-02
  1.9178965e+00
  8.3998656e-03
 -2.4319199e-01
  1.7603128e-01
 -1.8258975e-01
 -1.1611815e-01
  4.5246264e-01
  4.0385939e-02
  1.3338231e-01
 -2.2379927e-01
  3.6487493e-01
  8.0008537e-02
  1.0015128e-01
  1.7929675e-01
 -1.2897904e-02
  2.6567790e-01
 -4.4938821e-01
 -2.9572735e-02
 -2.3660699e-02
 -2.8295004e-01
  2.3834800e-02
  3.5670510e-01
 -2.1628331e-01
  1.5222229e-01
 -1.2184975e-01
 -4.3627877e-02
 -6.2848680e-02
 -4.3761098e-01
 -1.1272834e-01
  1.4023781e-01
 -1.9094577e-01
  5.6127228e-02
 -4.5691198e-01
 -2.9441521e+00
 -2.9420380e-02
  1.3615370e+00
 -1.9002351e+00
  3.5108485e+00
  1.6613704e+00
  4.6898395e-01
  3.3097503e-01
  2.8101152e-01
  4.2308617e-01
  1.3260961e+00
 -1.5305160e+00
  6.1591375e-01
 -1.1346591e-01
 -5.7792324e-01
  2.4819024e+00
  2.3722689e+00
  9.7171855e-01
 -1.2243537e+00
 -5.8555222e-01
  1.4223573e+00
  1.5266576e+00
  9.0776771e-01
  4.5258608e-01
 -3.4864742e-01
 -9.5735557e-02
 -6.8831839e-02
 -2.4822520e-01
 -8.0344297e-02
  2.2254759e-01
  3.2917061e-01
 -8.2471454e-01
 -2.1582927e-01
 -7.5190401e-01
  3.6489168e-01
  2.5449973e-01
 -2.0977703e-01
 -1.3912237e+00
  1.3453077e-01
  4.0035811e-01
  2.6228231e-01
 -4.0089780e-01
 -1.8210669e-01
  1.0063143e+00
 -1.2498455e-01
 -1.1156439e-01
 -9.6451387e-02
  3.8198280e-01
 -4.0079881e-02
 -2.2858010e-01
 -1.0770442e+00
  9.8339808e-01
  3.1520182e-01
  3.0466193e-01
 -4.3776304e-01
  7.6486516e-01
 -2.2352241e-01
  5.7038760e-01
 -5.5766911e-03
  2.2354764e-01
 -2.7920771e-01
 -2.2192201e-02
 -7.5123417e-01
  1.6955281e+00
  9.1234374e-01
  1.6170228e-01
  1.8782791e-01
  1.1263788e-01
 -2.4798927e-01
  3.4628102e-01
  2.9593015e-02
 -5.2575517e-01
  1.9931715e+00
  7.0766762e-02
 -3.5700831e-03
  2.7696347e-01
  2.3655796e-01
  1.6938692e-02
  5.3309309e-01
  1.3770549e-01
  1.7866684e-02
 -1.5335296e-02
 -4.4189587e-02
 -5.5531764e-01
 -2.3326455e-02
  1.6961773e-01
 -2.3527804e-01
 -8.0597013e-02
 -1.3740168e-02
 -3.0586722e-01
  4.3605778e-02
  8.7489747e-03
  7.0237923e-01
  1.9477209e-01
 -1.8751946e-01
  1.4675395e-01
 -2.0118348e-01
  2.8849205e-02
  8.9465566e-02
 -5.9579551e-01
 -9.8451704e-02
 -3.1413662e-01
  3.4120327e-01
 -2.9287127e-01
 -2.2140402e-01
  1.6776814e-01
  1.5287320e-01
 -1.9037251e+00
 -1.8270108e-01
 -9.9141240e-02
 -4.4763052e-01
 -6.5264344e-01
 -4.8511961e-01
  2.5854808e-01
 -9.1831535e-02
 -2.2062689e-02
 -1.4962320e-01
  3.7731528e-01
  4.1935552e-02
 -2.2086176e-01
 -5.6912792e-01
 -3.2952079e-01
  1.3561800e-02
 -2.1695064e-01
 -1.1864214e-01
  4.1024324e-01
 -4.2643237e-01
  1.0551976e-01
  1.5428893e-02
 -4.0719699e-02
  2.5975502e-01
 -3.7696514e-01
  2.3530541e-01
  3.6276287e-01
 -5.7732493e-01
 -8.8651314e-02
 -1.5749581e-02
  2.3033308e-02
 -1.8875758e-01
  1.5233413e+00
 -1.1681254e-01
  2.3576625e-01
 -1.2122242e+00
 -9.1975659e-01
  4.9430001e-01
  2.9937310e-02
  6.4492390e-02
 -1.7516597e-01
  5.7820085e-02
  4.1727450e-02
  2.0114084e-01
  3.1466725e-01
 -4.4512919e-01
  4.9299714e-01
  8.5657305e-01
 -3.7507254e-01
  1.4574803e-01
  1.3720791e-01
  2.5806049e-01
  8.3382225e-01
  1.7534850e-02
  4.9672540e-02
  5.4459758e-02
  7.6773101e-01
  4.5693761e-01
  7.6496899e-02
  1.6201638e-01
  6.2184106e-03
 -7.9293829e-01
 -2.6174622e-02
  1.2996725e+00
  1.0466067e-01
  6.2803513e-01
 -1.8868874e-01
  3.7543926e-01
  3.3125706e+00
 -2.0742919e+00
 -1.4886007e+00
  1.5300920e+00
 -8.1975587e-02
  2.3045731e+00
 -1.7012848e-01
 -3.8625686e+00
  1.2759423e-02
 -5.3127307e-01
  2.1975574e+00
 -1.0576109e+00
  5.8225250e-01
  8.7353662e-02
 -2.2091183e-01
  1.0485829e+00
 -1.8931253e+00
  6.1710036e-01
 -3.6406323e-01
  1.1203023e-01
  8.0431223e-01
 -1.2054510e+00
 -7.9279876e-01
 -1.1727413e+00
 -9.0168547e-03
  2.0262292e-01
  1.1521618e-01
 -3.1954283e-01
 -9.9609983e-01
  7.3277280e-02
 -1.2230134e-01
  1.3826035e-01
  4.1691118e-01
 -1.1025432e+00
  8.1243443e-01
 -6.6437721e-02
  1.6499223e-01
 -1.3602602e+00
 -5.9977204e-02
  7.4668422e-02
 -2.8183230e-03
  6.6873133e-01
 -8.0491871e-02
  4.0518656e-01
  4.1390243e-01
  1.0644951e-01
  3.6037678e-01
  7.7437662e-02
 -1.0727011e-01
  3.1982079e-01
  2.4274698e-01
  3.5483498e-02
  9.7580701e-03
  2.5739664e-01
  1.0037142e-01
  6.0776436e-01
 -6.0124435e-02
  4.8017597e-01
 -3.0607823e-01
 -7.5706676e-02
 -4.6551015e-02
 -8.6709216e-02
 -3.3370298e-01
 -2.0889930e-02
  4.5313239e-01
  1.8801951e-01
  5.5726701e-01
  8.8824714e-03
  7.8332528e-02
 -4.2231727e-01
 -8.0750138e-01
  1.6231148e-02
  2.2927749e+00
 -6.6827089e-01
 -2.0916796e-01
  8.1305817e-02
 -3.6249250e-01
 -3.9026374e-01
 -1.1396343e-01
 -1.3603547e-01
 -8.6509280e-02
 -2.4347649e+00
  5.5805584e-03
  4.7685558e-01
 -4.7375694e-01
  2.3587614e-01
  7.2544008e-02
 -7.9874970e-02
  5.2921697e-02
  1.4997773e-01
 -2.2293612e-01
 -2.1173781e-02
  2.6347446e-01
 -1.5640798e-01
 -2.6077551e-01
 -2.6497406e-01
 -7.3662899e-02
  5.8082908e-01
  2.3801129e-02
 -1.7644444e-02
  5.6035545e-02
 -1.6938178e-01
  2.0232424e-01
 -3.5395235e-02
 -8.7158597e-01
  4.4419476e-01
 -5.9081686e-01
  1.2401656e+00
  1.5490273e-02
  3.7898007e-01
  1.3193535e-02
 -2.8682610e-01
 -3.2808498e-02
  2.9003105e-01
  6.1366218e-03
 -4.3059695e-01
  2.3191050e-01
 -3.2049203e-01
 -3.7132642e-01
 -1.2956376e-01
  7.0475060e-01
 -2.8826165e-01
  1.1938591e-01
  5.1939452e-01
  8.9687631e-02
 -9.6214458e-02
  8.2879953e-02
 -7.3392290e-01
  1.4010046e-01
  9.3714193e-02
 -1.5807165e+00
 -2.0527487e-01
  4.7731665e-01
 -2.7395195e-01
  3.3519936e-01
  1.3478044e-01
 -3.7383121e-01
 -2.6714647e-01
 -2.7228555e-01
 -1.0265870e-01
  2.4815502e+00
 -2.1346221e+00
 -9.0975863e-01
  5.6575221e-01
  4.6913154e-02
  2.3537607e+00
 -6.0834098e-01
  1.0679557e+00
 -2.3614731e-02
 -4.7939706e-01
  1.3663546e+00
  1.6257862e+00
 -2.6939043e-01
 -5.4916155e-01
  5.0296400e-02
  2.9129374e+00
 -3.8887200e-01
  1.1740313e-01
  1.2012606e+00
  1.0319357e+00
  9.8304987e-01
  2.5623235e-01
  1.0826346e-01
  2.9449883e-01
  1.2233010e-02
  3.4776533e-01
 -9.9564970e-02
  9.0325481e-01
 -9.0488970e-02
 -5.3841883e-01
 -5.0568014e-02
 -1.3399670e-01
 -6.0655993e-01
  9.7666187e-03
  4.7351003e-01
  5.5681504e-02
  6.5660641e-02
 -2.1102552e+00
 -1.1763155e-01
  6.0473990e-01
  8.5074045e-02
 -1.1181146e-01
  1.5640320e-01
  1.0790534e-02
 -2.1404898e-01
  8.1448860e-02
  2.3824301e-01
  5.8267218e-01
  5.7556367e-01
 -1.6276313e-01
 -1.9612730e-01
 -1.8000191e-02
  3.0320084e-01
 -4.0436760e-01
  8.9179218e-02
 -1.0419611e-01
  7.9695962e-02
 -4.3832344e-01
 -7.7062935e-01
  2.0394730e-03
 -1.4316523e-01
 -3.2171404e-01
 -5.5125795e-02
  3.3822879e-01
 -4.0237755e-01
 -3.2128254e-01
 -2.4929591e-01
  4.4205956e-02
 -4.6422389e-01
 -7.1957159e-01
 -2.0396477e-01
 -6.7813516e-02
  1.6362196e+00
  7.0101368e-01
  1.6084771e-01
 -1.8344877e-02
  2.3493297e-01
 -4.1309051e-02
 -7.6348007e-02
  6.3698030e-01
 -8.9971572e-03
 -1.0582177e-01
 -2.8299317e-01
  1.0943305e-01
  2.3832433e-01
 -4.7415322e-01
 -4.1398335e-02
  3.1184009e-01
 -1.1025573e-01
 -3.2990557e-01
  3.3826243e-02
 -5.8324295e-01
 -1.5044911e-01
  7.7211149e-02
 -3.4786668e-01
 -8.0194467e-01
 -6.8836093e-02
  2.6526368e-01
  1.2590049e-01
 -7.2782792e-02
  2.7102923e-01
 -2.1604477e-01
 -3.4826237e-01
 -5.3874648e-01
 -4.2451078e-01
  8.4144019e-02
 -3.4441340e-01
  1.5182009e+00
  4.8632804e-02
 -7.8464828e-02
  6.2625766e-02
 -1.2101209e-01
  3.8101131e-01
  9.9546593e-03
 -1.3135898e-01
 -8.0863342e-02
  4.2545143e-01
 -1.6382660e-01
  1.6133578e-01
 -1.0282187e+00
  3.1356639e-01
 -3.8317472e-02
  2.8656432e-01
  1.8708199e-01
  1.6506477e-01
 -4.2738324e-01
  6.6867039e-02
 -4.1063508e-01
  2.4423277e-01
 -1.5168981e-01
 -1.6640297e-01
 -4.5183804e-02
 -5.6118432e-02
  3.7867278e-01
  1.2454262e-01
 -3.3358151e-01
 -3.4230854e-03
 -2.2555102e-01
  1.7827587e-01
  5.5252079e-02
 -1.4935328e-01
 -5.6994203e-02
  1.9950203e+00
  2.6866522e-01
  2.7210036e-01
  4.0707859e-01
 -5.8392193e-02
  5.7659876e-02
  1.4827135e-01
  3.0957597e-01
  7.5420379e-03
 -3.1937400e-01
 -3.3910388e-01
 -9.4001687e-01
  1.8682128e-01
 -9.6297130e-02
  6.2980217e-01
 -7.4575001e-01
 -8.0670804e-01
  5.1918095e-01
  2.3964469e-01
  3.1587872e-01
 -2.6968583e-01
 -5.9746876e-02
  2.5714245e-01
  2.5922716e-01
 -9.6828294e-01
  4.8439106e-01
 -8.0524939e-01
  3.9322132e-01
  1.1885612e-01
 -9.9247670e-01
 -4.4640398e-01
  7.9750538e-01
 -4.8302722e-01
 -2.2986467e+00
  3.3680780e+00
  6.2287760e-01
 -6.6044110e-01
 -7.8477269e-01
 -1.9747076e+00
 -2.7304649e+00
 -4.0024629e+00
  1.2513359e-01
 -8.9798623e-01
 -3.3854845e+00
  2.0057406e-02
  1.5743538e+00
 -2.3088105e-01
  2.1612239e-01
 -3.4453762e+00
 -1.2505515e-01
 -1.5486220e+00
  2.2432957e+00
 -7.5345671e-01
 -2.3244019e+00
 -2.0615921e+00
 -3.5928917e-01
  1.6530178e+00
  3.7234688e-01
  2.4581745e-01
 -5.3728878e-01
 -3.9345980e-01
 -5.8804085e-03
  5.0811374e-01
 -3.7250761e-02
  3.0565614e-01
  3.6439067e-01
  4.3499371e-01
 -6.0482877e-01
  3.9346206e-01
  2.8368950e-01
  9.1488367e-01
 -4.6064764e-01
  2.2073892e-01
 -1.1357612e-01
  1.4443369e-01
 -8.1479941e-03
  6.8882370e-01
  6.0892439e-01
  1.8544932e-01
 -5.3043477e-03
  1.4589882e-01
  1.0749047e-01
  4.2469496e-01
  6.1756134e-01
 -3.2388854e-03
  2.5490198e-01
 -1.5233007e-02
 -3.7209046e-01
 -1.3830727e-01
 -1.0680795e-01
  2.5653049e-01
 -4.3796802e-01
  6.0004371e-01
  5.0827754e-01
  1.8074362e-01
  5.0160325e-01
  3.2815933e-01
  6.7119502e-02
 -2.1305427e-01
 -8.5131295e-02
  2.7127725e-01
 -2.9508056e-02
  3.8603166e-01
 -3.2044614e-03
  3.5863695e-01
 -1.3550225e+00
  9.0762489e-03
 -2.1889375e-01
  4.0846780e-01
 -1.0895396e-01
  3.6581948e-01
  2.6385218e-01
 -3.2117363e-02
 -1.3846667e-02
  2.4442114e-01
  5.3593808e-01
 -1.0872287e-01
  3.8172716e-01
  6.9107324e-01
 -1.0221885e-02
  1.2503782e-01
  8.7352231e-02
  2.6087236e-01
  8.1187242e-01
  1.7465250e-01
  4.3770287e-02
 -6.3931078e-02
  7.2134703e-02
  4.8447007e-01
 -5.3710443e-01
 -5.2071162e-02
  8.8147992e-01
 -3.0133484e-02
 -3.8685750e-02
 -1.5386616e-01
 -1.5088842e+00
  5.1717363e-02
  1.1209971e+00
 -3.3868268e-01
  8.1453931e-01
  1.5304338e+00
 -6.6606730e-01
 -6.8238461e-01
 -1.4783518e-01
  8.8011175e-01
 -1.7407198e-02
 -3.3989346e-01
 -2.3775698e-01
  4.9316859e-01
 -6.2326592e-01
 -1.2748197e+00
  3.4694451e-01
 -1.1026512e-01
 -2.5471535e-01
 -2.3275100e-04
  3.8488948e-01
  1.2845378e-01
 -2.8667003e-01
  1.1902951e-01
  6.8270236e-02
  9.6021965e-03
  1.0733821e-01
  4.3948326e-02
  3.5832558e-02
 -5.3139657e-01
  3.1070533e-01
 -1.6508086e-01
  2.5248417e-01
 -3.9805076e-01
  4.2200688e-04
 -1.3648300e-01
 -3.4205109e-02
 -4.5904827e-01
 -3.2427587e-02
 -3.0590750e-02
  2.1553242e+00
  4.0842190e-01
  4.5654288e-01
  1.6694028e-02
  2.7126211e-01
 -1.3466313e-01
 -2.8058550e-01
 -5.7778198e-01
 -1.1420258e-01
 -1.1950260e-01
  4.4290707e-01
  1.7949362e-01
 -1.6648366e-01
 -8.5148811e-02
 -8.9321965e-01
 -4.5071051e-01
 -3.6825401e-01
 -5.1922504e-02
 -8.3053790e-02
 -4.7543660e-02
  1.9502720e-01
 -1.1314040e-01
  9.1068186e-02
  3.1090108e-01
 -4.3465742e-01
 -1.4089918e-01
 -1.2308996e-01
  2.0965132e-01
  2.6262691e-02
 -8.6949922e-02
 -2.7876842e-01
 -2.8592034e-03
  1.1805830e+00
  4.6932314e-02
  3.3029297e-01
 -1.4316951e+00
  8.3950929e-02
 -1.5581508e-01
  3.6047670e-01
 -3.1303445e-01
 -9.8990761e-02
 -2.6684093e-01
 -2.0392511e-02
  5.3034585e-02
  2.4717517e-01
 -6.0344982e-01
 -1.4437161e-01
  2.0930498e+00
  6.3559341e-01
  1.2389304e-01
  3.4828678e-01
 -3.4650680e-02
  2.8039435e-01
 -1.2258790e-01
 -2.3481274e-01
 -1.5218969e-01
  6.9946879e-01
 -1.3661644e-01
  2.1826357e-01
 -4.8869494e-01
  2.4006961e-01
  1.7108378e-01
  8.8401437e-02
  5.8072370e-01
  9.9714540e-02
 -1.5413167e-01
  6.5485579e-01
 -3.4225953e-01
 -8.3712733e-01
 -3.0414887e-02
  1.2615788e+00
 -6.4608239e-02
  1.8448220e-01
  4.3826738e-01
 -3.6781110e-02
 -2.7319059e-01
 -3.6980999e-01
  9.7830445e-02
  5.1874392e-02
 -5.8654003e-02
  7.3441915e-02
 -1.9905865e-01
 -2.5326874e-02
 -2.6901636e-01
  2.1723144e-02
  3.5153985e-01
 -6.6850387e-02
 -6.9264553e-02
 -2.1903348e-01
  4.5086205e-01
 -1.1438329e-01
 -7.3995836e-02
 -3.6482343e-01
 -4.2867098e-02
 -2.4676090e-02
 -2.2284171e-01
 -5.1188443e-02
  8.5151233e-02
 -2.5304091e-01
 -3.6524865e-03
  1.2659186e-02
  6.6920094e-02
  2.2270460e-01
 -2.4894556e-02
 -1.3102053e+00
  1.6621348e+00
  2.1383658e-01
 -1.9842720e-01
 -8.1200588e-01
 -3.3130714e-01
  8.0985595e-03
 -1.1692624e-01
  1.2104917e-01
 -1.2246975e-01
  3.9915481e-01
 -5.7445312e-01
 -3.8356176e-01
 -1.1686081e-03
 -1.3720208e-01
 -1.6625310e-01
 -4.5811245e-01
  6.9140506e-01
  3.4300214e-01
 -3.9667362e-01
 -1.1445111e-01
  1.8081540e-01
 -4.9322033e-01
  1.0438649e-01
 -7.6549870e-01
  3.7174830e-01
  6.1657256e-01
 -1.4833815e-01
  6.2480819e-01
  2.9433254e-02
  1.5895022e-01
  2.9061443e-01
 -1.2880506e-01
  4.1624255e-02
 -2.9449835e-01
  1.1013435e-01
 -1.7869496e+00
 -4.0092558e-01
 -7.6122481e-01
  2.5292131e-01
 -2.0678872e-01
 -3.0315855e-01
  5.1016320e-02
 -7.6056898e-02
  2.3172867e-01
  4.0222872e-02
  3.7804425e-03
  4.4495457e-01
  8.5022092e-02
  9.8631293e-02
 -3.3092815e-01
  2.4431704e-01
 -3.0673587e-01
 -1.7730916e+00
  9.3141878e-03
  5.9393283e-02
 -6.4996314e-01
  6.4176686e-02
 -1.1655391e-01
 -5.4110980e-01
  1.2318118e-02
 -5.7463937e-02
 -1.1073591e-02
  1.4851123e-01
  4.7364131e-01
  9.0628993e-03
 -1.9360332e-01
  2.7627832e-01
  3.1217459e-01
  1.5458892e-02
  5.8282465e-01
 -1.8051032e+00
 -1.9887283e-01
 -4.2176580e-01
 -3.4438483e-02
  5.1602918e-01
 -8.7257311e-02
  3.3858647e+00
 -5.2660352e-01
  3.2925531e-01
 -4.7481221e-01
  6.0563272e-01
  5.1572669e-01
  5.0233203e-01
 -4.8134491e-01
 -3.0676964e-01
  6.7061877e-01
  1.9257537e-01
  3.4316695e-01
 -5.1509675e-02
 -1.4748025e-01
  3.3669224e-01
  6.7980886e-01
 -1.4511806e-01
 -4.2722568e-01
  5.6628686e-01
  2.0543783e+00
  2.6087195e-01
 -8.3422300e-04
  3.2974383e-01
  7.5092554e-01
  3.5307163e-01
  1.4763038e-01
  3.0083868e-01
  1.4170997e-01
  2.4418670e-01
 -1.1940193e+00
 -3.8070437e-01
  4.5394558e-02
  3.6325252e-01
  1.8533368e-01
 -5.8790201e-01
  3.5383108e-01
 -1.8839262e-01
  2.4217413e-01
 -2.2071385e-01
  1.1085656e-01
  3.8741454e-01
  7.9519933e-01
 -2.8471327e-01
 -5.7994132e-03
  1.7868537e-01
  1.2424523e-01
 -1.2668456e-01
 -7.5587504e-02
  2.8174925e-01
  8.1075830e-03
  1.6051789e-01
 -6.5535165e-02
  3.3257890e-01
 -5.6328505e-01
 -1.0684002e-01
  7.2883594e-01
 -2.2713172e-01
  8.4800236e-02
 -3.8942408e-02
  2.1272488e-02
  2.8222936e-01
  1.2817419e+00
  1.5424107e-01
 -1.0238130e-01
 -2.0602627e+00
 -2.5177712e-02
  1.9047862e-01
 -1.7632002e-01
 -5.3351170e-01
 -1.9180726e-01
  1.0377716e-01
  3.4327975e-01
  4.7222671e-01
 -1.6915146e-01
  5.1628172e-01
 -4.3896890e-01
 -2.6259657e-02
 -3.8717620e-02
 -7.0035815e-01
 -2.5710651e-01
  2.6296303e-01
  1.7777439e-02
  6.6821057e-01
  8.5896127e-02
 -4.5104258e-02
 -1.0590196e+00
 -2.2721797e-01
  6.2791342e-01
 -2.7131861e-01
 -4.1201344e-01
 -2.0374671e-01
 -9.7823694e-02
 -6.8863493e-01
 -3.6896035e-01
  6.8936810e-02
  6.4724252e-02
 -7.8727543e-01
  2.8187312e-02
  8.6169523e-01
 -1.2189941e+00
 -2.8326890e+00
  1.9793946e-01
  1.1290376e-02
  1.5129621e-01
  3.3853051e-01
 -1.3095693e-01
  1.0832764e+00
  3.9406434e-02
 -2.0915629e-02
  3.4324884e-01
  1.6989559e+00
 -9.8717511e-02
  2.2753793e-01
  3.8447744e-01
  8.3804004e-02
  2.5767317e-01
 -1.7980379e-01
  6.2161189e-01
 -4.2142134e-02
  4.2234731e-01
 -2.9761347e-01
 -1.1930495e-01
  4.9057525e-02
  2.0980307e-01
  5.4809134e-02
 -6.7711121e-01
 -3.7090766e-01
  1.9158063e+00
  3.9535651e-01
 -1.3597909e-01
  2.4984606e-01
 -2.6294765e-01
  2.7298504e-02
  1.1730585e-01
  2.0143604e+00
  5.9203286e-02
 -1.8269253e-01
  1.1670585e-01
  2.3572123e-01
 -1.5857747e-01
 -7.4473441e-02
 -2.7046454e-01
 -1.2148503e-01
  2.5298381e-01
 -7.8176491e-02
  2.0940177e-02
 -3.7146464e-02
 -9.5279075e-02
  1.5718665e-02
  3.4614345e-01
  5.0255597e-01
 -6.4855881e-02
  4.5973265e-01
  5.3616311e-02
  1.8319123e-03
 -4.8086181e-01
 -1.6613607e-01
 -2.7670556e-01
  1.7336905e-01
 -6.1388636e-01
  2.4711272e-02
 -8.0625284e-03
  4.2717004e-01
 -6.8091929e-02
 -5.9349102e-01
 -4.9459204e-01
  6.3546842e-01
  2.0086993e-01
  4.6480349e-01
 -2.2042150e+00
  7.5476265e-01
  3.8671877e-02
  5.3349727e-01
  6.9574392e-01
  7.7982261e-03
  3.5996947e-01
 -2.2574049e-01
 -4.2185068e-01
  4.6841010e-01
 -7.8379199e-02
 -2.8740384e-03
  4.6184998e-02
 -2.0280455e-01
 -3.9867532e-02
  1.4769277e-01
 -2.5791231e-01
 -4.7496565e-02
  2.5271982e-01
  2.5667893e-02
 -3.3497727e-01
  5.1029702e-03
 -5.2856290e-01
 -4.4687562e-02
 -6.2104344e-01
  3.9165211e-01
  5.7295120e-01
 -1.4083830e-01
 -3.0333290e-01
 -1.4881368e-01
  1.0441212e-01
 -3.7106636e-01
 -8.2322747e-01
  2.5138569e-01
 -1.9859229e-01
  1.5506545e+00
 -1.1317511e-01
 -2.4241170e-01
 -2.9221323e-01
 -3.5769895e-03
 -1.4533313e-02
 -4.9118370e-01
 -8.2090497e-02
 -3.8415158e-01
 -1.2558774e+00
 -4.2848876e-01
  1.5178818e-02
  1.2143308e-01
 -1.1616328e-01
 -3.4777366e-02
  1.5462230e-01
  3.5027515e-02
  5.7379570e-02
 -7.4758731e-02
  1.6462660e-01
 -1.1952308e+00
  2.5788382e-01
  4.2320904e-01
 -3.8981092e-01
 -2.1839446e-01
 -4.5406523e-01
  1.0761337e-02
 -2.3308223e-01
 -2.4064080e-01
  2.4278222e-02
 -4.9238969e-02
  5.4072762e-01
 -5.9337544e-01
  3.0117673e-01
  1.2708494e-01
 -1.8758947e+00
 -7.4749522e-02
 -8.4807441e-02
 -3.6735407e-01
  2.7011093e-01
  9.3570322e-02
 -1.0472396e-01
 -8.5172035e-02
 -2.5315275e-02
 -8.7273008e-01
  2.3356950e-01
 -3.5033936e-03
  1.7954977e+00
 -3.9390832e-01
  7.3889322e-03
 -3.7266970e-01
 -1.4010260e-01
 -1.0978230e-01
 -1.5375601e-01
  1.6811006e-01
 -2.0542200e-01
  1.5873978e-01
  4.0605053e-01
  3.1353268e-01
  4.4306657e-01
  2.5587422e-01
  3.7514809e-01
  4.5293465e-01
  5.1237655e-01
  2.0650738e-01
  9.9054515e-02
  5.3490919e-01
  7.0290631e-01
  1.2320960e-01
  9.4872944e-02
 -1.3068584e+00
 -2.3431549e-02
  3.4167549e-01
  8.6756311e-02
  7.5988978e-02
 -7.1458924e-01
  1.7564541e-01
 -4.8059323e-01
  3.9170116e-01
 -2.8315872e-01
 -4.5243047e-02
 -1.0540386e-01
  1.6832894e-01
 -2.7745873e-01
  1.8565165e-01
  5.5411577e-01
  2.9868907e-01
  3.1256072e-02
  2.5285885e-01
 -3.5927108e-01
  9.7282119e-03
 -5.5337203e-01
  6.3454068e-01
  5.8298212e-01
  5.0520432e-01
 -7.0224041e-01
 -4.9472016e-01
 -9.3405801e-01
 -2.6623994e-01
 -7.7725524e-01
  2.7166912e-01
 -1.6345632e-01
  9.8439433e-02
  2.3492903e-01
 -1.1585136e-02
  1.9506037e+00
  1.8543349e-01
  3.8463020e-01
 -5.3379871e-02
 -5.1969975e-01
 -4.1745290e-01
 -1.0332568e-01
 -4.5222351e-01
  3.1242155e-02
 -4.0422410e-01
  5.9958093e-02
  2.6633648e-02
 -5.2879531e-02
 -2.0159003e-01
  1.6368380e+00
  1.4913188e-02
  1.2337732e-01
  5.8951807e-01
 -6.7163444e-01
 -3.4726407e-02
 -1.9620305e-02
  8.1625516e-03
  2.6342258e-01
  9.0664077e-01
  6.3137189e-02
  1.0739751e-01
 -1.6515747e-01
  1.8497923e-01
 -1.3033915e-01
  4.0948987e-01
 -3.1573966e-01
 -1.9798212e-01
 -5.3663981e-01
 -2.3349822e-01
 -5.3317052e-01
  2.5264337e+00
 -1.2671242e-02
  5.5323221e-02
  6.4528018e-02
  7.8538615e-01
 -2.3975487e-01
 -2.6001042e-01
  1.1069398e-01
  1.1925973e-01
 -1.0205608e-01
 -7.8175806e-02
 -2.2027192e-01
 -5.2405268e-01
  1.2185354e-01
 -3.0073091e-01
 -7.4692197e-02
 -6.1792750e-02
 -1.7859372e-01
  1.4150749e-01
  8.0369525e-02
  7.0333767e-01
  4.5102605e-04
 -1.6893576e-01
  7.7577728e-01
  3.1778276e-01
 -2.7047050e-01
 -4.9555451e-01
 -2.1569377e-01
  2.4241453e-01
  7.5393029e-02
 -1.7151801e-01
  5.5557087e-02
 -3.0678564e-03
  6.5404870e-02
 -4.6349376e-01
  1.5108243e+00
 -4.3528295e-01
  3.1641188e-01
 -8.9712352e-01
  2.7725619e-01
  4.5615971e-02
  3.4471488e-01
 -5.0171405e-01
 -2.5359088e-01
  2.1853073e-01
 -6.1111853e-02
  6.1886255e-02
  4.9395010e-02
 -6.4449847e-02
 -6.6309679e-01
 -2.9206941e-02
  8.0924386e-01
 -3.7647378e-01
 -1.2786160e-01
  1.1409462e-01
  3.1142041e-01
 -5.7996314e-02
  4.2394263e-01
 -1.2909266e-03
 -5.1739049e-01
  3.0889314e-01
 -2.8177455e-01
  3.0840248e-01
  4.7976604e-01
  2.4456013e-02
  2.4127889e-01
 -2.1120395e-01
 -2.3963958e-01
 -1.6137259e-01
 -2.6113373e-01
  1.9602183e+00
  5.8100194e-01
 -4.7677506e-02
 -3.8698056e-01
  1.5686427e-01
  4.3539260e-02
 -6.7536883e-02
  4.2024949e-01
  6.9101191e-01
  7.0647842e-01
 -2.5075155e-01
 -2.1597779e-01
 -6.5207684e-01
 -1.5215975e-01
  2.3407720e-01
 -5.7638359e-01
  1.7857361e-01
  1.4439504e-01
  2.0688893e-01
  1.8955322e-02
  7.6799208e-01
 -6.5857664e-02
 -4.6286240e-02
 -1.5919922e-01
 -2.0359662e-01
  5.9984910e-01
 -3.3911741e-01
  2.7404639e-01
 -5.7926512e-01
  3.3986229e-01
  3.2240629e-01
 -7.6529090e-03
  1.4250698e+00
 -1.8435528e+00
  1.0525831e+00
 -3.8454902e-01
 -1.2361255e+00
 -4.8906949e-01
 -1.1878011e-01
  4.7924895e-02
  4.1872096e-01
  3.0779054e+00
  9.1365993e-01
 -1.3637320e+00
  7.1613252e-01
 -8.2985148e-02
  1.8391719e-01
  2.4019971e-03
  4.1580525e-01
 -7.0430599e-02
  2.9168066e-01
 -1.8802020e-01
  9.1971761e-01
 -1.6672841e+00
 -4.4859919e-01
  9.2471011e-02
  8.0164056e-03
 -1.0237182e-01
  5.3514993e-01
 -1.3051903e-01
  8.1196679e-03
  1.1644957e+00
 -1.0890846e-01
  1.4958332e-01
  1.1303791e-01
  3.7818658e-01
 -1.8165320e-03
 -1.1896529e-02
 -1.1287311e-01
  2.1012448e-02
 -1.6199399e+00
  6.2253052e-01
 -6.6907513e-01
  7.0105648e-01
  6.6117868e-02
  1.7561053e-01
  5.4653015e-02
 -6.8265456e-01
 -1.7074158e-02
  1.6882814e+00
 -2.9460463e-01
 -1.1130159e-01
 -2.0631115e-01
 -1.2001369e+00
  1.6974711e-01
  1.0239419e-01
  4.8638461e-03
  2.6626378e-02
  2.4230810e-01
  6.8884557e-01
 -3.5097194e-01
 -1.3514420e-01
 -8.8648491e-02
  3.1974727e-01
  6.6563860e-02
 -1.5112488e-01
 -3.0320233e-01
  6.6640126e-03
 -2.0579049e-01
  1.3346803e-01
 -4.7279909e-02
  1.3931669e-01
 -4.7361383e-01
  8.8540837e-02
 -8.9766896e-01
  1.1290090e+00
  1.3456234e-01
  1.1451250e-01
  5.2943867e-02
  7.5802237e-02
  6.4657331e-01
 -5.2914542e-01
  4.7350717e-01
  5.1339213e-02
 -5.6163651e-01
 -2.5596920e-01
 -1.0930980e-01
 -5.3353268e-01
  6.7604855e-02
  3.1649470e-01
  2.4567779e-02
  6.1521600e-03
 -6.1092561e-04
  4.6795052e-02
  5.8298755e-01
 -3.0799318e-02
  1.1119527e-01
 -1.7504776e-01
 -1.5596341e-01
 -6.1442066e-02
  5.4949749e-01
  2.1143487e-01
  2.3245147e-01
 -3.0688362e-02
 -3.5434559e-02
 -7.9810629e-03
  9.3224064e-02
 -1.4573573e+00
 -7.3129393e-02
 -1.9721717e-01
 -3.9177299e-01
 -9.7038992e-02
 -5.8603447e-02
  4.9101278e-01
 -1.0892107e-01
 -2.3906825e-01
 -3.8671222e-01
 -5.3287499e-02
  3.0088332e-01
 -3.3200976e-01
  2.7684632e-01
 -7.9979718e-02
 -7.8699037e-02
 -1.8238589e-01
 -4.9596214e-01
  3.9270914e-01
  1.2811863e-01
 -4.1779491e-01
  4.1088250e-01
 -1.3980516e-02
 -8.5900098e-01
 -2.8149072e-02
  3.9862794e-01
 -1.3988987e-02
 -2.3032683e-01
  1.0092046e-01
 -4.5664293e-01
 -8.9534335e-02
  1.0963628e-03
  1.2813498e-02
 -2.2465864e-01
  2.6886028e-01
  7.2010420e-02
  1.5020844e-01
  4.4454509e-01
 -1.6042904e+00
 -4.5606220e-01
 -1.9076211e-02
 -3.5393551e-02
 -1.8135126e-01
  3.4726024e-01
 -1.2716776e-01
 -1.0436356e-01
 -8.0781400e-02
  2.8520474e-01
 -1.2792177e-01
  5.5688906e-02
 -1.1638764e-01
 -1.4758433e-01
 -1.6677044e-02
 -4.7396934e-03
 -3.1019336e-01
 -7.9236634e-02
 -3.0371396e-02
 -3.0235016e-01
  6.1096650e-02
 -1.1030961e-01
  1.9283263e-01
 -3.7688005e-01
 -2.3869586e-01
 -3.4630187e-02
 -3.8833588e-01
  2.9751843e-01
 -3.1101422e-02
  1.8197344e-01
  4.4051829e-01
 -4.4891477e-01
 -7.4608982e-01
 -3.4738320e-01
  1.4388877e-01
  1.7632308e+00
  1.2216412e-01
  6.3306630e-02
 -1.6989040e-01
 -7.0476271e-02
  7.5238848e-01
  1.8741450e-01
  9.8447198e-01
  1.4273551e-01
  1.3911000e-01
  4.1195095e-01
  4.1024890e-02
 -1.6323130e-01
 -2.2281098e-01
 -1.4179005e-01
  5.1351771e-02
 -2.2203207e-02
  3.1294483e-01
 -9.0402141e-02
  1.6025318e-02
 -3.1685433e-01
  1.8570942e-01
  9.9271432e-02
  8.9144014e-02
 -5.2430445e-01
 -1.4492580e-01
 -8.5840690e-01
  4.4466432e-02
 -3.3865485e-01
 -3.9921820e-01
  1.4392366e-01
  3.3520308e-01
 -7.9040653e-01
 -3.1681192e-01
  1.5557022e-01
  9.9324989e-01
 -1.1064783e-01
 -4.4378214e-02
  3.8139313e-01
  1.3897257e-01
 -3.6417964e-01
  8.2761630e-02
 -4.1778561e-02
 -2.3417464e-01
  1.4542666e-01
  3.8095081e-01
 -1.6522017e-01
  9.9880388e-03
 -5.6344354e-01
 -4.1183203e-01
  5.8202529e-01
 -1.0346676e-01
  2.5436071e-01
  5.7089437e-02
  6.2070567e-02
 -1.6617656e-01
  1.2386327e-02
  1.3831283e-01
 -4.3459344e-01
 -1.9326189e-01
 -1.1459309e-01
 -6.2754072e-02
  6.2517442e-02
 -2.7394679e-01
 -2.9314700e-01
  8.1948006e-01
 -2.3840144e-01
  4.1391453e-01
 -3.9331228e-01
 -4.4669417e-01
 -2.2023747e+00
 -2.6260298e-02
 -1.6942469e-02
  2.1958023e-01
  5.4357491e-02
 -5.8931386e-01
 -1.9793695e-01
 -7.5713377e-03
 -2.1736020e-01
  3.3205578e-01
 -1.3017599e-01
 -4.3412718e-01
 -3.8072908e-01
  3.8096908e-01
  9.4989486e-02
  9.6916303e-02
 -9.5000118e-01
  2.1178441e-03
 -3.4472093e-01
  3.2512262e-01
  1.1051930e-01
 -2.6961836e-01
 -1.5613179e-01
  6.3724774e-01
  1.1831763e-01
  7.5887114e-01
  3.9937966e-02
  2.3559500e-01
 -1.7287380e-01
 -2.1939810e-01
 -1.2276491e-02
 -2.3078184e-01
 -5.0600927e-02
 -2.6477139e-02
 -1.1545572e-01
  1.9080718e+00
  2.8528788e+00
 -1.0556843e+00
  3.9119557e-01
 -1.0043505e-01
 -2.1012764e-02
 -5.3414460e-02
  1.2680170e-02
 -2.0514819e-01
  2.7107835e-01
 -1.4264674e-01
  7.3171228e-01
  1.7584465e-01
  7.7143556e-01
  1.1494929e-01
 -3.3227921e-01
 -3.5224512e-01
 -1.2737533e+00
 -1.6702621e-01
 -1.0531157e-01
 -2.0364161e-01
  1.1731714e-01
  1.0409666e-01
 -4.3031100e-02
  9.1389902e-03
 -1.4499164e-01
  6.6320741e-01
 -7.9465300e-01
  6.8040326e-02
  2.1495277e-01
  1.2164827e-01
 -3.1540391e-01
  6.8180037e-01
 -4.1280035e-02
 -3.8852807e-02
 -1.2518134e+00
  1.8885598e-01
  2.9386589e-01
  3.0378175e-01
  2.0838028e-01
  2.5235131e-01
 -2.5313339e-01
 -3.4935620e+00
  8.9980006e-02
  6.5684086e-01
 -5.4934692e-01
 -9.8283075e-02
  4.5545336e-02
 -7.9399347e-02
 -2.9688603e-01
 -5.3722280e-01
 -1.2794967e-01
  2.9561520e-01
 -8.0493879e-01
 -2.7868706e-01
  8.8679332e-01
  2.7861917e-02
 -1.7682892e-01
  1.9375654e-01
  1.1283595e-01
  1.0061279e-01
 -3.4373435e-01
  3.5682168e-02
 -3.0102575e-01
  2.3348896e-02
 -4.0078667e-01
  3.7253678e-01
  3.3363333e-01
  2.8589800e-01
  8.1956494e-01
 -1.6931206e+00
 -3.6111178e+00
  7.7256478e-02
 -1.3868462e-02
  3.4628344e-01
  7.8685060e-03
  1.1559352e-01
  3.5563633e-01
  4.3375823e-01
 -6.8552576e-02
  1.0445051e-01
 -2.3079464e-01
  7.7515272e-03
  1.7109741e-01
  5.3269472e-02
 -1.0300142e+00
  2.1093932e-01
  2.4356522e-01
  2.3953006e-02
  8.0998264e-02
  2.6462200e-01
  1.7154132e-01
  1.0380341e-01
  1.0073483e-03
  2.1470237e-01
  2.9230824e-01
 -2.5095460e-01
 -1.7198262e-01
 -5.3411022e-02
 -3.0124521e-01
 -1.1978781e-02
 -2.5217381e-01
 -4.2960611e-01
 -1.3522023e-01
 -1.3277423e-01
  1.3951004e+00
  7.0300037e-01
 -2.4453695e-01
 -1.9425982e+00
 -5.7808197e-01
 -8.9579590e-02
  4.2382005e-01
 -9.9632323e-02
  2.2647147e-01
 -1.1376154e+00
  6.7493117e-01
  3.5508264e-02
  2.5937513e-01
 -4.6117944e-01
  2.0592037e-01
 -4.7137350e-02
 -1.5118971e-01
  2.6929885e-01
 -3.0184525e-01
 -3.7244372e-02
 -4.4000557e-01
 -1.2257658e-01
 -2.2922866e-01
 -2.2356221e-01
  6.8943357e-01
  4.5889100e-01
 -6.3665682e-01
 -3.0590808e-02
 -1.0974737e-01
  4.4672668e-01
 -5.2286130e-01
 -3.3987027e-02
  2.9424593e-01
 -4.4477305e-01
  4.3363473e-01
 -1.6049911e+00
 -2.8337920e-01
  1.5798965e-01
  3.0681372e-01
  5.1940501e-01
  7.0088473e-03
 -6.8551354e-02
 -3.9657146e-02
  8.5368104e-02
 -3.1849977e-02
 -3.2218695e-01
  2.1971911e-01
 -6.4726792e-02
  2.6341107e-01
 -2.1212135e-01
  9.2372939e-02
 -6.7393765e-02
  3.5025069e-01
  1.0212795e-01
 -4.3236324e-01
  4.7366312e-01
  2.6411438e-01
 -1.3072304e-01
 -2.9842666e-01
 -7.9420999e-02
 -2.9684227e-02
 -1.7084305e-01
  3.2614210e-01
  6.6431083e-02
  7.0013456e-02
 -5.3216225e-01
  2.5497773e-01
  1.8819728e+00
 -4.2885995e-01
 -2.3557118e-01
 -4.2182341e-01
  1.3074785e+00
 -1.1306008e+00
  3.4284636e-01
 -4.7520569e-01
  5.7972725e-02
  4.7506353e-01
  3.6848193e-01
  1.0393715e+00
 -1.3448125e-01
  2.7872309e-02
  1.0123732e-01
  2.6327494e-01
  1.2773685e-01
 -2.9448193e-01
  3.7433371e-01
  7.0471148e-04
  2.8883865e-01
  6.2390262e-01
  1.2877386e-02
 -3.6136788e-01
 -1.4012191e-01
 -3.2181635e-01
  4.4019464e-01
 -3.1499866e-01
  2.7252564e-02
  1.1197020e-01
  5.1806107e-02
  1.2134731e-01
  5.8341151e-01
  6.7228317e-02
 -6.1729718e-02
  2.3260880e+00
 -1.2639042e+00
  1.6739777e+00
 -2.3281572e+00
 -2.9284339e+00
 -3.2153847e+00
 -2.9453869e+00
  1.8643572e+00
  1.5594381e-01
  2.0935254e+00
  1.1722801e+00
 -7.0036215e-01
  1.9090095e+00
 -1.9769697e+00
 -1.7338159e+00
  2.4463744e+00
 -2.2416739e+00
  1.2666582e+00
  1.5950574e+00
  2.9768865e+00
 -1.9497707e+00
  1.6278515e+00
  2.0668726e+00
  2.0900495e+00
 -1.9535971e-01
  2.9786687e+00
 -2.1179676e+00
 -4.3686113e+00
  1.8970606e+00
 -1.5369078e+00
  2.3360410e+00
  1.9424609e+00
 -2.0113316e+00
 -1.8546480e+00
 -2.1453705e+00
 -1.4568427e+00
 -2.1985853e+00
  1.8617733e+00
 -1.0924048e+00
  1.8348700e+00
 -2.4976709e+00
 -2.1418304e+00
  2.0009592e+00
  1.0033870e+00
  2.1021452e+00
  1.3381990e+00
 -1.8215039e+00
 -1.7717156e+00
  2.1924806e+00
  3.5907166e+00
 -2.1686130e+00
  1.6428887e+00
  2.1167824e+00
 -2.1667171e+00
  1.9832234e+00
 -2.5139270e+00
 -1.9167129e+00
  2.2589595e+00
 -2.0548296e+00
 -2.5301135e+00
  3.5192008e+00
 -1.0605296e+00
  2.0180802e+00
 -1.9378263e+00
 -3.1770427e+00
 -6.5792754e-02
 -3.1040652e+00
  1.3609661e+00
 -4.9108768e-01
  3.3596334e+00
  7.2104220e+00
 -6.2071182e-02
  1.4015056e+00
 -1.6284755e+00
 -1.9244183e+00
  5.9275860e-01
 -2.3166697e+00
  8.7151116e-01
  4.9998879e-01
  3.9054935e+00
 -4.1891556e+00
  8.3563989e-01
  2.2469094e+00
  3.1762760e+00
 -2.8358823e-01
  4.0541520e+00
 -1.2821006e+00
 -1.3607825e+00
  4.2118802e+00
 -2.5014851e+00
  2.0549133e+00
  1.7788091e+00
 -2.9323854e+00
 -4.1737900e+00
 -9.1035807e-01
 -3.0440617e+00
 -2.6640401e+00
  2.9600952e+00
 -1.7477353e+00
  2.7225518e+00
 -3.3471456e+00
 -3.1746960e+00
  2.0620494e+00
  1.2853912e+00
  9.6329045e-01
  9.0165162e-01
 -2.2486534e+00
 -5.6643313e-01
  2.5701573e+00
  2.6198022e+00
 -1.0685991e+00
  2.4298754e+00
  7.7001017e-01
 -2.4976892e+00
  3.4801190e+00
 -2.0165040e+00
 -1.8213357e+00
  3.6426446e+00
 -1.6517115e+00
 -1.8583686e+00
 -1.2736360e+02
 -1.2610912e+00
 -9.9536765e-01
  2.2831566e+00
  3.0171406e+00
 -8.8053638e-01
 -4.1290812e+00
  1.4659020e-01
  5.1194191e-01
 -5.0176360e-02
  2.4891753e+00
  3.4672883e-01
  1.4062524e+00
 -4.9995300e-01
 -2.4622466e-01
  4.3432498e-01
 -1.4207628e+00
 -3.4021375e+00
 -1.4889127e+00
  7.6299834e-01
 -3.4097362e-01
 -1.2949584e+00
 -1.4432232e+00
  2.1818545e-01
 -5.4815644e-01
  5.8327109e-01
 -8.0284756e-01
  1.2849489e+00
  1.6995226e+00
  9.3885761e-01
 -5.7691979e-01
  3.7196955e-01
 -3.2052311e-01
  9.1883886e-01
  1.4986804e-01
  3.1477636e-01
  9.3883479e-01
 -1.9048290e-02
 -1.3286582e+00
 -2.1114588e+00
 -4.1947952e-01
 -9.6663934e-01
  1.8276966e+00
  3.4375455e+00
  2.6763058e+00
  3.0224564e+00
  9.7476524e-01
  2.4235063e+00
 -8.3872938e-01
  1.0058238e-01
  1.5454687e+00
  1.6490868e+00
  9.1564524e-01
 -1.1316150e+00
  1.2095793e+00
  9.7370386e-01
  1.4351610e+00
 -2.9741952e-01
  4.1503830e+00
  1.8337873e-01
 -1.0824208e+00
  9.0778494e-01
  9.0304464e-01
 -1.0771489e+00
 -7.7831066e-01
  8.0126983e-01
 -1.8154334e+00
 -8.9455920e-01
  9.5531486e-02
 -8.9665139e-01
 -2.6722720e+00
 -9.9293524e-01
  6.8533039e-01
  1.1830131e+00
  2.2104039e+00
  5.7476181e-01
  1.4165649e+00
  9.7876793e-01
  6.7999011e-01
 -6.5664792e-01
  3.3088163e-01
  7.0744348e-01
 -8.2359916e-01
  2.1084299e+00
  2.9212165e+00
  1.1726495e+00
 -1.5805024e-01
 -9.0464652e-02
 -1.3830338e+00
  2.1801643e+00
  6.8266732e-01
 -1.7449048e+00
 -6.6749167e-01
 -1.9083477e+00
 -2.1296690e+00
  1.4706039e+00
  1.4660660e+00
  1.4698722e+00
  2.5175581e+00
  5.3348315e-01
  3.8587528e-01
  2.9911995e-01
  1.5629165e+00
 -3.1938884e-01
 -2.0719428e+00
  2.9325810e-01
  2.0588911e+00
 -1.7586128e+00
 -7.6286525e-01
 -6.6697097e-01
 -2.1619458e+00
  1.7845580e-02
 -1.5874717e+00
  3.6083372e+00
  2.8557921e-02
 -2.2663644e-02
 -3.3665438e+00
 -2.7206926e+00
 -1.9945899e+00
 -1.7161913e-01
 -3.4290814e+00
 -1.3287603e+00
 -2.1988876e+00
 -3.7723651e+00
 -3.5921764e+00
  1.1936626e+00
 -8.2084692e-01
 -4.9610753e+00
 -2.4395342e+00
  2.8388962e-01
  1.1711406e+00
  1.7897466e-01
  1.8422064e+00
 -5.8623463e-01
  1.0634631e+00
 -8.9361745e-01
  1.0772627e-02
 -1.9738933e+00
  7.7445281e-01
 -1.2094358e-01
 -4.5255369e-01
 -5.1206321e-01
 -4.9050236e-01
 -5.5361235e-01
 -1.3546144e+00
  1.3920279e+00
  2.4836478e+00
  1.0034406e+00
  3.8581811e-02
  8.2850325e-01
 -9.6341914e-01
  1.8068990e+00
 -6.5026730e-01
  7.1603745e-02
  1.5553123e+00
 -3.8375640e+00
 -3.1376352e+00
 -1.2322242e+00
 -1.4486488e+00
  1.9212216e-01
  9.6089220e-01
 -2.0672965e+00
 -6.4884305e-01
  6.5279794e-01
  7.7077724e-02
 -7.9940987e-01
 -1.7154998e+00
 -1.9822810e+00
 -2.0460231e+00
  1.3283576e-01
 -1.4133421e+00
 -3.2836718e-03
 -4.4546089e-01
 -7.0177484e-01
 -1.9588902e+00
  5.3025937e-01
  9.7460127e-01
  7.7867383e-01
  1.1055809e+00
  1.5987002e+00
  9.6254528e-01
 -3.0658075e-01
  4.7516216e-02
 -9.9854583e-01
 -1.2150358e+00
 -2.0080926e+00
  1.2983268e+00
  1.7924089e+00
  1.2323321e+00
 -1.5067378e-01
  1.1427318e+00
 -1.4525185e+00
 -3.6678988e-01
  7.5432163e-01
 -3.2414979e-01
 -6.0321778e-01
 -7.7514243e-01
  1.4716957e+00
  7.9078144e-01
  2.5435996e+00
  3.7101105e-01
 -8.5289812e-01
  2.2889426e+00
  7.9662251e-01
  4.7452039e-01
 -4.3656129e-01
 -1.1699600e+00
 -1.1739299e+00
 -5.1314175e-01
  6.1306310e-01
 -2.7116768e+00
 -5.6507564e-01
 -1.8636537e-01
  9.6152627e-01
 -1.4127123e+00
  5.0141889e-01
 -3.7313852e-02
  8.7120986e-01
  9.0372044e-01
 -7.8021902e-01
  2.2408323e-01
  2.3600199e+00
  4.8862181e+00
  3.3385904e+00
  1.9417473e+00
  1.5553784e+00
 -3.3279771e-01
 -9.4968818e-02
 -2.4394765e+00
  2.7529630e-01
 -1.2255875e+00
  1.1843117e-01
  1.5742719e+00
 -6.7127156e-01
  1.8042096e-01
 -2.8654465e-02
  1.6779506e+00
 -2.7029035e+00
  5.6453162e-01
  1.2552471e+00
  1.0649092e-01
 -3.9935353e-01
  2.3242459e-01
  3.7876451e-01
 -3.9599034e-01
 -1.1789341e-01
 -1.2764555e+00
 -6.6724795e-01
  1.3087353e-01
  1.6686109e-01
 -7.7756208e-01
 -8.4527308e-01
 -2.5550386e-01
 -6.4403135e-01
 -6.8787986e-01
  2.5783416e-02
 -8.4083699e-02
 -2.1812117e+00
 -6.5584475e-01
 -4.8657427e+00
  9.7201824e-01
 -2.3270943e+00
 -1.5125213e+00
 -4.6746653e-01
  1.7362179e+00
 -3.2915920e-01
  1.0865959e+00
  5.7119375e-01
 -9.7867739e-01
 -1.1570050e+00
 -8.1923318e-01
  2.1754375e-01
  1.1315624e+00
 -3.3853203e-01
 -8.2479316e-01
  1.3517639e-02
 -1.6444073e+00
  3.5719624e-01
 -1.0399492e+00
 -4.6178728e-01
 -7.9483116e-01
  1.2440667e+00
 -3.6695853e-01
  6.9827962e-01
  8.7801152e-01
  3.3611986e-01
 -2.0838785e-01
  2.2593993e-01
  9.5154816e-01
  3.8653451e-01
  3.8301760e-01
  3.1273803e-01
 -7.2274685e-01
  2.8381538e+00
  3.1254907e+00
 -5.3727255e+00
 -3.3439245e+00
 -1.7470537e+00
 -2.4232068e+00
  1.6894485e+00
  1.0044497e+00
 -4.8416221e-01
 -5.1159036e-01
  7.4658358e-01
  3.4629858e-01
  2.7455387e-01
  3.0399168e-01
 -2.4723451e+00
  1.0858176e-02
  1.6936411e-01
  1.1903905e+00
 -2.4818196e+00
  9.9659669e-01
  7.5711095e-01
  6.0261667e-01
 -6.2067473e-01
 -6.6098350e-01
 -1.1149023e-01
 -5.0442153e-01
  1.2531129e+00
 -6.5281242e-01
  2.4810268e-01
 -2.4439866e-02
  1.0042431e+00
 -5.4936612e-01
  4.4375819e-01
  1.9655795e-01
 -1.1091707e+00
  1.0692474e+00
 -5.3814369e-01
  6.4057273e-01
  3.2629222e-02
  7.9316247e-01
  5.6135494e-01
  1.6713827e+00
 -3.6741853e-01
 -1.1721840e+00
 -1.0238534e+00
 -1.0350131e+00
  1.8054074e+00
  1.1159054e+00
 -7.0689678e-01
 -6.2763858e-01
  1.0716914e-01
 -2.1019671e+00
  5.1310802e-01
  4.6861419e-01
 -4.6302336e-01
  1.2162231e+00
  5.1502649e-02
 -6.1764908e-01
 -5.9329458e-02
 -1.2645613e+00
 -6.3603389e-01
 -1.3777136e+00
  3.0985487e-01
 -1.2643141e+00
 -4.7425488e-01
 -5.5538994e-01
  1.3647162e+00
 -2.6063502e-01
  2.9349174e-02
  2.9349174e-02
  2.9349174e-02
  2.9349174e-02
  2.9349174e-02
  2.0425856e-01
  2.0425856e-01
  2.0425856e-01
  2.0425856e-01
  2.0425856e-01
  1.6406114e-01
  1.6406114e-01
  1.6406114e-01
  1.6406114e-01
  1.6406114e-01
  5.0968606e-02
  5.0968606e-02
  5.0968606e-02
  5.0968606e-02
  5.0968606e-02
  2.4741443e-02
  2.4741443e-02
  2.4741443e-02
  2.4741443e-02
  2.4741443e-02
  1.6266836e-01
  1.6266836e-01
  1.6266836e-01
  1.6266836e-01
  1.6266836e-01
  8.9403339e-02
  8.9403339e-02
  8.9403339e-02
  8.9403339e-02
  8.9403339e-02
